-1.039616 -0.991968 0.092567 0.162516 -0.242874 -0.454917 -0.730343 0.283530 0.265530 0.827245 -0.353258 -0.388555 0.777633 -0.230424 -0.729502 0.219291 1.037297 -0.304905 0.171861 -0.371960 
-0.224657 0.254834 -0.231939 1.102878 0.562034 0.161025 -0.640478 0.329722 -0.261210 0.364786 0.105924 0.164357 -0.359386 -0.242067 0.641003 -0.164847 0.528875 1.187140 1.448630 0.011174 
-0.655443 0.939967 0.105646 0.756084 0.386328 -0.725313 0.429435 0.781698 -0.326947 -0.205589 -0.123977 0.337319 -0.493922 0.021142 -0.075177 -0.424173 -0.398275 1.002935 0.963941 -0.990939 
0.739724 0.058613 -0.426871 -0.108809 1.121419 0.117271 -0.301398 -0.886756 1.182809 -0.730074 -0.354564 0.253970 -0.385044 1.299680 0.236991 0.352010 0.598871 -0.785654 1.070563 0.395955 
0.761421 -0.750066 -1.224557 0.624417 0.711604 0.382546 0.638471 0.356392 0.896838 1.084762 -0.357892 0.178872 -0.353991 0.415287 0.670119 0.688222 0.395643 0.990656 -0.428962 -0.443056 
0.219623 -0.393552 -0.609230 -0.368987 -0.647577 0.320001 0.745417 -0.865016 -0.062722 0.489637 -0.051885 0.533735 0.175729 1.190089 0.860805 0.731738 -0.196326 -0.277707 0.225599 -1.035190 
-0.840304 -0.724251 -1.029227 0.147945 -0.912990 0.570869 1.016632 -0.577891 -0.627769 -0.261065 1.223139 -0.258878 -0.526948 0.487020 -0.432091 -0.348612 0.701127 -0.308176 0.418680 0.280048 
-0.173995 0.264269 -0.076375 -0.477272 1.016426 0.103600 -0.599788 0.079081 -0.365860 -0.114975 0.646844 0.751154 -0.527644 -0.513891 -0.541145 0.191233 -0.300032 0.841653 0.457756 0.276249 
-0.685070 -0.424682 -0.323576 -0.555336 -0.787768 0.848630 -0.139329 -0.893452 0.992918 -0.398537 -0.575428 -0.490462 -0.682006 -0.692272 -1.103673 -0.442632 -0.441083 -0.293841 0.674823 -0.129033 
-0.261740 -0.407929 0.520074 0.899091 0.517983 -0.519505 0.366592 0.875429 -0.342992 0.661324 -0.755938 -0.544309 0.533201 0.691555 0.256681 -0.119404 1.183431 0.612950 0.071436 0.668066 
-0.019971 0.266088 0.979204 0.950251 0.962567 -0.372810 0.082872 -0.093085 -1.104397 -0.096428 -0.643766 0.509390 0.219094 0.312212 0.514863 -0.305270 0.895219 0.261436 0.294954 -0.218145 
0.431315 0.187793 0.064146 -0.769148 0.711940 0.042327 0.351228 0.512891 -0.371596 0.766667 0.124213 0.766701 0.641814 -0.832711 -0.263031 0.887761 -0.437850 -0.093133 -0.042171 0.119078 
0.289874 0.215368 -0.122246 0.622119 -0.141778 -0.602811 0.990331 -0.868001 0.075954 -0.265943 -1.218912 -0.823005 0.660835 0.258301 -0.620902 -0.445823 0.268949 -0.090492 0.343877 0.900904 
0.124209 1.358275 -0.714530 -0.716233 0.436673 0.304502 -0.558721 -0.378669 -1.166979 -0.303211 1.240108 0.884416 -0.095031 -0.439104 0.224012 -0.399982 -0.220205 0.357462 0.668347 -0.137855 
-1.137147 -0.367982 -0.437748 1.089293 -0.530794 0.681091 -0.691146 -0.291936 0.157638 -0.738198 0.727176 -0.436818 1.338610 -0.490175 -0.739945 -1.000927 -1.371427 0.181782 1.160545 0.727670 
0.341660 0.276250 0.447283 0.379536 -0.673650 0.237806 -0.507726 -0.319713 0.570600 -1.035933 1.126017 -0.479778 0.383702 0.152300 -0.270331 0.762378 -1.137432 -0.310209 0.776925 1.388405 
0.686371 -0.009543 0.552264 -0.319715 -0.290973 0.097997 -0.337546 0.280465 -0.145069 -0.579895 0.069603 -1.076004 0.018500 -0.191812 0.120576 0.000700 -0.701262 -0.914207 0.478442 0.039291 
0.154458 0.758217 0.061510 0.455116 0.351603 0.920308 -0.034359 1.196054 -0.238290 0.010639 0.124190 -0.370135 -0.140319 0.139187 1.011866 -0.564695 0.421985 -0.144695 0.892415 0.218335 
0.372921 -0.404615 -0.310485 0.276784 -0.248789 0.850932 -0.421832 1.058849 -0.284484 0.771789 0.003879 0.061328 0.728113 -1.017940 -0.567740 0.346409 1.125564 0.232884 0.476643 0.318870 
0.755697 0.181179 -0.673863 0.422178 -0.887767 -1.004964 -0.004818 -1.064216 -0.728189 1.197029 0.870769 0.110841 -0.118082 -0.857347 0.377760 -0.235924 -0.188376 -0.369218 0.013731 -0.642116 
-0.328957 -0.149513 -0.090000 0.357762 -0.028506 -0.481542 0.626912 -0.327171 0.723306 -0.320182 -1.347058 -1.317997 0.445542 0.573507 -0.221911 -0.907859 -0.388904 -0.583105 0.523488 -0.984500 
-0.949609 -0.219653 -0.203930 -0.006587 -0.054054 -0.868308 -0.437139 0.549106 0.704207 -0.260220 0.256770 -0.212084 -0.440737 0.996715 0.243401 -0.855423 0.511654 -0.689758 -0.494949 -0.163596 
-0.099973 0.422431 0.045041 0.024428 -0.842934 -0.911040 0.927119 -0.177461 0.184806 -0.231620 0.528434 -0.608955 0.525047 0.870911 -0.149752 0.754053 0.671416 -0.223573 -0.513466 -0.198026 
0.493863 0.881546 -0.622401 0.616507 0.310287 -0.113404 -0.448731 0.470504 -0.667216 -0.622345 -0.307129 0.607231 -0.901284 -0.658420 -0.064519 0.063618 -0.506359 0.329772 -0.403457 0.471168 
-0.584182 1.347404 -0.983136 -0.755346 0.171827 0.573932 0.865196 -0.186177 -0.140204 0.280964 0.977215 0.638927 0.271908 0.427233 0.330245 -0.737448 -0.270837 -0.351460 0.266899 0.411104 
0.168283 0.082327 -0.522087 -0.407181 0.577736 -0.649633 0.535730 -0.349603 -1.186128 0.292133 -0.438456 1.591838 -0.157787 0.282347 1.066797 -1.010622 0.152770 1.001726 0.086846 -0.918220 
-0.217420 0.139200 0.586618 -0.758976 0.247444 0.959464 -0.017500 -0.579808 -0.678880 0.392269 -0.646548 -0.169601 -0.565396 0.821354 1.197384 -0.482467 -0.525621 -0.357537 0.198585 -0.525369 
0.108382 -0.434481 0.708092 -0.110128 -0.236614 -0.317665 0.454750 0.122894 0.255328 0.277973 0.830268 0.513069 -0.373473 0.864271 0.184013 -0.699701 0.303413 0.684460 -0.164914 -0.228499 
-0.630132 0.605925 0.097757 -0.266612 -0.970809 -0.541377 0.638642 0.001576 0.241817 0.860047 -0.125036 0.611512 -0.597791 -0.179745 -0.562422 -0.517758 -0.561153 0.890191 -0.194208 -0.928882 
-0.660381 1.395178 -0.223672 -0.451931 0.686208 -0.661855 0.657325 1.198950 -0.543540 0.252703 -1.103580 0.047538 -0.560492 -0.107042 1.057631 0.287852 0.773091 -0.238302 1.121783 0.295932 
-1.017036 -1.459279 -1.036613 0.779353 -1.262203 0.136270 1.055227 -0.592264 -0.392100 -0.394244 0.206732 0.457975 0.196293 0.205231 0.399637 -0.106547 -0.335027 -0.241122 0.215556 0.961410 
0.606340 0.407284 -0.451765 -0.689485 0.047989 -0.839056 0.703327 0.282613 0.845640 -0.420094 -1.139219 -0.084000 0.067891 0.430009 0.956894 1.147246 0.099905 1.000997 -0.003138 0.156130 
0.897195 0.210898 -0.303590 1.050770 0.494259 0.804627 0.247780 0.324538 -0.520113 1.010524 0.091763 0.076553 -0.720581 0.205456 -0.568219 -0.943241 -0.404843 -0.674292 0.359763 0.704742 
-0.024414 0.405130 0.071784 0.647276 -0.899142 -0.442220 0.506861 -0.208422 -0.564136 -0.545728 0.564563 0.803717 -0.014927 0.672326 -0.479555 -0.822275 -0.099375 0.579926 0.820060 -0.809915 
0.381604 0.796549 0.629469 0.105668 -0.106509 0.830466 1.003084 0.483018 0.571587 0.234642 0.079938 -0.161704 0.968192 0.559196 -0.157675 0.009328 0.289748 0.532348 -0.516569 0.123046 
0.633020 0.121169 -0.062792 0.414763 0.125575 0.049785 -0.558755 0.309028 0.561068 -0.727519 -1.499100 0.647838 -0.284276 -0.496145 -0.248529 -0.800872 -0.292799 0.310381 0.098374 0.190355 
0.815508 0.438137 0.136983 0.240738 0.220988 0.535688 -0.045526 0.171858 -0.015132 0.575266 0.587934 0.115783 0.267446 -0.354152 0.547017 0.121738 1.173846 -0.050488 0.166445 0.037609 
0.452247 0.123223 0.345104 0.834141 0.089993 -0.260772 -0.573026 0.715169 -0.429667 0.416750 -0.437982 1.291198 -0.278397 0.834305 -0.434933 0.718110 0.265799 -0.072520 0.081115 0.612390 
-0.032105 -1.120148 0.373325 -0.798935 0.054141 -0.284835 -0.398193 0.323090 -0.281671 -0.420379 -1.186699 -0.463454 -0.239083 -0.649622 -0.683751 0.535890 0.905918 0.025984 -0.282543 0.713789 
-0.096099 -0.474420 -1.040379 -0.701872 0.119083 -0.223739 0.774821 -0.256074 -0.271142 0.224042 -0.396448 -1.136821 0.257173 0.921926 0.622665 0.653143 0.951006 -0.588949 0.591057 -1.002376 
0.866534 0.142554 0.849340 -0.447740 0.944785 0.230949 -0.213381 0.529552 0.051401 1.122892 0.090275 0.296060 0.171014 0.661702 -0.501606 -0.750428 0.645079 0.161356 0.936795 0.162833 
0.546627 0.815146 -0.037494 -0.773686 -0.541293 -0.055734 -0.791272 0.525443 0.544344 0.772884 1.390175 0.534324 0.065784 0.688896 0.657180 -0.084358 -0.622002 -0.365800 -0.163570 0.602643 
-0.874906 -0.849245 -0.602308 -0.090294 0.515750 -0.479784 -0.225966 0.827965 0.590458 0.267675 0.513746 0.191576 0.593477 0.318506 -0.369522 -0.789870 -0.483166 -0.232729 0.313387 0.378815 
0.496876 0.812335 -0.510430 -0.619849 -0.900368 -0.819091 0.958138 0.165807 -0.608711 1.158743 1.033208 -0.342950 -0.739855 -0.655156 -0.551416 0.162680 -0.708814 0.056507 0.384047 0.326964 
-0.405938 0.153930 -0.171201 -0.612054 0.421643 1.007043 0.432078 -0.206116 0.883686 0.774575 0.862317 0.023081 -0.771159 -0.052583 0.152884 0.002482 -0.403657 0.547248 0.081715 0.382775 
-0.034315 -0.655843 0.394540 -0.683431 -0.178000 0.345752 0.746858 -0.365850 -0.637253 0.338445 -0.162237 1.288213 -0.065222 0.032919 -0.186323 -0.341514 -0.900948 0.695057 -0.436986 1.046354 
-0.673483 0.000822 -0.273239 -0.724541 0.855396 0.343998 -0.936093 0.657117 -0.094237 -0.646846 0.405318 -0.206031 0.154379 0.317091 0.901744 -0.355189 -0.649934 -0.423815 -0.674552 -0.309227 
-0.473099 0.507317 0.484657 -0.191300 0.561189 -0.408610 -0.593361 -0.038571 0.952060 0.144765 0.024340 -0.022564 0.155528 0.817233 0.020354 -0.863160 -0.627545 0.123361 0.954334 0.586321 
-0.688052 -0.450438 0.265631 0.633323 -0.086911 0.322919 1.008792 -0.851279 1.082130 -0.479080 0.924746 0.046337 -0.393203 0.405992 0.407462 0.381677 0.718008 0.631247 0.462784 0.117986 
-0.078769 0.006067 0.058302 -0.479743 0.481033 -0.097767 0.839500 -0.624698 1.002989 -0.291941 0.017557 0.377043 0.623895 -0.282448 0.069721 -0.619233 0.998906 0.402884 0.248259 -0.497243 
1.289533 0.287492 -1.067370 -0.515367 0.604256 -0.587803 -0.678406 0.413558 0.564131 0.324437 0.639364 0.119712 -0.463373 0.690698 0.398359 -0.756530 -1.004366 0.151007 0.361969 0.103550 
0.657090 -0.575828 -0.256139 0.631160 -0.281220 0.269713 0.143825 -0.934850 0.862347 -0.801368 0.696296 -0.407923 -1.216994 0.802237 0.969446 0.401888 -1.412857 0.268276 -0.174096 0.638156 
1.117523 0.197747 0.409164 -0.681726 0.016038 -0.537790 0.874634 0.002082 1.570908 -0.309072 -0.680898 0.790956 0.504686 -0.594445 -0.820043 0.670951 -1.140310 0.880959 0.584755 0.115259 
-0.397945 -0.671862 0.103068 0.103715 0.328895 0.032970 0.076945 -0.495801 0.911457 0.518708 0.039215 -0.191786 -0.296959 0.683179 -0.509628 -0.841810 0.762726 -0.087210 -0.481305 0.766777 
-0.874032 -0.676070 -0.653813 -0.195377 0.721190 0.464226 0.353237 0.614283 -0.203492 -0.159203 0.055529 -0.745898 -0.700767 0.514258 -0.179351 0.651374 0.480385 -0.307905 0.064574 0.917313 
0.675479 0.666924 0.738822 -0.317734 -0.253242 -0.630983 0.117756 -0.392551 1.125161 0.695925 0.073632 -0.056471 -0.399924 0.598963 -0.494904 0.092084 -0.670503 1.344816 -0.609503 -0.243690 
0.482728 0.836156 -0.491431 -0.467897 -0.161146 -0.208581 -0.533373 0.780050 0.421943 0.280198 0.530948 0.307722 0.527220 -0.555436 -0.501676 0.934684 0.233363 -0.620301 0.585287 -0.562412 
1.002890 0.655998 -0.121333 -0.092314 -0.623797 -0.304493 -0.936509 0.676040 0.400162 -0.271697 0.612933 0.246395 0.633381 -0.721799 -0.059648 0.750652 -0.393771 0.475073 -1.098033 0.303418 
0.631168 1.208211 0.147512 0.823039 0.019939 -0.091432 -0.260644 -0.561020 -0.494854 1.227123 0.811810 0.583146 -0.782033 0.475340 -0.229995 -0.012898 0.846472 -0.081186 0.174037 -0.634830 
-0.313062 -0.306135 -0.446894 -0.686746 -0.574894 0.574533 -0.793467 -0.346810 1.079551 -0.216119 -0.226138 0.823481 -0.964333 0.618112 -0.312641 -1.246524 0.424169 1.060652 -0.415181 -0.639825 
0.947712 -1.066230 0.576581 -0.475024 -0.201080 0.080126 0.302278 -0.464969 0.982532 0.936469 -0.027695 -0.890756 -0.890548 1.031897 0.624488 0.507276 0.844847 -0.310783 0.371269 0.584070 
-0.266126 -0.723847 -1.057578 -0.037518 0.028758 0.747772 -0.963209 0.612055 -0.235640 0.923758 0.825356 0.206270 -0.443076 0.330984 0.166595 0.614504 -0.817905 -0.731185 1.009519 -0.316559 
0.477154 0.322855 -0.297731 -0.816427 -0.098191 -0.715833 0.129711 -0.197315 -0.069811 0.716523 -1.383689 -0.274141 -0.965155 0.059821 0.643598 1.083905 1.034393 0.844102 0.747326 0.390572 
0.846460 0.158770 0.214707 0.477426 0.536819 -0.055820 -0.653640 -0.431830 0.796749 0.177890 -0.620751 0.854961 -0.705737 1.166952 0.878470 -0.104466 0.162753 0.143588 -0.383449 -0.181922 
0.243947 -1.306257 -0.230189 -0.581237 0.603108 -0.443280 0.394359 -0.254409 0.448758 0.229886 -0.291782 0.166713 0.451139 -0.740575 0.172625 -0.323231 -0.302607 0.081848 -0.226875 -0.413207 
0.624323 -0.929192 0.053088 -0.159616 0.644898 -0.884687 -0.155450 -0.019023 -0.656551 0.789964 0.467280 1.176757 0.382017 0.012193 0.419319 -0.322931 0.518071 0.353131 -0.539946 -0.449715 
0.007746 -0.922722 0.779672 0.317536 0.873056 0.584544 0.040480 -1.247761 -0.994571 -0.158174 -0.083344 0.672125 -0.211116 0.474517 -1.134653 0.901095 0.770067 -0.369365 -0.247689 0.465851 
-0.181499 -0.572903 -0.025116 0.180197 -0.032621 0.231949 0.780599 0.209285 -0.664798 -0.990654 -0.099363 0.094748 -1.174017 -0.636022 0.117358 -0.289371 0.532560 1.063445 0.106457 -0.105014 
-0.327189 -0.869281 -0.172701 -0.114570 -0.444168 -0.348010 0.330912 0.673296 0.833570 0.521755 0.995817 -0.794937 0.059497 -0.794471 0.720896 -0.026429 0.428709 -0.528761 0.273912 -0.294683 
-0.216188 0.679662 -0.149230 0.765122 0.750948 0.193353 -0.813881 0.977372 -0.835599 0.620204 -0.474472 1.072312 0.061861 -0.598052 -0.973644 -0.370428 1.154452 0.234115 0.990788 -1.446862 
0.930528 0.834560 -0.071697 -0.426745 -0.271069 -0.060434 0.714355 -0.435722 -0.734445 0.784594 -0.368807 1.019357 0.519949 0.426527 -0.770007 -0.969151 -0.289421 0.692391 -0.664280 -1.421854 
-0.415016 -0.442405 -0.621592 0.496626 0.172664 0.110271 -0.365778 0.297658 -0.357221 -0.674521 0.212481 -0.398719 -0.764856 0.143484 0.720197 0.800190 -0.224968 -0.558698 -0.712919 -1.137016 
-0.827864 -0.328437 -0.523022 0.185482 0.808289 -0.492555 -0.976390 -0.802462 0.663055 0.675530 0.569207 0.444628 -0.417442 -0.139761 0.172348 1.020687 -0.378682 0.103460 -0.212354 0.119779 
-0.497932 0.036585 0.164862 -0.212491 0.703743 0.947428 -1.042106 -0.457050 -0.045878 0.819116 0.821551 -0.328549 0.691164 0.436177 -0.659594 0.753716 -0.413468 -0.016492 -0.308451 -0.534329 
-0.330062 0.879515 -0.327166 -0.288892 -0.653281 0.511441 0.215458 0.247790 -0.399513 -0.541554 -0.413179 0.102766 0.298713 -0.779300 0.734533 -0.112886 -1.311264 -0.834385 -0.232860 0.994993 
-0.475990 -0.523914 0.149901 -0.162569 -0.622713 -0.360050 -0.265007 0.398637 0.505924 -0.362328 0.137062 -0.495933 0.570198 -0.063183 -0.707819 -0.066505 -0.336024 0.541420 -0.479479 -1.321484 
1.064591 -0.521125 0.122028 0.977101 -0.409134 -0.672558 0.949531 -0.536310 -0.769108 1.401953 1.050813 -0.498582 -0.559947 -0.616602 -0.130336 0.015145 -0.698841 0.209219 0.619383 0.778613 
0.357685 0.729914 0.758870 0.885340 0.337569 0.517390 -0.547271 1.254295 -0.127939 0.104882 -0.354694 0.376956 0.902248 0.426198 -0.135173 0.685686 0.178668 -0.720996 -0.903265 0.912609 
-0.018692 0.437242 0.695783 -0.368678 -0.122793 0.948103 0.073070 0.610222 -0.447333 -0.469000 0.761815 0.657498 0.378412 -0.909140 -0.139842 -0.191856 0.879691 -0.357887 -0.962245 0.059187 
0.562916 -0.015399 -0.772957 0.599502 0.268266 0.421629 -0.919817 0.330174 -0.380516 0.958167 -0.628419 0.116969 0.071768 0.466134 0.811381 -0.034941 1.124941 -0.993571 0.534865 -0.672770 
-0.329674 1.055232 0.520466 -0.117078 -0.663899 0.813110 -0.586291 -0.092974 0.185897 -0.824591 0.105307 -0.631378 0.121667 -0.192763 -0.064613 -0.300307 0.534020 0.227841 -1.068641 0.341393 
-0.000433 0.687162 1.020821 0.495592 0.539585 0.530565 -0.107086 -0.376564 -0.107752 0.457415 -0.118155 0.455895 -0.183701 -0.344271 -0.370646 -0.380523 0.489663 0.801236 0.825896 0.396238 
-0.737711 1.515945 -0.975301 -0.137007 -0.640685 0.603996 -0.993615 0.356875 1.349214 -0.671502 -0.392039 -0.736068 0.054571 -0.226226 -0.014160 -0.905617 -0.330449 0.033116 1.080571 0.178801 
0.085959 -0.738943 -0.974780 -0.181821 1.043223 0.151337 0.113219 -0.798594 -0.572060 -0.327552 0.139471 1.017388 -0.446699 -0.546705 -0.201910 0.116230 -0.103918 -1.158687 0.047951 -0.506470 
-0.762512 -0.044851 -1.213087 -0.623538 0.356477 -0.257933 0.962842 0.687122 -0.309924 0.254097 -0.011683 1.019914 -0.178036 0.291866 0.103402 -0.983990 0.272257 -0.284099 0.514271 -1.094788 
-0.793124 -1.377389 -0.390160 -0.261709 -0.072038 -0.749542 0.715502 -0.725038 0.930459 0.896532 -0.066392 0.288397 -0.064932 0.288700 0.538779 -0.053214 0.098198 -0.409172 0.581027 -0.333545 
-1.086227 0.463648 0.870374 0.160789 1.406127 -0.295222 0.178326 0.393040 -0.056688 -1.040117 -0.685186 -0.433555 0.031343 0.900045 0.661151 -0.522559 -0.278286 0.539120 0.060118 -0.817937 
0.613076 0.783731 0.245811 -0.274885 0.191717 -0.909057 0.618132 0.271136 -0.160510 -0.721619 -1.433612 -1.276317 -0.777800 -0.651642 0.826090 1.094590 0.418727 -0.385282 -0.845057 -1.080923 
0.630885 0.102569 -0.082922 0.733229 -0.393070 0.118085 0.562932 0.885507 1.497139 0.838064 0.700525 0.632646 0.590487 0.130151 0.868707 0.063788 0.321649 -0.185739 0.587705 -0.574053 
0.569946 0.994978 0.463297 -0.452768 0.380690 -0.119985 0.805059 -0.920423 -0.039393 -0.106033 -1.311520 0.107985 -0.993158 0.131844 0.667451 0.435715 0.606793 0.483830 0.574343 -0.705833 
0.628493 -1.183635 -0.928377 -0.870026 0.803334 -0.580793 0.554587 -0.278297 -0.478402 0.695643 -0.601432 -0.106601 0.679828 0.962055 0.872980 -0.388910 0.838988 0.402766 -0.108070 -0.189657 
-0.414126 0.203152 0.643620 0.678322 1.081346 0.933412 0.828748 -0.323812 -0.524242 -0.232071 0.553894 0.503680 0.277728 0.024644 -0.168399 0.539057 0.164499 0.522981 0.714937 -0.774714 
0.773622 -0.504767 -0.807699 0.558665 0.909365 -0.836711 -0.187244 0.747703 0.230043 0.864795 -1.072275 1.030425 0.241244 0.102013 -0.419954 0.751668 -0.318380 -0.850674 -0.900434 0.125541 
-0.685738 1.250693 0.664360 0.787967 -0.290331 0.504602 0.959738 -0.340015 -0.872062 -0.135378 -0.309399 0.410730 -1.046220 -0.240621 -0.221885 0.989396 0.997333 0.454707 0.896954 -0.334432 
0.561720 0.560575 0.167408 -0.131770 0.077106 0.210338 0.293966 0.777217 0.294096 -0.953937 0.149498 -0.643443 0.605622 0.704100 -0.380079 -0.288231 -0.424032 0.626079 -0.387035 -0.651260 
0.486709 0.335353 0.695288 -0.745595 0.687853 -0.606297 -0.635679 0.387618 0.400445 0.982930 0.213180 0.970722 -0.663060 -0.217516 -1.220087 0.900153 0.291338 -0.315994 -0.203979 -0.484766 
-0.066162 0.024023 -0.782365 0.372183 0.458137 -0.013529 -0.849936 0.375149 -1.045526 -0.193173 0.012847 -0.264820 -0.122104 -0.090079 -1.206802 -0.224281 -1.320401 0.479420 0.273513 -0.375845 
0.046138 -1.171743 0.402932 -0.810229 -0.487704 0.019482 0.629934 0.044019 -0.001137 1.023911 0.796210 -0.362655 0.300123 0.195463 0.625504 0.608084 -0.293565 -0.251818 0.297865 0.246954 
-0.665843 1.069039 0.691642 -0.497912 -0.033005 -0.505418 0.608118 1.163841 -0.044778 0.768887 0.661212 -0.883342 0.477811 -0.167474 0.835498 0.179098 0.188098 -0.511989 0.960136 -0.142345 
0.297951 -0.437793 -0.667414 0.842059 -0.864975 0.195842 0.894171 0.748773 0.130128 -0.732579 -1.510862 -0.273714 0.219163 -0.922919 -1.087876 -0.047330 0.142865 0.352294 -0.322296 -0.492119 
0.553892 -0.617184 -0.818049 0.593209 -0.276754 -0.388260 -0.308679 1.035516 0.146923 -0.194662 -0.091536 -0.141322 0.116511 0.168451 0.130164 0.079493 0.254778 0.045517 0.730713 -0.584905 
-0.300090 -0.699033 -0.247452 0.683992 0.742602 0.131514 0.119152 0.308825 1.001249 0.292408 -0.497932 0.440989 -0.034902 -0.139726 -0.009999 -0.227842 -0.477972 0.477305 0.254668 0.258347 
0.136853 -0.717993 0.616055 0.532446 -0.180652 -0.181154 -0.101341 -0.874200 0.171410 -1.004828 1.004862 0.002815 -0.397165 1.016359 0.505191 0.432546 -0.355010 -0.455510 0.607324 0.895198 
0.045222 -0.180779 0.100118 -0.896938 -0.440634 0.288362 -0.015336 -0.492456 0.606889 0.379374 0.853420 0.104179 0.181333 -0.799190 -0.323353 0.554382 -0.992171 0.257205 -0.619277 0.508529 
0.428813 0.471194 0.506202 0.367137 -0.051471 0.434797 0.924950 0.723109 1.180015 -0.105845 0.867339 0.044463 -0.074402 -0.356852 0.160128 0.428099 0.536448 -0.252014 0.834024 -0.338005 
-0.345481 -0.619429 -0.442165 0.143006 0.581705 -0.327383 -0.105165 0.427300 -0.663337 0.220672 0.524493 0.960215 0.118107 -0.846028 0.347437 -0.450437 0.415781 0.391128 0.531980 -0.483915 
0.735873 -0.603035 0.853293 -0.775235 0.360948 0.560093 -0.995156 0.808177 0.053310 -1.080340 0.873884 0.389923 -0.767324 -0.345701 0.123730 -0.306927 -0.209407 0.456446 0.399962 0.362428 
0.022763 -0.816307 0.689280 -0.325433 -1.117137 -0.792799 0.101218 0.902564 -0.668523 0.028732 0.245402 0.578285 -0.845419 -0.109250 0.109270 0.836482 -0.138987 0.076328 0.413725 -1.096093 
0.416744 -0.024751 1.179933 -0.295830 0.494453 -0.497487 -0.091600 -0.497217 0.971314 0.367362 -0.958521 -1.205294 0.838806 -0.458522 -1.329749 -0.522295 0.342196 -0.472656 0.031368 -0.371240 
-0.770108 -0.192420 -0.718821 1.084789 -0.810045 0.329993 -0.602522 0.740501 -0.686706 0.916147 -0.562623 -0.320015 -0.011872 -0.361117 0.292413 -0.440756 -0.071944 -0.366814 -0.370180 -0.128993 
0.004467 0.371914 0.484550 0.814177 -0.185662 0.746551 -1.020312 -0.730016 -0.662190 -0.487145 -0.339565 -0.179011 -0.316510 0.304899 -1.007684 -0.474616 0.415595 1.042397 0.063974 -0.155657 
-0.886216 -0.130231 -0.565419 0.422257 -0.783289 -0.901631 -0.312143 -0.612419 -0.770227 0.137337 -0.328618 -0.134360 1.038064 -0.325476 0.525976 -0.447999 0.802567 0.456967 0.222107 0.723284 
0.082631 0.645185 0.789278 -0.354817 0.244997 -0.338660 -0.815787 -0.904103 0.087353 -0.035783 -0.236856 0.070948 -0.223157 0.013914 0.778159 -0.066839 -0.868114 0.870289 0.334336 -0.211793 
0.448194 -1.107374 -0.513428 -0.545576 0.016448 0.866368 -0.729136 0.053301 0.607094 -0.177210 0.147739 0.847501 0.645567 0.645416 -0.374498 -0.586962 0.248681 -0.774659 0.421267 -0.786571 
-0.034668 -0.207612 -0.486162 0.344987 0.355427 0.022143 0.749801 -0.121352 -0.205852 0.074222 -0.750172 -0.452750 0.778604 1.101289 -0.154923 -1.336439 0.282603 -0.085413 0.479575 0.176360 
-0.296557 -0.754115 1.173377 -0.201745 0.025011 0.921133 0.638880 -0.841858 -0.549512 -0.208932 0.066836 0.527969 0.483258 -0.179300 -0.282037 -0.928067 -0.922047 -0.716343 -1.014843 -0.249339 
0.385976 0.213686 -0.823212 0.271069 1.000667 0.192079 0.160289 0.764769 -0.020069 -0.205674 -0.499264 -0.215417 -0.596896 -0.676402 1.072167 0.618302 -0.238708 -0.771120 -0.980110 0.386792 
-0.057806 0.633024 0.085051 -0.235866 0.657017 0.658945 -0.839974 -0.625578 0.216462 -0.030533 0.597770 -1.207145 -0.254163 -0.822824 -0.127496 -0.663499 -0.382948 -0.555299 0.373065 0.352062 
0.406985 -0.621093 -0.008295 0.077730 0.435408 -0.727679 -0.529185 -0.592634 0.474961 0.447775 0.375584 -0.714271 -1.244021 -0.448815 0.505310 1.399500 0.240496 0.545628 -0.357400 -0.512323 
-0.230298 0.475624 -0.691137 0.226469 0.198090 0.522507 0.397870 -0.331851 0.815176 0.137150 0.092397 -0.460115 0.314901 -0.778088 -0.484585 0.768995 0.606204 0.495349 -0.240919 -0.271543 
0.394546 -0.950174 -0.329950 -0.888404 -1.182746 -0.915574 -0.661860 0.160949 -0.128170 -0.249531 0.332403 -0.256119 -0.895032 0.012055 -0.367570 -0.596772 0.113811 -0.845190 0.091321 -0.625726 
0.974584 0.770012 0.666391 0.381046 -0.380099 -0.560486 0.337203 -0.991492 -0.329565 0.202124 -0.825253 -0.435767 -1.213704 -0.751022 -0.616234 -0.536236 0.649873 0.705187 -0.258412 -0.373029 
-0.245552 -0.611603 0.336048 0.393392 -1.122456 0.531112 -0.513945 -1.335797 0.698667 -0.579803 0.144002 -0.814632 -1.216713 0.768200 0.388602 -0.647031 0.620152 0.837696 1.168767 0.530402 
-0.274286 -0.075423 -0.022867 -0.660625 0.632823 -0.671464 0.444870 0.281711 -0.559794 0.261598 0.583934 0.970950 -0.992075 0.747762 -0.757186 0.055308 0.379766 -0.998896 0.370807 -0.469313 
-0.653254 -0.008005 0.373161 0.517532 0.842648 0.529566 -1.003457 0.271758 -0.099771 -0.493685 -0.476221 0.212960 0.161970 0.370632 -0.411620 0.095236 0.684256 0.772972 0.702293 -0.982797 
0.087983 -0.316256 0.619218 0.218755 0.881061 -0.334716 -0.915251 -0.892255 0.098892 0.244619 -1.145725 0.360634 0.123757 -0.542439 -0.150822 0.806308 0.248642 0.961808 0.208360 -0.451581 
-0.011499 -0.965746 -0.119058 0.053888 0.976987 -0.119293 -0.758086 -0.977573 -0.198323 0.623491 0.510556 -0.287444 -0.016188 0.583476 -1.180055 -0.408369 0.860610 -0.588569 -0.045020 -0.486209 
-0.942204 1.157836 -0.696724 0.110098 0.256922 -0.629023 -0.545517 1.268406 0.601951 0.245492 0.703456 -0.256385 -1.110011 -0.551537 0.820105 0.063634 -0.630394 -1.241934 -0.966444 0.851442 
-0.809600 1.124256 0.620214 -0.401926 0.228526 -0.254781 -0.811816 1.086280 -0.367356 0.289670 0.515944 -0.134814 0.876819 -0.058589 -0.280600 0.148068 0.419830 0.107167 -0.252024 -1.044693 
0.828784 0.046771 0.409129 0.149060 0.568381 0.331735 -0.777714 0.753468 -1.257539 0.048489 0.255851 -0.888609 -0.077911 0.463161 0.174395 0.605051 -0.383322 0.807075 -0.025116 0.921194 
-0.372717 -0.709561 -0.266174 -0.282670 1.056090 -0.609913 0.632933 -0.324384 0.826442 -0.445131 -0.289200 0.300167 0.847425 0.403156 -0.888404 0.187866 0.144542 -1.034103 -0.960985 -1.141965 
0.050976 -1.106104 -0.828092 0.985354 -0.010914 0.231174 0.838689 -0.289788 -1.137140 0.060025 0.788382 0.040572 -0.174280 -0.588346 -0.056512 -0.634662 -0.174871 -0.229343 0.493968 0.004989 
-0.439723 -0.286295 0.469033 -0.544464 -0.446302 0.947861 -0.985373 -0.623753 0.031834 -0.387872 0.590072 -0.690797 -0.227613 -0.791331 0.164109 0.217120 0.132829 -0.357332 -0.133418 0.040166 
0.239609 0.845098 -0.513664 -0.582425 -0.809457 -0.651995 0.616617 -0.507888 -0.520696 0.723889 0.215858 -0.515568 1.070527 -0.305036 -0.201613 -0.558420 -0.399527 0.036602 -0.421353 0.966858 
-0.306024 1.540346 -0.685334 0.684376 -0.562684 0.868142 -0.514914 1.107918 -0.648460 0.769077 -1.294653 -0.194448 -0.150986 -0.969058 -0.337040 0.177773 -0.453663 -0.120916 0.389980 1.064166 
0.920380 1.030682 -0.556692 0.895328 -0.105074 0.749738 -0.775667 -0.645891 0.015575 -0.787701 1.003755 0.211133 0.923104 0.764564 -0.857753 0.291424 -0.654889 -0.081709 0.474305 0.280672 
0.741228 0.300526 1.196752 -0.408752 0.106816 0.175205 -0.133641 -0.440618 -0.883284 0.464838 0.639193 -0.119982 -0.206162 -0.931335 -0.170008 0.539783 1.321073 0.086573 0.371056 0.599351 
-0.894437 -0.466997 -0.063294 0.731095 -0.533914 0.448376 0.250038 -0.562137 -0.645093 -0.953714 -0.298272 0.173999 -0.331153 -0.836763 0.700751 -0.278865 0.235179 -0.608351 -0.161970 -0.758686 
-0.656262 -0.851798 0.342962 1.053321 -0.170303 0.060460 -0.362691 -0.605848 -0.720719 -0.374396 0.318462 -0.616832 1.179993 -0.040769 0.331902 0.983680 0.903917 -0.284018 -1.207318 -0.666134 
0.429083 -1.054857 1.260323 0.862860 0.352755 0.882957 0.589603 0.537652 0.917863 -0.867341 0.041198 -0.384930 -0.206088 -0.394809 -0.584517 -0.030899 -0.973164 -1.098415 -1.051137 -1.062882 
-1.081987 -0.030372 -0.555902 -0.649815 -0.471026 0.233682 0.066868 -0.713685 0.091506 -0.667654 0.390210 -0.163509 -0.173625 -0.657901 0.825630 -0.808353 0.195238 0.820908 -0.101380 -0.635613 
0.588095 -0.496856 0.557397 0.813503 -0.536268 0.229741 0.364809 -1.237367 -0.231158 -1.228577 0.781437 -0.488286 -0.380047 -0.679126 -0.768906 -0.429160 0.435624 0.199983 -0.529064 -0.704339 
0.117914 0.934757 -0.262256 -0.510517 0.480430 -0.486956 0.630533 -0.552599 -0.848129 0.439224 -0.102886 -0.425982 -0.185507 -0.820768 -0.585171 -1.180452 0.667043 0.720000 -0.574051 0.216026 
0.101551 -0.394602 -0.212080 1.034663 -0.499567 -0.423175 0.165009 -0.143076 -0.737821 0.896460 0.467464 0.399285 -0.825241 0.634744 -0.510955 -0.840446 0.742602 0.729563 0.361115 -0.334265 
-0.953392 0.916278 -0.544337 -0.752944 -0.211093 0.768782 -0.095720 0.514246 0.396367 0.136415 0.340678 -0.882425 -0.413547 -0.541824 0.731541 -0.444251 0.808982 0.492888 -0.227692 -0.077224 
0.076850 0.816534 -0.626831 -0.389214 -0.592696 -0.115472 1.021162 -0.680587 -0.459045 -0.049681 -0.060190 -0.497259 -0.349577 -0.053379 0.546940 -0.629446 -0.104555 0.289142 -0.087842 0.752344 
0.043928 0.461976 0.419801 0.193285 -0.716517 -0.013231 -0.034071 0.324276 0.410411 -0.065228 1.030516 -0.438208 -0.768779 -0.032510 0.290068 0.706239 0.693909 -0.097673 0.975566 0.809350 
-0.106336 -0.337848 -0.230863 0.617708 0.946914 -0.501185 -0.904889 -0.369446 -0.110872 0.054517 -0.852814 0.197139 1.137141 0.458067 -0.147294 -1.289729 -0.100913 0.259275 -0.805059 -0.478494 
-0.742238 0.161685 0.115719 -0.185526 0.001482 -0.665938 0.337081 0.004799 -0.635114 0.767273 0.485526 0.744735 0.416664 -0.673758 -0.818533 -0.353388 -0.069016 -0.009816 0.780805 -0.187370 
-1.058860 0.766217 -0.659851 -0.600045 0.144552 0.771289 0.692257 -0.090537 0.204748 -0.126638 -0.826703 -0.121696 0.351824 -0.168488 1.077244 -0.224546 -0.881445 0.228574 -0.075820 -0.008974 
-0.850324 -1.042035 -0.967274 -0.859860 -1.234342 0.966639 -0.220982 -0.923568 -0.859616 0.110628 -0.453444 0.668977 0.801311 -0.365217 0.323758 -0.481569 1.168822 0.362549 -0.001500 -0.363824 
-0.410685 -0.592108 0.678797 -0.889723 -0.655970 0.226371 -0.535688 -0.125524 -0.480496 0.011528 -0.639985 0.653468 0.347286 0.379773 -0.809059 -0.581446 0.091364 0.659488 -0.096871 0.285043 
0.912289 -0.062127 0.717864 -0.314267 0.020483 0.960671 0.935118 -0.002155 0.400498 -0.721310 -0.485346 -0.188869 0.235461 -0.442851 -0.089613 0.060132 -0.088999 -0.495865 1.083306 -0.911210 
-0.606020 0.154413 0.964268 -0.152597 -0.989126 -0.978575 0.741204 -0.422288 0.100682 -0.005141 0.188368 0.040664 -1.259812 0.202995 -0.483141 -0.153315 0.639460 -0.152912 0.380370 -0.939366 
-0.050867 0.175035 -0.188064 -0.254749 -0.660364 0.721963 0.974002 -0.460487 -0.638004 -0.667484 0.205313 0.382820 0.284730 -0.550777 0.284124 0.652988 0.643625 0.636506 -0.270230 -0.093431 
-0.925833 0.804933 0.693480 -0.121803 0.623576 -0.506155 0.084072 0.410822 0.266119 -0.714581 -0.094611 -0.569623 -0.305697 0.979042 -1.193260 0.140122 -0.815147 -0.093260 0.049735 0.449458 
-0.499690 0.675049 -0.699581 0.007784 0.878138 0.109150 0.829965 0.148730 0.540361 0.668775 -0.698445 0.875534 -0.645661 0.729535 -0.894906 0.022352 -0.680974 -0.008998 0.608277 0.123573 
-1.348660 0.321807 -0.292523 -0.877381 -0.450135 -0.091518 -0.646100 0.909576 0.679910 0.783370 -0.534319 -0.201576 -1.071374 -0.898879 0.232754 0.655716 -0.831093 0.224874 0.046970 0.499020 
0.005461 -0.263044 -0.776331 -0.277846 -0.269384 -0.215585 0.742132 -0.566394 -0.392344 -1.043926 -0.936937 0.324760 -0.313710 -0.216796 -0.657074 0.152929 0.952692 -0.531081 0.364956 0.507828 
-0.164988 0.186452 -1.363356 0.547829 -0.156522 -0.740333 -0.070761 0.818833 0.751228 -0.967327 0.102912 -0.957315 0.677522 0.586869 0.729736 -0.648129 -0.316213 0.895669 0.038987 -0.824062 
0.096864 0.005376 0.807471 -0.913452 -0.014542 0.889664 0.059879 0.661485 -0.715706 0.756183 -0.978307 -0.525962 0.194349 0.829723 -0.113349 0.835387 -0.233978 1.036351 -1.083707 0.157152 
0.804058 -0.770032 -0.639558 -0.296573 -0.740781 0.287329 0.321935 0.564351 0.447089 -0.115136 -0.685781 0.114802 -0.805733 -0.703838 0.448146 0.227594 1.078220 -0.462408 0.099244 0.701938 
-0.768536 -0.381363 -0.616490 0.395677 0.026501 0.641000 0.715788 0.722562 0.258574 0.191201 0.483107 1.182353 0.629109 -0.097752 -0.282367 0.194314 0.076297 0.071334 -0.074132 -0.876976 
0.688004 0.439591 0.697582 -0.243449 -0.046853 0.768058 -0.983368 -0.434495 0.547929 1.116629 -0.363905 -0.284856 0.493980 -0.642222 0.411875 0.032389 -0.061081 -0.988688 -0.190741 0.101220 
-0.636933 -0.633188 0.178142 -0.328022 -0.315564 0.070570 0.549256 -0.068063 0.343084 -0.778444 -1.492960 -0.373438 -0.113615 0.115783 0.596633 -0.388940 -0.252856 -0.334744 0.403645 -0.950765 
-0.373076 -0.243351 0.186652 0.200055 -1.051920 -0.703770 -0.388225 0.361193 -0.765178 0.636524 0.373334 -0.660424 -0.007274 -0.994481 -0.081550 -0.157349 0.709124 0.816979 0.432047 0.592469 
-1.279471 -0.157868 -0.521588 -0.708576 -0.358928 -0.438698 -0.887452 0.033102 0.268178 0.423840 -0.746509 0.818066 0.332888 0.689744 0.080695 0.247601 0.218554 -0.295133 -0.684719 -0.422759 
-0.230810 -1.507982 0.739722 -0.099570 0.495012 0.660952 -0.803683 0.689377 0.354240 -0.566714 1.020550 0.557845 -0.603531 0.016469 -0.645212 -0.824846 0.186285 -0.554865 -0.462594 0.297854 
0.781242 -0.189069 -0.442944 1.033987 -0.989107 0.598069 0.669383 0.154041 -0.643886 1.302591 -0.257743 0.370500 0.581068 0.823090 -0.742987 -0.109713 0.155929 0.817746 0.234029 0.157882 
-1.023669 -0.598883 0.178648 0.526218 0.208281 0.656548 0.281027 0.430175 -0.547600 0.189289 0.703218 0.381156 -0.578640 0.550935 -1.023103 -0.123234 0.105285 0.700616 -0.563414 -0.264051 
-0.121812 0.673318 0.418089 -0.336519 0.803646 -0.310753 0.536073 0.145578 -0.679769 -0.709524 -1.218832 0.332819 0.538314 -0.349253 0.627105 1.150107 -0.105987 0.639431 0.474424 -0.463094 
0.351762 0.012566 0.573912 0.875835 1.178318 0.997830 0.837338 0.992639 0.370639 0.655837 -0.876977 0.661190 -0.846555 0.356317 -0.138886 1.139942 -0.981854 0.344058 0.170165 0.516762 
-1.189851 0.269883 -0.519332 0.324053 1.142634 -0.826855 0.623250 -0.123758 0.011734 0.400252 -0.459864 -0.243328 1.047525 -0.001816 -0.603418 -0.545891 0.742688 0.987035 0.225623 0.074278 
-0.402901 -0.364933 -0.983409 0.559156 -0.251391 -0.690618 0.550965 0.861225 0.460734 0.156680 0.905055 -0.006104 0.050199 -0.051676 -0.010908 0.453092 0.177580 -0.636472 -0.110741 0.873053 
-1.094991 -0.305914 0.148871 -0.266241 -0.143580 -0.510156 -0.177596 0.921924 0.200802 0.100035 -0.918162 -0.062802 -0.450274 -0.136298 -0.319746 -0.215584 -0.593091 -0.290770 -0.500489 0.193956 
0.539179 0.592790 -0.026141 -0.150746 0.642237 -0.776040 -0.631927 -0.645033 -0.476233 -0.714464 0.760764 0.817554 0.483355 0.893733 -0.415536 0.325810 -0.991816 -0.288370 0.322248 0.745450 
0.519871 1.177139 -0.386521 -0.061837 0.894624 0.530652 0.569448 -0.548001 -0.211740 0.017252 0.139384 0.878093 -0.463630 0.211642 0.117955 -0.330274 0.528313 -0.501119 0.544430 0.264954 
0.236472 0.126203 -0.142834 -0.005490 -0.039617 -0.087889 0.625598 -0.430730 -0.320458 0.488299 0.219163 -0.420569 0.513935 -0.693515 -0.136890 0.785657 -0.262142 -0.370720 -0.468125 0.943479 
-0.577132 0.062643 -0.618760 0.190704 0.484350 0.819177 0.969864 -0.416360 -0.482394 0.475132 -0.463555 0.363791 0.474340 0.743763 -0.656344 0.163228 -0.483169 -0.613795 1.136578 0.672404 
-1.137109 -0.612941 -1.256680 -0.485142 -0.561576 0.839007 0.611981 -0.979474 -0.842554 0.484080 -0.243509 -0.675885 0.182940 -0.451096 0.289342 0.074544 -1.080103 0.150215 0.109324 0.191732 
0.665701 -0.228549 -0.601070 -0.367388 0.046935 -0.870355 0.598585 -0.235816 -0.546567 0.839391 0.406087 0.051892 0.651102 -0.412856 0.932369 0.780024 -0.427466 0.522523 0.139849 0.286465 
0.780353 0.586413 0.668244 0.052268 0.645623 -0.434311 0.569458 0.205813 0.695101 -0.690230 0.843714 -0.150976 -0.554507 0.428049 0.594958 1.082033 0.530887 0.067918 0.333737 -0.544429 
-0.054691 -0.697765 -0.348929 -0.530338 -0.474309 0.994541 0.979511 -0.763323 -0.187489 0.449389 -0.456445 0.359496 0.881307 0.765137 -0.298234 -0.372683 0.948820 -0.904658 -0.493304 -0.807125 
0.508856 -1.667385 0.474025 0.379656 0.418995 0.494166 -0.913820 1.303436 0.010742 -0.455306 -0.517161 0.549112 -0.706625 -0.702909 0.580294 0.275384 -0.499321 1.020900 -0.345520 -0.563582 
-0.345303 0.286835 0.622477 -0.182026 -0.580144 0.918097 0.255036 -0.631161 0.907425 -0.339567 -0.159629 0.339193 -0.489818 0.193755 0.666297 -0.675571 0.647095 -0.839971 -0.558669 -0.240480 
0.148279 -1.166300 0.230531 -0.006040 0.037923 -0.614482 -0.854826 0.466345 0.303021 0.089510 -0.502138 -0.066716 -0.272411 0.268503 -1.069506 0.129736 0.316321 0.989155 0.565836 0.904374 
0.134826 -0.241576 -0.658191 0.939480 -0.814560 0.095985 -0.432332 0.638899 -0.448023 1.152641 1.324258 -0.350825 0.213533 0.826610 -0.451855 -1.277725 0.614733 0.851388 -0.951031 1.134375 
0.610122 -1.457025 -0.531788 0.414536 -0.331630 -0.068657 0.688809 0.319680 -0.110015 -0.143160 -0.042931 0.140506 0.402085 0.617458 1.050974 0.499562 0.022142 0.024419 0.351697 0.575575 
0.104591 -0.745459 -0.171851 0.352893 -0.174206 0.564132 0.404151 0.678790 -0.198243 0.461559 -0.604828 -0.525435 0.199658 -0.258939 0.387897 -1.607067 -0.673222 0.069382 0.381309 -0.800707 
-0.257945 -0.693564 -0.530536 0.144612 0.720065 0.696594 0.264232 0.183290 0.668219 -0.844753 0.082743 0.201419 0.076825 -0.823431 0.710612 -0.384720 0.279997 0.882939 -0.032817 -0.716197 
-0.221281 -0.370151 0.906246 0.184512 0.405090 0.761939 -0.775724 -0.353680 0.438349 -0.607388 -0.390037 0.756448 0.713127 -0.678361 -0.188362 0.214664 0.535014 -0.486295 -0.224103 -0.954297 
0.270240 1.090747 0.484359 0.389057 0.075395 -0.810874 0.669407 0.676322 -0.352349 0.968954 0.421244 0.382719 -0.792120 -0.244600 0.904469 -0.597945 0.832879 -0.717144 -0.556215 0.607619 
-0.516918 -1.067699 0.015460 0.447817 -0.621350 0.658120 0.605880 0.668298 -0.534126 0.603255 -0.583750 0.506502 -0.311358 -1.177000 0.407540 0.112444 -0.394865 0.597193 -0.105239 0.477257 
0.281634 -0.368710 -0.610168 0.372051 -0.803340 -0.899200 -0.671056 -0.519465 0.092300 0.052079 -0.128363 -0.765532 0.860783 -1.130155 -0.014494 -0.821565 -0.299808 -0.160550 -0.251896 -0.507059 
-0.118031 -1.051129 -0.329929 0.719041 -1.034773 0.031501 0.685233 -0.085220 -0.029887 0.287800 0.573419 0.661063 -0.512407 0.348137 0.360855 -0.096900 0.279405 -0.355231 -0.316172 0.605099 
-0.343095 -0.810397 0.181300 0.134421 0.115931 -0.431756 -0.461806 0.759556 -0.708472 0.776868 0.551004 -0.574553 0.971219 0.475296 0.683288 0.381907 0.026349 0.093557 0.121315 -0.471550 
0.058903 -0.475720 -0.400398 0.843714 0.426491 -0.337758 0.279174 0.155008 0.479914 1.579780 0.138329 0.163287 1.201787 0.472300 -0.589335 0.394228 0.443259 0.982786 0.481296 -0.329882 
0.450592 0.469137 0.339811 -0.756337 -1.081264 0.091699 0.026942 1.214105 -0.908397 0.340171 0.465983 -0.219864 -0.605033 0.425285 -0.357994 0.307213 -0.271445 0.153493 0.957459 -0.216292 
-0.038048 -0.634706 -0.041573 0.823025 -0.770383 -0.619577 0.623190 0.417888 -0.265252 0.863294 0.827446 0.815303 -0.356454 0.879664 -0.247600 -0.750903 0.857328 -0.327164 0.533329 1.088622 
-0.515986 -0.490010 -0.359348 -0.231281 -0.168497 0.771612 -0.993928 0.628531 0.058147 0.707316 1.140143 0.324792 -0.248812 0.214807 -0.368037 0.389435 0.227848 -0.151027 0.637520 -0.513312 
-0.320145 0.681762 -0.201753 -0.381525 -0.498861 -0.694489 -0.984768 -0.019344 -0.193607 -1.106615 -0.575316 -0.297103 0.642208 -0.378604 0.331445 -0.729141 0.101515 0.153366 -0.603058 -0.422864 
-0.788303 -0.460019 -0.511427 -0.888048 0.492361 0.458829 -0.720637 -0.533706 0.783883 0.224965 0.188810 0.714023 -0.340322 -0.204753 0.242875 -0.063338 -1.782163 -0.779445 -0.330512 -0.491437 
0.063220 0.771887 -0.467979 -0.527823 1.500320 -0.365003 -0.128983 -0.372835 0.306443 0.108157 -0.966421 -0.246029 0.337975 0.057765 -0.253001 0.773731 -0.569447 0.953566 0.320807 0.259811 
-0.936009 -0.062556 0.385813 0.758354 -0.477435 0.286011 -0.127830 -0.219984 -0.631783 -0.399471 -0.107743 1.041504 -0.403000 0.761463 -0.496232 -0.078556 0.189910 -0.956229 0.238211 -0.754519 
0.734195 0.249460 0.177233 0.236731 -0.562207 -0.892653 0.583302 0.211325 -0.414507 -0.075358 0.553318 0.846912 0.447300 0.601665 0.128276 -1.008034 -0.592002 0.168844 0.159140 0.302627 
1.002140 0.375248 -1.041786 -0.195660 -0.949166 0.153317 0.895769 -0.278797 0.754892 0.451221 0.257590 0.354715 0.515554 -0.593142 -0.169642 -0.065245 -1.152808 -0.261997 0.400878 0.752253 
-0.115472 1.038996 -0.164016 0.112292 -0.046796 0.679699 0.141911 0.956930 0.643461 -0.379113 -0.280976 -0.659526 -0.564166 -0.329569 -0.267188 0.175894 -0.556824 0.256622 0.170993 -0.381965 
0.621811 -0.246255 0.578033 -0.370175 -0.394621 -0.115557 0.568608 0.451784 0.920870 0.709827 -0.258137 0.143515 0.654228 0.239692 -0.083469 -0.216290 -1.443621 0.543988 0.023841 -0.671085 
-0.362698 0.656966 0.843200 -0.505422 -0.188748 -0.366642 -0.769403 0.265296 -0.415190 1.005868 -0.286018 0.663352 -0.826071 0.313697 -0.393656 -0.119164 -1.045897 -0.560914 0.912152 0.284018 
-0.388241 -0.532235 -0.687201 -0.493967 0.845199 0.962858 0.491947 0.903659 0.812132 0.130502 0.362834 0.119102 -0.060133 -0.033640 -0.664388 -0.824731 -1.199607 0.728227 0.823122 1.132352 
0.126412 -0.462430 -0.458092 0.609346 -0.039812 -0.795890 0.583788 -0.907387 0.815710 -0.357764 0.480420 -0.749948 -0.747694 0.944800 0.192431 0.828463 -0.438120 0.320467 0.801542 -0.771564 
-0.922005 0.300283 -0.835642 -0.089076 -1.072868 -0.818176 -0.040858 0.741246 0.320412 0.827128 -1.022086 0.870590 0.981520 -0.251892 -0.373452 0.690607 0.680520 0.872395 -0.734424 0.397433 
1.158439 -1.066380 -0.845232 -0.114387 -0.460567 1.094421 -0.074626 -0.735500 0.115571 -0.486413 -0.396231 0.291113 -0.669578 0.493147 -0.570056 -0.400448 -0.248671 0.011902 -0.706316 0.229758 
-0.527485 -0.241813 -0.081441 -0.209436 -0.150893 -0.125533 0.483305 0.189268 0.315984 0.263143 -0.009331 -1.061268 0.498769 0.635793 -0.260844 0.659561 -0.839737 -0.120359 -0.205740 -0.770570 
-0.576149 -0.731232 -0.703875 0.926755 0.746881 0.278129 -0.152626 0.881171 0.334696 -0.421273 -0.323999 0.254281 0.261209 0.235594 0.185119 -0.907438 0.507085 0.116447 -0.446402 -0.496232 
0.064995 -0.675807 -0.269527 -0.403777 -0.402457 0.625286 0.284323 0.396664 0.266752 0.511000 0.694499 -1.369882 0.672726 -0.605823 -0.693854 -0.269946 0.221295 0.073582 -0.759469 0.748820 
-0.650672 0.121750 0.603312 0.962263 0.158798 0.816865 -0.442877 0.779832 -0.844325 0.272277 -0.060876 0.073043 -0.401208 -0.987415 0.334427 -0.218418 -0.120927 0.741955 -0.589109 0.743273 
0.127630 0.192941 -0.318174 0.107428 -0.375981 0.049516 0.001578 -0.238163 -0.229527 0.131005 -0.199250 -0.498110 -0.177092 0.101054 -0.587389 0.265676 -0.937640 -0.869303 -0.104406 0.944198 
0.367334 -0.695822 0.357022 -0.736774 -0.118248 -0.779818 -0.418330 0.266079 0.873019 -0.214521 -0.719294 -0.761322 0.184163 0.957977 -0.376454 -1.051731 0.036305 -0.135555 -0.228622 -0.733288 
-0.565015 0.977441 0.963655 0.370602 0.903437 0.411475 0.473598 -0.315557 0.231384 -0.417740 0.141215 -0.066999 0.614225 0.294080 -0.589380 -0.234943 0.574137 0.029897 -0.639866 -0.089994 
0.165996 0.040191 -1.079166 -0.806786 -0.613824 0.554257 -0.030031 -0.031771 -0.634141 0.690975 -0.285822 -1.449794 -0.145215 0.762071 0.554143 -0.233859 -0.537547 0.202835 -0.373160 0.862382 
0.597741 -0.289393 0.811500 0.409585 -0.823992 0.204486 0.227666 -0.136729 0.940536 -0.419259 -0.428127 0.646871 -0.878510 -0.586150 0.222759 0.556261 0.509841 0.789750 -0.342606 0.398892 
0.964725 -0.920381 0.881770 0.927778 -0.207782 0.274383 -0.311697 -0.722365 0.088062 0.852489 -0.192845 -0.363277 0.011218 -0.203977 -0.759202 -0.105101 0.160784 -0.555896 -0.778682 -0.294240 
0.672855 0.326812 0.299647 0.113580 0.219094 -0.259219 -0.255927 0.480502 0.912401 -0.839841 0.873314 0.012948 0.484373 0.609491 -0.035925 -0.505559 1.189363 -0.993343 0.110079 -1.320045 
1.037320 -0.578821 -0.484499 0.537802 0.366710 -0.100386 -0.781382 0.333919 -0.756729 -0.104484 -1.047683 -0.490888 -0.324596 0.423014 0.180911 -0.897667 0.496005 -1.146383 0.344053 -0.047081 
0.329357 0.417195 -0.032481 -0.749315 0.323089 0.163090 -0.122748 1.009869 -0.649245 1.277328 -0.637253 -0.097832 -0.369561 0.230495 0.578655 0.869620 -0.828528 0.440643 1.335388 -0.218602 
0.865692 -0.636276 1.049860 -0.667868 -0.097354 0.826310 0.004439 -0.534259 -0.101289 1.080908 -0.584843 0.908431 -0.232438 0.579348 -0.898432 -0.686339 -0.705077 0.461326 1.230163 1.022813 
-0.442453 -0.346408 0.562625 -0.681785 -0.381416 0.255302 0.873795 -0.535647 0.313830 0.475784 0.192226 -0.274391 0.551869 0.777084 0.329582 0.399780 -0.690782 0.478349 -0.704698 -0.680246 
0.268970 0.213012 0.461242 -0.482834 -0.783619 -0.044760 0.749482 0.226890 -0.167914 -0.419339 0.938485 0.074811 -0.705590 -0.347026 0.431415 -1.026531 -0.503188 0.643573 0.561180 0.725449 
0.238054 -0.424911 0.538645 0.113433 -0.711128 0.164655 -0.509282 -0.562468 0.352513 0.856708 -0.679965 -0.228993 -0.065313 -0.554614 -0.804415 0.476367 -0.842835 -0.425640 -0.475472 0.789239 
-0.972783 0.771219 0.113933 -0.139847 -0.011160 0.353062 -0.399343 -0.981697 0.053651 -0.256710 -0.069933 0.370129 0.495781 0.886804 1.246685 0.028446 -0.084612 -0.545560 0.761079 -1.227300 
-0.869253 0.301483 -0.172376 0.469166 -0.517131 -0.718530 -0.314797 -0.076939 -0.151624 -0.726379 -0.570528 0.866045 0.619938 -1.032374 0.019536 0.817889 0.504389 -0.499850 0.834926 -0.718367 
-0.530196 0.387094 -0.203931 0.467950 -0.498580 0.525647 0.502489 -0.390400 -0.477638 0.545106 -0.003906 -0.781338 0.818143 0.239581 -0.885743 -0.144574 -0.208263 -0.272352 -0.099328 0.935996 
-0.035382 0.974055 -0.481755 0.014145 0.318788 0.869913 -0.567783 -0.134505 0.936203 -1.033588 0.298398 -0.298402 0.165034 0.652672 0.423061 -0.831217 -0.128192 -0.106078 0.543923 0.563524 
-0.811733 -0.698777 0.458953 -0.340251 -0.722889 0.121320 0.388188 0.269022 -0.611727 0.171362 -0.357342 -1.225282 -0.277870 0.317175 0.916516 0.256511 -0.873204 1.304568 1.132004 0.456276 
-0.639814 -0.046265 0.418002 0.171573 -1.019906 0.993305 0.424498 -0.859331 -0.186044 0.152848 1.328540 0.585902 0.266754 0.415067 0.249244 0.475819 -1.209364 0.475318 -0.658803 0.753349 
0.668542 0.006830 0.928761 0.787126 0.817167 0.238166 0.891734 0.653750 -0.118686 -0.002284 0.677116 0.042048 1.206527 -0.147257 -0.398614 -0.251455 -0.418216 -0.623807 0.241451 -0.862816 
0.610359 -0.147076 -0.125000 -0.441261 1.186938 0.058482 0.341013 1.037737 -0.129661 0.502940 -0.070960 0.686713 1.249793 -0.112965 1.201338 -0.727697 -0.393323 -0.721720 -0.312108 -0.920187 
0.464369 0.721656 -0.065859 0.954139 0.805363 0.106357 -0.343904 0.780124 0.640142 0.176359 0.666263 0.398007 -0.012678 -0.828570 -0.377571 -0.371974 -0.692808 0.578398 0.409984 0.594790 
-0.174613 -0.207297 -0.233373 0.118315 -0.958273 0.610527 0.589754 -0.488190 -0.687851 0.257881 0.592701 0.034471 0.537603 -0.111513 0.034042 -0.693648 0.262255 -0.067653 0.560141 0.800721 
-0.131819 -1.111796 -0.938051 0.472243 0.473454 0.556031 0.019634 -0.553912 0.581756 -0.367682 0.523902 0.309591 1.054716 -0.804501 -0.120354 0.395024 -0.273006 0.289612 -1.007680 1.030709 
0.860593 0.794685 -0.510688 0.906940 0.098579 -0.827441 -0.008233 -0.829505 -0.268088 -0.021272 0.624921 0.995399 0.089707 -0.460938 0.929542 -0.605185 -0.697435 -0.633638 0.193747 1.047449 
0.875052 -0.442796 -0.442640 -0.127022 0.868556 -0.761178 -0.807920 0.742626 -0.468521 0.198253 1.250283 -1.052691 -0.364171 -0.371451 -1.033443 0.267881 -0.398167 1.045290 -0.948523 0.883955 
0.626636 0.721228 -0.421196 0.471631 -0.709587 -0.802026 -0.054278 -0.640631 0.124269 -0.262136 0.738635 0.718144 -0.079753 0.222950 0.299244 0.414213 0.262380 1.141462 0.482159 -0.476184 
0.208729 -1.079388 0.768734 -0.533973 0.034591 -0.699372 0.118404 0.462993 -0.371950 -0.301380 -0.079317 -0.308436 -0.591342 0.278395 -0.385992 -0.539156 0.389254 0.064600 1.014140 0.013544 
-1.110353 0.236348 0.369953 0.646779 -0.534584 0.746217 -0.506989 0.277919 -0.326970 -0.205685 -0.508774 -0.519218 -0.424966 0.169370 0.630166 -0.408888 -0.458049 1.177943 0.723115 0.400181 
0.708900 -0.630177 1.002088 0.460850 0.581512 -0.361884 0.045521 -0.865835 0.738632 0.294356 -0.199252 0.348960 0.043697 -0.627961 -0.240496 0.579994 0.222650 0.834810 0.062506 0.159191 
-0.413150 -0.881765 -0.989663 0.807684 0.761306 0.613936 0.111426 -0.218977 -0.666578 -0.059517 -0.625146 0.781775 -0.875796 0.433026 0.623603 0.170949 -0.686207 0.234167 0.507231 0.090714 
0.462248 -0.443803 -0.779684 -0.175991 0.087373 -0.152516 -0.461324 -0.239409 -0.159283 0.752559 0.385011 0.549849 -0.183192 0.826002 -0.404265 -0.825093 -0.426879 0.693639 -1.125389 -0.051763 
0.746571 0.583327 -0.851957 -0.182287 -1.073431 0.931201 0.731788 -0.352566 0.219220 -0.472839 -0.686906 0.436820 1.049924 -0.030419 -0.044411 -0.217298 0.038293 -0.039012 -0.186903 0.401542 
-0.295955 0.898657 0.297851 -0.635890 0.455130 -0.157884 -0.169518 -0.522860 -0.429131 -0.687641 0.159876 0.107200 0.812688 0.459735 -0.854299 0.402296 -0.585230 0.074251 1.179963 0.411837 
0.040421 -0.566460 -0.082251 0.391515 -0.238380 0.270803 -0.754194 0.881706 0.482814 1.041578 -1.024254 -0.536162 -0.636677 -0.742240 0.558658 0.713962 0.135347 0.420879 0.516394 0.519550 
0.959751 -0.144850 -0.634365 -0.908951 -0.754243 -0.590488 -0.230805 1.016050 -0.515703 1.038495 0.559166 0.329227 -1.092942 -1.056132 0.302124 -0.306792 0.173454 -0.383840 0.653511 -1.191865 
0.875489 -0.822863 -0.759320 0.587403 -0.471422 -0.974808 0.717360 0.177515 1.111947 0.499413 0.233026 -0.184012 0.065486 0.491139 0.133667 0.447941 -0.665225 0.177069 -0.498552 -1.380239 
-0.072865 -1.064063 0.994476 0.497333 -0.359148 0.187274 -0.287955 0.353674 0.078452 0.434210 -0.672180 -0.015304 -0.513245 0.113282 -0.316671 -0.919395 0.052295 0.206011 0.075661 0.620012 
-0.445106 -0.198549 -0.158939 -0.771587 0.186133 -0.503907 0.483467 -0.778819 -0.043474 0.007631 -0.217817 -0.177664 0.580895 0.627809 0.638445 0.211877 0.547589 -0.834274 1.006395 -0.205558 
-0.308087 1.374508 -0.287811 -0.884951 -0.995650 0.541121 0.373034 0.336481 0.418905 0.663490 -0.117927 -0.025051 0.822718 0.788403 0.511803 -0.279575 -0.970807 0.073699 0.182299 1.188522 
-0.848415 -0.539246 -0.911625 -0.401094 -0.495475 -0.646976 -0.371097 -0.474131 0.047923 0.367549 0.444319 -0.708543 -0.529397 -0.284553 0.420267 0.347812 1.245674 -0.344631 0.170743 0.389131 
0.312545 0.113187 -0.080891 -0.806533 -0.327080 -1.067265 0.821072 -0.571519 -0.332450 0.870220 -0.036251 0.265636 1.076712 -0.686020 0.032421 -0.955788 -0.080015 -0.984682 -0.306686 1.113454 
-0.017452 0.491315 -0.803933 -0.792731 -1.094028 -0.095611 0.041601 0.940967 -0.306440 0.865002 -0.417668 -0.115762 -0.664418 -0.884577 -0.157480 -0.572813 0.458535 -0.145544 0.878121 0.975873 
0.350615 -0.941059 0.391653 -0.204994 -0.529395 -0.602645 -0.533125 0.461370 -0.040103 0.938071 -1.121988 -0.694995 -0.736541 0.196340 -0.497851 -0.801263 -0.486556 0.884440 0.178575 0.084385 
-0.155754 0.018931 0.685720 0.391217 0.524603 0.940046 -0.566401 0.238501 0.174534 -0.816052 0.051113 0.968514 0.483090 0.907451 -0.388134 0.000784 -1.339721 1.041788 -0.167674 -1.000635 
-0.055049 0.581456 0.883839 -0.831373 -1.177937 0.405355 0.390386 -0.787505 0.593077 -0.215399 0.266559 0.584547 0.922671 0.415143 0.132315 0.217310 -0.451916 -0.272130 -0.056214 0.965245 
-0.930106 0.843436 0.756757 0.257462 -0.197383 -0.033149 -0.665218 1.108234 0.203623 -0.030281 -1.188098 -1.322680 0.611315 0.829851 0.265719 -0.451521 -1.016131 0.518483 0.163904 0.706450 
-0.588745 0.603926 0.701539 0.384179 0.491272 -0.635863 0.084375 0.296396 0.006280 -0.719800 -0.465911 0.356463 0.852600 0.591674 -0.343346 0.537457 0.260180 0.349911 -0.285452 -1.216335 
-0.366057 -0.471317 0.006117 0.124075 0.288641 -0.674190 -0.877357 -0.925700 -0.360097 1.002016 -1.389300 -1.040307 0.104516 0.633208 -0.124646 0.141417 -0.693097 0.767217 -0.332729 -0.685313 
-0.631315 -0.906541 0.440719 0.546774 0.255673 -0.239557 -0.109999 -0.025310 -0.960644 -0.369279 -0.213396 -0.344796 0.211610 -0.433587 -0.080712 -0.074404 -0.434789 0.129232 0.533033 -0.835946 
-0.298738 0.467268 -0.042587 -0.769838 0.399900 0.000054 -0.075404 1.095939 -0.518782 -0.409795 0.027288 1.122275 0.917841 -0.523922 0.140167 0.323763 -0.285847 -0.414955 -0.790423 0.089537 
0.009920 0.530759 0.643170 -0.142833 -0.004228 0.758103 0.111756 1.017110 1.238617 0.134442 0.789545 0.213402 -0.447507 -0.571949 0.195934 -0.309370 0.106985 -0.727984 0.699869 0.546640 
-0.545826 -1.161338 -0.812108 -0.738926 0.238326 0.311200 0.695506 0.606565 -0.212796 0.456697 -0.940938 0.058544 0.254610 -1.091984 1.220568 -0.301322 0.054350 0.196603 0.020445 0.122226 
-0.741243 -0.168703 -0.187897 0.099867 -0.401287 -0.035728 0.849620 0.103846 -0.616954 0.089704 -1.008820 -0.964304 0.314788 -0.550208 0.923902 1.155227 -0.580379 -0.500937 0.233138 0.435679 
-0.436822 -1.329699 -0.783424 0.941761 -0.149454 0.853286 0.903816 1.071606 0.609379 0.219750 0.482027 -0.942253 -0.469592 -0.546701 -0.738827 -0.411719 -0.146630 -0.994006 0.694024 -0.214970 
-0.465460 -0.525378 -0.933671 0.807449 1.279587 0.449210 0.224474 1.070597 0.328721 -0.349882 -0.848036 -0.431676 -0.653427 0.474204 0.404902 -0.312632 0.133076 -0.203586 0.264650 1.056053 
-0.916727 0.775257 0.480415 0.608296 0.307793 0.979977 0.817751 -0.429941 0.086604 0.603881 -0.124331 -0.788811 1.134993 -1.016350 -0.982564 -0.723101 0.203729 -0.158706 -0.140690 -0.251306 
-1.032109 -0.765305 -0.232882 -0.780748 -0.136993 -0.751492 0.117581 1.062416 0.268535 0.987582 0.429850 0.481975 0.609534 -0.768321 0.089806 -0.498691 0.549338 -0.688044 -0.041803 -0.878409 
0.787436 -0.425439 1.193858 0.238495 -0.609212 0.130908 -0.024064 -0.294538 1.069267 -0.075103 0.966459 -1.051189 -0.934681 0.717439 -0.493005 0.017553 -0.005470 0.919019 0.247810 0.811274 
-0.194749 0.690631 -0.034377 -0.579251 -0.497517 0.141410 -0.955488 0.264116 -0.184851 0.768130 0.132674 0.521759 0.258404 0.301402 0.368187 -0.834843 0.295355 -0.968573 -0.391714 0.344589 
-1.405508 0.886540 -0.715508 0.145439 1.006760 0.512974 0.352724 -0.557951 0.233857 1.019340 0.292182 0.680544 -0.517037 0.335463 -0.088193 -0.684774 -0.489928 0.640606 0.569876 0.233811 
0.237699 0.569426 -0.095467 -0.512719 0.888453 0.006861 0.433189 0.121748 0.421572 0.710172 -0.960510 -1.326382 -0.064540 -0.765426 0.282408 0.135699 -0.550067 -0.455903 -0.519703 0.604616 
0.344135 0.168481 -0.512957 0.338623 -0.014978 0.276866 -0.176107 -0.679550 -0.292083 0.547345 -0.196309 -0.711920 0.291994 0.351187 0.784346 -0.603665 -0.226194 0.085892 -0.106566 -0.221139 
0.846657 -0.012825 -0.385526 -0.381649 -0.952678 0.713630 0.015832 0.820615 -0.140978 0.390207 -0.811591 -0.187081 -0.105145 -0.508839 0.489219 -0.283688 -1.122298 0.360536 0.105111 0.098965 
-0.563982 -0.191633 0.541578 -0.714410 -0.359444 -0.017176 -0.341610 -0.705657 0.177350 -0.020605 -0.630262 0.753228 0.401563 0.293057 0.862943 -0.283162 0.230009 -0.024202 -0.496655 0.884081 
1.010456 -0.126271 -0.692565 -0.018311 0.737399 -0.994449 0.971954 0.014254 -0.607212 0.439218 -0.203221 0.079376 -0.389927 0.442557 -0.637457 0.442732 0.076805 -0.577238 -0.469928 -0.676510 
0.706114 -0.336398 0.500517 -0.433142 0.409567 -0.433459 -0.400527 -0.821399 -0.898781 0.469874 0.788730 0.443132 0.088355 0.854902 -0.322257 0.558645 0.783495 -0.241263 -0.415149 -1.177996 
0.196120 -0.458191 -0.577329 0.182690 -0.473780 0.372424 0.560494 1.318751 -0.274640 -0.174438 0.499752 0.576567 -0.036950 0.642345 0.808527 0.372351 0.743145 0.086999 -0.695880 0.183017 
0.343454 -1.035440 0.556543 0.329570 0.619317 0.883888 0.707988 1.183919 -0.350146 -0.617294 0.558900 -1.042700 -0.064390 0.715823 -0.535305 0.480871 0.557129 0.109035 0.252331 0.542170 
0.582364 0.863204 0.859516 0.758815 -0.148628 0.137011 0.196937 -0.246778 -0.245155 -0.181946 1.197303 -0.654878 1.208193 -0.400509 -0.307060 -0.068487 -0.559353 -0.602765 0.890497 -0.329994 
1.292241 0.967144 -0.464928 0.122710 -1.166981 -0.807461 -0.495605 0.297194 -0.734505 0.273218 -0.315470 0.077615 0.782924 0.457378 0.713314 -0.966717 -0.207241 -0.290486 -0.030414 -0.306452 
-0.762314 -0.247725 0.447308 0.613576 -0.355765 -0.322206 -0.094173 -0.848199 -1.223288 -0.571074 1.090391 -0.816165 0.810434 0.252354 0.492715 -0.046472 -0.298083 -0.437272 0.586241 0.088133 
0.319358 -0.645738 -0.974211 -0.141206 -0.438099 0.513056 0.726805 0.748735 0.672127 -0.638137 -0.309120 -0.065580 -0.553574 0.882179 0.582008 -0.496427 -0.320481 0.218037 -0.052326 0.327774 
0.848103 -0.372818 0.560180 -0.987171 -0.548422 0.567561 -0.088101 -0.034635 -0.918984 0.943435 -0.807910 -0.670201 -0.471520 -0.692073 0.722578 -0.276291 -0.436589 -0.739751 -0.985316 0.594163 
-0.923079 0.155038 0.721312 0.525348 -0.539014 -0.864467 -0.595465 -0.056566 -0.297187 0.347259 0.675243 -0.228019 -0.428391 -0.909511 -0.804165 -1.099577 -0.757213 0.544366 -1.003845 0.665910 
0.069478 0.536939 0.057679 0.902974 -0.002220 0.440279 -0.211260 -1.001755 -0.167156 -0.457175 -0.527859 -0.153209 -0.154268 0.694181 0.112995 0.097959 -0.230260 -0.843897 -0.152573 0.174799 
-0.554876 -0.162826 0.292759 -0.449749 0.279196 -0.055913 0.030315 0.093309 0.384067 -0.803537 0.207610 -0.716028 -0.850069 -0.051985 -0.393556 -0.753420 1.041209 -0.624847 0.342916 0.006791 
-0.669579 0.159112 0.693389 -0.061713 -0.152753 0.174754 -0.648285 -0.573244 -0.654834 0.263738 -0.467991 -0.052749 -0.230104 0.862659 0.241403 0.704757 -1.183555 0.060937 0.095207 0.455306 
0.488396 0.074684 -0.482775 0.021914 -0.569590 0.963871 -0.960355 0.836853 0.286273 -0.088885 0.450221 -0.875298 0.569581 -0.414528 -0.442013 1.014366 0.583854 0.618382 -0.570373 -0.281929 
-0.229550 0.096897 0.497218 -0.285297 0.842438 -0.278269 0.646912 0.013118 -0.403388 -0.500412 0.706493 -0.506472 1.342849 -0.855686 0.690555 -0.023337 0.241048 -0.773185 -0.048588 0.578654 
0.255891 -0.678506 0.401750 0.136555 0.707403 -0.109358 0.624291 0.468349 0.328063 1.031688 0.181977 -0.204560 -0.342841 -0.451573 0.895490 0.111516 -1.156416 -0.174041 -0.083680 -0.576812 
0.433998 0.715933 -0.137293 -0.780179 -0.075960 0.513352 -0.063994 -0.777130 -0.383536 0.354033 0.401300 0.051488 -0.415184 0.031187 -0.020442 -0.259932 -0.513714 -0.028607 -0.002464 -0.505630 
0.347188 0.136005 -0.670885 0.935963 0.422400 -0.464781 0.425428 0.245361 0.021893 -0.427031 0.710336 -0.916455 -0.826304 -0.621104 -0.555343 -0.242766 -0.076998 0.225013 -0.542185 2.154380 
0.131175 0.708062 0.379917 -0.835005 -0.512730 0.830171 0.980929 0.875826 0.693289 -0.180175 -1.049712 0.470042 0.453816 0.868187 -0.739638 -0.921940 0.007327 0.218648 0.368236 0.137780 
1.107619 -0.640147 -1.037107 0.740575 0.773574 0.935822 0.126533 -0.850592 -0.803778 0.963899 -0.763514 0.130857 -0.330569 0.227920 -0.765491 0.124289 -0.900618 -0.424403 0.163620 -0.090341 
0.133879 0.637220 0.429912 -0.322461 0.844247 0.864011 -0.562325 -0.611495 0.921626 0.427146 0.366582 -0.912281 -0.031915 -0.521960 -0.183313 0.998285 0.312728 0.936988 -0.375818 -0.341713 
-0.727636 0.550436 -0.631737 0.823637 -0.524951 0.142345 0.367269 0.377831 -0.186973 0.211884 -0.093559 0.286605 0.225912 -0.033046 -0.417316 0.511221 -0.896689 -0.261443 0.028128 0.558016 
0.775205 -0.922537 -0.141719 0.231937 -0.310614 -0.973304 -0.688688 0.293558 0.629177 0.528716 1.251172 0.013062 0.540461 0.614163 -1.175383 -0.326711 -0.168802 -0.716854 -0.163161 0.321619 
-0.247770 1.122580 0.690018 0.979186 0.262345 -0.012177 0.451693 1.046930 -0.637412 -0.704523 1.045569 0.386044 0.459361 0.394814 -0.963914 0.631545 0.663513 0.340211 -0.230664 -0.503460 
-0.628218 0.966049 0.370943 -0.720017 0.614885 0.969297 0.005813 -0.418154 0.076329 0.071114 -0.287453 -1.168595 -0.078285 0.028193 0.901675 -0.037176 -1.405549 -0.808632 0.564446 -0.601847 
-0.203366 -0.160552 -0.582324 -0.721234 -0.365436 -0.133972 0.720844 0.167832 0.180451 -0.438065 0.862210 -0.302112 -0.633699 0.645478 1.098137 -0.189379 -0.720208 -0.404445 -0.195211 -0.630532 
-0.642063 -0.141338 -0.807183 -0.743812 -0.883550 0.648179 0.884395 -0.175537 0.772633 -0.587457 0.751712 0.161072 0.120126 -0.472552 -0.915269 0.473328 1.026653 -0.083267 -0.116808 -0.515572 
-0.263025 -0.010055 1.048585 0.787430 0.314240 -0.688169 -0.732466 0.288956 0.895033 0.430982 0.263375 0.074386 0.293130 -0.401976 0.946667 0.355773 0.355461 0.067078 -1.019991 0.057027 
-0.527840 1.034738 0.760544 0.697062 -1.088991 0.232049 0.493462 -0.677305 -0.494486 0.754707 0.216587 -1.316802 -0.321551 1.178840 0.303464 1.115798 0.344446 0.241582 -0.173044 1.131737 
0.130076 0.219105 0.108558 0.791812 0.525557 -0.194197 0.204466 -0.935359 0.668158 -0.789077 -0.128909 -1.151055 -0.142262 0.657050 -0.215057 0.737528 -0.739510 -0.314155 0.902144 -0.112743 
-0.399015 -0.236276 0.741316 0.704063 -1.182324 0.445615 -0.099129 0.519364 0.697450 -0.599399 0.136458 -1.333831 -0.442438 -0.137365 0.773490 -0.198704 0.080796 0.912641 -0.249571 -1.263207 
0.086009 -0.792721 0.721824 -0.361018 -0.684823 -0.892397 -0.012431 -0.395874 0.251239 -0.464016 0.507997 -0.216346 0.919795 -0.326176 -0.536956 0.531614 -0.574599 1.267790 0.314944 -1.113563 
-0.178223 0.591349 0.605961 -0.079269 -0.179259 -0.069184 0.742955 -0.173675 0.349815 -0.677078 0.360749 0.789563 0.916518 0.247089 0.061394 -0.462138 0.571833 0.353306 -0.216498 0.266529 
0.186619 0.646526 -0.648882 -0.155125 -0.144953 0.704902 0.558235 -0.152005 0.356581 0.492109 -0.897466 -0.661580 -0.522412 0.598371 0.806054 -0.734472 -0.457377 0.419491 -0.383397 -0.342594 
-0.577978 1.063363 0.339232 -0.030477 -0.802611 -0.301097 -0.732221 0.213963 0.517832 -1.273012 1.026439 0.222058 -0.229268 0.219010 0.307689 -0.557258 0.168173 -0.854011 0.284672 -0.480261 
0.683383 0.892312 -0.033529 -0.074639 0.638848 0.805540 0.195928 1.141790 -0.231571 0.667034 -0.417993 0.112585 0.811883 0.628545 1.132820 -0.193944 -0.700340 0.480790 0.286540 0.036524 
0.847834 -0.868964 -0.678386 0.942926 1.101184 0.819231 0.474474 0.342359 0.163357 0.141514 -0.156412 -0.822473 0.764851 0.782381 0.028301 0.153719 -0.567210 0.677936 -0.260522 0.087631 
-0.759418 0.268165 -0.230101 0.673093 -1.058178 -0.387299 0.468470 -0.282730 0.819789 -0.237433 -0.985804 0.587849 0.548040 -0.765491 -0.085095 0.119248 0.558077 -0.192735 0.257740 0.709703 
-0.440107 -0.558282 -0.185058 -0.250746 -0.233766 -0.665046 -0.623785 0.686488 -0.909054 0.000982 -1.080056 -1.223064 1.052003 0.428776 0.821364 -0.132387 -0.503325 -0.316351 -1.041802 -0.535770 
-0.754610 0.328952 0.121125 -0.890151 -0.840233 -0.398483 -0.626147 0.393099 -0.505540 -0.705119 0.712611 -0.734902 -0.841375 0.149350 0.544004 -0.404005 0.144750 0.793560 0.401305 -0.868962 
-0.476412 0.608269 1.068421 0.331419 -0.786893 1.039221 -0.575284 -0.599312 -0.591285 0.505943 -0.116613 -0.719265 1.019681 0.410980 0.648436 -0.071867 0.402427 -0.215506 -0.595152 0.253375 
-0.420975 0.461780 0.238138 0.060675 -0.070464 0.953434 0.282942 -0.722286 -1.265014 -0.029361 0.830631 -0.310848 -0.054856 0.951374 0.368970 0.283121 0.399261 -0.386978 0.084955 0.949406 
0.785990 0.381117 0.328250 -0.586628 -0.156291 -0.156754 -0.631072 0.350358 0.690733 -0.338835 -1.851787 0.442348 0.852208 -0.670163 -0.036153 0.133468 0.694364 -0.596232 -0.489543 -0.221019 
-0.330735 -0.183604 0.307381 0.223094 0.300470 0.649936 -0.759055 0.281662 0.089490 0.481189 -0.891112 -0.461592 0.824031 0.763972 -0.375266 -0.585602 0.713148 -0.171839 0.358614 -0.602853 
-0.287705 -0.722401 -0.539359 -0.927147 -0.594128 0.382571 -0.494583 0.752765 -0.455729 -0.233640 -0.462493 0.257827 0.548721 -0.021896 0.502168 -0.989345 1.022526 0.432410 -0.461677 -0.261710 
-0.427984 -0.122737 -0.335258 -0.252980 0.686630 -0.565321 -0.187802 0.690252 -0.343566 -0.161867 1.086459 0.654534 -0.047731 -0.859546 -0.611379 -0.343225 -0.841984 0.571133 0.124341 -0.034289 
0.198470 0.957361 0.645190 0.347896 0.853632 0.496934 -0.845406 -0.386181 -0.043899 0.006945 0.789962 0.043809 -0.446265 -0.196785 0.136895 0.184257 -0.636152 -0.061239 0.255090 1.196316 
-0.154094 -1.070105 0.744342 0.515284 0.209603 -0.109425 -0.836858 -0.235226 -1.142607 -0.807388 -0.365136 0.228861 -0.380169 -0.794540 0.026343 -0.686301 0.715551 -0.055284 1.098218 0.937484 
-0.207959 0.475460 0.437401 0.270132 0.184728 0.909245 -0.928134 -0.330168 0.047886 -0.229367 0.255973 -0.962796 0.477269 0.801975 0.812922 0.572499 0.116709 0.918751 -0.552896 0.162530 
0.452395 -0.087313 0.180607 -0.475031 -0.522217 0.127635 0.436612 1.041756 0.416466 -0.710289 0.095887 -0.705629 -0.466086 0.431598 0.531676 0.875514 -0.949977 -0.624849 -0.903035 0.286929 
0.033149 -0.003368 -0.293576 -0.253195 0.639742 0.696516 -0.674755 -0.766942 -0.147817 -0.056141 -0.634283 -0.784295 0.272578 0.850456 0.156553 0.079580 -0.487591 0.539316 -0.324052 -0.526096 
-0.048838 0.441079 -0.353726 -0.057435 0.922194 -0.664663 -0.620412 0.869063 -0.621884 0.542452 0.853464 0.455124 0.345631 -0.553290 0.578973 0.791597 0.068148 0.473346 -0.076000 -0.829262 
-0.281841 -0.103816 -0.521813 -0.654288 0.321519 0.805751 0.271041 0.712428 0.674595 0.343912 -0.397449 0.282171 0.756905 0.149895 0.212869 -0.223244 -0.195483 0.608174 0.683967 0.526895 
0.034951 0.813354 -0.273742 0.743417 -0.950598 0.246568 -0.231588 -0.135832 0.675961 -0.371968 -0.817501 0.137452 0.517607 0.073126 0.149751 -0.403867 -0.805406 0.450525 -0.566021 1.053312 
-0.228147 -0.211127 1.122836 -0.080061 0.460679 0.183301 -0.520350 0.951566 -0.966562 -0.142700 -0.107856 0.033372 -0.548945 0.306730 0.355422 -0.980300 0.604856 0.085180 -0.639376 -1.059310 
0.083121 0.980066 0.797178 -0.900730 0.325882 0.941937 -0.945229 -0.109754 -0.071933 0.746135 -0.534485 0.053112 0.370641 -0.993844 0.285895 -1.181616 0.691188 0.742483 -0.386520 0.285669 
0.212409 -0.899543 0.745939 -0.217757 0.376283 -0.489176 -0.354596 -0.657933 -0.522189 -0.358691 -0.504063 0.639344 -0.363706 0.480709 1.138163 -0.588668 -0.794550 -0.424686 0.314010 0.696217 
-0.249859 -0.947993 0.735704 0.383058 0.727594 -0.859511 0.207192 -0.559847 0.024143 0.810860 -0.430330 -0.385318 -0.216021 0.213752 0.778591 -0.051428 -0.778785 0.554767 -0.253652 -0.844729 
0.076048 -0.360320 0.118327 -0.454181 -0.903470 0.772753 -0.882716 -0.150008 0.604846 0.843408 0.209348 -0.275820 -0.547597 0.853804 -0.822615 -0.248264 1.030665 0.577319 -0.675668 -0.848227 
-0.270771 1.161622 0.348773 0.054337 0.225757 0.663639 0.183910 -0.813790 -0.620180 0.381423 -1.178238 -0.541346 0.359927 0.126843 0.212293 0.330399 -0.133108 -0.375478 0.168782 -0.689722 
-0.365253 0.126757 -0.358705 -0.521308 0.172341 0.769081 -0.993144 -0.500187 0.001927 0.275375 0.562774 -0.862534 -0.826368 0.370902 0.595810 0.144329 0.441217 -0.303710 -0.593358 -0.956528 
-0.041787 -0.981178 -0.168675 0.193851 0.370499 0.644319 -0.353992 1.074840 -0.501338 0.876387 -1.309329 0.084776 0.284781 0.454295 -0.764980 -0.526093 -0.099391 -0.320044 0.447205 0.217202 
0.069547 0.033478 -0.743891 0.325504 0.239568 -0.474466 0.395423 -0.767750 -0.194504 -0.161738 -1.140450 0.079706 -0.195270 -0.886270 -1.199591 0.240059 1.027456 -0.498876 0.081611 -0.104870 
0.395846 -0.031792 -0.050142 0.197338 -0.829739 0.621177 -0.728216 0.642477 1.133514 0.734135 0.001117 1.356377 -0.712704 -0.230320 0.656590 -0.392237 -0.165893 -0.757541 -0.256876 -0.286843 
-0.058931 0.538214 -0.795844 -0.499356 0.957811 0.824542 0.682749 -0.052212 0.353252 0.204062 1.855435 0.642705 0.254946 -0.549418 0.117375 -0.671231 -0.941050 -0.641770 -0.738619 -0.025367 
-0.292983 0.302208 -0.399604 0.850312 -0.563584 -0.266895 -0.225695 -0.535292 1.031648 -1.047806 -0.538233 -0.145978 0.115096 0.184389 -0.423087 -0.151897 0.475938 -0.554313 0.891671 0.914809 
0.213700 -1.131891 -0.968680 0.526626 -0.673257 0.261588 0.673755 0.435277 -0.484713 0.059717 0.182784 -0.975714 -0.729642 -0.555403 0.265246 0.442283 -0.240155 0.446752 -0.944677 0.661026 
-0.429812 -0.356145 0.185724 -0.573359 0.336267 -0.580318 -0.277152 -0.806517 1.103352 0.397684 0.722542 1.025478 -0.496810 0.499345 0.664048 -0.377028 0.925979 -0.194910 -0.337914 0.484689 
0.355690 0.365371 -0.348778 0.852743 -0.203241 0.113979 -0.143898 0.098567 -0.461582 -1.119309 0.894193 -1.280223 -0.710665 0.124306 -0.868840 0.947013 0.151168 -0.065980 -1.079439 0.683745 
0.901946 -0.124482 -0.120789 0.860327 -0.694407 1.009676 0.035052 -1.277120 -0.741901 0.831905 0.893779 -0.668169 -0.120975 0.290571 -0.351480 0.159783 0.506366 -0.370470 -1.063304 -0.136855 
0.572333 -0.620733 0.977096 -0.842659 -0.500393 -0.498456 -0.563683 0.605164 0.633047 0.250687 -0.787600 0.259016 -0.110903 1.071435 -0.527110 0.078376 0.502811 0.768648 -0.133279 -1.040922 
0.138193 -0.631713 -0.089861 0.990348 0.745224 0.541633 0.890701 0.792781 -0.081856 -0.715095 0.042365 -0.492574 -0.826533 0.089725 -0.801443 -0.355661 -0.039795 -0.591814 0.950195 -0.329615 
0.647764 0.813872 0.081467 0.164441 -0.118958 -0.791376 0.922275 -0.604139 0.878242 0.287939 -0.862259 -0.200635 0.629501 1.017658 -0.545356 -0.640025 -0.313115 -0.411221 -0.494587 -0.211428 
-0.500176 -0.393771 0.866674 -0.863155 0.703682 -0.801866 -0.215649 -0.723411 0.873350 -0.556942 0.188702 0.204465 0.649993 -0.553492 0.693136 -0.890993 0.505127 -0.099543 0.946858 -0.558050 
0.684306 0.354606 1.028412 -0.776461 -0.890804 -0.506601 -0.488925 -0.012843 0.206968 -1.070771 -1.441400 -0.491681 0.791073 -0.984292 -0.221887 -0.722971 -0.182045 -0.100099 -0.738522 0.222919 
-1.048278 0.757606 0.879186 0.689465 -0.533348 -0.638795 -0.160687 -0.974394 0.782583 -0.674172 0.705845 -0.214987 0.003208 0.701813 0.143454 0.108306 0.869152 -0.479746 0.483785 0.185900 
1.028237 -0.762072 -0.590970 0.991630 0.492062 -0.755286 0.771277 -0.713215 0.433161 -0.104790 0.260861 0.802298 0.874889 -0.932887 -0.409958 0.167732 -0.248997 0.055639 -0.414397 0.308183 
0.545212 0.244464 0.926626 -0.532976 -0.811335 0.098859 0.469901 -0.626178 -0.666861 -0.389953 1.322809 -0.549290 0.997467 0.019900 0.703630 -0.680017 0.308896 -0.035406 0.326941 1.337720 
0.731137 0.533761 0.611643 -0.561377 -0.033051 -0.045675 0.368580 -0.253273 0.422410 -0.433530 0.735403 -0.363177 0.803780 0.242286 0.095188 -0.272178 0.824465 1.112930 0.062415 0.658461 
-0.546219 1.203714 0.302491 -0.869568 0.890963 0.076485 0.327190 0.195174 0.718801 -0.136927 0.373710 -0.112194 -1.274714 -0.288425 0.349031 0.399812 1.062389 1.093273 -1.168121 -0.061564 
0.225006 1.155734 -1.044265 0.884026 -0.534188 0.812140 0.503282 0.873264 -0.427817 0.802360 -0.220155 -0.822640 -0.678098 0.378347 -0.826565 -0.387723 -0.442952 -0.657459 -0.325987 -0.761909 
0.551222 0.023334 -0.385271 0.266050 1.246443 -0.065378 0.934938 1.039510 0.064149 -0.030805 0.085324 0.960908 0.626831 0.259886 -0.765856 0.905140 -0.235099 -0.880052 -0.132634 -0.831075 
0.725589 0.059073 -0.375370 0.627359 -0.572214 -0.664389 0.738141 -0.391960 -0.669128 0.417652 -0.791048 -0.581115 0.720908 0.382392 -0.883838 0.836062 -0.959095 -0.696119 0.563113 0.776353 
-0.592018 -0.424729 0.819734 0.235168 0.732484 0.500234 0.807814 -0.308978 -0.708567 0.171762 -0.793279 0.018137 0.673029 0.548078 0.373970 -0.931381 -0.412124 -1.181919 -0.849276 0.373466 
-0.373835 0.346052 0.733533 -0.427682 0.782394 0.492538 0.970640 0.382719 0.913413 0.033890 0.078139 -0.593631 0.342422 0.569555 -0.602724 1.208712 -0.795267 0.169297 -0.027940 0.389785 
0.182692 -0.004085 -1.067567 0.748155 0.903468 -0.606869 0.366610 -0.381810 0.481590 -1.005411 0.162964 0.647367 -0.350841 0.433214 0.921834 0.137056 0.932893 -0.240860 0.742596 -1.049118 
0.016945 -0.196476 0.100347 0.874353 0.412016 1.081476 -0.390446 -1.022409 -0.754825 -0.435175 -0.061594 0.217035 0.634707 -0.225011 0.415936 -0.749760 0.483902 -0.181655 -0.675990 -0.349178 
-1.453401 -0.324679 0.000745 0.161391 0.537210 -0.852353 0.841942 -0.057491 -0.384503 -0.186374 -0.943494 0.281340 -0.094398 -0.498940 -0.982961 0.439528 0.641364 -0.011516 0.521585 0.871299 
0.738809 0.063593 0.558173 0.269616 0.746983 0.841444 -0.457551 -0.496461 -0.407498 -0.155735 1.445911 -0.992764 -0.122289 -0.616825 0.918339 -0.030566 0.181734 0.661549 -0.668677 0.127265 
-0.452792 -0.704278 -0.121951 -0.290428 -0.849555 -0.169685 -0.288719 0.310892 0.711664 -0.880155 -0.393222 -0.504542 -0.444373 0.327254 0.566456 0.170244 0.698402 -0.517587 0.117029 -0.573667 
0.124168 0.206045 0.299245 -0.996763 -0.727855 0.458249 0.712454 0.207060 -0.155529 0.059952 0.569365 -0.392069 -0.773707 0.483427 0.355562 0.760448 0.628272 0.307994 0.209617 1.096802 
-0.643780 0.565093 -0.170001 -0.850712 -1.091069 -0.523223 0.335477 -0.546756 1.140744 -0.366055 0.954710 -0.900048 0.111784 -1.042940 0.558591 0.939003 -0.145620 0.229546 -0.029081 -0.122779 
-0.523440 0.764735 -1.052163 -0.329007 -0.319570 0.253725 -0.432818 -0.356140 0.719252 0.515788 0.064431 -0.107475 0.121138 0.926233 -0.012626 1.123400 -0.365333 -0.658172 0.658538 0.349301 
-0.916824 1.108522 -0.333075 0.052629 -0.656656 0.611487 0.109960 -0.044250 -0.297657 0.199918 -0.086053 -0.775208 0.114438 0.551917 0.063168 -0.062435 0.785370 0.724220 1.003053 0.829604 
-0.951224 0.008650 -1.033846 0.974431 0.938854 -0.516618 0.096682 0.171335 -0.082894 0.181910 -0.406272 -1.257722 0.961794 0.168385 0.845608 0.374367 -0.458402 0.785095 -0.005480 -0.691896 
-0.388500 -0.074837 0.604934 -0.063253 0.482303 -0.007282 0.465832 -0.545594 0.587049 0.159514 -0.012507 -0.334407 0.845890 1.005582 0.231422 1.402203 -0.315049 0.373358 -0.003816 0.305563 
0.002512 -0.852892 -0.673558 0.583251 0.910976 -0.198857 -0.016820 -0.748998 -0.170011 0.065064 0.326240 0.763860 -0.493335 -0.482414 -0.117092 0.693811 -0.521754 0.251642 0.082758 -0.040276 
-0.691860 -0.801959 0.032056 0.640546 -0.821052 0.519340 0.709540 -1.441112 -0.077102 0.261221 -0.491638 -0.199764 -0.233849 -0.177408 -0.841640 0.762803 0.619851 -0.906264 -0.897732 1.259344 
-0.383510 0.292437 0.662842 0.230150 -0.761536 0.835329 0.669589 0.662019 0.956464 -0.733801 -0.430997 -0.782613 0.747295 -0.079189 0.522786 0.482078 -0.695112 0.377720 -0.883155 0.677371 
0.680317 0.282960 -0.183318 -0.835831 0.954330 -0.645593 0.513779 0.668440 0.490125 0.485141 0.295821 -0.397804 -0.065300 0.533696 0.081264 0.567350 -0.442787 0.444019 -0.600766 0.454878 
-0.228194 -0.487171 1.006067 -0.546687 -1.126856 0.732680 0.697858 -0.735297 0.655830 0.138796 0.256647 0.847185 -0.580412 0.496636 -0.409802 -0.771017 -0.032326 -1.227061 0.249584 -1.173743 
0.158866 0.377722 -0.251121 -0.870646 -0.314998 0.478560 0.250030 0.426048 0.701590 -0.654000 -0.950802 -0.943905 0.237396 -0.214460 -0.256111 1.157248 -0.167425 0.173517 1.074039 0.002181 
-0.432359 -0.186694 -0.634155 -0.740622 -0.225219 0.857661 -0.382309 0.078581 -0.923886 -0.427592 -0.119632 0.774774 -0.636463 1.285128 -1.212283 0.993434 0.329515 0.497555 -0.486612 0.797129 
-0.536599 -0.101240 -0.169770 0.188395 -0.647444 -0.248711 -0.557559 -0.165392 -0.097920 -0.232921 0.484140 -0.640396 0.334261 -0.117240 0.722085 0.334743 0.525316 -0.826641 1.002598 -0.209788 
0.673295 -0.253747 0.305505 -0.569504 -0.066375 0.002693 -0.563846 -1.305781 0.537243 -1.246503 -0.221576 -0.640955 0.335697 0.057966 -0.806483 0.584840 0.175068 0.910147 -0.699364 0.018638 
-0.042189 1.389697 -0.608490 0.112268 -0.083879 -0.345541 -0.581858 -1.318055 -0.838569 -0.144016 -0.533335 0.423257 -0.098780 -0.358323 -0.870306 -0.914109 0.902399 -1.008374 -0.327098 1.037733 
-0.561774 1.124701 -0.210397 0.203411 -0.026549 -0.597687 0.701288 0.193249 0.714771 -0.085755 0.604698 -0.101999 -0.523633 -0.229077 -0.901480 -0.330955 -0.142288 -0.440061 0.388953 1.290987 
-0.155449 -0.607018 0.375895 0.208461 -1.353760 0.163235 0.364613 -0.758228 0.335762 0.740060 -0.520396 -0.868455 0.894337 0.138277 0.325300 -1.260590 0.115207 -0.062424 -0.278984 0.425097 
0.140834 -0.922604 0.707704 0.978945 0.661130 -1.011624 0.787122 0.776152 1.101931 -0.411760 0.930755 -0.198178 -0.676339 1.055354 0.001303 1.137236 0.611283 -0.264762 0.561062 -0.567745 
0.517956 -0.211468 0.311803 -0.184431 0.969733 0.704654 -0.922217 -0.003496 0.660484 0.372546 -0.861780 -0.154905 0.479120 0.570009 0.860946 0.310147 1.197583 -0.528680 0.439076 -0.172838 
1.081440 0.001188 0.742671 -0.685059 -0.097897 0.634294 1.007938 -0.813819 -0.422141 0.029549 0.446103 -0.302563 -0.456829 0.769183 0.387660 1.325520 1.045241 0.577549 -0.001100 0.543266 
0.907532 0.612474 0.667358 0.135985 0.575524 0.054543 -0.375809 0.067719 -0.419372 0.251612 0.995657 0.588885 -0.095932 0.005848 -0.445348 -0.102991 0.528241 0.763444 0.490709 -0.827593 
-0.455248 0.740082 -1.022894 -0.621114 -0.178406 -0.982086 -0.434992 0.302804 0.629499 0.685540 0.382353 0.684654 0.932105 0.109752 0.015339 -1.193759 0.319781 -0.691255 -0.211390 0.309381 
-0.315950 0.937578 0.557515 0.089314 -0.158188 -0.213344 -0.133104 1.073011 -0.343663 0.845669 0.698855 0.289147 0.655451 -0.584265 0.034896 -0.558899 -0.601966 0.348913 0.346146 -0.590666 
-0.264659 0.252590 -0.631809 -0.593054 -0.098277 0.583438 -0.831370 0.979096 -0.794322 0.278633 0.913462 -0.610251 -0.005969 -0.439160 0.187880 0.589557 -0.736740 0.428107 -0.165932 0.010955 
0.545683 -0.923595 0.199092 -0.958541 1.072421 -0.025958 -0.440728 -0.356090 0.228598 -0.575859 -0.718905 0.039338 0.019734 -1.134374 0.728603 0.046119 1.307253 -0.672286 0.746976 0.468586 
-0.298861 -0.161206 -0.866905 0.443748 0.763602 -0.022730 0.736925 0.545588 0.771363 0.702551 -0.745167 0.320202 0.258069 -0.372622 0.249135 0.896940 0.412955 0.518057 -0.544093 0.548175 
0.613506 -0.140361 0.480969 -0.552565 0.666686 0.537014 -0.645580 -0.496504 0.257465 0.448108 -1.316550 -0.228857 0.154500 0.274079 -0.181574 0.813340 0.130725 -0.974879 0.205363 -0.821129 
0.169433 0.152886 0.687886 -0.264339 -0.488790 0.268384 0.458068 0.486803 0.119731 0.538300 -0.791640 0.530732 0.704864 1.098546 -0.358505 1.090384 0.051547 0.035057 0.248805 -1.193627 
0.014917 -0.765219 1.047028 0.750983 0.393047 -0.371338 -0.315925 -0.972177 -0.398956 0.120810 -1.371467 0.267458 -0.493916 0.789016 -1.102560 0.565961 0.243678 -0.984437 -0.503578 -0.320709 
0.420869 -0.207700 -0.391650 0.878218 -0.998920 0.209548 0.904976 -0.831972 0.999029 -0.016215 -1.013256 -0.884089 -0.535544 0.343993 -1.164122 0.434369 0.449131 -1.416514 -0.288639 -1.141942 
1.032223 -0.949498 -0.189072 -0.240156 -0.046441 -0.092031 0.833538 -0.433503 0.955738 -0.448488 -1.252985 0.141020 -0.260457 0.686423 0.284805 0.398727 0.616539 -0.487047 -1.444645 -0.659414 
-0.470016 1.229480 0.471016 0.108676 0.158517 -0.262963 -0.519600 0.713526 -0.837158 0.335107 0.166708 -0.527082 0.114184 -0.057848 0.879350 0.385918 -0.130176 -0.222589 -0.528658 -0.137655 
0.393739 -0.530552 -0.774029 -0.511971 -0.473745 -0.436852 0.314717 -0.044150 -0.955110 0.271911 0.113263 0.848653 0.346642 -0.633945 -0.007549 0.206696 0.569526 -0.669783 0.973635 0.572271 
-0.183543 0.272509 0.817153 0.891520 -0.029007 0.310389 0.582724 -0.031022 1.011178 0.290948 0.492072 0.681421 1.222991 -1.272038 -0.085414 0.792441 0.502496 -0.336072 -0.796739 0.005634 
-0.037204 -0.231630 -0.584148 -0.182073 -1.176340 0.744366 1.003302 -0.561992 -0.493405 -0.725841 -0.377504 0.577581 0.079251 -0.811380 -0.313051 0.295055 -0.747363 -1.253588 0.415128 -0.415612 
0.687677 0.563108 -0.380450 -0.941824 0.145505 -0.902701 0.220343 0.477949 -0.693048 -0.737058 -0.801092 0.242307 0.579401 -0.042711 0.409293 -0.363619 -0.626258 0.481760 0.499219 -0.267316 
0.673781 -1.072109 -1.221492 0.933479 0.525126 -0.199700 -0.188510 -0.335655 1.179201 -0.815688 0.957980 0.149418 -0.479026 0.588592 -0.936051 -0.416110 0.593906 0.493618 -0.356423 0.276924 
-0.599349 0.016810 -0.054800 0.554744 0.183427 0.868860 -0.213434 0.079603 -0.608227 -0.491140 -0.062437 0.697488 0.333900 -0.244456 -1.049258 0.465083 -0.834044 0.775574 0.270896 0.552446 
-0.253778 -1.119225 0.076859 -0.060687 0.143930 0.256883 -0.371177 0.218158 -0.426617 -0.155448 -0.319355 -0.478412 -0.926293 -0.306196 0.513624 -1.128658 -0.782853 -0.458597 -0.105600 0.042415 
-0.557227 0.350399 0.241565 0.098326 -0.925320 -0.618854 0.275703 0.883178 -0.339545 -0.288830 0.050566 0.304463 -0.481262 1.091111 0.100805 0.032618 0.453747 1.111688 0.113268 -1.674202 
0.392539 -0.203375 -0.589108 0.350784 -0.549953 0.160121 -0.572328 -0.360236 -0.064647 -0.004792 -0.377729 -0.045959 0.948269 0.093798 1.046580 -0.143603 0.345204 -0.042958 -0.554044 0.266342 
0.852271 0.330592 -0.206132 0.569094 -0.968292 0.148942 -0.169888 -0.104033 1.113860 -1.344354 -0.002387 0.519733 -0.278314 0.176147 0.743713 -0.116889 -0.779692 0.289468 0.368545 -0.754436 
-0.453087 0.300979 0.423871 -0.907499 0.012798 0.144578 -0.236538 -0.504875 0.863074 -0.858050 -0.018892 -0.285028 0.440176 1.088420 -0.409556 0.377947 0.720574 0.781446 -0.230662 0.397897 
0.056214 0.712779 -1.075795 0.331757 0.794038 -0.141412 0.556315 -1.307881 -0.526741 0.177175 -0.529522 0.062947 0.008625 -0.941192 -0.534755 0.610398 -0.603492 -0.761418 0.727057 -0.262397 
-0.236898 -0.145495 -0.563552 0.853252 0.532500 -0.868851 -0.938692 -0.915247 0.917058 0.007719 -0.111990 0.290250 0.956757 0.702237 -0.812098 -0.613186 1.140015 0.798616 0.446871 0.055146 
0.271592 -0.397292 0.203312 -0.297261 -0.228188 -0.272248 0.885855 -0.894740 0.552682 0.321768 -0.196042 -1.461756 1.352423 -0.307813 0.377898 -1.405482 0.270161 0.735192 0.728863 -0.197392 
0.453018 0.283321 -0.862449 -0.194517 -0.152465 0.547987 0.072012 0.695655 0.789165 -0.943403 0.341289 -0.310014 1.170285 -0.492549 1.076292 -0.700154 -0.149452 0.053193 0.989064 -0.592879 
-0.853310 0.045304 -0.086151 -0.252818 0.387192 -0.305464 0.671340 0.550465 0.471896 0.967104 0.226827 -0.036798 0.537092 -0.384873 -0.391962 -0.322734 1.127085 -0.419142 -0.304534 -0.496989 
0.304213 0.546390 0.442404 0.740727 -0.043530 0.098197 -0.200180 0.987983 -0.578568 0.009734 0.660332 -0.371479 0.189993 0.532353 0.363470 0.029807 0.204392 -0.951041 0.017720 0.412094 
-0.961488 0.412239 -0.120976 -0.402450 -0.906362 0.770239 -0.391665 -0.818878 -0.074003 -0.543276 -0.611979 0.240850 0.983203 0.620007 -0.068602 -0.578878 -0.851139 -0.783123 -0.743446 0.501878 
0.193032 0.538849 -0.895592 0.433218 -0.080052 0.514275 0.831949 0.287540 0.347039 0.692012 1.058156 0.013234 1.014332 -0.199883 -1.336484 -0.952587 0.349388 -0.950078 -0.670830 -0.392763 
0.504077 0.130316 0.793972 0.576096 -0.558900 -0.775635 -0.561690 0.275924 0.284950 -0.468416 0.775185 0.029215 0.544288 -0.068525 0.403419 -1.389178 -0.574569 -0.236279 0.273706 -0.485672 
0.689625 0.501288 0.348552 -0.052790 -0.501754 0.110744 -0.866789 0.949269 0.878482 0.034999 0.645243 0.020239 0.101332 0.275346 0.552966 0.570691 1.166452 0.352444 -0.295294 1.011733 
-0.265354 -1.003934 0.851280 -0.658228 0.147664 0.590710 -0.498907 0.764941 0.861105 1.167496 -0.292807 0.646328 0.311915 0.491597 0.054817 0.500852 0.662906 -0.627303 -0.212241 0.635290 
0.261751 -0.318246 1.101340 -0.284920 -0.114352 -0.043469 0.750457 -0.289756 -0.831854 0.686240 0.740926 0.814036 0.101713 -0.021341 0.923566 -0.543855 -0.023279 -1.314832 0.695101 0.179573 
0.644532 0.315960 1.091939 0.395370 0.411969 -0.440835 0.500592 0.244000 -0.273471 1.150641 -0.382770 -0.119535 0.506802 0.072285 -0.233279 -0.039236 0.349932 0.762822 -0.872391 1.024102 
-0.597404 -0.150381 0.298478 -0.871840 -0.686162 -0.637620 0.352708 0.679148 1.369461 -0.442543 -0.167605 -0.883789 -0.394486 -0.076430 -0.660860 0.583076 0.564027 -0.866099 0.774719 -0.422765 
-0.442210 -1.005037 1.271906 0.585539 -0.443312 0.979177 0.770870 -0.637040 0.874990 0.972207 0.724883 0.089015 -0.145330 0.786806 0.321318 -0.109114 -0.913700 -0.363704 0.488288 -0.981373 
0.307593 0.347763 0.917434 0.105951 0.808539 0.375722 0.569067 -0.505826 -0.236310 0.096353 -0.585493 -0.753462 1.154640 -0.210603 -0.653372 1.126782 0.421115 0.643595 0.421052 0.449725 
0.585901 0.101597 -0.408485 0.080323 0.188266 -0.614525 -0.068622 -0.233198 1.154330 0.773241 0.505449 -0.580366 0.488471 -0.254029 -0.596925 0.230543 0.601770 -0.228839 -1.222802 0.177337 
0.053415 -0.896387 0.877798 0.483843 -0.055578 0.379087 0.398254 -0.035795 1.383592 0.045159 -0.739027 0.959651 0.263292 0.858533 1.019184 -1.256418 -0.450878 -0.226255 0.120030 -0.815690 
-0.347603 -0.357205 -0.126196 0.414184 -0.780546 0.621877 0.912761 -0.925705 1.104147 0.291359 0.395968 0.467774 0.299751 0.414811 -0.235273 -0.187278 1.276184 0.064142 -0.195348 0.945008 
0.216514 1.545376 0.511050 -0.788044 -0.515413 -0.015531 0.062215 0.263916 -0.253053 -0.831839 0.222241 1.855594 0.586851 -1.047410 -0.203666 -0.584372 -0.837379 -0.147951 0.765214 0.461979 
0.358254 1.122184 -0.204348 -0.903442 1.000369 0.925190 -0.170231 -0.601221 1.209000 -1.151760 0.629755 -0.045688 -0.176218 0.012175 0.946370 0.322646 0.020280 0.373340 0.365645 -0.423706 
-0.659799 -0.137393 0.895442 0.697882 0.650136 0.773505 0.175269 -0.112127 0.189765 0.457220 -0.187287 0.203403 -0.034821 0.704763 -0.554552 -0.989072 -0.140779 -1.122332 1.109476 0.334289 
-1.132218 -0.519467 0.154412 -0.775648 -0.156805 0.237459 0.149119 0.803289 -0.198178 1.065221 -0.432508 -0.751146 1.284186 0.019865 0.640255 0.163062 -0.843993 0.516678 -0.785002 -0.279045 
-0.540986 -0.851332 -1.145022 -0.821602 -0.769525 0.457686 0.496338 -0.852688 0.028376 -0.513601 -0.234041 -0.208332 0.651012 -0.432186 -0.036708 -0.004182 -0.784895 0.169603 -0.652099 -0.899814 
-0.465739 -1.330785 -0.046985 0.794095 0.530807 0.828658 0.407393 -0.731875 0.054179 0.009559 -0.554544 0.621270 1.007408 0.403940 0.887502 -1.194993 0.315408 0.073290 -0.334791 -0.507413 
0.392849 0.123482 0.532959 -0.075285 0.409042 0.525030 -0.804464 0.166056 0.117215 -1.375670 -0.455570 -0.355146 0.972338 -0.626193 0.608231 -1.189259 0.611491 0.320972 0.488062 -0.692888 
-0.971244 -0.921491 -0.837096 -0.333228 -0.070333 -0.138078 -0.036862 -0.323694 0.028019 -1.010110 1.327031 0.784875 -0.045564 0.728380 0.418615 0.777008 -0.021474 -0.647207 0.411901 -0.284480 
-0.259366 -0.676718 -0.566536 -0.780405 0.810291 -0.329606 -0.543142 -0.624704 -0.312794 -0.801532 0.613891 0.430544 0.932161 0.357432 1.008970 0.363626 -0.265606 0.604005 -0.498137 -0.001549 
0.880738 -0.268820 0.123860 -0.678505 0.778649 -0.088880 0.185935 0.428873 0.321819 -1.100973 -0.376044 -0.467800 0.813393 1.009653 0.287367 0.112192 -0.320637 0.788718 0.203090 -0.713141 
0.140908 -0.346292 -0.816470 0.331660 -0.085775 0.367124 0.823405 0.498401 -0.361704 0.139111 -0.934090 -1.121094 -0.195716 -0.376988 0.896724 0.126289 0.109800 -0.864887 -0.799929 -0.106955 
0.241016 1.017641 -0.642577 0.961633 0.658431 0.500420 -0.607518 -1.492526 1.029366 -0.630138 -0.276161 0.007691 0.120183 -0.551023 -0.158579 1.324389 -0.667114 0.352428 0.593646 0.033654 
-0.459530 0.327860 -0.568752 0.007032 0.420134 -0.924469 0.557908 -1.136251 -0.462474 0.600021 1.452002 0.468466 0.632095 0.715875 -0.235103 0.047455 0.302501 0.688992 -0.121400 0.650745 
-0.534874 -0.811543 0.367262 -0.556278 0.187975 0.319940 0.432965 -0.280496 1.005241 -0.058060 1.121610 -1.235342 -0.689327 -0.821324 0.074714 -0.853995 1.172766 -0.463997 0.804350 -0.443462 
0.450149 -0.065470 0.741811 -0.865529 -0.690798 0.260122 0.028701 0.443565 -0.200681 -0.987895 -0.320227 0.841276 0.496600 0.155120 0.995151 -0.436044 1.364932 0.272054 -0.514532 -0.284368 
0.441022 0.054853 0.525616 -0.559692 -0.303592 0.628094 -0.040001 0.150577 0.975281 -0.035590 0.303624 0.521729 1.248815 0.336890 0.721933 0.460861 0.771695 -0.048666 0.495324 0.864982 
-0.054663 -0.476675 -0.523880 0.998710 0.246721 -0.926517 0.425315 0.805385 0.614630 0.387757 0.461805 -0.760434 0.640347 0.613152 -0.571761 0.509011 -0.478002 0.968335 0.567332 0.524104 
0.746032 1.257740 -0.029115 -0.050223 0.281169 0.307710 -0.098456 -0.232549 1.320156 -1.182732 0.139636 -0.317781 0.877802 0.398456 -0.192055 0.733874 -0.131546 0.392583 -0.593315 -0.668391 
-0.301734 0.619018 -0.620906 -0.067223 0.954938 -0.027452 -0.847206 0.808236 1.319534 -0.389215 -0.342379 0.464970 0.369839 -0.706767 0.514097 0.537547 0.359842 -0.286192 0.976606 0.666200 
0.035904 -0.097085 -0.536641 0.196179 0.295304 -0.980232 -0.190712 -0.577402 0.166913 -0.041952 -0.586567 0.033695 -0.582840 0.219459 0.481592 -1.212092 0.550596 0.375019 0.460193 0.157648 
-0.570309 -0.163197 0.893992 1.015884 -0.731939 0.856456 0.248940 -0.349250 -0.512118 -0.167368 -0.953812 -0.172155 0.267127 0.443846 0.056123 0.523490 0.470801 0.254418 0.931576 0.814375 
-0.987594 -0.695079 -0.303573 -0.932309 -0.312951 0.030142 0.616598 -1.055864 -0.729216 0.575685 -0.762029 0.366328 0.732996 0.588783 0.667133 -0.524007 -0.474879 0.834032 1.011874 0.335919 
1.298154 -1.165327 0.074103 0.527358 0.236407 -0.893097 0.665468 -0.492732 0.072993 0.302702 -0.165428 -0.514846 -0.460091 0.389478 -0.717677 -1.043762 0.338390 0.591888 -0.082142 -1.058475 
-0.115761 0.237749 0.379279 -0.900087 0.147696 0.128906 0.881508 0.388095 1.033238 1.172727 -0.247316 -0.477617 -0.545662 -0.075926 -0.453571 0.039566 0.891773 0.937968 -0.577544 -0.787803 
0.456536 0.200486 -0.350894 -0.345413 -0.159315 -0.694144 -0.186092 -0.357042 -0.699172 0.803545 0.043533 -0.302347 -0.555227 -0.775205 0.775347 0.615713 -0.171703 -0.237029 0.988629 0.686736 
0.144901 -0.157265 0.505420 -0.118314 -0.602395 0.926084 0.350782 0.863933 -0.240206 0.885756 -0.856533 -1.066686 -0.728717 -0.976474 -0.094203 -0.668138 -0.242414 -0.096366 0.563552 0.029326 
-1.298661 0.044825 0.426861 0.866809 0.727279 -0.701334 0.409775 0.644679 0.682322 0.502142 -0.757978 -0.825953 0.190434 0.640292 0.958250 -1.066120 0.414226 0.065829 -0.142884 -0.101228 
-0.808114 -0.621440 -0.831176 0.832083 -0.554456 -0.629518 0.846079 -0.646218 0.698883 1.386039 0.025694 0.372342 0.181714 0.726887 1.268051 0.837047 -0.567772 -0.512398 -1.142939 0.572021 
0.479688 0.813797 0.987992 -0.043990 -0.681740 -0.885560 0.828503 0.031611 0.807153 0.950663 0.564311 0.399010 -0.691817 -0.733834 0.458523 -0.691829 0.055250 0.074721 0.104368 1.070507 
-0.111545 1.066387 -0.507724 0.802254 0.520196 0.771035 0.402080 -0.788709 1.022879 -0.304708 -0.544990 0.293205 1.050416 -0.731225 -0.411886 -0.360775 0.079232 0.836071 0.629788 -0.132421 
-0.051100 0.933541 -0.001483 -0.348681 0.221612 -0.227234 0.525514 -0.014778 0.603656 0.797807 -1.199619 0.299607 -0.770503 -0.217023 -0.014503 0.048243 -0.168373 0.238129 -0.453655 0.660860 
0.124728 0.086745 0.592295 -0.163029 -0.783951 1.012272 0.044418 0.112124 0.106378 0.235613 0.263792 -0.279436 -0.930906 -0.105036 -0.458362 -0.468978 -0.927876 -0.457299 -0.544612 -0.219811 
-0.495418 0.261750 -0.343614 -0.756284 -0.619610 -0.301497 -0.157997 -0.646731 -0.782407 1.016067 0.339290 -0.073054 -0.462601 -0.908975 0.254480 -0.188318 -0.532906 0.092372 0.703527 0.516757 
-0.421918 0.776493 -0.320176 0.749487 0.203398 0.249443 -0.626977 -0.054003 0.506240 -0.234329 -0.028506 -1.118531 0.831074 0.347086 -0.501358 -0.744355 -0.218613 0.326226 -0.357708 -0.006742 
0.669702 -0.841901 0.449669 0.130899 0.238695 0.979646 -0.357072 -1.014534 -0.498360 -0.468904 1.493373 0.356424 -0.682256 -0.195986 0.921045 1.103634 0.996457 -0.251596 0.675173 0.091941 
1.256433 -0.498819 -0.836632 -0.334465 -0.246778 0.771857 -0.578598 0.470712 0.445948 -0.733198 0.136316 0.099890 -0.689419 0.635800 0.038639 -0.774854 1.505890 0.112545 0.967994 0.126209 
0.707709 -0.780505 0.795412 0.354469 0.465497 0.780698 0.216879 -0.819657 0.940795 -0.223696 -1.256884 -0.463638 1.013950 -0.276707 0.397031 -1.133324 -0.329441 -0.508665 0.454342 -0.940725 
1.030738 0.221948 -0.328466 -0.629424 0.861495 0.400549 0.171833 -0.398843 0.544890 -0.406198 -0.476440 -0.370097 -0.701969 -0.386303 -0.706702 0.537011 -0.852795 0.680835 0.342951 -0.534109 
0.938763 -1.007840 -0.953326 -0.909352 0.340355 -0.723947 0.349232 0.780360 -0.302564 -0.223930 0.888530 0.412243 -0.588602 -0.677085 -0.083575 0.985070 0.289047 -0.419379 0.383700 -0.029122 
-0.277282 0.084245 -0.842957 0.737602 0.710568 0.662900 -0.203575 -0.594887 0.446532 -1.184626 0.470979 -0.297601 0.955951 -0.208130 -0.878674 0.106914 -0.698177 1.061547 1.521890 -0.482411 
-0.655159 0.340394 0.638731 -0.484872 0.598743 0.351273 0.509300 0.265134 0.502952 0.683451 -0.284898 -0.165978 0.728285 0.420557 0.169654 0.345760 -0.688814 -0.465999 0.789570 0.146373 
-0.648476 -0.197426 -0.520560 0.450733 0.886382 -0.331680 -0.753608 0.066592 -0.312020 -0.360762 -0.173954 -0.060788 -0.604177 -0.129312 0.663399 -0.179464 0.434193 -0.472006 0.210815 -1.173304 
0.979430 0.096806 0.688150 0.172804 -0.143647 -0.351747 0.589313 0.096116 0.804193 0.284777 -0.356100 -0.127135 0.860437 0.337234 -1.001907 0.127234 0.890123 0.281884 -0.312683 0.040180 
0.071710 0.669068 0.560241 -0.374827 -0.051723 -0.077874 -0.917537 -0.095867 -0.263093 -0.897667 -0.681295 -0.375404 -0.156474 0.553241 -0.962540 0.017322 -0.109248 0.334334 -0.789648 -0.126941 
-0.523624 0.277751 -0.012201 0.157709 0.650081 -0.980195 0.107534 -0.388795 0.326468 -0.843544 -0.120482 -0.064529 0.473608 -0.683324 -0.385382 0.403499 0.820440 -0.267175 0.265084 -0.167135 
0.166656 -1.104796 -1.142013 0.494828 0.082674 0.987786 0.010469 0.397245 0.988257 -1.074366 -0.584546 -0.705962 -0.056279 0.169346 -0.699727 -0.309862 0.967942 1.068387 0.614635 0.119938 
0.392743 -0.818948 0.025741 -0.615817 -0.037363 0.866962 0.113532 0.657473 0.924291 -1.385461 -0.037706 -0.711907 0.164582 1.003144 0.510346 -1.186633 -0.336116 -1.042731 -0.945532 0.289837 
-0.915057 -0.161946 -0.019712 0.433178 -0.719228 -0.776189 -0.051933 -0.350142 0.055357 -1.072867 0.014608 0.001951 -0.553767 0.373252 0.729911 -1.232757 -0.988553 -0.268652 -0.592138 -0.526713 
0.403626 0.133974 -0.334015 -0.689021 -0.570800 0.642323 0.087221 -0.279245 0.409135 -0.082891 -0.220190 0.293699 -0.089544 0.502547 0.900695 0.288661 -0.711792 0.349388 0.327642 -0.966346 
-0.999776 0.165669 -0.216560 0.536312 0.620580 0.043091 -0.622471 -0.845397 0.059976 0.496109 -0.294523 -0.022344 -0.564300 -0.017132 1.011972 -0.884010 -0.400947 0.317514 0.519435 0.281564 
0.850008 0.684849 -0.029827 0.583905 0.529727 0.966593 -0.308777 -0.071552 -0.052901 0.413089 -0.457086 -0.053329 -0.420408 0.563802 0.892664 0.923877 -0.059647 -0.197356 0.435881 0.085437 
-0.752532 -0.912689 -0.160661 -0.298756 0.762073 0.573398 0.175749 0.373474 0.525420 -0.779627 -1.153178 -0.503346 0.590069 -1.155787 -0.139587 -0.427462 1.220126 0.869816 -0.598441 -0.331827 
-0.482438 0.719490 0.214051 0.269604 -0.281796 -0.144025 0.072228 0.637997 -0.789815 0.630512 0.045622 -0.094309 -0.102652 -0.182064 0.062631 -0.769916 1.011448 0.870712 -0.198404 0.001879 
-0.799266 -0.702484 0.434741 0.346899 0.258327 0.730465 -0.934755 -0.257286 0.359861 -0.784611 -0.042769 0.406782 0.240033 0.711615 0.522955 0.527686 0.203935 0.833962 -0.964193 0.224294 
0.773608 -0.803406 0.455141 -0.209859 0.424245 0.326053 -0.744201 0.484265 -0.020340 0.584438 0.889589 -1.064222 0.218878 0.265579 -0.313585 0.434482 -0.083869 0.610477 -0.313196 -0.222870 
0.535278 -0.674247 -0.141887 -0.392936 0.733048 -0.599335 -0.722807 -0.161708 -0.840353 0.111554 -0.094991 -0.815049 0.125007 1.010853 0.506319 0.335923 0.388544 0.861282 0.628471 -0.218717 
-0.625972 -0.777278 -0.209000 0.477154 0.945233 -0.085103 -0.873179 0.776242 0.445449 -0.019539 0.862289 0.660192 -0.123274 -0.266464 -0.236008 -0.656740 -0.298808 -0.871739 0.474956 -0.177659 
0.423488 0.413899 -0.672264 -0.420573 -0.132927 -0.570723 -0.380173 -0.708060 -0.313112 -0.737762 0.422827 0.064309 0.092413 -0.906874 0.754726 0.917548 -0.897826 -0.768616 -0.271585 -0.412226 
-0.521942 -0.735502 0.423723 0.412113 0.468821 0.433344 0.900886 -0.403243 -0.044955 -0.878358 0.849823 0.020128 -0.830940 -0.068290 0.850697 1.063562 0.718813 0.089824 -0.654331 -0.139203 
-0.719700 -0.938682 -0.251208 0.222898 -0.546934 -0.191942 0.640116 -0.418473 0.755742 -0.166958 0.381806 0.016414 0.936237 -0.018987 -0.626807 0.212068 0.415113 -0.116758 -0.116018 0.736478 
-0.918668 0.555070 1.000271 0.228890 -0.219712 -0.248867 0.245474 -0.531751 -1.361174 -0.323405 -0.449031 1.739293 0.476153 -0.566942 -0.281564 -1.153089 0.061495 -0.186904 -1.316444 0.757519 
0.692936 -0.555233 -0.242752 0.113140 -0.191901 0.705072 -0.926406 0.223501 -0.288108 0.228262 0.966326 0.962020 -0.208141 -0.577512 -0.604925 -0.688968 -1.094232 -1.006215 -0.502285 -0.511584 
0.144397 0.724260 -0.292876 0.240607 -0.802513 0.464850 0.241951 -0.840316 -0.553395 0.149249 -0.263937 0.586500 -0.798809 0.838067 -0.114518 -0.119845 -0.429880 -0.406477 0.217744 -0.889713 
0.097262 -0.555005 -1.162615 0.066486 -0.615637 0.749640 0.769782 1.167878 -0.681427 0.365066 0.414496 -0.242162 0.337910 0.083791 0.933036 -0.894574 0.674974 -0.848036 0.011059 0.464251 
-0.031106 -0.395029 -0.152400 0.797237 -0.397786 -0.817691 -0.525995 -1.310555 0.775550 -0.279101 0.899373 -0.824899 -0.305419 -0.113945 -0.788252 -0.129393 0.658313 -0.427113 0.236264 -0.292145 
0.724917 0.395145 -0.827661 -0.634530 -0.148598 -0.284556 -0.322549 -0.472704 0.101545 -0.342451 -1.088034 -0.956009 0.303688 -0.945006 -0.736805 0.941440 0.884161 -0.547072 0.410868 0.018539 
1.260948 -0.760385 -0.436244 -0.500879 1.000043 -0.479595 -0.294403 -0.714793 0.812795 0.027180 -0.020608 -0.394041 -0.120971 0.800794 -0.704508 0.952638 -0.431728 0.789918 0.102020 -0.126476 
0.794609 -0.349456 -0.834468 0.493259 -0.535489 0.115096 -0.436591 0.183856 0.683947 0.484672 1.321162 -0.584777 -0.273816 0.449775 0.011621 -0.237286 0.581527 0.660094 0.542373 -0.327256 
0.436958 -0.866239 -0.979413 0.445522 0.440675 -0.677981 0.258806 -0.627486 0.313662 -0.702586 0.263701 -0.525588 -0.357808 0.011244 0.897718 -0.107318 0.558567 -0.389326 0.855386 0.276056 
-0.731394 0.230918 0.267588 -0.476571 0.327450 0.271103 -0.960286 -0.589599 0.653503 -0.714622 0.360218 0.410006 0.862233 0.907440 -0.572591 0.797235 0.084051 -0.372888 0.303943 0.428221 
-0.295714 0.355462 -0.050413 -0.341085 -0.923782 0.104236 -0.683155 -0.728377 -0.441445 -0.482396 0.404553 0.010358 -0.163088 0.739885 -0.129800 -0.467210 0.258334 -0.306551 -0.061255 -0.340781 
-0.790182 -0.491865 0.238380 0.655807 0.475487 -0.936482 0.506661 0.399636 -0.013064 0.262449 0.294882 -0.681861 0.655524 -0.307481 -0.011223 -0.717898 -0.504852 0.093043 -0.193045 -0.593268 
0.375507 0.215398 -0.761427 0.312874 0.542931 0.745857 -0.095147 -1.068507 0.329224 -0.051182 -0.205702 -1.343647 0.722592 0.931368 0.749000 -0.560751 -0.990395 0.620338 -0.622086 -1.565918 
-0.219913 -0.189029 -0.077168 -0.887502 0.699592 -0.379830 0.853531 0.483160 -0.710723 -0.887163 -0.366909 -0.653037 -0.465238 1.160319 -0.400226 -0.630537 -0.578539 0.186674 -0.260542 0.220841 
0.509752 0.954623 0.299601 0.874032 -0.784846 -0.754839 0.281271 -0.709679 0.256604 -0.983067 0.048772 -0.034349 0.069541 0.557946 0.074239 0.643982 0.622233 0.341270 -1.180079 -0.717754 
-0.149112 0.837585 -0.492979 0.957806 -0.847353 -0.847518 -0.475737 0.683508 0.724569 -0.340054 -0.558604 -0.406524 -0.507956 -0.579673 -0.518116 0.194317 -0.269400 0.096184 0.713080 0.526924 
-0.595070 -0.572192 -0.589921 0.068168 0.591947 0.711798 -0.820513 0.118447 1.080304 -0.680167 -0.262835 -0.851191 -0.056043 0.093452 -0.641784 -0.349332 -0.608807 -0.118412 0.237471 0.122337 
0.754644 0.866849 -1.084761 0.434189 -0.322573 -0.945372 -0.584841 0.568553 -0.328466 0.570331 -0.642316 -1.307204 0.272482 0.761522 0.932213 -0.995511 -1.009937 0.276345 -0.431859 0.044248 
-0.661420 -0.078337 -0.784384 0.983239 0.778401 0.106720 0.313492 0.638881 0.455087 -1.043997 -0.051534 0.928616 0.567650 -0.763517 0.688418 -0.188178 0.472434 0.958347 0.019036 -0.761562 
0.171290 0.535067 -0.973162 0.563752 0.960532 0.275338 -0.185556 -0.596642 0.326429 0.831880 -0.868755 -0.154447 0.840122 -1.017743 0.773998 0.560451 -0.514657 -0.505107 -0.134460 -1.101795 
-0.696495 1.184535 0.838499 -0.036039 -0.368519 0.028887 -0.582033 0.354048 -0.274453 -0.877576 -0.586986 0.717882 0.704232 1.010900 -0.172388 0.758928 0.464189 -0.745816 0.105650 0.824224 
0.484811 1.236877 -0.453263 0.566072 -0.726476 0.223685 0.895341 -0.692595 0.484144 -0.567478 0.440731 0.574319 -0.642381 -0.700243 -0.731520 -0.390916 -0.179224 -1.063917 -0.272662 -0.682723 
0.157132 0.115504 -0.355141 0.236681 0.929454 -0.726437 0.298809 -0.313051 -0.758355 0.101374 0.320288 0.174636 -0.439435 0.441693 0.597120 0.883361 -0.703407 -0.489569 -0.852151 -0.476015 
0.420920 0.719295 0.621842 0.585101 0.347982 -0.022850 -0.581527 0.592144 1.013767 -0.626157 -1.114631 -0.844376 0.564659 -0.198023 0.509319 0.796203 -0.219914 0.493203 0.506081 -0.010659 
0.606329 0.240903 -0.156181 0.253701 -0.547402 -0.289462 0.463450 0.049814 0.365489 -0.431039 -0.545737 0.393847 0.546762 -0.179076 0.410523 -0.368885 1.023391 0.335424 -1.019367 0.853601 
-0.352677 0.401541 -0.569123 0.476299 -0.049086 0.311619 0.975566 -0.092339 -0.570846 -0.496444 0.203241 -0.718339 -0.552670 -0.298949 0.965250 0.281562 -0.619006 0.637786 -0.646594 0.293085 
0.229236 0.068279 -0.011772 0.828382 0.591849 0.252358 0.238210 -0.053179 0.794620 0.246051 0.821055 -0.512222 -0.422322 -0.869298 0.760912 -0.337538 0.537102 -0.919589 0.788335 0.441122 
0.615115 -0.271083 0.861632 0.692450 0.215472 0.814083 0.414214 0.939222 0.228394 0.178153 0.712297 -0.532501 -0.442887 -0.127902 0.536808 -0.559420 0.649385 -0.908203 1.037467 -0.311262 
0.220561 0.975699 0.462526 -0.302003 -0.162974 -0.706382 0.622243 -0.975662 1.188622 -0.320038 -1.053269 0.342327 -0.131345 0.801618 -0.024934 -0.549013 0.228979 -0.242486 0.303140 -1.089771 
