-0.876492 -0.697519 0.289945 -0.008497 0.147519 -0.275054 -0.747225 0.495294 -0.868175 0.879923 0.825543 -0.866221 -0.483104 -0.394994 -1.270420 -1.909293 
0.465764 -0.945207 -0.477596 -0.791206 0.023273 0.660554 0.377602 0.998437 -0.666227 0.064395 0.224721 -0.393177 -1.508478 0.829790 0.419868 -1.181393 
-0.355546 -0.866719 0.462116 -0.248178 0.133283 0.643016 0.782102 -0.144849 -1.335542 0.917436 0.747871 0.227199 -0.934834 -0.785480 0.360563 1.018542 
-0.338335 -0.092784 0.564115 0.054186 -0.561256 -0.161121 -0.239557 -0.507784 -0.454384 0.877756 0.846858 -0.685892 0.183786 -0.162055 0.096883 -0.477173 
1.069802 0.005970 -0.452822 -0.762794 1.149562 -0.398629 -0.102387 -0.172605 -0.502427 0.918193 0.039345 0.175690 -0.254882 -1.047914 0.339307 -0.082932 
0.744359 -0.679477 -0.668283 0.456044 0.604133 0.557402 0.127215 0.638699 0.892574 0.878530 -0.458101 -0.126992 -1.044282 -0.405841 0.227604 -0.398756 
-0.089994 0.745086 -0.375278 -0.125769 -0.061427 -0.037621 -0.677220 -0.517363 -0.592038 0.360944 -0.108254 -0.748015 -0.080523 -0.432759 0.995292 0.116350 
0.167975 0.875706 0.418319 0.727682 -0.398417 -0.767898 0.302239 -0.699986 -0.975956 -0.194819 -1.193168 -0.743252 -0.980881 0.020378 0.523178 -0.564910 
-0.570911 -0.314328 0.870536 0.353221 -0.501780 0.045200 -0.347187 -0.134483 -1.074391 -0.427752 0.266986 0.219239 -0.659273 0.485180 0.316745 -0.514218 
1.034590 -0.117404 -0.367051 0.146199 -0.045092 -0.109033 0.119821 0.965052 -1.532540 -0.323648 -0.403569 -0.260538 -1.407360 0.260786 0.324629 -0.000703 
-0.459694 0.044147 0.005046 -0.492395 -0.554910 0.638444 0.054737 -0.759866 0.517451 -0.048132 -0.279943 0.537223 -0.277571 -0.231816 -1.177033 -0.393162 
-0.446569 -0.684678 0.835182 -0.014501 0.022296 -0.215921 0.819186 0.887306 0.187228 -0.440330 0.678894 0.642130 -0.172911 0.723232 0.013115 -0.585057 
0.237029 0.689861 0.759815 0.005659 0.290775 0.148531 -0.034138 0.642211 0.613956 0.599366 0.897725 1.261675 0.421340 -0.950094 0.100716 -0.608651 
-0.772830 -0.176577 0.242762 0.719096 0.006444 0.403630 0.937301 0.378183 1.174534 0.629938 0.684845 -1.202636 0.344821 0.239703 0.394391 -1.258650 
0.473220 -0.004974 0.407705 0.327139 -0.379348 0.816684 0.711850 0.797976 0.642208 -0.532317 0.234365 0.465301 -0.900466 0.283078 -0.099089 -0.480555 
0.819208 -0.061847 -0.154262 0.606113 0.024175 -0.419187 0.670160 -0.685243 1.026099 0.417547 -0.391119 -1.536401 -0.016996 1.296359 0.588387 -0.513823 
0.413597 0.421521 -0.684464 0.721390 0.692924 0.793711 -0.995024 -0.843191 1.118633 0.424350 0.004629 -1.335235 -1.499214 0.630712 1.450771 0.443082 
-0.190981 -0.423573 0.267998 -0.440159 0.708625 0.703623 -0.230658 -0.553027 0.141706 -0.786492 -0.124649 0.986759 -0.287717 1.227246 -0.664668 0.098426 
0.220689 -0.612869 0.628111 -0.666978 1.092856 -0.329907 -0.602580 -0.945153 0.314631 0.476593 0.989989 0.382339 0.240964 0.758326 0.082813 0.776856 
-0.872414 0.258707 -0.845267 -0.250764 0.810412 -0.933645 0.271616 -0.013415 0.824223 0.354915 -0.402252 0.553041 -0.456462 -0.125174 -0.058631 0.653393 
0.671901 0.188647 0.310087 -0.242183 -0.587087 -0.147149 -0.656235 0.156010 -0.151683 0.052506 -0.704614 -0.498663 0.225995 0.357702 0.468533 -0.356098 
-0.368207 -0.793375 -0.295207 -0.261773 0.795243 0.295210 0.621348 0.527068 0.069688 0.934374 0.418200 0.271990 0.804761 0.074349 -0.134112 0.486865 
-0.118124 0.266966 0.783296 -0.561049 0.949994 -0.502591 0.614216 0.167621 0.272164 -0.925125 -0.311057 -0.124536 1.179750 0.603412 -0.437267 1.549235 
-0.432735 0.715320 0.123479 0.030030 0.887718 -1.173484 -0.522115 0.550623 0.466837 -0.047921 -0.265811 0.767944 2.239814 -0.212013 -0.360033 0.275299 
-0.573807 -0.969154 -0.452743 -0.687812 -0.708908 0.555374 0.615588 0.577019 -0.128323 -0.794831 0.404436 0.706353 -0.692097 -0.644823 -0.180724 -0.706858 
-0.153115 0.302902 0.039081 0.494034 0.118318 -0.433179 0.843226 -0.123691 0.422399 -0.202907 -1.009465 -0.809510 -0.347567 -0.154480 -0.217713 -1.101953 
-0.784015 -0.628786 0.194085 -0.325614 -0.437909 0.194278 -0.218074 0.172971 -0.027657 -0.509115 -0.751960 1.605807 0.957355 -0.731782 0.773888 -0.924921 
-0.783114 1.032951 0.045400 -0.910794 0.887361 -0.560979 -0.294815 0.181479 0.154447 0.621482 0.129272 0.411605 0.886144 -1.916657 0.749027 -1.267764 
-0.197216 0.287883 0.305415 -0.662822 0.748238 1.176398 -0.168951 0.879228 0.781400 -0.339141 -1.094687 -0.181508 2.747263 0.158873 -1.151858 0.047904 
0.490991 -0.007959 -0.166070 0.470426 -0.766804 -0.274660 -0.938210 0.319848 -0.296890 -0.543306 -0.713959 -0.983050 1.706989 -0.151227 -0.532273 2.531456 
-0.627529 0.980533 -1.200263 -0.773318 -0.756479 0.813845 1.133644 -0.392516 -0.600241 0.485959 0.168223 0.174088 -0.283008 0.643750 0.743594 -0.873003 
-0.415799 -0.522833 -0.108369 0.372857 -0.277031 0.017965 -0.251187 -0.399815 -0.261784 -0.720629 0.429988 -0.603225 -1.051109 0.727579 -0.558572 1.294587 
0.085466 0.272426 0.778211 -0.871609 0.219688 0.565963 0.044247 -0.725492 -0.759527 0.050639 0.817939 -1.017603 -1.277670 1.057562 0.284783 -0.386370 
0.003662 0.519036 -0.604407 -0.560850 -0.254523 1.164933 0.987513 -0.329516 -1.155226 -0.730905 0.458135 -0.388688 -1.070457 -0.994621 0.881673 0.154192 
-0.059993 -0.278280 0.447657 0.210340 0.559620 0.864977 0.408391 0.453026 -0.540458 0.896281 0.280286 -0.173244 -0.598106 -0.737383 -0.044259 -0.377769 
-0.749523 -0.101427 0.198122 -0.338860 -0.578463 -0.290201 0.104482 0.266066 0.127492 0.766029 -0.621402 0.706824 -0.478706 0.131179 -0.625456 0.434292 
-0.448343 0.644997 -0.014539 -0.951040 -0.541432 0.249170 -0.614589 -0.507827 0.656542 -0.576328 0.407775 0.808862 -0.425903 0.170370 -0.820877 0.403129 
-0.366650 0.084451 0.738153 0.710944 0.637184 -0.599764 0.312354 0.260891 -1.154494 -0.723766 -0.263395 -0.201118 -1.276747 -0.099331 0.799971 -0.103438 
-0.548217 -0.774415 0.420269 0.461026 -0.082060 -0.813371 0.251164 -0.228929 -0.823091 -0.439112 -0.178480 -0.044727 0.621692 0.486140 -0.071197 0.026440 
0.089653 -0.874237 0.765864 0.199658 0.603546 -0.540992 0.118534 0.077117 -0.282015 -0.125701 0.946559 1.012996 0.451452 0.851888 -0.076260 -0.511349 
1.022244 0.341249 0.133732 0.899447 0.104718 0.461538 0.073088 0.096918 -0.446890 0.957714 0.658468 -0.738203 -0.977983 0.432936 -0.530952 -0.697333 
0.066450 -0.929275 0.357209 0.668858 0.265703 0.223054 0.200110 0.268748 -0.547438 -0.551474 0.291733 -0.051089 -1.133534 0.494885 1.096262 -0.190824 
-0.212477 0.195110 -0.482625 -1.019641 0.124686 0.404355 0.885424 -0.894454 0.947573 0.920187 0.978334 0.105020 0.423153 0.973094 0.515834 0.587497 
0.474968 0.011345 0.063689 -0.760302 0.751110 0.091987 -0.301228 -0.018425 0.769090 0.435937 -0.429765 0.169682 0.487045 0.733161 0.372783 0.411433 
0.234641 -0.112996 -0.720556 -0.068424 0.802155 -0.957095 -0.998614 0.042089 -0.067441 -0.740707 -0.156345 -0.512060 -0.063386 1.191384 0.223219 0.132894 
0.918767 0.557942 0.013287 -0.051849 0.429106 0.447544 -0.719387 -0.028891 -0.029064 0.553938 0.655043 -0.708030 -0.124480 0.034267 1.058756 -0.573970 
0.924987 -0.515313 -0.188414 0.170535 0.644843 0.894055 -0.105186 0.641002 0.414868 -0.428200 -0.231052 0.778649 -0.873030 0.866137 -0.750290 0.631282 
-0.420111 0.741257 -0.483073 0.893726 0.512390 -0.643437 -0.511929 0.287026 0.122129 -0.624059 1.086603 -0.571768 -0.130065 0.400834 -0.157755 0.665930 
-0.302368 -0.312983 -0.743645 0.167832 0.148104 -0.423036 -0.931894 0.872281 1.273775 0.064414 0.427920 0.499571 -0.725770 0.029388 -0.650908 -0.366373 
-0.048495 -0.154816 0.522212 -0.158203 0.373143 0.147842 -0.253793 -0.894019 1.405274 0.827941 1.036707 1.134843 1.435667 -0.081317 0.208622 -1.478745 
0.622749 0.137263 0.575845 -0.380231 1.260988 0.015027 0.107105 0.583995 0.824128 0.921205 -0.144139 0.326641 0.984369 1.067757 0.199309 -0.482689 
0.518643 0.468084 0.703402 -0.741231 1.162940 0.767909 0.534580 -0.860200 0.664053 -0.128070 -0.688173 0.362391 0.533114 0.779146 1.154675 0.800507 
0.311175 0.840114 0.547386 0.050878 -0.271743 -0.441794 -0.002356 0.437892 0.445950 -0.754942 -0.598601 -0.672531 0.953103 -0.350821 -0.073542 1.074114 
0.315368 0.376275 0.618845 -0.264560 0.747251 0.235703 -0.008648 -0.771206 0.505266 -0.000024 0.286105 -0.262180 1.580316 0.905136 -0.930594 -0.283598 
-0.730550 -0.820205 0.575676 -0.033365 -0.335574 0.760677 0.555182 -0.498049 -0.515473 -0.577288 0.013127 0.657145 1.005254 0.298834 -0.258570 -0.004301 
-0.169399 0.219734 -0.322372 -0.631003 0.461490 0.967062 0.505122 -0.074983 1.548029 0.768435 0.952880 -0.342359 -0.399114 -0.375252 0.205221 0.800249 
0.355164 0.640221 -0.273133 -0.213321 0.404582 -0.281786 0.522787 -0.540087 0.352500 0.463778 1.183287 -0.188522 -0.129164 -0.171395 -1.054387 0.674166 
-0.141834 0.089864 -0.244866 -0.385148 0.007628 0.925632 -0.667703 0.470670 -0.157525 -0.004804 -0.457810 -0.463686 1.400338 -0.989812 -0.865731 0.809541 
0.223146 -0.370998 -0.047203 -0.213257 0.634147 0.622136 0.633691 -0.314033 0.139115 -0.173217 -1.310415 -1.121898 0.973885 -0.647189 0.395872 0.155601 
0.790092 -0.361056 -0.384327 -0.142005 1.335075 0.547634 -0.699901 0.142076 0.067551 1.037559 -1.356026 -0.923696 2.121453 0.037628 0.658061 1.275191 
-0.616401 -0.762938 0.245711 0.735330 -0.070449 0.506812 1.127481 -0.739633 -0.166799 -0.610037 1.164015 0.325836 -0.666382 0.957491 0.399575 0.723158 
0.790936 0.349731 0.396022 0.354821 -0.620438 0.258678 0.547166 -0.137890 -0.559685 -0.114111 0.912433 -0.282331 0.127211 -0.041001 0.177181 0.988989 
1.005618 -0.322362 -0.020163 0.116254 0.417389 1.006728 0.462346 -0.506115 -0.771651 0.092857 -0.446294 -0.743671 0.219774 0.011957 -0.072411 1.266471 
0.285927 0.260060 0.604392 0.420389 0.234270 0.940451 0.555184 -0.702891 -1.825840 0.371959 0.575667 -0.435072 0.336860 -0.128378 0.090445 0.659726 
-0.186501 0.387815 0.062733 -0.796758 0.470839 -0.142501 -0.171746 -0.583583 -1.439275 0.815505 1.181882 -0.242321 -0.401166 -0.411757 0.353369 0.827527 
0.849210 -0.077441 0.603044 -0.515400 0.204589 -0.190486 0.580629 -0.399840 0.225188 -0.013748 -0.927133 1.055966 1.432562 -0.966436 -0.558638 1.536763 
-0.829942 0.945892 0.325901 0.188683 -0.999746 -0.839308 0.744956 0.018461 -0.278481 0.155894 0.045575 -0.903312 0.651567 0.517706 -0.431690 0.882383 
-0.170295 0.720595 -0.397756 -0.712806 -0.151946 0.035351 0.088908 0.737787 -1.520466 -0.712181 -0.670705 0.221388 0.571796 1.082754 -0.016510 0.743868 
-0.279048 -0.639625 -0.377000 -0.618393 -0.586242 -0.041123 -0.784786 0.796331 0.025530 -0.254665 0.092904 0.502405 0.686988 0.734836 0.121020 -0.464887 
-0.443203 -0.605578 0.235030 -0.892714 0.804081 0.294000 -0.983963 -0.664532 -0.100682 0.605326 -0.440506 -0.111155 -0.511086 0.965447 -1.175479 -0.851701 
-0.008578 0.638906 -0.311616 -0.559460 -0.512928 -0.370551 -0.780050 0.807769 0.366280 0.292227 0.369091 -0.598891 0.839549 0.145805 -1.197179 1.208347 
0.423586 -0.964850 0.629641 -0.794235 0.559013 0.220740 -0.474279 -0.359780 -1.215864 -0.278357 -1.145826 1.484566 0.837599 0.029312 -0.152081 0.963920 
0.783867 -0.716462 -0.161800 0.853520 -0.316348 -0.379071 -1.002769 0.084902 0.382301 0.750872 0.430831 0.929924 0.897283 -0.257178 -0.679149 -0.635447 
-0.411387 0.862258 0.358993 0.443259 -0.727146 0.486634 -0.586019 0.156966 1.274946 -0.316114 0.097854 -1.079356 -0.400811 -0.313444 -0.379477 -0.389058 
-0.558022 0.488617 -0.861220 -0.166928 0.598519 -0.511794 -0.769979 0.252108 -0.915184 0.853870 -0.391820 -0.535602 0.221903 1.205655 -0.928259 -0.829750 
0.713790 -0.708128 0.456796 -0.531159 0.108216 0.218237 0.066234 -0.902926 0.836679 0.727327 0.145103 -0.863831 -1.052371 1.541427 1.203102 0.099569 
0.703182 -0.528163 0.283567 0.158494 -0.041786 -0.451977 -1.210381 -0.201052 -0.731012 0.962948 -0.623732 0.061243 0.029384 1.401241 0.954787 -0.002621 
-0.300048 0.269454 0.189505 0.313655 -0.139492 -0.797012 1.000391 -0.697614 0.112721 0.265641 0.178612 -0.727315 -0.073289 0.077020 0.393733 -0.011180 
-0.011628 0.858435 -0.714121 -0.242107 -0.540476 -0.268791 0.896572 0.822885 1.260455 1.024207 0.926396 0.360360 0.371817 1.413926 0.504389 0.668722 
0.646083 0.029465 -0.871048 -0.163028 1.013975 -0.045585 -0.119886 0.033924 -0.343896 0.834256 0.907240 -0.226637 -0.165184 0.875700 -0.322268 -0.665649 
0.495200 -0.837770 -0.695757 -0.592656 1.410557 -0.434202 0.479198 -0.190999 1.075715 0.496125 0.485518 0.628770 0.620403 -0.500444 0.346545 -0.964790 
-0.040004 0.078995 -0.199102 -0.339655 0.846764 -0.677510 0.103335 -0.292495 1.351547 -0.835969 0.700443 0.853272 -0.933297 1.105648 1.304094 0.831930 
0.498603 -0.256247 0.458392 -0.553962 0.334991 -0.075774 -0.375071 -0.601251 1.103237 0.096619 0.551482 0.778555 1.221163 0.059994 0.293761 -1.080926 
-0.767858 0.060120 -0.660289 0.172097 -0.326184 0.029537 -0.444817 0.632499 0.709748 -0.318619 -0.520894 0.215671 0.567079 -0.019502 0.159836 -0.253960 
0.026094 0.238945 0.593646 0.239328 -0.405198 -1.102537 0.400790 -0.280109 -1.680914 -0.640260 0.280245 -0.076387 0.625499 -0.220691 0.001907 -0.157940 
-0.191248 -0.819001 0.051312 -0.156856 -0.990634 -0.371605 0.686300 0.257303 0.092617 0.070518 0.612668 -1.235736 0.388370 -1.394630 0.883635 -0.236776 
0.459641 -0.701521 0.034906 -0.818318 -0.107445 0.921469 -0.205390 0.890572 0.528081 0.191776 -0.798458 -0.527945 0.536418 0.482709 -0.066491 0.462837 
-0.027647 -0.642954 -0.529774 -0.233012 0.865613 0.441083 0.844307 -0.682636 0.589153 0.970057 0.423023 -0.640667 0.883937 0.175520 1.100296 -0.797181 
-0.150035 0.534237 1.083799 0.510540 0.412992 0.534645 -0.078831 -0.369779 -0.195528 0.909715 -0.202779 -1.217954 -0.111637 0.267033 -0.383247 0.742100 
0.460950 0.054559 0.340357 0.073129 -0.591201 -0.506513 0.212860 0.114760 -0.273085 0.231170 0.691063 -0.455719 0.986661 0.294034 -0.602332 0.605945 
-0.563830 -0.755719 -0.504184 0.181914 1.222507 -0.318522 -0.772148 -0.830643 0.133167 0.689560 1.104459 -0.545420 -0.532282 0.395324 1.221326 0.942164 
0.270667 0.125971 -0.191770 0.566313 -0.144870 -0.464927 0.204762 -0.137150 -0.408956 0.851470 -0.824959 -0.831138 -0.170662 1.417039 1.163401 -0.165758 
0.544593 0.689752 -0.332643 0.482357 -0.099602 0.113274 0.165671 -0.736325 -1.598512 0.461820 -0.662366 -0.770037 -0.678704 1.056369 0.800556 0.060207 
-0.274805 -0.676577 -0.735442 -0.022926 -0.254841 -0.487018 1.111469 -0.138538 -1.640746 -0.645573 0.231939 0.284712 -0.650838 0.106800 0.359634 -0.511505 
-0.593658 -0.290404 -0.345374 0.349684 0.820424 -0.636780 -0.021020 -0.855467 -0.838668 0.003247 0.009544 -0.591355 0.954562 -0.268653 -0.245577 -0.647491 
1.013697 -0.746474 -0.239758 0.980040 -0.342592 -0.404502 1.306628 -0.606486 -1.975571 0.954272 0.419021 0.072173 -0.488960 -0.811994 0.308373 0.348620 
-0.384997 0.115925 0.749359 0.621884 0.267358 0.084230 1.181004 0.848545 -0.475065 0.662812 -0.671080 1.655279 -0.491799 0.258261 -0.252031 0.949851 
0.993184 0.584597 -0.123247 0.234771 -0.060964 -1.055258 -0.567348 0.748527 -0.168268 0.887732 0.876339 0.372365 0.456880 0.719470 0.294584 1.111068 
-0.880196 -0.581125 1.011261 0.487318 0.839918 -1.322394 0.085444 -0.238026 1.036593 -0.613097 -0.823347 0.666929 1.332112 0.327455 -1.206125 1.305519 
0.552801 0.470897 -0.468534 0.698299 -1.136362 0.740501 -0.555191 0.003763 0.726154 0.497362 0.540785 0.511934 0.867823 0.027304 0.822527 0.481913 
-0.017025 0.909501 0.843977 -0.218136 -0.539757 0.705032 -0.832976 0.014623 -0.272747 -0.439834 0.871099 -0.669083 0.489624 0.112598 0.229602 0.515777 
0.234411 0.385310 -0.828672 0.555905 0.021402 -0.072338 0.666643 0.338573 0.808736 0.518910 -0.760478 -0.258137 -0.015288 0.114201 0.042914 0.058881 
-0.158222 -0.369471 -0.344957 -0.483210 0.640041 0.828203 0.286435 0.726148 -0.344739 0.953659 -0.866475 -0.106629 -0.109606 0.822440 -0.664252 -0.017469 
0.871045 -0.702406 0.171212 -0.952601 0.120420 -0.296151 0.232424 -0.304672 -0.025170 0.090072 0.703988 0.108341 0.357736 -0.859169 -0.159386 -0.351381 
0.522444 0.160847 0.113780 -0.563841 -0.820096 -0.688353 -0.374499 0.579184 -0.160709 -0.672282 0.148245 -0.301022 0.857171 -0.376908 0.121989 -0.003872 
-0.736328 0.049802 -0.770000 -0.608772 0.437875 -0.270982 0.904124 0.756648 -0.615042 -0.067170 0.548418 0.755047 0.010090 0.553067 0.486247 -0.114177 
0.058234 0.042962 0.396773 -0.883601 0.378973 -0.558732 -0.549521 -0.377694 -0.445524 -0.613923 0.499077 -0.596555 0.835320 0.731831 1.380867 -0.051615 
-0.384994 0.155392 0.260799 -0.024016 0.498811 -0.200922 0.593621 -0.289904 -0.608224 0.887569 0.982882 -0.088435 1.237628 0.308401 0.151810 0.436008 
-0.153561 -0.818165 0.134509 -0.703409 0.396565 1.046599 0.447249 -0.582076 0.519430 0.688558 -0.168038 -0.520382 0.777702 1.568047 0.274913 -0.600325 
0.077162 -0.761999 0.426242 0.407358 1.002571 -0.527235 -0.278132 -0.673271 -0.558215 -0.601010 0.755437 0.743113 0.501483 -0.746256 -0.341550 -1.577912 
0.550167 0.137777 -0.451639 0.786621 -0.189605 0.203522 1.194526 0.952406 0.897511 0.662895 1.188322 0.392487 1.107495 0.101534 0.390429 -1.023271 
0.197063 -0.047504 0.531538 -0.039087 0.147170 0.727856 0.189036 -0.475088 0.175901 -0.034732 1.086251 0.033786 -0.717415 -0.270080 -0.224563 0.281559 
-0.794691 0.202994 0.240240 0.412711 0.523641 0.320892 0.759968 -0.419617 0.821521 -0.976842 -0.336274 -0.733748 0.232234 -0.128415 1.055454 0.081747 
-0.418104 0.486621 -0.448880 0.010169 0.528289 0.598683 0.819597 -0.558391 0.763249 0.304973 -0.182066 0.328050 -0.201163 -0.310256 0.600537 0.814097 
0.925851 0.954186 0.773723 -0.644290 -0.465960 -0.384606 0.738024 0.507527 -0.039511 -0.139480 -0.381156 1.109459 0.553892 -0.927932 1.083847 -0.913600 
0.588727 -0.635034 -0.672055 0.553839 0.742552 -0.707377 -0.018390 0.725513 -0.131779 0.833531 0.052877 0.560499 0.919358 -0.724663 -0.260655 0.474798 
-0.851836 -0.537949 -0.615812 0.815413 -1.204110 0.983271 0.933652 0.880958 -0.606885 0.531173 1.037426 -0.778850 0.046393 -0.117509 -0.478924 -0.789877 
-0.742547 -0.555764 0.276271 0.796719 0.872333 1.176023 1.066766 0.021541 -0.089990 0.477665 0.131432 -0.162251 0.221313 0.903636 0.822786 -0.085252 
0.545189 -1.007621 0.922453 -0.631605 0.490309 0.429351 0.240976 -0.339897 -0.065386 0.246857 -0.454142 -1.518414 0.262753 1.119253 0.768764 -0.864030 
0.858515 -0.563430 0.286402 0.701764 0.474229 1.132311 0.501109 0.785488 0.273358 -0.731466 -0.511444 0.264427 0.833379 -0.322589 0.085785 1.350387 
0.462526 0.697844 -1.071765 0.322610 0.926473 0.088919 -0.776652 0.561728 -1.589739 -0.203444 -0.164305 -1.091186 -0.384870 0.004599 -0.687397 -1.110333 
-0.234318 0.291882 -0.414801 0.165747 1.056746 -0.668997 0.543929 -0.824968 -1.349484 -0.088920 0.361830 -0.852576 -0.963082 0.826959 0.735290 -0.543806 
0.698842 0.417275 0.510356 0.802493 -0.053091 -0.585589 0.273060 0.124739 -1.095584 0.377641 0.444638 -1.487207 -1.321480 -0.087761 0.757577 0.326520 
-0.114910 0.750798 0.194085 -0.859817 -0.061697 0.165034 1.459834 -0.231140 0.206356 -0.597557 0.333186 -0.583981 -0.161580 -0.381024 0.321654 -0.693474 
-0.881010 0.248414 0.687024 0.719509 0.189576 -0.291937 -0.418465 0.154857 -0.302056 -0.665220 -0.907235 -0.442202 0.176144 -0.909801 -0.442504 -1.614869 
0.559457 -0.854392 -0.416681 0.475322 -0.656626 -0.133849 -0.150391 0.980978 -0.443466 0.428691 -0.653917 0.300200 0.651128 -1.342314 0.802754 -0.140704 
0.623152 -0.064812 0.285400 -0.695931 -0.712035 -1.006054 -0.238965 0.652290 0.539925 0.105469 -0.109307 0.947908 0.815795 -0.096645 -0.581274 -0.186200 
-0.101516 0.001733 -0.000249 0.122673 -1.613168 0.188850 -0.170140 -0.308058 0.118713 -0.996930 0.930537 0.693884 0.033419 -0.092126 0.029909 0.368431 
0.399062 -0.891037 0.529882 -0.697120 -1.157262 0.517395 0.161934 0.679294 -1.145435 -0.394845 -0.177482 1.540478 0.453906 0.078670 -1.149489 0.010504 
-0.220756 0.342630 0.328545 -0.700100 0.028089 0.143334 -0.634323 -0.242680 -0.365685 -0.856199 -0.368336 0.186707 -1.071071 0.699574 -1.547152 0.957978 
0.282093 0.188870 0.284233 0.346413 -0.376316 0.330365 0.264752 0.357895 1.417313 -0.307967 0.408974 -1.191663 -0.032008 0.268130 0.343479 1.338799 
0.720798 0.041390 0.628725 -0.765143 -0.431430 -0.718432 -1.158499 -0.007223 1.232738 -0.426614 -1.084617 0.940540 -0.401508 1.063062 -0.538763 1.136760 
-0.114827 -0.835007 0.571390 -0.847826 1.297470 0.603015 0.871399 -1.023722 1.880513 -0.591086 0.155764 -0.489102 0.910664 0.858667 -1.314602 0.402072 
0.258141 -0.874128 -0.048669 0.117362 -0.330705 -0.466252 -0.054078 -0.342399 0.818334 0.483908 0.079415 0.655687 0.952446 -0.377742 0.087111 -0.418532 
-0.946549 -0.751329 0.030584 0.686011 -0.280652 0.161278 -0.597254 0.772954 -0.946855 -0.296167 0.189808 0.448948 -0.061523 0.618390 0.295186 -0.364414 
1.035846 0.270430 0.718788 -0.385570 0.946164 -0.534623 -0.328947 -0.641277 0.444569 0.378534 -1.489476 -0.495070 0.324830 -0.305520 -0.992320 -0.223072 
0.418440 -0.549872 0.007039 -0.406424 -0.416253 -0.322260 -1.099038 0.900185 -1.233977 0.275505 -1.181813 0.886300 -1.079909 0.593660 -0.271477 0.533447 
-0.182022 -0.573664 0.186889 -0.552052 0.238454 -0.945208 -0.568386 -0.038833 0.670094 0.886084 -0.091472 0.525414 -0.276708 1.124233 -0.784460 -0.227867 
-0.336217 -0.451097 -0.286471 0.628666 0.078974 0.185410 -0.860168 -0.581309 0.700389 0.721083 -0.028209 -0.739543 0.024131 0.198568 -0.213967 -0.073956 
-0.797001 -0.822059 -0.523860 -0.505737 0.153866 0.317535 -0.326312 -0.261346 0.847684 -0.486494 1.092339 -0.717772 0.594667 0.592440 0.798174 -0.177837 
0.070358 0.707243 0.333714 -0.418929 0.332509 -0.253624 -0.700199 -0.861063 0.794210 -0.683009 0.180055 -0.044446 -0.060945 -0.268837 1.361199 -0.762904 
-0.951643 1.042146 -0.017922 0.254427 0.414727 -0.363249 -0.351412 -0.687358 -0.458348 0.777381 0.433650 -0.199641 0.107486 -0.206589 1.093552 -0.328496 
0.750911 0.717532 -0.462571 0.167870 0.125326 -0.643067 0.786907 -0.716448 -0.166755 0.406607 0.807785 1.143043 -0.558756 0.301190 1.004364 0.252032 
-0.084726 -0.455406 -0.234684 -0.110053 0.623620 0.698517 -0.280714 -0.651167 0.295786 -0.126847 0.918131 1.233537 0.311529 0.132474 0.877685 0.773445 
-0.231513 0.916816 0.636883 -0.771484 -1.534915 -0.948067 0.278537 0.620584 1.204409 -0.382180 0.512877 0.172324 -1.052237 -1.761360 -0.027503 -0.261513 
0.416199 0.427955 -0.676964 0.170663 0.464521 0.312687 0.171362 1.077210 0.730123 -1.029305 -0.145500 0.592728 -0.639664 -1.415536 0.635899 0.983960 
-0.435241 -0.744339 -0.716622 0.236071 0.105973 0.307207 -0.101897 -0.287766 0.766293 0.702381 -0.448646 -0.021925 0.812098 -0.525881 1.200102 -0.970242 
0.249575 -0.787240 0.184545 -0.758471 -0.483531 -0.483636 0.110626 -0.066900 0.678663 -0.677745 0.007226 0.354526 0.615564 -0.283967 -0.151121 -0.796159 
0.329272 0.169761 0.471754 -0.792900 -1.282864 -0.167916 0.827853 0.998166 0.464226 0.655682 -0.807663 -0.502651 -0.280834 1.110346 -0.089767 0.211689 
0.273734 0.654031 0.998290 0.310419 0.768706 0.422937 0.265451 0.071899 1.638146 -0.802534 -0.871831 0.210089 0.248297 0.990219 0.446057 0.859780 
0.634582 -0.740108 -0.422738 -0.787337 0.029340 -0.831108 -0.646271 0.747235 -0.582314 -0.486526 1.011288 -0.876125 -0.839459 0.210634 -0.185657 -0.667612 
-0.346541 -0.752447 -0.182792 -0.597019 1.678160 0.719389 0.920173 0.485070 -0.758929 -0.586955 0.450248 -1.079910 -0.610149 0.598969 -0.402217 -0.836671 
-0.862438 -0.735069 -0.875052 -0.468860 0.978119 0.766429 -0.275210 -0.164101 -0.993005 -0.655689 -0.103851 -0.370476 -1.017552 0.959451 -0.289648 -1.296849 
0.837724 -0.515582 0.405967 -0.569466 -1.115567 0.939196 0.662783 -0.818339 -0.177981 0.942062 -0.015643 0.517140 -1.091097 0.125238 0.862658 -1.224621 
0.989175 -0.609597 0.297042 0.958090 -0.474627 0.595847 0.208019 1.005377 -1.288624 0.610888 -0.818206 0.500018 0.671738 -1.242433 0.342963 -0.254517 
-0.204135 -0.251865 0.332867 0.456604 0.826921 0.843963 -1.346679 0.785884 -0.371530 -0.092525 -0.606028 0.619305 1.103195 -0.602612 0.262297 -0.312681 
0.894803 0.557464 0.467440 -0.524148 -0.127256 -0.844754 -0.218448 0.176165 0.405395 -0.380504 -0.370527 -1.154214 0.161153 0.430682 -0.802851 0.876347 
0.254853 -0.818956 0.033703 0.334412 -1.674373 0.817956 -0.066125 0.167518 0.312413 -0.980322 0.074804 0.049351 1.198060 -0.231654 -0.416648 0.263380 
-0.253901 0.705818 0.187060 -0.669326 -0.354895 0.334339 -0.917545 -0.003725 -0.575945 -0.249771 0.232429 -0.655090 0.511214 0.544102 -1.745548 0.942420 
0.255108 -0.640854 -0.326505 0.775668 0.334700 -0.094816 -0.137857 0.038798 -1.222223 -0.551011 1.242706 -0.234531 -0.817765 -0.027605 -1.941266 1.656936 
-0.657711 0.160638 0.974642 -0.439089 -0.805947 -0.263953 -0.684160 0.847181 0.334479 0.254156 0.389936 -0.783455 0.973316 -0.308347 -0.351694 0.473658 
0.416421 0.173284 -0.243261 -0.946773 0.229008 -0.833574 0.944785 0.091877 0.862503 0.279106 -1.048297 0.508996 -0.452360 0.435266 -0.188911 -0.546725 
-0.201892 0.551373 0.180375 0.237579 -1.157353 0.459508 -0.143934 0.821248 -0.369585 -0.928585 -0.072490 0.082988 1.197423 -0.486294 0.216611 -0.531291 
0.857113 0.222339 -1.106784 -0.133264 1.382091 0.467623 -1.089812 0.641971 -0.072017 -1.075064 -1.013787 -0.707656 -0.008836 -0.418023 -0.999658 1.247209 
-0.084675 0.234823 0.619784 -0.521553 -0.790430 0.657628 -0.159718 -0.485602 -0.420464 -0.457587 0.050052 -0.636718 0.262215 0.273031 0.755271 0.637673 
-0.445919 -0.071366 -0.006040 -0.766683 -1.168785 0.992408 -1.180343 -0.359342 -0.582817 -0.724559 0.352400 -0.915707 -0.606146 -0.496864 0.310391 0.232126 
0.496101 0.504114 0.234412 -0.673348 -1.002961 1.068155 -0.687836 -0.670742 -1.525543 -0.659389 0.894117 -1.172228 -0.505924 0.350524 0.117008 -0.320202 
0.958565 -0.201488 -0.342123 -0.800681 -0.502761 0.155484 0.055849 0.732438 -0.861009 0.943027 -0.616003 0.333604 -0.239424 0.944961 -0.363559 0.325031 
-0.476898 0.884081 -1.128967 -0.393421 0.106552 -0.782736 -0.460004 -0.300626 -0.216929 0.149968 0.736432 0.760693 1.198968 0.532604 -0.426728 0.235176 
0.077106 0.837858 -1.053842 -0.782556 -0.166019 -0.493927 0.606399 0.298959 1.590669 0.712572 -0.388789 -0.262184 -0.575569 -0.131522 1.246569 -0.705411 
0.905844 0.202285 0.723381 -0.462337 0.159762 0.509863 0.412265 -0.635223 -0.229387 0.516122 0.479030 -0.158195 -0.444557 -0.623094 0.545126 -0.098717 
0.985181 0.049836 0.488813 0.512992 -0.747188 -0.563176 0.175964 0.689228 0.054334 0.461815 1.190782 -0.308209 -0.332946 0.191403 0.060496 0.535265 
-0.287952 -0.725327 0.439975 -0.594173 -0.341739 -0.235833 0.061766 -0.575249 -0.577709 -0.885452 0.759522 1.090548 0.315386 -0.285869 -0.600832 -0.374036 
-0.330331 -0.438653 -0.082102 -0.130428 0.855368 -0.034780 1.243915 0.871700 0.460484 -0.169934 -0.484124 -0.188347 -0.001931 -1.180109 1.113495 0.716126 
0.236899 0.879330 0.456832 0.796968 0.827755 -0.823533 -0.079263 -0.592519 0.083247 -0.475612 -0.023206 0.244293 -0.681556 -0.662327 -0.278950 -1.373996 
-0.764751 0.227940 -0.266810 -0.744710 -0.828260 0.418001 0.186553 -0.131485 0.417201 -0.096815 0.847271 0.498505 -0.415861 -0.607504 0.969958 -1.330106 
0.277162 0.907584 0.510432 -0.721023 -0.424245 -0.733253 0.654393 0.801306 -0.445956 0.232693 0.554103 -0.521146 -0.665628 -0.783492 0.872987 -1.741460 
-0.376348 -0.907192 -0.273627 -0.099352 -0.232377 0.558592 -0.142593 -0.681998 0.210336 0.665822 0.443064 -0.224632 -0.628627 -0.876865 0.912192 -0.688702 
-0.369644 0.298067 0.081336 -0.552547 -0.826328 -0.762327 -0.022336 -0.899651 0.918657 0.538088 -0.933795 0.185389 0.332570 0.276482 0.297355 0.702584 
-0.723108 -0.424083 1.006182 -0.373157 -0.694392 0.750411 0.905584 0.439003 -0.173043 0.519397 0.305893 -1.464255 1.748426 1.541580 0.128897 1.601171 
-0.891352 0.756751 -0.469944 -0.693683 0.292307 0.797149 -0.098938 0.196297 0.172967 -0.035403 0.699604 -1.260103 -0.598003 -0.234665 0.917410 0.497381 
0.742965 0.977903 0.090082 0.497695 1.153562 0.454003 -0.847609 -0.299227 -0.828454 -0.156969 1.020372 -1.008272 -0.692152 0.151260 -0.304436 -0.197018 
-0.236692 -0.129651 0.398971 -0.007600 -0.344901 0.315957 0.155214 0.585759 -0.679191 -0.169664 -0.128481 -0.496285 -1.334130 0.460499 -0.230568 0.271780 
0.299980 -0.042895 1.052659 -0.597320 -1.148513 0.215461 0.259581 1.049448 0.441121 -0.075474 -0.154125 0.994331 -0.484196 -0.419519 -0.350861 0.055628 
0.911367 -0.563369 -0.854625 -0.737453 -0.309216 0.703782 -0.247995 0.087461 0.763874 0.585433 -0.520087 -0.417171 1.141231 0.292825 0.082535 -0.851678 
-0.469079 0.572093 0.412640 -0.145142 -0.394916 -0.414842 -0.065888 0.240247 -0.146404 0.736463 0.545084 0.034445 1.398577 -0.484410 -0.892147 0.754734 
-0.221543 0.418065 0.694357 -0.238722 -1.529196 0.713284 -1.048181 -0.606401 0.484353 0.862692 0.878793 -0.015988 0.384133 0.240114 -0.891608 0.340120 
0.583915 0.203810 0.661710 -0.732244 -1.890992 0.277684 -0.019895 -0.206178 -1.225640 -0.956532 -0.046767 -0.985115 -0.156666 0.693228 -0.582528 -0.281154 
-0.932675 -0.259091 -0.154245 0.601229 -0.278999 -0.569997 -0.429048 -0.279461 0.365197 0.332406 0.251098 -0.532583 0.691377 -0.429610 -0.035558 -0.895690 
-0.525175 0.259498 -0.310807 0.044121 -1.364853 -0.190544 -1.041609 0.325676 0.350459 0.335041 -0.547474 -0.672584 -0.025256 1.258766 -1.018705 0.284771 
0.972137 0.525478 0.990328 -0.369759 -0.013354 0.980021 0.863150 0.132788 0.347417 -0.943848 0.731366 -0.534744 0.830260 -0.565274 -0.763544 -0.485723 
-0.069720 -0.317280 0.859442 -0.991274 -0.672088 0.583693 0.917581 -0.246309 -0.727287 -1.008485 0.267145 0.594881 -0.046255 -0.254445 -0.782936 -0.196676 
-0.910536 0.148853 -0.500538 -0.253329 0.298917 0.015381 -0.414280 -0.435562 -0.039757 0.648615 -0.818046 0.317006 0.196793 1.273318 0.391162 -0.456645 
-0.381026 -0.895380 0.025484 0.674326 0.370589 -0.787478 0.308436 0.852066 0.845150 0.437264 -1.310309 1.000230 0.205878 1.070101 0.120721 -0.329546 
0.626499 -0.449674 -0.076917 0.014141 -0.751318 -0.792132 -0.249761 -0.545789 -0.336207 0.855767 -0.638576 0.029496 0.308949 0.005040 -0.049768 0.891422 
-0.167532 0.414258 -0.839730 -0.207186 0.108874 0.180655 0.526388 0.447455 -0.088805 0.408116 -1.010806 0.342889 0.269080 1.100814 -0.879240 0.835828 
-0.674434 -0.029403 0.415801 -0.092004 -1.634235 0.177695 -0.129045 -0.956945 -0.777088 -0.075919 -0.602168 0.758659 0.954747 0.590961 -0.111996 0.359738 
-0.763141 -0.791977 0.233134 0.755802 -1.270173 0.603680 -0.083718 0.047336 -0.411971 -0.870398 -0.557630 -0.316701 0.401630 -0.309468 0.943181 -0.407821 
0.035379 -0.760742 -0.864452 0.784851 -0.299917 0.030954 -0.576360 0.281358 1.100479 -0.581358 0.154230 -0.124823 -0.008141 -0.308902 -0.687899 0.651328 
-0.245575 -0.705033 -0.149637 0.314407 0.760075 -0.240103 0.613962 -0.631661 1.517266 0.640553 0.606680 -0.587072 -0.816857 0.039489 0.218660 -0.839373 
0.079020 -0.005873 0.740517 -0.931237 -0.075163 1.248605 0.649193 0.243235 -0.405793 0.965747 -0.717242 -0.217806 0.407392 0.449244 -0.206241 0.325099 
-0.038087 0.797008 -0.953591 0.695136 0.932510 -0.607530 -0.258579 -0.362229 -0.362962 0.299220 0.674939 0.673095 0.282379 -0.686204 0.597329 0.269713 
-0.884326 -0.641339 0.448097 -0.070122 0.662986 -0.227004 1.591375 0.845022 -0.747892 0.127887 -0.179297 0.185067 -0.087067 -0.720230 1.091723 0.503946 
0.437108 -0.187649 0.657976 0.600263 0.813059 0.047232 0.816324 0.207736 0.132986 0.462534 0.722315 -0.518830 0.567556 0.627220 0.824394 -0.171284 
-0.150442 0.678085 -0.799309 -0.810559 0.981070 0.251859 0.979657 -0.388469 1.732635 -0.514262 0.495860 0.263582 -0.048208 -1.266639 -0.000764 -1.200448 
-0.322207 -0.761125 0.272362 -0.241399 0.434923 -0.171793 0.797778 -0.262946 1.164392 -0.827037 -0.656814 -0.267695 -0.069300 0.918225 0.673476 -1.208437 
-0.251504 -0.151166 0.822653 -0.851348 -0.373838 -0.099851 0.034513 0.120621 -0.658584 -0.872417 -0.578058 0.378084 -0.994444 0.238377 0.950742 -1.358332 
-0.119824 -0.870191 0.649014 0.133696 0.514808 0.801195 0.774365 0.653667 -1.051222 0.480718 -0.854344 -0.671812 -1.066852 -0.657933 -0.506191 -0.926562 
0.577423 0.209646 -0.018203 0.873968 0.030035 0.778348 0.496116 0.562955 0.203538 -0.673120 -0.841923 0.258587 0.184115 -0.490167 0.533235 0.170902 
0.892037 0.557918 -0.034979 0.632164 1.065530 -0.960361 0.181559 0.725774 -0.192882 0.059088 -0.399478 -0.822070 0.917581 0.716578 -0.953565 1.416009 
1.058658 0.309267 -0.831181 0.921089 -0.180010 0.598951 0.813815 0.143604 0.318679 0.904095 -0.587496 0.358512 0.320853 1.469642 -0.594271 0.434781 
-0.401712 0.836101 0.558095 -0.130417 -0.309427 -0.015340 0.086076 0.485647 0.361805 0.585280 0.513065 0.000653 -0.489806 0.239993 1.001346 0.800409 
-0.453020 0.501044 -1.005078 0.136369 -0.600071 0.696357 -0.381690 -0.537324 -0.128795 0.825558 -0.056340 -0.451156 0.142552 0.340437 0.389053 -0.541814 
-0.696479 -0.711722 -0.448148 0.642234 0.500865 -0.260103 0.714453 0.792288 -0.269613 0.691666 0.099598 0.558198 0.268682 0.659681 0.251516 0.415807 
0.999871 1.004057 0.974286 0.595977 0.037875 0.871978 -0.476898 0.933090 -0.817947 0.374284 -0.200606 0.973850 0.369975 0.509388 0.482673 0.378642 
-0.954729 0.068757 0.064333 0.222128 -0.124505 -0.696085 -0.072012 -0.123644 0.211962 0.459939 -0.114483 -0.352323 1.926677 0.375698 -0.628005 0.851090 
0.878274 0.917217 0.019572 -0.191045 -0.427966 -0.946528 -0.607569 0.417459 -0.540260 -0.695382 0.504725 0.543154 1.065112 -0.003810 0.039188 -0.015057 
-0.286474 -0.069924 -0.336180 0.564241 -0.365992 -0.706574 0.351878 0.994979 -1.214059 -0.160190 0.629277 -0.773974 0.077688 -0.561550 -0.168284 0.785913 
0.309865 -0.110462 -1.200878 -0.452860 -1.282450 -0.305583 -0.467016 0.070701 -0.851523 -0.242693 -0.534923 0.310404 0.673384 0.731896 -0.678940 -0.888378 
1.012047 -0.789360 -0.689277 -0.860060 -1.176789 -0.400369 0.370836 0.193698 0.351294 0.805239 -0.275887 0.526999 -1.012126 0.039019 -0.328719 0.545022 
0.664043 0.733617 -0.956214 -0.166759 0.603790 0.706822 0.348741 -0.743377 -0.547346 0.231918 0.058575 0.352816 -0.375924 -0.228545 0.039104 -0.392956 
1.038141 -0.567602 0.239889 0.160394 0.387387 0.176895 -0.904676 -0.179889 -0.287297 -0.107645 -0.202645 -0.113965 -1.070361 0.250871 0.370531 -1.125563 
0.623979 -0.635081 -0.646470 0.908975 0.195146 -0.029756 -0.964952 0.855738 -0.435656 0.476824 -1.041586 0.201491 1.404371 1.424915 0.588266 -0.128969 
-0.555999 0.800953 -0.558808 -0.618451 1.008674 1.002502 -1.731833 0.202863 -0.430452 -0.456999 0.085746 0.861048 0.028177 -0.077831 -1.157144 -0.157726 
-0.122915 0.934237 0.172565 -1.011076 -0.275931 0.237552 -1.101305 0.330617 -0.256249 0.001562 0.140975 -0.346984 -0.194674 0.717673 -0.211512 0.302118 
0.926694 0.170534 -0.701439 -0.525515 0.137333 -0.662532 -0.016425 0.175713 -0.640093 0.773676 0.598774 -0.242414 0.482073 0.291871 0.640689 1.140942 
-0.305060 0.701877 -0.365758 0.049800 0.538531 0.988717 0.238706 0.027767 1.081588 -0.359871 0.552222 -0.069489 0.198388 -0.812342 1.066369 0.067432 
-0.382616 0.436122 0.330832 0.845838 0.535652 0.445683 -0.275447 -0.689897 -0.002939 -0.225000 -0.347105 -0.898432 0.077781 0.357297 1.371150 -0.070216 
-0.026704 0.683991 -0.083894 0.586895 1.445754 0.989840 -0.606702 -0.300569 1.261789 -0.997944 -1.279455 -0.786984 0.932105 -1.293991 1.255584 0.279191 
0.529942 0.461489 -1.229962 0.844567 0.453510 -0.127568 -0.945524 0.733657 -0.575260 -0.849002 0.346815 0.015804 0.319298 1.271876 -0.539252 -0.544357 
-0.280713 0.448483 0.274728 -0.261235 -0.241061 1.182487 0.655667 -0.900197 1.271024 -0.705896 -0.234507 0.037253 -0.613564 -0.405686 0.599613 -0.935406 
0.705650 -0.790412 -1.013001 -0.046655 0.082425 -0.741960 0.742186 -0.189026 0.146247 -0.624579 -0.685230 -0.357007 0.346654 -0.415341 -0.232122 1.126579 
-0.211174 0.126198 -1.247917 0.431039 -0.016870 0.874411 1.760612 0.760154 0.795916 -0.332129 -0.518127 0.738858 -0.933499 -0.793709 -0.390816 1.183526 
-0.548446 0.509480 0.947314 -0.525140 0.439337 0.547909 0.085361 -0.520407 1.453881 0.816006 -1.548815 0.330221 1.318055 -0.223372 0.577607 -0.050284 
-0.465084 -0.109994 0.538041 0.318748 0.086772 -0.474109 -0.108532 0.003666 0.549174 0.723637 1.119031 0.346343 -0.774517 -0.082468 -0.051727 -0.813842 
0.381996 -0.795760 0.340652 0.308100 0.232306 0.509013 0.398518 0.717893 0.049209 0.556607 -0.067275 -0.474600 0.864209 -0.310483 0.306002 -1.276966 
-0.717362 0.005831 0.476024 -0.408157 -0.711439 -0.230794 -0.908150 0.147374 1.037778 0.517701 -0.313725 0.230663 0.855110 -0.671670 -0.159599 0.080685 
0.039247 -0.806295 0.835866 -0.108145 -0.288131 0.711130 0.142426 -0.285628 -1.267128 -0.294466 0.548763 0.482710 0.230722 0.537194 -0.698895 -1.024352 
0.437673 -0.659005 -0.013685 0.538580 0.408951 -0.829845 -0.250405 0.225823 0.770881 -0.915849 0.041969 -0.129196 0.261250 1.268791 0.537338 0.400149 
0.060705 -0.796122 0.741252 0.522258 0.038995 0.804121 -0.291752 -0.306883 -0.096362 -0.193311 0.746470 0.047583 0.935466 0.199638 -0.219075 0.758498 
-0.631791 -0.748980 -0.054357 0.613632 -0.124205 0.644822 0.860237 0.181735 -0.579386 0.276696 -0.380920 0.179738 -0.434573 -0.455437 0.409422 -0.247296 
0.122697 0.832596 0.379383 0.750140 0.760175 0.023264 -0.463879 0.513409 -1.133320 -0.966454 -0.523893 -0.593591 0.075568 -0.306042 -0.591840 -0.924878 
0.933375 -0.892549 -0.030650 -0.729771 0.004022 -0.258954 0.492390 -0.284736 -0.545996 -0.624078 -0.380153 1.388294 -1.132374 0.267329 0.291919 -0.830005 
0.113312 -0.356306 0.741622 0.489959 -0.159893 0.654638 0.386567 0.095109 0.126302 -0.103368 -0.648393 1.016144 0.031926 0.583217 -0.445854 -0.291255 
0.465078 -0.449336 -0.344119 0.228895 -1.013276 0.038400 0.573873 -0.528786 0.719361 0.758942 0.846773 0.452385 0.876582 0.845069 -0.691217 -0.535124 
0.148379 -0.188983 -0.121109 0.872377 0.445228 -0.280633 0.021759 -0.242693 0.823140 1.113941 0.479983 -0.481321 1.422421 1.454811 -1.112705 0.754892 
0.713259 0.512931 0.007143 -0.558340 0.809995 0.842595 0.331063 -0.722735 -0.671199 0.054931 0.073043 0.190142 -0.664107 0.726392 0.465900 0.047906 
-0.534567 0.637551 -0.487664 0.398624 -0.604245 -0.141358 0.790661 -0.245439 -0.224815 -0.468884 -0.339828 -0.453562 -1.050796 -0.406035 0.709390 1.148188 
0.043633 0.992137 0.671961 0.407114 -0.372412 0.900950 -0.432673 -0.414690 0.372615 -0.461798 0.839748 0.527105 -0.641045 -0.670424 -1.182081 -0.520829 
-0.166568 0.712991 -0.878482 0.443041 -0.268139 0.938002 0.778371 0.492899 -0.525425 0.149354 -0.407825 0.765927 0.338137 0.014313 0.301749 -0.574162 
-0.183121 0.208673 -0.173354 -0.411700 -1.128391 -0.582035 -0.529702 -0.234295 -0.226868 -0.719881 -0.809186 -0.529940 0.561835 -0.845803 -0.148790 -0.667774 
0.810333 0.070111 -0.554722 -0.764476 0.214262 -0.313475 -0.579061 -0.942970 -0.346165 0.339609 -1.059899 -0.880829 0.991226 0.583272 -0.603076 0.294719 
-0.467758 -0.210168 0.130885 -0.272105 -0.427867 -0.521324 -0.767260 -0.721287 -0.287007 -0.295227 -0.711881 -0.575011 2.008476 0.089969 -0.029030 -0.422715 
0.593655 0.068353 -1.142614 -0.866755 0.532546 0.274147 -0.730109 0.989001 -1.160016 0.895746 -0.592078 0.677477 -0.393557 0.261764 0.703538 0.517259 
-0.447435 0.256712 -0.235148 -0.337891 -0.297873 -0.390130 -0.902632 0.658554 -0.948793 0.701455 -0.405129 0.155778 1.072228 0.007550 0.141160 -0.570777 
0.958024 0.810042 0.213409 0.102980 0.124554 -0.782366 0.317339 0.011801 -0.165997 0.052895 -0.143585 0.659235 0.629440 1.577130 -0.024481 -0.875857 
-0.125095 -0.393996 -0.124182 0.684103 0.922588 0.526316 -1.085574 -0.193293 -0.482183 0.122474 0.590232 -1.185557 0.700892 0.875626 0.000607 -0.061497 
0.512050 -0.665676 0.064242 0.164496 -0.424529 -0.269175 0.313657 1.121934 -0.239643 0.843909 -0.481644 -0.391968 0.094252 0.778462 0.719455 1.417901 
0.459309 -0.243990 0.503456 -0.968610 -0.114462 0.025285 -0.038512 0.201551 0.297078 0.084742 -0.324700 -0.668090 1.470000 0.108832 0.889748 -0.300915 
-0.732795 -0.106295 0.781119 0.273818 0.994052 0.784932 0.448102 0.249362 0.373822 0.022018 -0.860200 -0.094526 -0.082312 1.028033 0.245441 -0.555432 
-0.409925 0.681207 0.913985 -0.678664 0.220361 -0.388514 -0.327599 -0.052686 -0.955969 0.883655 0.002384 -0.205420 0.411089 0.075297 -0.821510 -0.797987 
-0.203000 -0.426031 0.968200 0.533953 -0.118213 -0.176916 0.262450 -0.682743 0.797110 0.791678 0.818905 0.753721 1.041257 -0.121681 0.639345 0.033217 
0.146988 0.371871 -0.825006 -0.625890 -0.300015 0.803365 1.360713 0.917041 0.989720 -0.054600 -0.538972 0.965908 0.432732 -0.855964 0.601605 -0.701827 
0.725165 -0.501633 1.309400 -0.724097 -1.269577 0.561388 0.505871 0.927453 0.128221 0.418413 0.318493 -1.194136 0.082146 1.169344 -1.104829 -0.493200 
-0.905592 -0.836267 0.256599 0.778667 0.391457 0.405930 -0.406657 1.018677 1.201618 -0.193875 -0.482081 0.537465 1.258949 1.207174 -1.005594 -0.561137 
0.781633 -0.532632 -0.355310 -0.237916 0.171369 0.514371 -0.052566 -0.895152 0.223143 -0.635735 0.120692 -0.082885 0.161303 1.209065 -0.695757 -0.673400 
-0.148945 0.006312 -0.294616 0.838638 -0.669328 -0.429333 0.100615 -0.250113 -0.576565 -0.313769 -0.183842 0.663972 1.816669 -0.227701 -0.455364 -0.979618 
0.476259 0.666385 0.083047 0.480351 -0.344568 -0.180869 -0.708093 -0.244602 -0.726187 -0.787831 -1.030785 1.159568 0.369596 0.112922 0.184463 0.366605 
0.594598 -0.769165 0.250174 0.468167 -0.034541 -0.020727 0.531480 -0.736422 0.498314 0.077091 -0.774360 -0.018794 -0.092202 0.055318 -0.644721 -0.468924 
-0.655123 0.657849 0.314596 0.293851 0.133559 0.444288 0.527057 -0.643599 0.911103 -0.897833 -1.142038 0.491829 0.752933 -0.070724 -0.781005 0.583373 
-0.784963 -0.105598 0.536104 0.893983 0.224610 0.885445 -0.297243 1.149179 -0.834873 -0.049978 -0.363249 0.746889 -0.732109 -0.551077 0.085450 -1.039693 
0.060771 0.504655 -0.792968 0.408636 0.243869 0.428862 0.195802 0.022796 -0.291866 0.028762 0.206528 0.354519 0.279810 -0.492624 -1.172715 -1.082837 
-0.197119 0.229717 -0.731258 0.625053 -0.858998 -0.561935 -0.257897 0.392058 0.349063 -0.232636 0.735499 -0.222259 -0.158035 -0.520825 -0.468384 -0.095928 
0.934879 -0.267617 -0.633318 -0.865601 0.248469 0.867779 -0.397151 -0.856272 -0.208782 -0.289684 -0.324103 -0.559983 -0.690837 1.658905 0.436968 0.141693 
0.975392 0.429044 0.563784 -0.577037 -0.122613 -0.181858 0.506153 0.281685 0.581526 0.340972 -0.408054 -0.436963 0.597661 0.453811 -0.947703 -0.120843 
-0.335612 0.455122 -0.747640 -0.830897 -1.065508 0.599752 -0.086216 -0.033210 -0.463795 0.875671 -0.010860 -1.601472 -0.016867 1.067031 -0.168190 0.143314 
-0.580531 0.092984 -0.622249 0.091799 0.679738 0.132882 0.985050 0.438316 -0.920169 0.095130 0.019183 -0.069088 1.285931 -0.775873 -0.642827 0.910064 
-0.859832 -0.488957 -0.053356 0.403885 0.579317 0.568308 0.212014 0.388837 1.029483 -0.856506 0.857500 0.573623 -0.979720 0.435068 0.120149 -0.529052 
-0.018967 0.926364 -0.486825 -0.731122 0.390819 -0.156907 -0.369447 -0.013738 0.414608 -0.362821 0.014007 -0.274932 -0.069802 0.403295 0.075302 -0.078142 
0.395876 -0.196544 -0.426581 0.061572 0.381588 -0.799778 1.024927 -0.191609 0.841584 0.623044 -0.136392 -0.364244 -0.034492 -1.006204 0.784214 -0.686520 
0.775766 -0.161605 -0.749017 0.611496 0.013090 -0.017904 -0.373307 -0.261888 -0.466702 -0.447913 -0.375627 -0.152798 -0.206468 -0.081186 -0.536770 -0.950531 
0.437872 -0.819739 0.187080 -0.367910 0.104684 1.198954 -0.150354 -0.805033 0.911561 0.074700 -0.298112 0.849330 0.022780 0.307515 -0.970863 0.055309 
-0.462749 0.382695 0.443196 0.899092 -0.586184 0.854082 0.344548 -0.713277 0.645085 -0.017462 0.525392 -0.206137 0.494989 0.700320 0.310726 -0.868408 
0.001919 0.734294 -0.745029 0.546299 -0.592987 0.837411 -1.239890 -0.774232 -0.819408 0.517759 0.171360 0.657138 -0.413862 0.123594 0.723515 -0.976014 
-0.020005 0.204973 0.543346 -0.512936 0.308159 0.526624 -0.026297 -0.589474 0.177363 0.951826 0.691048 0.512056 -0.577467 1.489399 -1.038142 -0.510347 
-0.172341 0.342645 0.086487 -0.585605 -0.895699 -0.010154 0.696394 0.639542 0.560946 -0.617613 -0.138109 0.281758 -0.798416 0.438468 0.248847 -0.755252 
-0.791000 0.548287 0.418398 0.384935 -0.153117 -0.461698 0.247628 0.131171 -0.041018 0.091030 -0.657744 -0.975308 0.395271 0.841727 -0.397079 0.041417 
0.140329 -0.585583 -1.208062 0.225924 -0.967266 -0.419334 0.117200 0.777596 -0.213035 0.417243 0.340776 -0.239331 -0.652292 -0.009660 0.500900 -0.555628 
0.104494 -0.014057 -0.198199 0.566680 1.050849 1.012065 1.734401 0.056770 0.398683 -1.007900 0.846628 -0.727778 -0.267877 -0.342855 0.273540 0.232138 
-0.708398 -0.701501 -0.496113 -0.269529 0.131755 -0.344867 0.276794 0.987232 0.112540 -1.097287 -0.419232 0.494158 1.716460 -2.057929 1.063782 -1.530588 
-0.154642 -0.650949 -0.302629 0.225622 -0.248529 0.391791 1.115757 -0.406354 -0.556871 0.819627 0.291823 -0.705967 1.372835 -0.705020 -0.651514 -0.263852 
-0.257450 -0.516763 -0.937731 0.833100 -0.385789 0.956010 -0.086021 -0.134450 0.864158 0.669299 -0.765725 0.541427 1.321815 -1.286966 1.690603 0.130078 
0.519781 0.655823 0.265642 -0.437920 0.154567 -0.389756 1.182498 0.891412 -0.319458 -0.652172 -0.423000 0.595549 0.119614 -0.631770 1.106982 0.109728 
-0.250935 0.531713 -0.669961 -0.694008 -0.753527 0.176803 1.253297 0.690190 -0.363389 0.814346 0.577984 0.356491 -0.140671 0.271090 0.079015 -0.245073 
-0.823214 0.910895 0.273096 -0.970925 -0.385219 -0.046851 0.985618 0.815789 0.286186 0.351913 0.082891 0.057259 -0.340271 -0.274927 -0.473624 0.778265 
0.356259 0.638569 0.805187 0.646324 1.330319 0.081621 0.821441 0.356965 0.100370 0.035255 1.016402 0.117725 1.425326 -0.618961 -0.476020 -1.207927 
0.020920 -0.637602 -0.046375 -0.739627 0.650698 -0.247670 -0.064171 -0.484310 0.875186 -0.073677 -0.435499 1.690168 0.003310 -0.738584 0.087876 0.126701 
1.017922 0.141169 0.532322 -0.850671 0.577682 -0.238753 -0.600870 -0.838177 0.571150 0.590208 -0.050376 0.762413 -0.145859 -0.356018 -0.420911 0.337067 
0.689737 0.185355 0.818517 0.195389 -0.269195 -0.711083 -0.539424 -0.195600 -0.307204 0.712960 -0.599486 0.960693 0.227476 0.541561 0.015549 -0.122429 
-0.842502 0.537789 0.567820 -0.136717 -0.949128 -0.061084 0.721974 0.647065 0.566408 0.149095 -0.181200 0.362027 0.800642 -0.144666 0.730143 0.403218 
0.011221 -0.569509 -0.882541 0.472471 0.626330 0.660002 0.133460 -0.395294 0.152153 -0.364296 1.106439 0.435518 0.290865 -0.931598 -0.599706 -0.570152 
-0.313221 0.411868 -0.759191 0.636318 1.070064 1.016888 -0.061660 0.816429 0.169004 -0.824231 0.384023 -0.390741 -0.459354 -0.643473 0.161664 0.487595 
0.167919 -0.425903 0.761449 -0.609884 0.091354 -0.534943 0.261014 0.780694 0.569140 0.277857 -0.052330 -0.585850 1.078878 0.146538 -0.974041 -0.025368 
-0.667523 0.152656 0.934425 -0.951571 -0.954597 -0.310596 -0.956603 0.177090 0.303226 0.986257 -0.901372 0.764123 0.877837 1.770539 -0.868833 0.369071 
-0.841655 -0.836175 -0.099939 -0.961648 -0.025855 -0.197503 0.773779 1.073147 -0.276014 0.348954 0.675607 0.163525 0.496238 1.761839 -0.415168 -0.430381 
0.217916 -0.604694 0.755837 -0.600151 0.384063 -0.173319 0.356508 0.611917 0.006027 -0.426601 0.316672 -0.918295 -0.882863 1.007669 -0.574893 -0.275991 
0.766878 -0.147123 0.447046 0.003858 0.103009 1.070513 0.041935 0.586478 -0.652612 0.678461 -0.539182 -0.305161 0.079351 0.049095 -0.839712 -0.308715 
-0.538008 -0.005939 0.765618 -0.667896 -0.630289 1.304284 1.200096 -0.034192 0.501947 -0.836702 1.045576 0.132601 0.339070 -0.022249 -0.033486 -0.916298 
0.843486 0.093810 -0.628488 0.910014 0.120557 -0.084446 -0.072151 0.328596 0.891057 0.229372 0.738750 -0.163600 -0.037375 -0.237117 -1.137408 0.288623 
1.024922 0.558323 0.115624 -0.221504 -1.016642 -0.102728 -0.191695 0.493713 -0.500532 0.302967 1.150720 0.118435 -1.047800 0.515135 0.452285 -0.026785 
1.016771 -0.295005 -0.754345 -0.026067 -0.140223 0.149306 -0.477001 -0.218899 -0.147762 0.652496 0.688505 1.233315 0.650641 0.325367 -1.048653 -1.157112 
-0.918912 0.538286 -0.977691 -0.224369 0.739657 1.335579 -1.391172 -0.071652 -0.538280 0.785897 0.714066 -0.589426 0.822438 -0.479522 -0.812691 0.507306 
0.976014 -0.126764 -0.221853 -0.089035 0.240052 0.408979 -0.489709 0.102077 -0.361979 0.767474 0.240514 -0.526169 1.159519 -0.029661 -0.074091 -1.136015 
-0.297779 -0.538201 0.683020 0.500323 0.518501 1.052412 -1.194103 0.148671 -0.149547 -0.519549 1.042477 0.579494 -0.152693 -0.293210 -0.058134 0.068337 
0.387688 0.311901 -0.893737 0.731141 -0.457620 0.763141 -1.156054 -0.475899 -0.939127 -0.518239 1.180691 0.134483 0.735013 0.892770 -0.043990 1.109463 
0.798930 0.002820 -0.553033 -0.851944 -1.029938 -0.125945 -0.117401 0.881742 -0.114384 0.642590 0.527285 0.180111 -1.183682 -0.098248 -0.182461 -0.455796 
0.578850 -0.390827 0.800201 -0.703066 0.979087 -0.055704 -0.486439 0.762145 0.666161 -1.016314 0.489574 -0.722734 0.636067 1.576151 0.496943 -0.356933 
0.308484 0.579567 -0.025403 0.657914 -0.820105 0.636384 -0.230019 -0.301253 0.247028 -0.929770 1.016122 0.021930 -0.399148 0.224607 0.004518 -0.093720 
0.081179 0.588874 -0.655282 0.212588 -0.000109 0.689132 0.012890 -0.804732 0.557980 0.080823 -0.086743 0.410446 -0.011815 -0.649688 -0.045745 -1.146457 
0.969777 -0.396765 0.380126 -0.954579 0.633448 0.124911 0.008789 0.077856 0.003488 0.557852 0.676206 -0.157372 1.043028 -1.255322 0.737003 -1.182503 
-0.168426 0.945523 -0.386888 -0.953965 0.650839 0.885809 0.540331 0.168923 0.502830 0.570090 0.128397 -0.830290 0.581028 0.660519 0.514548 -0.628908 
-0.707240 0.236027 -0.449202 0.892078 -1.079217 -0.468205 -0.699067 -0.442720 0.172339 -0.651678 -0.148864 -0.189438 1.081685 1.456199 0.962985 -0.835468 
-0.694611 -0.143350 0.160153 0.522808 1.107682 0.073408 0.237416 0.192402 0.416833 -0.089290 -0.530417 -0.849258 -0.148222 -0.663328 0.929363 -0.702588 
0.155429 0.976933 -0.397715 0.605271 1.554883 -0.387670 0.209973 -0.814022 0.076287 -0.884188 -0.763351 0.746253 0.034204 0.468822 -1.168450 -1.480918 
-0.953157 -0.159157 -0.110077 0.726241 0.442351 1.392953 0.408985 -0.103563 -0.275506 -0.945829 -0.186507 -0.558735 0.544483 -0.159848 0.551790 -0.148267 
0.616639 -0.776567 0.052810 -0.096110 0.115067 0.003756 -0.241924 0.507570 -0.749344 0.817207 -0.127049 -0.416162 0.183707 -0.199361 -1.391691 -2.270922 
0.084884 0.743140 -0.067635 0.625327 0.309756 0.849966 0.862553 0.434622 -0.396481 0.847187 -0.671857 1.228631 0.400329 -1.309226 -0.619558 -1.019610 
0.396607 1.031015 -0.859505 -0.582990 -0.428136 1.184503 0.349150 -0.192548 -0.060418 0.695706 0.896213 -0.869530 -0.945688 0.056573 0.116178 -1.851830 
0.977601 -0.737640 -0.190819 0.386027 1.179620 0.257485 0.695933 0.541225 -0.429541 -0.137439 -0.889690 1.332834 -0.802974 0.985293 0.417873 0.045696 
0.540750 -0.056639 -0.446600 0.958277 0.463690 -0.078812 -0.508072 -0.662248 0.508231 0.876143 0.286992 0.751233 -0.374855 -0.241204 -0.017954 0.754753 
-0.556877 0.659220 0.433458 0.310592 0.565374 -0.612616 0.138262 0.455570 0.112471 -0.867620 -0.013344 1.391695 0.576912 0.339791 -0.406995 -0.255301 
0.753568 0.086057 -0.642348 -0.970766 -0.231797 -0.103369 0.045745 0.003878 0.350141 -0.746454 -0.345469 -0.559160 -0.215561 0.388428 -1.423928 -1.150191 
0.045756 0.676579 -0.366798 -0.421267 -0.043556 0.707476 -0.791095 -0.746969 -0.833552 -0.513940 0.644882 0.132743 0.738200 0.445490 -0.203126 -0.101571 
-0.758840 -0.740668 -0.287327 0.284058 -0.230352 -0.008302 0.082951 -0.083608 -0.246249 0.665895 0.964540 -0.879614 0.035388 0.738304 -0.530027 -0.738542 
0.334044 -0.053146 -0.284928 0.907159 -0.483467 -0.510617 -0.726058 0.802207 0.971914 -0.154316 -0.198781 0.017624 0.662344 -0.141946 -1.533328 0.179294 
-0.010415 0.351795 0.553421 -0.227575 0.099196 1.213276 0.188893 0.866922 0.821505 -0.228593 0.176685 -0.664401 -0.984129 0.259533 -0.719410 -0.752549 
0.242316 -0.497870 0.132048 0.259431 0.568300 0.083658 -0.556219 -0.801016 -0.176598 0.163829 0.637740 0.584272 -1.016626 -0.061147 -1.474885 -0.439643 
0.111581 -0.793695 0.770473 -0.874855 1.025280 0.655680 0.244646 -0.475915 -0.844083 0.493082 0.407181 -0.271944 -1.640226 -0.009026 0.793513 -0.422314 
-0.902682 0.425578 -0.348970 -0.780136 0.257186 -0.759726 0.937866 1.039003 -0.795530 -0.562640 1.207935 -0.143769 -0.737260 -0.573457 -0.818417 0.945672 
-0.206514 0.815778 1.051265 0.996871 0.126088 0.334498 0.815206 -0.767667 -0.242270 -0.628488 -0.609278 -0.406257 -0.137463 -0.489613 0.458203 0.214812 
-0.634024 0.007533 -0.826053 0.818534 0.508019 0.372521 0.082933 0.653055 0.678576 -0.115829 -0.694021 0.104795 -0.811056 0.226939 -0.024640 -0.665997 
0.391754 -0.410101 0.746353 0.926495 -0.653974 0.897301 0.333345 0.633896 -0.218516 0.969898 0.596486 -0.792272 -0.327760 0.300644 -0.524524 -1.030808 
1.037754 -0.983871 -0.526335 -0.388955 0.090950 -0.234795 -0.305807 -0.255641 -0.442182 -0.556938 -0.209659 -0.715857 -0.269982 -0.973126 0.506787 0.395435 
0.447192 0.937491 0.928518 0.406865 -0.054924 -0.673536 0.510199 -0.525934 1.326140 -0.866688 0.229486 -0.955036 0.646884 0.094329 1.192660 -0.414886 
-0.608968 0.214511 0.049779 -0.267099 0.174626 0.192589 0.565896 -0.739586 -0.457829 0.717063 0.072900 -0.467342 0.165869 1.143105 0.063252 0.836891 
-0.015008 0.720922 0.059880 -0.602967 -0.574134 0.078852 -0.900765 0.260020 -0.182303 0.877457 -0.316729 0.173044 -0.483869 1.562871 -0.633745 0.396945 
0.831908 -0.930423 -0.039761 0.384460 -0.655639 0.596933 -1.044556 0.130765 0.524437 0.486562 0.610226 -1.306983 -0.753686 1.216984 -0.142026 1.158596 
-0.265336 0.482474 -0.126530 -0.392198 -0.331563 0.775114 0.419701 0.842720 0.709799 0.883247 -0.155064 -1.365185 0.343673 -0.332881 0.913025 0.474172 
0.396392 0.517208 -0.368803 -0.846122 -0.147236 -0.884756 0.014337 0.544063 -0.240193 -0.253650 -0.181110 0.385546 0.131331 -1.154036 -0.301935 0.107719 
0.403964 0.287536 0.135638 -0.777576 0.361331 0.157090 -0.011557 -0.942886 -0.449980 0.155408 0.530885 -0.582473 -0.280571 -0.918489 0.559466 -0.180166 
0.888297 -0.073831 -0.228538 -0.310569 0.419139 0.584403 -0.129157 0.692873 -0.268502 0.170233 -0.537836 0.192322 0.444053 -0.828426 0.067036 -0.775704 
-0.440303 0.396477 0.001608 0.385620 -0.806458 -0.180821 0.479994 -0.703746 0.220938 -0.091727 -0.050398 -0.055745 0.261357 -0.390900 0.042665 0.110106 
0.693364 0.465195 0.616021 -0.308727 0.107214 0.141908 -0.438340 0.813852 0.300277 0.360722 -0.974316 0.864313 0.355466 -0.753056 1.142404 -1.305716 
-0.557827 0.341598 -0.031286 0.513673 -0.711293 0.723511 -0.607958 0.803517 0.300009 -0.634318 -0.356483 -0.062595 0.424578 -0.144686 0.623337 -0.702278 
0.856172 -0.280805 -0.356944 -0.975449 -1.148660 1.006470 0.867137 0.367855 -0.125239 0.894552 -0.534598 0.460504 0.745939 -0.434963 -0.493692 -1.232978 
0.343153 0.482360 -0.414584 0.322206 -0.787289 0.871042 0.696057 0.895886 -1.058345 -0.465693 0.564997 1.229721 0.850357 0.199111 0.112304 -1.436123 
0.192891 -0.050878 -0.309302 0.256914 0.211959 -0.198407 1.002369 0.396146 0.730351 0.939458 1.321063 1.703076 0.349785 -0.712068 -0.316912 -1.852699 
-0.318556 0.913830 -0.952910 0.706211 0.661515 1.231094 0.815239 0.260063 0.309493 0.911396 1.097301 1.965590 0.496120 -0.396735 -0.018708 -0.755394 
-0.140373 -0.224131 0.366973 -0.564912 0.860614 -0.001855 -0.373839 0.206004 -0.441368 -0.510194 0.977466 0.887600 1.092802 0.257225 -0.533775 -0.172181 
-0.784030 -0.614919 -0.277576 0.066224 -0.627665 0.773478 -0.089713 0.423830 0.552238 0.585843 0.571089 0.639377 0.405097 -0.748261 0.762973 0.306173 
-0.897528 0.333396 0.311735 0.584681 0.026680 -0.091575 -0.218441 -0.770200 -0.453358 -0.010587 1.446727 -0.097498 0.443110 -0.218019 0.142515 -1.267350 
-0.419629 -0.473264 0.848940 -0.072197 0.768393 -0.109054 -1.044224 -0.175908 -0.248322 0.639200 1.371418 0.266677 1.304707 -0.151111 0.635919 -0.553935 
-0.274225 0.889870 0.120280 -0.259063 -0.895919 0.172097 -0.149167 -0.113787 0.698492 -0.039837 1.152758 -1.076259 -0.276366 0.714521 -0.108506 -0.196696 
-0.580314 0.981848 -0.184086 -1.016846 -0.998526 -0.496178 0.051523 0.153855 -0.164330 -0.544300 -0.461940 0.753795 -0.150009 -0.159959 0.698461 0.328398 
-0.573867 -0.888121 -0.809379 0.011508 -0.336725 0.523360 0.863999 -0.523848 -0.117790 -0.679384 -0.880057 -0.533731 -0.252001 0.095619 -0.928418 0.627634 
0.407890 0.822131 -0.061840 0.884136 0.151582 0.857650 -0.183102 -0.850219 0.205090 -0.397814 -0.718453 -1.050874 -1.075937 0.946307 -0.232765 0.816446 
-0.505844 -0.909566 -0.633145 0.154681 -0.376297 -0.084611 0.468296 -0.438537 0.671977 -0.137588 0.049426 -0.075866 -0.598569 -0.726801 0.224888 -0.980017 
-0.567335 0.117683 -0.873108 -0.643433 0.380843 -0.747424 0.213851 -0.085459 -0.769019 -0.182253 1.155629 -0.147447 -1.099289 0.346300 -0.635672 -0.932864 
-0.412678 0.413712 -0.137806 -0.106079 0.069333 0.754146 0.223086 0.593102 -1.169654 -0.107520 1.170635 0.871415 -0.139834 0.330225 -0.504619 0.336490 
-0.760639 0.956106 -1.137054 0.699806 -0.396339 0.297460 0.156593 -0.704403 0.691459 -0.572641 -0.543684 1.591884 0.576302 0.723299 -0.464360 0.389454 
-0.176162 0.332690 0.065874 -0.267713 -0.368769 -0.222692 0.265193 0.027351 -0.418106 -0.191000 1.062559 -0.067090 0.781642 -0.781627 0.690344 0.219938 
0.760476 -0.445895 0.259651 0.821145 -0.375612 -0.490250 -0.087005 0.170207 0.604811 -0.049134 0.700362 0.374251 0.342454 0.141906 -0.688015 -0.024929 
-0.493928 -0.279646 0.485636 0.401096 -1.475284 0.003234 -0.140086 -0.007443 0.964504 0.894111 0.308538 -0.940353 0.033749 0.459561 0.543171 -0.645204 
-0.348825 0.085877 0.487584 -0.400314 -1.192186 0.430621 -0.253282 -0.253270 0.456862 0.271050 0.486804 -0.588779 0.108067 0.399273 -0.021309 0.783158 
0.668000 -0.447560 0.241217 0.721426 -1.064889 -0.428867 0.647510 -0.837173 -0.124686 -0.259837 -0.824381 -0.538712 -0.288396 0.791579 -0.802666 1.346031 
0.196936 0.921788 0.241511 -0.838308 -0.434410 0.997734 0.587384 1.002150 0.458867 0.029949 -0.969664 0.264404 -0.619450 1.950090 -1.094457 0.300733 
0.277254 0.075403 0.565251 0.856366 0.447721 -0.752959 -1.380434 0.786683 0.829716 0.967814 -0.260797 -0.937789 -1.322340 1.656901 -0.931627 0.787742 
-0.027020 0.280979 -0.898344 0.031751 -1.470282 -0.599837 0.059035 0.571709 -0.232113 0.683432 0.306130 -1.060551 0.991549 -0.081826 0.115369 -0.537334 
0.995623 0.291073 0.098362 -0.338536 -0.644321 -0.604397 -0.239782 0.510301 0.130056 0.683692 -0.741854 -0.380511 -0.309868 -0.142049 0.340148 1.122925 
-0.685681 0.219458 0.223937 0.387391 -0.367960 -0.175319 -0.226351 0.486035 -0.200438 -0.061374 -0.631586 0.956348 -0.306159 -1.009138 0.224239 0.004217 
0.897759 -0.770092 -0.555729 0.188440 0.210058 -1.002574 -0.841205 0.141028 0.574546 0.297849 1.406406 0.211311 0.861145 -0.071418 -0.603040 -0.545873 
0.218535 -0.793302 -0.723567 0.939051 -0.751354 1.099409 -0.100171 0.873688 -0.368374 -0.018124 0.430581 1.636773 -0.200355 -0.712037 1.181614 -0.029608 
0.552369 0.484587 -1.104336 0.696974 0.772720 0.025643 -0.580513 -0.244660 -0.964251 0.914270 -1.203306 0.266712 0.277459 0.797024 0.325952 -1.240607 
0.260816 0.027291 -0.996587 -0.711826 0.220825 0.356858 0.609251 0.662503 -0.783317 -0.746962 0.661477 0.171440 -0.816309 -1.079963 -0.387310 -2.041266 
-0.617716 -0.098836 0.218387 0.094380 -0.289133 -0.368158 0.521088 0.200952 -0.733041 0.986739 1.031084 0.934222 -0.619080 -0.541930 -0.167647 -1.650328 
-0.435557 0.147354 -1.271398 -0.549222 -0.919974 1.105106 1.021131 -0.834685 0.112402 -0.184960 0.800491 1.519298 -0.406799 -0.909622 -0.658219 -0.998711 
0.958785 0.111919 -0.237638 -0.318076 -0.216961 0.868218 1.056671 0.905874 0.453817 -0.685059 -0.475597 1.235452 1.209315 0.092421 0.217367 -0.216198 
0.621260 -0.602538 0.263590 0.316179 0.975303 0.545479 -0.042984 0.314513 -0.861963 0.849823 0.667381 1.684446 -0.674943 -0.464333 0.336628 -0.751191 
-0.454614 0.939850 0.091664 -0.464119 -0.122060 1.288263 0.228504 1.072681 0.364809 0.189868 0.104123 2.093249 0.426561 -0.759909 0.075309 1.208252 
0.991697 -0.054580 0.375556 -0.814394 0.578429 -0.122105 -0.222714 -0.586098 -0.237323 0.602565 -0.386427 1.599385 -0.942753 -1.616940 1.566997 0.421840 
-0.555647 -0.250821 0.914109 0.712627 -1.011818 0.738539 -0.329795 0.156456 0.788150 -0.126682 0.675341 -0.558276 -0.447507 -0.444825 0.632492 -0.678913 
-0.171418 0.641968 0.083984 -0.893733 -0.206287 -0.510000 0.677536 -0.342795 -0.612583 -0.739817 0.627180 -1.103271 0.703167 -0.214460 0.582226 -0.018888 
0.994898 -0.375254 -0.827998 0.663071 -1.145641 1.081452 -0.020280 -0.842637 -0.358506 1.093495 1.194663 -0.202274 -0.367259 0.020352 0.707332 -0.910608 
0.400995 -0.421399 -0.047644 0.225805 0.352973 0.499416 0.030181 -0.512471 0.072411 0.108919 0.425151 0.256583 0.630666 0.146285 -0.722448 -0.547224 
0.029206 0.857415 0.529974 -0.402655 0.173233 0.819678 -0.693786 -0.459260 -0.241459 0.816855 1.104029 -0.477821 -0.080042 0.465311 -0.920058 -0.552335 
-0.233753 0.751347 0.474572 -0.064830 -0.691175 -0.036637 -0.923845 -0.309597 0.563126 -0.919496 0.826961 -0.237787 -0.865459 0.702458 -0.138240 -0.651893 
0.683551 -0.670823 0.046962 -0.380082 0.746423 0.513591 -0.170043 -0.027049 0.587624 0.980893 0.331366 0.580593 -0.220179 1.038760 -0.494203 0.254421 
0.848151 0.645976 0.932293 -0.025038 -0.605896 0.370486 -0.054286 -0.104848 0.564808 -0.595380 -0.370474 1.053224 0.736244 1.296132 0.347118 -0.133770 
0.524471 0.921683 -0.553906 -0.255863 0.571022 0.294106 -0.245361 -0.024044 -0.803891 0.609199 0.446918 0.021201 -0.158706 0.981044 -1.051099 0.531795 
-0.702634 -0.214895 0.560437 -0.287549 -0.008642 -0.020754 -0.938627 0.851749 0.639324 -0.656196 -0.113206 0.323762 0.793411 -0.032114 -0.025023 1.130949 
-0.118667 -0.853817 -0.243541 -0.216862 -0.982237 -0.788443 -1.016779 0.959834 -1.063813 0.437388 -0.254387 -0.920652 1.417044 0.581505 0.681247 0.030050 
-0.684981 -0.543625 -0.796503 -0.392716 -0.966031 -0.517149 -0.311731 -0.923635 -1.193751 -0.420697 -0.510595 -0.086426 1.018614 -1.039050 0.444863 -0.648209 
-0.778522 0.153009 0.791909 0.100422 -1.090787 0.349527 0.494886 -0.898964 -0.213358 0.488084 0.746204 0.283877 -0.189058 0.648642 -0.237867 -0.631054 
0.007755 0.697693 -0.687865 -0.389364 0.075721 0.022456 0.713299 0.328206 0.176631 -0.654340 -0.931043 0.115970 -0.239325 -0.045234 0.294589 -0.525729 
0.284332 0.966176 0.296730 -0.898762 -1.328258 0.008822 -0.360656 -0.540549 0.729056 0.681703 0.026413 -0.188469 -0.186489 -0.561873 -0.200335 0.621132 
0.577835 0.335475 0.105091 -0.451561 -0.135626 -0.484034 -0.839440 0.377413 0.989354 -0.050463 -1.051255 0.849865 0.393594 0.113118 0.335741 -0.069322 
0.356763 -0.687075 -0.363506 -0.152096 -0.333874 -0.591305 0.326104 0.185199 0.308664 0.640913 -0.997322 0.653928 -0.321584 1.951423 0.069607 -0.444290 
0.864840 0.651966 -0.384591 0.026194 0.130143 -0.683216 0.618007 -0.390219 -0.194579 -0.636122 -0.861217 -0.429020 -0.277717 -0.519306 0.329700 0.081679 
-0.532545 0.093302 0.046476 0.864287 -0.312662 -0.614115 0.885026 -0.432830 1.019719 0.551138 -0.396775 -0.220774 0.395953 -0.566664 -0.140236 -1.102546 
0.665903 -0.547324 -0.047776 0.720104 0.276295 -1.188812 0.969507 0.533500 -0.685691 -0.924693 -0.320448 0.214305 -0.495774 0.941395 0.555788 -0.017479 
-0.117126 0.998394 0.814136 0.330132 1.493337 -0.211509 -1.121212 -0.295131 -0.667132 -0.455380 1.726543 0.017275 0.119343 -0.206130 0.515566 -0.339499 
-0.405649 0.130613 0.531778 0.765069 0.042233 -1.383978 0.549755 0.401410 -0.508498 -0.122536 -0.748867 0.434528 -0.869931 -0.791913 -0.466247 -0.446750 
-0.716988 -0.500772 0.005824 -0.507157 0.615277 -0.357620 0.824380 0.013479 -0.298339 0.669671 0.213072 -0.103425 -0.938584 -0.169247 -0.686540 -1.363853 
0.069065 -0.044401 0.560682 -0.648189 0.041155 0.507698 0.868792 0.843012 -0.040324 0.508500 0.003448 0.093786 -1.355643 -0.735783 0.469853 -1.407258 
-0.540135 0.138972 0.307809 0.995449 0.348617 -0.698574 0.162776 -0.761156 -1.048631 0.485347 0.752669 1.357890 -1.760107 -1.274640 -0.698497 -0.603908 
-0.316416 0.031349 -0.225398 -0.170997 0.814134 0.933207 -0.508920 -0.858623 -0.476258 -0.226589 -0.113273 -0.539275 -0.649108 0.846497 0.338529 -1.476015 
-0.459031 0.473046 -0.544197 -0.309210 0.095495 0.991815 0.169563 0.005206 0.729143 -0.603099 -0.365309 1.407483 -1.195353 0.180403 1.066518 0.180925 
0.171085 -0.545133 0.843799 0.806728 0.192482 0.766132 0.072169 -0.582151 -1.057535 -0.025718 -0.699379 0.539856 0.640947 0.093321 0.439437 1.173944 
0.764933 0.508072 -0.281301 0.213292 0.471593 0.673758 1.004831 -0.173508 -0.012659 0.472043 0.289989 1.781801 -0.257358 -0.199014 -0.598876 1.184569 
-0.830603 0.275988 -0.121193 -0.490066 0.469344 0.448071 -0.663448 0.046910 0.246104 0.227056 0.329361 0.959863 -0.363313 -0.310161 0.056351 2.206982 
-0.316598 -0.478250 0.846253 -0.158816 0.193077 0.329637 -0.843829 0.838608 -0.230146 -0.301795 0.296520 0.441199 -1.184510 0.330579 -0.145907 -1.026799 
0.722680 -0.040089 -0.935653 -0.626400 -0.213850 0.858695 0.220838 -0.897161 0.093912 0.949622 -0.236866 0.060531 0.780235 0.569300 -0.950189 0.174584 
0.767979 -0.707676 0.263290 -1.010417 0.565594 0.864577 -1.121304 0.536737 0.381191 -0.803206 1.164911 -0.506551 0.505278 -0.792406 -0.432472 -1.084098 
-0.717221 -0.621750 0.136322 0.263037 -0.624260 0.992766 0.718543 -0.204709 -1.053351 -0.375274 0.934086 0.124873 -0.543898 -1.073514 0.430031 -0.095197 
0.786069 -0.865579 0.098429 -0.625406 0.196390 0.734573 0.057900 -0.591079 0.340013 0.118801 1.366528 -0.521306 -0.826616 0.126596 -0.306395 -1.201154 
-0.034063 -0.699162 0.294125 -0.389889 -0.868070 1.063529 -1.265993 -0.036044 0.670873 0.511706 0.724394 -0.138158 -1.036510 0.830882 -0.626408 -0.354700 
0.784685 0.706789 -0.439115 -0.935564 0.240204 0.856429 0.642430 0.160178 0.257463 0.873953 0.242758 -0.441217 -0.179624 0.941176 -0.948624 -1.053177 
0.467526 -0.001026 0.230633 0.048741 0.648139 -0.717508 0.114931 -0.709517 -0.931060 0.053614 0.335711 -0.069206 0.499391 1.157361 -1.419534 -1.872499 
0.031729 0.670846 0.741568 -0.602502 -0.244854 0.585920 0.842612 0.205114 -0.058725 -0.644522 0.232724 -0.255572 -0.524171 -0.865672 -0.899522 -0.580044 
0.200401 0.843231 -0.275147 0.852736 -1.029449 0.818838 -0.944762 -0.211068 0.239839 0.772303 -0.687171 -0.068975 0.342175 -0.670202 0.047904 0.548865 
-0.060675 -0.514368 -0.698588 0.431083 0.233175 -0.231516 0.573494 -0.815164 -0.613859 -0.050706 -0.014191 -0.189501 0.522824 -0.994832 -1.624744 -0.293658 
0.592967 -0.696187 0.063268 -0.186445 0.574341 -0.177411 -0.059565 0.128598 -1.695448 0.937804 -0.146494 0.590957 1.864906 -0.060775 -0.763270 0.457906 
-0.679584 -0.209675 0.694996 -0.100856 -0.382580 -0.541502 -0.345586 -0.210582 0.316708 0.175532 -0.291427 -0.358283 0.935269 0.909484 0.442105 -0.659563 
0.290054 0.369778 1.050343 0.513351 -0.689585 -0.634664 0.272051 -0.766246 -0.141865 -0.488716 -0.668870 -0.122293 -1.305697 -1.326504 -0.379199 0.494348 
-0.491294 -0.059525 -0.113987 -0.792693 1.152879 -0.757929 -1.075753 0.477775 0.460855 0.177855 -0.722458 -0.100766 -0.285855 -1.103041 0.186392 0.290128 
0.030382 -0.755578 -0.896683 0.562248 -0.978613 0.339059 0.521263 0.025966 -0.052753 1.145987 0.098208 0.415696 -1.001546 0.118738 -0.160073 -0.094431 
0.381772 0.303720 -0.621410 0.617313 -0.503480 -0.542246 0.255158 -0.615853 0.685148 -0.390583 -0.849070 0.762735 0.966624 1.229106 0.879880 0.017105 
-0.468457 0.580634 1.078710 -0.418817 0.633869 -0.801361 -0.221725 0.322604 0.190581 0.286109 -1.212580 1.937708 -0.157871 0.741105 -0.143234 -1.234004 
-0.403424 -0.610360 1.280357 -0.950348 -1.650783 -0.282512 -0.596639 0.954617 -0.127862 -0.131535 -0.963055 0.802117 1.449332 -0.194178 -0.142662 -0.018053 
-0.807553 1.044753 0.152406 -0.982576 -0.409427 0.508348 0.941998 -0.558459 -0.983412 0.075839 -0.457995 0.749359 0.763521 -0.414660 -0.418193 -0.870588 
0.456573 -0.070065 0.726226 -0.723284 0.679850 -0.874742 -0.562226 0.708883 0.166695 0.598620 -1.230237 0.106609 -0.314029 0.433498 -0.763769 -0.212899 
0.733800 0.457336 -0.141555 -0.350075 1.256898 -0.707066 -0.564194 0.952784 0.344421 0.794143 0.099586 0.075424 -0.245230 -0.991238 -0.233032 -0.994730 
-0.931143 -0.202902 -0.492776 -0.408524 0.602568 -1.074962 0.602584 -0.159308 -0.062507 0.872609 -0.503131 -1.044571 -0.914431 -1.317011 0.072215 -1.113139 
0.944432 0.934682 -0.100790 0.063928 0.408912 0.466859 -0.316031 -0.810901 -0.754290 -0.443802 -1.280972 -2.296261 -0.802724 -0.872053 0.074535 -0.570411 
0.782754 -0.799673 -0.256482 -0.599554 1.219907 0.157771 0.155278 0.459299 0.109609 -0.617728 0.292812 -1.316708 0.576979 -0.587142 0.362914 -0.942920 
0.569083 0.325766 0.678471 -0.826499 -0.470469 -0.284795 -0.284521 -0.283242 -0.136007 -0.240406 -1.096815 0.125485 0.080276 -1.012395 -0.585130 -0.623537 
0.020840 -0.005881 -0.946097 0.728774 -0.548457 1.352075 0.861821 0.749921 -0.475735 -0.463456 -0.276776 -0.250568 0.107797 -0.377225 0.567464 -0.008660 
-0.360051 0.729948 -0.093085 0.462823 1.124709 -0.129643 0.899091 0.368419 0.734396 -0.086150 -0.201290 1.147021 0.822920 -0.797491 0.552234 0.465940 
0.543441 0.156999 0.345043 0.673653 0.392094 -0.628752 -0.047045 0.666655 -0.716530 0.073010 -0.274003 0.441290 0.315744 0.324641 1.292046 0.138001 
-0.471147 0.089081 0.512009 -0.621558 -0.465244 0.226664 1.004215 -0.053030 -0.196639 0.204606 0.311939 0.755883 0.604398 -0.886806 0.914283 1.675179 
0.490171 0.482328 0.833571 -0.617089 -0.577403 0.121397 0.105952 -0.013051 0.195166 -0.139470 2.087254 -0.270278 0.659079 0.083871 -0.476202 -0.948669 
0.596405 0.734802 0.316572 0.822786 -1.355917 0.837692 0.211477 -0.935167 0.837958 0.119370 1.162762 -0.343761 0.647046 0.180187 -0.008661 0.358479 
-0.921425 -0.236173 0.302387 -0.147558 0.601763 0.928918 -1.618378 0.023142 -0.182162 1.140186 -0.054910 0.770950 -0.612465 0.505774 0.089663 0.583697 
-0.931979 0.851994 -0.296237 -0.550715 -1.105717 0.667216 -1.238784 -0.735085 -0.561979 -0.654626 -0.002585 -0.840749 -0.329164 -0.779740 -0.849426 0.198342 
0.834334 -0.027439 0.923176 0.790889 -0.653466 0.075131 -0.401082 0.343233 0.551419 0.401154 -0.140457 0.527485 -1.451736 -1.202616 -0.430588 -0.631093 
0.372631 0.392896 0.010172 0.577458 -0.619685 -0.279450 0.852573 -0.648922 -1.108184 0.165335 -0.520882 -1.161936 -0.180954 0.288718 -0.448208 0.888691 
-0.661518 -0.176831 0.354136 0.919252 -0.409172 -0.614985 1.152844 0.245440 0.133802 0.623340 0.524685 -0.913106 -1.023074 -0.081697 -0.174550 -0.215245 
0.787022 0.650406 0.451047 -0.592805 0.027784 -0.872895 -0.681011 0.869626 -1.804443 0.721834 0.737435 -0.943583 0.061687 -0.006734 1.381727 0.089268 
0.978857 0.356006 -0.143757 -0.778775 1.023792 0.815575 -0.802260 0.931884 -1.734485 0.372924 -0.595067 0.695886 0.112812 0.149242 -1.001431 0.899935 
0.831053 -0.654056 0.503199 -0.560211 1.036430 -0.874458 -0.316456 0.922178 -1.251253 0.759974 0.232803 -0.780743 0.408533 -0.450713 -0.122237 -1.302545 
0.810621 -0.057713 -0.082773 0.965530 0.208560 1.066984 -0.183500 -0.919836 -1.775812 -0.270596 -0.064567 -0.132640 0.881487 -0.438852 -0.510005 -0.406305 
0.639075 -0.061188 -0.460108 -0.435835 -1.168285 -0.556377 0.357903 0.245919 -0.009402 -0.867495 0.465404 0.203272 -0.801193 -0.980848 -1.103842 0.366000 
0.292058 -0.586579 -0.761899 0.056159 -0.151987 0.109455 1.159301 0.790505 0.527948 0.517588 0.739598 -0.138861 0.854128 0.811791 -0.802076 -0.292233 
-0.395507 -0.044229 1.027059 -0.617966 -0.519309 -0.901679 1.210450 -0.391021 0.335940 1.092634 -0.879764 -0.465742 -0.778762 -0.467595 0.058538 -0.344040 
-0.538218 0.060694 -0.027005 0.392409 0.249997 -0.689258 -0.485732 -0.844301 -0.250313 0.504948 -0.011895 -1.167822 0.801797 -1.388796 0.624836 -1.447129 
-0.001510 0.030824 0.707920 -0.934225 0.172927 0.430057 0.921742 0.287286 0.279735 0.882482 -0.347970 -0.145950 -0.802477 1.505672 0.158827 -0.361394 
0.712600 0.418243 0.723492 0.966439 0.136358 0.546449 -0.101604 -0.873884 -0.060660 -0.324619 -0.619207 -0.039682 1.262984 0.808052 0.254204 -1.196717 
0.396030 -0.742069 0.468393 0.642699 -0.575507 -0.561394 0.216998 -0.704869 -0.492135 0.407603 -1.151895 -0.409507 -0.456772 0.967983 -1.239669 -0.729394 
0.921419 1.031723 -0.169638 0.142693 0.740103 0.679284 -0.772724 0.728748 -0.538244 -0.833757 -0.650974 -0.115389 -0.058032 0.968534 -1.172443 -0.043433 
-0.690329 0.771386 0.032479 -0.428557 0.003499 -0.390672 -0.501306 -0.369558 -0.589927 0.795089 -1.629439 0.598424 0.580104 0.698655 -0.396694 1.363719 
-0.546038 -0.471546 -0.983333 0.884095 1.555608 -0.536710 -0.038007 -0.240203 -0.856901 0.300000 -1.371203 0.203584 0.965082 -0.170812 -0.929341 -1.087317 
-0.116569 0.924344 -0.224600 -0.783095 0.286580 -0.265632 0.490899 0.021251 -0.247990 0.143133 -0.320527 -0.470216 0.759830 0.262752 -1.259023 -0.068108 
0.815835 1.042808 0.110681 0.812822 1.041014 0.021477 -0.315022 0.829350 -0.058326 -0.719169 -1.385824 0.766213 1.070010 -0.721976 -0.334304 -1.358400 
-0.437649 0.767040 0.660786 0.900883 -0.048132 -0.737427 -0.435576 0.513885 -0.041106 0.263021 -0.197360 -0.228937 0.057694 -0.793417 0.087861 0.596163 
-0.457132 0.541181 0.760600 -0.879604 0.452860 0.608689 -0.957788 0.151568 -0.113495 -0.032423 -2.036314 0.559464 0.850102 -0.766848 -0.846835 1.101508 
-0.183005 0.653689 0.641199 0.196179 -0.205041 0.787420 0.320822 1.096226 0.671547 -0.731201 -1.556407 -0.839605 0.241947 -0.311416 0.318479 0.822949 
-0.464338 0.913145 -0.902564 0.168974 0.853987 0.683260 -0.673809 -0.817857 -0.014515 -0.430729 -0.159550 1.281685 0.830624 0.599777 0.502598 0.045243 
-0.160619 0.386204 -0.031960 0.612039 0.909305 0.875284 -0.762704 0.285515 -1.035100 0.150524 1.008976 0.151866 0.028705 -0.127360 0.655044 0.484832 
0.848015 0.630347 0.328717 0.711943 -0.085415 0.544657 -0.511288 -0.604286 -0.594589 -0.900014 0.077769 -0.096870 0.715502 -0.200361 -0.411602 0.352780 
0.016896 0.539429 0.158086 0.476304 1.443609 -0.230116 -1.329591 -0.615953 -0.100899 -0.344846 -0.359598 1.498842 0.487162 -1.116677 1.129690 0.496226 
-0.433772 -0.329097 -0.759257 -0.708925 -0.138958 1.017404 -0.744222 0.289107 -0.590634 0.524719 0.784313 0.607812 -0.340091 0.962824 -1.546731 0.285758 
0.360057 0.429148 -0.775908 0.671786 -0.992150 -0.202142 -0.047243 0.190914 0.309053 -0.165676 0.057587 -0.557010 -0.054973 0.440344 0.116440 -0.896672 
0.774525 -0.414064 0.475959 -0.024060 0.251316 -0.749933 0.061686 -0.083544 0.783903 -0.498354 0.896716 -0.883190 0.140418 -0.259634 -0.972211 -1.085491 
0.245530 -0.888703 0.128039 -0.289471 0.214729 0.368903 -1.470645 0.801403 0.168367 1.040231 -0.401679 0.057690 -0.524533 0.470314 -0.992820 -0.263021 
0.120803 -0.315295 -0.592118 -1.018827 -1.060957 0.141846 -0.645853 0.347515 -0.467298 -0.337918 -0.694881 -1.175667 -0.955738 -1.333614 -0.464683 0.717702 
-0.574134 0.936238 0.128050 0.100312 0.307239 -0.262161 0.775377 0.554359 0.177777 -0.064607 0.422135 -0.109988 -1.440915 -0.317297 -0.641115 0.488637 
-0.811566 -0.415536 0.442653 0.356645 0.335037 -0.874203 0.338805 0.169235 -1.444394 0.282255 0.329099 -0.810553 -0.418867 0.807511 -0.132033 0.167320 
0.337996 0.269595 0.005051 -0.937801 -0.579732 0.056663 -0.491713 -0.108151 -1.571243 -1.043615 1.227996 0.738628 0.006111 -1.306590 0.858682 1.550037 
0.967079 -0.523898 1.024222 0.013874 -0.110846 0.824180 -0.516761 0.807595 -0.627664 -0.292018 0.529739 -0.940185 0.017308 -0.466315 0.351958 0.327119 
1.021750 0.754168 -0.713159 0.024714 0.628116 0.187286 -1.365649 -0.090081 -0.128643 0.587194 0.881698 -1.198685 0.322167 -1.295999 -0.114999 -0.799823 
0.984813 0.034602 0.865042 -0.709201 0.026170 0.683744 0.995922 -1.009185 -1.444918 -0.269907 0.689365 -0.669325 -0.755735 0.155955 -0.210943 0.787158 
1.036275 0.314133 -0.021501 0.271091 0.332543 0.348313 0.975018 0.117108 -0.337951 0.043499 0.243590 -0.485209 -0.743871 -0.701662 0.271963 -0.481155 
-0.370825 0.077688 -0.007425 -0.056308 -0.067288 0.325906 0.964850 -0.906631 -0.166736 0.381632 -0.076082 -1.195476 -0.473829 -0.663308 -0.507733 -1.181625 
0.871686 0.415086 0.613502 0.739940 0.338106 -0.010459 0.600097 -1.104283 0.932702 -0.520283 0.572615 -0.596845 -0.625625 -0.382426 1.109058 -1.043353 
-0.230997 -0.125295 0.000691 0.787526 -0.516217 0.395820 1.240318 0.376965 1.309120 -0.468705 0.070520 -1.303682 -0.262907 0.312766 1.045520 -1.574839 
-0.195203 0.434738 -0.759472 -0.608757 0.269883 0.299080 -0.819714 0.780234 -0.143409 0.258590 1.180422 -0.646009 -0.541779 0.594427 0.594231 -0.673698 
-0.796878 0.363782 -0.786333 -0.222955 1.092488 -0.847562 -0.223465 -1.083537 0.987605 -0.168423 -0.751286 -1.132404 0.888006 0.149289 -0.852912 -0.179765 
0.049815 -0.894946 0.804813 -0.070001 1.278611 -1.001696 0.155315 0.390335 0.403132 -0.217494 -1.216586 0.173045 0.191762 0.834506 0.543472 0.629382 
0.826128 1.033056 -1.105069 0.677580 0.102012 -0.581496 -0.526655 0.647657 0.806667 0.934421 -0.829199 0.356580 0.437862 1.076846 -0.549436 -0.692708 
0.644249 0.484750 -0.898780 -0.807805 0.054322 0.073042 -1.605864 0.093944 0.009300 0.384994 -0.267122 0.576962 -0.862945 -0.501824 -0.802440 -0.286441 
-0.047896 0.936587 0.384073 -0.437222 0.137313 0.048712 -0.287315 0.540514 0.196325 0.547557 -0.693927 0.829083 0.627027 0.910045 -1.201583 0.796649 
0.367636 0.243502 0.483241 -0.785819 0.412735 -0.570485 0.224881 0.798926 0.032509 -0.375951 -0.177779 -0.638398 0.031459 -0.098863 -1.751596 0.635382 
-0.597297 0.847216 -0.701254 0.274968 0.646272 -1.102779 -0.996650 0.213015 0.036962 -0.666087 -0.648085 0.588684 -0.571409 -0.479867 0.610954 -0.549651 
0.885776 0.193923 -0.172783 -0.747469 0.091821 0.004828 -1.404270 0.171187 0.262253 -0.942487 -0.699363 -0.159942 1.113708 -0.706261 -0.910071 -0.099880 
0.107249 -0.096393 0.778280 -0.140084 1.206633 -0.113901 -1.685682 0.390457 -0.562477 0.979742 -0.362272 0.548114 1.167454 -0.897766 -1.047741 -1.041417 
-0.879629 0.992283 0.311202 0.028183 0.816525 -0.222742 -1.326880 0.722812 -0.954715 0.588532 -0.247863 0.296161 0.399621 -0.201052 0.694021 0.509271 
-0.599172 -0.765933 -1.078645 -0.494544 0.880454 -0.574663 -1.562924 -0.492637 -0.709140 -0.377435 -0.320134 0.116106 -1.730130 -0.151041 -0.011387 0.819177 
0.087919 -0.469947 0.154121 0.199245 0.689923 -0.373886 0.221834 0.560227 -0.718934 -0.220709 0.495472 0.977323 -0.302212 -0.660087 0.848708 0.459002 
1.033731 0.252361 0.750000 0.749612 1.704064 -0.730800 -0.349218 1.049345 -0.135577 -0.176640 -1.335904 0.314793 0.061575 -1.641588 0.099770 0.571830 
-0.871988 0.789524 0.875245 -0.947191 0.130148 -0.408230 -0.746057 0.682221 -0.479625 -0.519196 -0.199280 0.465734 -0.256815 -1.791356 0.087483 -0.015605 
0.775051 0.660578 -0.027513 -1.054847 -0.219534 -0.753779 0.239470 0.397685 -0.698825 -0.601154 0.066600 0.082871 0.613642 -0.121811 0.071075 -0.878201 
-0.391038 0.773131 0.594478 -0.708391 0.588337 -0.894111 -0.860763 0.878990 1.082720 -0.136737 0.513041 -0.620735 1.632188 -0.575352 -0.103850 0.059830 
-0.612756 0.751865 -0.837559 -0.938573 -0.476947 0.679028 -1.203731 0.029762 -0.413375 0.650925 0.742698 0.339648 0.418547 0.685282 -0.548424 0.434776 
-0.602658 -0.461196 -0.867464 0.699182 -0.074246 -0.024709 -1.335183 0.058434 -0.952226 1.036036 1.474620 -0.063477 -0.999949 -0.968254 -0.108178 -0.667349 
0.286119 0.317839 -0.304503 -0.132781 -1.009758 0.360783 -1.356714 -0.101146 -0.664729 -0.365058 1.388264 -1.577661 -0.979830 -1.110975 -0.303851 0.681995 
-0.570217 0.447841 0.623214 0.092687 -1.179387 -0.328291 0.280328 0.706822 -0.547538 0.161142 0.059518 -0.213398 -1.416733 0.583225 -0.130947 0.805122 
0.428106 0.955537 0.330078 -0.968087 0.645361 0.199853 -0.813870 0.490456 -0.530979 0.238198 -0.304855 -0.629453 -0.985793 0.165427 -0.063170 0.329660 
0.846962 -0.123164 0.987997 -0.478597 0.367079 -0.448494 -0.510900 0.125571 -0.477657 0.540228 0.339872 0.445841 -1.758523 -0.176596 -0.101345 0.233866 
0.989836 -0.628269 -0.035935 0.444207 -0.484375 -0.174927 0.926622 -0.312438 -2.063425 0.154843 0.097039 -0.728385 -0.522758 -0.140553 0.476955 -0.472798 
0.537117 0.205162 0.058995 -0.545172 0.735910 -0.593139 -0.717136 -0.329718 -0.133772 0.939709 -0.270840 -0.006878 0.542119 -0.016658 -0.441245 0.008817 
0.154289 0.273079 -0.771279 0.282584 0.501289 -0.200243 0.387829 -0.551789 -1.103000 -0.047297 -0.414235 -0.343437 -0.835796 -1.091989 -0.972906 0.508499 
-0.321599 -0.859320 0.775002 -0.513353 -0.946479 -0.632095 -0.510995 0.697993 0.450411 -0.897718 -0.611239 -0.026889 0.389892 -0.087355 -0.303069 0.028827 
0.715774 0.609462 -0.850980 -0.830718 -0.494408 0.626157 0.847071 -0.507898 0.484245 -0.645914 0.593472 -0.655578 -0.204587 -0.079619 1.220547 -0.531832 
0.505831 0.333688 -0.579124 -0.867287 -0.164315 -0.447534 0.627311 -1.131476 -0.238545 0.799137 0.826281 -1.233741 0.104516 -0.694789 0.100690 -0.448262 
0.295876 0.760627 0.191820 0.857159 0.135551 -0.828026 0.577404 0.010097 0.712456 -0.342950 0.801781 -1.566417 -0.495928 -0.404718 1.665698 -0.979918 
-0.780645 0.325818 -0.015259 -0.321443 -0.399214 -0.362614 0.610972 0.446971 -0.518099 1.022982 0.372828 0.809656 0.372680 0.055925 0.454133 -0.763102 
1.055622 -0.387818 -0.289018 -0.361437 -0.080927 0.251480 0.448436 0.608304 0.221009 0.077512 -0.831248 0.790562 -1.545770 0.292462 1.429569 -0.262333 
0.871842 0.503654 0.298731 -0.258897 0.238781 -0.934388 -0.528798 0.247764 -0.423213 0.437259 -0.456377 -0.427104 -1.281587 1.078559 0.030878 -1.329235 
-0.416298 -0.581888 -1.010130 0.227639 0.254202 0.419411 -0.481425 -0.656034 -0.546698 -0.732892 -0.782756 0.271958 -1.357827 0.685952 -0.990302 1.196383 
-0.334706 0.548970 0.367928 0.131607 0.473157 0.253192 0.006034 -0.625639 0.693416 -0.262993 -1.387115 -0.961997 -0.091904 -0.674861 -1.176180 0.628960 
0.336654 0.082970 0.665720 0.413487 -0.431394 -0.988977 -1.290794 0.407011 0.768767 -1.023283 0.186666 -1.131055 -0.192684 0.699323 -0.411685 -0.575189 
-0.400888 -0.033237 0.251248 -0.953155 0.700444 -0.225318 -0.447079 0.034645 -0.904366 0.155926 -0.639134 0.780022 0.862173 -0.665852 -0.952789 -0.588885 
-0.021466 0.387268 0.371056 0.659788 1.540743 0.358837 -1.381468 1.157682 -0.198365 -0.867504 -0.260847 0.638791 0.655419 -0.215113 -1.368760 1.021915 
1.001059 0.944619 -0.504725 -0.035699 0.483801 0.408737 -0.518470 0.298280 0.102271 -0.391820 -1.704666 1.461308 0.746455 0.027686 0.487366 -0.016783 
-0.389908 -0.061950 0.732772 -0.050423 -0.526241 0.223506 -0.666602 0.466648 0.592410 0.326848 0.211926 0.368434 0.159208 -0.617036 0.300708 0.027141 
0.667075 0.794257 0.800176 0.331648 0.304182 -0.637409 -0.251546 0.568341 -0.269485 0.758450 -1.707320 1.160872 0.526442 -0.130843 -0.256836 0.590262 
0.696622 0.942677 -0.786178 0.558736 -0.054809 0.018683 -0.875240 -0.670930 -0.957054 -0.564860 -0.087109 1.610613 -0.143944 -1.410892 -0.135879 -0.490961 
-0.535196 0.316924 -0.965205 0.228442 0.901762 -0.434076 -0.006244 -0.318081 -1.072837 0.013548 0.579323 1.117117 -0.858920 -0.322637 0.979856 -0.293171 
0.755758 0.428601 0.537955 -0.197962 0.158939 1.137480 -0.018662 -0.009825 -0.944122 0.278150 -0.207605 -0.364813 0.495094 -0.543184 0.688510 0.254749 
0.836009 0.456742 0.361050 0.064844 0.500754 -0.065876 -0.803227 -0.405013 0.822241 -0.050560 -1.482735 0.811354 1.277862 -0.235815 0.561591 0.512197 
1.033933 -0.270022 -0.680940 0.075847 0.149610 -0.428166 -0.253942 -0.178005 0.864293 0.974671 0.758998 -0.347273 0.431714 -0.491942 -1.183715 0.089699 
0.163311 -0.204178 -0.440424 0.451938 0.156393 -0.563422 0.363147 0.408052 -0.156926 0.478383 0.939907 -0.397901 1.893371 0.300677 -1.008191 1.235639 
-0.032093 1.003795 0.835304 -0.981211 -1.004251 -0.734700 -0.264163 -0.517366 -0.077979 -0.590286 -0.175498 0.140130 -0.483259 0.482800 0.498286 -0.436657 
0.846186 0.213172 0.740310 0.318240 -0.636890 0.875257 -1.024789 -0.090641 0.965182 -0.446743 0.249327 0.531565 -0.367185 0.431050 0.539308 -0.638761 
-0.869245 0.042463 0.027223 0.005143 -0.663690 -0.712388 -0.503653 1.022856 0.393893 -0.837036 0.178152 -0.845192 -0.468092 0.077282 0.212791 1.465911 
0.173403 0.296767 0.313159 -0.927241 0.635869 1.167416 -0.026977 -0.935167 0.453663 -0.639153 1.041138 -1.262340 -0.701397 0.077879 0.787815 1.380674 
0.528057 0.906469 0.360814 0.104227 -0.589181 -0.180021 1.072944 0.759409 -0.092998 0.786589 0.311272 -0.833391 -0.250056 0.193697 -0.700924 1.102140 
-0.570583 1.027676 -0.365776 -0.566071 -0.579691 -1.087197 0.507874 0.690572 -1.558973 -0.235067 0.681526 -0.946905 -0.861704 0.291196 -0.010180 0.980846 
-0.349722 0.915460 -0.106058 -0.790372 1.244824 0.202938 0.762253 0.165773 -1.546468 0.843985 -0.767850 -0.495140 0.161649 -0.701842 -1.077579 -0.610160 
-0.483568 0.451810 0.695545 -0.641708 -0.090226 -0.996468 -0.791791 -0.429645 -0.167396 -0.339754 -0.359357 -0.365989 -0.712427 0.066701 -0.749902 -0.554222 
-0.577589 -0.600876 0.480268 0.912665 0.323656 0.712638 0.553643 -0.553622 -0.245162 0.090779 -0.467668 -0.072993 0.380293 0.819946 0.274364 -0.516972 
-0.096419 0.214770 0.414975 -0.443981 0.238877 0.671686 0.739723 -0.089487 -0.241304 0.479716 -0.688525 0.650652 -0.055047 -0.741642 -0.771349 0.273086 
0.784175 -0.394009 0.488293 -0.793806 -0.554687 -0.409208 0.948703 -0.440962 -0.487259 -1.017851 -0.803421 -0.379446 0.862519 -0.380466 -0.171240 0.898807 
-0.455660 -0.404840 0.776758 0.753076 -1.456608 0.450544 0.179705 0.806879 0.174238 -0.967416 0.491600 -0.086572 0.283993 -0.948136 0.044593 -0.500645 
1.064078 -0.260392 -0.476699 -0.500305 -1.038562 -0.083128 0.897055 -0.151974 0.190457 0.231634 1.077234 -0.218035 0.191793 0.057489 0.246891 0.632493 
1.018385 -0.745737 0.510270 -0.671364 0.464924 -0.217547 -0.189650 0.420757 0.044778 -0.344625 -0.078869 -0.884357 0.653640 0.285980 1.200921 -0.246833 
-0.784528 0.794141 -0.260673 -0.293198 -0.020991 -1.043072 -0.813746 0.349870 0.117810 0.294103 -0.014814 0.568009 -0.206551 0.242499 0.384714 -0.534531 
0.041669 -0.379999 0.600622 -0.074503 -0.764309 -0.996727 -0.665841 -0.430497 0.133664 0.811596 -0.875057 1.179290 0.587462 0.484174 0.117140 -0.949249 
1.118367 -0.677768 -0.203109 0.720938 -0.235402 -0.852001 -0.290540 0.897626 -0.415441 0.553834 0.379104 -0.059970 -1.925643 0.382177 -0.507255 0.816187 
0.759530 -0.780079 0.261040 -1.006820 -0.362414 0.169548 0.363845 0.487830 1.167406 0.393206 -0.583496 -0.726221 -0.790755 1.468536 -0.515112 0.710644 
-0.809569 -0.881429 0.431882 -0.767786 0.476815 0.188714 -0.463144 -0.282917 1.753189 -0.092621 0.591813 -1.927584 -1.101026 -0.785027 -0.280096 0.206495 
0.345832 -0.278961 0.905174 -0.743038 0.730353 -0.656569 -0.496000 -0.806615 -0.338151 0.364290 0.506996 0.368192 -1.119334 -1.045276 -0.979090 0.716131 
0.105362 0.282621 0.928072 -0.482739 0.896454 -0.054362 -0.889391 -0.451911 1.130928 0.124509 0.540854 0.020440 -0.576089 0.368092 -0.512308 0.905671 
0.453953 0.344363 0.867560 1.038688 0.847975 -0.157675 0.258385 0.835101 0.559582 -0.154581 0.156039 1.313439 0.283488 -0.512032 -0.741212 1.273164 
0.237416 -0.924391 0.323280 0.752746 0.216263 0.404206 -0.008826 -0.165713 0.516539 0.545814 -1.140719 1.678522 -0.420982 1.102976 0.561644 0.660562 
0.793910 0.949472 0.105068 -0.139282 0.647514 0.115291 -0.614428 -0.023661 1.077523 -0.726656 -0.823576 0.412631 -0.048286 0.126449 -0.185332 1.457367 
0.085244 0.565664 -0.854734 -0.561520 0.075164 0.266655 -1.045758 0.040267 0.631714 0.062767 -1.216725 0.645117 0.083847 0.231618 -0.288528 0.516608 
0.183984 -0.678100 0.289558 0.713257 0.273115 -0.189330 0.503545 1.112246 -0.288829 0.182815 -0.966417 0.095658 -0.244816 -1.697117 -0.176375 -0.313766 
0.447614 0.033133 -0.980690 -0.105708 0.044073 0.707031 -0.101686 -0.903397 0.587401 0.370558 -0.190248 0.792721 -0.309146 -1.369551 0.888604 1.057881 
-0.808122 0.842398 0.069959 -0.279079 0.275785 0.401950 -1.070542 -0.336353 0.115935 0.581448 -1.000048 1.181775 0.898908 -0.626515 1.001944 1.033431 
-0.880281 -0.721179 -0.729539 -0.965861 -1.196499 0.162101 0.433476 -0.749690 -0.379795 0.629486 0.361402 0.349727 0.328435 0.530583 0.007673 -1.053974 
-0.880271 0.449763 0.881031 0.085059 0.710331 -0.843446 -0.256246 0.566986 -0.129355 -0.850958 1.151461 -0.347096 0.718955 0.434031 -0.780874 -0.515279 
-0.442407 0.679974 -1.093738 -0.957707 -0.830596 0.537571 -0.513100 -0.862742 -0.190135 0.676288 0.431512 -0.837098 -0.002270 -0.087148 0.611537 0.973642 
0.962793 0.946561 0.540622 -0.058693 -1.139336 0.277403 -1.444825 0.292937 0.855721 1.088305 -0.018377 -0.384306 -0.757211 -0.007196 -1.218507 -0.248304 
-0.343624 -0.716470 -0.186601 0.018391 -0.694259 0.656364 0.326238 -0.180854 -0.264639 -0.686330 0.451751 0.233090 -0.951415 -0.397765 0.455299 0.752625 
0.490524 0.232048 0.545604 -0.107753 -0.530420 1.176944 0.076486 1.012907 -0.572697 0.055402 -0.417637 -1.031197 -0.681582 -1.284856 -0.266416 -0.139970 
-0.071189 -0.262951 0.460965 -0.182086 -0.902448 -0.108622 0.047268 0.842763 -0.185065 -0.561682 0.391414 0.380761 0.551040 0.239532 0.008611 -0.334342 
0.044269 0.813705 0.704569 -0.903625 0.328572 -0.395995 -0.459231 0.045939 -1.242906 -0.538030 -0.787069 0.439516 -1.408423 -0.051155 1.259378 -0.531751 
0.686255 0.791026 0.580203 0.448964 -0.015766 0.714042 0.912030 0.843798 -1.103104 -0.587470 -0.980204 0.029713 1.094508 0.715685 0.770956 0.299243 
-0.553397 -0.859228 1.101694 0.137803 0.985865 0.668035 0.589495 0.684704 -1.125509 -0.747106 -0.037768 -1.545976 -0.732005 -0.250005 0.297404 1.221005 
-0.103339 1.005757 -0.593381 0.769580 0.312735 0.646112 0.751521 -0.740665 0.526234 -0.287603 -0.098158 0.083233 0.239284 -0.485609 -1.030010 -0.530532 
-0.167853 0.534553 0.235722 -0.425480 -1.195776 0.637391 -0.033428 -0.339321 -0.135504 -0.222445 0.393370 0.007604 0.592043 0.528457 -0.678145 0.594630 
-0.758683 0.010601 -0.902668 0.207498 -1.224196 0.513113 -0.057927 0.979808 -0.422675 0.019830 0.269694 -0.186403 -0.171722 0.772661 -0.100347 0.511218 
0.247183 0.568364 0.629905 -0.090806 -1.927454 -0.018228 -0.715060 -0.662436 -0.550729 0.078262 -1.176600 0.299067 -0.331980 -0.287293 0.046196 0.310768 
-0.513726 -0.272859 -0.074692 -0.592133 -1.415086 0.712135 -0.389417 0.022811 -0.747012 -0.626570 0.390995 -1.118426 0.011793 0.427147 2.054201 1.892040 
-0.499115 0.531666 -0.045501 0.680648 -0.341574 0.177619 -0.618449 0.015458 0.407906 -0.272818 -0.397271 -0.345047 0.646039 -0.374440 0.273520 -0.906103 
-0.769349 0.668985 -0.248726 -0.634336 0.306776 -0.260096 0.288449 0.150430 -0.513614 0.951576 -0.459886 -0.582405 -0.338107 -0.981936 1.616889 1.054095 
-0.619225 -0.085088 0.523844 0.801229 0.046193 0.181447 0.619826 0.098389 0.867619 0.291626 -0.851845 -0.755886 -1.221941 0.984363 0.224600 0.655757 
0.777327 -0.801468 -0.176817 0.106632 -1.032985 0.724573 0.182342 -0.914116 0.808114 0.078126 1.022085 -0.229509 -0.770637 -0.160436 1.216156 1.758057 
0.408668 0.776187 0.051535 -1.129733 1.273105 -0.313076 -0.639093 -0.418034 1.476446 -0.105914 -0.068208 -0.763709 -1.620484 -0.654446 0.482949 -0.147163 
1.000326 0.456136 -0.246018 -0.797150 0.631526 0.194697 -0.219646 -0.225603 0.477797 -0.244033 0.305633 -0.375801 -0.859774 -0.094300 -0.809614 1.364715 
-0.592643 0.376720 0.414586 -0.289596 0.299104 -0.750181 -1.394297 -0.770320 0.535117 -0.736591 -0.018970 0.940694 -1.513643 -0.005199 0.480900 1.067883 
-0.563870 -0.580982 -0.162417 0.838282 -0.036314 -1.067495 -0.857362 0.686752 0.308957 0.268076 -1.218586 0.752038 -0.360614 -0.191708 -0.559353 -0.287046 
0.588697 -0.621732 0.965680 -0.145424 0.811665 -0.696043 -0.942634 0.124270 -0.885048 0.932840 0.902584 0.833071 -1.518274 -0.006671 0.771097 0.765083 
0.640168 0.333017 0.491385 0.592916 0.546805 0.520291 -0.313287 -0.252781 0.970635 0.144993 -0.567150 1.226521 -0.473171 -0.261129 0.645239 1.657010 
-0.741588 0.033901 -0.493403 0.256034 0.866699 -0.559637 -1.209875 0.845623 -0.157392 -0.605398 -1.440137 0.969537 -0.900691 -0.575492 0.857527 -0.289993 
0.784797 -0.335782 -0.007661 -0.971932 1.269162 0.108686 0.140196 0.200109 -0.165213 -0.257563 -0.034371 0.260374 -0.097944 0.506923 -0.698093 0.340899 
0.930588 0.099448 -1.118223 -0.315253 0.741919 0.739436 -0.606769 0.637249 -0.538947 0.434411 0.608150 -0.724905 -0.080702 -0.593021 -1.086288 0.264052 
-0.398173 -0.653677 -1.063627 0.233358 0.032534 0.627343 -0.869072 0.195168 -0.473713 0.548856 -0.904301 0.158250 -0.693714 -0.837570 0.043342 0.256466 
0.741078 -0.928141 0.145444 -0.654166 0.118372 0.231694 0.036679 -0.069638 -0.372346 -0.602080 -0.930115 1.479649 0.454049 -1.089664 0.527629 0.635329 
0.537037 -0.834735 -0.914048 0.477690 0.454137 1.069863 -0.046725 0.585087 0.545196 -0.505259 0.075429 0.020533 -0.694877 -0.345116 -1.203683 -0.443649 
0.782636 0.936292 0.869549 -0.367245 1.064278 -0.805778 0.260821 -0.653587 -0.086119 0.896292 0.472559 0.439808 0.965164 -1.072096 -0.866956 0.230529 
0.287149 0.888905 0.291932 -0.780044 -0.577855 -0.981407 -1.199706 -0.155763 -0.745339 -0.129303 0.279593 0.277013 -0.519461 -0.758014 -0.406132 0.051851 
-0.298573 -0.732984 -0.099028 0.071003 -0.720660 0.497819 0.489422 -0.836558 -1.028099 0.058621 -0.428156 -0.321651 -0.021120 -0.203550 -0.493455 -0.506138 
-0.765100 0.628606 0.025961 -0.452122 0.115620 0.578842 -0.332186 0.588352 0.269964 0.605546 0.710761 0.564891 -0.737286 -0.414559 -0.166380 0.020307 
-0.853124 0.429244 0.177477 0.501822 0.755743 0.244712 -0.698179 -0.731329 0.112137 0.726016 -0.607497 0.359054 -0.370478 -0.408637 1.132406 -0.581225 
-0.275286 0.262128 0.627800 0.898375 1.280061 0.409698 0.103716 0.606094 -0.365537 1.044712 -0.447440 -0.362476 0.322128 0.460423 0.345057 -0.281935 
-0.238859 0.586086 0.693048 0.617550 -0.061435 -0.558541 0.138507 -0.047481 -1.101637 -0.798045 -0.385964 -0.557296 0.522335 0.792720 0.712417 0.756861 
0.706233 -0.933101 -0.862838 -0.851122 0.855743 -1.092247 -0.250826 -0.879779 0.401597 0.678511 -0.464754 -1.649733 0.409064 0.916586 0.319876 0.086685 
-0.700480 -0.205653 0.335181 0.479095 -0.058386 0.890382 -0.044814 0.124830 -0.372361 0.009083 0.162771 -1.486392 0.782518 0.739145 -0.594028 -0.244381 
-0.624112 -0.253012 0.483515 0.375801 -0.156087 0.706144 -0.542012 -0.035513 0.487551 -0.925657 0.112870 0.645834 0.252159 0.848807 -0.088916 0.287848 
0.091502 0.918484 -0.821219 0.370763 0.018471 -0.473880 0.245363 -0.087805 0.453005 0.247796 -0.809958 0.740399 0.403145 0.444487 0.175544 -0.882494 
0.309822 0.417346 -1.023698 0.073681 -1.044732 0.461202 0.116132 -0.685818 0.605037 -0.181568 -0.322444 -0.436963 1.747287 -0.437120 -1.121049 -0.479475 
-0.834717 0.085874 -0.365345 -0.825734 -1.005752 0.896560 0.295382 0.162704 0.663679 0.854335 0.911905 -0.208204 0.738460 -0.490832 -0.783067 1.203847 
0.756963 0.025903 -1.120027 0.664514 -0.235393 -0.002091 0.577337 -0.347900 -0.335990 -0.019213 -0.085336 -0.665300 -0.034672 -0.478092 1.137365 -0.154193 
0.480571 0.546109 -0.949478 -0.423305 -0.470579 -0.504852 -0.215027 -0.411197 -0.921357 -0.645683 0.513807 -0.575098 0.349502 -1.426747 1.197877 0.231761 
-0.718609 -0.702051 -0.487054 -0.599218 -1.215185 -0.716579 0.104744 0.477946 0.215639 0.611655 1.052177 0.556111 -0.099007 -1.232579 1.531621 -1.239092 
-0.762934 0.084728 0.243576 0.539343 -0.027647 0.205498 -1.037966 -0.476371 -0.908305 -0.660480 -0.286213 0.315250 -0.594324 0.196021 1.246132 -0.190322 
0.953952 -0.324378 -0.388476 -0.668855 0.595314 -0.023044 -0.929157 -0.100222 0.933499 0.156129 -0.625533 0.885569 -0.792247 0.221373 1.021041 1.095105 
-0.258261 -0.225301 0.197724 -0.608433 -1.023289 -0.784284 -0.689919 0.942484 0.839583 -0.495636 -1.023246 -0.903806 -0.413319 -0.212988 -0.784059 0.282755 
0.774072 -0.624983 -0.465097 -0.041043 -0.161121 0.716594 -1.300889 0.378926 -0.244363 0.450078 1.041117 -0.047891 -0.592767 -0.110861 -0.833104 -0.867103 
-0.667049 -0.545578 -0.400266 -0.186379 -0.384290 0.434012 -0.530586 0.364620 0.374234 0.464753 0.417276 -0.468845 -1.132639 -0.418106 -0.617053 0.645210 
-0.602413 1.000660 -0.356931 -0.455587 0.373089 -0.435900 0.284633 -0.616247 0.228193 -0.663585 -1.356501 0.424652 -0.783567 -0.135980 0.304540 1.472014 
-0.046076 0.223426 0.222241 -0.419689 0.703271 -0.140184 0.408339 -0.628703 0.514924 -0.524396 1.142254 0.238461 0.114866 0.136078 -0.448004 1.834030 
-0.578593 -0.869423 -0.559210 -1.051965 0.968984 -1.079136 0.084306 -0.316275 0.606587 0.212382 -1.004567 0.166158 0.828809 -0.146344 0.284667 0.474977 
0.554904 0.839823 -0.398261 -0.678021 0.231499 -0.456740 -0.622838 -0.423221 0.406745 -0.093470 -1.353296 -0.153059 0.316569 -1.100381 -0.726044 1.090881 
0.109241 -0.590947 -0.000063 0.073311 0.986260 -0.577194 -0.420920 -0.360664 0.726012 -0.399392 -0.152509 -0.612031 0.328135 -0.399140 -0.208074 -0.129313 
-0.171467 0.924488 -1.004009 0.786551 -0.628753 0.607000 0.403144 0.341935 0.394898 -0.015220 -0.392986 0.319411 -1.382371 -0.425967 -0.775899 0.619319 
0.671091 0.382333 0.779119 -0.770340 0.189371 0.623244 0.297402 -0.305046 0.822884 0.672418 -0.041738 0.014839 -0.458768 -0.988034 -1.022801 0.853238 
0.629557 -0.771694 0.392557 -0.797171 0.398567 -0.322892 -0.162220 -0.638023 -0.823900 0.179618 0.055872 0.144777 -0.650933 -1.397281 0.633256 0.927783 
-0.732657 0.361913 0.303606 -0.457469 0.390645 0.279466 -0.830725 -0.588782 0.750282 -0.523356 0.730324 -0.012790 0.999706 1.346341 -0.741232 0.264991 
-0.112609 -0.593038 -0.011662 0.833243 0.120561 0.437373 -0.031405 -0.286922 -0.725924 0.252382 -0.597307 -0.974016 -0.500147 -0.205348 -0.135159 0.134324 
0.248787 0.446911 -0.442907 -0.882158 0.283228 -0.523330 0.310618 0.355658 -0.801555 0.064433 0.582694 0.062897 -0.192488 -0.631110 0.258207 0.854192 
-0.270441 0.412749 0.051530 -0.685900 0.572558 -0.403563 0.045914 -0.804829 -0.500367 0.035118 0.157434 -0.127155 0.456019 0.878123 -0.780873 0.522859 
0.466049 0.707107 -0.105458 -0.800720 -0.049110 0.630798 -0.467782 -0.774663 1.009075 0.816098 0.787352 -0.252471 0.202076 -0.260985 -0.139096 -0.567485 
-0.529644 -0.105885 0.327070 -0.917446 0.670373 -0.198710 0.820534 0.519027 -0.127443 -0.501556 -0.420425 -0.014136 0.041808 0.689579 0.231324 -0.230339 
-0.801330 0.084994 0.254569 0.722132 0.307919 -0.139993 -0.141577 0.759807 -0.987225 -0.552303 0.268152 -0.682414 0.188250 -0.506070 0.578448 0.422215 
0.059856 0.699859 -0.058091 0.780302 0.210560 0.448243 -1.153803 -0.849602 -0.400608 1.020063 -0.009726 1.048152 -0.316657 -0.864603 0.007946 1.283921 
0.684132 -0.092071 0.617280 -0.019600 -0.210846 -0.779750 -0.392360 0.287587 -0.299975 0.026450 0.875619 -0.467089 0.175237 -0.438013 0.018550 0.047041 
0.650395 0.692586 -0.519002 0.022373 0.771294 -0.133067 0.636786 -0.569539 0.008104 -0.092743 -0.516669 -0.056143 0.210637 -0.213535 -0.006062 0.159745 
0.738394 0.708555 -0.542816 0.444592 -0.711314 -0.803944 -0.251304 0.613233 -0.712483 0.842162 -0.378695 -0.144997 -0.486783 0.471235 0.995692 -0.689931 
-0.718748 0.327501 -0.491135 0.170197 -1.141461 -0.273381 -0.555984 1.108721 0.593436 0.044131 0.409163 0.633197 -0.254270 -0.605324 0.189320 1.481185 
0.593096 -0.706973 0.405431 0.340885 -0.534279 1.034798 0.033016 -0.484936 -0.036030 0.414497 -0.281340 1.002529 0.944787 0.335212 -0.446683 -0.657016 
0.443590 1.020203 -0.917822 0.116141 -0.008128 -0.839454 0.557781 0.388449 -0.708711 -0.720936 0.593421 -0.448007 -0.059134 1.151619 0.644900 0.819438 
-0.634046 0.063360 -0.664876 0.272703 -0.557979 -0.566056 -0.861708 0.988867 0.769241 1.062309 0.227783 0.796664 0.989846 -0.871256 0.217721 0.887649 
0.269898 0.753173 -0.556932 0.527807 -1.306718 0.450547 0.958406 -0.696860 0.161170 -0.559439 1.136209 0.298577 -0.752261 -1.366196 -0.154975 -0.936354 
0.452607 -0.945451 0.160518 -1.022642 -0.650661 -0.206080 -0.459793 0.287992 0.110542 -0.644175 0.882237 -0.246642 -1.079129 -0.421858 1.379348 0.615393 
-0.658672 0.668613 0.453266 0.466806 -1.190794 0.004870 -0.802501 -0.516312 0.908289 0.516918 0.942670 0.856083 -0.658098 -0.219460 -0.298634 1.045874 
0.743032 -0.411478 -0.631350 -0.252627 0.505249 0.039648 0.116556 0.949661 0.327874 0.678804 0.926561 0.476104 0.575730 -0.082472 -0.627842 1.086068 
-0.297820 -0.358764 0.495664 0.014949 0.191012 -0.243212 -0.378267 0.383317 0.851784 0.021063 0.101741 -0.454763 0.483671 -0.542093 -0.634058 0.632089 
-0.355204 -0.066482 -0.679502 0.413093 -0.294643 0.533027 0.291562 0.027042 -1.110778 -0.322400 0.456637 -0.624787 -1.358946 -0.881957 0.943857 0.226896 
-0.479601 0.357214 -0.608905 0.295202 0.030356 -0.640495 -0.243118 0.943970 0.747065 0.394749 0.947593 0.137871 -0.804279 0.412238 0.741574 -0.406663 
-0.278786 -0.598907 0.446864 -0.414849 0.651360 -0.876764 0.003131 0.809836 1.250160 -0.427266 0.885569 1.032584 -0.020099 0.434933 0.298664 1.582758 
0.087998 0.345818 0.848861 -0.640717 -0.149400 -0.191619 -0.147301 -0.660943 0.245313 -0.867144 1.552209 0.224987 -0.022334 0.689216 0.425574 0.167974 
