-0.108245 -2.315499 -5.138377 2.754876 -1.721878 0.466628 -1.024774 -0.975060 -0.497748 1.415093 -0.295718 -0.161389 -2.032311 -0.831275 3.386161 -1.890263 4.326771 0.184064 -1.834949 -1.138135 -3.998156 0.073358 -0.459798 -2.693469 0.410384 -0.313984 -1.150456 -0.473810 -0.300205 -0.203413 3.027738 -1.200289 0.219146 -3.072492 -0.699368 2.108627 0.724561 0.846936 -1.993792 0.507200 2.807716 0.528267 -0.259234 -0.869820 -1.617350 -1.767412 -1.199837 -0.606113 -1.154638 -1.538095 -1.564750 -1.444869 
-0.691390 -1.509764 0.486585 -0.404908 -0.893521 1.044098 -0.657309 0.594473 -0.980499 0.171439 -0.761498 -0.615428 -0.733169 0.552085 -1.015950 -2.453142 -0.016773 -0.722579 -0.068095 -0.869302 1.736912 0.613565 -0.485286 -0.568562 -0.029200 -0.500110 -1.071843 -2.330049 0.070590 0.114569 -0.479822 -1.318929 -1.248358 -0.050504 -0.003609 -0.230150 -2.376477 0.311261 -0.425063 2.341711 -0.419587 -1.383380 0.267994 0.368850 0.152184 0.382360 0.100741 0.033519 0.876440 -0.286302 -0.559272 -0.426161 
-1.953598 1.602460 -1.582666 0.011256 -1.966948 1.910154 0.315848 5.015809 -0.947747 0.411823 -4.037515 -0.269147 1.059920 -5.426803 -2.484798 2.967319 -3.134930 -0.206955 1.373216 -0.921430 1.263216 -0.498097 -2.755410 -1.240292 0.345599 -4.658657 -1.978150 2.387627 -3.119234 -4.129853 1.226425 -3.404437 0.289024 3.006785 2.463788 -1.945999 2.924149 0.228460 -4.132418 1.062760 2.371207 0.260906 0.316345 3.681936 -1.767944 -3.133335 3.681893 2.823681 -2.290237 -1.427185 -2.760024 2.231339 
-0.672474 -1.025645 -1.197651 -0.811162 -1.822693 1.118607 -0.266193 -1.015941 -0.952555 -1.135143 -0.906827 -0.997287 -0.144671 0.457240 -0.793065 -1.314569 -1.509958 -0.331241 -1.409695 -0.334213 -0.317807 -0.703678 -1.211124 -1.227700 0.061814 -0.730857 -1.516223 -1.076034 0.549256 -1.429388 -0.438602 -1.929997 -0.756370 -1.652938 -1.938425 -0.496092 -0.427170 0.229530 -1.295393 -0.775914 -0.719733 0.223442 0.369059 -0.539212 -1.597643 -0.550276 0.581452 -0.035721 0.023944 -0.717850 -1.990866 -0.477937 
0.260309 -3.077625 1.164871 -2.257750 2.059483 0.939087 0.314799 2.006147 0.364888 1.715443 -0.156589 -2.671916 1.166513 1.679117 -0.259452 -0.532123 1.323765 0.198230 -0.672971 -2.696778 4.249890 -0.312866 -2.222460 1.067602 0.158138 1.719087 -1.767814 -0.524685 1.252291 1.916109 1.279271 0.969651 -0.127708 0.758585 -0.699414 -1.416038 1.664710 0.728757 -0.272052 -2.321444 -0.192635 -0.100453 0.056330 0.591240 1.485849 0.632459 -5.106590 0.692890 1.875739 -1.592573 -0.874712 -0.945266 
-1.387590 0.046582 2.645043 -2.704394 1.969631 -2.025010 0.652299 0.713278 1.132491 -1.359166 -0.486848 -3.732787 -0.641291 -3.194091 4.369620 1.507832 -2.282256 -0.684035 1.206734 3.827959 -1.959003 0.024322 0.981975 -0.358716 -0.556408 -2.208500 -2.086294 0.936745 -4.480876 -2.166614 2.999923 2.086624 0.253886 -1.185337 -2.278846 -0.554150 -3.029423 2.941187 5.309894 -1.160261 4.670118 -1.029090 0.812438 2.334730 -2.446224 2.252155 -2.125916 -1.255275 -1.998167 -1.357167 -3.190091 -2.487559 
-0.686439 -0.646412 -0.510446 -0.303129 0.104555 -0.455463 -0.945391 -1.660433 0.077001 0.022305 -0.219842 0.345706 -0.681667 0.375429 -1.093856 0.072657 -1.188107 -0.181258 -0.541198 -0.041067 -0.566783 0.349110 -0.789131 -1.868798 0.118874 0.017055 0.088772 0.117660 -0.947146 -0.334370 -1.382569 -1.067093 0.171879 -0.977583 -1.604356 -1.530897 -1.049013 -1.250485 -0.997109 -0.716841 0.431978 -1.301892 0.346508 -0.372159 -0.480774 0.386852 -0.828777 -1.896747 -0.033433 0.213753 -1.949829 -1.521922 
1.252330 -2.466576 -1.259604 -1.275888 -3.339521 -3.087913 0.035869 -1.512640 0.595078 -3.014362 3.423435 -2.623674 -1.616917 -3.289629 -1.516115 -1.857366 -1.946300 0.354788 1.256360 1.370545 -1.152976 0.117696 2.014622 1.539506 -0.728122 2.203359 -4.139984 -2.492258 -2.037178 -3.967491 -2.816622 3.745290 0.210739 1.736707 2.092048 1.756689 0.973753 -0.523299 -2.205365 -0.761004 -0.496445 0.263081 0.246872 1.897723 -3.361425 1.045704 -1.295202 3.482370 2.566572 -0.508618 0.473576 4.376746 
-2.910996 0.618637 0.324929 -2.930437 0.209852 1.046162 -0.068278 2.031843 2.847125 -2.971380 -0.067463 0.686952 0.876216 -3.294206 0.303189 -4.185483 -3.161297 1.226471 0.968437 0.205118 -1.802834 0.325902 -0.559721 -2.696046 0.272197 -1.791872 0.962981 1.267451 3.140946 -0.197517 2.528899 2.938082 -0.135673 3.564263 2.447231 0.196798 -4.661850 -0.078098 0.793755 0.023175 -3.409196 0.332756 -0.627816 -0.721257 2.884455 -0.115295 -1.567016 -5.113687 -2.372887 -3.265886 -3.093748 4.607203 
0.545900 -0.006340 -0.444927 -1.502038 2.331953 -0.940148 -0.391764 -1.346480 -0.274813 -0.106029 -0.729922 -1.601567 2.586551 0.223331 -0.596990 -0.884766 0.271853 -0.095011 -0.752565 -0.648943 -1.506466 0.787729 -0.556489 0.394967 -0.097631 -0.447702 -0.856988 -0.999125 -0.718997 -0.062311 2.065366 -0.388061 -0.216052 2.584436 0.547095 0.510007 -1.014425 -0.223413 -0.836384 3.461399 -0.762633 -0.921930 -0.846019 -1.050907 -1.415030 -0.243373 0.309903 0.242932 -0.689160 0.129536 -1.119502 0.314392 
-1.338119 -1.105187 -0.881659 -0.031385 0.517774 0.804747 -0.348184 -0.730554 -0.204415 -1.676972 -0.664054 -0.619759 -0.140724 -2.331685 -0.123620 -0.395773 0.392422 -0.284727 -0.547778 -1.615735 -1.212901 -0.383109 -1.691823 -1.117491 -0.648982 -0.917899 -0.623397 -1.599061 0.556772 -0.611642 -1.146172 -1.074979 -1.098003 -0.158608 -1.327225 -1.612643 -0.196732 0.115089 -0.843576 -0.524736 -1.017745 -0.646910 -0.411802 -0.289268 -1.610429 -0.122858 0.345417 -1.209041 -0.130099 -0.403056 -0.576909 -1.208565 
-0.703372 -0.242848 0.507692 -1.228708 -0.572800 -0.444467 -0.738709 0.100616 -0.875275 -0.090391 -0.099462 -0.337679 -1.959673 -0.294431 -1.159385 0.254141 -1.407440 0.210681 -2.002387 -0.070757 -1.291108 0.125356 -0.428435 0.428020 -0.648096 -0.552663 -1.061250 -1.257156 -0.345638 -0.617899 -0.241143 -1.484786 -1.424690 0.163694 -0.679828 -0.301820 -0.784115 -0.809244 -0.098459 -0.936434 -0.624562 -1.093136 -0.518380 -0.621221 -0.911239 -1.113484 0.652346 0.031870 -3.189074 -0.733197 0.275133 -0.311964 
2.054867 3.673480 -3.011810 -1.234883 0.930561 -2.287627 0.768203 -1.316235 -0.332888 -1.631415 -0.293180 -1.316791 -0.892177 -0.878413 -1.425784 1.867784 -1.073966 -0.743278 2.139640 -2.290607 -2.299859 0.426314 -1.776357 2.199925 -0.839305 -1.322575 2.235959 -2.214539 -1.967180 2.166404 5.309180 2.333329 0.797217 -0.847773 -3.461787 -0.180543 -1.764793 0.746563 0.721868 -1.872075 -1.847959 0.273855 -0.602781 -2.340687 1.641900 2.174260 -2.410332 1.575424 -0.533119 0.894798 4.274601 -3.129565 
0.325982 -0.734350 2.004516 -2.508320 1.343878 -0.751020 0.465378 1.803230 -0.276576 0.292550 -0.000466 2.070668 0.097210 0.251607 -2.222364 1.946640 -0.339826 -0.692117 1.137184 -1.935350 -0.412637 -0.750693 -0.825254 -1.137705 0.501987 1.179479 2.078011 1.235804 -5.458505 0.888795 -1.612092 -0.367577 -0.646874 -2.109044 -0.935527 0.160586 0.090757 -1.601246 1.427833 -0.337206 -1.915411 -1.121828 -0.915895 -2.485118 0.553885 0.173368 1.735060 0.759119 -0.299695 0.014259 -2.464735 -0.786766 
-0.235417 -0.793539 -1.348931 -1.109304 -0.666811 -1.586573 0.323819 -1.307460 2.011693 3.994816 -2.037211 -1.157350 -1.077719 -0.007430 1.120449 -0.862761 -0.983613 -0.131734 1.825197 -0.968820 0.328026 0.842553 -1.711848 3.820533 -0.133989 -1.249373 -0.188855 -0.129093 -0.499793 -1.153940 -1.591885 -3.083944 0.113164 1.483494 2.103569 0.895073 -1.017585 3.033121 -1.601646 -1.076594 0.055719 -0.537387 0.828192 0.385559 4.589053 -3.627915 2.017252 0.466190 -2.107896 2.338088 -2.571775 -1.704132 
-2.259494 2.589923 -5.033932 0.904620 -1.512766 0.190029 -0.777630 -2.884244 3.026003 -3.134442 -3.082655 -2.301120 1.882560 1.094498 -3.261134 1.865802 0.312708 0.168264 -1.667446 -1.541521 -2.010540 -0.288850 2.085473 -4.422996 -0.828258 -3.006630 -1.180058 -2.144884 4.184268 -1.507409 -0.051117 3.079231 0.241102 -2.411447 -1.757388 0.553482 -3.088516 -3.698709 -1.050676 -1.331531 1.336183 0.108036 -1.122851 3.347270 2.490653 1.289204 3.646276 3.215264 -1.044314 5.526874 0.332913 -1.010457 
-0.533442 0.016482 0.285204 -0.879023 0.120532 -1.050340 -1.126406 0.076771 0.267328 -1.267706 0.949368 -1.003392 -0.024630 -0.560483 -1.367335 -0.465364 -0.441638 -0.732341 -1.769359 -1.516255 -1.478551 -0.761938 -0.256862 -1.348015 0.394233 -0.360145 -0.417618 -1.279598 0.013663 -0.013315 -0.435692 -0.852148 0.283522 -1.232723 0.415929 -0.027709 -0.004684 -1.266460 -1.272389 0.012670 -0.964369 0.186530 -0.682958 -1.176622 -0.593034 0.055248 -0.586995 -1.780523 -0.206387 -1.244568 -1.704446 -0.167484 
-0.692940 0.269118 -0.970215 -0.712660 0.048704 -0.950069 -0.997855 -1.198503 0.215409 -0.995854 1.187333 0.952286 -0.356646 -0.331307 -0.048982 -0.624689 -0.962245 -0.301439 -0.599610 -0.065319 -1.067521 -0.714656 -1.117343 -0.029637 -0.515727 -0.493838 -0.532989 -0.549675 -1.596291 -0.964944 0.377577 -1.576541 -0.773637 -0.553394 -1.005195 -1.809495 -0.567298 -3.154100 -2.148569 -1.201259 0.176011 -0.358556 -0.031648 0.349564 -0.810302 0.938743 -0.009871 -0.862086 -0.050402 -0.676785 -0.723005 -0.999253 
-1.015687 -1.567915 -2.997627 0.634285 -1.558709 -0.687397 0.283950 -0.905789 -1.028264 -0.898925 -2.253305 -2.183497 0.768768 -0.440816 -0.618145 1.577786 -0.606459 -0.052733 2.840154 0.584289 1.359051 0.229563 -0.812617 -1.197145 0.095827 0.205245 3.349281 -2.192781 2.114138 -1.097169 1.915520 -0.703121 0.626861 -2.001911 -0.831101 -0.392763 1.450987 0.594447 -1.862842 -1.614637 -2.218771 -0.117258 -0.783318 -3.294539 -3.281190 -0.280212 -2.452730 -0.676138 -1.072445 -1.703401 -0.233762 -1.280114 
-0.460630 3.826626 -2.117611 0.735961 1.361791 0.633897 -1.148552 -2.403502 -1.837511 2.571755 -1.498106 0.671032 -0.699375 -1.826333 -0.968275 -1.657051 2.842791 0.189041 -0.305394 -0.664172 -1.699553 0.768738 2.690564 -0.728280 -0.837629 -1.157172 2.062468 -0.354571 -1.878321 -1.049349 -1.979436 -1.234131 -0.417434 2.052742 -2.914188 -1.578584 -1.742446 0.780108 -1.559659 -1.646639 -2.176535 0.101279 -0.227992 -2.302796 -1.569497 -1.356190 0.274850 -1.659716 -0.449665 -1.599618 -2.127156 2.036006 
-0.208234 -0.116818 0.239247 2.973152 -0.462819 -0.722709 0.740623 -0.886192 -0.028021 0.353206 -0.621394 -1.488240 -0.593569 -0.641285 -0.621294 -0.930766 -1.213096 -0.121405 0.162073 0.285298 -1.320141 0.810733 -1.474647 -0.940900 0.724299 -1.813241 2.816983 0.803242 -0.116125 -0.805973 -2.011139 -2.115036 0.087187 -1.766346 1.515843 -1.607540 0.109435 -0.014551 1.236896 -2.245167 -0.770566 0.673139 -0.621008 -0.963164 -1.443877 0.378171 0.320997 -1.078513 -2.210288 -1.107575 -0.756208 3.148959 
2.289688 -0.397929 -2.670315 -0.003539 1.007946 3.773414 0.728371 -1.571417 -0.645388 -0.442076 1.091738 -2.420730 2.001142 -0.355320 -0.988838 -0.496770 -0.457957 1.099160 3.503685 -0.684555 -0.899623 -0.774145 -2.060514 -1.973386 -0.434282 0.118123 -2.357594 1.887132 -0.137998 1.350305 -1.724213 -1.496676 0.260258 1.056431 0.990352 5.378047 -1.248145 -1.661475 0.035410 -1.210288 0.356754 0.476542 -0.597332 2.408626 3.166448 -1.355987 -1.632724 -1.666695 -1.809098 0.309984 -0.152796 -1.448566 
-2.521152 -2.467123 0.931173 -1.832579 1.585120 -0.250787 -0.701409 0.395489 0.541068 0.261492 0.814195 -1.172675 -2.237207 -0.968072 -2.494312 -2.780550 1.749912 0.654087 0.415611 1.131524 -0.529966 -0.088764 -0.663795 0.949805 0.106135 0.661001 0.116664 0.625591 1.282197 0.781580 -2.810441 0.967905 -0.268835 0.679490 0.441958 -1.051422 1.518787 1.815476 1.841170 -2.274769 0.623662 -1.035441 -1.224817 -1.311744 -1.978406 -4.526525 1.520809 2.392474 1.059616 -2.952357 -1.380325 -1.606655 
1.382147 -1.015130 -0.496667 1.153932 -1.133102 -0.471439 -1.092374 0.017476 -0.578210 0.478092 0.420660 -0.038707 0.207907 0.679484 1.270892 -0.341878 -0.763562 -0.981350 -0.613825 0.873317 0.172020 0.002639 -2.070659 0.469842 0.444724 -0.693383 -1.168454 -1.788375 1.244138 -0.928254 -1.504169 -0.732273 0.972829 -0.506146 -0.983777 -1.809723 -0.506726 -0.821812 -0.366894 -0.089830 -1.092481 -0.635726 0.266621 -0.695725 -0.959168 -0.023595 -0.219568 0.541342 -0.551573 -0.580319 -0.644203 -1.709477 
-0.685794 -0.663785 0.003636 -0.238249 -0.123833 0.149849 -0.064296 -1.363293 -6.952902 -0.883546 0.945608 0.026450 0.013600 -0.719157 0.079318 -0.852825 0.221436 0.192212 -1.495086 1.078942 -0.289037 -0.712760 0.395584 -0.917567 -0.925383 -0.380558 -1.488396 -1.055547 -0.628707 -0.215396 -1.441728 1.332213 -0.027566 -0.706216 1.425057 1.215846 -2.023541 -1.174441 1.147310 -0.952144 -0.416199 -0.031542 0.401622 0.346434 0.168494 0.523103 -0.140545 0.023466 0.753467 -0.285185 0.239833 -2.315674 
-3.166656 3.106904 -4.382077 -1.404594 -0.861513 -0.528433 -0.721255 1.042883 0.570107 0.131330 -0.673985 1.265236 2.090742 3.319070 2.881309 -2.232694 3.562002 0.127722 2.982951 2.342980 1.399855 -1.151075 -4.151581 2.240118 -1.280855 1.929660 -3.663883 1.748659 -3.516290 -3.873250 -2.270874 -2.711144 0.317266 -0.369854 -3.544614 -0.013265 -5.621648 1.098039 3.036321 2.434510 -2.323645 -0.048767 -1.080424 0.341707 0.389008 -2.952878 -0.541027 0.869828 1.007015 -1.773601 4.580505 -1.438856 
-0.020085 0.312127 -0.926257 -1.197924 0.598703 0.889073 0.085256 0.456471 -1.222508 -0.809328 0.201375 -0.390837 1.120310 -0.992808 -0.165119 -0.432554 0.420466 0.244074 -0.305548 -0.046965 0.668755 0.268432 1.281867 0.541775 0.813357 -1.188287 0.254944 -1.661824 0.943193 -0.558608 -1.239830 -1.035849 0.620301 -1.081777 -0.079338 0.169945 -0.607850 -0.664749 1.345841 -1.827468 -0.974822 -0.741474 -0.110480 1.826535 0.606368 -1.318889 -0.725183 -1.045197 1.054256 -0.708633 -0.604159 -1.005927 
1.676652 2.234223 0.659796 2.023897 1.695700 1.202989 -0.886353 -1.047223 -0.813418 -0.289703 -1.861584 3.268906 1.045090 -1.088398 0.544202 1.706320 0.982583 -1.009180 0.127509 0.108966 1.264368 0.831970 0.139467 -0.070602 0.477273 1.225375 -1.272229 -3.281828 0.834430 -0.017704 0.135632 0.448816 -1.379898 -0.977051 2.186479 0.555039 -2.356545 0.643532 -1.270987 -2.305309 0.404024 -0.271768 -0.882167 -1.057978 0.633353 -0.334527 -2.920206 -0.718933 -2.876639 -1.109731 -2.538845 0.816544 
-0.727431 -3.045790 -0.489200 -0.053852 0.324919 -0.680671 -0.149156 -3.565045 -1.060722 -0.714538 0.873457 0.401734 -2.049239 0.733284 -0.531333 0.738716 0.714746 -0.353375 0.059926 -0.511717 0.538656 -0.227624 -0.471611 0.809290 0.323866 0.189087 -1.698687 0.561111 -0.262517 -0.675905 -1.246756 -1.038754 -0.159493 -0.811104 -1.285527 -0.764192 -1.222289 -1.489006 -1.022599 2.019309 0.658065 -0.455042 -0.595439 -0.985355 -0.310239 -0.059257 -1.706733 0.205182 0.114881 -0.266507 -0.848460 -0.037113 
1.094552 1.728877 1.665833 1.862568 -2.488548 -3.281500 -0.454806 1.480575 -0.558166 0.072042 -4.897382 -2.332748 1.503383 2.219370 0.328117 -0.060203 1.110307 -0.363463 1.123054 -2.263564 0.723157 0.292406 2.051287 2.351600 -0.536922 2.291261 -1.429069 1.934178 -0.755823 2.195935 0.194700 1.266644 -0.660093 2.891436 -2.575234 2.455111 3.485917 -2.524629 1.318506 1.975111 1.370143 0.091775 -0.882537 -3.420316 -1.678511 -2.841341 -1.911549 -2.876498 -3.181710 -4.208446 4.580656 0.863110 
-0.120990 1.589239 -0.624604 -2.389654 -3.044504 3.537392 0.619939 3.088701 -0.981601 -1.032655 2.508204 -1.106746 -2.831600 3.211913 0.465356 1.156585 -1.079201 0.397183 -1.775418 -1.507226 -2.447311 0.148535 1.140611 -2.464138 -0.319199 -0.883925 -2.028043 2.468340 -1.328567 -1.537047 -1.483554 -0.536043 -0.967656 -2.082751 1.042497 -2.035433 1.835100 -0.383643 2.903773 -2.594848 -0.642457 0.665098 -0.729524 -2.070416 -1.313242 -0.556802 -1.958595 0.801576 -1.591457 2.997590 -1.876631 -0.161274 
-2.564054 -2.552888 -1.307417 2.370066 -5.167727 1.008575 -1.383915 -3.486605 -1.423031 1.465464 2.170767 2.827907 -2.827187 1.982123 0.420736 -2.883961 1.303614 -1.004507 0.719761 2.344673 -0.448405 0.205565 2.042546 -2.457442 -0.680461 -4.010088 2.161432 -0.037193 0.659777 1.525979 2.848454 -0.222360 -0.243747 1.589088 0.726762 -1.624214 2.623955 -0.594710 1.214115 -2.464321 0.280937 -0.013101 0.084913 0.329130 0.904278 -0.174896 -2.723549 1.838123 0.337170 -1.304283 1.900005 -3.461010 
-0.331626 -1.147693 0.512932 -1.098137 1.846488 -0.443242 0.408438 0.283725 0.242569 -0.719085 0.080133 1.289046 -0.893523 -1.168877 0.585423 -0.808882 -0.719688 0.266681 -0.659765 -0.625085 1.118862 -0.184166 0.329595 -0.805741 0.443709 -0.952735 -0.118110 -0.067540 -0.917869 -0.576552 -0.173978 -0.813220 -0.253809 1.521521 0.088151 0.739743 -0.592575 1.326826 -0.738453 -0.603353 0.042954 -0.450420 0.666061 -1.155479 0.272745 -0.306823 -0.141165 -0.234159 0.641994 -0.450860 -0.935987 -0.061531 
0.720980 -1.403363 -0.583078 1.291956 -3.795697 -3.993792 -0.043873 -0.849512 -0.454174 0.884165 -1.562575 0.213298 0.959232 -0.800614 1.122129 3.052104 -0.548429 0.387362 0.958295 -1.226191 1.070297 0.136582 -0.529522 -0.227614 -1.293190 0.545929 1.992005 0.049028 -2.234772 0.879991 2.448187 -0.026102 -1.113671 -4.470714 1.665783 0.219080 1.412227 -0.870755 1.206402 0.384337 -3.792009 -0.837863 -0.149737 1.823587 -2.145793 0.798854 0.935079 0.110244 -2.634466 0.881917 -0.501665 -0.093436 
-1.121804 -0.086748 0.195031 0.573096 -0.855799 -0.525521 -0.844843 -1.444438 0.008961 -2.261747 0.235619 0.205232 -1.812035 0.402328 -0.897119 -0.884801 -0.172623 -0.184869 -1.582890 -0.235176 -1.049398 -1.233085 -1.216733 -0.728597 -1.135591 0.220092 -1.090207 -1.329564 -1.245977 -0.903490 -0.955458 -1.593261 -0.685064 -0.883995 -1.547956 -1.446301 -1.232320 -1.765025 -1.053845 -0.393992 -0.845695 -1.025747 -0.605802 -0.686542 -1.551104 -0.404460 -0.218606 0.122667 -0.577469 0.447736 -1.634003 -2.092055 
2.375999 0.311964 -0.857664 -0.540387 -2.374424 -0.599766 -0.109401 0.070802 -1.126797 -1.349654 -1.023715 -1.170998 0.426355 0.101837 0.192470 -0.247404 -0.555623 0.603643 -0.607025 2.874990 -1.273875 0.365411 -3.905968 -1.167084 0.336833 -1.211097 -2.441741 -1.951940 -0.256221 -0.745453 -1.315788 -3.237731 0.472055 -2.199562 -1.404628 -1.151195 2.879827 2.669650 -0.678219 -1.446984 0.007985 0.016827 0.654381 2.579397 -0.289276 2.002051 -1.303566 -1.189418 2.240173 -1.140537 -1.601603 -0.403480 
0.987323 -0.486999 -0.120882 0.472314 1.408968 1.013197 -0.362526 -0.710813 -0.011102 -0.461078 -0.168435 -0.111942 3.863176 0.084560 -0.259832 -0.417910 0.530188 -0.487590 -1.170606 -1.094330 0.367141 0.387087 -0.417067 -1.049935 0.935624 0.237863 0.138813 0.063464 0.539398 0.356976 -1.056595 -0.747247 -0.238343 -0.529394 0.011133 0.242586 -0.297430 0.468601 -0.911544 -0.662948 0.151272 0.374501 -0.930339 -0.459821 -0.822804 0.397355 0.287395 -0.820141 2.866649 -0.091169 -1.027535 0.744515 
-0.237628 0.065629 0.699370 -0.086771 -0.105535 0.567307 0.416665 -0.820039 0.748905 -0.096372 0.148039 0.914099 -0.678443 0.893330 -0.169333 -0.432144 0.314126 -0.428487 0.682135 0.148703 -0.326216 0.041387 -0.429118 0.515649 -1.080827 -0.195001 -0.584382 -0.066371 -0.329265 -0.984271 0.278230 0.296892 0.711208 0.783666 0.694848 -0.457457 0.335918 0.637280 0.868312 -0.223740 -0.154912 -0.018897 0.468935 -0.994586 0.559608 -0.290196 0.213753 0.026140 -0.135531 -0.466387 0.880793 0.343345 
0.794243 1.882166 0.621356 -3.910636 -3.381886 1.772026 0.645469 -3.345913 0.127062 3.449705 -4.800644 -3.298067 1.514346 -3.455848 -0.930316 -1.791554 3.838268 -0.987270 -0.964964 0.654466 -4.454531 -0.959810 -1.949417 -1.315809 -1.105444 1.448496 3.400573 2.038366 3.859109 1.165690 -1.342576 1.198207 0.381372 -2.644191 1.205046 0.608359 0.971912 -0.954899 -0.294749 0.654235 2.475845 -0.183343 -0.210353 -0.542500 -2.421283 2.562119 -1.164960 1.961939 1.281191 2.602154 1.922267 2.297945 
-0.790459 2.477922 -3.800627 0.628922 1.466955 2.000280 0.440952 1.602280 -2.548497 2.858344 -2.604078 -3.429056 0.096239 -2.906839 6.090803 -0.437847 -2.743309 -1.054651 2.914921 2.976579 3.526589 -0.504750 -2.932155 0.817948 -0.424983 0.786732 -0.827738 0.668494 -0.700955 1.704046 -1.187041 0.861875 0.708918 -6.110536 -1.515015 1.941353 -6.062686 -2.013089 -2.493586 1.695981 -1.594410 -0.470504 0.265023 -4.664655 2.282610 -3.073915 -1.236629 0.512228 1.805238 -3.335555 2.993860 0.733532 
0.654766 -0.948910 -0.088995 -1.860518 -0.011799 -2.217555 -0.809395 2.622402 0.109732 -1.222577 0.186081 0.626573 0.042020 0.607746 -0.687647 1.519650 0.851260 -1.115618 -0.872687 -0.116918 0.457159 -0.965825 0.150355 0.056112 0.198091 1.103626 1.206396 0.686526 0.205860 -3.429441 -1.521793 -1.054051 0.019695 -0.308024 2.173870 0.112461 0.690623 -1.224326 -0.182773 0.025861 -1.502688 -1.243662 -0.766239 0.472893 -1.271496 -0.748830 -1.418478 -1.029004 -0.015856 -1.242562 -1.250613 -0.208294 
0.333426 -0.066323 0.383825 -0.707534 -0.219233 0.588784 0.078640 -0.257494 0.522612 -0.809379 0.062110 0.087216 -0.559519 0.301631 -0.780652 -0.460700 0.542088 0.026168 0.539556 -0.906582 -0.711231 -0.288060 0.031536 0.187721 -0.929756 -0.951343 -0.821035 0.209013 -0.032123 0.496069 0.069578 0.219208 0.389115 0.230814 1.380874 -0.978412 0.624199 0.648256 -0.831444 0.875422 0.321785 -0.221355 -1.093321 0.343961 -1.142997 0.095384 -0.149323 -0.335662 0.451714 0.340208 -0.658167 0.362205 
-0.016850 0.562921 0.132425 -0.633094 0.147879 0.956554 0.717517 -0.824988 0.949081 -0.481680 -0.293089 -0.732807 0.428801 0.614742 1.256681 0.423622 -0.272317 -0.616761 -0.760643 0.301412 0.772297 -0.381048 0.482553 -1.097266 -0.987232 -0.296545 0.066661 -0.616024 0.612913 1.184850 1.689149 -0.120310 -0.925638 -0.948145 0.787102 -0.419944 -0.283172 -0.274140 -0.958530 0.497032 -0.392148 -0.850916 0.939580 0.209131 0.854440 -0.727713 1.207823 0.076412 -1.094316 -0.206622 0.662150 -0.746095 
-1.406420 0.345330 0.203331 -0.140868 -0.672076 -0.005614 -0.477773 -0.257157 0.190076 -0.744665 -0.998103 -0.043972 -0.758782 -1.072064 0.248080 -0.688554 -1.116010 0.626879 -0.775656 -1.692218 -1.170617 -0.647583 -0.568300 -0.829463 0.057065 0.464529 -0.539962 -0.506055 -1.521601 0.028141 -1.589340 -1.410398 -0.576162 -1.809451 -0.250775 -0.363834 -0.719876 -0.720944 -1.396365 0.127141 -0.754782 -0.615597 0.439143 -1.659244 -0.287937 0.304344 0.076286 -1.650363 -0.352091 -0.739608 -1.785930 -0.003488 
-0.420270 -0.952008 -0.456643 0.034959 0.370963 0.668016 0.007691 -0.275818 0.446119 -0.396926 -0.582910 0.411712 -1.374722 -1.041271 -0.139806 -0.391201 -0.514349 -0.834690 -0.419327 0.177607 -0.927953 -0.222676 -0.088038 -0.510874 0.658981 0.805463 -0.258462 0.811487 -0.957735 -0.905423 -0.494933 -0.764080 -0.771782 -1.421220 -0.510845 0.350726 -0.089585 1.835791 -0.494362 -0.664220 0.310473 -0.072596 -0.280192 -0.403310 -0.948501 -0.659727 -1.039756 2.928248 -0.646945 -1.704161 -0.327925 0.043038 
0.934691 -2.227797 0.159730 -0.559068 0.524826 -2.143064 -0.191308 0.056562 1.028030 -1.624426 -0.374567 1.123700 1.362148 -2.653075 -0.701179 1.087175 0.833507 -1.150624 -0.741403 0.166194 -0.047678 -0.902081 0.376310 0.235171 -1.159362 -4.005809 -1.862036 0.482763 -0.516707 -0.378429 0.262473 -0.286709 -0.790510 1.746644 0.133613 0.327351 -0.062746 -1.135730 -0.081262 -3.270962 -0.181389 0.562281 0.391505 -0.217108 -0.423027 -1.153821 1.610006 -1.918123 0.782217 -0.721800 1.283986 1.259786 
-1.253768 -1.774769 -1.845642 -0.398120 -2.658716 -0.123316 -0.070025 -1.357693 0.324829 -0.811985 -0.770075 2.504158 1.062975 1.054438 -0.667495 -0.403257 -1.033300 0.260106 -1.825697 -1.592812 -1.132223 -1.161266 3.434051 -0.895131 0.229249 -1.325638 -1.391154 4.391158 0.823211 0.621020 -1.728794 -0.235129 0.198144 -1.937575 0.318205 -0.517470 -1.248637 1.134931 -0.860889 -1.141208 -0.409681 0.266383 -0.148651 -3.584569 0.025953 0.073664 -1.755526 -1.242146 3.908581 -0.944509 -0.757504 -1.199507 
-1.447640 -0.429546 0.409114 0.459482 0.175203 -1.386622 0.153566 -0.125626 -0.793433 -1.225468 -0.567660 -0.880923 3.710038 0.312045 0.069345 -0.422075 0.433824 1.077299 0.650762 -2.403116 -1.403581 0.331392 0.578949 2.742003 0.205597 -0.316379 1.374062 -1.593978 -0.797913 0.488379 -1.213806 -0.081560 -0.465061 -0.145876 -1.375605 -1.607734 0.613784 2.126994 -0.751156 -1.662067 1.246663 0.496220 -0.234952 -0.754254 -1.159481 -0.188163 0.529603 3.548842 -1.323691 -2.570643 -0.852395 -0.562125 
-1.021452 -0.735211 0.474403 -1.664455 -0.588804 -1.250368 -1.241068 -0.594591 -1.065982 -0.533644 0.262537 -1.085977 -0.037443 0.397143 0.270893 -0.445575 -1.438078 -0.363420 -0.407180 -0.243230 -1.062595 -0.895657 -1.384625 -1.691526 0.534633 -0.272148 -1.849085 -1.387423 -1.084324 -1.051494 -0.101250 -1.617532 0.462018 -0.309726 -0.926907 -1.140298 -0.906979 -0.779680 -1.146163 -1.069749 -0.001921 -1.311529 -0.450533 0.082327 -1.131560 0.289771 -0.146387 -0.644075 -1.096329 -0.103843 -1.412524 -0.824281 
-0.452852 0.955522 0.222336 -0.044566 1.545451 0.104255 0.257311 3.410381 -0.803813 0.160924 0.433041 -0.994493 -1.037578 -1.183004 -0.180591 1.315133 -0.763585 -0.657869 -0.250672 0.565340 -1.591728 0.661497 -0.437923 -0.820197 0.324952 -0.435773 1.738993 -1.097245 -1.489077 -1.114940 1.780153 -0.243013 -0.178729 0.324693 0.073338 -0.050733 0.046558 0.575542 -0.006043 -0.471087 -0.547754 0.520798 0.199728 -0.468798 -0.367683 -0.351178 -0.744695 -0.086840 0.705749 0.124354 -0.717967 0.117669 
1.529128 -1.456569 2.795944 -2.658406 -3.450371 -0.162188 0.182875 -3.867341 -1.058120 -0.880862 2.875458 -2.795959 -1.252420 -1.575534 3.474380 3.463012 -1.259807 -0.900921 2.457973 -0.225153 -1.053463 0.447670 -2.043508 2.588714 -0.652262 -3.481486 4.099425 1.942389 2.376391 -1.657927 1.953990 1.167558 0.682892 -4.015762 -1.493768 -2.884790 -2.262722 -0.085086 1.206874 3.089349 -4.730602 0.648490 -1.062762 -1.603054 2.754416 -1.760180 -1.836689 -2.716949 1.202649 3.845199 -2.918299 3.587223 
0.773048 1.781994 -2.884054 -0.071594 0.486038 -0.939317 0.164477 0.926373 -0.292157 -4.304631 1.739281 -0.686005 0.804627 0.586237 -2.118890 -2.619307 0.956447 0.327471 1.876092 -0.308425 -4.744083 -0.086598 2.035843 -0.045171 -0.022266 1.939934 3.099061 1.807542 -2.389065 1.386308 -1.664508 1.276968 -0.857226 2.754719 0.360622 0.886281 4.487911 0.478824 1.037500 -0.764850 2.952140 -0.896055 0.788715 -3.657163 1.305085 2.074863 2.464758 -3.553491 -3.100485 1.474037 -0.884211 0.581740 
-0.509479 0.088731 -2.061114 -2.601842 2.153965 1.452897 -0.482094 -2.164923 1.499608 -3.628672 -1.902728 4.384325 -2.343890 -2.476695 -1.196255 -2.177169 -2.615851 -1.055397 1.305288 1.413967 -1.126344 -0.948093 2.957433 -1.925870 -0.707006 1.505637 -2.296754 -0.862318 -1.964758 -2.535891 0.060464 1.996121 -1.226540 2.726378 -3.569438 -2.531289 0.182768 1.689147 -1.290282 1.291057 -0.914689 0.765937 -0.283066 1.553089 -3.719320 -0.434497 -4.419449 2.118154 -1.773515 1.333477 3.087146 0.725018 
-1.854709 -0.312072 -1.706954 1.780189 -2.983156 -2.429546 -0.223595 -0.182814 0.241228 -2.048770 -1.735092 0.114264 3.842982 0.408671 -1.166726 -2.980196 -0.710536 0.053079 -1.411745 -0.941908 0.971965 -0.921194 -0.737428 -1.434491 0.663955 -0.947202 2.490168 1.285938 -2.303971 1.489339 -1.122381 -0.004279 0.213097 0.679658 -0.362496 -1.502400 2.071575 0.391390 -2.079024 3.557175 -2.143947 -0.552123 -0.144660 0.302709 -1.660277 -0.174652 -2.867434 -2.058533 -1.633997 2.311519 -2.082789 -1.009545 
-0.188926 -1.913961 -0.194273 -0.538378 3.965282 1.323815 -1.041051 -1.048934 1.632487 1.325010 -1.986258 0.846791 -1.417183 -1.830586 0.268418 2.952615 -0.417703 -0.787828 -0.071116 1.629968 0.012081 0.425561 1.276247 2.531325 0.113768 -1.643707 -0.963596 -0.943633 -0.561231 -2.743987 -1.751012 1.471157 -0.445990 -2.691534 1.256558 0.744377 1.921411 3.963096 -1.848485 -1.331799 -0.672732 -1.000115 0.075182 -1.840207 -2.315557 -3.155580 -1.465787 2.861209 -2.182138 -3.083626 2.849801 0.596373 
-0.894683 -0.337523 -0.886514 1.638411 0.580147 0.949331 -0.929250 0.432074 0.018593 0.463297 0.533323 -1.818958 0.331298 0.313041 -0.888770 -2.352006 -2.643448 -0.026227 -1.019158 -0.941946 0.457901 -0.870132 0.520148 0.430517 -0.753673 -3.827594 0.371429 -1.524433 0.236517 -0.654046 0.446253 1.353694 -0.349670 -0.282080 0.021952 0.181309 0.302618 -0.268511 -1.394661 0.630296 0.076355 -0.667493 -0.902714 1.002871 0.507873 0.547055 0.289719 -0.379144 -1.087289 1.253850 1.719489 -4.681866 
0.350225 -0.701537 -0.525394 0.053741 -0.738527 -1.150193 0.261151 -2.945876 -0.547388 -0.265552 -0.706828 -1.090317 -1.829595 -0.381057 -1.892592 0.212031 -1.771357 -0.323323 -0.880142 -1.470892 -0.913488 -1.033642 -0.411296 -1.291828 -1.311266 0.372176 -0.373203 -0.056544 -0.144461 -0.622636 0.128561 -2.127579 -0.217105 -0.573199 -0.551891 -1.552754 -0.295604 -1.499335 -0.059490 0.360149 -0.538533 0.450511 -0.993286 -1.180161 -0.400404 -1.613142 0.447137 -0.622730 0.062597 -0.972151 -1.320266 -1.657876 
0.031408 3.308935 -1.461545 -1.606914 -3.742797 -1.837959 0.417210 -0.954860 0.780616 4.372223 -0.731805 -2.530443 -0.653671 2.407120 -2.153378 -3.494308 -3.097909 -0.087528 -2.504675 0.957298 2.804483 -0.505313 2.945838 0.260981 -0.919286 0.000931 -2.445778 1.979238 -2.842955 3.843218 0.345450 1.645335 0.490955 1.755329 -0.127130 0.895311 1.530838 1.436152 -3.349395 -1.273391 -1.033263 0.505631 0.254699 0.692433 -0.941616 -3.970131 -1.455340 -4.627670 0.982735 1.446963 2.413438 -2.831463 
2.128125 3.377191 3.400192 -1.751450 -1.317159 -2.543488 0.617507 -1.905132 -0.244097 -0.117816 -1.911666 -1.306253 -1.239419 0.028988 2.441659 -1.584568 -2.716845 0.386614 2.323041 -1.206013 -0.269644 -0.104490 3.267199 -1.238187 -0.409179 -1.049596 -0.286808 -0.446749 -3.253910 0.247222 -4.004669 -1.709916 -0.080015 0.616049 -2.166465 -1.382502 -2.372699 0.798590 -1.593335 -2.328754 4.298096 0.019739 -1.149691 -1.323314 -1.311458 -0.892705 2.335107 -0.128944 -2.946578 -1.500157 -1.856765 -1.961664 
-0.937410 -0.360852 -0.260412 -0.794568 -0.839017 -0.192236 -0.669409 -0.796416 0.150129 -0.498905 0.315406 0.532846 -0.416653 -0.964889 0.196737 -0.645377 0.434434 -0.256868 0.774361 -1.200404 0.359565 0.866746 1.514634 -0.246210 0.094217 -0.869035 -0.455139 2.903638 -0.275226 0.291344 -0.857255 -0.307069 0.891678 -0.776458 -0.029600 -0.723643 0.178026 -0.058411 0.703931 0.497921 0.851478 -0.237047 -0.217768 0.462938 0.263724 -0.314985 0.607592 1.171824 -0.528702 0.653650 -1.254835 -0.967771 
-0.484607 -1.259038 -1.216800 4.398642 -1.625586 -2.015613 -0.081874 0.683224 -1.395561 -1.943018 -1.801868 -2.534609 -0.819648 -1.564389 -2.365345 0.698987 -0.706291 -0.587661 -3.235172 -0.384096 -0.074853 0.463593 1.444401 -1.047644 -0.450318 -1.119895 -1.141595 2.193187 -2.313308 -1.032983 -1.511609 -0.098786 -0.354566 -0.568406 5.517734 -1.962279 -2.062110 0.957730 2.537563 -2.468567 1.960037 -1.052876 -0.234150 -1.158453 4.227627 -2.096339 -3.158501 -1.468389 1.004332 0.025684 -2.141760 0.465041 
-0.988660 -0.766741 -1.278752 -0.345454 0.425741 -0.839117 -0.744256 0.143656 0.442132 -0.927531 0.782798 -1.080498 -1.476818 -0.183619 -1.101131 -0.711827 -0.410158 -0.173652 -1.466255 -1.674786 0.072152 -0.794287 -1.037629 -0.285711 -0.629683 0.584473 -1.117896 -1.137580 0.527744 -0.114121 -1.307283 -0.827617 -0.220406 -1.252804 0.154226 -1.267372 -1.206700 -1.305451 -1.364229 -1.107506 -1.111245 -1.195629 -0.761389 -0.093766 -1.192379 -0.534762 0.240928 -0.143412 0.128500 0.195545 -1.613770 -1.138669 
0.322747 -0.058862 -1.005928 -1.872848 3.028685 3.547544 -0.033329 3.548196 -0.439856 -1.574598 0.636784 -1.616889 -1.519984 1.059389 -0.046245 0.996811 0.011873 0.430579 -0.338065 0.341309 -1.411522 0.571615 -1.474788 -1.322402 0.247766 -0.957087 0.531270 -3.352144 -2.024294 -0.714218 -1.898017 0.857039 -0.768464 -0.554333 -1.366296 -2.111737 0.385437 0.937912 -0.043738 3.050733 -0.036105 0.951136 -0.748395 2.763100 -2.548755 -1.931231 -1.325688 -1.214876 -0.290893 -2.191219 0.732536 -1.326856 
1.356714 -2.639681 -0.752091 1.363276 -2.979816 3.469029 -0.111954 3.580189 -1.075001 4.468691 -3.930335 -1.975175 0.159489 2.282960 0.634484 2.064920 -3.007563 -1.239998 -5.365225 3.001878 -2.831864 -0.228033 3.868845 0.393120 -0.181358 -3.788563 2.895471 -3.559716 0.148161 -3.392128 -1.875017 -5.135616 -0.165979 3.809211 -2.777514 1.407093 -3.351611 -2.247662 2.150026 -1.123504 -2.517271 0.202801 0.363163 -3.529424 2.419509 -2.386420 -3.030684 -2.387677 2.158864 2.214813 1.888381 2.873480 
0.406794 -0.482492 -1.739124 -0.215118 2.006775 -3.725140 -1.275357 -2.010202 -4.068371 -1.477882 -2.007002 -0.263939 -2.454813 -2.161108 -0.699660 -2.256131 -0.266663 0.947689 -2.554196 -1.697838 -0.511914 0.029488 -0.814089 0.935377 0.392039 -3.237587 0.817923 -0.105645 1.529773 -0.688341 -0.117470 0.450718 0.368235 1.064628 -1.890243 1.721772 0.561415 2.653452 0.727552 0.231281 -1.020143 -0.336585 0.005482 1.395339 0.678823 1.191786 0.917505 0.670240 -1.433424 -2.270220 1.673541 2.741943 
