-0.921232 -0.463621 0.384418 0.062061 0.522436 -0.612325 -1.022319 0.379213 0.429778 0.556819 -0.088442 0.276831 1.048750 -0.598621 -0.570200 -0.115756 0.336745 -0.890017 -0.425858 -0.765652 -0.000735 0.139189 0.219703 0.866663 0.665485 0.246935 -0.934177 0.423342 -0.010146 0.034080 0.730394 0.335919 -0.554929 -0.645922 0.628250 0.152000 0.454687 0.411286 1.700619 0.214137 -0.548575 0.910460 0.399788 0.639851 0.349359 -1.096348 0.488107 0.944195 -0.267737 -0.043733 0.408328 0.226587 -0.575526 -0.721337 0.315044 -0.392475 -0.058837 0.826843 0.617322 -1.026596 0.649516 0.152970 -0.049137 -0.219329 1.295490 
0.071092 -0.214205 -0.842581 1.040297 -0.501031 0.014454 -0.347528 -0.370308 0.946972 -0.226374 0.069348 1.168838 -0.499622 0.936483 0.949177 0.678943 -0.755611 -0.843199 0.160311 0.916953 0.267446 0.224453 0.511867 0.993557 0.750076 -0.103917 -0.531465 -0.144065 0.182286 -0.118956 0.516526 -0.218990 0.611387 -0.196646 -0.013662 0.503653 0.076617 -0.527667 0.168107 -0.398438 0.098141 0.559227 -0.974578 0.183866 0.043222 0.659594 0.601615 0.252490 0.968788 0.333250 0.559022 -0.322925 -0.577484 0.202155 -0.214981 -0.473199 -0.506295 -0.891613 -0.328878 -1.104365 0.164025 1.032042 -0.597220 -0.652868 -0.144331 
0.869295 0.370069 -0.513747 0.503556 0.396830 -0.181855 -0.062867 -0.419214 0.041477 0.402285 0.283475 1.036163 0.427157 -0.431321 1.125246 0.048663 -0.678656 0.231965 -0.672393 -0.115827 -0.026544 1.019942 -0.648366 -0.624371 -0.224534 0.425560 -0.849694 0.315602 0.336106 0.386553 -0.680830 -0.454124 -0.289302 -0.704918 -0.789016 1.063789 -0.054926 -0.817692 1.313526 -0.347743 -0.938407 0.746906 -0.874500 -0.565668 -0.838174 -0.269498 -0.497994 -0.378597 0.728692 -0.031622 -0.394615 -0.165293 0.132981 0.769184 0.386102 -0.464511 0.306288 0.621443 -0.469594 0.591819 -0.093166 0.142527 0.226085 0.322291 0.707755 
0.086461 1.028888 0.519861 0.019413 0.902518 0.271280 0.395029 1.247395 1.011527 0.583328 -0.324335 0.170360 0.328947 -0.687347 -0.190615 0.466215 0.791081 -0.008204 0.299831 0.752991 0.453022 0.945334 0.485285 0.548483 -0.925105 0.874145 -0.049153 -0.066668 -0.761985 0.047662 -0.100505 0.330422 0.292511 -0.804531 1.019927 0.690636 0.898740 -0.019723 -0.407445 -0.308707 0.727494 -0.596920 -0.119552 -0.268424 0.029668 0.700601 -0.113835 0.303204 0.774255 -0.183577 -0.361979 1.089618 -0.801718 0.256479 0.409466 -0.878374 -1.036177 0.269643 0.521092 -0.436517 -0.277076 0.517416 0.646245 -0.961041 0.889623 
0.588503 0.720797 -0.837796 -0.695690 0.844541 -0.020546 -0.581644 -0.620579 -0.471532 -0.425139 1.033771 1.102538 -0.090117 -0.220432 0.728894 -0.827674 0.574502 0.652503 -0.244597 -0.324367 -0.494564 -0.717938 -0.732626 1.025364 -0.556401 0.708349 -0.819457 0.050127 0.270374 -0.424469 0.736973 -0.300143 0.904014 -0.578056 -0.346110 -0.901237 -0.633246 0.161669 0.561679 0.518852 0.396379 0.527402 0.277426 0.365623 -0.966648 0.235585 -0.315060 0.000557 0.566893 -0.725699 0.995927 0.451057 0.145104 -0.109505 -0.313790 0.590883 -0.685846 -0.467982 -0.202884 0.661399 1.025584 0.285406 0.844950 -0.527151 -0.419467 
0.176824 -0.481688 0.417670 0.176229 0.494503 -0.446363 -0.272551 -0.434625 0.143819 -0.213374 -0.084611 -0.421824 -0.527741 -0.079520 -0.039471 0.234998 0.332381 0.049319 0.418793 0.482350 0.837693 0.369028 0.801990 -0.245504 -0.001518 0.063017 0.172445 0.098325 0.298108 0.349474 -0.263893 0.467450 -0.367104 -0.145042 0.192338 0.913313 -0.824230 -0.558895 0.742618 0.400779 0.823773 -0.449090 0.892267 -0.407313 0.729673 0.285673 -0.148745 0.891443 -0.794794 -0.580419 0.984770 0.021060 -0.177814 -0.266284 0.747429 1.166822 0.403861 -0.042577 0.294656 -0.848898 -0.820766 0.162975 -0.334572 -0.131439 0.979604 
0.559899 0.423150 0.078564 -0.840480 0.607313 0.132865 -0.888534 0.163483 -0.031802 -0.671778 -0.080886 0.347830 0.421312 0.453798 0.710090 0.025979 0.620486 -0.261421 0.231145 -0.358649 -1.285550 -0.132557 -0.057502 0.590654 -0.425244 -0.951544 -0.900623 -0.471704 0.358464 -0.728072 -0.316718 0.132829 -0.074705 -0.131676 0.025136 -0.643251 -0.293772 0.560169 0.528129 0.118433 0.427625 -0.367018 -0.905133 1.070169 0.076581 -0.927028 0.436912 -0.842039 -0.072768 0.123269 0.705139 0.292601 0.336072 -0.247271 -0.904887 -0.457736 0.955857 -0.157579 -0.363830 0.003548 0.214169 -0.587358 0.397030 0.925492 0.048593 
0.920465 0.751883 -0.170614 -0.380159 0.603875 0.938043 0.794315 -0.338164 0.860737 0.144471 0.100638 -0.405100 0.272234 -0.663255 -0.140647 -1.066242 0.108198 -1.065735 -0.750049 0.051643 -0.203897 -0.205497 0.343121 -0.160666 0.662162 -0.810051 0.877205 -0.916776 -1.079773 0.033020 0.879495 1.072526 -0.530178 -0.546235 0.670275 0.196146 0.635662 0.236679 0.660608 0.478918 -1.055948 -0.612764 -0.612966 0.248274 0.323561 0.537520 -0.164274 -0.236515 -0.363506 0.432993 -0.106835 0.219337 -0.886928 -1.119875 0.078205 -0.316860 0.963061 0.247290 0.375126 0.621848 -1.064913 0.338054 0.465939 -0.121350 -0.722005 
0.184791 -0.256747 0.869408 -0.854111 0.492073 1.013748 -0.075148 -0.282658 0.278578 0.176483 -0.493682 -0.641363 -0.483627 0.742599 1.100146 -0.732038 -0.846915 -0.767868 -0.076035 -1.000004 -0.247776 -0.299197 1.003278 -0.274080 -0.174901 -0.143534 0.388770 0.355552 0.611192 0.543714 1.123396 0.977246 -0.218186 0.394126 0.272268 -0.049421 0.072452 -0.159566 0.104162 -0.440045 -0.807088 -0.195186 -0.090362 -0.366926 -0.762627 -0.382621 0.368251 0.313714 0.453955 0.838681 -0.598683 0.059188 -0.454590 -0.512321 -0.937210 0.286701 -0.467028 0.606418 0.132414 -0.971790 -0.456051 0.393103 0.165501 -0.858253 0.898830 
-0.639857 0.372557 0.795329 -0.642509 0.296169 -0.827389 -0.311482 -0.116047 0.766811 0.466805 0.752964 0.477552 -0.467239 0.538727 0.484243 -1.550539 -0.907908 -0.730993 0.795704 -0.699387 -0.349654 1.028359 -0.098874 -0.598317 -0.876176 0.171856 0.238876 0.083012 -0.379366 0.995406 0.038060 0.181295 -0.488031 -0.207518 -0.010515 0.892201 0.872546 -0.168292 -0.889940 0.237008 -1.130152 0.470849 0.147499 0.698213 -0.302428 -0.438335 0.069354 0.206152 -0.077267 1.116944 1.068714 0.436055 0.636000 -0.709705 -0.510574 1.357209 0.382472 -0.407814 0.946436 0.464231 0.055637 0.141785 0.501569 -0.754115 0.892230 
0.795449 -0.919691 -1.198776 -0.300385 -1.020104 -0.500825 -0.006130 -0.900374 0.676383 0.631046 0.137495 0.348048 0.370975 0.747138 -0.984017 -0.018931 0.323911 -0.383836 -1.180541 -0.455005 0.323685 -0.506415 0.090747 0.227319 -0.676701 -0.300533 0.154602 0.489772 0.530341 -0.439899 0.667256 1.182766 0.838774 -0.064947 0.067894 0.692295 0.938629 0.154754 0.611760 -0.382258 -0.049582 -0.725329 0.948495 0.139391 -0.452511 0.202447 0.621334 0.480093 -0.744113 0.182836 0.456910 0.113399 -0.195387 0.062133 -0.034521 0.289310 -0.566171 -0.104297 0.223615 -0.796550 -1.384003 0.099566 -0.271579 -0.776726 -0.521394 
-0.623060 -0.501856 -0.303492 0.212739 0.104098 1.154388 0.464638 -0.002755 0.335369 0.364540 0.470893 -0.195544 -0.180067 0.646902 0.247522 -0.408716 -0.456853 0.169297 -0.598751 0.755062 -0.140849 0.339359 -0.170432 -0.089008 0.252045 1.503757 0.640665 0.391721 0.643848 0.571793 0.207635 -0.680898 0.748541 -0.408151 0.360075 -1.103389 1.026556 -0.504201 0.596136 0.246690 1.010122 -0.036867 -0.735668 -0.094089 0.480395 0.005105 -0.728184 0.676888 -0.693988 -0.106675 0.235743 -0.808363 0.577962 -0.600000 -0.523802 -0.375188 0.221372 -0.058522 -0.435408 -0.743908 -0.120159 0.769302 0.204379 -0.181260 0.745061 
-0.582029 -0.785328 -0.756246 -0.679694 -0.480935 -0.183339 0.718045 0.143345 0.023069 0.375828 -0.182788 -0.800969 0.415997 1.453218 0.727388 0.031926 0.552752 -0.627454 -0.251622 -1.071768 0.490541 -0.128317 0.983111 -0.399872 0.902400 0.378735 -0.403166 0.004116 0.075181 1.486963 0.080360 -0.261338 0.501527 0.766936 -0.147079 -0.897481 0.534336 0.372706 1.204706 -0.262565 0.556630 0.689143 -0.348356 -0.710907 -0.535159 -0.289986 -1.237919 0.268044 0.227320 0.727434 1.185621 0.828847 0.406411 0.576994 0.758859 0.347053 -0.642029 0.025241 0.163486 0.435286 -1.178675 -0.786516 -0.402746 -0.419620 0.657653 
-0.297792 -0.299431 0.998073 0.240771 0.272418 0.647408 -0.234199 1.128150 0.819953 0.008261 -0.657756 0.116001 -0.028613 0.587281 0.026042 -0.158612 0.869648 -0.384250 -0.951891 -0.834617 -1.233749 0.796954 -0.111413 -0.462856 0.838114 0.368823 -0.835771 -1.170780 -0.499393 -0.051648 0.108223 -0.515091 0.133912 -0.198129 -0.123856 -0.456231 0.304779 -0.203041 -0.232908 0.109863 1.098120 0.338619 -0.264217 0.807823 0.831347 0.442117 -0.576211 -1.052457 0.066156 0.320778 0.381542 0.275935 0.736303 -0.335046 -0.217351 0.281448 -0.215020 0.920950 -0.343973 -0.351224 0.305919 0.771751 -0.230790 -0.910079 0.358028 
-0.944513 0.685635 -0.505892 0.016622 -0.602822 -0.624280 -0.382105 1.224908 -0.005677 0.366385 -0.791887 -0.063505 -0.603208 -0.283843 0.504242 0.036443 -0.958398 0.689343 -0.066292 -0.565231 -0.444935 -0.694292 0.250016 0.491212 0.677549 -0.212030 -0.214114 -0.551967 -0.806387 -0.509995 -0.581841 -0.118391 0.654321 -0.321619 0.815024 -0.543468 -0.501157 -0.350146 1.156297 -0.089536 -0.183213 -0.129932 0.246125 0.994848 -0.145683 -0.888876 -0.518637 0.307005 0.594032 0.716312 -0.685657 -0.795877 0.898124 0.505495 0.056722 0.887712 0.974540 -0.282718 0.624626 -0.556312 0.521080 0.087170 -0.340367 0.095610 0.547563 
0.000728 0.518504 -0.100590 0.447283 0.427826 -0.438032 0.091769 0.483198 0.151572 0.883810 -0.040105 0.873837 -0.057499 1.266343 -0.502837 -0.077525 0.670023 0.943336 -0.293311 -0.454375 -0.223664 0.515676 0.840712 0.198783 -0.588325 1.323802 0.164719 -1.084020 -0.612886 1.128217 -0.315678 -0.593567 0.699841 0.154157 0.387533 0.621662 0.205507 -0.298298 1.282174 -0.462599 -0.773676 -1.083923 0.275213 0.303786 -0.070443 0.272174 -1.081064 -0.195192 0.795968 -0.303540 0.509294 -0.110296 -0.869055 0.477280 -0.312428 0.230103 -0.596831 0.183314 0.209837 0.937998 -0.364850 -0.922587 0.118099 -0.081195 0.253307 
0.295912 -0.268371 0.613724 -0.607297 -0.032494 -0.209863 0.917035 -0.307521 1.163990 0.044057 -0.699360 0.913520 0.939709 0.112829 -0.667059 0.464080 -0.901786 1.003798 0.300560 -0.426492 -0.930885 -0.897836 0.707727 0.073569 0.264462 0.642777 0.018435 -1.221730 0.746246 1.059811 -0.100671 -0.281437 -0.185502 0.612880 -0.372709 -0.669356 0.468818 0.211168 -0.235261 -0.081568 -1.032958 -0.871641 -0.693740 -0.231802 0.574789 0.606263 0.260401 0.380052 -0.208465 -0.729028 -0.452430 -0.916483 -0.283961 0.535585 -0.322922 1.006738 0.242056 0.293802 -0.471130 0.382956 0.247973 0.615911 0.503249 -0.170406 -0.331944 
-1.143500 0.031763 -0.006683 0.983804 0.459202 -0.791655 -0.631155 0.264833 0.761391 -0.593651 -0.002794 -0.710282 0.570714 -0.309571 -0.111591 -0.329815 0.530970 -0.401968 -0.531893 -0.411474 -0.209578 -0.726464 0.853248 0.518159 0.434144 0.364263 -0.193032 0.624259 -0.588582 -0.383337 1.124511 0.435325 -1.021074 0.325031 -0.604222 0.611409 0.278650 -0.373626 -0.149568 -1.286441 -0.419362 -1.040905 0.725244 0.615248 -0.145429 0.524457 0.579965 0.826962 -0.642569 -0.325330 0.087614 -0.337797 -0.022227 -0.838764 0.027165 0.984655 0.826239 0.510593 0.736826 0.322985 0.098768 -0.250679 -0.414679 -0.165247 1.287775 
-0.366337 0.435410 -0.053433 0.529656 -0.150229 0.172979 0.731534 -0.336943 0.223783 -0.722427 -0.198180 -0.701379 -0.696848 -0.198453 -0.434111 -0.200951 -0.918798 0.079038 0.968168 -0.501817 -0.600706 0.531061 -0.879710 0.760815 -0.552160 -0.546496 0.751415 1.032508 -0.874121 -0.637542 0.871817 -1.043829 0.589493 -0.655717 -0.083730 0.160008 0.413178 -0.973230 0.738804 0.052986 -0.078923 -0.990320 -0.836348 1.010858 0.862048 0.380759 0.515708 -0.465968 0.522401 0.039719 -1.123148 -0.787125 -0.578774 -0.323220 -0.269378 1.314373 -0.842709 0.368648 -0.381486 0.761278 0.963683 0.271709 -0.364313 0.384533 0.811397 
-0.173700 -0.460411 -0.717417 0.929409 0.102771 -0.566824 0.183167 -0.389985 -0.661646 -0.090148 -0.625864 0.234302 -0.382157 0.271136 0.756181 -0.963314 -0.276457 -0.702622 -0.365886 0.538784 0.821365 0.688476 1.033831 0.720387 0.654393 1.052779 0.053304 0.761325 0.434059 0.518517 0.039199 -0.620464 -0.256930 0.874322 0.113428 -0.274184 0.088178 -0.611399 0.379028 0.712296 -0.656397 -0.120806 0.240393 -0.426477 -0.074766 0.522557 -0.931445 -0.326053 -0.513222 0.485248 -0.466291 -0.177754 0.281884 0.632313 0.535847 0.356338 0.440967 0.562708 -0.945745 0.289633 0.433773 -0.020613 -0.309682 0.603859 0.034612 
0.630874 -0.793086 -0.616050 -0.273339 0.903082 -1.376272 -0.078820 0.334600 -0.372819 1.040776 1.088763 1.069781 -0.158545 -0.062457 0.494362 -0.802654 0.224548 0.167367 -0.551085 -0.757024 0.213849 -0.270592 0.266052 0.265323 0.999569 1.283115 0.230871 -0.031151 -0.697470 -0.292263 -0.495434 0.457410 -0.348020 0.260396 -0.687510 0.806743 0.826815 -0.382997 -0.698917 1.169133 0.823070 -0.208823 0.103190 0.144156 0.017356 0.256687 0.775400 0.184600 -0.362453 -1.023233 0.360270 -0.490158 -0.622221 -0.853031 0.061855 -0.034993 0.207712 0.311633 -0.030028 -0.181518 -0.139859 -0.815444 0.050210 0.321829 -0.612691 
-0.676149 0.277528 -0.319571 0.734216 -0.026146 0.323179 -0.861775 0.032133 -0.987477 1.061325 0.060917 0.417649 -1.153838 0.314542 -0.991035 0.433988 0.880050 -0.065741 0.727805 1.131184 0.082979 -0.927470 0.144466 -0.489986 0.320013 0.312176 0.989416 0.227674 -0.572868 -0.607351 -0.476461 1.259866 0.255366 1.007665 -0.818827 1.221048 1.104529 -0.109853 -0.114922 0.229983 0.310504 0.714183 -0.688631 -0.159277 0.618496 0.433295 0.436149 0.691922 0.449340 -0.466178 -1.281538 0.412662 1.594718 -0.438418 -0.952094 -0.612868 -0.715693 -0.436366 0.705290 0.365869 0.185630 -0.309224 -0.169730 0.029698 -0.401043 
0.246929 -0.112298 -0.627776 0.295007 1.096488 0.279662 0.333647 -0.438606 -0.959807 -0.979789 -0.606122 -0.693209 -0.508840 0.640094 0.612719 -0.768634 -0.891094 -0.938058 0.725906 0.784759 0.905970 -0.108868 -1.198828 0.097410 0.777549 0.615253 0.127538 0.066796 0.117476 0.590461 -0.440913 -0.426530 0.033941 0.062991 0.786362 1.202674 -0.804351 -0.439507 -0.357217 0.095089 1.290436 -0.524151 0.326792 0.659737 -0.084644 0.476950 -0.215061 0.281730 0.149123 -0.914502 -0.426549 0.568138 0.401334 -0.322518 -0.602445 0.370237 0.226354 0.161603 -0.002990 -0.654554 -0.803412 -0.039016 0.114936 -0.442277 1.173729 
-0.167857 -0.806382 -0.366792 0.135584 1.099149 -0.732181 -0.341150 -0.334893 -0.546712 -0.622471 -0.323172 -0.248314 0.294320 0.599985 -1.204081 -0.710519 -0.789299 0.109318 -0.300427 -0.451474 -0.471603 0.071247 -0.199238 -0.348037 -0.878882 0.712698 -0.856077 -0.112564 1.063230 -0.316098 -0.899164 1.218639 -0.674578 -1.144305 0.961924 0.754356 -0.420473 -0.835367 -0.952409 -0.171272 -0.213784 -0.457496 -0.028333 0.831099 0.735326 0.521836 0.159577 0.481052 0.917296 0.576520 0.199530 -0.235840 1.414376 -0.199645 -0.105622 -0.509239 0.512147 1.131712 0.887322 -0.069230 0.021081 -0.021123 -0.705724 -0.121303 1.103314 
-0.068951 0.870673 0.826287 -0.415763 0.666886 1.213396 0.099139 0.670027 -1.299980 -0.745433 0.978829 0.521305 0.989560 -0.732532 -0.094208 -0.688332 0.989618 -0.696381 -0.735760 0.039251 0.638762 0.106312 -0.950473 0.663570 0.685791 0.140513 -1.038976 0.851813 -0.639995 -0.147774 -0.552002 -0.116486 0.436087 0.123465 0.928420 0.531396 0.833905 -0.709081 0.691239 -0.701265 0.421958 0.807233 0.328399 -0.149457 -0.579773 0.877466 -0.503262 0.091695 -0.158900 -0.563439 0.591902 -0.433021 0.454275 -0.381058 0.346639 -0.300104 0.176560 -0.245006 -0.787904 0.640749 -0.778622 0.145494 1.035788 0.404526 1.302964 
0.142964 -0.016112 -0.179100 -0.501882 0.523509 -0.825926 0.314052 -0.296993 -0.714545 -0.288295 -0.285456 0.524328 1.352074 0.628258 0.546045 -1.015293 0.981197 -0.920090 -0.209677 -0.767325 0.430761 -1.269700 0.047860 0.926108 -0.648613 -0.161919 -0.941260 0.226339 0.089635 -0.380267 -0.203637 -0.225322 0.211634 0.282953 0.511046 0.526812 -0.973404 -0.483687 0.470139 0.284124 0.566495 0.131854 -0.571891 -0.728890 -0.867462 -0.137016 0.993665 -0.035522 -0.508328 -0.163177 -0.219692 0.611114 -0.392487 0.025836 -0.145928 -0.952203 -0.018811 -0.698292 -0.125146 -0.102419 -0.685470 1.053368 0.875735 -0.793263 0.554891 
0.186797 0.959782 -0.404688 0.162812 0.307928 -0.240780 -0.035638 -0.283219 0.330114 -0.782277 -0.562824 -0.588632 -0.381634 -0.038262 -0.623574 -1.360594 0.663113 -0.564373 0.248762 0.405820 0.781850 -0.745729 -0.486150 0.125805 0.545093 0.159435 -0.083637 -0.005766 1.020525 -0.800286 -1.099567 0.369576 0.984374 -0.363668 1.026594 0.049861 0.256401 0.559123 0.382049 -0.573993 0.475604 -0.725409 0.100450 0.912370 0.383399 -0.617633 0.467247 0.927012 -0.316416 -0.480913 0.694080 1.303726 0.563752 -0.110246 0.106531 -1.188889 0.660774 0.559765 0.497717 -0.508344 -0.358840 -0.607757 -0.243976 -0.329301 1.201127 
0.630306 0.526489 -1.128615 -0.669531 -0.676998 0.494684 -0.093211 -0.019922 0.631106 -0.286668 0.292890 0.786724 0.853502 1.068014 0.268590 0.199412 0.397942 0.686763 -0.301424 1.023317 -0.253005 0.068172 -0.319302 0.473252 0.092462 0.201169 0.572794 -0.010192 -0.088313 0.287861 -0.193194 0.344422 -0.051869 -0.646870 0.075935 -1.289452 0.416570 -0.855238 0.173746 0.359907 0.625340 0.451410 0.218773 0.972923 -0.679774 0.662925 -0.587490 -0.702142 -0.772843 0.849289 -0.589495 1.266718 0.043915 -0.085393 0.345595 -0.715310 0.037275 0.486021 1.104664 0.885086 -0.423263 0.563936 0.423176 0.332693 0.426900 
-0.456126 0.039771 -0.016567 0.710904 0.503674 1.493257 0.708803 -0.005034 -0.684534 -0.132795 0.670931 0.860060 0.433593 0.167527 -0.516782 -0.368246 0.321682 0.517422 0.259204 0.047842 0.496824 -0.671702 -1.003390 0.433075 1.180728 -0.892758 -0.200176 0.421792 0.544986 1.199811 -0.606072 0.772465 0.683594 -0.387134 -0.357708 0.589057 -0.854255 -0.581526 -0.710858 0.232342 -0.788685 0.881087 0.557259 0.753194 -0.018810 0.371234 1.349048 -0.094591 -0.469353 -0.172675 -0.608486 0.126238 -0.578704 -0.136575 -0.376959 0.439339 0.890617 0.208496 0.671501 -0.038143 1.406671 0.506423 -0.306738 -0.279028 0.863340 
0.428121 0.206483 0.273097 0.565637 -1.326669 0.437128 -0.894379 0.967020 0.664967 -0.280103 -0.481542 0.014365 0.525876 -0.257372 -0.909328 0.536563 0.214204 0.468273 -1.296019 1.011231 -0.451248 -0.392649 0.137802 0.485769 1.084320 0.576259 0.340047 -0.254584 -0.393350 -1.056670 0.053579 -0.217339 -0.553946 -0.124848 -0.384786 0.537666 0.735826 -0.944568 0.442696 -0.427195 -0.106343 -0.810714 0.441443 -0.901487 -0.173259 0.097559 -0.929545 -0.060279 0.001159 -0.922268 -0.432161 0.234703 0.457030 0.538306 -0.394218 0.545463 -0.715243 -0.654037 -0.729482 -0.572807 0.446962 0.705893 -0.564720 -1.905291 1.464349 
0.646028 -0.075735 0.409270 0.612886 1.129064 0.667258 -0.299657 -0.810405 0.356468 -0.304945 -0.153505 0.556345 0.807912 -0.309907 -0.480276 -0.228438 0.592722 0.770148 -0.280650 0.860946 0.337690 -0.756428 0.547428 -0.179585 0.808768 -0.508675 0.444011 -0.611180 0.901856 0.037209 0.456884 -0.641412 -0.500080 1.042655 -0.790675 0.378131 0.813012 0.555678 0.284430 -0.332572 -1.076341 0.104908 0.262058 -0.558586 -0.913927 -0.675992 0.389049 -0.506453 -0.394533 -0.846394 0.520164 -0.720027 -0.576432 0.503113 0.069303 -0.265088 -0.323257 1.060263 0.366565 0.266138 -0.471015 -0.549088 0.048943 0.436818 0.420413 
0.479153 0.963566 -0.072250 0.678493 -0.360184 -0.398911 -1.099768 -0.262156 0.488567 0.508734 0.267445 0.271216 0.108890 1.200141 0.787455 -0.391778 0.008884 0.047042 -0.245755 0.278228 0.288263 -0.374564 0.439821 -0.038153 -0.461336 0.231148 -1.020352 0.835516 0.657937 0.114122 -0.174659 -0.036384 -0.728735 0.620723 -0.766212 0.588036 -0.666006 -0.601933 1.210409 0.774809 0.489019 -0.472849 -0.350593 0.423853 0.616804 -0.480520 0.022526 -0.408821 -0.700770 -0.150031 0.430191 0.084170 -0.638929 0.495521 0.615777 0.172055 -0.322706 0.125060 -0.741987 -0.331723 0.541587 -0.790304 -0.016845 -0.713935 0.295423 
0.401088 0.191117 -0.046698 0.619604 0.561977 0.642897 0.888848 0.560034 0.546978 -0.559614 0.363593 -0.477073 0.241164 0.002935 0.323505 0.144971 0.780262 0.047800 0.533770 -0.894275 -0.055930 -0.081102 -0.933744 0.015430 0.738386 -0.216755 -0.152618 0.349928 -0.539761 -0.012684 -0.550721 0.214601 -0.221575 -0.821673 0.844260 -0.209868 0.804696 0.610388 0.638189 -0.836820 0.724789 -0.473287 0.429955 -0.693926 0.758605 0.412078 -0.918621 0.901707 0.375039 -0.907771 0.348133 0.250244 -1.304301 -0.267085 -0.017725 -0.446118 0.249620 0.105934 0.518826 0.344046 0.112607 -0.609888 0.434927 -0.708544 -1.087134 
-0.618469 0.226897 0.881460 -0.370559 0.644781 -0.422787 0.746426 -0.565880 0.173948 0.027999 0.704623 -0.139251 0.484131 0.894985 -0.687391 0.999732 0.221736 0.983037 -0.322157 0.636646 -0.331594 0.593513 -0.646881 0.782420 0.258860 -0.644822 -0.927300 0.392763 -0.529076 -1.195217 -0.729853 0.280795 -0.685926 0.271297 -0.124548 -0.195230 -0.286437 -1.062166 0.957277 -0.622258 0.033327 -0.585618 0.883940 -0.778604 0.573470 -0.386235 0.208476 0.053398 -0.474762 0.567439 -0.166499 0.237034 -1.177094 -0.143636 -0.073876 0.976218 0.912552 -0.443467 0.770517 -0.386000 0.364973 -0.835414 -0.351604 -0.593026 -0.379741 
0.240801 0.660710 -0.320171 0.286062 -0.288353 -0.701884 0.269482 1.031534 0.257406 -0.695664 -0.592400 -0.180242 -0.429396 0.819749 -0.438278 -1.045713 -0.265068 -0.479045 -0.466510 0.354037 -0.115918 -0.134139 0.310946 -0.465109 0.670857 -0.377771 0.440575 0.163449 0.648178 1.462895 -0.117022 0.965517 0.533128 -0.305585 0.342677 -0.623534 -0.886511 -0.989401 0.382797 -1.055850 -0.328167 0.053212 -0.373165 0.182989 0.904293 0.281034 -0.849158 1.146874 0.213488 0.325971 0.598312 -0.284180 -0.345991 -0.700203 -0.265677 0.990074 -0.672105 -0.249166 0.520144 -0.676785 0.535917 0.773605 1.033878 0.176196 -0.046458 
0.315439 0.092839 -0.262580 0.809360 -0.183145 0.214009 0.463665 -0.235674 0.252224 -0.131178 0.153458 0.826961 -0.186707 0.217687 -0.036810 -0.251039 -0.111909 0.878307 0.827715 0.090473 -0.742264 0.790865 -0.299829 0.812350 0.131070 -0.261981 0.390151 0.986729 -0.283225 -0.287104 0.831840 0.740251 -0.873982 -0.709503 -0.661774 0.790520 0.620164 0.457267 0.254743 -0.215867 -0.813981 -0.495549 -0.861830 -0.854303 -0.689207 0.293280 0.410432 -0.559023 0.307776 0.950102 0.849474 -0.164503 0.922249 -0.127673 -0.963303 -0.280557 -0.244972 -0.150846 -0.458271 0.428240 0.845028 -0.282770 -0.452186 -1.024747 0.402615 
0.207304 0.213230 0.197014 -0.096807 1.177683 1.037419 -0.868039 -0.383159 0.737369 -0.128844 1.060684 -0.779761 0.290050 -0.606188 0.421973 -0.430981 -0.220668 -0.789759 0.050842 -0.018297 -0.079874 0.058456 -0.338952 0.062802 0.558554 -0.742516 -0.662343 -0.839655 0.152480 0.383642 0.217617 -0.704406 -0.926095 -0.318543 0.682494 0.951009 -0.097428 0.756841 -0.559557 -0.547488 -0.069475 0.575280 -0.721328 0.267705 0.170092 0.577644 0.058997 0.254513 0.807475 0.466161 0.572202 -0.427515 0.379410 -0.487010 -0.937188 0.313080 0.146661 0.358429 0.153984 -0.680816 0.604918 -0.603531 -0.117063 -0.647740 -0.624111 
-0.735274 -0.857471 0.473744 -0.126764 0.361086 1.216585 -0.539471 -0.394561 0.572066 -0.648026 -0.202960 -0.419363 -0.275944 0.252125 -0.150323 0.716114 0.653022 0.711324 0.136783 -0.072034 -0.738025 0.875570 -0.816907 -0.626328 0.278188 -0.886965 -0.899969 -0.907106 -0.997848 -0.452466 -0.344095 0.915786 0.679615 -0.531697 -0.139821 -0.002020 -0.590837 0.232412 0.693506 -1.037354 0.429865 -0.617189 -1.012359 0.862627 -0.518308 0.595525 -0.489175 -0.771506 0.882186 0.411515 -0.363902 -0.200200 0.601082 0.994392 0.509916 0.089527 -0.221376 -0.023847 -0.819655 0.724833 -0.475698 0.596099 0.889477 -0.331748 0.278839 
0.441000 0.641937 -0.825451 0.635787 0.099237 0.131017 0.001158 -0.460305 0.299547 -0.568106 -0.156102 -0.264505 0.379245 0.460711 1.274100 0.603201 -1.006835 0.667195 -0.329325 -0.065241 -0.551401 0.817452 0.400692 0.151910 -0.327330 0.386031 0.778617 0.802544 0.401601 -0.341976 0.644048 -0.259030 0.367516 -0.194156 0.878060 -0.408622 -0.989459 -0.777906 -0.117720 0.582465 -0.907502 0.466216 0.229231 -0.843555 0.249232 0.420321 -0.018426 1.044458 0.608550 0.239902 0.402796 -1.223039 -0.642001 0.035208 0.606924 0.093147 -0.528642 -0.502302 -0.599092 0.679082 0.459902 -0.558886 0.155155 0.261040 -1.169666 
-0.310069 0.350305 0.309961 -0.051407 -0.148051 -0.048971 0.833738 -0.010271 0.561518 0.088113 -0.630732 -0.466340 1.037221 0.843097 0.323944 0.744333 -0.032008 -1.082265 -0.454832 1.421103 0.400121 -0.744189 -0.571540 -1.089151 0.690155 -1.024404 -0.207641 0.944688 -0.261206 0.217862 -0.086509 -0.557719 1.010842 -0.099959 0.369475 -0.135248 -0.035453 0.848623 0.037192 -0.082189 -0.431205 0.340059 0.043097 -0.134437 -0.873334 0.598411 -0.582270 0.936066 0.233021 0.511838 0.011055 -0.927537 -0.027876 -0.643514 0.182167 0.393990 -0.486994 -0.393381 -0.028887 0.375170 0.542044 -0.704043 0.728511 0.411368 0.767309 
-0.337864 -1.031255 0.390399 -0.196716 0.886495 -0.145706 0.579489 -0.340388 1.230975 0.041856 -0.821488 -0.053197 1.043360 0.373328 -0.627915 1.685468 -0.064084 -1.104967 -0.812465 -0.838689 -0.688699 -0.780101 -0.594826 0.969083 -0.199381 -0.272439 0.586507 -0.474394 -0.837454 0.787671 0.481550 -0.268698 -0.175972 -0.527550 -0.004650 -0.570771 -0.233929 0.243680 0.990467 -0.542791 -0.472632 -0.189321 0.391537 -0.582095 -0.459935 0.928341 -0.806142 -0.295136 0.012665 -0.652533 0.346562 -0.573864 -1.093776 -0.674937 -0.480040 0.696688 0.578056 0.179894 -0.158465 -0.354367 0.212697 1.049622 -0.763522 -0.270060 -0.722669 
-0.465331 0.525155 -0.879414 -0.372048 0.358649 0.545054 -0.376418 0.920767 -0.009951 -0.013543 -0.648443 -0.489178 0.131269 0.028888 0.626546 0.132714 0.884729 -1.043424 0.636872 -0.490284 0.474757 -0.592013 1.127159 -0.504320 0.853380 -1.004828 -0.489343 -0.154326 -0.979870 0.065625 0.032412 -0.489619 0.208364 0.623011 0.917096 0.641507 0.808321 -0.835124 0.978306 0.090802 0.842891 -0.780521 -0.665573 0.347089 -0.650189 0.557058 0.349554 0.790575 0.834670 -0.479828 0.477927 -1.228346 -0.349829 0.954344 -0.937263 1.328880 0.169632 1.043546 -1.166781 0.501968 -0.058081 -0.052759 -0.667026 -0.476123 0.647385 
0.439107 0.058573 -0.136014 -0.870799 -0.244170 0.246087 0.876038 0.129503 0.753218 0.691241 -0.625600 -0.941212 -0.481580 0.488633 -0.441328 1.028906 0.291633 -0.285699 -0.299355 -0.590461 -0.933670 0.513451 -0.051594 -0.843414 0.900954 -0.813165 -0.155544 -1.173774 0.018939 0.205186 -0.489596 -0.965901 0.050059 0.825729 0.104834 -0.295862 -0.329808 -0.335885 -0.267791 -0.303769 0.360782 -0.162745 1.022954 0.102199 0.883897 0.704217 0.302996 -0.248598 -0.830969 -0.439105 0.033044 -0.408423 1.029973 0.852114 0.170189 1.287240 0.714454 1.114584 0.793955 -0.860410 -0.581782 -0.598414 -0.292503 -0.731979 -0.201941 
0.445076 -0.567121 -0.764465 -0.681400 -0.794016 -1.153192 0.231357 -0.404338 -0.595356 -0.557569 0.323511 0.123660 -0.200653 0.174264 -0.066925 0.293174 0.458131 -0.347420 -0.786557 0.715554 -1.064160 0.030899 0.944601 0.207349 -0.937519 0.023973 -0.983886 0.432171 0.848714 -0.555310 0.050128 -0.078711 -0.938351 0.229204 -0.483076 0.403147 -0.582406 -0.471939 -0.511897 -0.550834 0.033322 0.569248 0.410313 0.095586 -0.548614 -0.059639 0.539260 -0.388045 -0.447549 -0.015504 -0.483956 0.562892 -0.273041 -0.329400 0.186833 -0.112456 -0.468475 0.199274 -0.953432 -0.201452 -0.995471 0.829362 0.898114 -0.803761 0.646762 
-0.079776 -0.414565 -0.189880 0.933954 -0.791535 -1.036740 0.155168 -0.209617 -0.497508 0.865183 0.811678 0.225838 -1.096772 0.607832 -0.522393 -0.980331 0.736226 0.911038 0.407771 -0.166445 -1.202213 0.289552 -0.357215 -0.780772 -0.593964 0.884287 -0.222435 -0.352422 0.257536 0.228063 0.362385 -1.253559 -0.462066 -0.611523 0.879018 0.094653 0.780300 0.876303 0.166851 0.498659 0.242371 0.326446 -0.910567 -0.351268 -0.594999 -0.157259 0.508517 -0.480812 -0.637541 -0.151257 -0.506473 -0.920334 0.179780 -0.072508 0.238317 0.388655 -0.325926 1.080383 -0.620641 0.497687 -0.421317 -0.090365 0.287350 -0.254355 -0.329903 
-0.780063 0.017024 -0.050429 0.274253 0.253970 0.769525 -0.514422 -0.579308 0.037290 -0.199831 1.031981 1.018159 0.266860 0.999207 0.641563 0.115525 -0.609231 -0.349165 0.634407 0.350517 -0.721526 -1.168814 -0.933008 -0.476028 0.382866 0.018204 -0.100360 0.542023 0.444301 0.179683 -0.722070 0.496900 0.367122 -0.313909 -0.641948 -0.336278 0.396925 -0.025343 -0.126627 -0.452414 -0.734550 0.229807 0.147349 -0.668015 0.683237 0.944566 0.026136 0.552067 -0.536284 -0.905969 0.287973 -0.613409 0.258870 0.777478 -0.316881 -0.168571 0.898764 0.232779 -1.107721 0.431756 0.514724 0.654368 -0.160658 0.092502 0.115988 
-1.367458 0.157679 1.015541 0.229443 1.097974 -0.494554 -0.902572 0.783843 0.060016 -0.283247 -0.808376 -0.988915 -0.674017 -0.268984 -0.488391 0.787432 -0.235668 -0.440944 -0.988887 -0.886803 -0.261094 0.409770 0.721418 -0.406053 0.040190 0.224547 0.766308 -0.218333 -0.020190 0.000173 -0.274286 -0.542474 0.883905 -0.680900 -0.417945 0.410539 -0.624173 0.050287 -0.982061 -0.662613 -0.736248 0.190309 0.519385 0.437728 -0.912565 -0.322681 -0.016660 0.853870 -0.006384 0.258755 0.971888 0.311091 0.800999 -0.048616 -0.242033 1.135391 1.025072 0.678529 -0.152095 -1.023762 -0.098606 0.133795 0.227376 -0.225876 -0.168519 
-0.402864 0.017332 0.615367 0.897714 -0.610275 -0.230740 0.526480 1.138530 -0.409121 -0.972091 -0.919557 0.830634 -0.305847 0.247920 0.151495 -0.706911 0.286496 -0.870951 -0.017551 -0.596542 -0.150163 0.312413 -0.228173 0.066333 -0.286570 0.555533 0.817028 -0.627858 -0.375795 -0.604884 0.999867 1.107634 -0.746255 -0.347739 -0.886996 0.393348 0.725172 0.160925 -0.936953 0.248968 0.733036 0.885139 0.495355 -0.538810 0.766698 -0.620268 0.773511 0.332092 -0.240556 0.491173 -1.030397 -0.056707 -0.073757 -0.280034 -1.116520 0.415357 -0.512100 0.055672 0.752730 -0.848724 0.513064 -0.764758 -0.357045 0.400126 0.831432 
-0.824713 0.531542 0.018250 -0.033328 1.300245 0.051497 0.853457 0.413297 0.200496 0.280392 -0.908353 0.612063 -0.623548 1.007241 -0.685530 -0.078797 -0.812533 0.078694 0.504816 0.102205 -1.030252 0.038292 -0.103819 -0.878323 -0.304582 0.055467 -0.528328 0.794064 0.855291 0.738922 -0.125395 -0.105745 -0.774555 -0.747570 0.344722 0.851634 -0.961984 0.334381 -0.397217 -0.296859 -0.130340 -0.888262 -0.483340 -0.203572 -0.383316 -0.223209 0.647178 -0.557309 0.031941 -0.891436 -1.456011 0.529613 -0.059037 -0.349486 -0.678073 0.648892 1.077770 -0.155696 0.149931 -0.184868 -0.107599 -0.219837 -0.995767 0.877421 0.082284 
-1.279936 0.081019 0.733632 0.946407 0.272053 -0.284829 -0.589761 0.503995 0.504234 0.625697 -0.507897 -0.995856 -0.201288 0.166735 -0.516463 -0.098212 -0.127450 0.914452 -0.834935 -0.103381 0.754087 0.199446 0.059923 -0.955840 0.986626 -1.095238 -0.182310 0.322900 0.754421 0.131010 0.999314 -0.046347 0.744627 -0.922834 0.814108 0.580449 -1.075564 -0.843184 -0.425446 -1.337024 0.234581 0.275458 0.465556 0.295028 -0.362475 0.148545 -0.016607 -0.773477 -0.650029 0.352813 -0.801502 0.553750 -0.316454 0.915429 0.701655 -0.570311 0.245401 -0.653070 0.380025 -0.156560 1.435352 0.772784 0.283434 1.052841 -0.068226 
0.292239 0.698929 0.906651 0.066322 0.247111 0.108551 -0.090424 0.161775 0.325502 -0.444788 0.916282 0.458158 0.057284 -0.014678 -0.300831 0.841365 -0.930341 -0.715068 0.780278 0.360894 -0.375458 -0.359803 0.371274 -0.519878 0.299288 0.096487 -0.091525 -0.405344 0.264173 -0.273483 -0.295825 -0.284350 0.056587 -0.500779 -0.058919 -0.022872 0.585393 -0.374744 0.569145 -1.004895 -0.686686 -0.216835 0.153100 0.226795 0.662720 -0.215658 -0.312008 -0.159551 0.663093 -0.901459 -0.597787 -0.040804 -0.247256 0.339867 -1.371961 -0.754441 -0.258525 -0.053483 -0.604445 0.270213 1.536891 -0.599264 -0.092996 -0.182521 0.192796 
-0.382435 0.828974 0.965143 0.637567 0.889417 -1.072456 0.630223 -0.999964 -1.043395 -0.151450 -0.647757 -0.842359 -0.452878 0.665844 0.068637 0.042493 0.970553 0.155254 0.729638 0.054607 0.271527 0.272456 -0.920472 -0.545268 -0.254338 -0.753066 -0.781606 0.449512 -0.016057 0.550081 0.606489 -0.341118 0.626870 0.481256 -0.850576 1.217266 0.785711 -0.679260 -0.199010 -0.892632 -0.545089 0.066493 -0.453327 -0.662074 0.227317 0.660938 0.310036 -0.672394 0.864815 -0.813269 -0.289246 0.712319 0.042185 0.172611 0.321541 -0.733618 0.581084 0.775393 0.794532 -0.754935 0.758667 -0.407240 0.814695 0.346346 0.096237 
-1.206479 -0.040854 0.158406 0.507113 0.625440 0.222877 0.363775 0.067152 -0.179873 -0.007339 0.935556 0.393939 -0.631162 0.799819 -1.125755 0.488348 -0.230506 0.665593 -0.590128 -0.587418 0.220573 0.723198 -0.154597 -0.324589 0.497924 -0.502563 0.442166 -0.142007 -0.572585 -0.969960 -0.340904 0.993959 0.733092 -0.453263 0.631350 0.947486 0.467380 0.542467 -0.228121 -1.209174 1.025453 0.118132 0.561930 0.812684 1.048209 0.695062 0.823385 0.669567 0.435347 0.648290 -0.296175 0.594829 -0.534485 0.571652 -0.289001 0.534376 -0.419194 0.089386 -0.392146 0.599571 -0.707086 0.120248 -0.279533 0.631067 0.952084 
-0.719081 0.686150 0.228294 0.152136 0.676535 -0.251834 -0.266774 0.873222 -0.261830 -0.360825 0.259942 0.829040 0.849399 0.179862 -0.145515 0.205460 -0.863869 -0.727537 0.042339 -0.475179 -0.616992 0.635101 0.078665 0.729614 -0.097918 0.768036 -0.600003 -0.277684 0.037988 0.077796 0.471984 1.085340 -0.571522 -0.226001 1.024779 -0.546135 -0.154451 0.262440 -0.470903 0.380350 -0.430734 -0.199422 0.588046 0.320571 -0.113336 -0.931484 -0.316910 -0.686265 -0.189123 -0.552816 0.164709 -0.476994 -0.044682 -0.301804 0.425402 0.573860 0.235361 0.410958 -0.316502 0.995378 -1.280602 -0.592847 -0.593177 -0.304258 0.104829 
0.571243 0.009961 0.583678 0.866822 0.030892 0.658281 -0.643883 -0.668976 -0.007726 0.593018 0.633319 0.598325 -0.537183 0.081722 1.140077 0.925448 0.566494 -0.651515 -0.546784 0.202351 0.052768 0.691936 -0.831008 0.396064 0.167731 -0.341214 0.881317 -0.734646 0.623492 -0.375083 0.556000 -0.184483 -0.402660 -0.535263 -0.073795 -0.116990 0.469707 -0.380891 -0.166973 0.417097 0.653903 -0.741838 0.549560 -0.682159 -0.275916 0.856840 0.327541 -0.432689 -0.659256 0.690156 0.039093 0.419786 -0.360618 0.384555 0.945749 0.726480 1.041099 -0.502146 -0.286157 0.726128 -0.308003 -0.459264 0.497455 0.940674 -0.246593 
-0.256773 -0.589112 -0.575610 0.873168 0.767737 -0.773983 -0.432272 -0.679760 -1.122159 -0.265235 0.886424 0.612720 -0.444170 -0.746433 -0.080465 -0.045743 0.219373 0.360361 -0.198473 0.135879 0.039621 -0.879801 0.164640 0.186919 -0.160369 0.501460 0.080897 -0.448647 -0.173664 0.818073 -1.027907 0.809211 0.154371 -1.054791 0.715842 0.816475 0.002228 0.539752 -0.083489 0.343002 1.207931 -0.370209 0.648945 -0.058279 0.011460 0.801627 1.253151 0.802834 0.103460 0.780274 -0.361700 0.899076 0.772881 0.859367 -0.766845 0.848290 -0.269796 -0.190651 0.676881 0.573256 0.839847 0.747115 0.285922 0.454756 -0.147728 
-0.233351 -0.228257 -0.389278 -0.499439 -0.031686 1.047473 0.918089 -0.389624 -0.758266 0.642747 0.134562 0.745851 1.024684 0.582693 -0.600537 -0.106889 0.944108 -1.086917 -1.265274 -0.522752 0.803371 -1.028109 0.736616 0.326165 0.425774 0.331083 -0.988036 1.157613 0.078661 -0.373220 -1.180529 0.725406 -0.759931 -1.114464 0.805143 0.068201 -0.495129 0.915677 -0.463786 0.082838 -0.109545 0.364400 0.431903 -0.222483 -0.592118 0.674428 0.664639 -0.718366 1.010133 -0.806549 -0.156565 0.823639 -0.396515 0.303056 0.769182 -0.882460 0.695344 -0.823998 -1.080713 0.085521 0.377102 -0.861423 0.077851 0.150432 0.363604 
-0.458483 -0.921715 -0.068818 0.265049 0.127265 -0.441079 0.203484 0.289784 -0.661479 -0.818073 0.421508 0.184461 0.872119 0.662548 0.364809 0.132143 -0.303459 -0.799456 0.286073 -0.395230 0.132996 -0.767670 0.588444 -0.648158 0.516800 0.610378 -0.444921 -0.019180 1.013431 -0.264598 -0.934729 0.470804 0.953102 -0.790501 0.968231 0.486403 -0.648044 -0.143713 0.003640 -0.408786 0.078437 0.649562 0.434148 0.023842 -0.615950 -0.385359 0.434433 0.300533 0.746711 0.929415 1.026540 0.346147 0.542413 0.265322 -0.075785 -0.093156 -0.746292 -0.181072 0.164675 -0.262628 0.616771 0.432880 0.751937 0.250606 0.833743 
-0.442149 -0.576827 -0.098940 -0.215611 0.208605 -0.746392 -0.882378 0.706899 -0.281902 -0.309540 -0.370978 -0.119202 -0.815363 0.224079 0.266263 0.734865 0.275509 -0.149674 0.193146 0.018656 0.038160 0.247800 -0.394257 -0.862234 0.635641 0.127530 -0.373976 0.303740 0.332287 0.240547 -1.218764 0.220339 0.995273 0.261849 0.321631 0.400789 -0.852140 -0.917666 0.306052 -1.379103 -0.039875 0.566690 0.575630 -0.627833 -0.436332 0.121432 1.019410 -0.748398 0.233929 -0.893549 0.290629 1.013764 0.244103 1.027874 -0.572289 -1.136829 0.734981 -0.276994 -0.224763 1.010296 0.536585 -0.191698 -0.949981 -0.029388 1.341001 
0.106619 0.847737 -1.080092 -0.376556 -0.110220 -0.668692 -0.959129 0.244918 0.395555 -0.602887 0.634108 0.743703 0.027954 -0.482092 -0.061859 -0.896354 0.213059 -0.233505 -1.216945 0.798944 0.364459 0.235926 0.548082 0.598283 0.511860 0.673457 -0.070962 -0.747808 0.631118 -0.941342 -1.652882 -0.396983 -0.786307 0.086313 -0.466633 -0.267797 -0.706615 0.830906 -0.653160 -0.389832 -0.596603 -0.064627 -0.345427 0.237848 -0.267162 -0.097248 -0.793029 -0.432768 1.077986 -0.918484 0.032977 1.040420 -0.635287 0.524600 -0.970127 0.753772 0.590157 -1.352445 0.579878 0.433855 0.426943 0.155152 -0.092304 -0.872479 1.377374 
0.050619 -0.230054 -0.592217 0.167541 0.282225 -0.633571 -0.524044 0.131248 -0.608193 -0.051348 0.963862 -0.652729 0.935991 0.517547 0.536194 0.659890 0.286421 0.281970 -0.400500 -1.165100 0.273878 -0.015096 -0.462734 0.724353 0.286784 -0.748842 0.326051 0.177650 0.607765 0.744340 0.885221 0.157227 0.801127 0.639291 -0.491518 0.284940 0.657813 0.445223 0.335349 -0.301611 0.554099 0.894847 0.302544 -0.740607 -0.972272 -0.137455 0.318403 0.760965 -0.720730 0.299648 0.860049 -0.399725 -0.962368 0.319351 -0.668768 0.264251 -0.243138 -0.068610 0.948543 -0.191734 0.004193 -0.443030 -0.609149 0.809139 -1.067894 
-0.692483 0.863425 0.009072 0.049642 1.191994 0.606045 0.445758 -0.631386 0.863492 -0.617125 -0.383269 0.659057 -0.104301 0.756834 0.641093 -0.319925 -0.667346 -0.509197 -0.285825 -0.823813 0.639083 -0.804983 0.519777 -0.012318 0.492261 0.604999 0.390587 0.000256 0.264037 -0.950179 0.996736 0.366177 -0.643841 0.505652 -0.670155 0.052942 0.376778 -0.328722 0.081198 -0.276444 -0.788332 -0.984872 -0.101916 -0.292683 -0.685410 -0.962845 -0.029089 0.558525 -0.319838 0.463980 -0.568808 0.746190 -0.275844 -0.842011 -0.710131 -0.342266 -0.701539 -0.814831 -1.290982 -0.135253 0.147846 -0.708031 -1.055241 0.515476 0.223038 
-0.073964 0.609691 -1.272133 -0.244447 0.882831 -0.391057 -0.961589 -0.861259 -0.839101 -0.861539 0.113321 -0.171559 0.305613 -0.280737 0.850957 -1.092095 0.004959 -0.418420 0.659841 -0.202584 -1.084722 -0.991119 0.118040 0.055405 -0.288327 0.625106 -0.385026 1.346771 -0.065267 0.727547 -0.718756 -0.721141 0.408491 0.419897 -0.465085 -0.029596 0.048841 -0.315416 -1.001188 0.149238 -0.389051 0.501819 -0.310009 0.619615 -0.650186 0.568317 0.822846 -0.879958 0.501010 -0.762471 0.925200 0.827598 -0.114225 -0.147085 0.193913 -1.052211 0.574701 -0.360562 -0.325489 -0.027559 0.152490 0.907371 -0.265786 -0.080066 -0.151007 
-0.660685 -0.175556 -0.930537 -0.115756 0.849758 0.773792 0.384274 -0.859454 0.015724 -1.025141 0.158831 0.944857 -0.261383 0.773147 0.530352 0.050505 -0.226171 0.381795 -0.492208 -0.356612 0.314918 -0.414977 -0.584034 0.279051 0.721071 -0.663631 0.951915 -0.070227 0.096228 0.049671 0.665247 0.014619 0.512754 0.080051 -0.211369 0.065533 -0.765989 -0.763573 -0.672162 0.079329 -0.016190 0.193983 0.179967 -0.050884 -0.511043 1.221480 -0.071658 0.276761 -0.311602 -0.766969 -0.005112 0.658703 -0.125565 0.235262 0.594837 0.241944 0.206613 -0.260933 0.146706 -0.486993 -0.455309 -0.675534 0.836754 -0.223582 -0.246532 
-0.208815 0.602336 0.286553 -0.589152 -0.162237 -0.630297 -0.819031 -0.025154 -0.665846 0.929350 0.728379 0.122844 -0.210691 0.714762 -0.663775 0.266409 -0.193755 -0.513536 0.502242 0.399548 -0.569373 0.052680 -0.957147 -0.608700 0.725513 0.156666 0.420745 0.678086 0.437096 0.270014 0.089791 0.514975 -0.060410 0.099322 -0.779596 -1.124628 -0.742834 0.701166 0.508915 1.233128 0.106496 0.052834 -0.204989 0.522089 0.283346 -0.810674 0.574548 -0.586779 0.774825 -0.479440 0.755782 -0.499068 -0.727265 0.390880 -0.093426 0.698798 -0.668081 -0.029670 0.696292 -0.915931 -1.250550 0.489937 -1.031853 -0.338195 -1.130376 
-0.567892 -0.207282 0.794272 0.246793 0.865310 -0.833503 0.990870 1.085928 -0.101293 -0.470026 0.920039 0.673367 0.814842 -0.717815 0.118818 0.918265 -0.498461 -0.707492 -0.371351 -0.331344 0.705046 0.259593 -0.923184 0.368696 -0.757236 -1.032822 0.677717 -0.567379 0.562940 -0.645990 -0.481630 -0.135935 -0.201943 -0.908169 0.944185 -1.062632 -0.103330 -0.242686 -0.231961 -0.239017 -0.262035 0.451465 0.035878 0.536974 -0.033562 -0.623818 -0.485526 0.522657 0.670119 0.036664 0.687514 -0.921278 -0.134374 -1.397253 -0.194623 -0.716927 -0.671322 -1.011382 1.276528 0.646222 -0.067632 -0.145668 0.814112 0.366867 -1.116256 
0.417155 0.407637 -0.533747 0.237984 0.683064 -0.799254 0.659984 0.147783 -0.678452 -0.425769 0.297397 -0.586235 -0.245679 -0.585914 -0.807307 0.348818 0.338032 0.276527 0.075199 0.451940 0.274948 -0.431584 -0.005325 -0.822033 -0.765014 -0.144182 0.184961 0.468519 -1.063686 0.672413 -0.778789 -0.109279 0.508207 1.110681 0.047128 0.483689 -0.295779 0.967329 -0.940514 -0.103551 -0.678175 0.575670 -0.464222 -0.997522 -0.283922 -0.202002 -0.326952 0.455737 -0.665819 0.591686 0.503963 0.447897 -0.388932 -0.362253 -0.748905 -0.072363 0.041808 0.147741 -0.234338 -0.425271 -1.071962 -0.827075 -0.259573 0.299454 -0.677028 
0.980086 -1.048692 -0.821756 -0.342504 0.567622 0.652539 -0.258779 0.865643 -0.239316 -0.353721 -0.703532 -0.432290 0.384605 1.023642 -0.167549 -1.187034 -0.760780 0.096223 0.942765 -0.514318 -0.799894 -0.212813 -0.379689 -0.028189 -1.139758 -0.351223 0.835935 1.124240 0.157732 0.859782 0.255194 -0.106168 -0.604370 -0.237269 -0.104130 0.077443 0.130082 0.630744 0.606286 0.705314 -0.470371 -0.001628 -0.133216 -0.594331 -0.824484 -0.137772 0.280988 -1.108789 -0.742192 -0.542538 0.713170 -0.095717 -0.604533 -0.859940 0.634820 0.180539 -0.899856 0.225328 0.201454 0.556347 -0.383352 -0.601157 -0.076381 -0.369220 -0.066260 
0.496425 -0.228843 0.518983 0.450378 -0.613422 -0.036987 0.230118 0.236367 1.087271 -0.517261 -0.231275 0.389921 -0.785412 -0.305867 0.143736 -0.311194 0.808208 0.443230 -0.392304 0.582103 0.663416 -0.816488 1.107793 0.868739 -0.162214 0.121624 -0.410020 -0.619767 -0.151225 1.014699 -0.320002 -0.709607 0.255953 -0.561550 -0.896921 -0.456638 0.331179 -0.357965 0.025391 -0.061144 0.245098 0.672886 0.345058 0.206728 0.245800 -0.307265 -0.442075 0.394769 0.847685 -0.808021 1.352629 -0.211769 -0.181716 0.745385 -0.258758 -0.362393 0.707446 -1.184556 0.568643 -0.828433 0.813752 -0.224504 -0.702252 -0.945435 0.526153 
0.240527 -1.017180 -0.726644 -0.763754 -0.647241 -0.254835 -0.403334 -0.150275 0.805176 0.126070 -0.944583 0.414813 -0.588938 0.150695 -0.356871 -0.925661 1.048295 -0.164361 -1.133369 1.037755 0.229514 -0.353890 0.911210 -0.914492 0.817765 -0.506570 -0.059739 -0.620941 0.456913 1.082534 0.486211 -0.786738 0.730315 0.462125 -0.785530 0.476265 -0.078173 0.970762 -0.681409 0.459466 0.449343 -0.005728 -0.781034 -0.053627 0.607619 -0.524438 0.493224 -0.276134 0.776159 -0.881985 -0.527925 -0.280689 -0.592035 0.232073 0.632790 -0.445796 0.204992 0.108719 -0.495150 -0.055232 0.215085 0.922038 -0.437416 -0.312000 0.331113 
0.605741 -0.857074 0.094562 0.954696 -0.172606 0.582678 -0.787184 0.396653 -0.610622 -0.915656 -0.310816 0.334555 0.592752 -0.709906 -0.637467 0.145353 0.873630 0.604340 -0.054616 -0.704966 -0.125808 0.562493 -0.985543 -0.332297 0.292388 -1.276647 -1.057782 0.472712 0.775178 0.183559 0.061493 -0.930677 0.290745 -0.025162 -0.782992 0.065310 -0.305375 -0.803448 1.190074 0.642997 -1.206619 -0.404798 0.072067 -0.467288 -1.023659 0.199674 -1.047020 -0.356252 -0.306930 0.726803 -0.389270 0.521129 -1.027767 -0.111026 -0.865738 0.429594 -0.326865 -0.949859 -0.396077 0.000930 0.086365 0.671494 0.646961 0.608707 0.745581 
-0.198421 -0.014552 -0.765092 0.746624 -1.029339 -0.403321 0.184324 -0.017009 0.063691 -0.970109 -0.769815 -0.357700 0.485532 -0.338552 -0.122057 0.305930 0.979449 0.538282 -1.294588 -0.234347 0.541322 1.278348 -0.629650 0.898770 -0.729474 -0.438298 -0.823970 -0.153085 0.363509 -0.707620 0.438227 0.153988 -0.361342 -0.390993 0.960101 -0.071314 -0.760088 0.904521 0.843507 -0.676421 -0.073958 -0.347269 -0.508582 -0.631986 0.966108 0.220641 0.455620 -0.437075 0.034450 0.719367 0.974839 -0.668011 -0.498233 1.271225 -1.220159 0.921565 0.037354 0.580314 0.872793 0.572667 0.080299 0.195317 -0.919539 0.313650 1.050053 
-0.880492 -0.602345 -0.051131 -0.314642 -0.396069 0.015836 0.444575 0.174093 -0.329564 0.458519 -0.546716 -0.673467 -0.300436 0.146326 0.949943 0.725925 -0.556785 0.828472 0.452237 0.247500 -0.541394 0.452271 0.643297 0.006156 -0.865939 0.526237 0.280549 -1.018109 -0.451896 0.318204 0.459861 0.135563 -0.029561 0.303465 0.079217 -0.536990 -0.732865 -0.336618 -0.898769 1.192432 0.092993 0.607687 0.802584 0.768334 0.808934 0.197869 0.573205 0.358326 0.113832 0.142632 0.497692 0.312604 0.810714 0.079022 -0.135089 -0.775554 0.062120 -0.105448 -0.034739 -0.689420 0.806653 -0.151646 -0.471133 -1.172441 1.058083 
0.099396 0.290189 0.392846 -0.291320 0.189224 -0.294819 0.653512 1.148590 0.019379 0.835784 -0.778091 0.360452 -0.098877 -0.762000 -0.936669 0.429630 0.751120 -0.032574 0.434623 0.709072 -0.038309 -0.348179 0.614218 0.613490 -0.057415 0.726101 0.003017 -0.433444 -0.650956 -0.326934 -0.428016 -0.702942 0.660350 0.302924 0.564946 -0.156819 0.205382 -0.107041 0.062220 -1.173439 0.235751 0.520713 -0.130571 -0.817856 0.081194 0.639861 0.445924 0.574428 0.238727 -0.161012 -1.107772 0.586761 -0.197696 0.327148 0.502388 0.129597 -0.524261 -0.497726 0.298379 0.508696 0.644161 0.020559 -0.637745 -0.192847 0.029744 
0.836675 0.252732 0.467999 -0.862714 -0.023838 0.184264 -0.343411 0.500760 -0.907271 0.856158 0.875125 0.948969 -0.461344 0.931787 0.140018 -0.113109 0.019397 -0.772695 -0.941673 -0.602725 0.665591 0.858335 0.132120 -0.513587 0.848000 -0.274841 -0.786324 -0.715256 0.166607 0.486333 0.168284 0.049699 -0.447482 -0.101555 0.798868 -0.656381 -0.660376 0.418579 -0.424291 0.390149 0.639911 -0.964019 -0.801973 -0.279802 -0.943739 0.139777 -0.225251 0.896000 -0.720018 0.848817 0.402840 0.505754 -0.398571 0.367400 -1.120710 -0.665159 -0.010888 -0.500778 -0.231171 -0.469641 0.826425 0.975126 -0.768968 -0.197870 0.959062 
0.368848 0.171219 0.966248 0.291497 -0.348152 -0.007893 -0.575340 0.302523 -0.814188 0.051305 -0.724238 0.108483 0.480709 -0.136962 -0.539507 1.016436 -0.442100 -0.678242 0.435618 -0.469075 -0.484144 0.774278 -0.126844 0.727231 -0.004150 -0.001042 0.349154 -0.063744 0.445024 -0.607621 0.480638 -0.674361 0.029390 -0.291179 -0.118076 -1.050124 -0.479393 -0.622914 0.188232 0.824643 -0.876532 -0.752726 0.988966 0.904619 -0.145458 0.367606 -0.695492 0.996912 0.505582 0.636158 -0.242585 -0.479138 -1.316032 0.820992 -0.076690 -0.124759 0.862595 0.638734 -0.593007 -0.681864 0.295289 0.544474 0.017388 -0.220510 0.232471 
0.321140 -0.401098 -0.136528 0.754865 1.054194 0.742177 0.178759 -0.522198 -1.005791 -0.481426 -0.149349 0.407955 -0.789693 0.540567 0.806713 0.565720 -0.540068 0.441194 0.650103 -0.152697 0.992001 -0.392081 -0.581510 -0.317475 0.223463 0.675427 -0.424280 -0.343998 -0.450553 0.549927 0.095903 1.121729 0.081390 0.939820 -0.270482 -1.341347 -1.002125 0.479654 -1.176992 -0.018611 0.463251 0.786342 -0.898646 -0.082675 -0.766218 0.780309 0.815461 -0.209096 0.175115 -0.453442 -0.506046 0.145997 0.428248 -0.081289 -0.315339 0.025204 0.027831 0.113551 -0.021072 -0.088186 -0.546467 0.782469 0.166538 -0.912715 1.023396 
-0.096512 0.013755 -0.313615 -0.405677 -0.481484 1.009668 0.481952 0.453806 0.308146 -1.057803 0.018970 -0.226005 -0.454921 0.820667 1.300396 -1.128704 -0.612724 0.162090 0.611115 -0.071387 0.393821 -0.697721 0.421245 0.135089 0.542344 -0.041109 -0.494517 -0.967884 -0.618018 -0.069541 -0.056514 0.361436 -0.051114 0.420772 0.977936 0.523765 0.060975 -0.556067 -0.917067 -0.377250 -0.814352 -0.287036 0.793240 -0.881333 0.661759 0.495579 0.387871 -0.661504 -0.746466 -0.098390 -0.937762 -0.018928 -0.447317 0.905576 -0.702611 1.052854 -0.542778 -0.788698 0.524137 -0.229170 -0.913493 0.743528 -0.538424 0.559966 0.871798 
0.268769 -0.370408 0.206064 0.549806 0.176165 0.743421 -0.669502 -0.006627 -0.922393 -0.396093 -0.226092 -0.764439 1.207235 0.539839 -0.121496 -0.196085 -0.182593 -0.035442 0.090448 0.326670 -0.637770 0.251943 -0.693826 0.345985 -0.149718 -0.746502 0.153106 0.030719 -0.025889 0.436639 -0.817294 -0.674717 -0.131113 -0.610934 0.898517 -0.648087 0.483182 -0.965605 0.057052 0.047543 -0.287321 -0.091711 0.261143 0.729255 0.797694 0.121668 0.463543 -0.207099 0.627079 -0.641352 -0.427905 0.783892 -0.223558 -0.892617 -0.398354 1.035376 0.396328 0.028112 0.040681 0.610809 0.473892 0.003287 0.293082 0.455056 0.627431 
-0.749603 -0.585919 0.119042 -0.319692 1.108584 -1.161949 -0.787802 -1.431104 -0.911651 0.075530 -0.622429 -0.343502 -0.471659 0.077724 0.711131 -0.043706 -0.625254 -0.637834 -0.004890 0.365444 0.414247 0.789963 -0.361017 0.151330 0.123006 0.072101 -0.101360 -0.041681 -0.717373 0.387864 -1.158119 0.703512 -0.699693 0.057279 1.032117 -0.719097 0.607220 0.876123 -0.513266 -0.291203 -0.924495 -0.418343 -0.951371 -0.360823 0.912461 -0.386147 0.505127 -0.772053 -0.738336 -1.060786 -0.710047 -0.265429 0.832900 0.252656 0.743217 -0.149445 -0.171986 -0.704437 -1.593636 -0.518386 -0.371214 0.119522 -0.184386 0.743022 0.966927 
0.167752 -0.700098 0.378133 -0.157573 -0.398796 -0.343080 -0.460283 -0.068138 -0.265947 0.744409 -0.791562 -0.614767 -0.487402 0.225126 -1.048389 -0.946932 0.134305 0.758923 0.404709 0.207382 0.065475 0.196590 0.624907 0.357367 0.096408 0.881390 -0.500687 0.788937 0.457132 -0.547528 -0.195514 0.557117 0.345594 0.956766 -0.369563 -0.530605 -0.734482 0.656730 -0.187471 -0.839921 0.120440 0.722489 0.945475 -0.778129 -0.856600 0.280169 0.500518 -0.541046 0.990771 -0.886562 -0.660879 0.031367 0.699488 0.686173 0.025023 0.583903 -0.521311 -0.316234 -0.986042 0.729306 -0.789399 0.826218 0.638014 0.172634 0.349363 
-0.489019 -0.550763 0.998343 0.420387 -0.285260 -0.668028 -0.667696 0.520321 0.491122 0.017810 -0.908980 -0.927983 0.490757 -0.451238 0.460672 -1.218632 0.678208 0.470319 0.451019 0.681804 -0.769992 -0.107995 0.525585 0.060595 -1.129229 -0.377713 0.880389 1.235831 0.746513 0.055584 0.292324 0.472786 0.089680 -0.548405 -0.793190 -0.000720 0.000543 0.017272 -0.203633 -0.205663 -0.463857 -0.905504 -0.837719 -0.494898 0.777755 -0.917052 -0.944789 0.351338 0.702570 -0.259720 -0.946633 -0.344352 0.486806 -0.358762 -0.940222 -0.808059 -0.568419 0.202402 0.086542 0.253255 -0.622937 -0.080652 0.207925 -1.192862 -0.405695 
-0.462279 0.392831 0.373709 -0.151240 0.088064 -0.176044 -0.157369 0.218175 -0.060949 -1.061018 -0.494436 0.134699 -0.144776 -0.723851 0.061418 -0.483543 -0.057248 0.904790 -0.941027 -1.175209 -0.424356 0.559737 0.597778 -0.239681 -0.014100 0.606324 -0.014503 -0.359795 -0.642976 0.096197 0.107841 0.242690 0.716345 -0.333774 0.031274 0.966582 0.095060 0.780601 0.879300 -1.502607 0.683696 0.171514 -0.420585 -0.325747 0.013123 -0.362828 0.047443 -0.338836 0.681850 0.185137 -0.794030 -0.334111 -0.596383 -0.360373 0.042725 -0.083026 0.665448 0.748876 -1.216200 -0.125037 -0.855034 0.160992 0.065014 -0.369606 1.144249 
-0.585164 0.613103 0.645637 0.047271 -0.330222 -0.046366 0.569353 -0.323879 -0.137920 -0.696552 -0.010763 0.769864 0.360250 -0.913289 0.324831 -0.722992 -0.843193 0.345639 -0.682755 0.343480 1.091251 -0.215015 -0.690593 0.645323 -0.032913 -0.318052 -0.940307 -0.761966 1.042899 -0.488059 0.517408 0.909880 1.041771 -0.262975 0.330586 1.258191 -0.876090 0.089520 -0.843066 -0.812367 -0.496595 -0.180006 -0.929428 0.872869 -0.300983 -0.555058 -0.029851 -0.794764 0.780520 0.767756 0.473882 0.465289 0.826347 0.445062 0.160011 -0.967367 0.005836 -0.945666 0.480507 0.494737 -0.752661 0.327175 -0.494776 0.577932 1.029022 
-0.511886 0.719453 0.290532 0.572048 0.157228 0.678728 0.807209 -0.604811 -0.428993 0.562454 0.053158 -0.704283 1.117699 -1.024953 -0.623352 -0.518059 -0.107899 -0.287876 0.139391 -0.366868 -0.937130 -0.588882 -0.638529 -0.778868 -0.422054 -0.297318 0.103749 0.503875 0.509301 0.815734 0.815650 -0.142371 0.529426 -1.014913 0.495565 -0.480486 0.884222 -0.856363 -0.171860 -0.593059 1.264762 -0.072196 0.876507 0.166956 -0.774828 0.286781 -0.075683 -0.178990 0.796112 0.197655 1.648874 -0.626446 -0.536533 0.700546 -0.443434 -0.193548 0.418162 -0.017392 0.320575 0.533021 -0.586314 0.765041 -0.523052 -0.452757 -0.468404 
0.530877 -1.077431 0.109646 0.074600 0.942800 -0.641688 0.496972 -0.167216 -0.088861 -0.215140 -0.552950 0.721202 -0.797189 -0.692991 0.360878 -0.708574 0.722991 -0.821286 0.273446 0.910143 0.618443 0.442590 -1.283152 0.004287 0.288355 0.095015 0.376295 -0.116698 0.728651 -0.010556 -0.216354 -0.332615 1.012731 0.291946 0.776131 0.763541 0.973877 0.025427 -0.265098 0.887745 0.324553 0.400736 -0.067088 0.202843 0.257247 -0.534549 -0.644480 0.146618 -0.852166 -0.065203 0.969507 -0.070015 -0.162080 0.096326 1.067004 0.178439 0.124901 -0.597822 0.295829 0.320872 0.580395 -0.155132 -0.880071 0.611404 0.344054 
-0.276345 -1.154258 0.325149 0.284050 0.755767 -0.135313 -0.101866 -0.326301 -0.518121 -0.250085 0.846522 -0.008962 -0.309786 -0.352651 -1.018976 0.628356 0.023657 0.818909 0.099741 0.229360 -0.231355 -0.409240 -0.300289 -0.654477 -0.035469 -0.449768 -0.658169 0.351807 0.360118 0.428839 -1.277527 -0.576316 0.644094 -0.721345 0.147724 0.040777 -0.240483 -0.892111 0.513038 -0.637815 -0.383877 0.350033 0.608917 0.378061 0.484054 -0.402819 0.628655 -0.030735 -0.471687 0.767297 0.478797 0.243554 -0.070791 0.136617 0.674085 -0.986922 0.998021 -0.291124 -0.170010 0.410297 -0.010201 0.380307 -0.267450 0.509445 -0.668056 
0.940369 0.133695 -0.506153 -0.016741 0.237134 0.311144 0.396137 0.682312 -0.426214 0.742122 -0.189449 -0.166006 -1.001386 -0.993956 0.275664 1.083505 0.386990 0.262918 0.676925 -0.014311 0.990148 0.110752 -0.431627 -0.122017 -0.811002 0.084198 0.385349 -0.719992 0.470996 -0.958848 0.186987 0.491315 0.866856 -0.323984 -0.320851 -0.086841 0.789324 0.013915 0.069074 0.578293 0.095100 0.122033 -0.146795 -0.347575 0.177967 0.485695 -0.685807 0.833699 0.417580 0.858623 0.462115 0.946466 1.457943 -0.445077 -1.184442 0.060461 -0.895206 -0.395602 1.607989 -0.617119 0.625622 0.399638 0.491002 -0.281198 0.672530 
0.647255 0.931429 0.897487 0.800732 0.717041 0.287424 0.257354 -0.557144 -0.181301 -0.183275 0.616470 -0.453635 0.449946 -0.475147 -0.939780 -0.112138 -0.186012 -0.490769 0.723596 -0.041158 1.156213 0.426425 -0.216164 0.254293 -1.043063 -0.829224 -0.390194 -0.381548 -0.379080 0.863157 -0.863076 0.699286 0.757692 0.558716 0.659882 -0.961592 -0.056516 -0.012331 0.004018 -0.810265 -0.844972 0.267269 0.277932 0.618941 0.110280 -0.074182 0.005727 -0.692662 -0.757033 0.004364 0.624242 -0.276924 0.723880 0.202335 0.007022 -0.371471 -0.451498 -1.058092 0.798559 0.064020 0.675854 -0.154034 -1.277057 -0.252512 0.069797 
0.390594 0.661827 0.706788 1.022721 -0.085809 0.944692 -0.124500 -0.500703 0.948180 0.293081 -0.132107 -0.682057 -0.661047 0.103301 0.110103 0.293618 -0.000038 0.820113 -0.957900 -0.041400 0.697346 -0.695916 -0.025114 -0.502185 0.541411 -0.035117 -0.900991 -0.420195 -0.469810 0.730537 -0.176375 0.169419 -0.682532 -0.640791 0.427741 -0.789675 0.006138 0.722269 0.465969 -1.519284 -1.061994 -0.664025 0.021665 -0.229478 0.164957 0.870838 -0.553450 -0.698384 -0.686096 -0.738428 -0.377375 -0.494111 -0.199751 -0.261436 0.407089 0.338774 0.865880 -0.692233 0.810200 0.268814 0.365102 -0.199128 -0.979264 -0.191627 -0.707707 
-0.725007 -0.039737 -0.551172 0.769264 -0.117973 0.861438 -0.597311 -1.165945 -0.532621 0.048979 -0.418917 -0.195117 0.323111 -0.407627 0.302051 0.005537 0.082944 -0.152138 0.793624 -0.422444 0.512969 -1.099754 -0.685765 -0.077570 -0.995896 -0.772823 0.661095 -0.702543 0.259046 0.851800 -0.505560 -0.076026 0.369097 -0.075456 0.086176 -0.463480 -0.832856 -1.030735 -0.503834 -0.128039 0.221598 -0.124432 0.149354 0.745564 0.071775 0.624320 -0.660362 -0.164388 0.701450 0.853056 0.691212 0.437745 -0.362021 -0.226378 -0.891763 0.736664 -1.012608 0.686170 0.555631 0.181448 0.514037 -0.749497 0.106180 -0.359959 -0.394545 
0.975746 0.938389 0.224311 -0.397538 0.200009 -0.105207 0.288105 0.056698 -0.541325 0.545828 -0.269667 0.504203 0.300840 -0.252588 -0.472387 0.682576 -0.129223 1.079499 -0.620354 0.803234 0.504286 0.380606 -0.577223 0.378554 0.334967 0.094880 -0.844243 0.095300 0.141926 1.220632 -0.180116 0.830908 0.242666 0.218986 0.823595 -0.202704 -0.204631 -0.687496 -0.338011 0.730005 0.255311 -0.885916 -0.082461 0.133662 -0.085702 0.410578 0.941059 0.008244 -0.745635 0.074160 0.768739 -0.083640 -1.063502 -0.668634 0.039289 0.788196 -0.573521 -0.727177 -0.066138 -0.113343 -0.841315 -0.334292 -0.142338 0.138382 -0.751096 
0.706742 0.783458 -0.605224 0.843215 1.167342 -0.597415 0.471250 0.746110 -0.230775 -0.664860 0.888451 -0.715182 -0.362486 0.119095 -0.908690 -0.857438 0.385235 0.523497 -0.202322 0.946073 0.017946 0.352598 0.517687 -0.861461 -0.639979 0.611765 0.874414 1.406790 0.671728 0.222332 -0.743366 0.803120 0.006371 0.507300 -0.672060 -1.174226 0.126526 -0.040936 0.509226 1.251717 0.719736 -0.788297 -0.947899 0.678120 0.658951 0.771172 0.270842 -0.790959 -0.884779 0.985370 -0.391341 -0.432514 -0.261335 0.134746 -0.619184 0.094859 -0.787141 -0.619032 0.539757 0.551962 -0.459072 0.742621 0.232162 -0.702331 0.129932 
1.144266 -0.531735 -1.219855 0.877848 0.642446 0.071123 -0.289585 -0.624088 -0.223547 -0.199870 0.554203 0.309700 1.266115 0.187072 0.026057 -1.312162 0.894581 -0.535695 0.885209 -0.682365 0.171450 0.298644 0.378771 -0.321645 -0.199094 -0.835172 0.483555 0.630500 0.045045 0.387639 0.921528 -0.692994 -0.657834 -0.544067 0.786726 0.746286 -0.683869 -0.369507 -0.243551 -0.088288 -1.029247 -0.744976 0.223194 0.796005 0.254920 0.748579 0.035770 0.437087 0.802499 -0.709887 0.371020 -0.066669 -1.341898 -0.384620 1.105811 -0.112091 1.015409 -0.129724 0.859519 0.225864 0.101277 0.470175 0.533344 -0.682246 -0.608384 
0.939270 0.598610 0.449728 0.462755 -0.720072 0.703612 0.975878 -0.290868 0.206040 -0.437703 -0.729341 1.022847 0.531873 -0.580879 0.317634 0.927135 0.107372 -0.632726 0.092943 0.363367 -1.048678 -0.503172 -0.130905 0.107770 0.205299 -0.187848 -0.885745 -0.404847 0.382171 -0.566278 -0.216177 0.259600 -0.947870 -1.131426 -0.507893 -0.386166 0.771635 -0.033335 -0.039113 -0.560388 0.291463 0.139034 -0.321836 0.895209 0.877774 0.035089 -0.246139 0.048036 0.026524 -0.486968 -0.169008 0.298438 -0.651146 -1.088401 -0.886263 0.442990 0.989578 -0.941387 0.416487 -0.183763 0.305743 0.715154 -0.280196 -0.403867 -0.680954 
1.330392 0.816072 -0.117672 0.104025 0.046026 -0.177286 0.036787 0.690625 0.602543 0.201938 -0.519548 -0.566858 -0.141435 1.007018 0.657584 0.708560 0.883460 0.492180 -0.722894 0.949314 -0.007600 0.426707 -0.118524 -0.700012 0.039148 -1.185092 0.646426 0.981014 0.668518 -0.645643 0.189853 0.391865 -0.845112 -0.848314 1.009559 -0.294887 -0.469358 -0.222518 1.023094 0.176729 0.887674 0.553989 0.154578 0.147515 0.749627 -0.163347 -0.111323 0.065557 0.868293 0.999454 0.208667 0.257074 -0.942327 0.055332 0.037766 -0.579284 -0.671635 0.150313 0.275504 -0.488508 0.279405 -0.935717 -0.965786 1.047255 -0.136844 
-0.574105 -0.421223 0.734448 0.749674 -0.656600 0.268959 -0.059322 0.136388 0.015490 -0.173996 0.052595 -0.593694 0.030455 -0.293165 0.646410 0.163633 -0.171567 0.607712 0.292462 -0.552209 -0.571129 -0.597688 0.542590 -0.155640 -0.892183 -0.708924 -0.251334 -0.528432 -0.056445 0.275065 0.690808 0.248266 0.940976 0.205748 -0.672362 0.493216 -0.765618 0.931712 1.059368 0.072872 0.204394 0.894723 0.767170 -0.114061 -0.548537 0.138404 0.441370 -0.253714 0.412492 -0.361737 -0.003633 0.349949 0.188623 0.145209 0.415428 -0.859970 0.209173 0.083657 -0.603471 0.217324 0.098720 0.268389 -0.834358 -0.588624 -0.062935 
0.939467 0.454604 -0.760745 0.524337 0.472529 -0.943515 -0.542683 -0.490630 0.555825 0.726384 -0.162301 -0.256796 1.034379 -0.414337 -0.182397 -0.235906 0.819604 0.138588 -0.042786 -0.690791 -0.342522 -0.527020 -0.193623 0.592103 -1.136027 -0.175643 0.218167 -0.429619 0.092511 -0.453508 -0.523408 0.495210 -0.713274 -0.177846 -0.307217 0.414595 0.721887 -0.327286 0.175733 0.601041 0.688918 0.233019 0.854359 -0.261304 0.853161 -0.825348 0.606149 0.596925 0.644781 1.035271 -0.467940 -0.795926 0.476407 -0.108104 0.137492 0.709422 -0.512311 -0.902082 0.254904 0.892531 0.870020 0.535035 -0.026276 0.314048 0.832463 
-0.323958 -0.590895 0.061976 0.719076 -0.075306 -0.494522 -0.668289 0.552015 -0.044322 -0.005924 -0.516045 0.293169 -0.334487 0.432140 -0.551795 0.165428 0.564377 -0.293161 0.827412 0.163122 -0.718211 0.818068 0.413618 -0.614735 0.073628 0.030271 0.209965 -0.615241 0.234522 0.459148 -0.319308 -1.044046 -0.231032 -0.675538 -0.144189 -0.965241 -0.550293 0.922878 -0.339887 -0.041047 -0.876285 -0.948620 0.924452 0.400823 0.827298 -0.390358 -0.857711 -0.461481 -0.741629 -0.395195 -0.614985 -0.295413 -0.251501 -0.913357 -0.535970 -0.533853 -0.558806 0.313009 -0.773679 -0.497948 0.142683 -0.560445 -0.886966 -0.066212 0.687842 
0.175476 -0.244363 0.329646 0.721192 -1.029572 -0.418337 0.617526 0.973046 0.413578 -0.814783 0.974711 -0.558951 -0.495319 -0.444838 0.854146 -0.411353 -0.407423 0.963928 0.270227 0.685046 0.266584 0.234017 -0.610536 -0.709539 0.422639 -0.591004 0.521638 0.002860 0.199475 0.299340 0.809354 0.133205 -0.889362 -1.361582 0.252293 0.021740 -0.499122 0.126140 0.409254 1.022614 -0.104257 -0.041187 -0.580075 0.045396 0.600409 0.225190 0.231952 0.119369 -0.475074 -0.196136 0.098181 -0.138014 0.096983 0.762301 0.048210 -0.405364 0.779531 0.971834 -1.081310 0.255621 -0.032973 0.248549 -0.489985 -0.178019 -0.257576 
-0.042862 -0.264946 0.366353 0.202660 0.021318 0.769587 -0.715672 0.858924 0.578166 1.046140 -0.079234 -0.495349 0.663925 0.127780 -0.525104 0.192191 0.672865 0.019962 0.490010 -0.251980 -0.515457 -0.194048 -0.911873 -1.126907 -0.914747 0.093958 -0.649872 0.995267 -0.441976 -0.411084 -0.442864 0.224727 0.163493 -0.042011 0.891142 -0.241960 1.107204 0.604889 -0.278078 -0.298913 -0.989811 0.056028 -0.641575 -0.206491 0.608420 -0.689689 -0.234397 0.716230 -0.098204 -0.396978 1.220515 0.697378 -0.872388 -0.770764 -0.618652 0.184254 -0.630176 1.171065 -0.010972 0.189427 -0.463798 1.000550 0.661964 0.281990 0.765441 
0.513930 -0.830441 -0.327220 0.374767 -0.382237 1.086662 0.047553 -0.683584 0.315648 0.020714 0.646474 -0.472550 -0.299095 0.120070 0.575537 -0.462730 -0.782899 0.839794 0.128250 0.430548 -0.309459 -0.680422 -0.366431 -0.909476 -1.078773 -0.486333 0.125541 -0.455330 -0.423914 -0.233927 -0.757114 0.519869 0.114949 0.430284 -0.097639 -0.472411 0.862459 0.519578 0.453968 0.679368 0.641666 -0.975389 -0.289342 0.148991 0.102549 0.691844 -0.654230 -0.199398 0.908830 0.709738 0.703282 -0.248059 0.463619 -0.446778 0.481398 0.183214 -0.171233 0.691027 0.157570 -0.528184 -0.182428 0.416821 0.525137 0.277882 -0.639898 
0.046929 -0.692881 -0.035088 0.535399 0.469750 0.836921 -0.795977 -0.634659 -0.446215 0.527684 -0.243485 0.037067 -0.589612 -0.383846 0.593715 0.919809 -0.585756 -0.938073 -0.899209 0.011917 -0.339356 -0.550465 -0.118488 0.700568 0.223217 -0.850770 -0.524350 0.732935 -0.523800 0.034317 -0.419955 0.302856 -0.265054 -0.299975 0.859805 -0.626298 -0.570598 0.856893 -1.021615 0.365100 0.524541 0.060672 0.146115 -0.502179 1.135756 0.636277 0.025039 0.248108 -0.359408 -0.680314 -0.810069 -0.413852 -0.548789 -0.574247 0.459653 1.094342 0.351652 1.106540 1.480316 0.470542 -0.400504 0.149318 0.329583 -0.223008 0.677962 
-0.133635 0.611161 0.790706 0.469554 0.075220 -0.121319 0.271301 -0.805509 0.994396 -1.023181 0.363415 -0.119852 -0.372889 0.536382 -0.265303 -0.736018 0.148202 0.652038 -0.130912 0.524198 -0.217896 -0.562697 -0.150814 -0.719767 0.854618 0.101403 -0.592696 0.551400 -0.195874 0.576393 -0.031917 -0.686821 0.665520 -0.631162 -0.237239 -0.523751 -0.001540 -0.875894 0.634015 0.183864 -0.679192 0.643320 -0.044312 -0.828203 -0.464025 -0.257554 0.624421 0.550453 -0.799103 0.247911 0.364843 -1.033438 -0.185580 0.213038 0.307484 -0.406869 0.340202 0.865211 -0.060391 0.322110 -1.200811 0.854594 0.882375 -0.560822 0.612949 
0.794138 -0.808047 1.142081 -0.201983 0.446045 -0.899940 -0.274628 -1.047404 -0.868259 -0.679721 0.209491 0.285624 -0.166932 0.699963 0.971834 0.289190 -0.904308 -0.467169 -0.037667 0.599582 -0.566052 -0.439102 0.219006 0.281789 0.668321 -0.260024 0.147100 -0.766284 0.299585 -0.086616 0.530470 -0.742714 0.021593 0.068596 0.952753 -0.202026 -0.512345 0.603402 -0.060078 -0.921933 -0.216416 -0.764675 0.020158 -0.343900 -0.924468 0.695409 -0.843838 -0.045459 0.896013 0.485291 0.842444 0.241202 -0.679332 0.679692 -1.181482 -0.040868 0.785538 0.632450 -0.114093 -1.066338 -0.848782 0.695319 0.216936 -0.108427 0.114499 
0.530389 0.446471 -0.696280 -0.697515 0.890275 -1.176099 -0.328387 0.382533 -0.666153 0.199829 0.015199 -0.128133 -0.425889 0.305639 -0.468462 -0.789446 -0.057956 0.124090 -0.269023 0.168506 0.777761 -0.893840 -0.736571 -0.113536 0.582998 1.436889 -0.540609 -0.882010 0.608279 0.421757 0.468145 0.193292 -0.896384 -0.253495 -0.501633 -0.540773 -0.901823 0.030153 0.401251 -0.891594 0.557952 -0.408139 0.874591 -0.597402 0.651508 -1.007972 -0.262418 0.561614 0.736283 -0.577255 -0.575368 0.408081 -1.082338 0.663317 0.594076 0.368742 -0.558347 -0.829941 0.532510 -0.044821 -0.632960 0.428352 -0.847885 -1.084345 -0.199017 
-1.041851 -0.227530 0.107089 -0.890732 -0.885815 0.002162 0.591457 -0.544129 -0.459086 -0.295903 0.397184 -0.319462 0.188574 0.216584 -0.807082 0.328396 -0.664397 0.437006 1.124632 0.177962 -0.429026 0.963349 -0.502120 -0.406475 0.607265 0.315536 0.184732 -0.807282 -0.419715 -0.450681 0.091572 -0.001287 -0.835583 -0.425818 0.913728 0.854792 0.695323 -0.603755 0.122954 -0.219616 0.690527 0.375609 0.210896 -0.731849 -0.361715 -0.832238 -0.523794 -0.129389 -0.892604 -0.234873 -0.615177 0.318723 -0.598130 0.938191 -0.540473 0.357329 -0.177325 -0.913890 0.848143 -0.926635 -1.069423 0.546667 0.229969 -0.291178 -0.604084 
-0.537789 0.911960 -0.507715 0.781068 1.048740 -0.605134 -0.677191 -0.571009 0.125925 -0.956735 0.373828 0.707194 0.259288 -0.279047 1.152717 -0.046899 -0.276489 -0.638460 -0.398296 0.006339 0.300821 0.383443 0.244372 -0.804480 0.686983 -0.543410 -0.365487 0.115756 -0.537003 0.461666 -0.526672 -0.114722 -0.566222 1.162842 0.807139 0.782750 0.759239 -0.629263 0.464174 0.808934 -0.688927 0.854332 -0.597857 -0.102039 0.320983 0.259006 0.004514 -0.140843 0.932744 -0.132282 -0.122809 -0.034069 -0.041922 -0.450137 -0.729189 1.217281 -0.849185 -0.425140 -0.216006 -0.833706 1.145538 0.153204 -0.116126 -1.334574 0.609135 
0.818854 -0.157092 -0.465775 0.881216 -0.890451 0.721127 0.151088 -1.023046 -0.937920 0.983923 0.630825 -0.455233 0.188300 0.003937 -0.092350 0.121803 0.854429 -0.507763 -0.259676 -0.117191 0.374438 -0.147432 0.405611 -0.713342 -0.498337 -0.514588 -0.657076 0.766559 0.920657 0.445846 -0.946038 0.237979 -0.546175 0.851294 -0.184325 0.332712 0.588259 0.375801 -0.370001 -0.703069 0.008618 -0.623827 -0.380104 0.993641 0.879456 0.451554 0.718409 0.700646 0.011861 -0.750800 0.255553 -0.432265 -1.003312 -0.316993 -0.673566 0.098024 0.026336 -0.532558 0.655511 -0.364832 0.653160 0.770036 -0.250722 0.030839 -0.220731 
-0.947444 1.257195 -1.305257 0.934727 0.870543 -0.342829 0.118123 0.291632 0.358274 -0.258552 -0.971805 -0.433710 -0.515154 -1.106847 -0.759841 -0.846035 -0.050491 0.964516 -0.624021 0.706944 -0.965054 -0.703733 -0.928303 0.653312 0.405879 0.088475 0.225009 0.666380 -0.692236 1.059943 -0.740714 0.661014 -0.085027 1.170277 -0.420442 0.428564 0.353929 0.692885 -1.088124 -0.894982 -0.792759 -0.587347 -0.357589 0.032131 -0.344023 -1.187451 0.315280 1.022630 -0.879602 0.007162 -0.263788 0.057525 0.276401 -0.730524 0.451010 -0.698531 0.906751 0.651300 0.657908 -0.381180 -0.804098 -0.154926 -1.110118 0.413064 -0.993151 
0.492758 -0.198967 -1.040998 0.719532 -0.140254 0.495162 0.802335 -0.716671 0.043812 0.154249 0.932841 -0.285149 -0.226921 0.718792 0.649333 -1.087020 0.822378 -0.498479 0.695775 -0.113752 0.239980 0.352804 0.375747 -0.955198 -0.539320 0.645721 -0.422780 0.434079 -0.256856 -0.272116 0.951641 1.064768 0.840026 -0.473712 -0.442725 -0.242409 0.490517 -0.654550 -1.566718 0.007899 0.709216 -0.161355 0.464615 0.205746 0.378460 -0.878481 0.180490 0.305731 0.217945 0.608584 0.120160 0.503877 0.907723 -0.789134 -0.590461 0.214820 0.320281 0.215847 0.273071 -0.220383 0.603726 0.093917 0.796761 0.332701 -0.521638 
-0.769560 0.804336 0.302105 0.328132 0.743732 -0.810537 0.789459 0.493346 -1.596116 0.521706 0.034873 0.258425 0.367354 0.297417 -0.005159 -0.308628 0.182943 -0.961154 -0.069591 0.309150 -0.284875 0.544616 0.989826 -0.899303 -0.011756 0.089072 0.971498 -0.519673 1.097625 -0.184363 1.114560 0.473646 0.753374 -0.825498 0.879941 -0.336055 -0.393776 -0.997409 -0.468232 -0.439687 -0.709243 -0.583264 -0.740845 -0.253200 -0.798815 -0.601553 0.049493 -0.188708 0.330657 0.906413 0.077684 0.722873 0.829040 -0.564756 -0.447691 0.050173 0.376868 0.312444 0.104469 -0.327523 0.609250 -0.399182 -1.035720 0.065802 -0.829366 
-0.042403 0.595090 -0.430189 0.635161 -0.684054 -0.667848 0.716937 -0.644750 -1.240671 -0.018205 -0.459327 -0.746701 0.443598 0.549636 -0.764087 0.403772 -0.656275 -0.187889 0.404968 0.799794 -1.000768 -1.039103 0.959696 0.243194 0.592852 0.679549 0.857663 -0.688668 -0.616615 0.453992 -0.653111 -0.092006 0.813822 0.675667 0.467279 -0.675226 -0.486986 -0.926774 -1.269005 0.693492 -0.091620 0.530551 0.602677 -0.470878 0.621995 0.327065 1.173874 0.277301 0.989697 0.336576 -0.153950 -0.818506 0.575167 0.792402 -0.575301 0.913405 -0.874416 0.360032 -0.997248 0.919202 0.086589 0.434960 -1.104819 1.636148 0.591707 
-0.789089 0.475321 -0.506374 0.814606 -0.818696 0.123371 0.924013 -0.286422 0.385045 0.589666 0.056700 0.837309 -0.016579 0.531267 -0.696041 0.446132 -0.060160 -0.036977 0.940811 0.133518 1.087108 -0.042991 -0.740468 -0.727144 -0.494818 -0.004870 0.694148 0.605979 0.070832 -0.060152 -1.028805 0.025757 -0.038815 -0.543022 -0.484561 -0.825650 -0.357265 -0.011000 0.442671 0.357706 -0.882638 0.801478 0.147531 -0.420365 -0.309808 -0.614724 0.720200 0.204209 -0.611491 -1.045941 -0.388327 -0.033342 0.626702 0.802371 0.986496 0.540686 0.438891 0.519629 -0.076287 0.860350 0.435641 -0.430960 -0.565743 -0.484125 -0.191974 
0.740255 -0.592691 -0.218999 -0.807268 0.888239 -0.198996 0.114115 0.934310 -0.656448 -0.142016 -0.677636 -0.367971 -0.312217 -0.301285 -0.596947 0.319305 -0.245890 0.317526 0.853662 -0.322973 -0.522087 -0.505298 -0.477800 0.447322 0.525861 -0.980163 0.819888 -0.904751 0.272742 -0.582379 0.126223 -0.209729 0.583244 -1.222998 -0.507794 0.429731 0.737362 0.334998 0.071875 0.367631 0.629704 -0.068918 -0.673980 0.561722 0.287237 0.179951 0.787688 0.276862 0.739981 0.859799 -1.526834 1.037597 0.911952 -0.725639 -0.528417 -0.129987 0.341125 -0.294000 0.777746 0.215046 0.711706 -0.696098 0.124300 -0.578466 0.238377 
0.918648 -0.737159 -0.329036 0.413213 -0.652510 -0.234548 0.334451 -1.012938 -0.593428 -0.330138 0.367606 -0.387119 -0.809685 0.788950 0.767419 -0.705653 0.151264 0.443686 1.200909 -0.153920 0.747381 -0.615137 -1.122807 0.779664 -0.790778 -0.152241 0.528864 -0.227813 0.236455 -0.159088 0.567276 -0.211289 -0.342131 -0.384139 -0.198207 -0.281959 -0.419523 0.066070 0.309348 -0.707438 -0.005026 0.833929 0.948384 0.901144 0.596678 -0.644184 -0.134529 -0.810023 0.996082 0.930676 -0.707216 0.596102 0.273413 0.037768 0.422745 -0.704872 -0.678447 1.286974 -0.082752 0.367671 -0.428577 -0.157996 1.045489 -0.471239 -0.762974 
-0.006753 -0.166282 0.567070 -0.030645 0.652403 0.277516 0.464236 -1.145895 0.041175 0.211711 -0.554477 0.400214 0.314285 0.794896 0.128803 0.579422 0.159189 0.327582 -0.102117 0.788081 0.479259 -0.549596 -0.228873 0.540297 0.391938 0.027820 -0.190872 -0.884030 -0.322177 0.803185 0.342391 1.004109 -0.669307 -0.793818 -0.216842 0.396874 0.029120 0.062759 0.689437 0.170665 0.101991 -0.766884 0.343433 0.604164 -0.590933 0.650438 1.102876 -0.874045 -0.346040 0.681556 -0.790923 0.528972 0.288413 -0.212907 -0.792149 0.782605 0.815100 -0.623864 -1.404823 0.856035 -0.153043 0.657228 0.843357 0.193654 -0.705233 
1.223109 0.746251 1.112116 0.787345 -0.472475 -0.654156 -0.457484 0.666291 -0.248816 0.078440 0.319395 -0.413016 1.128653 -0.608351 0.507015 0.402580 0.429765 -0.180507 -1.207668 0.670164 -0.328578 0.798678 0.455193 0.316139 0.211329 0.537627 0.057647 -0.301710 0.662563 -0.032566 0.571254 0.518491 0.491142 -0.792865 0.271551 -0.905972 0.077912 0.876673 -0.065302 -0.853840 0.793402 0.613255 -0.476589 0.763055 0.530273 0.713489 0.798222 -0.651602 0.339103 -0.357923 -1.219041 0.370789 -0.518414 -0.193666 -0.610070 0.454579 0.992397 -0.482789 -0.539398 0.105804 0.394430 0.216923 0.311609 -0.286430 -0.425060 
-0.893909 -0.664576 0.007553 -0.369962 0.647637 1.134078 0.152008 -0.693654 0.187743 -0.174299 -0.451706 -0.221023 -0.767866 -0.838097 0.331231 0.607266 -0.344858 0.177551 -1.025261 0.460041 0.121179 0.700291 -0.918365 0.966283 -1.227309 0.792677 0.412550 0.426740 -0.398257 1.412953 -0.540227 -0.091070 0.075175 0.217822 -0.157285 -0.214398 -0.466461 -0.005662 -0.549535 -0.188972 0.888438 -0.904752 0.657121 -0.454894 0.638172 0.035946 0.575947 -0.571662 0.913742 -0.143035 0.839618 -0.436446 0.133533 -0.488088 0.033883 0.137839 -0.580126 -0.941624 0.226674 -0.822708 0.380847 -0.211499 -0.102233 0.438508 -0.857174 
0.866316 0.471660 0.592688 -0.849614 0.585762 -0.156130 0.911939 -0.989078 -0.216044 0.157052 -0.265547 -0.509759 -1.232830 -0.977783 -0.013655 -0.169090 0.408071 -0.535539 -0.480528 -0.401849 -0.666946 -0.038635 -1.126376 -0.222024 0.548849 -0.579115 0.937563 0.065545 0.359128 0.809676 -0.586929 0.904384 0.399686 0.726399 0.012987 0.196460 0.351524 -0.991606 -0.111210 -1.867337 0.364075 -0.881994 -0.413293 0.397058 0.386323 -0.522431 -0.914498 0.507618 0.237675 -0.948961 0.257611 1.156269 -0.610972 0.378279 0.767848 -0.548960 -0.485681 0.211367 -0.013884 0.123834 -0.652155 -0.429222 -0.212740 -0.179899 -0.658400 
0.049664 -0.744775 0.921026 0.971170 0.768483 -0.862626 0.745979 0.512991 1.110843 -0.544435 1.055261 0.028765 -0.038259 0.860394 -0.330840 0.779158 0.307439 -0.215952 0.700290 -0.666282 0.253249 -0.822182 0.786961 -0.272430 0.710874 0.712322 -1.006122 0.075316 0.443257 0.705416 -0.744874 0.214167 0.789357 0.551106 1.155965 -0.520323 0.844944 -0.608040 0.435201 -1.234686 0.932934 -0.063504 1.038609 -0.786712 -0.158319 0.895646 1.133194 -0.893945 -0.667741 -0.104528 0.384800 0.157206 -0.908884 0.394006 0.318612 1.129555 0.900232 0.363373 0.343793 0.265706 0.215671 0.578436 0.510183 -0.288954 0.136648 
0.135819 -0.261179 -0.245825 -0.632797 0.081858 0.868587 0.181600 -0.799165 -0.025794 -0.108285 0.016071 0.018063 1.112154 0.377107 -0.901015 -0.769472 0.562147 -0.814733 -0.559160 -0.599199 -0.883196 -0.750001 0.301627 0.786961 0.093133 0.732871 0.650104 0.527198 0.229943 0.291370 -0.978502 0.933962 -0.689411 -0.233850 0.325456 -0.045035 0.441284 0.521615 -0.153322 -0.641144 -0.246208 -0.219184 0.911568 -0.366728 0.629945 0.930952 0.522225 0.892274 -0.477867 0.156684 -0.240068 -0.915926 0.394575 0.333521 -0.915051 0.158854 0.266818 -0.926211 -0.794621 -0.127342 0.214043 -0.806022 0.594330 -1.208796 0.119961 
0.854526 -0.616635 -0.233967 -0.309389 0.529827 -0.119924 -0.800454 0.344061 -0.786600 -0.199706 0.808177 -0.588943 0.401475 -1.011133 0.761511 -0.408052 -0.376899 -0.691919 0.806909 -0.628900 -0.751785 0.087537 0.229612 -0.900416 0.706537 -0.492714 0.576900 -0.902370 0.290861 0.865089 0.094017 0.182064 -1.146584 0.256393 0.434109 -0.017300 0.740840 0.896310 0.939582 0.583682 -0.983248 0.594594 0.615711 -0.485543 0.058743 0.586439 0.138675 0.769360 -0.393216 0.249793 0.526428 -0.431935 0.339517 -0.611799 0.353887 0.716957 -0.639901 -0.787648 0.194533 0.261812 -0.984464 0.141900 0.087140 -0.180375 -0.520932 
0.808779 -0.151506 -0.884748 0.370434 -0.585216 -0.077853 0.987068 0.186637 -0.245857 -0.762483 0.294122 0.442215 0.625756 0.076790 0.562097 -1.128537 0.973999 0.770786 0.910854 0.064618 0.902277 0.387346 0.497729 0.567944 -0.873331 -0.571572 -0.280105 1.028251 0.822027 0.602174 -0.259756 -0.211681 -0.482257 -0.588585 0.235131 -0.771063 0.382926 -0.697128 0.866687 -0.496574 0.195472 0.113128 -0.772326 -0.611715 0.153415 0.756974 -0.846536 -0.409826 0.945613 -0.705337 -0.194340 0.628157 -1.065946 0.831216 0.536456 0.104001 -0.729585 -0.995768 0.474863 -1.022364 0.292223 0.100989 -1.232296 0.174084 -0.613284 
1.153573 -0.590601 -0.445505 -0.243744 0.002498 -0.359674 0.840510 -0.434949 1.120316 0.040179 -0.505994 0.366450 -0.501588 1.008059 0.279791 -0.176400 0.151709 -1.019917 -0.817150 -0.418230 -1.089385 1.341400 0.210142 0.028151 0.217735 -0.305334 -0.585992 0.921513 -0.829078 0.620223 0.321725 0.216964 -0.097031 0.246408 0.825946 0.293584 -0.473737 -0.834363 -0.821553 -0.307107 0.253370 -0.720043 -0.674721 -0.653654 -0.272202 -0.221438 0.262601 0.033075 -0.865148 0.019821 -0.707426 0.980127 0.099946 -0.972077 0.578155 0.205888 0.548124 -0.895373 0.913394 0.601477 -0.547477 -0.196729 0.911818 0.394869 0.485449 
0.250771 0.425459 0.036444 1.000067 0.308095 0.736125 0.894639 0.628359 -0.723903 -0.067891 1.040599 0.359056 -0.145964 -0.944459 0.262053 -0.199557 -0.298657 -0.173727 0.052556 -0.806921 0.856261 1.173171 -0.990786 -0.802342 -0.939712 -0.430510 0.436947 -0.004185 -0.659579 -0.248503 0.341165 -0.555234 -1.003827 0.140156 -0.643717 0.510708 0.639914 -0.025169 -0.727899 0.163800 -0.958546 0.193218 0.444346 -0.983893 -0.733854 -1.031914 0.149429 0.384035 0.058694 0.778591 -0.460054 -0.677954 0.256249 0.371527 -0.140318 0.752813 -0.997973 -0.832076 1.059325 0.840842 -0.069005 -0.208939 0.087711 0.154362 -0.329257 
0.625094 -0.000522 -0.881436 0.731314 -0.626818 -1.262360 0.298218 0.571420 -0.165639 -0.109450 -0.572777 0.463010 0.146953 0.458540 0.812291 0.618510 -0.199354 0.477536 -0.481331 -0.229046 -0.890459 0.767518 -0.088567 -0.086771 -0.934141 -0.353276 -0.910836 1.297383 0.404936 0.755841 0.001477 -0.999466 0.186123 -0.326740 0.301390 0.304162 -0.363770 -0.116193 -0.399778 0.025296 -0.750296 -0.183727 -0.757988 -0.436647 0.650122 -0.823234 -0.425840 -0.616395 0.074545 0.473573 -0.560015 0.480372 -0.251898 -0.080184 -0.553016 -0.800347 0.203835 0.745933 0.160721 0.105095 -0.009066 0.332432 -0.714458 0.126477 -0.243250 
0.340812 0.250407 0.868106 0.275926 -0.922310 0.772518 0.268531 -0.704530 0.636214 -0.173934 0.326363 -0.661267 -0.301411 -0.222694 0.827994 -0.489401 -0.291265 0.632469 -0.205801 1.041379 -0.379392 0.673706 -0.488875 -0.609880 -0.119539 0.083600 0.328815 -0.240476 0.546478 -1.272863 0.285524 -0.289388 -0.274854 0.763789 -0.675299 -0.123294 0.576898 -0.324295 0.364054 0.937528 -0.394582 -0.911394 0.089866 -0.049240 -0.586668 -0.457746 -0.611639 0.532872 -0.863704 0.537594 0.147644 -0.122767 -0.843902 0.309399 -0.127992 -0.584068 -0.282870 0.796845 0.962833 -0.350434 0.202078 0.796298 0.531881 -0.291926 0.468938 
0.209497 0.094606 -1.066077 0.322963 0.722346 0.071150 0.509259 -0.226803 -0.411004 -0.167359 -0.614629 -0.002945 0.333087 -0.884677 -0.262322 0.339810 -0.311701 -1.066672 0.611273 -0.346149 -0.183256 -0.350615 -0.631364 0.588801 0.886181 -1.104595 -0.978737 0.036466 0.500323 -0.621233 -0.527949 0.067574 0.642453 0.273618 -0.764182 -0.804617 0.784867 0.766351 0.790063 -0.288369 0.049673 -0.605908 0.301215 -0.314813 0.029014 -0.049392 0.937870 -0.305333 0.467035 0.367440 -0.855229 -0.215293 0.433128 -0.712605 0.748147 -0.937849 -0.298417 0.942690 0.630446 -0.920286 0.487561 -0.257181 -1.085741 -0.398481 0.171391 
1.068133 -0.082554 0.750959 0.766280 -0.872642 0.578327 0.120930 0.919488 -0.195429 0.756158 -0.721044 -0.695582 0.203804 0.624020 -0.515611 -1.081865 0.293816 -0.085649 -0.174580 0.105768 -0.177525 0.815311 0.826122 0.057003 0.808096 0.238002 0.143710 0.714242 -0.443011 -0.710575 -0.739958 1.012786 -0.414240 -0.553933 -0.238797 0.208343 0.465847 0.499522 0.725332 0.039313 -0.252795 -0.270608 0.941033 -0.763146 -0.119154 0.960799 -0.296542 0.955064 0.503011 0.579029 0.328570 0.646367 -1.042776 -0.596960 0.482493 -0.858940 0.503625 -0.039856 -0.784439 -0.888571 0.695928 -0.431502 -0.963729 -0.373807 -0.575322 
-0.336055 0.244360 0.524516 0.619008 -0.175046 -0.445280 -0.788157 -0.626681 -0.223790 0.542440 0.100649 0.527591 -0.665547 0.076362 -0.528016 0.314317 0.856982 0.263816 -0.149654 0.323353 0.937531 -0.344352 0.495964 -0.461430 -1.080962 -1.036411 0.118127 -0.786656 -0.857348 -0.750836 -0.133577 -0.040122 0.773066 0.637515 -0.644526 -0.507978 -0.555415 0.457539 0.380210 -0.824562 -0.447689 -0.328009 0.510097 0.118677 0.435232 -0.832505 -0.463338 0.223497 0.293381 -0.772446 0.600694 0.042035 -0.095062 -0.022825 -0.651891 0.224516 -0.802453 0.543015 0.340431 -0.269137 -0.298302 -0.417834 -0.270898 0.731564 0.571412 
0.849611 0.794506 0.922857 -0.472151 1.125086 -0.113577 -0.858453 0.788891 -0.051693 0.003577 0.598519 -0.575874 0.729417 0.883905 0.869909 -0.969792 0.076133 0.203963 0.295394 -0.029617 0.404313 0.664459 -0.813763 -0.959940 0.378663 -0.323953 -0.197461 1.000538 -0.226898 -0.954774 -0.666258 0.749759 -0.101692 -0.928840 0.467524 0.587082 0.528902 0.200129 0.381493 1.265240 -0.640747 -0.762522 -0.849145 0.322390 0.355745 0.923696 0.748495 0.651432 0.513717 -0.127960 -0.135329 0.728829 0.196287 -0.572574 0.582200 -0.752917 0.066217 0.608531 0.518428 -0.184641 0.162436 0.680381 0.383759 0.157958 0.920586 
-0.431057 0.045185 0.557062 -0.790007 -1.004000 -1.281336 0.419619 1.293463 0.631885 -1.030840 -0.010435 -0.848960 -0.466714 0.360650 -0.555195 0.853919 0.639410 -0.602755 0.442345 -0.269801 -0.620444 -0.065826 0.810894 0.359100 -0.481119 0.159410 0.649537 -0.126876 0.646529 0.441054 0.257182 0.101242 -0.455033 0.883395 0.393007 -0.077956 -0.638359 0.157281 0.330364 -0.780334 0.546981 0.662681 0.405134 0.164127 1.020521 0.439773 0.241929 0.209812 -0.338141 -0.503591 0.199500 -0.365010 1.172564 -0.469323 -0.408087 0.928581 0.761324 0.476127 0.740730 0.286193 0.668781 -0.259716 -0.973117 -0.158449 0.756678 
-0.613978 0.122839 0.065502 0.813887 0.825285 0.575820 -0.002045 0.258757 -0.154695 -0.987836 0.421216 0.192799 -0.179557 0.394711 0.486655 -0.002639 -0.550319 0.673647 0.262780 0.324423 0.320321 0.473964 -0.047322 0.680463 0.194834 -0.909929 0.895378 0.044922 0.983223 0.964905 -1.106260 -0.192261 -0.899004 0.520265 -0.475534 -0.399933 -0.650219 -0.697348 0.343185 -0.707786 0.607099 0.875363 -0.689702 0.897511 0.317015 0.774047 0.025467 0.034846 0.809066 -0.547216 -0.490859 1.036909 -0.404160 -0.534786 0.766367 0.425287 0.797028 0.471608 -0.399732 -0.929774 -0.081345 0.087024 0.157960 -0.911175 -0.776203 
-0.096695 1.144624 0.189350 -0.917891 -0.285775 -0.726155 -0.441594 0.345081 0.567169 0.932129 0.198946 0.299202 0.241509 -0.690612 0.540341 1.124935 -0.032731 -0.891255 0.303680 -0.345341 0.518571 -0.314703 -0.838788 -0.113597 0.840342 0.403466 0.428283 1.025067 0.278337 -0.064657 -0.519352 0.188344 1.002402 0.930076 0.718371 0.480538 0.192462 -0.392091 -0.129081 0.212660 -0.707774 0.249148 -0.550298 1.081522 -0.336505 -0.517554 -0.286209 -1.122906 0.719564 0.486622 -1.172175 0.015433 0.240739 -0.895352 -0.642899 0.589413 0.116866 0.624664 -0.488371 0.733772 -0.130441 -0.691976 0.723154 0.424796 1.172821 
-0.048135 -0.496602 0.982646 -0.697671 -0.078878 -0.420820 -0.636475 -0.542963 -0.930398 -0.470513 0.535913 0.489357 -0.075361 -0.207173 -1.040166 -0.157148 -0.314510 0.599589 -0.399486 -0.211275 -0.309321 -0.779021 0.952675 -1.143714 -0.828079 -0.885611 -0.794214 0.127746 0.959350 0.592925 0.919835 0.291862 -0.565910 -0.211706 0.243336 -0.765744 0.121936 0.625129 0.820340 0.052676 -0.914602 -0.234633 0.186366 0.405680 -0.541623 0.509408 0.628166 0.703705 0.017530 0.279198 0.861805 -0.346767 0.571911 -0.596852 -0.493557 -0.339114 0.061527 0.640793 -1.065604 0.530260 -1.054063 0.452111 -0.320312 0.412522 -0.058696 
-0.995231 -0.796698 -0.804798 -0.226784 0.031604 -0.174203 0.038423 0.325472 -0.794348 -0.425222 0.891470 0.787209 0.075269 0.615203 0.198947 0.553366 -0.231313 -0.765648 0.532046 -0.094833 -0.363879 -0.675027 0.294316 -1.047373 0.921441 -0.442544 -0.706543 -0.552234 -0.741567 -0.064508 1.022541 -0.352542 0.511134 0.151346 0.983740 0.338510 -0.415377 0.323636 -0.321771 0.210702 0.617565 -0.901038 0.337106 -0.636119 0.586431 -0.039873 0.004987 0.811588 0.270055 -0.488645 0.617378 -0.060995 0.891487 1.055100 0.474377 0.601679 -0.890743 0.847423 -0.716792 -0.247121 0.089216 -0.856291 -0.694649 -0.026277 0.389465 
0.058551 0.991627 0.853354 -0.462593 0.452546 -0.448557 -0.178438 0.108037 -0.536598 0.779497 0.045802 -0.750152 -0.485262 -0.736703 -0.213007 0.116439 0.942182 -0.521258 0.575962 0.367217 0.415863 -0.572077 -0.671163 0.732905 -0.739733 -0.158357 0.680740 0.101249 -0.502458 -0.371122 0.810244 -1.128942 0.402966 0.707273 0.082957 -0.839162 -0.000942 -0.855436 0.089265 0.711023 -1.109920 0.457576 -0.850925 -0.383350 0.383432 1.161304 0.315765 0.828776 0.527104 -0.504320 -0.543240 -0.105652 1.008794 -0.408934 0.322841 -0.707048 -0.859248 0.633702 -0.608967 0.524386 0.598305 0.459034 -0.246944 0.268344 0.339536 
0.323890 -0.397792 -1.004263 -0.938129 0.012304 -0.693109 0.405316 -0.558316 0.626691 -0.598037 0.550003 -0.443139 0.717692 -0.772058 -0.209522 0.253387 0.119634 0.870116 -0.637986 -1.158083 -0.663934 1.091484 0.130692 0.068635 0.923864 -0.596919 0.620670 0.562232 -0.236792 -0.456605 0.488329 0.116561 0.933479 -0.537682 -0.240619 0.469005 -0.046415 0.134203 0.562367 0.025772 0.482678 0.932321 0.698448 0.194422 0.475182 0.860749 0.321078 0.129160 0.948750 0.498123 0.025055 -0.401789 0.021737 0.790080 0.521106 -0.420993 0.396899 0.638672 0.168169 0.533796 0.592475 -0.310294 0.104343 0.353466 -0.632416 
0.453690 -0.317252 0.558783 0.629543 0.061619 0.660509 1.008608 0.164181 -0.382377 0.408476 0.267743 -0.077379 0.309314 0.741471 -0.948741 0.078519 -0.290045 0.939197 0.328976 -0.418309 0.868552 0.158452 0.470808 -0.828583 -0.137008 -0.877379 -0.016207 -0.134346 0.065249 1.205701 0.029485 -0.861987 0.696877 0.979391 0.131482 -0.493693 0.335154 0.102185 -0.662630 0.057279 0.622833 0.107925 -0.241919 0.952384 0.915325 -0.058079 0.183716 -0.213678 0.246403 0.198709 -0.936901 0.022516 -0.232613 0.227975 -0.101800 -0.492857 0.030010 -0.874380 0.686914 0.246828 -1.222084 0.663184 -0.016415 0.471493 0.165898 
-1.080777 -0.552136 0.369068 0.984580 -1.190086 0.799753 0.326539 -0.137512 -0.423241 -0.190578 -0.688015 -0.400150 0.525187 0.509797 -0.554724 0.204338 0.475096 0.200287 0.616341 0.386211 -0.916398 -0.461164 -0.446077 -1.090477 -0.604257 -0.261124 0.528063 -0.408176 -0.342758 0.721518 0.049236 0.149929 0.548470 0.956530 0.494997 -0.944240 -1.006448 0.402784 0.617983 -0.185594 0.822380 -0.924699 0.010840 0.558582 -0.139789 -1.049255 0.872420 -0.234714 0.242860 0.448748 -0.215431 -1.023656 -0.649749 0.014805 -1.169659 -0.848575 -0.330859 0.433345 0.140951 -0.906322 0.006900 0.534449 0.024372 -0.645020 -0.595244 
-0.395256 1.044295 0.143524 0.898955 0.685314 0.261229 0.023051 -0.374219 -0.221347 -0.983810 0.179417 0.835296 1.393271 -0.514617 -0.381633 -0.442933 0.335986 -0.844431 -0.335625 -0.804074 -0.554328 -0.211126 0.275743 -0.767490 0.403564 0.723919 -0.184223 -0.659950 -0.695652 0.558516 0.522517 -0.951486 -0.164633 1.017278 0.276603 0.386944 0.242922 0.118090 -0.608416 -0.599399 0.820630 0.328679 1.026479 -0.251235 0.050761 -0.594773 -0.308203 -0.563208 -0.780914 -0.330057 -0.449323 -0.279092 -0.201579 0.442113 -0.293898 -0.935817 -0.136131 -0.054454 0.967361 0.496212 -0.776865 0.452574 0.637891 0.387727 -0.193303 
-0.771794 -0.789259 -0.767427 0.810763 0.752561 -0.948269 0.208917 -0.000526 -0.411306 -0.233943 -0.496859 -0.654151 -0.432556 0.837506 -0.696442 -0.967130 0.893111 -0.358010 0.526332 0.315420 0.562524 0.562524 -0.114403 0.934661 0.822637 0.389375 -0.566170 -0.518030 -0.827815 0.641844 0.813241 0.428945 0.703665 0.003071 -0.569977 -0.829067 0.819900 0.140751 0.786615 0.451877 1.019485 0.676605 -0.895634 -0.684357 0.353588 -1.185661 0.269454 -0.221917 -0.001457 0.543068 -0.013897 0.692924 -0.684362 0.672413 0.810127 0.648897 0.344218 -0.491623 0.862538 -0.277145 0.109660 0.403971 0.567969 -0.607908 -0.882385 
-0.610462 -0.221862 -0.024070 0.244748 -0.502567 0.717390 0.784234 -0.057264 -0.859045 -0.063307 -0.218021 0.554946 0.209292 0.943435 0.412228 -0.673556 0.310583 -0.892133 -0.387546 -0.652977 0.345215 0.670965 0.702619 -0.194175 1.046372 -0.693631 0.187232 0.154197 -0.118285 -0.839744 0.741905 -1.035671 0.029663 0.120592 0.530010 1.043470 -0.104614 -0.972654 -0.004662 -0.619887 -0.640745 -0.485784 0.089051 -0.703283 0.231577 -1.190264 -0.050437 -0.443666 -0.733204 -0.722555 -0.614736 -0.321909 -0.200912 -0.577797 0.717264 -0.128361 -0.016208 -0.386968 -0.800891 0.067196 -0.631499 -0.176010 0.190152 0.998390 0.718263 
-0.639172 0.564126 -0.431652 0.737033 -0.090377 0.961200 -0.570803 0.075193 1.265370 -0.566792 -0.062050 -0.719979 0.799151 0.429553 -0.137947 -1.399389 -0.879820 0.580038 -0.142529 -0.563385 1.059279 0.512691 0.357914 0.247555 -0.094437 0.878703 -0.375376 -0.643139 -0.081038 -1.456052 1.019624 0.105947 -0.718837 -0.269546 0.774674 1.068278 0.555149 0.254657 1.118826 0.277025 1.058377 0.055830 -0.642977 -0.307795 -0.117904 0.497661 -0.534977 0.346557 0.689408 -0.921119 -0.625980 0.162645 -0.379163 0.756816 0.301938 -0.886751 0.504893 0.071809 0.625649 0.097183 -0.033462 -0.466636 0.712206 0.390863 0.121024 
0.602708 0.160104 -0.818961 0.989054 -0.304302 -0.343483 -0.450157 1.185897 0.282012 0.209199 -0.877139 -0.571258 -0.866860 0.325242 -0.629957 0.781270 0.447218 -0.211326 -0.458235 0.801300 0.392582 0.775676 -0.195234 0.721695 -0.482953 0.338672 -0.190943 -0.803094 -0.319274 -1.049750 0.362110 -1.001608 0.379961 -0.104754 -0.119971 0.742430 -0.528596 -0.857209 -0.558070 -0.077527 -0.462323 0.258408 0.929324 -0.262526 0.070733 1.163254 0.430563 -0.681471 -0.614828 -0.221188 0.457675 0.596086 -0.788738 -0.524477 1.035636 -0.274922 0.235524 -0.596078 0.255774 0.618194 0.623014 -0.171686 -0.497096 0.034837 -0.783486 
0.761631 -0.250728 0.877412 -0.312572 -0.596203 0.192831 -0.792378 1.055882 1.171607 0.147674 -0.894252 0.175414 1.361646 -0.845349 0.716977 -0.276194 0.502681 0.703765 0.725070 0.870160 0.133605 0.211094 1.030267 0.062322 -0.312398 0.022707 -0.627426 -0.570405 0.740467 -0.227504 -1.005380 -0.100618 -0.563049 -0.207246 0.647776 -0.588426 -0.744642 0.675339 -0.470844 -0.973382 -0.482614 0.056977 -0.392412 -0.414227 0.492523 -0.161451 1.145614 -0.301121 0.048911 -0.895707 0.399742 0.662529 0.421949 -0.302041 0.058962 -0.189342 0.635018 0.129639 -0.490121 0.451093 -0.535533 -0.057386 0.607695 -0.606769 -0.683855 
0.233905 0.662297 0.440085 -0.337731 0.472151 -0.323578 0.393263 0.690885 0.421203 0.133974 0.015957 -0.762923 0.255377 -0.938437 -0.405976 -0.753225 0.385797 -0.100488 0.548403 -0.367374 0.219261 0.250665 -0.078452 -0.323608 -0.336989 -0.282533 -0.486565 -0.290640 0.212635 0.344152 -0.938820 0.489098 -0.547746 -0.157875 -0.325760 -0.540627 -0.149068 -0.003552 -0.518728 0.144070 0.244213 0.635441 -0.218014 0.514815 0.002125 0.959777 -0.611272 -0.765192 0.521159 -0.013514 0.516024 0.492849 0.502577 0.469446 -0.383463 -0.278723 -0.196523 -0.664116 -0.680784 -0.729056 -0.663672 0.713672 0.609252 0.613632 -0.107172 
0.669193 -1.126099 0.225248 -0.625919 0.355849 1.330312 0.141703 0.497468 0.446208 -0.927886 -0.199971 -0.137099 0.837006 0.701720 0.505229 -0.724539 -0.355427 -0.760503 -0.948914 -0.111155 -0.517140 -0.213387 -0.359441 0.579275 -0.868340 -0.806729 -0.062972 -0.124072 -0.164715 -0.280346 0.181361 0.112819 -0.707640 0.075126 0.804680 -1.127730 -0.635398 -0.110956 -0.905438 -0.273134 0.532753 -0.256261 -0.230259 -0.681282 -0.695484 0.764491 -0.067482 -0.455153 -0.005830 0.397481 0.057892 0.741042 -0.680942 0.660342 0.864815 0.791996 -0.820003 0.192469 0.028808 -0.545158 -0.518441 0.446120 -0.841486 0.085103 0.446966 
0.069700 -0.714747 -0.742493 0.264570 0.743439 -0.287556 0.410940 -0.553332 0.936170 1.031981 -0.816875 -0.246798 0.489829 0.129459 0.780315 0.648600 0.556058 0.033921 0.678349 0.607382 0.845561 -0.090400 -0.036183 0.052674 -0.029763 -0.291803 -0.372364 -0.108051 0.716390 0.539971 0.664763 -0.265935 -0.561196 0.484298 -0.015811 -1.004060 -0.789578 -0.568966 -0.425386 -0.136746 0.591929 0.075791 0.136237 0.675392 -0.664105 -0.950418 -1.137933 0.465964 -0.836739 -0.286282 -1.604507 1.003051 0.553788 -0.371060 -1.375571 -0.659831 0.867151 -0.284999 -0.139028 -0.627552 0.212800 0.088999 0.363386 -1.043379 0.962914 
-0.223907 0.356131 -0.177850 0.060010 0.178890 -0.742726 0.541246 0.677436 -0.171094 -0.218372 -0.653947 -0.255296 0.336051 0.319545 0.069845 0.772707 -0.832939 0.088283 0.070510 -0.643511 -0.169814 0.718153 0.703822 0.973851 -0.080056 0.120253 -0.012704 0.943883 -0.779611 0.609860 0.658813 -0.365279 -0.217768 -0.285833 0.530124 0.144375 -0.712072 0.904671 -0.099536 0.145115 0.547507 -0.828336 0.303666 0.287057 -0.590985 0.106070 -0.127215 0.552394 -0.047728 -0.637492 0.343675 -0.353216 -0.830081 -0.675855 0.615160 -0.443390 -0.765195 -0.215422 -0.734892 0.005961 -0.046408 -0.750806 -0.223170 0.709620 0.316651 
0.140940 0.946119 0.641463 0.726435 0.119843 -0.192920 -0.584091 -0.776579 0.506815 0.652403 0.032137 -1.002025 1.047625 0.531235 0.047368 0.873740 -0.247439 -0.164330 -0.410624 -0.486223 -0.564139 -0.836086 -0.502343 0.548213 -0.582387 0.073497 0.441317 -1.076708 -0.314003 -0.016813 -0.553688 -0.159562 -0.606628 -0.620884 -0.655457 0.514154 -0.845390 -0.207837 -0.829560 0.280233 0.642060 -0.900770 -0.660844 -0.369095 -0.542933 -0.820640 -0.769884 0.225005 0.471829 0.706430 0.397965 0.469389 -0.417436 -0.381340 -1.189876 1.217745 -0.974281 -0.978476 -0.043494 0.486356 0.783383 0.355607 -0.186288 -1.121341 -0.479310 
-0.663022 -0.679322 -0.567364 0.240184 -0.270021 -0.076009 0.761403 -0.383108 0.783113 -0.308180 -0.035636 -0.429927 1.102469 -0.249520 -0.798804 -0.220072 0.288499 0.076504 -0.787658 0.781635 -0.963496 0.402515 1.071417 0.252657 -0.354706 -0.759676 0.314254 -0.718422 -0.708279 -0.315284 -0.719725 1.260135 0.297102 -0.809804 -0.600495 -0.736106 -0.037825 0.234375 -0.402656 0.461700 0.491141 -0.688982 -0.336555 0.035071 -0.378560 0.661276 -0.989179 0.070612 -0.150262 0.427067 0.680241 -0.337281 -0.601974 -0.699138 -0.660776 -0.511129 -0.755222 -0.211811 -0.497676 -0.113132 -0.192256 0.451280 -0.506102 0.182260 -0.420992 
0.683575 0.386955 -0.476738 -0.309051 -0.093966 -0.333424 0.332421 -0.780718 1.148144 -0.266141 -0.209697 0.312419 -0.231909 0.237849 -0.773896 -0.440654 -0.578750 -0.857817 -0.074215 -0.360765 0.624858 0.947933 1.356034 -0.085390 0.155710 -0.356790 -0.339905 0.627018 0.211410 0.632267 -0.683055 1.012565 -0.640950 0.164061 0.301300 0.002449 0.580975 -0.204371 1.062487 -0.205944 -1.052145 -0.595817 -0.901852 0.889770 -0.686079 0.787881 -0.449671 -0.308002 0.175218 -0.789571 -0.547729 0.189475 -0.319519 0.363780 0.203122 0.919530 0.815652 -0.115983 -0.436158 -0.247630 -0.165288 -0.314589 -0.543587 -0.043693 -0.301488 
-0.937906 -0.703051 0.247424 -0.816460 -0.808627 0.122836 0.084803 -0.635490 -0.059186 0.098181 0.723362 -0.643434 -0.077865 -0.316945 0.857605 -0.807952 -0.282952 -0.806946 0.709776 0.021784 0.237669 -0.295485 -0.397182 0.940561 -0.922830 0.561096 -1.014627 0.195184 0.314463 0.446075 0.553552 0.390152 -0.836128 0.558909 -0.362944 -0.233753 -0.286862 0.204832 0.745984 0.827495 0.404369 -0.705475 -0.122557 0.456321 -0.057926 -0.352809 0.896187 0.822817 0.462366 -0.319359 -0.198669 -1.022000 -0.766840 0.098232 0.603851 -0.740124 0.240437 -0.443463 0.405322 -0.691253 -0.258513 -0.596450 -0.469957 0.124153 0.812763 
-0.604290 0.098170 -0.202853 0.543545 0.497401 -1.161820 0.423377 0.457938 -0.395281 0.090080 0.276653 -0.935640 -0.733243 0.389830 -0.534393 0.537018 0.308537 0.881247 0.866907 -0.443406 0.399371 -0.081790 -0.588321 0.156142 0.706399 -1.150841 0.191949 -0.119272 -0.386562 -0.858664 -0.067203 -0.447948 -0.651695 -1.091587 -0.418318 0.344135 -0.179748 0.153946 0.722926 -0.078547 -1.218463 0.408635 -0.504545 0.110578 0.261243 -1.033446 0.018189 0.844515 0.592335 0.261139 -0.783518 0.400191 0.130395 -0.502158 0.674837 -0.053679 -0.804521 1.018147 -0.230168 0.029998 -0.201116 -0.359915 0.090096 -0.656197 0.085142 
0.704156 0.343836 -0.837640 0.244194 0.531262 0.314491 -0.088336 -0.461038 0.006204 0.496209 -0.089721 -0.857366 0.973427 0.442753 1.263132 -0.223896 -0.905816 0.197372 -0.494472 -0.850286 -0.738495 -0.235760 -0.301243 -0.933703 0.752628 -0.550122 0.744302 0.469202 -1.009841 -0.586245 -0.130995 -0.152813 -0.330186 0.787076 -0.338293 -0.147113 -0.804115 0.017636 -0.196667 0.740658 0.025230 -0.196163 0.267409 0.766601 -0.586342 -0.647791 0.052282 -0.445921 0.052155 -0.508245 -0.159873 -0.157389 -0.522520 0.499279 0.287304 0.495009 0.330111 0.247480 -1.029454 -0.901151 0.265392 0.997808 -0.292952 0.638719 -1.009659 
-0.890301 -0.596982 0.737751 0.664563 0.116704 0.213846 -0.018756 -0.401614 -1.216483 -0.692939 0.371795 -0.578641 -0.243303 0.799736 0.287794 -0.786938 -0.559914 -0.332349 -0.123069 0.593286 0.625212 -0.774927 0.273489 0.993490 -0.238411 -0.385948 -0.619750 0.207683 -0.142735 -1.118657 -0.253976 -0.740893 -0.027168 -0.078449 -0.395802 0.758602 0.743859 -0.966820 0.032237 0.151742 -1.302202 -0.665676 0.559664 -0.692869 1.172290 -0.965709 -0.725515 0.257435 0.857192 0.902368 -0.744633 -0.594478 0.138798 -0.702591 0.221765 -0.609449 -0.375446 -0.124500 0.815321 0.573578 0.177320 0.313626 0.583394 -0.146625 -0.751160 
0.168516 0.657407 0.054717 -0.740104 0.526623 0.530941 0.209034 1.086436 -0.194532 -0.514282 0.430011 0.478453 -0.676706 0.377175 0.670489 -0.131738 -0.116145 -0.850931 0.136341 1.126505 -0.819928 0.202257 0.793091 -1.079772 0.675497 0.324608 -0.621181 -0.289817 -0.045855 -0.859478 -0.813999 0.748380 0.716164 -0.209613 -0.744724 0.102951 -0.393203 0.211686 -0.560977 -0.502349 -0.819186 0.873495 0.874909 1.012401 -0.456269 0.281626 0.300716 -1.111801 0.295475 0.872373 -0.269359 1.057152 -1.201175 0.105236 -0.714455 0.093922 0.913837 -0.047008 0.534650 -0.684260 0.523536 0.171840 -0.902099 -0.515123 -0.956277 
-0.875759 0.212328 -1.177659 0.115398 -0.742591 0.016711 -0.387590 -0.013418 -0.475554 0.459018 -0.700126 0.350528 -0.251195 -1.139013 0.613220 0.643039 0.563743 -0.824078 0.708697 0.543608 0.574641 -0.722677 -0.353295 -0.689355 -0.617795 0.863490 0.330825 0.304831 0.573337 -0.485806 -0.421883 -0.352621 0.625964 0.278122 -0.342029 -0.434477 -0.039987 0.587939 0.253672 0.475669 0.234336 -0.171374 0.663134 0.928924 0.430837 0.452551 0.500053 -0.380982 0.460367 -0.275392 -0.462854 1.030197 -0.039865 -0.079521 -0.188176 -0.369081 0.453946 0.889318 0.137705 0.133036 -0.612122 0.591104 0.037700 -1.236248 0.658739 
-0.386634 -0.036804 -0.696575 0.491241 -0.411025 0.667259 0.999427 0.030223 -1.235298 -0.220726 0.072697 -0.602257 -0.222071 -0.136013 0.935639 0.417948 -0.472577 0.333598 -0.656256 0.279568 0.305076 -0.464091 -0.440684 0.751920 0.592159 0.415517 0.190393 -0.552684 0.874483 0.411219 0.171340 -0.550907 -0.438139 -0.463447 0.575082 0.232510 0.663888 -0.806795 0.524649 0.834513 0.192011 -0.571520 0.869320 0.778789 0.362277 0.642043 0.509979 0.844422 0.090666 0.344518 0.491515 -0.372260 -0.454148 -0.001641 0.436144 -0.733111 0.882289 -1.221701 0.795877 0.195686 -0.342600 0.746974 0.140236 -0.581978 -0.043138 
