0.151163 -1.136580 -0.000757 -0.225893 2.665981 -0.843339 0.182050 2.509537 0.650636 -0.329616 0.199679 -0.522547 1.388513 -0.676551 0.207338 -0.986357 -0.065116 -1.162020 -0.338681 -0.714010 -0.731194 -0.743089 -0.543572 0.270732 0.161285 -0.956838 
-1.026385 2.220387 -1.616458 -2.232663 1.694003 -2.495541 -1.375254 -2.621003 2.170063 -1.416752 0.719813 -1.741461 -1.126427 0.824533 -1.453733 2.562773 3.715334 0.310642 -1.624812 0.465385 -1.552177 -0.679172 1.204686 -1.211664 -2.748760 -0.571398 
0.096291 0.942786 -0.475478 -0.180638 0.548899 0.196973 -0.194118 0.488068 0.085644 -0.416381 0.072252 0.396967 1.276606 -0.858273 -0.820340 0.305612 -0.571298 -0.951238 -0.905287 -0.950032 0.101464 0.235351 -0.635311 0.848683 -0.322747 0.907096 
-0.621486 -1.807619 0.771665 -1.560721 0.538554 -0.980766 -0.719192 -2.318271 -1.098181 0.663501 1.063528 -1.820247 2.094635 0.675970 0.559558 -0.645769 -1.585788 -1.243403 2.338586 0.539539 0.517644 -0.226374 -1.205448 0.877347 -0.345455 -0.192091 
-0.063260 -0.914081 0.098494 -0.069762 0.851048 -0.445619 0.616207 0.431980 -0.800238 0.545079 -0.375680 0.801806 0.950725 -0.723354 0.996818 -0.220057 -0.468160 -0.522098 0.068640 0.740399 -0.963507 0.362731 0.054497 0.756490 0.225543 -0.955657 
-0.712863 -0.045659 -0.705735 -0.332353 -1.310287 0.483914 -0.768514 -0.608432 -1.922861 -0.224382 0.229723 -1.105835 0.093959 -0.093456 -0.912839 -0.016356 -0.456917 -1.253768 -1.452042 0.092991 -1.547434 -0.758262 0.246245 -0.295151 -0.737368 0.463861 
-0.680011 -0.910421 -0.948891 -0.990146 -0.382251 -0.578896 -0.517655 0.093481 0.408869 -0.821549 -1.451009 -0.805097 -0.187415 0.549730 -0.021981 -0.381440 -0.949004 -1.742363 -0.390428 -0.546289 -1.001763 0.155520 -0.216301 0.005197 -0.977618 -0.636128 
1.266335 1.794836 1.495986 -2.278955 0.710932 4.222532 2.345298 -2.725680 2.921951 -2.270350 -2.023816 -1.582452 -2.013902 -2.044838 1.898037 -0.679614 0.399945 -2.028006 0.976075 2.366738 -2.289438 -2.775282 -0.889871 -1.519596 1.053722 0.951258 
1.123624 2.041190 -2.812136 1.590265 3.716536 1.216261 -2.929289 1.690930 -2.314870 0.302501 -3.145045 1.406834 -3.249449 -0.974153 -1.913990 -1.753128 -0.366661 0.394190 1.211751 1.210252 1.718151 0.725887 1.039851 -2.192078 -0.440348 -0.498591 
0.053965 0.803901 -1.476338 -2.682710 0.504646 1.092941 1.162934 -3.684834 0.160863 0.539232 1.342081 0.476062 0.344911 -0.517218 -2.248053 -3.235712 1.737987 -1.365690 1.002309 1.093552 0.100461 -0.203876 1.101045 1.037642 1.296381 1.278238 
0.419191 -1.074805 2.906326 -1.995195 2.823493 0.501009 -2.376502 -2.962280 0.718329 -1.758441 1.081088 0.122076 -4.052996 -2.275572 -3.044038 2.854053 -1.168400 -0.379854 -1.541732 1.829154 -0.078021 1.802480 1.080810 0.716528 0.488876 1.175779 
-3.798395 1.605584 -0.532079 0.020428 1.611848 -0.173290 -0.510726 0.272274 1.014722 -1.924169 -1.260554 0.501547 1.081415 0.390516 -0.541721 1.074221 -0.426565 -4.024719 0.865564 0.160703 0.013651 -0.003218 -0.191090 -0.839753 -0.133302 -0.184894 
-0.232967 0.439436 -1.166114 2.612039 2.017393 -1.487581 3.375279 0.812186 -0.312111 -1.771525 0.909873 -0.425655 -3.377172 0.934398 -1.857199 -1.126263 -1.909199 2.798716 -1.435949 -0.597912 -2.384151 -1.785729 -1.242729 0.147414 -2.187429 -0.594155 
-0.600328 0.648531 -0.866087 -0.328299 0.298155 -0.422604 -0.832637 -0.035442 -0.728657 -0.401852 1.521284 -0.188113 0.682702 -0.324009 0.151017 -0.624351 -0.532108 1.032782 -0.931205 -0.926171 -0.551764 0.381836 0.270418 0.073260 0.424473 -0.760940 
0.091202 1.265344 -0.876527 1.465808 -1.112402 -0.376513 -0.749036 0.381325 0.147885 0.530255 -2.509969 0.193272 -0.695975 -0.268846 -1.449964 1.253296 -0.781677 -2.438141 -0.111553 0.028661 -1.268680 -0.482134 -0.474491 -1.462471 -1.400379 -0.320491 
2.268034 1.146591 -0.559406 1.653704 -1.508468 -0.264576 -1.210869 1.521591 -0.526937 0.366259 -0.358999 -1.026430 2.665337 -0.530567 -1.576593 2.196621 -1.044678 -1.922016 -2.371432 -2.071082 -0.532013 0.654233 1.201189 0.408238 -1.528414 0.997692 
2.584168 1.322555 1.093857 -1.660030 2.304369 2.117853 -0.287463 2.773029 -0.907084 -1.625487 -1.013096 1.220312 -1.413747 -0.391411 -1.411394 -0.087789 2.279756 -0.908261 -0.920782 -3.347356 -2.742557 3.190169 -3.131769 -2.003416 -2.661928 1.054414 
-0.377223 -1.333785 -0.898819 -1.174456 -2.051585 -0.929729 1.851526 1.341226 -2.238690 1.442439 -0.982837 1.077806 -2.215365 0.702577 0.981928 1.105016 -2.880446 1.039825 0.745672 -1.373946 0.673674 1.636605 1.316016 -3.023522 1.019948 1.597864 
-0.112732 -0.365849 -1.170591 -0.192538 -0.820513 -0.670097 -0.453693 -0.499266 -0.470265 -0.882060 -0.881789 -1.772921 -1.007502 -0.056765 0.314597 -0.317123 -0.538318 -0.634029 -1.249618 -0.099925 -1.486338 0.203303 -1.559045 0.767662 -1.241926 -0.518470 
-0.378250 -0.060799 -1.484461 0.668561 -0.108790 -0.512466 -0.531850 0.105250 0.114622 -0.149093 -2.042797 -1.056058 -1.802596 -1.476085 -0.012666 -0.797397 -1.288844 -0.374954 -1.813772 -0.401476 -1.177813 -1.525078 -0.041099 0.219327 -1.482200 -1.065647 
-0.408910 -1.268186 -0.523950 0.900720 -1.056176 -0.736444 -0.406050 0.529986 0.359004 0.431835 -0.799386 0.405715 -0.186366 0.489375 -0.218123 0.275775 0.227772 0.402199 -0.719380 0.092650 0.182805 0.039661 0.603727 0.019917 -0.114340 -0.575421 
-1.309596 -0.956942 -2.410069 -1.138751 -1.800028 -1.241581 1.242986 -0.432508 -1.153749 1.918640 -2.249047 0.672646 0.725825 -0.494601 0.268645 1.753085 2.018824 1.997214 -1.800818 -1.775053 -0.285073 -1.578884 2.353769 -2.224432 -1.957492 -1.205423 
0.714051 0.603247 0.679595 1.271835 0.996009 -1.596857 -0.416954 -0.731519 0.492876 0.045506 -0.545838 -0.694995 2.211292 1.332549 -0.208536 -0.108921 -0.252596 0.611928 0.133522 -0.185669 0.265928 -0.240830 -0.936790 0.107264 0.178764 -0.767934 
-0.674792 -0.240867 0.059297 -2.379768 0.475882 0.714174 -1.310308 0.845049 -0.707634 -0.016256 -0.090727 -1.641947 -0.043802 -1.922656 -0.942210 -0.843191 -0.489966 0.023601 -1.250610 -0.946586 0.040853 -0.889429 -0.480670 0.644733 -0.404245 -0.818730 
0.997474 0.227143 2.205593 -3.631490 1.595816 -2.263593 0.656699 2.899468 -0.356953 2.268376 -3.604499 -3.644709 0.640411 -2.500020 1.753771 1.188030 1.005719 3.639394 1.502557 -0.964236 0.780701 0.999515 0.008650 -1.913445 -0.644369 -1.847541 
0.574147 -1.297862 1.739088 -1.152149 -3.375776 1.189053 0.666939 0.075134 -0.713583 -1.626144 0.221686 1.888685 2.094290 1.625499 1.451270 2.443622 -1.255372 2.929272 1.052732 2.011380 1.212621 -1.516734 -1.443795 -2.230196 -2.066823 -1.909521 
-0.766564 3.036041 0.073804 -1.302752 -0.901278 -0.936816 -1.353375 -1.190224 -0.007473 -1.596145 -1.431349 1.318617 -0.052284 -0.518592 0.722184 1.014857 -0.723228 -0.470398 -1.376620 0.999486 0.165186 -1.612925 1.702201 1.326592 -0.554118 -0.922472 
-0.994779 1.775074 -1.222503 1.695434 -1.813135 2.925337 -0.767600 -1.447246 -0.382363 -0.317943 -0.978940 -0.490117 -2.126722 1.108301 1.538465 1.064581 -0.071707 0.486025 -1.128874 -1.220953 -1.414639 -1.910978 0.244939 -0.603081 -0.888650 0.030747 
-0.548954 -0.427605 -0.702172 -0.658404 -1.183120 -0.967695 -1.105570 -0.708700 -2.184596 -0.915956 -0.421350 -1.306042 -0.076932 -0.551014 0.046651 -1.096796 -0.484775 -0.923252 -1.906532 0.769389 -0.592539 -1.440531 -0.228086 -0.337809 0.090811 0.186695 
1.103152 0.500454 -1.179642 0.988419 0.178060 -2.330429 -0.338730 -1.701932 2.662122 2.156662 -2.068409 -0.318068 0.500634 1.318513 -1.664159 0.525541 -1.346234 0.671970 -1.345562 -2.966200 0.496207 -4.489726 0.887870 1.323445 2.273113 -1.836016 
-1.261627 -3.221804 -1.427192 -2.074046 -3.934368 1.451395 -0.739707 0.069025 0.340286 -1.025665 0.247716 1.736387 0.475239 -0.592146 -0.621312 -1.577231 0.680763 -0.295797 -0.660636 0.334274 -0.172531 -0.391932 -0.592316 0.231909 -0.282298 0.318698 
-1.273802 -1.787496 -2.299645 1.789254 0.688946 0.610260 -2.463957 -1.676358 -0.353768 -1.731662 -1.363063 -1.349746 0.859984 -0.067752 2.799958 -0.453436 -0.182198 -2.031931 1.571964 -1.393684 0.027072 -1.767087 -0.261740 0.172036 0.135187 -1.089177 
-1.919361 -0.013048 -0.961116 1.190144 -3.227193 1.901311 -0.100721 1.368720 0.791578 -1.309372 0.134136 0.508904 -2.181052 0.181203 -1.486372 1.214268 -1.332769 -0.908086 -1.175549 -0.743571 -0.273338 -1.673576 1.239237 -0.332581 0.290114 -1.299816 
1.257460 0.994874 -1.877738 -0.058272 0.143170 -2.008892 -3.219543 3.371821 -2.143882 -2.191813 1.335605 -0.996496 0.230764 1.327453 -1.575606 -2.273413 -1.609983 1.684736 3.346349 0.430819 -2.397968 1.503816 0.216540 -0.991460 1.200468 -0.966918 
-0.073800 -1.401846 1.609741 -1.447019 3.690628 -2.784003 -1.043375 -0.792309 2.572775 -0.423029 3.992154 2.088585 -0.330109 -1.086282 -1.023852 -0.460931 -0.023165 -2.781876 -1.401937 -2.685798 -2.532885 -3.844105 -0.848485 -2.393838 -2.484948 2.557760 
1.748296 -3.319399 0.832698 1.700486 -2.077166 -0.013121 1.167677 1.132432 2.647051 -2.126833 1.931955 2.215145 2.377156 -3.008496 -2.210351 0.641898 1.048379 -1.358662 0.460364 1.343923 -1.666615 -0.476835 1.404591 -2.028870 1.633077 -2.632655 
-1.356391 -0.434369 0.611968 1.998569 -1.432388 -3.395164 0.257090 -2.318766 -0.952824 -2.798839 -2.211050 -1.815446 -0.315258 -2.022271 0.521576 2.043392 2.541164 -0.164517 -0.940936 0.345248 1.084753 2.603783 -2.633685 -1.143317 3.182639 1.931768 
0.053798 1.416140 0.192430 -0.619215 -0.696770 1.430945 -0.134050 2.472222 0.191969 -1.059524 0.375137 -0.635772 -0.067559 -0.939001 -0.529784 -2.029041 -0.713215 -1.264086 0.650522 0.129447 -0.833132 -0.018539 -0.612809 0.460746 -0.259021 -0.930395 
-0.629754 -2.311279 0.671811 1.127194 -0.016589 -2.946345 0.352757 -1.287261 0.245080 0.745277 -0.963841 1.328842 -2.417913 0.200077 0.071881 -3.447463 0.505035 0.460661 0.846111 1.015644 1.981294 0.233782 0.068265 0.547998 0.535223 0.627286 
0.088342 -0.956581 -0.063941 -0.870480 -1.068523 -0.182547 -0.603773 0.254165 0.332340 -0.039669 -0.076197 -0.827570 -0.095846 1.759794 0.080073 -0.953658 -0.759621 0.329291 -0.478875 -0.967590 0.532804 0.315811 -0.030817 0.091743 -0.150076 -0.843480 
-1.275150 -1.657142 -0.683418 -2.300243 -1.999516 1.454362 0.971826 -2.098439 0.855820 -0.207721 3.583014 -2.274855 -2.654704 2.439720 -1.883466 -1.276503 -1.362038 1.499929 1.823633 -1.954973 -2.142649 1.852517 1.199655 -0.016213 2.769132 -1.988664 
0.254439 -1.826350 0.230483 1.068902 -1.431970 2.151278 0.037044 -0.025565 -0.327082 -0.591224 -0.130144 -0.664005 1.878782 1.140960 -0.655387 -0.674595 -1.374613 -1.317235 0.214079 -0.072107 -1.313394 0.503793 0.642778 -0.513968 -0.065804 0.535061 
-0.687931 3.048404 2.821279 -0.448574 -2.230948 -2.159215 1.034606 -0.203804 -2.701891 3.092952 0.611314 -2.087193 -3.030253 2.806981 0.608573 -4.835232 2.354046 0.330297 2.257704 0.330890 1.374825 -3.794374 -2.510634 -1.983101 -0.154564 -2.236012 
-1.274805 -0.563001 -1.525095 0.378640 -0.316034 -0.492070 -0.515690 -1.561099 -1.068775 0.310639 0.209513 -1.486360 -0.090641 -0.601986 -1.506795 -0.568082 -1.255310 -1.010511 -0.538408 -1.157316 -0.736150 -0.644396 -1.297218 -0.568423 -1.113388 -1.416196 
-0.395463 -0.509844 -1.091813 0.559189 1.306936 -2.737955 -1.588275 -0.085137 -3.056973 -1.062464 0.939461 -0.190424 0.655242 -2.113778 -0.619858 0.283387 -0.664610 1.174186 0.410093 0.126717 0.624962 0.733252 -0.517489 0.919141 1.340382 1.223784 
-1.486554 -0.512591 -0.656019 -0.019611 -1.466986 0.335108 -0.649793 0.157788 -1.098012 -0.170621 -0.289501 -0.476480 -0.143397 -0.374672 -0.687922 -1.471189 -0.008464 -0.527350 -0.968524 -0.663314 -0.786171 -0.779502 -1.249023 -0.771467 -1.637046 -0.329860 
0.987010 1.794584 1.458669 1.143208 -3.390877 -3.410228 -1.225824 -2.598747 1.242906 1.469424 -0.193349 2.353283 1.424671 -2.665088 1.667754 0.359518 -3.045478 1.077775 1.596942 -1.678413 -1.912275 1.936927 -4.331549 1.792638 0.532680 0.581609 
0.181349 -2.114547 -1.504774 0.220500 -0.146646 0.322591 -1.476675 -0.226514 -0.671860 -1.158808 -0.092472 -0.926544 -0.015087 -0.451183 -1.030312 0.482956 -0.576452 -0.288358 -1.382420 -0.588894 -1.323694 -0.644052 -0.083931 -0.577424 -1.378518 -0.095438 
2.210263 -0.235927 -1.603626 -0.292225 1.318721 -0.009479 2.979095 1.575797 -1.022325 0.060051 1.936960 -2.050002 -0.130004 2.175532 1.528722 0.793641 -0.880947 -0.601239 3.126953 -2.323186 -3.198660 -2.824481 1.888245 1.094947 -3.193917 -1.889833 
-2.051792 -1.383421 -0.208359 1.664588 1.968446 0.432047 0.790731 -1.400029 0.615421 1.403595 -2.881547 -3.864946 -1.905717 -0.220435 -1.463340 1.468843 -0.473731 1.588120 0.165459 1.751815 0.720384 -0.234543 -2.558910 1.027756 -0.115434 0.128124 
0.054060 -1.430953 -1.049845 -1.216141 -0.367510 0.203893 0.414380 1.450112 -0.313353 0.321375 0.377684 0.820133 -0.623591 -0.490333 0.930208 -0.079487 -0.493113 -1.133942 0.540321 -0.437580 0.193656 -0.775254 -0.268573 -0.159183 -0.617165 0.699256 
-1.449436 2.968440 -1.447574 -1.787097 1.001970 -1.780207 1.882016 -0.971406 -0.814553 -1.905921 -1.165420 2.334081 1.457454 1.552021 -2.354091 -1.883819 -1.404198 -1.769522 -2.011186 -2.049737 3.030254 1.937248 -1.425346 -1.426940 -1.660952 -1.326829 
-1.435204 1.653388 2.175619 1.849692 0.535273 2.654556 1.355215 -1.620403 1.025288 -3.009579 3.548030 0.730676 -2.010939 -2.282588 -0.706213 0.632630 -3.284882 1.081298 0.227102 -2.259657 3.076760 -0.674234 -0.754848 -2.245213 0.876719 -1.022578 
0.281592 -2.224385 -0.312177 -0.638966 -2.109012 -0.078242 -0.092727 -1.824870 -0.235640 0.102164 0.541216 -0.414857 0.910115 0.736728 1.513514 -1.888167 0.257263 -2.118614 -0.292523 -0.506744 0.661256 0.901137 0.613133 0.164600 -2.910835 -0.592782 
1.983192 -1.197112 -0.534418 0.923960 -1.190312 -0.810498 0.393631 -0.632852 1.431040 0.021279 -1.065019 -0.816227 -0.572153 -1.461745 -0.661451 -0.372309 1.962455 -0.802975 1.020364 -1.677852 -0.621383 -1.088053 -1.294735 -0.244564 -0.838552 -1.388147 
0.251202 0.015475 -0.946827 0.514943 -1.072935 -0.255566 -0.742490 -0.910750 -2.366421 -1.272199 0.106435 -0.945469 -0.338739 1.091980 0.661652 -2.989351 -0.936218 -0.532960 -1.236890 4.178578 -0.143252 -2.667933 1.169142 -1.568637 1.117147 -1.322203 
-1.467522 -0.268633 0.107715 -0.475830 -0.757708 -1.429788 -1.385054 -1.449230 -0.197615 -0.310350 0.380962 -0.753856 0.750214 -0.334247 -1.153916 -1.512218 -0.198477 -0.803194 -1.050965 0.371649 0.019839 -1.141790 -0.222367 -1.239223 -0.422328 -1.447240 
-0.946785 2.079358 -1.998161 -1.353854 -1.595517 0.252336 -0.611192 -1.669477 0.214550 -0.674507 -1.878944 -0.070276 1.116975 0.215823 -0.288187 0.545532 -1.721319 2.310009 -0.731582 -2.752236 -1.161556 -2.330678 1.738227 -1.598992 3.976965 1.247372 
-1.425797 -2.433874 2.058419 -3.062732 2.504028 0.881249 -2.389562 1.886149 -2.742976 -2.771288 1.439437 0.527483 0.860107 0.438725 2.273381 0.296521 0.728513 2.069603 -1.748381 -0.712689 2.660029 0.728466 -1.426641 1.602367 1.665245 -3.437705 
1.641683 0.212030 0.796409 0.565935 1.285487 -0.109616 1.437896 -0.464349 -1.488147 0.316385 -1.624145 1.046629 0.468866 0.299091 -0.063241 -2.525021 1.421270 -1.928968 -3.493690 -2.085385 -0.958557 0.206708 1.261053 -0.212997 -0.739176 1.177226 
