-1.012402 -0.704241 0.495576 -0.042161 0.111483 -0.548567 -0.857470 0.376269 0.337346 0.848373 -0.290138 0.041718 0.655365 -0.996190 -0.932679 0.084193 0.356001 -0.951153 -0.182728 -0.836033 -0.250476 0.353615 0.077634 0.769520 0.626826 0.016542 -0.825972 0.336278 -0.198017 0.425016 0.751279 0.496669 -0.499670 -0.949440 0.428648 -0.283458 0.307440 0.590011 1.017973 -0.291027 -0.518197 0.999399 0.496127 0.521546 0.277276 -0.868290 0.300898 0.763080 -0.540110 -0.127979 0.463603 -0.040536 -0.444091 -0.470764 -0.224529 -0.696828 -0.030769 0.742366 0.800732 -0.790444 0.864385 -0.028255 0.074715 -0.325349 0.824414 -0.058826 -0.461105 -0.855697 0.824363 -0.914711 0.026359 -0.277058 -0.456802 0.836484 0.044986 0.000666 0.875163 -0.911190 0.516927 0.628728 
0.621666 -0.722962 -0.983144 0.415372 0.781371 0.253204 0.520857 0.467996 0.977200 0.758900 -0.585856 -0.375963 -0.303897 -0.036442 0.142524 0.713057 -0.164342 0.723575 -0.416141 -0.138929 -0.017795 -0.058549 -0.526168 -0.708075 -0.761504 0.109958 0.594656 -0.905455 0.038831 0.022938 0.838436 0.471821 0.084592 0.737107 0.207942 0.741414 -0.629635 -0.501093 0.460208 -0.755178 -0.830230 -0.428835 -0.939726 -0.153035 -0.961440 0.394879 0.913368 -0.527535 -0.724592 -0.365100 0.707338 0.308647 -0.622549 0.341535 -0.171210 -0.254431 0.000542 -0.755941 0.159634 0.767260 0.229672 0.873393 0.141874 -0.666593 0.823600 -0.230614 -0.709765 0.093827 -0.566913 -0.085207 -0.047132 0.865469 -0.768905 -0.585423 -0.383536 0.333703 -0.753391 0.285148 0.239071 0.685830 
-0.548699 -0.035701 -0.270202 -0.568982 -0.911767 0.808786 -0.090838 -0.696407 0.873279 -0.169739 -0.816056 0.786261 -0.832179 -0.747942 -0.891264 -0.249183 -0.496165 -0.659442 0.610990 -0.056013 -0.415438 -0.058823 0.556618 0.794713 0.240233 -0.555265 0.345345 0.843218 -0.515042 0.742055 -0.115290 0.017346 0.186979 0.595664 0.425204 -0.016433 0.963545 0.334071 -0.110270 0.612347 0.367525 0.414125 1.029865 0.927776 0.655379 -0.447381 0.103253 0.031936 -0.874706 -0.186205 0.100079 0.754485 0.021044 0.434277 0.805119 0.408775 0.682489 0.367567 0.464722 -0.906846 0.790357 0.010301 -0.035426 -0.831091 0.265641 -0.067905 0.333511 0.328309 -0.660678 0.771084 0.756488 0.709121 0.080290 -0.698109 -0.148491 1.050495 -0.573033 -0.143800 -0.365596 0.059728 
0.711173 -0.126322 -0.112895 0.651077 -0.229581 -0.584222 1.059117 -0.681735 0.238976 0.256220 -1.082204 -0.978016 0.523542 0.362070 -0.396544 -0.143831 0.366717 0.468327 -0.553396 0.707077 0.303210 0.703077 -0.871648 -0.867678 0.465835 0.287467 -0.584877 -0.552112 -0.854986 -0.201239 0.845806 0.900241 -0.227103 -0.501001 0.306654 -0.389329 0.611864 0.633229 -0.152301 -0.476018 -0.618196 -0.969414 -0.559878 0.985414 -0.553415 0.624820 -0.705460 -0.210394 0.133311 -0.680941 0.597715 -0.685099 1.085322 -0.520438 -0.459615 -0.811664 -0.491156 0.224533 0.375346 0.637996 0.390015 0.469579 0.371789 0.305502 -1.037523 0.150312 -0.546625 -0.396850 0.353064 -0.826805 0.549864 -0.012798 0.123690 0.199855 -0.387809 0.471901 -0.720511 -0.708675 -0.026115 0.776603 
0.577042 0.098758 0.431982 -0.354251 -0.694124 0.033240 -0.315939 0.165167 0.012299 -0.135547 -0.570206 -0.208580 -0.246747 -0.197847 -0.083983 -0.203324 -0.419381 -0.732409 -0.233345 -0.443332 0.228360 0.418822 -0.042835 0.416745 0.372627 0.898890 -0.092405 0.893251 -0.376027 -0.055819 -0.029645 0.323839 -0.178307 0.175718 0.888545 -0.629104 0.408114 -0.267057 0.082903 0.010881 0.653760 -0.968663 -0.390084 0.304947 0.048523 0.803467 -0.456109 0.918945 -0.578388 0.653336 0.322131 -0.087674 0.762754 -0.997298 -0.607192 0.397803 0.463789 -0.160798 0.156009 0.504718 0.965781 0.362192 -0.403269 0.544797 -0.763681 -1.053108 -0.009667 -0.874705 -0.725469 0.744837 0.590722 0.431258 -0.115413 -0.959871 0.122673 0.103506 -0.868735 0.048966 -0.222235 -0.511437 
-0.260447 0.231362 0.271001 0.445900 0.112349 -0.461076 0.683715 -0.259317 0.339994 -0.393640 -1.060404 -0.746869 0.028600 0.482355 -0.596665 -0.868010 -0.843750 -0.538482 0.473893 -0.388902 -1.016268 0.038264 -0.136883 -0.008557 -0.172077 -0.665072 -0.442476 0.687840 0.386448 0.186753 0.299025 -0.348814 -0.867120 0.937306 -0.054889 -0.943374 0.786372 -0.923678 -0.275531 -0.040015 0.149566 0.467515 0.423129 0.091513 -0.970893 -0.803387 0.940579 -0.648880 -0.360357 0.243114 0.141242 -0.772386 0.226418 0.868806 -0.224753 0.660089 0.991270 -0.535043 -0.475321 -0.203481 0.599963 0.767514 -0.471943 0.557453 0.296378 -0.136647 -0.466686 0.302589 -0.815976 -0.643392 -0.747885 0.060241 -0.981490 -0.643933 0.180135 -0.075382 -0.835220 0.301341 -0.242257 0.724153 
-0.786632 0.912405 -0.988961 -0.826000 0.037051 0.527555 0.920136 -0.504031 -0.309462 0.462927 -0.077161 0.539024 0.339285 0.314714 0.478049 -0.907406 -0.503774 -0.452092 0.149370 0.307645 0.131415 -0.172087 -0.610784 -0.555393 0.228416 -0.637791 0.484514 -0.653315 -0.911071 0.355636 -0.834920 0.875112 -0.014825 0.195510 0.687629 -0.904948 0.256316 0.419216 -0.078032 -0.911446 -0.120984 0.027704 0.625670 -0.850324 -0.156641 0.907664 -0.066867 -0.371541 -0.126142 0.493201 -0.670760 -0.673743 -0.106889 0.857869 1.001312 -0.518835 -0.810468 -0.804376 0.078484 -0.716832 0.012114 -0.817263 0.730571 -0.224786 -0.210838 -0.392726 0.433933 0.131789 0.700230 0.457021 0.698179 0.378073 -0.209426 0.871034 0.175984 -0.170011 0.076986 -0.159108 -0.183076 -0.434870 
-0.865065 -0.174304 -0.120128 -0.415050 -0.730468 -0.536295 0.649702 0.037269 0.328501 0.657539 -0.610640 0.452444 -0.538012 -0.260652 -0.863953 -0.052243 -0.495206 0.676481 0.013706 -1.004932 -0.564208 0.364923 -0.203091 -0.686061 0.852354 -0.740599 0.571718 0.926040 -0.662737 0.248742 -0.956523 -0.300389 -0.400099 -0.026859 0.534285 0.708613 0.486285 -0.366640 0.512314 0.248530 -0.918721 -0.939190 -0.605449 0.548025 -0.911891 -0.001515 0.866446 -0.597959 -0.618537 -0.830349 0.332418 0.378935 0.134248 -0.534031 0.482900 -0.273705 -0.533060 -0.577318 -0.087362 -0.079964 0.710643 0.925193 -0.104709 -0.888285 0.011282 -1.021493 0.509608 0.155505 0.612226 -0.393304 -0.511174 0.027701 -0.113003 -0.206363 0.940574 1.035360 0.726259 0.710633 -0.368210 -0.583708 
0.965651 0.305870 -0.103229 0.872135 0.433612 0.675175 0.111093 0.143224 -0.671810 0.858901 0.576368 -0.685247 -0.982353 -0.313630 -0.793531 -0.777591 0.077317 -0.896828 0.142611 0.697107 -0.031274 0.349792 0.398775 0.319952 -1.002379 -0.619800 0.338424 -0.253070 -0.871062 -0.692247 0.759589 -0.614281 -0.253363 0.121587 -0.767864 -0.875279 0.411728 0.537792 0.342915 -0.867799 0.170672 0.854333 0.937291 -0.128323 -0.034779 0.643238 0.855778 0.174738 0.421898 0.043030 -0.066287 -0.722461 1.090499 0.061139 -0.415780 0.031968 0.516944 0.278120 -0.725264 0.121311 0.229824 0.311500 0.000308 0.176221 0.136993 -0.194945 -0.672066 -0.032839 0.424980 -0.948249 -0.871572 0.068994 -0.322013 -0.971349 -0.514427 -0.703366 -0.220282 0.090566 0.197317 0.336248 
0.847073 0.566413 -0.002485 -0.021463 0.351640 0.436436 -0.167621 -0.010254 -0.033110 0.382382 0.000902 -0.451980 0.175233 -0.465104 0.403900 0.093194 0.920352 -0.420528 -0.156740 0.180940 0.540042 0.866103 0.303284 0.592306 0.001468 -0.554770 -0.694283 0.856593 -0.502528 0.332001 -1.064635 0.807442 -0.461536 0.666776 -0.547204 0.964130 0.004474 -0.708166 -0.278260 0.412141 -0.134805 -0.768906 0.617832 -0.789484 -0.183248 -0.333698 -0.390403 0.485187 -0.295065 -0.272187 -0.942240 0.097440 0.093775 -0.695045 -0.734209 0.918305 0.833944 -0.042281 -0.161956 0.635149 -0.645111 -0.708787 -0.884384 -0.671334 -0.104664 -0.264033 0.799287 -0.170524 -0.215274 0.290209 -0.361060 -0.830712 0.651385 0.769473 0.838566 0.876871 0.552192 -0.689592 0.166885 -0.852065 
0.579993 0.068392 0.688073 -0.436760 0.789156 0.203179 -0.210606 0.637386 0.062020 0.851117 -0.211072 0.156192 0.461214 0.767627 -0.324834 -0.591293 0.542105 0.525000 0.771359 -0.884572 0.401643 0.792778 -0.352732 -0.896641 -0.709799 -0.163695 -0.785087 0.403324 0.115739 0.661205 0.681493 0.464080 0.254728 0.761170 0.635052 0.026772 -0.769211 -0.196906 -0.337572 0.386568 -0.771385 -0.829488 -0.627312 -0.034501 0.354795 -0.564337 -0.185742 0.937147 0.271332 0.429928 0.764886 -0.296222 0.833135 0.509571 -0.115760 -0.887862 0.088832 -0.037605 -0.027159 0.014747 0.488507 0.842574 -0.433946 -0.683571 -0.839131 -0.837805 0.980904 -0.195252 -0.560173 0.920270 0.698022 -0.570177 -0.745678 -0.629501 -0.310996 0.206391 -0.111415 0.132782 -0.106751 -0.194428 
-0.241894 0.225690 -0.188596 -0.697721 0.399548 1.032159 0.408412 -0.187912 0.714312 0.604359 0.555265 -0.255472 -1.017607 -0.005368 0.263810 0.313823 0.360488 0.669134 -0.233747 -0.324742 -0.213470 -0.326842 0.279932 -0.809761 -0.446528 0.341003 0.734701 -0.322141 -0.737450 0.244842 -1.060266 0.768474 -0.254667 0.001620 -0.427093 -0.421359 -0.446477 0.710146 -0.841880 0.268731 -0.914053 -0.068479 -0.155028 -0.677175 0.446868 0.299638 -0.942253 0.591774 0.141830 -0.364378 -0.203472 -0.383315 0.135345 0.402730 0.690256 -0.575184 -0.009138 -0.213164 -0.836596 -0.839601 -0.565975 0.113890 0.640779 -0.143793 0.626249 -0.436663 -0.600798 -0.303624 0.816805 0.171128 -0.228033 -0.033399 0.267596 0.862534 -0.187334 -0.836964 -0.110977 0.170037 0.525123 0.778911 
-0.727665 -0.758218 0.272223 0.676290 0.215799 0.368082 0.977902 -0.935805 0.858792 -0.604551 0.920333 0.041981 -0.456544 0.496372 0.165168 0.683789 0.736980 0.359530 0.483522 0.239346 -0.290117 0.097229 0.199883 -0.485868 0.723936 -0.125945 0.861389 -0.410505 0.873295 -0.728361 -0.226170 0.599850 0.882033 -0.363168 -0.044395 0.109803 0.614736 0.837524 0.222548 -0.523511 0.883080 0.204002 -0.655922 -0.494950 0.700983 -0.640895 -0.642000 0.692939 0.237784 0.296271 0.639752 0.345182 -0.144455 0.736440 0.350761 -0.805918 -0.984875 0.454517 0.251587 -0.063055 0.187263 -0.947468 -0.306857 0.716683 -0.299510 0.296492 0.183975 -0.897455 0.453097 -0.449252 -0.081745 -0.646620 -0.801678 0.770472 1.010146 0.211236 -0.925136 0.331066 -0.002622 0.181690 
0.788501 -0.080547 0.347841 -0.569443 0.019144 -0.375745 0.902751 -0.468343 0.916518 -0.008050 -0.745065 0.885718 0.710019 -0.516057 -1.007662 0.570966 -0.851694 0.955640 0.296751 0.085810 -0.644686 -0.752007 0.531343 -0.058435 0.292909 0.010832 0.080126 -0.730847 0.775341 0.368411 -0.492676 -0.316188 -0.275308 0.633656 -0.594281 -0.714606 0.446901 0.314156 -0.685915 0.685885 -0.967745 -0.767788 -0.554452 -0.267019 0.517777 0.416840 0.398876 0.163280 -0.227045 -0.636948 -0.447058 -0.670035 -0.505736 0.398948 -0.176849 0.739893 0.196911 -0.213936 -0.171053 0.409600 0.691113 0.573686 0.708085 -0.427582 -0.524726 -0.645652 0.099580 -0.878120 0.953655 0.484047 -0.731645 -0.703571 -0.094960 0.524683 -0.550175 -0.077428 -0.925581 0.796750 -0.748722 -0.429644 
-0.012316 0.632545 -0.482441 -0.552988 -0.381103 -0.143474 -0.569270 0.900370 0.542274 0.281734 0.167043 -0.336087 0.839826 -0.508261 -0.803748 0.578740 0.432967 -0.984835 0.511944 -0.829025 0.864946 0.262501 -0.445395 -0.317145 -0.594204 -0.335533 -0.943588 0.856742 0.525311 -0.193219 0.411655 0.608120 0.696978 -0.770768 -0.354954 0.892095 -0.276200 -0.258814 -0.914545 0.121332 0.539468 0.717901 0.046416 0.650309 0.246403 -0.164446 -0.215420 -0.295208 -0.359033 0.843893 0.230084 0.513007 -0.655697 0.617045 -0.472462 0.191194 0.773412 -0.246934 0.158262 -0.718890 -0.220788 -0.747157 -0.473589 -0.746163 -0.628296 0.497168 -0.825154 -0.112652 0.885168 -0.546154 -0.581190 0.317070 -0.756444 0.677755 -0.639504 -0.695899 0.631340 0.849395 -0.875339 -0.844299 
0.660593 -0.683679 0.649507 -0.532266 -0.149068 0.330952 0.333975 -0.847908 0.978554 0.670638 -0.135113 -0.991718 -0.715184 1.036616 0.720565 0.339636 0.695563 -0.551435 0.457953 0.154389 -0.437109 -0.550518 -1.100543 -0.153410 -0.202883 0.845470 -0.950336 0.040304 -0.298504 0.738880 0.547777 0.184736 -0.395289 0.206058 0.313891 0.304009 -0.486770 -0.943329 0.939640 -0.528212 0.271565 0.133272 -0.177416 -0.747366 -0.155292 -0.726309 0.239999 0.059082 0.020339 0.782149 -0.866383 -0.245869 -0.772913 -0.338663 0.731713 0.785471 0.688780 1.075182 0.539704 0.644300 0.693531 -0.122244 0.362093 0.389329 0.644180 -0.059353 -0.597295 -0.221205 0.803039 -0.083541 -0.213570 -0.054980 -0.499972 0.782776 1.034955 -0.626675 -0.079415 0.407597 -0.406917 -0.162552 
0.483837 -0.899044 -0.362609 -0.602106 0.678795 -0.325243 0.460357 -0.137473 0.577219 0.497872 0.198008 0.211744 0.648928 -0.905279 0.236473 -0.305175 -0.057827 -0.029728 0.083837 -0.394002 0.824038 -0.754858 -0.306423 -0.242406 0.671749 -0.905085 -0.083504 0.554063 -0.467079 0.939720 0.959935 0.958830 0.429235 -0.339714 0.600323 -0.577540 0.181977 0.074647 -0.531965 -0.539650 0.134267 0.040271 0.563924 0.227289 0.930677 0.621515 0.179695 -0.731871 -0.734952 0.055839 -0.534550 0.160111 -0.302178 0.417128 -0.811216 0.650591 0.792325 -0.255409 -0.792355 0.540246 0.356265 -0.215382 0.242835 0.111510 -0.010006 0.239528 0.863925 0.203696 -0.548356 -0.939556 0.270981 -0.367121 -0.889728 -0.679575 0.264200 -0.066226 0.139401 0.484639 -0.212664 -0.233445 
-0.247166 -0.796433 0.183830 -0.151111 -0.728187 -0.250558 0.384451 0.180929 0.746760 0.107015 0.989047 -0.918344 -0.005796 -0.671398 0.966048 0.104869 0.390156 -0.755737 -0.026789 -0.902494 -0.025064 0.810737 -0.231643 0.697536 0.979566 0.075302 -0.744802 0.704546 -0.650938 0.357483 0.278690 0.922144 -0.137761 -0.710083 -0.724602 -0.396874 0.906411 0.171074 0.663740 -0.825179 0.836263 0.887390 -0.008755 -0.424281 -0.103465 -0.106335 0.788667 -0.630417 -0.183038 0.547690 0.606789 0.331003 0.476674 0.425720 -0.338079 -0.698513 0.414109 0.898573 -0.739162 -0.937251 -0.604524 -0.661644 -0.571671 0.334687 0.353326 0.055111 -0.335636 -0.092448 -0.408451 -0.835986 0.762571 -0.144603 -0.661860 0.266849 0.944037 0.842194 0.329082 -0.596481 -0.627090 -0.912342 
-0.674392 -0.742548 -0.297303 0.133991 0.973296 -0.455030 -0.940170 -0.882368 0.774631 0.782205 0.848420 0.053767 -0.628080 0.090708 0.607915 0.886371 0.185495 0.078701 -0.033707 0.471746 -0.271501 -0.693239 -0.091787 -0.244828 0.645422 0.905378 -0.971199 -0.365201 -0.123122 0.802636 0.651032 -0.589480 0.401196 0.647394 -0.170605 0.481647 -0.208554 0.060316 -0.021572 -0.799947 -0.209459 0.556235 -0.399834 -0.374491 -0.647736 0.527506 0.296933 0.276693 -0.285682 -0.673189 -0.646246 -0.095462 0.033180 -0.626911 0.876312 -0.217514 -0.905056 -0.559445 0.078747 1.009271 -0.719848 -0.352812 -0.341405 -0.282502 -0.658052 -0.348763 -0.227101 0.254914 0.153490 -0.944142 -0.303545 -0.826348 0.135633 -0.066386 -0.344522 -0.445910 -0.115699 0.325241 -0.318315 -0.918225 
0.903011 -0.756623 -0.382252 0.914205 -0.253323 -0.669543 0.996506 -0.729158 -0.919550 0.917531 0.586093 -0.586492 -0.770075 -0.383750 -0.142208 -0.488837 -0.426160 0.096282 0.788766 0.690033 0.345950 0.056916 0.420553 0.831086 0.680929 0.518918 -0.511425 1.014257 -0.502280 -0.231966 -0.428163 0.430761 0.932803 0.491648 -0.171667 0.369482 -0.085874 -0.805586 -0.730110 0.764168 -0.005510 0.845100 0.856069 -0.421977 0.271920 0.961178 0.132740 0.642884 -0.832018 -0.613809 0.929282 0.479120 0.700437 -0.903540 0.059643 -0.275769 1.005714 -0.461611 -0.561381 0.222174 0.765398 0.076728 -0.801817 0.558403 0.610885 0.426037 -0.892531 0.745560 -0.903591 0.959255 -0.434143 0.042371 0.448019 0.465373 0.961970 0.394848 0.839689 -0.694029 0.662831 -0.345735 
-0.077583 0.855167 0.392107 -0.196403 -0.624059 0.805205 -0.555594 0.137133 -0.257021 -0.454996 0.607519 -0.553385 0.332990 -0.249369 0.022334 -0.070835 0.226367 0.350389 -0.932118 0.633310 -0.273674 0.003029 0.861831 0.520579 0.565460 0.492829 -0.080133 -0.162291 -0.532181 0.417953 -0.609525 0.309724 -0.225335 -0.486184 -0.366230 -0.303932 0.345446 0.882606 0.537899 0.842635 -0.965052 0.938729 -0.846157 -0.184399 -0.661057 0.599283 -0.960786 0.179917 0.880676 -0.753735 0.073376 -0.913559 0.068610 -0.228287 -0.017203 -0.244016 -0.076961 0.205318 0.890346 0.408110 0.180867 -1.000566 -0.430912 -0.216862 0.532103 0.148598 0.111878 -0.485856 -0.813739 -0.702666 -0.264456 0.656229 -0.457944 -0.649846 -0.118423 0.325511 0.081850 -0.869555 -0.041513 -0.141359 
-0.873017 -0.004193 -0.780784 -0.577039 -0.074837 -0.376018 1.020824 0.816326 -0.320023 -0.099443 0.595580 0.964145 -0.391976 0.216952 0.081582 -0.688480 0.016706 0.022809 0.484522 -0.837105 -0.649640 -0.681589 -0.294289 -0.211593 -0.504639 -0.707996 0.720191 -0.491265 0.774207 0.601847 0.873418 -0.526322 -0.473884 0.060354 0.379461 0.140972 -0.027316 -0.309249 0.654085 -0.162144 -0.965271 0.817312 0.973701 0.140307 0.991927 -0.213230 0.182741 0.575925 -0.170432 -0.889714 0.048906 -0.815319 0.121202 0.886633 0.395120 -0.601459 0.287075 0.725118 -0.347644 -0.356728 0.990071 0.950819 0.133313 -0.321564 0.063969 -0.866073 0.632328 0.348249 0.152525 -0.620065 -0.585887 -0.614425 -0.452572 -0.629376 0.629711 0.778442 0.615934 -0.805802 -0.663289 -0.403893 
0.407842 0.032445 -0.268794 0.727912 -0.284121 0.095597 0.591964 1.001740 0.880826 0.634675 0.542279 0.376622 0.698748 0.316178 0.522705 -0.180806 0.188763 -0.125627 0.632801 -0.047022 0.262863 0.610504 0.052338 -0.456423 0.130803 -0.075566 0.793726 -0.123394 -0.492963 -0.058437 -1.064153 0.314598 -0.855138 0.075767 0.258343 0.437143 0.446726 0.315666 0.949625 -0.407338 0.549892 -0.998240 -0.751738 -0.883215 0.840576 -0.550419 0.575364 -0.528891 -0.432529 0.498588 -0.449638 -0.092062 0.810124 0.789264 0.819224 -0.524311 0.682124 0.451740 0.005847 0.031320 -0.528862 -0.012849 0.805493 0.689521 0.899598 0.920859 0.853260 -0.710312 -0.536647 -0.242229 0.562372 0.567153 0.528958 -0.104860 -0.152851 0.284632 0.327368 0.532246 0.671486 -0.366691 
0.443409 -0.663056 -0.838468 0.560405 1.030349 -0.907918 -0.112941 0.688678 0.237543 0.846953 -0.163741 0.899982 0.570403 -0.194911 -0.524091 0.686215 -0.916922 -0.573923 -0.781623 0.712183 -1.031015 0.892289 0.580564 0.626180 -0.024832 0.499965 0.982807 -0.143440 -0.585876 -0.174627 -0.855076 -0.209985 -0.829566 -0.636060 -0.342271 0.738718 0.798613 0.949916 0.615780 -0.147173 0.625879 0.444544 -0.002813 -0.170417 0.179990 0.207594 0.357244 0.926498 0.442616 -0.975085 0.192212 -0.777155 0.799625 0.249593 -0.297704 -0.550462 0.041319 0.422609 -0.426373 -0.613063 0.492338 0.168373 0.361970 -0.830034 0.725736 -0.672436 -0.551975 0.447546 0.510248 0.883481 0.450788 0.437104 -0.629638 -0.589525 -0.941934 0.703204 0.565736 -0.520521 -0.170438 -0.398452 
0.261616 0.642199 -0.966703 0.234490 0.313964 -0.146937 -0.737611 0.456844 -0.992362 -0.234655 0.030674 -0.783478 0.275602 -0.076343 -0.963994 -0.481791 -0.321143 0.188992 -0.221268 0.079871 0.457495 -0.855989 0.452752 -1.033231 -0.670083 -0.055632 0.669413 -0.290444 -0.272239 0.727107 0.515378 -0.373372 0.617770 0.368362 0.677341 0.828763 -0.178213 -0.598258 0.080234 0.035739 -0.309448 0.453334 1.015306 -0.529975 -0.700769 -0.501100 0.629332 0.603868 -0.250310 0.755835 0.161173 -0.940425 0.520302 -0.119646 1.006292 -0.309779 0.553785 -0.591558 0.811941 -0.281733 0.431062 -0.735406 -0.448933 0.847688 -0.997751 0.109553 0.909812 0.641371 0.080583 -0.607841 -0.923702 0.119413 0.209579 -0.697683 -0.830886 -0.376627 0.174612 -0.186704 -0.593960 -0.846508 
0.417319 -0.910365 -0.523745 0.529830 -0.208075 -0.474125 -0.247095 0.943021 0.203684 0.325988 -0.375944 -0.680135 0.043508 0.159046 0.370319 0.405747 0.653454 -0.117718 0.500483 -0.675626 -0.441243 -1.000599 -0.194287 0.484581 0.827290 0.167876 0.125259 0.171402 0.965688 0.482768 -0.835731 0.050514 -0.123151 -0.084332 -0.025251 0.242236 -0.668825 0.500852 -0.004545 -0.329268 0.165748 -0.932539 0.893125 0.514026 0.025477 -0.178006 -0.051622 -0.703839 0.339565 -0.911187 0.351807 -0.685636 -0.478109 0.809130 0.536680 0.618150 -0.338399 -0.254120 0.377850 0.764917 -0.102598 -0.149819 -0.161316 -0.852619 -0.264695 0.268622 0.051591 -0.596637 0.433167 0.346903 0.042177 -0.192796 -0.053040 -0.755577 -0.133705 0.619873 -0.916822 0.140768 -0.775892 0.542369 
0.157787 0.072957 -0.071037 0.403239 0.080568 0.369271 0.995323 0.436164 0.853296 -0.273027 0.182494 -0.625280 -0.014820 -0.393183 0.350024 0.433441 0.743002 0.022405 0.647569 -0.624730 -0.235459 -0.506838 -1.016027 -0.033439 0.707813 -0.292960 -0.099019 0.382856 -0.632567 0.212981 -0.349467 0.679054 -0.174595 -0.931453 0.557521 -0.659792 0.873629 0.743925 0.562608 -0.971302 0.950451 -0.436578 0.544519 -0.806857 0.691617 0.537834 -0.970390 0.596692 0.188710 -0.942676 0.056284 0.242552 -0.926102 -0.466613 0.213133 -0.393725 0.354701 0.716749 0.495439 0.514998 0.404294 -0.770309 0.503590 -0.360666 -1.074556 -0.765792 0.150862 0.756474 -0.612230 0.206269 -0.501481 0.798607 -0.861418 -0.252124 0.213039 0.581769 -0.198677 0.311312 0.573435 -0.793390 
0.860194 0.182553 0.850313 -0.349823 0.773133 -0.547656 -0.003599 -0.661593 0.721039 0.409026 -0.964305 -0.868302 0.573248 -0.644271 -0.960169 -0.478734 0.405051 -0.597924 0.341689 -0.277666 -0.607514 -0.374973 -1.017642 0.907740 -0.580307 0.373406 -0.546956 0.900615 -0.891254 0.583913 -0.487074 0.315390 -0.271281 -0.665175 0.380777 -0.449937 0.110622 -0.968166 -0.561015 -0.072905 0.871214 0.986045 0.246136 0.765250 -0.285587 0.691974 -0.970948 -0.611388 -0.348470 -0.577536 -0.020080 0.626115 -0.550927 0.035521 -0.540874 -0.667877 0.280865 0.880026 -0.008104 -0.427000 -0.733760 -0.338577 -0.707609 0.384898 -0.902796 -0.898482 -0.268464 -0.534923 -0.446693 0.109324 -0.215249 -0.293640 0.725984 -0.415554 0.888946 -0.390656 0.513110 0.330338 0.563881 0.936188 
-0.051637 0.583366 0.544591 -0.367748 0.200478 -0.358149 -0.749814 -0.838593 0.361861 -0.612407 -0.168393 0.004581 -0.333384 0.061728 0.926958 0.268402 -0.956720 0.986004 0.097181 0.316941 0.109475 -0.630027 -0.486067 -0.699805 -0.147347 0.905061 -0.693849 -0.156135 0.732456 -0.590094 0.452633 0.596430 0.672858 0.617805 -0.416162 0.158713 0.249810 -0.844813 0.452752 -0.814434 -0.163512 0.547703 -0.288503 0.313505 0.003827 -0.016901 0.818642 -0.628159 -0.035047 -0.505162 -0.230116 -0.074614 0.923136 0.890558 0.051444 -0.691655 0.321152 0.157505 0.781982 0.238474 -0.229439 0.445114 0.903101 -0.300529 -0.318704 0.945787 0.671675 -0.822074 -0.776752 -0.824955 0.587379 0.550089 0.532646 -0.237702 -0.264316 -0.737675 -0.504959 -0.827244 -0.971165 -0.696422 
0.352423 0.422378 -0.913817 0.178659 0.918611 0.183922 0.234555 1.043441 0.134241 -0.880998 -0.503666 -0.277894 -0.450901 -0.544257 0.596040 1.004675 -0.458751 -0.652910 -0.871147 0.308229 0.040893 0.300646 -0.015677 -0.301125 0.803590 0.770135 -0.815508 -0.587039 0.679360 -0.016502 0.840324 -0.839614 0.124317 -0.801746 -0.220485 -0.718018 -0.173242 -0.741446 0.164245 -0.153738 0.342470 -0.430318 0.015359 0.134389 0.611928 -0.676585 -0.509171 -0.664644 0.327739 0.193390 -0.081342 -0.814834 -0.936501 -0.349109 0.641143 0.793946 -0.183587 0.959760 -0.489483 -0.490363 -0.231257 0.558972 -0.744582 0.175359 0.123946 0.620921 0.372640 0.019739 0.618219 0.263890 0.116088 -0.278812 0.486010 -0.619449 -0.674946 0.135287 0.145777 0.382483 0.198454 -0.433559 
0.529017 -0.732806 -0.253617 -0.857943 -0.706614 -0.882934 -0.612911 0.611632 -0.330033 -0.462987 0.608566 -0.550639 -0.745456 -0.045057 -0.517788 -0.377732 -0.399912 -0.756994 0.064753 -0.669866 0.880239 0.650437 0.710769 0.278100 -0.448875 -0.573724 0.317684 -0.644686 -0.632751 0.417808 -0.845469 -0.853743 -0.949593 -0.788728 -0.690229 -0.471927 0.736320 0.771613 -0.413256 -0.293526 -0.055185 -0.569870 0.382507 0.394145 -0.944076 0.500271 -0.510202 -0.975185 0.697459 -0.528835 0.373046 -0.623924 -0.785938 0.711348 0.359993 -0.916350 0.195111 0.857378 0.849982 0.884359 -0.228831 -0.388532 0.148336 -0.615609 0.771060 -0.690818 0.445847 0.928288 -0.747425 0.225839 0.346181 0.807001 -0.854973 0.572052 -0.630958 -0.049324 -0.016412 -0.758453 -0.002976 -0.229301 
-0.269925 -0.242968 0.237856 0.488324 0.916771 0.547173 -0.939725 0.754375 -0.010737 -0.188695 -0.284505 0.324418 0.066008 0.190603 -0.279470 -0.033524 0.906494 0.570420 0.570161 -0.438389 0.466472 -0.796831 0.223428 0.044093 0.752023 -0.416542 -0.892522 -0.687495 -0.083480 0.462439 -1.042965 0.489021 0.221817 -0.913982 0.165065 0.440887 0.037509 1.042989 0.539312 0.132131 0.532708 -0.930302 -0.331598 -0.048920 0.903092 -0.207917 -0.660526 -0.573018 -0.334938 0.670656 0.134754 -0.625595 0.241630 0.592281 -0.821547 -0.090638 0.597068 -0.218773 -0.150710 -0.248418 -0.363025 0.789157 -0.345279 0.055007 0.077713 -0.724835 -0.492467 0.842147 0.898537 -0.055828 0.826971 -0.091382 -1.003567 -0.424639 0.979119 0.876257 -0.959125 -0.928982 -0.879939 0.884321 
-0.751920 0.086612 0.828350 -0.353702 -0.385502 -0.272432 -0.762066 0.939996 -0.131144 0.311301 -0.199570 0.183673 0.876066 -0.045660 -0.025881 -0.236043 0.395866 0.112422 -0.117534 -0.872207 0.490457 -0.764637 0.845852 0.046836 0.301558 0.301879 -0.788294 0.657470 -0.895145 0.287368 -0.010387 -0.654015 -0.265343 0.448213 0.214203 0.382542 -0.702828 0.535677 0.185057 0.798087 -0.582438 -0.872541 0.213636 -0.255295 0.885381 -0.697024 0.645618 -0.462938 0.727949 0.119107 -0.967516 -0.040963 1.086496 0.361589 -0.688603 0.604502 0.070449 -0.990786 -0.621274 -0.804057 -0.157701 -1.037510 -0.753686 0.979494 -0.304551 0.099012 0.837243 -0.405930 -0.994934 0.545063 0.249596 -0.629933 -0.170332 -0.450407 -0.109973 -0.540459 -0.255666 0.244287 0.974703 0.219047 
-0.578795 -0.147835 0.333253 -0.534973 -0.420485 0.911955 -0.897372 -0.282015 -0.062990 -0.701163 0.279423 -0.537008 -0.460487 -0.818825 0.100105 0.385713 0.459403 0.529362 0.603705 -0.440935 -0.323287 1.047249 -0.752693 -0.667371 -0.830840 -0.659653 0.653656 -0.856886 -0.463873 0.256687 0.112100 -0.286809 0.900652 -0.322171 -0.098064 -0.667011 -0.406257 0.099176 0.152284 0.684776 -0.397585 0.911348 -0.919716 0.739084 -0.604309 0.772015 -0.474035 0.897144 -0.602819 0.768950 -0.836523 -0.263270 0.114329 -1.007493 -0.097523 -0.359687 -0.349770 0.142904 0.653972 0.902303 0.862234 0.713321 -0.741303 0.871378 -0.118672 0.651250 -0.734335 -0.762122 0.227666 -0.773975 0.435162 0.181563 0.774873 0.750328 -0.523373 0.282790 -0.959930 0.021644 0.919715 -0.207902 
0.808354 0.090304 0.856833 -0.393187 0.494553 0.147501 -0.027008 -0.640296 -0.680942 0.570541 0.023594 0.147568 -0.353221 -1.042813 -0.074760 0.548107 0.962917 0.078030 0.689270 0.615352 -0.856709 -0.867158 -0.343062 0.649598 -0.337474 0.474281 0.278473 -0.324302 -0.327029 -0.499692 -0.793258 0.634118 -0.289246 -0.832287 0.715864 -0.548151 0.119977 -0.526068 0.029457 -0.623027 -0.640799 -0.869557 0.064197 0.981326 -0.053878 -0.007791 -0.296216 -0.274473 -0.439877 -0.487243 0.147170 -0.097894 1.082499 -0.050561 0.823182 0.849833 0.723288 -0.126655 -0.917035 -0.463091 0.388834 -0.728582 0.962376 0.769677 0.109512 0.800910 0.631100 0.802482 0.846909 -0.991763 -0.211036 -0.727359 -0.438020 -0.410953 -0.443506 0.152845 -0.542430 -1.029559 -0.721342 -0.874968 
-0.823076 0.212620 -0.654068 -0.674264 -0.648479 0.213400 0.148880 -0.243097 0.157568 -0.093246 0.317704 0.506404 -0.386094 -0.778954 0.758858 -0.764944 0.272277 1.072021 0.225740 -0.717224 0.138669 -0.641492 0.804503 0.734450 -0.999184 0.251489 0.357969 -0.903977 0.196858 -0.502944 0.550499 -0.666939 -0.382228 -0.899487 -0.822713 0.011358 0.699784 0.347976 -0.024517 -0.726590 0.052121 0.799779 -0.066575 -0.519966 -0.102720 -0.560084 0.597479 -0.576700 -0.495404 0.311869 -0.668849 -0.556770 -0.239418 -0.854229 -0.203767 -1.000083 0.808189 0.677088 -0.590374 0.328276 -0.028363 -0.513269 0.091381 0.933663 -0.898180 -0.485020 0.138905 -0.618921 -0.808385 0.741225 0.725079 0.183065 -0.975465 0.656088 -0.562705 -0.892315 0.705945 0.709120 0.291860 0.333241 
-1.023943 0.711440 -0.589040 -0.797337 -0.453057 0.745171 -0.050459 0.029929 0.161025 -0.064326 0.453382 -0.941031 -0.471348 -0.702005 0.700985 0.131966 0.664920 1.068172 0.036521 0.386391 0.132637 0.480047 -1.002402 -0.497925 -0.704227 -0.102232 0.990038 -0.505847 -0.731061 -0.125159 -0.698378 -0.811661 -0.297524 -0.183827 0.222535 -0.046559 -0.294036 0.205768 -0.252569 0.524676 -0.058590 -0.162174 0.359545 0.151352 -0.881838 -0.193923 -0.093279 0.180375 0.175453 -0.041361 0.856443 -0.534103 -0.544870 0.025155 -0.061851 0.933709 1.033673 -0.195386 0.655010 0.287311 0.046619 -0.628924 -0.330220 0.608143 0.793108 -0.651603 -0.932669 -0.727812 -0.437572 0.402079 -0.313847 -0.075122 0.974838 0.527575 -0.129797 -0.832462 0.316620 0.248098 -0.652063 -0.721871 
-0.552514 0.553722 -0.005449 -0.095909 0.111386 -0.602885 0.350626 0.176856 -0.723246 0.634970 0.751831 0.242163 0.406370 -0.614482 -0.895840 0.008821 -0.238450 0.497033 0.714728 -0.191536 -0.589497 0.892630 -0.603815 -0.720030 0.481197 0.906446 0.611237 0.147001 0.092641 0.010016 -1.002155 0.070876 0.592447 0.149978 0.699394 -0.654181 -0.867897 0.375226 -0.027531 -0.167953 -0.894916 -0.987858 -0.783579 -0.868761 -0.797665 0.909381 -0.235536 -0.554262 -1.011587 -0.294609 -0.242236 0.634811 1.023403 -0.407089 0.148679 -0.362858 0.872239 0.282625 0.073470 -0.268092 -0.565809 -0.721633 0.864562 -0.864602 -0.637686 0.179046 -0.544423 0.109719 -0.663276 -0.218775 -0.612486 0.193510 0.552663 0.372353 -0.932539 -0.403956 0.096312 0.609175 -0.056222 0.356457 
0.886261 0.483008 0.791823 -0.322416 0.188718 1.039354 0.959490 0.179648 0.290372 -0.942738 -0.068162 0.112867 0.495582 -0.421481 -0.239363 0.022996 -0.134354 -0.341857 0.875238 -1.001726 -0.400954 0.575966 0.869161 -0.227235 -0.840896 -0.943693 0.734555 -0.048477 -0.056638 -0.095051 -0.374633 0.304732 -0.970285 0.066347 -0.483524 -0.115239 0.611178 -0.035099 0.037477 -0.385561 0.101041 0.730150 -0.184692 -0.321262 -0.705555 0.709887 0.988585 -0.810279 -0.498067 -0.991445 0.107236 0.697180 0.368823 -0.851724 0.646325 0.788820 1.098011 0.482453 -0.580613 0.748135 -0.657009 0.969872 0.425597 -0.278445 0.447648 -0.568554 0.131627 0.061506 -0.397884 -0.832703 0.132316 -0.617462 -0.207301 0.809816 -0.708944 0.075493 -0.786796 -0.357975 0.153186 0.615075 
-0.306428 0.391014 -0.791882 -0.109156 0.896946 0.209414 0.870552 0.456142 0.339437 0.392165 -1.002650 0.566004 -0.439864 0.692343 -0.739596 0.610262 -0.784564 -0.013670 0.516828 -0.002145 -0.974090 0.130826 0.114950 -1.013475 -0.473214 -0.085154 -0.610717 0.921253 0.849237 0.587688 -0.191705 -0.068418 -0.863445 -0.880065 0.138590 0.946005 -0.893276 0.413188 -0.207065 0.066576 -0.206152 -0.824600 -0.389214 -0.254850 -0.518244 -0.275088 0.752773 -0.680529 -0.022397 -0.761956 -0.907866 0.869462 -0.366500 -0.233613 -0.568560 0.191852 1.098086 -0.575710 0.123149 -0.026165 -0.621611 -0.288811 -0.894058 0.548080 -0.427088 -0.793939 -0.039532 0.365512 0.885150 -0.571358 0.310801 -0.665389 0.815561 0.585715 0.724645 -0.421122 -0.967031 0.013883 -0.062200 -0.392582 
-0.016447 -0.078897 0.772951 -0.885619 -0.226731 0.901686 0.067907 0.274070 -0.921843 0.938517 -0.910059 -0.294737 0.117046 0.701103 -0.107908 0.940878 -0.084267 0.763635 -0.949900 0.707763 0.733793 -0.914402 -0.891855 -0.359526 -1.008880 0.273122 0.336138 0.531473 0.268897 -0.450697 0.140755 -0.083643 -0.929769 -0.745330 0.405205 0.041064 0.847833 -0.432376 0.680417 0.982134 -0.795306 0.165961 -0.648502 0.448004 -0.081349 0.538054 0.763711 0.451605 0.416782 -0.130595 0.587492 0.607319 0.784001 0.047734 -0.168249 0.139579 0.012965 0.513595 0.429769 -0.391691 0.880628 0.466561 0.433528 -0.132968 -0.284728 0.705250 -0.892316 -0.784867 0.748944 0.362853 -0.151308 -0.460194 0.710896 -0.536807 0.468184 0.388043 -0.148009 -1.052055 0.254405 0.028548 
-0.367119 -0.718267 -0.003770 -0.186369 -0.110271 0.018792 0.590573 -0.325788 0.730466 -0.913801 -1.008384 -0.203113 0.132834 0.268044 0.629144 -0.131357 -0.250646 -0.122282 0.604304 -0.837970 0.037974 -0.058462 -0.164565 0.005085 -0.998738 -0.805505 -0.325393 -0.196357 -0.543854 0.305577 0.836891 -0.652877 -0.138729 -0.912534 0.146702 0.233636 0.729189 0.737856 0.558504 0.671330 -0.909276 0.607202 -0.758878 -0.703040 -0.173934 -0.590181 -0.812280 -0.380619 0.571882 0.259321 -0.570379 0.926952 0.157109 0.816282 0.135184 0.482698 0.410111 -0.466377 -0.618002 -0.088025 -0.019127 -0.806477 0.538921 -0.116552 0.771691 0.559251 -0.732405 0.532452 0.614003 -0.915131 0.939715 0.582248 -0.662639 0.087109 -0.697621 -0.772632 0.076241 -0.488435 -0.678311 0.181824 
0.960052 0.320692 -0.890610 0.839725 -0.657941 0.573943 0.745118 0.029206 -0.155442 0.901900 -0.705816 0.557201 0.604017 0.985374 -0.723491 0.116446 -0.423723 0.822697 0.550020 -0.218076 -0.754857 -0.120438 -0.279124 0.270887 0.273334 0.587533 0.354099 0.275525 -0.440837 0.128326 0.922752 0.317132 -0.552685 0.468973 -1.034666 0.238950 -0.273443 0.577113 -0.688430 -0.567355 0.316253 0.809734 0.293413 -0.377291 0.430414 -0.371715 0.598060 -0.083761 -0.702991 -0.670958 -0.606812 0.639567 0.744947 -0.407755 0.584587 0.709421 0.461997 0.703650 0.433171 -0.429765 0.551342 0.125782 0.569157 0.846425 0.916337 0.941055 0.852317 0.611331 0.361469 0.709663 -0.140217 0.751815 -0.967440 0.228478 0.051474 0.701575 -0.460386 0.137492 0.041135 0.574673 
-1.000351 0.095960 -0.451834 0.284594 0.676499 -0.807241 0.626769 -0.131521 0.095261 0.337281 0.038117 -0.308282 0.913001 0.091394 -0.382427 0.259736 0.878372 0.901059 -0.028438 -0.192938 0.164357 -0.945895 -0.869895 0.273634 -0.480198 -0.741533 0.541522 0.611947 0.660916 -0.064910 0.319277 -0.643229 -0.368819 -0.126183 0.081398 0.647059 0.835677 -0.703576 0.097785 1.004549 -0.840665 -0.201642 0.359349 -0.305623 -0.131012 -0.603837 -0.111583 0.613554 0.324903 -0.082051 -0.929739 -0.417741 -0.531566 -0.202935 -0.383088 -0.005833 -0.526945 -0.191852 -0.569261 0.752798 0.609515 0.055534 -0.066389 -0.227874 0.920413 -0.839724 -0.638847 -0.789507 -0.672696 -0.481096 0.800386 0.027765 0.506977 0.774247 -0.377361 0.864245 -0.666172 -0.527750 0.536446 0.631823 
0.627764 0.707575 -0.758322 -0.111927 0.913176 0.563078 0.547236 -0.513890 -0.311493 0.202806 0.198148 0.695827 -0.572737 0.474466 0.134373 -0.102875 1.007548 -0.694281 0.404238 0.084555 0.680762 -0.173830 -0.596352 -0.205399 -0.140276 -0.163918 0.606490 -0.298233 -0.735835 0.850908 0.279414 -0.762010 0.505283 -0.749292 -0.381407 0.910272 0.090530 -0.252288 -0.786580 0.848164 -0.257344 0.488611 -0.631288 0.122703 0.953407 0.686563 1.016670 -0.616242 -0.615383 0.735411 -0.247202 -0.515708 0.618107 0.910490 -0.807751 0.062410 -0.391011 -0.272307 0.746531 0.655940 -0.427853 -0.431893 -0.889475 -0.558474 -0.260885 0.849974 0.573292 -0.958249 -0.588643 0.051742 -0.297861 0.124564 0.409186 -0.110839 0.030125 0.178800 -0.567375 0.562423 0.255970 -0.095103 
0.801983 0.176120 -0.442161 -0.393413 0.582635 -0.777980 0.609985 0.120196 -0.662389 0.732860 0.621092 0.058615 0.653307 -0.381462 0.739588 0.770922 -0.375903 0.622017 -0.070144 0.185246 0.885550 0.756865 0.634536 -0.051363 0.789629 -0.494499 0.562482 0.556368 0.487048 -0.633458 0.887758 -0.330023 -0.531128 0.355384 0.527533 1.009783 0.657649 0.178339 0.026723 -0.679213 -0.007590 -0.217852 -0.152083 -0.555303 -0.357297 0.941923 1.038632 -0.748402 -0.056715 0.646433 0.108582 0.750377 0.877862 0.873820 -0.400736 -0.386578 1.043650 -0.816557 -0.886827 -0.613514 0.846805 -0.944776 0.774741 0.338744 0.447386 0.397837 -0.932386 0.959346 -0.155230 -0.411854 -0.786895 0.616276 -0.793155 -0.852749 0.856924 0.018341 -0.396026 0.984226 -0.779738 0.016998 
-0.351888 0.392001 0.482613 -0.177587 -0.593933 0.995069 0.276288 -0.800883 0.940911 -0.631737 0.098655 0.511634 -0.557223 0.152352 0.854330 -0.520277 0.649288 -0.895675 -0.788416 -0.018627 0.246433 -0.943914 -0.066363 -0.134098 -0.138953 -0.669967 -0.829610 0.251652 0.149285 0.060663 -0.283620 0.296480 -0.304951 0.033911 -0.883811 0.427930 0.012811 0.727674 0.748854 0.870726 0.000905 -0.303287 -0.729439 0.842986 -0.927872 0.071482 -0.356045 0.960738 -0.528382 0.528659 0.952203 -0.381648 0.198063 0.759968 -0.466554 -0.610959 0.600780 1.008560 -0.900094 0.944498 0.841919 -0.711419 -0.052399 0.300771 -0.491571 -0.091045 0.697906 0.427903 -0.034332 -0.485998 -0.498848 -0.126712 0.374369 0.635825 1.069615 0.996495 -0.154842 0.206816 -0.013045 0.202423 
0.333582 -0.747108 0.271335 0.388582 -0.344066 0.595901 0.428748 0.778113 -0.366943 0.527811 -0.383369 -0.478636 0.354713 -0.198623 0.245505 -0.951240 -0.763993 -0.046235 0.321721 -0.363311 -0.326302 -0.278093 -0.809866 0.104183 0.549974 0.606932 0.272119 -0.163774 0.453480 -0.458138 -0.108280 0.291330 -0.034863 -0.899950 0.684691 -0.014368 -0.407150 0.636990 0.039861 -0.223014 -0.560894 -0.182989 1.032002 0.202730 0.217940 0.757791 -0.716355 -0.906183 0.419345 -0.684266 -0.210011 0.598669 0.656165 -0.597560 -0.303600 0.178206 0.833782 -0.709755 0.078534 -0.839288 0.096717 0.760543 0.515497 0.412789 0.016979 -0.810811 0.677662 0.490554 -0.134166 0.873239 0.037974 -0.288473 -0.728143 -0.208159 0.881991 -0.067391 0.919189 -0.893965 -0.427509 -0.047047 
-0.732809 -0.732205 -0.032416 0.557668 -0.605903 0.635431 0.641696 0.104033 -0.510568 0.297299 -0.548700 0.118843 -0.281433 -0.878949 0.473495 0.232507 0.046304 0.785451 0.454041 0.691807 0.319680 -0.065116 -0.861311 0.418551 -0.980491 -0.999954 -0.626638 -0.768798 0.018207 -0.517108 -0.359634 -0.898352 0.813513 -0.936406 -0.071821 -0.576787 -0.041743 -0.339083 0.112364 -0.291259 -0.027710 -0.657372 -0.357629 0.970516 -0.941772 -0.036054 0.771078 -0.566011 0.069856 -0.340698 0.691270 0.542032 -0.251023 0.567741 0.407606 0.048114 0.183679 -0.107385 -0.409506 1.013220 -0.107656 -0.523498 0.078100 0.142331 0.422547 -0.478558 -0.436505 0.242667 -0.662626 -0.065914 0.911257 -0.663571 0.825301 0.594126 0.907593 0.472279 0.220263 0.183568 -0.362372 -0.642964 
0.143766 -0.156965 -0.560000 0.918426 0.777720 -0.368084 0.334961 -0.263020 0.523143 0.970917 0.652984 0.190767 1.039094 0.664156 -0.634397 0.372055 0.690833 0.479437 -0.012085 -0.515896 0.555041 0.890415 0.090583 -0.730761 -0.901204 0.012352 0.078095 0.909156 -0.851773 0.241749 0.829322 -0.979512 -0.609728 0.593328 -0.613104 0.525171 -0.215035 -0.150092 0.883298 -0.216049 0.000614 -0.472887 -0.133904 0.709629 -0.695574 -0.638779 0.688654 0.439866 0.003966 0.985510 0.766021 0.399351 -0.285372 1.016816 -0.593207 -0.492376 0.857620 -0.349595 0.760261 0.806796 -0.647659 -0.808453 -0.585250 -0.261649 -0.185722 0.678524 -0.974002 0.439844 0.115152 0.895089 0.804836 0.415145 -0.207450 0.175196 -0.448958 0.902929 0.534317 -0.450883 0.569777 -0.706645 
-0.213723 0.180345 -0.290664 -0.391779 -0.837927 -0.703478 -0.943232 -0.134103 -0.270906 -0.700085 -0.760415 -0.150467 0.655600 -0.337234 0.346404 -0.639739 0.724405 0.056882 -0.581449 -0.798988 -0.390078 -0.648680 -0.726696 -0.910272 -0.050092 0.396601 -0.722399 -0.638006 0.512526 0.560381 -0.216051 0.472791 -0.623611 -0.284218 0.233469 -0.177591 -1.012510 -0.937804 -0.439360 -0.708693 0.041711 -0.245756 -0.197494 -0.581884 1.045563 -0.397338 -0.127926 -0.538779 0.446743 0.042124 -0.996664 -0.878453 0.273213 0.128531 -0.062288 0.836019 -0.279625 0.861540 -0.168207 0.737330 -0.644251 -0.414839 0.690343 0.655544 -0.605175 0.241835 -0.161156 -0.278756 -0.901466 -0.581850 -0.329623 0.477963 -0.324654 0.622664 -0.545467 0.472298 0.662384 -0.993525 0.428955 -0.748119 
0.812107 0.806424 0.147108 0.204719 -0.096361 -0.958999 0.604258 -0.047325 -0.441587 -0.033607 0.303582 0.870895 0.163808 0.651093 -0.020133 -0.836157 -0.290438 -0.397836 -0.090233 0.788963 0.832492 0.352024 -1.021584 -0.331638 -1.018143 0.099381 0.866027 -0.648227 0.529383 0.558184 -0.378418 -0.319329 0.328558 -0.711238 -0.108844 0.366402 -0.689352 -0.570829 0.302862 1.066826 -0.077611 0.896114 -0.295160 0.035901 0.104713 0.640657 0.104496 0.672792 0.260655 -0.293473 0.350766 -0.922658 -0.629171 -0.070167 -0.069110 0.060725 0.356826 0.211427 -0.021317 -0.317322 0.934343 -0.222312 0.264108 -0.381768 -0.879537 -0.202057 0.542527 0.403486 0.456888 0.664455 0.211004 0.218061 0.453004 0.109317 -0.376162 -0.172448 -0.674226 0.935863 0.171274 -0.100364 
-0.597886 0.585216 0.608623 -0.590661 -0.165359 -0.487471 -0.802552 0.006102 -0.956899 0.958158 0.614375 0.091602 -0.740973 0.566336 -0.761707 0.049617 -0.289793 -0.492014 0.836071 0.623021 -0.298488 -0.229486 -0.727309 -0.690468 0.930803 0.889744 0.446087 0.972113 0.432071 -0.025961 -0.004450 0.118492 0.088493 0.265668 -0.939864 -0.602533 -0.842283 0.670637 0.717136 1.060143 0.291081 0.025869 -0.211866 0.563179 0.467248 -0.811805 0.575926 -0.613642 0.646597 -0.505200 0.844908 -0.725635 -0.972512 0.923596 0.121452 0.853184 -0.430116 0.525958 0.614512 -0.830569 -0.807756 0.434275 -0.637981 -0.113172 -0.993707 -0.874480 -0.041115 0.902242 0.209629 0.570060 -0.814373 0.938940 0.928266 -0.266961 -0.292811 0.813302 0.620549 0.980643 -0.892315 0.175137 
0.640286 -0.584722 -0.748127 -0.187812 -0.388595 1.003232 -0.049344 -0.885755 0.252072 -0.577130 -0.425370 0.753324 -0.664848 0.670364 -0.503123 -0.672678 -0.214119 -0.066384 -0.728560 0.889373 -0.625497 -0.157009 -0.271431 -0.419171 -0.459146 -0.162407 0.459161 -0.004824 0.594426 0.207794 -0.511539 -0.528495 0.443383 0.565012 -0.104364 0.625360 -0.764112 -0.251916 -0.715516 -0.189803 -0.718978 -0.731649 -0.647515 0.883579 0.749638 0.295435 -0.176968 0.805891 0.492660 -0.820079 0.057331 0.481916 0.116944 0.197557 0.473544 -0.768421 0.888394 0.220824 -0.675563 -0.140528 0.234345 -0.583436 -0.494018 -0.506190 -0.743761 0.519889 0.292131 0.317835 0.239777 0.489464 0.596938 -0.673381 0.393796 -0.912846 -0.569619 -0.504650 0.354630 0.004037 -0.875922 0.602505 
-1.012654 -0.169732 0.511518 0.804755 0.058432 0.784875 -0.390237 1.012307 -0.821974 -0.084102 -0.806019 0.605042 -0.484061 -0.860829 0.168172 -0.380605 -0.035207 0.427133 -0.692326 0.487883 0.279385 0.455381 0.025771 -0.162750 -0.555215 0.091414 -0.015989 -0.106570 0.103807 -0.353752 -0.890922 -0.711141 -0.255135 0.187750 -0.817057 0.712953 -0.887920 -0.614163 -0.309773 0.359755 0.767025 -0.276920 0.585102 -0.780324 -0.289483 -0.814085 -0.416547 0.358503 0.829769 -0.264920 -0.753277 -0.870879 0.255280 0.813926 -0.392582 -0.843911 -0.140028 -0.299779 -0.070538 -0.746039 -0.825488 0.928062 0.879255 0.410936 0.861228 0.306624 0.491735 -0.557392 -0.038288 -0.179135 0.582543 0.038187 0.563124 0.203574 -0.431267 -0.305035 0.056763 -0.155668 -0.560813 -0.524140 
-0.458415 0.407944 -1.022449 -0.803349 -0.626323 0.427742 0.014985 -0.087840 -0.854454 0.678028 -0.105577 -0.937989 0.118629 0.879217 0.586099 -0.177858 -0.613470 0.062580 -0.446327 0.147662 0.194484 0.079348 0.820468 0.314575 -0.729833 0.157254 0.227090 -0.054910 0.851904 -0.436222 -0.315781 0.512060 -0.905984 -0.538355 0.088745 0.488150 0.806511 0.607859 -0.262171 0.396531 0.682091 -0.791554 1.024971 0.968171 -0.164544 0.320614 -0.312954 -0.917907 -0.112832 0.928431 -0.136616 -0.739355 0.291157 -0.173279 -0.884946 -0.098837 0.456821 -0.218312 -0.345980 -0.135741 0.302372 0.679859 0.320929 0.162822 0.270277 -0.243078 -0.233942 0.073143 0.741919 -0.929426 0.904910 -0.282232 0.571617 0.738069 -0.128075 -0.358648 0.697700 -0.821125 0.629678 -0.845602 
0.629481 -0.235817 -0.668753 0.569697 0.770526 -0.150541 -0.704018 -0.190607 -0.799274 -0.424902 -0.410637 -0.422590 -0.073984 0.702322 0.116824 -0.897221 0.372625 -0.825510 0.462622 -0.381976 -0.255767 1.000643 -0.107745 -0.896901 0.782002 0.241762 -0.108585 0.659679 -0.740379 0.747780 -0.472484 0.171988 -0.603482 0.312724 0.613791 0.886507 -0.944751 0.628259 0.659206 -0.801194 0.602879 -0.010584 1.064949 -0.645104 0.324730 0.756662 0.013655 -0.850878 -0.154925 0.703492 -0.361355 0.470916 -0.521363 0.644172 -0.934041 -0.907800 -0.323332 0.571415 0.357630 0.725541 -0.619620 0.080145 0.446386 -0.734014 -0.281284 0.204609 0.921356 -0.514534 0.405372 0.474806 0.441483 -0.764212 0.271882 0.937693 0.277662 0.487812 -0.794500 0.602500 -0.733399 -0.795368 
-0.403014 0.356211 0.242648 -0.539023 -0.614290 -0.131884 0.843238 0.532655 0.159701 -0.588331 -0.008660 0.409303 -0.948662 -0.302963 0.242070 -0.894189 -0.916479 0.563777 0.702302 0.512980 0.046611 -0.610610 0.202906 -0.051617 -0.829643 0.174228 -0.476082 -0.732867 0.573296 0.762053 -0.927367 -0.330180 -0.040650 -0.615107 -1.004131 0.348036 -0.825037 -0.442719 -0.387109 0.657449 -0.636020 0.592440 0.202000 -0.217558 -0.356449 0.293099 -0.367696 -0.779958 -0.023206 -0.078757 -0.079908 0.631648 0.563578 0.888125 1.060763 -0.095336 0.164562 -0.778767 0.693628 -0.883053 -0.580422 0.098128 0.047996 0.395390 -0.927071 -0.745511 -0.324416 -0.152498 -0.515669 -0.323849 -0.123562 0.852117 0.400960 -0.963124 -0.098990 0.664728 1.001190 -0.937291 0.920794 -0.623274 
-0.293935 -0.724545 -0.247141 0.382122 -0.500310 0.449372 0.561313 -0.338778 -0.302175 0.943920 0.290864 -0.894667 0.986778 0.311025 -1.030631 0.187661 -0.301336 -0.579892 -0.710557 0.964960 -0.051054 0.704670 -0.385710 -0.114175 0.689529 0.817808 -0.565287 -0.099758 0.870718 -0.891004 0.618063 0.029713 0.419498 0.543748 0.460702 -0.498798 0.224956 -0.690519 0.633186 0.977941 -0.834212 -0.494898 0.195525 -0.334701 -0.301810 0.029514 0.420051 0.046373 -0.244747 0.482782 -0.589356 -0.645800 -0.529393 0.199161 0.932775 0.599589 -0.628039 0.898424 0.828460 0.526675 -0.643095 0.415479 0.208320 0.062264 -0.933516 0.934185 0.417008 -0.865884 -0.423745 -0.050930 0.517222 0.716414 -0.072627 0.415534 0.135413 0.024288 -0.784648 -0.261267 -0.968340 0.936804 
0.291514 0.656304 0.644915 0.724689 0.780783 0.166545 0.927982 0.428970 0.002829 0.088881 0.620720 0.352686 0.992044 -0.064862 -0.550711 -0.929997 0.019484 -0.647889 0.027894 -0.657046 0.392999 -0.215809 -0.378463 -0.535509 0.830886 -0.023201 0.325013 0.961018 -0.289787 0.170285 -0.040568 0.625430 0.913570 0.039617 0.835057 -0.741551 0.385138 -0.491548 -0.679121 -0.878889 0.269663 0.682926 -0.042401 0.900156 0.853955 -0.048993 -0.339348 0.499066 0.700162 0.091054 0.749471 0.205264 -0.178012 -0.631827 -0.467384 -0.250923 -0.145075 0.879552 0.112586 0.612239 0.044148 0.247892 -0.066405 0.057812 -0.944345 0.436180 0.588305 -0.252504 -0.967147 0.059210 0.674450 0.699954 0.688070 0.146307 -0.166025 -0.658045 0.642308 0.258612 0.287562 0.506950 
-0.144324 -0.521575 -0.749724 0.483930 0.708342 0.575750 0.058111 -0.417012 0.297354 -0.384001 0.655317 0.158299 0.897649 -0.929152 -0.345024 0.383061 -0.372420 0.388185 -0.624794 0.738454 0.855130 0.850476 -0.497068 0.875652 0.163854 -0.813204 0.005260 -0.868819 -0.583059 -0.113941 0.600451 0.815816 0.052529 -0.478553 0.796005 -0.507823 -0.784714 -0.421150 0.195778 0.731409 0.516941 0.263043 -0.301918 -0.198638 0.688732 -0.802306 -0.756939 0.488119 -0.722575 0.134812 0.865861 -0.940726 -0.865013 -0.329776 -0.886162 0.071492 0.364209 0.773256 -0.820847 0.910186 0.612394 0.809561 -0.106334 0.441296 -1.045237 -0.914423 -0.042516 -0.987534 -0.083836 -0.294432 0.895877 0.896514 -0.281361 0.202106 0.556893 0.305823 0.025230 0.846560 0.319245 -0.435358 
0.152390 -0.548947 0.808144 -0.513025 0.072934 -0.705875 0.161345 0.602383 -0.156923 -0.556005 0.180280 -0.563887 -0.744423 0.167202 -0.045664 -0.503898 0.747921 -0.166101 0.913973 0.021668 -0.867682 0.244228 -0.019144 0.598038 -0.481691 0.743995 -0.487881 0.214943 -0.457969 -0.219124 -0.800922 -0.464831 -0.633089 -0.061197 0.729106 -0.604750 -0.753442 1.051511 0.837906 -0.066126 0.387886 -0.722848 0.961066 0.425807 0.701163 -0.364358 0.105738 -0.824508 0.791935 0.070972 -0.492955 0.800954 0.204401 -0.453152 -0.545080 0.252227 0.666006 0.200014 0.209815 -0.089111 0.115413 -0.599252 -0.734898 0.789182 0.815812 0.492694 0.125030 -0.296297 -0.804510 -0.604741 -0.081827 0.340020 -0.646714 0.386812 0.689315 0.502396 -0.583744 0.186674 0.531962 0.357827 
0.925376 -0.276409 -0.707995 -0.080680 0.342741 -0.240509 -0.410333 -0.173288 -0.303663 0.710099 0.211425 0.973192 0.269585 0.633323 -0.408610 -0.920560 -0.974230 0.538278 -0.911503 -0.338657 0.594007 0.770259 -1.081610 -0.172449 -0.702844 0.875865 0.752679 -0.315204 0.077241 -0.373021 -0.512458 0.619506 0.829848 -0.164567 -0.268635 -0.104140 -0.024508 0.007213 -0.149825 -0.095563 -0.692477 0.764192 0.396567 -0.532411 0.831945 -0.218358 -0.131108 -0.618350 -0.471540 -0.567860 0.747050 0.385109 0.748208 0.558991 -0.951878 0.034789 -0.117947 -0.566850 0.816292 1.031345 -0.312047 -0.714556 0.112345 0.471403 0.135230 0.161087 -0.738662 0.588080 0.040317 0.438451 -0.937403 -0.701463 -0.636080 -0.581955 0.464394 0.046521 0.129285 0.005046 0.287762 1.009193 
0.621437 0.066462 -0.483178 -0.803225 -0.596052 -0.617227 -0.174186 0.781019 -0.916667 0.711607 0.580843 0.508768 -0.948207 -0.935701 -0.045742 -0.831691 0.456434 -0.257314 0.811180 -0.680943 0.822890 -0.583457 -0.775422 0.589924 -0.115927 -0.991942 0.750570 -0.322935 0.953237 0.698457 0.490346 -0.619737 0.132079 0.492106 0.053730 0.720460 -0.810425 0.281882 -0.461704 -0.472899 -0.187339 -0.809702 1.046091 0.559921 -0.337606 0.240141 -0.227793 -0.057238 -0.063830 0.582259 -0.665232 0.245190 -0.506062 0.205190 -0.205657 -0.931529 0.212715 0.060051 -0.078486 0.588625 -0.484473 -0.529669 0.023369 -0.760192 0.744668 -0.458095 0.509678 -0.965974 -0.044675 -0.207691 -0.187296 -0.072801 0.305452 0.668041 0.711898 0.242742 0.458732 -0.554800 0.564983 -0.508886 
-0.293561 0.962275 -0.292412 -0.874126 -0.277678 0.611121 0.421680 0.206137 0.471511 0.701543 -0.060100 -0.023327 0.410602 0.757145 0.453244 -0.251588 -0.749229 0.271618 -0.332472 0.955872 -0.889662 -0.848419 -0.931683 -0.360208 0.071794 -0.521406 -0.299567 -0.502087 0.156714 0.834479 0.315775 -0.771791 -0.777105 -0.254494 0.305465 0.502387 0.854493 -0.366623 0.016204 0.229191 0.140153 -0.149253 -0.119846 -0.772244 0.042597 -0.961576 0.847093 -0.656491 0.152099 0.962378 -0.582029 0.479323 0.974504 -0.868011 -0.070224 -0.879972 -0.281140 -1.048141 -0.388602 0.863851 -0.379715 0.386974 -0.858127 -0.742766 -1.045981 -0.154830 0.063964 0.719894 -0.000820 0.867631 -0.256970 -0.098350 -0.316235 -0.974927 -0.500230 -0.594585 0.069361 -0.249445 0.965872 0.989283 
0.569956 -0.763843 0.267991 -0.143497 -0.484463 -0.598311 -0.485011 0.531251 0.177088 0.880229 -0.772137 -0.583944 -0.628605 0.223068 -0.841969 -0.855480 0.078100 0.825245 0.188387 0.531388 0.155865 0.329270 0.704910 0.459712 0.374936 0.954750 -0.544929 0.401021 0.349592 -0.838923 -0.151172 0.312508 0.348608 0.948924 -0.525046 -0.651336 -0.851395 0.784989 -0.098275 -0.288931 0.036094 0.723237 0.926259 -0.831566 -0.927128 0.335269 0.412215 -0.730270 1.005396 -0.783306 -0.293565 0.273110 0.985466 0.334477 0.243101 0.484086 -0.456754 -0.283436 -0.825426 0.761545 -0.780199 0.767852 0.750691 0.268442 0.457294 -0.059898 -0.644053 0.831513 0.379615 -0.093777 -0.791999 -0.625134 0.919644 0.779799 0.154399 -0.783988 -0.915657 0.205747 -0.517704 0.948063 
-0.667222 0.659438 0.464380 0.405440 0.992829 -0.681607 0.142116 0.388789 0.053487 -0.871078 -0.670869 0.807405 0.937957 0.613652 -0.204474 0.469911 0.758327 0.179196 -0.557004 -0.868131 -0.384481 -0.139629 -0.020768 0.077121 0.174799 -0.691930 -0.838241 -0.876971 -0.554794 0.757065 -1.023026 -0.970505 -0.017977 0.633843 -0.346484 -0.387468 -0.298747 0.721744 -0.745092 -0.787171 -0.729716 -0.567795 0.318338 0.520652 0.299962 -0.289088 -0.074165 0.196284 -0.764663 -0.747134 -0.356207 0.308373 -0.066934 -0.133373 0.106839 -0.179726 -0.147151 0.511008 0.833310 -0.944698 -0.533309 0.108672 -0.274166 -0.792158 0.255894 -0.017412 -0.069014 0.924677 -0.849465 -0.845033 -0.581443 0.836662 0.688130 -0.322023 0.018241 0.364817 -0.190567 -0.528261 -0.795760 0.118878 
-0.036676 0.353673 0.675092 -0.203224 0.039343 0.679862 0.144345 0.825642 1.011192 -0.357486 0.159635 0.203992 -0.458994 -0.344825 -0.040363 -0.607205 0.274535 -0.457710 0.640868 0.216099 -0.346774 -0.417392 -0.782999 -0.842461 0.159436 0.234426 0.720011 0.970339 -0.670833 -0.077760 -1.008084 0.064640 0.061089 -0.834764 0.807765 -0.862483 0.590520 0.536509 -0.055316 -0.508983 -0.563443 0.542797 0.010577 0.058590 -0.529397 0.008241 0.839637 0.171274 -0.898909 0.411974 -0.418813 -0.894793 0.504337 -0.576214 0.746976 0.965426 -0.509706 -0.493994 0.649285 0.045212 -0.461743 -0.984208 -0.550729 0.915998 -0.310960 0.827801 0.904396 0.964533 0.221303 0.300641 0.913241 -0.786920 0.096543 -0.578226 -0.779194 -0.550538 -0.138766 -1.077982 0.878482 -0.153044 
-0.695035 -0.041616 -0.932472 0.752697 0.949576 0.455570 0.214526 0.721175 0.520201 -0.060179 -0.948337 -0.077531 -0.741117 0.596799 0.526256 -0.503102 0.352262 -0.399346 0.608807 0.764068 -0.887861 0.781763 0.548113 0.499522 -0.017110 0.924460 0.820130 -0.497630 -0.189898 0.843987 0.017617 -0.741711 0.890684 -1.023024 -0.699647 -0.490852 -0.116553 -0.225629 -0.320342 -0.397288 -0.968622 -0.635286 -0.223595 -0.813468 -0.356907 -0.698766 0.116669 0.941609 0.335394 0.900812 0.785641 0.294113 0.474117 -0.705820 0.474411 -0.640536 0.927516 -0.722998 -0.170908 -0.672586 0.971733 -0.048671 0.828820 0.181437 -0.758106 0.129503 -0.025466 -0.376774 0.763670 0.341604 0.958871 -0.850914 -0.855624 0.657957 -0.486672 -0.133693 0.386434 0.550492 0.553438 0.660032 
-0.161221 0.752973 -0.206760 -0.614022 -0.779862 0.154524 -0.938151 0.152862 0.061058 0.852861 -0.656944 0.451734 0.350369 0.562892 -0.018915 -0.529388 0.698006 -0.922235 -0.316865 0.338826 -0.802332 0.689695 -0.968112 -0.085469 0.859295 0.460870 0.371566 -0.823319 0.041787 0.547861 0.132180 0.398283 -0.413593 0.424870 -0.264796 -0.353026 -0.064420 0.954659 0.600520 0.730418 0.665307 0.986673 0.114666 -0.426336 0.923356 0.023380 0.455968 -0.112110 0.312990 0.507079 -0.772815 -0.874761 -0.091352 -0.824200 -0.031075 0.399801 -0.497658 -0.059605 -0.241341 0.945212 0.293433 0.072290 -0.599095 0.430303 0.310360 0.255311 -0.148000 -0.760433 -0.114703 0.385610 -0.278766 -0.992907 0.169089 0.201810 0.469791 -0.318633 -0.091191 0.083187 0.048539 0.229119 
0.820033 -0.079186 -0.290889 -0.299189 -0.558201 0.684181 0.024493 0.734759 0.044647 0.291030 -0.390647 -0.043154 -0.051369 -0.584179 0.219019 -0.772250 -0.493514 0.369972 0.129644 0.312581 -0.824544 -0.465792 0.522250 -0.749176 0.087884 -0.044003 -0.319526 -0.838995 0.158002 -0.733328 -0.474795 0.349721 0.613944 0.342168 0.617030 -0.339901 0.440913 -0.252087 -0.594901 0.895663 0.618413 0.256469 -0.406584 0.044042 0.860081 -0.866645 1.018990 -0.408156 -0.505251 0.330432 -0.171870 0.355923 -0.180224 0.690144 -0.867131 0.721926 0.294147 -0.474797 -0.071226 -0.117089 0.481075 0.370601 0.633937 -0.378168 0.847813 -0.311185 -0.354910 -0.994889 -0.832438 0.735443 0.773330 0.326801 0.263154 0.879072 -0.522278 0.909340 0.658266 -0.414443 -0.091799 -0.403180 
0.315544 0.483979 -0.349624 0.233606 -0.608624 0.486528 0.575311 0.914967 -0.202053 -0.427912 0.386263 0.660888 0.127699 0.722606 0.680351 0.192667 0.174999 -0.062164 -0.325979 0.112451 0.381524 -0.806094 0.615755 0.219782 0.900250 0.959612 0.760041 1.022881 -0.292923 -0.647427 0.272018 -1.014198 -0.345485 0.865223 -0.794652 0.696098 0.368564 0.665990 0.102663 0.307995 0.674534 0.949511 1.018191 0.769217 0.174980 0.236868 0.268482 -0.530225 -0.063549 -0.231800 0.422106 -0.660190 0.882724 -0.142136 -0.830583 0.125600 -0.186001 -0.412180 0.832524 -0.480891 1.005157 0.894904 -0.539939 0.125028 -0.785700 -0.694785 -0.454506 -0.032598 -0.647944 0.648089 -0.408090 0.282299 0.769057 0.501609 0.587168 -0.871153 -0.172035 -0.049025 0.265089 -0.190311 
-0.960440 0.333667 0.369179 0.611085 0.137177 -0.177460 -0.064457 -0.863606 -0.805468 -0.059100 0.789720 -0.520707 0.846175 0.281770 0.204061 -0.318673 -0.462227 -0.457404 0.940920 -0.041941 0.431393 -0.229414 -1.011729 -0.255222 -0.451088 0.570150 0.747057 0.548719 0.948831 -0.185623 0.740908 -0.134091 -0.338113 0.834826 0.199183 -0.134236 -0.778513 0.064463 0.194405 0.026799 0.875687 -0.080104 0.780427 -0.963134 -0.559314 0.570820 -0.017810 0.163813 -0.537894 0.973032 -0.266262 -0.977800 -0.466065 -0.618873 0.288408 0.008006 -0.139877 -0.523943 -0.712145 0.396145 -0.638592 -0.283812 0.737488 0.519732 -0.577263 -0.935517 -0.590640 0.043067 -0.263144 0.154760 0.877293 -0.644840 -0.650795 -0.810006 -0.729441 -0.596394 -0.900922 0.532990 -0.502130 0.879775 
0.398412 0.831727 -0.152620 0.903524 0.201619 0.386681 -0.220314 -0.881593 0.268805 -0.513112 -0.797876 -0.314402 -0.110736 0.833169 0.060433 0.781515 -0.536935 -0.937066 -0.532052 0.088090 -0.423759 -0.312371 0.123069 -0.607796 0.604430 -0.186220 0.026900 -0.268543 0.687727 -0.628220 0.303450 -0.756646 -0.619237 0.018480 -0.668703 -0.595251 0.677926 -0.909472 0.105262 -0.080598 -0.791275 -0.207919 0.591915 -0.081978 -0.053173 0.087781 -0.584745 -0.986783 -0.386741 0.424446 0.178937 -0.101754 0.015434 0.817199 0.192534 0.484120 -0.910392 -0.014778 0.572549 0.823850 0.553510 -0.062368 -0.475457 0.020676 -0.778489 0.888918 -0.949209 0.692680 0.345008 0.087658 0.875689 -0.766337 0.529141 -0.588850 -0.392042 1.037926 0.796018 0.534595 -0.369718 -0.018518 
-0.236401 0.271205 0.250439 -0.325300 0.657020 -0.295595 0.612147 0.077113 -0.380489 -0.274692 0.720743 -0.287568 1.002501 -0.639198 0.867382 0.426372 0.653021 -0.539818 0.464511 0.661994 0.220893 -0.795875 0.052821 0.016328 0.610989 -0.236332 0.625720 0.421750 0.272292 0.730466 -0.341583 -0.392645 -0.681011 -0.373134 0.716886 0.375805 -0.881446 -0.156594 0.113030 -0.041194 0.320882 0.883690 -0.002705 -0.851847 -0.037093 0.413082 -0.016942 -0.969136 -0.437118 0.051693 0.671103 -0.472346 -0.600228 0.292840 -0.005721 -0.345118 -0.294407 0.376713 0.204392 -0.726119 0.594120 0.597388 -0.447021 0.836119 0.556772 -0.526114 0.453008 0.622019 -0.151443 -0.549421 0.750820 -0.945018 -0.911831 -0.316565 -0.801633 -0.456928 0.233146 0.572283 -0.436169 0.826915 
0.050765 0.952761 0.497689 -0.842565 -0.493104 0.970077 0.960784 0.982961 0.626210 0.068354 -0.711546 0.383823 0.264113 0.826242 -0.920589 -0.992325 0.126098 -0.046261 0.831628 0.841819 0.904131 -0.854385 -1.019706 0.664217 0.661381 0.854785 0.104934 -0.965991 -1.013575 0.902276 -0.903529 -0.149886 -0.202223 0.175748 -0.794487 0.029776 -0.826073 -0.583485 0.438814 0.635519 -0.337606 0.741685 0.540419 -0.326192 0.484716 0.848179 -0.529079 -0.812885 0.905412 0.253779 0.062543 -0.336434 -0.456045 -0.363623 -0.080490 0.477468 0.303582 0.855185 -0.161102 0.009599 -0.895683 0.816616 -0.530046 0.804307 -0.738283 0.148294 0.357499 0.387745 -0.375516 0.017864 -0.238135 0.446457 0.007419 -0.040834 0.045483 1.000105 -0.862483 -0.419074 -0.204591 0.764093 
0.820254 -0.744719 -0.297152 0.216062 -0.326491 -0.833338 -0.701256 0.258895 0.871876 0.423987 0.983052 -0.123673 0.423992 0.765082 -0.838213 -0.187632 0.161646 -0.867004 -0.406719 0.911869 -0.189967 0.923934 0.159568 0.896097 0.259066 -0.057226 0.461529 0.797881 -0.834550 -0.638070 0.585796 0.550663 0.443689 0.415437 -0.918090 0.662975 0.912691 -0.013517 -0.174884 -0.307828 -0.927239 0.909025 0.063489 -0.738939 0.246744 0.932170 0.094068 -0.623475 0.261811 -0.012157 -0.798129 -0.796790 -0.020491 0.231439 0.498572 0.554070 -0.797491 -0.647443 0.355800 -0.390729 -0.179223 -0.425821 -0.812630 -0.711469 -0.588519 -0.184220 0.731018 -0.002441 0.025520 -0.725828 0.562463 0.139398 -0.322477 0.949356 1.015980 0.227021 -0.496114 -0.026779 -0.001814 -0.498213 
-0.504053 0.160461 -0.822537 -0.632885 -0.899828 0.658594 0.925193 -0.839179 0.453089 -0.112600 0.562687 0.687603 0.297630 -0.500766 -1.016769 0.973649 0.914976 0.050611 0.119442 -0.403672 -0.225745 -0.050024 0.768484 0.787836 0.365391 -0.766058 -0.701582 -0.242542 0.968224 0.507360 0.300704 0.839546 0.568947 -0.673083 0.478261 0.259344 0.410908 0.012580 -0.752875 0.330197 -0.549089 0.808887 0.801326 0.747905 -0.931568 0.179339 0.574219 -0.809295 -0.479433 0.907479 0.184110 -0.559768 -0.171107 0.969921 -0.009676 0.972708 0.634506 0.263097 0.182122 0.896117 0.400803 -0.250085 0.056027 0.823298 0.972015 -0.108605 0.247013 -0.923216 0.312165 -0.419224 -0.550930 -0.708771 -0.029418 0.530271 -0.350340 0.454674 -0.944080 -0.879093 1.021184 -0.165858 
-0.643568 -0.242554 0.895858 0.752715 -0.858205 0.627263 -0.044767 0.063703 0.437457 -0.113681 0.025522 -0.608804 -0.326595 0.057442 0.687158 -0.021874 -0.207181 0.608471 0.104098 -0.826542 -0.250012 -0.670722 0.789351 -0.381510 -0.770930 -0.795435 0.029906 -0.830653 0.109158 -0.157356 0.688775 0.109838 0.922480 -0.423424 -0.725686 0.766748 -0.825607 0.934056 0.506904 -0.714032 0.064057 0.928583 0.700544 -0.040404 -0.375972 0.070460 0.815280 -0.447690 0.377549 -0.441368 -0.069817 0.258765 0.754244 0.297406 0.252034 -0.636307 0.273527 0.067119 -0.047798 0.284951 0.507490 0.262546 -0.692401 -0.217284 0.043671 0.815457 0.618312 -0.377827 0.478275 0.468153 -0.573522 -0.537005 -0.764248 0.664241 0.820103 -0.331341 -0.333185 0.913879 -0.468382 -0.173596 
-0.269335 0.736746 0.155734 -0.029158 -0.629646 -0.125991 -0.655518 -0.337088 0.527829 -0.906647 0.668643 0.478559 -0.429666 0.404142 -0.003115 -0.496061 0.681603 -0.680052 0.016495 -0.419423 0.799364 0.540002 -0.377157 -0.126825 0.731214 0.899846 0.246629 0.854779 -0.226416 0.836632 -0.707113 0.731355 0.762579 0.565080 0.882451 -0.020816 -0.907145 0.637220 0.024119 -0.091429 0.727481 -0.585036 -0.838667 0.938901 0.927184 0.925076 0.534519 0.114875 0.502373 0.917272 -0.448013 -0.260646 0.761219 0.741765 -0.020778 -0.110517 -0.632180 0.718887 -0.135788 -0.057851 -0.580482 0.289019 -0.486428 0.654750 -0.730342 -0.299773 0.508055 -0.317729 0.934659 0.177469 -0.436939 0.859909 0.589148 -0.656747 0.073193 0.149123 0.217953 -0.713726 0.422556 0.674832 
-0.173033 -0.941354 -0.238372 -0.278176 -0.114436 -0.559981 -0.560420 0.979542 -0.779965 0.289991 -0.683782 -0.933446 0.921964 0.442799 0.849929 -0.154324 -0.743258 -0.581582 -0.782775 -0.504597 -0.364920 -0.457052 -0.096891 -0.988512 -1.007454 -0.464950 -0.598953 0.554226 -0.230026 -0.561904 0.257263 -0.641300 -0.933375 0.061876 0.740074 0.136744 -0.016519 0.616054 0.674797 -0.841903 -0.660373 0.602727 0.920025 0.308631 -0.853159 0.992925 -0.548010 -0.707954 -0.074848 0.686071 -0.800904 -0.488683 1.022919 0.320408 0.715810 0.312090 0.141698 -0.487341 -0.664058 0.397445 -0.279014 0.575834 -0.145501 0.118566 0.187464 0.885293 0.287149 -1.000094 -1.004978 0.226490 0.314539 -0.444837 0.221637 0.641312 0.572609 0.310291 0.000245 -0.630806 0.015501 0.722791 
0.489095 0.288040 0.090826 -0.518000 -0.335708 -0.186730 -0.602987 0.413720 0.928116 -0.113556 -0.448728 0.711254 1.001379 -0.817039 0.190258 0.073885 0.220058 -0.786864 -0.357490 -0.254062 -0.199021 -0.358140 0.292403 0.115151 0.253626 0.614625 -0.747179 0.568429 0.007886 0.934470 -0.190985 -0.615858 0.712885 0.570760 -0.500106 0.140436 0.528457 -0.076026 0.476022 -0.324185 -0.377898 -0.522327 -0.822895 -1.001181 -0.863647 0.413442 -0.509424 0.712002 -0.592683 0.111081 -0.283745 0.812625 0.127596 0.114353 0.803781 -0.472695 1.051219 0.737329 -0.663839 -0.024977 -0.506522 0.066800 -0.644789 -0.303013 0.586722 -0.566025 -0.203639 0.676124 -0.193067 -0.506038 0.883414 0.639544 -0.269134 -0.895406 -0.515448 0.020321 -0.690706 0.786922 0.177981 0.250768 
-0.178149 0.962127 0.731433 0.276157 0.894788 0.447742 -0.837722 -0.215265 0.363723 -0.414319 0.995116 -0.011258 -0.746839 -0.036654 0.040699 0.668420 -0.506684 0.001466 0.435482 0.637447 -0.008059 -0.968063 0.665098 0.348267 0.408259 -0.156929 -0.839871 -0.074104 -0.966866 -0.981700 -0.860815 0.196195 -0.811200 -0.555666 -0.169104 -0.360756 0.507056 0.001107 0.739645 -0.084766 -0.541623 0.690889 0.605821 0.247817 0.206809 0.935142 -0.953928 -0.377330 0.023167 -0.074698 0.516727 -0.757587 -0.070063 0.813271 0.752498 0.788711 0.219424 0.612016 -0.396714 0.762785 -0.053227 -0.234737 0.423603 -0.471012 -0.542112 0.082746 0.419055 0.825977 0.242605 -0.638234 0.136803 -0.779051 -0.361884 0.463523 0.605844 0.878378 -0.827635 -0.885807 -0.750075 0.742679 
-0.363118 -0.026877 -0.216333 -0.262242 0.565561 0.750993 -0.675661 -0.947311 -0.393300 -0.286188 -0.216220 -0.673027 -0.110769 0.964634 0.273010 -0.563204 -0.505040 0.348834 -0.429745 -0.418785 -0.377541 0.478372 -0.329483 -0.168035 0.741173 -0.567444 -0.657094 0.928108 -0.914791 0.386742 0.718579 0.123923 0.122314 -0.588337 0.903249 0.799197 0.002916 0.047888 -0.436020 -0.689842 -0.552612 -0.101720 -0.621508 -0.679856 0.328782 0.931422 0.250183 0.668277 0.701123 0.438634 -0.367944 0.125524 0.576104 0.317143 0.506476 -0.229061 0.508540 0.527191 0.499602 0.354763 -0.235740 0.231082 -0.669631 0.695454 -0.844570 0.252072 -0.219715 -0.552087 0.460192 -0.149509 -0.947161 0.049348 0.653201 0.130751 0.245738 -0.125942 -0.776943 0.228388 -0.521372 1.110999 
-0.410075 -0.519276 0.755762 -0.135568 0.475287 0.203593 -0.478522 0.743788 -0.616070 -0.397442 -0.540127 -0.004454 -0.798250 0.639235 0.211455 -0.470656 0.665021 -0.096676 -0.917746 -0.563129 -0.164726 0.727589 0.530971 -0.950321 0.182163 0.978781 -0.929761 0.051914 0.230323 0.622193 -0.709399 0.277965 0.709197 -0.732764 0.354829 -0.876015 0.801182 0.676475 -0.456982 0.670783 0.594449 -0.991682 0.622098 -0.221245 0.309435 -0.521546 -0.350733 -0.732383 -0.758146 -0.683031 0.165989 0.297369 -0.253565 0.736766 0.985462 -0.272053 -0.828931 -0.341788 0.371288 0.621388 -0.296076 -0.712193 0.400233 0.437927 0.797820 -0.861443 0.223324 -0.592156 0.283513 0.387145 0.450822 -0.601747 0.067344 -0.038029 0.952201 -0.475410 -0.686653 0.630178 -0.094816 -0.758377 
-0.118801 -0.725560 -0.087099 -0.378770 -0.904222 0.716341 -0.842896 -0.053066 0.799145 0.477368 0.767203 0.278960 -0.414595 0.639015 -0.825792 -0.448842 0.760558 0.743545 -0.468080 -0.964225 -0.434762 0.675851 0.209732 0.039760 0.187517 0.815936 0.183985 -0.897519 -0.725635 0.705068 -1.017505 -0.375802 0.398765 -0.066654 0.193907 0.038472 -0.174376 -0.814430 0.207654 -0.607582 -0.717848 -0.158518 0.018653 -0.462435 0.224755 0.946677 -0.970415 -0.826707 0.006054 0.652608 0.842659 -0.628921 -0.815078 0.583378 0.768318 0.204719 0.473293 -0.644515 -0.058457 -0.530644 -0.376320 -0.853911 0.063329 0.267042 0.134576 0.846941 -0.328274 0.849937 -0.634939 0.711017 -0.939669 -0.133206 0.224402 0.600277 -0.465141 -0.760028 0.157429 -0.847241 0.704964 0.584345 
-0.174790 -0.560842 -0.771680 0.397764 0.059697 -0.409989 0.443231 -0.800336 -0.494749 -0.393885 -0.988738 -0.524400 -0.231377 -0.846695 -1.027647 0.157534 0.543545 -0.695518 0.136829 -0.289352 0.276509 -0.309039 -0.163601 0.123353 -0.986403 0.765309 -0.712224 0.300293 0.978186 0.333638 -0.292630 0.897914 -0.808478 -0.279821 0.567751 -0.107167 0.071523 -0.686687 -0.476133 -0.172300 -0.213972 0.074823 -0.696590 -0.469541 0.807053 0.987513 0.708030 -0.556422 0.265596 0.329864 0.915392 0.385556 0.155326 -0.785344 -0.248894 -0.753797 -0.504543 -0.410079 -0.921811 -0.134401 -0.677834 0.125975 -0.423414 0.874480 -0.639933 -0.087765 -0.210224 -0.887682 0.804519 -0.902082 -0.875705 0.611242 0.004542 -0.025217 -0.551550 -0.573723 0.645703 -0.878602 0.754798 0.859343 
-0.122758 -0.825460 -1.099559 0.508377 -0.833107 0.310635 0.731866 0.050172 -0.354946 0.932110 0.247821 -0.364684 -0.770567 -0.505525 0.187141 0.410951 0.313040 0.293173 -0.770022 0.611427 -0.846057 -0.385349 0.094583 -0.696817 0.547120 -0.548074 -0.268064 -0.451029 0.945991 0.760137 0.796972 0.874276 -0.596662 0.498449 0.814576 -0.390248 0.886673 -0.605463 -0.189026 0.382657 0.275511 0.190084 -0.483303 0.832715 -0.081935 0.139799 -0.096484 0.203557 -0.458253 -0.606082 0.951655 -0.940004 -0.970167 -0.102781 -0.708746 0.921257 0.198924 -0.057791 -0.913599 0.854712 0.852673 -0.554298 -0.455093 0.862432 -0.965015 0.997513 0.030003 -0.943503 -0.639869 0.913437 0.669866 -0.450387 -0.369918 -0.033392 -0.141891 0.517110 0.785994 -0.443032 -0.466211 -0.102435 
0.365395 -0.081629 0.617964 -0.739853 -0.535589 -0.552656 -0.537187 0.767584 0.806387 0.370903 -0.866540 -0.059763 -0.505110 0.790627 -0.274900 0.367242 0.693347 0.497223 -0.267849 -0.382721 0.117964 -0.623162 -0.480425 0.749298 0.877678 0.513430 0.866189 0.351234 -0.068570 -0.677975 0.263722 -0.763271 -1.023865 -0.280137 -0.663618 -0.274170 -0.075101 -0.781996 0.493903 -0.269634 0.305967 0.750976 -0.167423 0.214600 -0.000833 -0.790844 0.979335 -0.774460 0.981640 0.935018 -0.362319 -0.010138 0.432842 0.782171 -0.230541 -0.945731 -0.362814 -0.467643 -0.815983 -0.504561 -0.681640 -0.150581 0.850257 -0.861328 0.697753 -0.859771 -0.227765 -0.713031 0.596820 0.271108 0.335585 0.374848 0.485898 -0.796074 0.747632 -1.014327 0.536923 0.049774 0.967152 -0.433658 
0.512818 0.317656 0.669278 -0.823301 -0.759821 -0.554393 -0.465493 -0.344045 -0.014089 -0.374927 -0.905508 0.118443 0.771932 -0.867570 -0.018412 -0.432532 -0.000455 -0.041652 -0.759884 0.684910 -1.067492 0.797989 0.509023 0.441545 -0.344906 -0.654746 -0.161182 -0.801624 0.533659 -0.533437 0.650816 -0.454673 -0.486514 0.677397 -0.044571 0.442269 0.730769 -0.563250 0.358431 0.183462 0.977940 -0.224151 -0.563621 0.902495 0.767510 -0.742178 0.786169 -0.503530 0.594484 0.083877 0.349648 0.650055 0.405780 -0.996913 -0.451874 0.627057 -0.320523 0.190999 -0.417721 -0.363471 0.756444 0.612528 0.830523 -0.615321 -0.601585 0.067891 0.500614 -0.638999 -0.797041 -0.231437 0.855009 -0.130700 0.368857 0.128257 0.532733 -0.766143 0.005896 0.233923 0.153385 0.671556 
0.360708 0.535585 0.848284 -0.548900 -0.189358 -0.000729 0.361622 -0.110764 0.098928 -0.181897 0.834485 0.018428 0.892414 0.107719 -0.000485 -0.611847 0.577180 0.728630 0.362366 0.904783 -0.943841 0.637179 0.487680 -0.842118 0.567386 0.097689 0.294318 0.181575 0.269327 0.053391 0.252588 0.058258 -0.995682 -0.290656 0.375584 -0.024394 0.828396 0.946178 -1.002965 -0.045260 -0.175043 0.994700 -0.826769 0.870290 -0.611120 0.891083 0.497725 0.685648 -0.978392 0.807357 -0.240551 -0.509346 -0.977523 0.401395 -0.599509 -0.753060 -0.395829 -0.860084 -0.343528 -0.739286 -0.250159 -0.279628 -0.292125 0.294916 0.685356 -0.081740 0.894635 0.794930 -0.455116 -0.327160 0.033695 0.284976 0.396284 0.251693 -0.285240 0.948668 -0.441188 -1.025866 -0.477924 -0.398789 
0.279301 0.443234 -0.348871 0.664111 -0.722152 -0.643762 0.735485 -0.624861 -0.735607 0.135605 -0.491875 -0.751391 0.493135 0.404985 -0.745704 1.011556 -0.676932 -0.176679 0.308584 0.912006 -0.944060 -0.900965 0.676770 0.193228 0.444896 0.502837 0.802579 -0.627519 -0.840988 0.280975 -0.860860 -0.052702 0.707730 0.560927 0.389295 -0.588074 -0.550893 -0.757825 -0.840357 0.789576 -0.424768 0.584915 0.607714 -0.484491 0.549725 0.464585 0.994197 0.503345 0.910297 0.305448 -0.162100 -0.793476 0.387946 0.875742 -0.619720 0.958667 -0.679755 0.130543 -0.692982 1.046316 0.233716 0.365254 -0.897231 0.732606 0.629080 -0.730105 0.369773 -0.585791 0.753143 -1.022030 -0.253874 0.833098 -0.194894 0.500149 0.730456 0.159863 0.850807 0.039749 0.477143 -0.708360 
0.695292 -0.041754 -0.016960 0.958889 0.132604 0.978696 -0.345160 -0.869407 -0.807167 -0.412243 -0.139881 0.608792 0.915800 -0.117687 0.073480 -0.972788 0.587250 -0.132127 -0.486631 -0.487805 -0.950474 -0.488102 -0.049642 0.223922 0.497385 -0.957288 0.850278 0.135507 -0.437088 -0.319705 -0.520854 0.461950 0.161718 -0.691333 -1.005645 0.094218 -0.128922 0.334031 0.650776 0.791185 0.517594 0.420939 0.669866 0.285821 0.890832 0.844805 -0.443081 -0.435025 -0.550988 -0.115423 0.746388 -0.662860 0.038041 -0.826106 0.881365 -0.348970 0.211531 0.852808 -0.588848 0.199366 -0.646033 -0.419017 -0.035873 -0.252244 -0.739416 -0.094473 -0.280622 0.293718 0.656431 -0.516811 -0.689300 -0.865350 -0.230482 0.279486 0.619907 -0.290139 0.848192 -0.880342 0.147567 -0.402152 
-0.152100 -0.000991 0.524537 -0.935312 -0.487405 0.610669 0.755214 0.374940 -0.317936 0.651468 0.254486 -0.033834 -0.669546 0.491947 0.245130 0.397016 0.614805 0.384407 0.724788 0.978479 -0.683551 0.683759 -0.031195 -0.858938 -0.779124 -0.395494 0.345821 -0.461921 0.867915 0.179738 0.880204 -0.790694 0.264518 -0.837565 0.312854 0.700146 -0.793704 -0.269682 0.392174 -0.663880 -0.660194 0.318884 -0.768445 -0.300192 -0.310406 0.413053 -0.427236 -0.593335 0.787155 0.991397 -0.296317 0.147026 0.449509 0.977846 -0.110469 0.818638 -0.605100 -1.034946 0.573325 -0.392203 -0.572670 0.644607 -0.201388 0.009760 -0.887807 0.682641 0.105682 -0.438630 -0.252664 -0.248356 -0.339214 -0.456134 0.144345 0.584415 -0.282834 -0.250601 0.863532 0.777461 0.961995 0.952010 
-0.634923 -0.411473 -0.953871 1.004055 1.039813 -0.313223 0.123089 -0.239248 -0.155729 0.079454 -0.888318 -0.677176 0.929545 0.210264 0.266008 -0.117990 -0.193693 0.962338 -0.237287 -0.727992 -0.319280 -0.105813 0.646495 -0.135502 0.437757 0.049901 0.478818 -0.653614 0.452751 0.471486 -0.621731 0.184688 0.730072 0.942990 -0.000052 0.894537 0.154816 0.295330 -0.125572 0.594042 0.325618 -0.838466 -0.357101 0.552602 0.647671 -0.110627 -0.021729 -0.845394 -0.458833 0.775893 0.355247 0.905271 -0.557027 -0.478891 -0.224842 0.423556 0.085718 0.038466 0.452412 0.019619 -0.152092 -0.741712 0.361787 0.652032 -0.549924 0.573022 0.701959 -0.961212 -0.444358 0.797575 -0.446558 0.040541 -0.302890 -0.170045 -1.019895 0.625364 0.764744 -0.933709 -0.839286 0.767977 
-0.199810 0.651845 0.630757 0.249954 -0.781423 0.919551 0.696875 0.982465 0.756754 -0.848181 -0.759291 -0.479132 0.763050 -0.210906 0.172174 0.308776 -0.527238 0.942339 -0.702094 0.220408 0.599780 0.439794 -0.266588 -0.877276 0.546488 -0.599116 0.510348 0.726365 0.314563 0.576043 0.154560 -0.107110 -0.222864 0.336490 0.107095 0.702473 0.381705 0.549301 -0.321373 0.207297 -0.429495 -0.009014 0.961341 -0.435720 -1.064514 0.775933 0.668986 -0.481164 0.862588 0.594510 0.340562 0.673371 -0.633384 0.309120 -0.250937 -0.716702 -0.047296 -1.047560 0.042577 -0.749146 0.355271 0.977868 -0.474818 -0.770264 -0.103892 0.564418 0.223573 0.510030 0.483174 -0.581845 -0.798584 -0.670292 0.246120 -0.428969 -0.105239 0.881047 0.122823 -0.078114 0.861440 -0.149976 
-0.471961 -0.339018 -0.720341 -0.660538 0.060761 0.898764 -0.378539 0.135082 -0.914270 0.517061 -0.082438 0.957528 -0.629906 0.957474 -0.944111 0.647575 0.384560 0.519429 -0.715917 0.729062 -0.693180 -0.307638 0.145711 0.217488 -0.237804 -0.155187 -0.580822 0.065401 -0.570176 0.301806 0.510437 -0.956538 0.728077 -0.458680 0.553833 0.056884 0.532574 -0.843932 0.784631 -0.147216 0.765699 -0.677778 0.237835 -0.641073 0.043664 0.049260 -0.594795 -0.917268 0.313062 -0.912523 0.164262 -0.266034 0.420224 0.132107 -0.914135 0.780636 0.529754 0.905231 -0.825950 0.291805 -0.041083 0.936316 -0.814899 0.066533 0.062538 -0.314452 -0.592177 -0.958909 -0.900807 -0.242538 -0.395529 0.433930 -0.505529 -0.485822 -0.921581 -0.628376 0.023251 -1.029474 -0.155581 0.936864 
-0.547122 0.930889 -0.235588 0.117708 0.259031 -0.577645 0.688792 0.499056 0.737052 -0.033921 0.556187 0.226266 -0.935958 -0.192685 -0.997178 0.250680 -0.800232 -0.313562 0.402819 0.354539 0.076833 -1.000215 0.413219 0.122268 -1.024533 0.295472 0.391040 -0.614261 0.017542 1.009404 -0.576503 -0.630439 0.304314 0.200139 -0.008308 -1.005597 -0.430614 0.104177 -0.347222 -0.144213 -0.111764 -0.981888 1.012982 0.959542 0.626546 -0.922322 0.758273 0.915193 1.065524 -0.553889 0.966616 -0.005917 -0.429291 0.972202 -0.029547 0.834946 0.298764 -0.314796 0.648947 -0.732123 0.111324 -0.656407 0.566828 -0.188288 0.947574 0.787996 -0.953149 -0.023647 0.347799 0.154079 -0.958092 -0.020747 1.015473 0.520449 1.002621 -0.170466 0.949888 -0.603975 0.549334 -0.477752 
0.936097 -0.005392 0.925887 -0.697203 -0.052081 0.709809 0.977408 -0.933517 -0.759654 -0.162692 0.437091 0.073357 -0.858364 0.870520 0.456503 0.918025 0.956349 0.282460 0.003863 0.207329 0.483006 0.460564 0.721841 0.155499 0.237646 0.080035 -0.406905 -0.264156 -0.648351 -0.245375 0.657295 0.035080 -0.478515 -0.029916 -0.094829 -0.047552 0.191105 0.550278 0.334043 -0.771731 -0.576305 0.427566 -0.917467 -0.623713 -0.369088 -0.902402 -0.456663 -0.039841 0.892251 0.347259 0.448332 0.733307 0.781798 0.196930 0.100458 -1.013319 0.699745 -0.435011 -0.131820 0.197446 -0.546182 0.256554 0.570489 0.007029 -0.293020 -0.181755 -0.141491 0.792137 -0.341300 0.605993 0.753962 0.518166 0.932354 -0.634989 0.078881 -0.373559 -0.603175 0.545641 0.593091 -0.543338 
-0.265248 0.333662 -0.833526 -0.656969 0.034997 0.520330 -0.833398 0.912599 -0.422452 0.203724 0.708924 -0.793671 -0.032457 -0.233294 0.275395 0.158777 -0.909241 0.328861 -0.700872 -0.264224 0.801120 -0.629397 0.154745 -0.974009 0.922623 -0.135483 -0.421541 -0.715900 0.859266 -0.873032 -0.823946 0.115638 -0.066318 -0.997161 0.775504 -0.065801 0.593338 -0.793285 0.192667 0.502982 0.105969 -0.188441 -0.924111 0.502449 0.329805 -0.067400 0.783808 0.938697 0.857762 0.962086 -0.978673 0.656544 0.557328 -0.388391 0.090420 0.711354 0.466871 0.925330 -0.466197 0.190497 0.638862 -0.039339 0.366780 -0.572253 0.600272 0.415186 -0.622450 -0.774080 0.005453 0.356525 -0.891773 0.126722 0.283756 0.283536 -0.323603 0.539633 -0.251536 -1.027862 0.395987 -0.556455 
-0.113980 0.963143 0.569782 -0.362008 -0.716056 0.180270 0.456224 0.582356 0.186756 0.607378 -0.798618 0.844907 0.740230 0.945910 -0.127636 0.884103 0.340102 0.335925 0.455998 -0.786645 -0.023798 -0.325608 0.769943 0.696437 0.548132 -0.427035 -0.290487 -0.353481 -0.362156 0.196622 -0.964896 0.244221 -0.665024 0.744343 -0.699989 0.382893 0.157509 -0.840479 -0.652853 0.061828 0.643853 -0.664690 -0.311443 0.904943 -0.744876 0.178440 0.943005 -0.847413 0.944269 0.240071 -0.314070 -0.728792 -0.752503 0.411206 -0.991113 0.044682 0.209907 -0.902893 0.289570 -0.657894 0.967053 -0.638320 -0.395276 -0.265981 0.130169 -0.132563 0.860012 -0.135730 0.753164 0.081328 -0.591128 0.374910 -0.304857 0.891281 0.454371 0.488373 0.110819 -0.979076 -0.907311 -0.832670 
-0.916561 1.004470 0.448071 0.092042 0.363813 -0.284884 -0.522835 0.702244 -0.802824 0.524360 0.554415 -0.022616 -0.023562 0.266868 0.743098 0.511772 -0.592463 -0.768194 -0.876649 -0.482545 0.530215 -0.729875 -0.815494 -0.622411 -0.223973 -0.514143 0.310501 -0.072053 -0.924653 0.034668 -0.289095 0.803817 0.055714 -0.550113 0.400174 0.258984 0.563653 -0.740287 0.849766 0.621467 -0.219592 -0.191403 0.891880 0.886435 0.199819 0.351029 0.602459 -0.229028 1.079216 0.245626 0.903951 0.894539 0.985484 -0.978488 0.138506 0.964530 0.398309 -0.176340 -0.956151 0.046639 -0.187217 -0.336123 -0.127121 -0.222292 -0.848024 0.735947 1.010955 -0.810495 -0.786893 -0.664568 -0.167232 0.585768 -0.307565 -0.607507 -0.145469 0.353219 -0.396127 -0.937312 0.258750 -0.624251 
0.724251 0.677611 0.038814 -0.986111 0.159139 -0.901529 0.215211 0.369697 -0.898725 -0.659780 -0.798009 0.229037 0.377604 0.092015 0.685259 -0.421445 -0.401780 0.803826 0.657327 -0.671593 0.885637 -1.015361 -0.925635 0.887746 0.820642 -0.216275 -0.195164 -0.126399 0.959943 -0.610037 0.498685 0.070761 -0.642339 0.681676 -0.762635 -0.807687 0.297920 0.536000 -0.433929 -0.025118 -0.651457 0.487643 0.163148 0.561772 0.482162 0.903711 -0.165151 0.558847 -0.536548 -0.439833 -0.879962 0.801969 0.083386 -0.208886 -0.906637 0.010834 -0.679173 0.977587 0.540396 0.629894 -0.238146 -0.776946 0.142880 -0.176826 0.339017 0.262777 -0.401393 -0.097402 -0.713091 0.089459 -0.856968 -0.208853 -0.829772 -0.493182 0.721888 -0.942571 -0.082789 -0.793256 0.075601 0.396801 
-0.632871 0.461980 0.251045 0.115486 -0.844746 -0.583014 0.236062 0.712871 -0.509184 0.153641 -0.208413 0.325403 -0.621250 0.802173 -0.281347 0.252422 0.415243 0.930944 0.284129 -0.985279 0.805257 0.201696 -0.781669 0.347337 -0.132392 0.181816 -0.588037 -0.120750 -0.332232 0.459426 -0.478675 -0.367587 0.806673 -0.215814 0.894809 -0.404102 0.674359 -0.331851 -0.718004 0.068931 0.727642 0.450120 -0.267594 0.632929 -0.677466 0.180495 -0.131466 -0.266813 0.993816 -0.645782 -0.017147 0.527198 -0.317258 0.035289 0.814332 -0.322686 -0.798350 0.099833 -0.093192 -0.679437 -0.559494 -0.435068 0.606552 -0.903813 0.528376 0.161973 -0.268566 -0.501720 0.364407 -0.564190 -0.403647 -0.370678 0.803375 0.963518 -0.325101 0.171580 0.811518 0.663780 -0.138365 0.428667 
0.048017 0.260246 -0.978851 0.310326 0.989739 -0.124352 0.507042 -0.462468 -0.781424 0.009215 -0.705377 -0.123982 0.035179 -0.937458 -0.695572 0.520301 -0.349973 -0.979786 0.696582 -0.548584 -0.063166 -0.605568 -0.793256 0.663068 0.931591 -0.896153 -0.958104 -0.272608 0.647386 0.052902 -0.542356 0.140539 0.594968 0.468075 -0.915160 -0.784440 0.655538 0.779162 0.376204 -0.409957 0.203134 -0.581913 0.304593 -0.377930 0.207984 -0.309663 0.927188 -0.324473 0.422333 0.289002 -0.590712 -0.817324 0.951521 -0.299952 0.311674 -1.004503 -0.274242 0.904708 0.730323 -0.925408 0.532152 -0.292809 -1.006282 -0.283702 0.206138 0.655149 0.096101 0.879723 0.723287 -0.767181 0.495699 -0.003893 0.683075 -0.444554 0.932055 -0.684423 -0.756653 0.075845 0.994712 -0.818433 
-0.972198 0.256285 -0.127010 -0.259511 0.290142 -0.235095 0.629583 0.626665 0.307559 0.984658 0.652072 0.219291 0.753836 -0.546742 -0.557129 -0.429031 0.973717 -0.529550 -0.209051 -0.265773 0.232434 0.273821 0.460380 0.638555 -0.272810 0.106114 -0.233304 0.872711 -0.893181 -0.091869 0.810805 -0.289465 0.698111 0.374588 0.355119 -0.171924 0.201948 -0.787665 -0.108671 0.323512 -0.984345 0.482252 0.084342 -0.422533 -0.884769 0.718717 -0.369441 -0.929964 -0.512595 -0.669056 -0.778736 0.345219 0.684801 0.620050 0.071795 -0.570287 -0.793960 -0.685071 -0.924818 0.361534 0.065523 0.447774 -0.885540 0.441478 -0.450434 0.501106 0.794076 0.180841 -0.152455 0.539545 0.969242 -0.634983 0.689411 -0.226049 -0.882731 -0.543192 0.286369 -0.862480 -0.901715 -0.234498 
0.191768 0.119128 0.742561 0.573617 -0.584338 -0.752036 -0.597354 0.523375 0.467803 -0.888210 -0.004647 -0.319394 0.456177 0.035026 0.297268 -0.820884 -0.418515 -0.070162 0.243174 -0.822252 0.296673 0.058362 0.212365 -0.121906 -0.646204 0.069387 -0.880963 0.862861 0.649832 -0.300305 0.065002 -0.455546 -0.106460 0.318001 0.293149 0.764839 0.834340 0.716181 -0.582746 0.933083 -0.187379 -0.884027 0.470884 -0.676994 0.051613 0.527308 -0.462062 0.751525 0.955544 0.926191 -0.576186 0.022242 0.188928 0.729830 -0.016147 0.165725 0.428233 -0.324268 -0.890566 0.518923 0.329727 -0.095967 0.949248 -0.299383 -0.413989 -0.102902 0.756930 -0.116695 -0.743065 0.448905 0.334682 0.276030 0.168558 0.239365 1.024687 -0.432772 -0.740152 -0.819166 0.278855 0.190845 
0.582756 0.806584 0.759053 0.433926 0.014605 -0.423700 0.501939 0.482328 -0.414602 0.735146 -0.770973 0.012052 0.643406 0.305650 -0.271409 0.227091 0.716730 0.879495 -0.644751 0.672238 -0.398785 -0.029511 -0.091807 -0.886321 -0.969512 -0.709019 0.377420 0.973386 0.907797 -0.871993 -0.057643 -0.875279 -0.587639 0.222323 -0.731702 0.450805 0.504110 -0.646330 0.676258 -0.333734 -0.662060 -0.032604 1.026586 0.579706 -0.319709 0.945444 0.815447 -0.501443 0.718982 0.427481 0.689218 0.065544 -0.428659 0.948572 0.381316 -0.088467 -0.700886 0.356051 0.515252 -0.871194 0.660962 0.681747 0.339609 0.105564 0.778649 0.438603 0.585839 0.212935 -0.457236 -0.453083 -0.124198 -0.576445 0.840148 -0.132797 -0.767359 0.825199 0.712951 0.809948 0.525820 0.298025 
0.930031 -0.251897 -0.630192 0.066518 0.381053 -0.577678 -0.063751 -0.199555 0.789137 0.969494 0.337638 -0.112488 0.218859 -0.084039 -0.846006 0.347965 0.155802 -0.223685 -0.322775 0.486682 0.182419 -0.701170 0.536449 0.381952 -0.043191 0.387198 0.397522 0.051274 0.952263 0.322120 -0.501767 0.908262 -0.104042 0.929616 0.932434 -0.921035 -0.276454 -0.881560 0.385689 -0.584388 -0.345263 -0.752334 -0.590866 0.389292 -0.602338 0.649055 0.952855 -0.732292 0.827375 0.225925 0.754987 0.385726 0.001940 0.720369 -0.547487 -0.179687 0.806981 -0.435913 -0.487564 0.874958 0.209710 0.733932 0.586731 -0.833287 -0.914920 0.028032 0.063661 0.026143 -0.751787 -0.938725 -0.136336 0.917206 0.240137 -0.984757 -0.147659 -0.285583 -0.579036 0.413869 0.934094 1.052256 
0.129683 0.277340 -0.125995 -0.886102 0.719768 0.917866 -0.155152 -0.923307 0.697356 -0.651130 0.974504 -0.564048 -0.565879 0.337685 0.866456 0.706576 0.572928 0.938975 0.328595 0.109539 -0.467051 -0.164174 0.946606 0.619937 0.622629 0.709747 0.162819 -0.310899 -0.350418 0.614066 -0.578815 0.246760 -0.644778 0.946810 -0.471760 -0.491791 -0.274620 -0.914861 0.575927 0.607487 -0.982086 -0.362353 0.462012 -0.776534 -0.354487 0.174619 0.165190 0.969594 -0.397212 0.894113 -0.077563 -0.714639 0.924308 0.435878 0.763944 0.152720 -0.651366 0.843794 -0.726195 -0.140585 -0.305058 -0.710597 -0.990619 -0.730663 -0.558377 0.442333 0.486887 -0.621369 -0.298759 -0.939192 -0.512767 -0.453256 0.427234 -0.319252 -0.196927 0.039716 -0.772291 0.616348 -0.845293 -0.750079 
-0.637210 -0.659607 0.070428 0.951797 0.706909 0.826292 0.422043 -0.511680 -0.144561 0.066852 -0.622635 0.233779 0.684402 0.508378 0.667627 -0.657572 -0.111567 0.204800 0.412838 -0.483221 0.500637 0.727048 0.378337 -0.168214 0.322507 0.454133 -0.833241 0.226639 -0.641886 -0.630348 -0.931117 -0.018377 0.616829 -0.526409 0.529266 -0.715519 0.365240 -0.209886 0.663345 -0.495305 -0.893246 -0.936669 -0.816527 -0.258469 -0.147982 -0.160298 -0.042414 0.165802 -0.591260 -0.477020 0.794814 0.780509 -0.549759 0.609810 0.214059 0.832864 -0.246710 -0.854022 0.709745 -0.066056 -0.152783 -0.463459 -0.196901 -0.716478 0.871706 -0.334063 -0.588651 -0.502166 -0.881704 0.029350 0.992623 -0.203461 0.571473 0.090512 0.855873 0.671437 -0.349789 0.454451 -0.627500 0.523870 
0.895596 -0.850167 0.310336 -0.604681 0.686771 -0.068496 0.188701 0.442552 0.191964 -0.461289 0.629886 -0.708051 0.623909 0.954104 0.173904 0.073064 -0.905848 0.750713 -0.263581 -0.217248 0.058875 -0.936265 -0.720382 0.244125 0.111955 0.311059 0.775712 0.566470 -0.499426 0.407855 -0.413197 -0.407405 -0.124041 -0.493568 0.703482 0.126204 -0.824659 -0.864073 -0.740723 -0.362625 0.228430 0.837426 -0.591117 0.945592 0.540559 0.585576 -0.652374 -0.982720 1.002094 -0.725376 0.000579 0.774605 0.158793 -0.641411 -0.280246 0.976787 -0.750785 0.537810 0.509917 -0.021509 -0.591553 -0.011219 -0.780601 -0.027391 0.609095 -0.821503 0.533664 -0.907933 -0.459956 0.397549 0.925973 0.527260 0.602698 0.404061 -0.460147 -0.344450 -0.382837 0.972515 -0.353031 0.322182 
-0.876402 -0.892123 0.463272 -0.627913 0.617411 0.430210 0.454768 -0.201516 0.980778 -0.147719 0.689615 -0.664589 -0.973328 -0.856784 -0.131343 -0.471473 0.292124 -0.370630 0.806871 -0.685754 0.607504 -0.521544 0.537654 -1.052616 -0.429574 0.349986 0.040049 0.789557 -0.424682 -0.942557 -0.571668 0.693470 0.017228 0.224142 0.785227 -0.297913 0.767334 0.223722 -0.444918 -0.674943 0.763948 0.093442 0.985872 -0.593528 -0.306622 0.639272 -0.040285 0.178570 0.420434 0.294412 0.780419 0.981267 0.735960 0.128757 0.562496 0.670947 0.640291 -0.115783 0.861191 0.550446 0.253669 -0.796157 -0.152959 0.966773 0.194858 -0.947047 0.426294 0.676273 0.021109 0.647326 0.701673 -0.329193 0.328848 0.449632 -0.641023 0.767990 -0.458625 0.970549 0.657812 0.261582 
0.753708 0.898009 0.086920 -0.085182 0.374488 0.298826 -0.065581 -0.147452 0.980754 -0.914598 -0.104863 -0.386463 0.784952 0.458066 -0.186876 0.990137 0.045790 0.518208 -0.736104 -0.414336 -0.228497 0.225726 -0.541072 -0.166175 0.728061 -0.007703 -0.858758 0.688805 0.912895 0.077320 -0.370552 0.324615 0.131854 -0.749658 0.523097 0.968817 0.155335 -0.382852 0.915366 0.994766 0.011051 0.115362 -0.426568 0.160475 0.159575 -0.933052 -0.189540 -0.271980 0.392678 0.057513 -0.830869 0.044447 -0.574969 0.396390 0.277166 -0.984083 0.723559 0.363278 0.715428 0.470213 -0.660850 -0.659149 0.858119 1.000745 -0.859229 0.849827 0.271020 -0.118094 -0.467972 -0.201713 -0.633552 -0.374463 0.212552 0.480816 -0.298598 0.496166 0.420138 0.188147 0.917978 0.744620 
-0.985640 -0.748339 -0.655081 -0.985013 -0.687775 0.071849 0.655553 -0.886922 -0.510355 0.554103 -0.098006 0.041044 0.505443 1.007156 0.470170 -0.694581 -0.968881 0.479702 0.971289 0.108641 0.984254 -0.907454 -0.098605 0.518023 -0.116798 -0.842434 0.650649 -0.435049 0.156152 0.474635 -0.254447 -0.898159 -0.548203 0.646614 -0.886115 -0.867798 -0.314506 0.439977 -0.027458 -0.863480 0.057297 0.501368 0.212574 -0.819162 -0.462554 0.168154 0.889441 0.500776 0.923073 0.927527 0.437193 -0.069328 -0.498723 0.213130 -0.939575 0.229201 0.868341 1.022013 -0.550064 -0.234261 0.307389 0.267867 -0.907552 -0.218706 -0.361818 -0.685882 -0.155031 0.044270 -0.722196 0.425055 0.873162 -0.207555 -0.676451 -0.829898 0.370583 0.530697 -0.706011 -0.208120 0.950451 0.357930 
0.443937 0.208027 0.157793 -0.064509 -0.496633 0.907939 0.398448 0.968484 -0.307769 0.020132 -0.567278 -0.731027 -0.946352 -0.774068 -0.404528 -0.537198 -0.057218 -0.207044 0.407478 -0.173736 -0.943108 -0.112396 0.033191 0.724877 0.483475 -0.620212 0.431152 0.942759 0.689273 0.102185 -0.349551 -0.986837 -0.001294 0.792820 0.712586 -0.785385 0.150379 -0.317832 -0.032041 0.042494 -0.489248 -0.684208 -0.881934 0.877827 -0.722859 -0.510029 0.859859 -0.399308 0.713190 0.777581 0.453532 0.452441 -0.232743 0.940642 0.724363 0.842908 -0.559518 -0.492777 -0.909249 0.754486 0.615181 0.937108 0.667274 -0.014313 -0.582438 -0.780998 0.862553 0.178217 0.831609 0.697753 0.799902 0.755265 -0.926115 -0.725013 0.279188 -0.934310 -0.074716 -0.273230 -0.051733 0.623639 
-0.241358 0.993996 -0.933180 0.823110 0.602689 0.792072 0.452678 -0.715601 0.923953 -0.303978 -0.167240 0.376632 0.901929 -0.629489 -0.716122 -0.501566 -0.310188 0.601753 0.252658 -0.428003 -0.378427 0.742322 -0.329994 -0.454749 0.129141 -0.163619 0.558385 0.126410 0.850172 0.425655 -0.594428 0.297304 -0.907139 -0.083285 -0.494916 0.266724 0.084093 0.599158 -0.189378 1.028583 -0.504272 0.061517 0.363927 -0.190672 -0.852977 1.022424 0.101703 -0.029353 0.166255 0.500103 0.839603 -0.149970 -0.912086 0.124272 -0.540511 -0.637265 -0.270866 0.174675 -0.709831 0.371174 -0.886791 -0.119210 -0.472892 -0.778290 -0.654690 -0.287541 -0.110362 -0.586618 -0.657630 0.775599 -0.019565 0.071994 -0.418172 -0.753535 0.138228 -0.558482 -0.175860 0.345024 0.917369 1.022955 
-0.670830 0.485031 -0.086494 0.736079 0.267460 0.211727 -0.550760 0.032421 0.936695 -0.413655 -0.027108 -0.695848 0.795986 0.549280 -0.360514 -0.914756 -0.874288 0.681788 -0.074062 -0.426508 0.910343 -0.183654 0.601127 0.070518 -0.063947 0.936740 -0.361937 -0.676258 -0.148647 -0.946738 0.908181 0.985614 -0.782861 -0.157777 0.740306 1.015184 0.522035 0.294080 0.840060 0.099575 0.862959 0.155454 -0.634260 -0.326814 -0.311578 0.796155 -0.550171 0.394890 0.721810 -0.852842 0.101313 0.259220 -0.886380 0.831656 0.119159 -0.997336 0.547506 0.136353 0.872771 0.245845 0.132279 -0.513679 0.860655 0.331122 0.305275 0.751174 0.205595 -0.948702 0.944262 -0.290813 -0.503221 -0.440448 0.730417 -0.082084 0.281192 -0.844784 -0.542719 -0.894284 0.544861 -0.534591 
0.850758 0.485779 -0.255432 -0.587641 1.037722 0.287330 0.233404 -0.134955 0.561965 -0.335958 0.487904 -0.118731 -0.745013 -0.398660 -0.668505 0.687570 -0.662920 0.318570 0.336914 -0.110788 0.718376 -0.690846 -0.822675 -1.036242 0.236410 -0.796337 0.334283 0.920171 -0.295374 0.068530 0.846786 0.360175 -0.689942 -0.669599 -0.193097 1.001475 0.238228 -0.916882 -0.239131 0.541918 -0.415370 0.252434 -0.687518 0.739061 0.575601 0.670484 -0.150906 -0.674404 0.532876 -0.661908 0.866577 -0.238466 0.954173 -0.362658 -0.750262 -0.019516 -0.713826 0.980191 0.905667 0.513323 -0.825946 0.108707 0.726142 -0.505282 0.517479 0.287766 0.518256 0.580476 0.464289 0.905895 0.197834 -0.320333 0.902639 0.101905 -0.130109 -0.085090 -0.466669 -0.287989 0.596775 0.616223 
-0.835648 0.097781 -0.595610 0.388411 0.673913 -0.405383 -0.700538 0.712375 -0.542467 -0.706106 -0.554216 0.116797 -0.339641 -0.307629 0.626026 -0.685671 0.739502 -0.372785 0.066967 -0.760482 0.840495 -0.051911 0.611387 -0.048047 -0.123257 -0.387744 0.593421 0.372165 0.499728 0.317000 -0.774900 -0.103495 0.879510 0.048129 -0.920538 -0.186536 0.712465 0.438171 -0.434504 0.476572 -0.312027 0.390717 0.730264 -0.526489 0.225324 0.028210 -0.867466 -0.162232 -0.350150 -0.615344 -0.931489 0.350018 -0.262319 0.342149 -0.774430 0.004349 -0.358075 0.615891 -0.400064 0.128785 -0.821766 -0.493066 -0.079719 0.039036 0.642557 -0.938981 0.133152 -0.496411 0.102529 -0.398483 -0.119764 -0.109476 -0.053216 -0.673271 -0.409334 0.387808 0.745410 -0.172505 0.553598 0.117686 
0.371074 -0.712072 -0.784933 0.488175 0.174182 0.961695 0.054416 0.471115 0.639583 -0.536483 -0.469338 -0.273773 -0.199902 -0.069742 -0.950117 -0.037099 0.706396 0.991683 0.976016 -0.315740 0.607841 -0.954468 0.298240 -0.610663 -0.129379 0.818147 0.125102 0.593064 0.524473 -0.918875 -0.294860 -0.279360 0.172700 0.842667 0.401821 -0.716609 -0.465963 -0.851129 -1.001917 -0.207857 -0.734721 -0.278866 0.211816 0.400569 -0.649786 -0.791786 -0.010165 -0.248505 -0.379586 -0.767034 -0.183858 0.090206 -0.638285 0.319425 0.766519 -0.930350 -0.663588 -0.136006 -0.677521 -0.236449 0.512636 -0.213413 -0.264224 -0.664982 -0.893508 0.578464 0.091725 -0.477993 -0.137555 0.366295 0.301975 0.488837 -0.205223 0.468195 0.722030 0.846499 -0.900312 0.293998 0.258939 -0.616417 
-0.906790 0.476925 -0.118626 0.555048 0.677892 0.021860 -0.577328 -0.796035 0.248159 0.590706 -0.578893 0.321177 -0.662496 0.089636 0.872166 -0.866876 -0.269308 0.255883 0.669014 0.937283 0.663562 0.399068 -0.139813 0.586194 0.338230 0.918436 -0.272629 0.116798 -0.064656 0.467724 -0.417294 -0.478777 -0.301285 0.559228 0.647234 0.687597 -0.305634 -0.285580 0.444782 -0.106018 -0.870926 -0.809154 -0.474312 -0.342033 0.405734 0.584254 0.226019 0.205525 0.664958 -0.966024 -1.013874 -0.846255 0.587232 -0.969435 -0.302181 -0.967039 0.721247 0.602747 -0.501814 -0.909243 -0.864669 0.789580 0.121369 0.290345 -0.839849 -0.217750 0.077427 0.456136 -0.777255 0.927103 -0.188915 0.116620 0.092387 0.030393 -0.111405 -0.802260 0.424458 0.870543 -0.426205 -0.179929 
-0.777479 -0.175896 0.186876 0.457291 0.079380 0.697389 -0.894975 -0.007788 0.316154 -0.886847 -0.119039 0.698865 0.435902 0.913606 0.080768 0.525472 -0.005071 0.956824 -0.838402 0.400960 0.619684 -0.533736 -0.058962 -0.168838 0.362516 0.280947 -0.707368 1.000978 -0.110099 0.424277 0.573219 -0.826960 0.155706 0.300899 -0.612788 0.123718 -0.308527 0.574887 -0.137194 -0.718084 0.723813 -0.166124 -0.615183 -0.445422 0.774942 -0.603575 -0.704095 -0.181959 -0.976242 0.041437 -0.120078 -0.852702 0.019793 0.863710 0.348805 0.131036 0.865058 0.740861 0.670683 -0.137463 -0.385989 -0.737108 -0.558994 0.434000 0.508098 -0.082542 -0.873375 0.633986 0.477882 -0.040248 0.992025 -0.390603 -0.191520 -0.136230 -0.556687 -0.444141 -0.730117 -0.837877 0.529877 -0.341957 
0.334348 0.541143 -0.922949 -0.341645 -0.301198 -0.475076 -0.337880 -0.440357 -0.448221 -0.702430 0.079835 -0.972770 -0.146418 -0.778541 0.450508 0.784382 -0.828438 -0.714506 -0.301184 -0.518998 -0.790573 -0.910578 0.196747 0.386979 0.591949 0.498795 0.958840 -0.054895 -0.192485 -0.913523 0.852111 -0.993291 -0.917682 -0.010135 0.543862 0.726769 0.273579 0.213530 -0.954659 -0.566451 -0.861077 -0.840931 -0.373905 0.239812 -0.496768 -0.165090 0.668768 -0.396937 0.838512 -0.347660 -0.185008 -0.475512 0.990160 -0.106857 -0.758144 -0.179276 0.243460 -0.050320 -0.671253 0.630607 -0.869884 0.401311 0.911236 0.233546 -0.442342 -0.235580 0.303586 -0.469300 -0.831647 -0.807880 -0.619724 0.864157 0.501903 -0.568415 -0.769827 -0.758120 0.022260 0.226234 -0.784891 0.922248 
0.688511 -0.592719 -0.385814 0.114272 -0.313261 0.722496 -0.855639 0.185694 -0.179049 0.401379 0.752909 0.043861 -0.215203 -0.563492 -0.746741 -0.751890 -0.686051 -0.515844 -0.434507 -0.012812 -0.232453 0.342448 -0.284529 0.087555 -0.395447 0.402434 0.314560 -0.713805 -0.313448 -0.197431 -0.624906 0.189410 -0.729506 0.948255 -0.232248 -0.296827 0.298208 -0.184983 0.448260 -0.822364 -0.422876 -0.689772 -0.832422 0.017824 -0.597010 0.729962 0.827195 1.002799 -0.067600 0.254805 0.221040 -0.336541 0.428646 0.117432 0.808737 -0.753244 0.566743 -0.582639 0.344593 0.276042 0.029294 0.513644 -0.203251 0.844239 -0.685461 -0.800593 -0.489899 -1.004068 0.913316 -0.764390 0.652757 -0.425140 -0.197808 0.160339 -0.883634 -0.303702 0.481242 -0.209956 0.366375 -0.003367 
0.541323 0.892304 -0.452266 -0.605094 -0.156227 -0.281962 -0.281918 -0.565834 0.242824 -0.118070 -0.945131 -0.722727 0.184917 -0.799497 -0.791552 0.613935 0.124401 -0.526396 0.067462 0.169385 0.689624 -0.709755 -0.239657 -0.552118 0.838363 -0.518211 -0.270654 -0.774805 0.672522 -0.259031 0.282217 -0.464037 -0.216841 0.881440 -0.855052 0.881697 -0.895375 0.435767 0.219152 0.189681 0.538685 -0.071727 -0.760656 0.524747 -0.481591 0.060295 -0.405259 0.244714 0.727956 0.445073 0.807113 -0.642385 -0.234008 0.467463 0.043781 -0.391107 0.592173 0.564118 0.434621 -0.404546 0.428017 -0.694460 -0.912725 0.477476 0.542042 -0.680654 0.303372 -0.632036 0.221105 -0.669128 -0.198110 -0.497979 -0.396920 0.132363 0.872123 -0.716459 0.214025 -0.719868 0.526346 0.535363 
-0.791007 0.408415 0.419458 -0.454557 0.206883 0.229526 -0.908299 -0.701217 0.454311 -0.531677 0.624375 0.257162 0.872617 0.922555 -0.631906 0.584936 -0.178086 -0.464075 0.061502 0.826079 -0.351146 0.351672 -0.195411 -0.315210 -0.979674 0.048788 -0.648147 -0.602385 -0.894205 -0.450099 0.342603 -0.311361 0.164866 0.417603 -0.275890 -0.878937 0.480227 -0.499100 -0.004040 0.287516 -0.858472 -0.104996 0.520705 0.576283 0.197634 -0.924215 0.536192 0.724096 -0.228291 0.369735 -0.022294 -0.789711 0.922029 -0.594266 0.074868 -0.849672 -0.422564 -0.148759 -0.030048 0.023609 0.421284 0.481194 -0.977821 0.251673 0.450086 0.728018 -0.061447 -0.873743 0.016146 0.383048 -0.160747 -0.737368 0.912747 0.710253 0.880851 -0.173625 -0.944954 0.095019 -0.558220 -0.918048 
-0.488082 -0.145230 -0.032317 -1.001799 0.815721 -0.442902 0.877962 0.458333 -0.873359 -0.542685 -0.223896 -0.325643 -0.307620 1.041522 -0.364776 -0.338053 -0.785230 0.128403 0.156715 0.642256 0.187368 -0.178918 0.256543 0.749675 -0.820068 -0.642169 0.302670 -0.719245 0.014219 -0.593415 -0.178147 -0.241011 0.035856 0.627961 0.004484 0.725544 0.368050 0.399610 -0.994063 -0.810370 -0.281025 0.992313 -0.242715 0.920560 -0.816361 -0.776121 -0.460700 0.711661 0.789550 -0.085151 0.423628 -0.084719 -0.625052 -0.759656 -0.833102 0.259060 -0.513811 0.041157 0.854803 0.101126 -0.823987 -0.637270 -0.341765 0.038218 0.584625 0.781439 -0.805723 0.062242 0.971843 -0.206457 0.179620 -0.524419 0.149457 -0.095099 -0.779840 0.017932 -0.755241 -0.010795 0.088186 -0.369224 
0.648436 0.616707 -0.914305 0.403070 -0.391549 -1.019912 -0.546695 0.479136 -0.759361 0.838713 -0.749643 -0.540499 0.248806 0.957438 0.758625 -0.659969 -0.852719 0.404179 -0.621610 0.045319 -0.582284 -0.405181 -0.615652 0.954017 0.584080 0.055100 0.282117 0.560807 0.190444 -0.557952 0.136297 0.787189 0.475161 -0.763878 0.600739 0.325666 0.314845 0.781967 -0.086783 -0.458587 0.366701 0.399967 -0.800629 0.604239 0.581285 0.274922 -0.190413 -0.795231 0.368711 0.980507 -0.944673 0.082848 0.748689 -0.964266 0.662619 0.336152 -0.579399 -0.668417 0.147511 -0.855635 -0.627748 0.641533 0.654909 -0.020926 -0.674448 0.078289 -0.535072 0.248240 -0.372271 -0.794405 -0.504616 0.977188 0.773339 0.931533 -0.328243 0.535745 0.293217 -0.956358 0.218108 0.836166 
0.164175 0.742647 -0.722486 0.512587 -0.884960 0.208790 0.911099 -0.775414 0.297901 -0.731216 0.613481 0.130905 -0.782766 -0.416514 -0.849109 -0.922261 0.305756 -0.952557 0.110817 -0.981591 -0.051449 -0.446858 -0.314856 0.260749 0.477592 -0.773354 0.295882 -0.565608 -1.000144 0.350206 0.634726 0.433620 -0.796855 0.598644 0.569436 0.614698 -0.738764 -0.297902 -0.676701 -0.609054 0.891319 0.358901 0.493490 0.636574 -0.105438 0.011346 -0.553504 0.601332 0.701941 -0.402166 -0.639570 -0.157623 0.571693 -0.084717 0.224714 0.791280 -0.121955 0.607611 0.937335 0.400470 0.737489 0.449963 -0.554316 0.365120 -0.348532 -0.339052 0.488274 0.128035 0.312232 -0.418775 -0.315176 0.382436 0.657324 -0.108642 0.215291 -0.546111 0.559814 0.375423 -0.808073 0.999109 
-0.485442 -0.058731 -0.674608 0.475142 -0.105032 0.277567 0.985216 -0.131168 -0.862359 -0.433375 0.099118 -0.679964 -0.649322 -0.244965 0.776448 0.141915 -0.565998 0.310556 -0.661677 0.356368 0.361688 -0.807260 -0.118224 0.847943 0.629916 0.325654 0.254133 -0.591698 0.932430 0.881849 0.230794 -0.768087 -0.382753 -0.696412 0.525292 -0.155347 0.621572 -0.853922 0.481184 0.670581 0.720356 -0.487995 0.831901 0.714187 0.380447 0.889852 0.449251 0.717208 0.052827 0.285531 0.756219 -0.598724 -0.371455 0.013743 0.315683 -0.782815 0.815845 -0.925016 0.825347 0.215199 0.113027 0.725915 0.436734 -0.341201 0.089642 -0.714240 0.659517 -0.732322 0.934638 -0.597940 -0.821925 0.275788 0.074573 0.869217 -0.155101 -0.571795 -0.163884 -0.032537 -0.309824 -0.775886 
