-1.056402 -0.524491 0.507247 0.044513 0.055484 -0.525130 -0.864936 0.440120 0.374965 1.037139 -0.577379 0.046716 0.431671 -0.950381 -0.838016 0.078474 0.338140 -1.156559 -0.154451 -0.814836 -0.210599 0.150307 0.078571 0.943517 0.766691 -0.024512 -0.636838 0.277653 -0.103913 0.141696 0.887645 0.458933 -1.053187 -0.903467 0.292451 -0.439308 0.211179 0.433061 1.064279 -0.275314 -0.645401 0.801952 0.451910 0.548457 0.482234 -0.804473 0.547796 0.723208 -0.307334 -0.272066 0.578726 -0.322532 -0.867860 -0.397777 -0.123142 -0.539471 -0.023533 0.840573 0.550152 -0.618066 
0.757912 0.122958 0.029050 -0.238656 0.963234 0.024904 -0.426956 -0.655458 0.937694 -0.698201 -0.273982 -0.221706 -0.629176 0.808110 0.109343 -0.128531 0.849706 -1.105652 0.601745 0.591751 0.610090 -1.001706 -1.053258 0.459555 0.779345 0.283874 0.654735 0.421956 1.062881 0.405104 -0.466604 -0.394069 -0.796847 -0.008842 0.140163 0.456273 -0.230705 0.607488 -0.394159 -0.175203 -0.039251 -0.256358 -0.430567 -0.601599 -0.525076 0.197164 0.845733 -0.980102 0.209612 -0.164347 0.956458 0.214764 -0.109283 0.826500 0.366384 0.764371 -0.676044 -0.618703 0.183933 -0.461358 
-0.815517 -0.265877 -0.994023 0.037087 -0.943175 0.430239 0.912400 -0.282102 -0.631370 -0.221931 0.482199 0.386963 -1.017755 0.352947 -0.176069 -0.327221 0.049042 -0.897544 0.244724 0.741489 0.136177 0.852967 0.037657 -0.621063 0.913604 0.018795 -0.666005 0.253919 -0.452380 -0.200075 -0.056406 1.057094 -1.102473 -0.702947 -0.484090 -0.009917 -0.696007 0.252608 0.227564 0.629330 -0.679021 -0.282044 -0.234772 -0.553881 -0.871628 0.824454 -0.095796 -0.771347 0.899947 -0.274242 -0.687536 0.551916 -0.897526 -0.680737 -0.716281 -0.171037 -0.490971 -0.644293 0.615577 0.213804 
-0.397208 -0.158046 0.617800 1.052886 0.296626 -0.564657 0.386609 1.196818 -0.485477 0.961138 -0.323455 0.024583 -0.109797 0.625656 0.497681 -0.204348 1.038555 0.145153 -0.087405 0.669101 0.328242 0.389342 0.906006 0.992029 0.628069 -0.242064 0.115681 0.186545 -0.766307 -0.379356 0.111436 0.832196 -0.479062 0.399020 0.490868 0.246185 0.517334 0.398832 0.386547 -0.925742 0.628961 0.052875 0.044730 -0.857104 0.324350 -0.006787 0.290862 0.297429 -0.514343 0.722370 0.787637 0.377112 0.008706 -0.687862 0.004736 0.962202 -0.576613 -0.010069 -0.340281 0.228164 
0.669426 -0.262264 -0.071476 0.607038 -0.328310 -0.587532 1.017730 -0.234301 0.373337 0.171685 -1.092238 -1.078814 0.143223 0.469238 -0.313372 -0.466037 0.331270 0.350733 -0.560640 0.680334 0.358391 0.488379 -0.755367 -0.797565 0.647995 0.139782 -0.496254 -0.387166 -0.809297 -0.543460 0.955707 1.242643 -0.413685 -0.479321 0.045473 -0.521606 0.467771 0.641397 -0.162457 -0.410473 -0.502481 -0.975252 -0.353493 0.980534 -0.475222 0.651909 -0.911996 -0.266447 0.378819 -0.685373 0.624744 -0.966481 0.990036 -0.395367 -0.422637 -0.775900 -0.595988 0.367137 0.388720 0.637092 
0.329159 0.434264 0.330862 0.216070 -0.946404 0.184231 -0.535335 0.081707 0.328859 -0.735334 0.484899 0.050121 0.010995 0.217166 -0.344105 0.233312 -0.727432 -0.881632 0.002502 0.739818 0.561410 -0.016196 0.502815 -0.331433 -0.819477 -0.247690 -0.293260 0.301773 0.066482 -0.169483 -0.517140 0.017748 -0.602912 0.133819 -0.227671 -0.178602 -0.449093 -0.807767 -0.194158 -0.454965 0.269532 0.318281 0.373587 0.471764 0.531559 0.901962 -0.485445 0.873237 -0.092321 -0.204989 0.011149 0.106505 -0.023924 0.244357 1.100875 -0.720452 0.345570 -0.238242 -0.042982 0.145967 
0.489909 -0.813776 -0.440840 0.134589 0.035311 0.837206 -0.450709 1.181406 -0.474122 0.725394 0.403124 -0.169388 0.532635 -0.881814 -0.664497 0.266879 0.516290 -0.194699 0.198414 0.570877 0.857334 0.341172 -0.461901 0.528896 -0.389963 -1.280648 0.088192 -0.750823 -0.641553 0.632135 0.422626 0.647811 -0.178962 -0.678913 0.041164 0.078521 -0.708727 0.277820 -0.193443 -0.592709 -0.297822 0.288569 0.457195 0.433768 0.117988 -0.423818 0.726898 -0.251730 0.729419 -0.301389 -1.004714 -1.022841 0.346577 0.586121 -0.459400 -0.757803 -0.880704 -0.701038 0.346595 -0.395770 
-1.063245 -0.075538 -0.085561 0.012745 -0.170044 -0.743105 -0.411414 1.026279 0.557248 0.081547 0.374982 -0.467202 -0.758677 0.981407 -0.031803 -1.126001 0.903994 -1.001784 -0.214242 0.049999 0.048058 0.482328 0.378912 0.089114 -0.523100 -0.848780 0.975700 -0.352078 -0.264664 0.211347 0.036096 -0.680620 -0.028744 0.904281 -0.511233 0.823792 1.085688 -0.334349 -0.547675 -0.207310 0.719489 0.721635 -0.204423 0.540515 0.356036 -0.081883 -0.322631 0.371265 -0.298168 -0.530070 -0.777371 -0.231457 -0.776420 -0.520614 0.315769 -0.090864 -0.848689 0.472746 -0.442877 0.603124 
-0.852102 0.819322 -0.967871 -0.721137 -0.061701 0.496315 0.867453 -0.202689 -0.192398 0.712668 -0.120152 0.384834 0.429165 0.376827 0.394800 -1.204470 -0.514907 -0.651005 0.143883 0.330227 0.154761 -0.262579 -0.579932 -0.523175 0.631194 -0.838390 0.460695 -0.499416 -0.863663 0.212163 -0.882733 0.920359 -0.168963 0.305522 0.598643 -0.924364 0.116312 0.550204 -0.162335 -0.934702 -0.116539 -0.066961 0.838996 -0.849890 -0.183881 0.961599 -0.024475 -0.296697 0.249381 0.580960 -0.599652 -0.848475 -0.091275 1.042935 0.970498 -0.497431 -0.879628 -0.808505 0.017420 -0.649182 
-0.020945 -0.993913 0.648722 -0.162001 -0.205712 -0.384477 0.416517 0.385196 0.642429 0.732516 0.528611 0.350417 -0.134093 0.891789 0.097816 -0.651205 -0.075129 -0.309745 -0.178744 -0.442180 -0.929214 -0.129186 -0.064400 -0.441682 -0.433669 -0.542862 0.640580 0.218061 0.384446 0.667456 -0.668294 0.488734 -0.681800 -0.070876 -0.923628 0.013787 -0.750334 0.729771 -0.149371 -1.038964 -0.447394 0.325583 -0.103778 -0.577957 0.835751 -0.716772 0.769691 0.951939 -0.188838 0.158794 -0.879342 -0.669792 -0.343091 0.298352 0.628639 0.673107 0.460135 -0.302782 0.591312 0.312453 
-0.959323 -0.938162 -0.711281 0.715670 -0.949909 0.030118 0.852381 -0.436511 -0.801565 -0.588165 0.169512 0.451716 0.176718 -0.426302 0.402084 -0.430524 -0.908292 -0.790865 -0.102870 0.025555 0.576686 0.951590 -0.140527 -0.911001 0.524873 -0.911375 0.531340 0.126649 0.704301 -0.287313 -0.696722 0.125176 -0.314779 0.056368 0.857096 1.122247 0.391966 0.899625 -0.494768 -0.794146 0.874906 0.225422 0.048294 0.910225 0.431159 0.664357 0.383471 0.188259 -0.384967 0.743673 0.661009 -0.846555 -1.105539 0.029869 -0.754543 -0.804399 0.043144 -0.882056 0.218511 0.974579 
-0.023291 0.364416 0.466299 0.447060 -1.031246 -0.626094 0.338471 -0.169963 -0.841256 -0.576671 0.678411 -0.426923 -0.219873 0.196081 -0.695003 -1.045572 0.138707 0.270829 0.467155 -0.743092 0.047234 0.713778 0.760259 -0.104362 0.474534 0.672690 0.833316 0.174099 0.523856 0.017835 -0.164142 -0.542497 0.828519 0.370798 -0.678696 0.179489 0.244911 0.494874 -0.989234 0.072094 0.124813 0.260201 -0.001794 0.228855 0.239565 -0.126588 -0.345127 0.037866 0.605344 -1.102724 -0.917070 -0.093546 -0.567833 -0.761661 -0.526524 -0.688516 -0.278455 0.268207 0.330717 0.478952 
0.837341 0.164086 0.024622 0.064404 0.233278 0.388169 -0.216263 0.065461 -0.109453 0.448762 -0.031191 -0.324029 0.359322 -0.414995 0.402891 0.064030 0.753433 -0.624599 -0.143783 0.310168 0.475077 0.647085 0.271365 0.647646 0.202959 -0.290692 -0.716346 0.600070 -0.422723 0.267969 -1.135898 0.778695 -0.413826 0.981373 -0.545429 0.919706 -0.097096 -0.614357 -0.326313 0.379328 -0.056527 -0.821265 0.567062 -0.714573 -0.079528 -0.284724 -0.173039 0.605238 -0.240163 -0.494542 -0.915156 0.262095 0.029612 -0.510252 -0.811033 1.061614 0.658468 0.017821 -0.266712 0.863224 
-0.663175 -0.870899 -0.871486 -0.639158 -0.122416 -0.247964 0.766050 -0.395051 -0.321838 0.254096 -0.426171 -0.659772 0.625286 0.773260 0.886072 0.918829 0.410320 -0.557313 0.201184 -0.811226 0.548318 -0.055864 0.572746 -0.400464 0.778827 0.450965 -0.157314 0.469240 0.105881 0.631291 -0.297104 0.134564 0.570437 1.171705 -0.253861 -0.538911 0.177733 0.565454 0.585091 -0.861903 0.138034 0.684796 -0.159106 -0.764572 -0.602587 -0.171088 -0.655380 0.432941 -0.041250 0.410890 0.767675 0.891007 0.107337 0.822113 0.627939 0.094040 -0.845549 -0.204620 -0.125707 0.555062 
-0.702066 -0.904940 -0.712485 0.025711 0.397935 -0.503585 -0.217866 0.649466 0.036932 0.457694 0.669131 -0.020641 0.767623 0.546605 -0.283265 -0.668546 -0.197002 0.074156 -0.016472 0.102670 0.423125 0.824949 -0.553207 -0.639365 -0.739227 -0.686324 0.966868 -0.427220 -0.470853 0.835480 0.559378 -0.799941 -0.735475 0.028461 -0.545042 0.088808 -0.224723 0.292988 -0.305794 -0.271355 -0.454740 0.133045 -0.081688 -0.604071 0.483254 0.986091 0.153046 -0.157156 0.469556 0.578375 0.601764 0.000137 -1.076292 -0.039056 0.143317 0.486744 0.215327 0.628996 -0.079874 -0.250317 
-0.137938 -0.224124 0.388551 -0.639446 -0.427903 0.363620 0.741927 -0.846497 -0.925331 0.284257 -0.819080 1.164719 -0.355522 -0.022693 -0.384955 -0.507722 -0.571936 0.504692 -0.653907 0.340983 -0.948169 -0.106066 -0.344401 -0.671768 0.255582 0.390971 -0.990435 0.404806 0.174642 -0.316734 -0.240678 -0.434895 0.082121 0.869712 0.243896 -0.609591 -0.083507 -0.325178 -1.016934 -0.836598 -0.595604 0.172585 0.527297 -0.047739 0.769079 -0.415134 -0.638732 -0.248784 0.357144 0.280488 -0.293466 0.154463 0.268269 0.708401 -0.427426 -0.968629 -0.173731 0.240891 1.092550 0.562432 
-0.699265 -0.757376 0.331690 0.675048 0.151612 0.347033 1.018120 -1.358407 0.916808 -0.592856 0.948283 0.286659 -0.389261 0.295743 0.182820 0.668459 0.782127 0.167370 0.561777 0.353718 -0.321033 0.038987 0.238431 -0.338121 0.541006 -0.002011 0.854913 -0.618696 0.957730 -0.645306 -0.224723 0.551660 1.096886 0.010453 -0.401352 -0.064464 0.578929 0.771042 0.264353 -0.460268 0.882073 0.249025 -0.924687 -0.398495 0.802186 -0.597846 -0.590815 0.734209 -0.247535 0.163873 0.666716 0.934852 -0.166493 0.587400 0.208306 -0.832631 -1.047235 0.430420 0.873075 -0.208237 
0.186351 -0.851503 -0.284530 0.603901 -0.316421 0.328425 0.208066 -1.344569 0.498435 -0.337030 -0.015858 -0.466607 -0.737875 0.660253 1.048764 0.218550 -1.142391 0.226451 0.076281 0.217391 0.770491 -0.077828 0.265590 -0.580361 -0.219409 -0.369314 0.952215 -0.576063 0.965412 0.143838 -0.803132 0.807794 1.009378 -0.234509 -1.438965 0.592729 -0.708543 0.850523 0.236179 0.188615 -0.633811 -0.685934 0.400968 0.058913 0.389327 0.014439 0.139825 -0.697508 0.444931 0.234352 -0.441075 0.330236 -0.199610 0.499625 -0.701291 -0.755817 0.371030 0.338086 -0.348992 0.640004 
-0.874169 -0.883076 -0.615979 -0.439539 0.495400 0.403255 0.388365 -0.184645 -0.246772 -0.662067 -0.398817 -0.499200 -0.491244 0.202812 -0.133674 0.751315 -0.029317 -0.604991 -0.076060 0.497166 0.642071 0.743420 0.563465 -0.431229 -0.284946 -0.445941 -0.068066 -0.876525 1.030496 0.642358 -0.816345 -0.780868 0.019381 0.949183 -0.878098 0.057789 -0.673079 0.789445 -0.857210 -0.423527 -0.139864 0.637869 -0.791882 -0.509096 -0.339375 -0.240423 -0.534607 0.941882 0.212830 0.069819 0.155616 0.226707 0.854296 -0.703167 -0.899623 0.610260 0.307384 -0.930445 0.967328 -0.882178 
0.807029 0.463430 -0.314997 -0.389527 -0.626040 -0.354196 -0.915756 0.571936 0.670581 -0.050938 0.411381 0.772244 0.798400 -0.855728 -0.305035 0.781742 -0.599499 -0.532878 -0.801587 0.254223 0.511824 0.938591 -0.048593 0.605794 0.033291 0.016217 -0.386001 -0.307901 -0.389188 0.806829 0.121666 0.436487 -0.447723 0.698750 -0.962722 0.354049 1.017055 -0.388237 0.151088 -0.695575 -0.153819 -0.626648 -0.922552 -0.655673 -0.567571 0.531113 -0.691721 0.080234 0.581684 -0.641277 -0.648592 0.951681 -0.688561 0.715775 -0.784534 -0.687052 0.564599 0.784251 -0.817427 -0.963455 
0.668207 -0.445194 0.586023 -0.809851 -0.231332 0.178683 0.387073 -1.067985 0.932578 0.930019 0.061983 -0.906848 -0.802954 0.915160 0.666382 0.216668 0.230243 -0.618559 0.453206 0.249399 -0.623646 -0.318953 -1.056776 -0.071644 -0.230857 0.995831 -0.844389 0.029851 -0.197026 0.484598 0.598525 0.192208 -0.287562 0.415678 0.000925 0.194389 -0.326215 -0.983418 0.938251 -0.509805 0.043620 0.143776 -0.460343 -0.666941 -0.018895 -0.730273 0.507351 0.220951 -0.282518 0.628746 -0.864291 0.304416 -1.099474 -0.414584 0.540396 0.944993 0.591612 0.895732 0.740000 0.563672 
0.668070 0.190163 0.311460 0.078767 0.591755 -0.031304 -0.529329 -0.232164 0.684963 0.445078 -0.387131 -0.034069 -0.434676 0.783613 1.025212 -0.796169 -0.303617 0.334754 -0.446220 -0.092132 0.391151 -0.568168 -0.465644 -0.579481 0.800257 -0.378001 0.646389 -0.229383 0.613369 0.296243 0.068907 -0.010279 0.758904 -0.521084 -0.050881 -0.399902 -0.158939 -0.043192 0.030427 -0.358361 0.421845 -0.806762 -0.191284 -0.173954 0.759783 -0.906743 0.093705 0.596741 -0.391149 0.653567 0.939620 1.470444 0.219175 -0.200031 0.593854 -0.439017 0.168780 0.015454 -0.517741 -0.446857 
0.160079 0.444906 0.509036 -0.229459 0.930188 0.629346 0.177886 -0.711419 -0.918373 0.415874 -0.484790 -0.005842 -0.400169 0.346008 -0.819899 0.745535 0.990461 -0.308215 -0.666614 0.585689 0.220468 0.175544 0.052759 0.163632 0.174688 0.195738 1.114582 0.227418 -0.427627 -0.997275 0.266325 -0.662650 -0.790356 -0.211155 0.007801 -0.314535 0.012315 0.493783 -0.384573 -0.272374 -0.247417 -0.937382 0.152599 -0.111677 -0.832392 -0.372215 0.569765 0.186308 0.929391 -0.286954 0.883554 -0.726381 -0.190261 -0.683260 1.030881 0.287347 0.377928 -0.787210 0.069313 -0.822231 
-0.088972 1.108375 -0.152840 0.503270 0.954567 0.099295 -0.712975 0.434939 -0.546373 0.539311 0.182525 0.734539 -0.092190 -0.657044 -0.785305 -0.213681 0.898145 0.155681 0.732915 -0.866349 0.766212 0.941446 -0.191670 -0.383811 -0.058922 -0.275048 0.863656 -0.616682 -0.194083 0.274446 0.555561 0.285898 0.528680 0.619219 -0.366527 -0.705547 0.376284 0.913483 -0.666438 -1.020163 -0.555026 -0.699686 -0.620282 0.389432 0.345956 0.016861 -0.501634 -0.020308 -0.005229 -1.246909 0.669294 -0.033154 -1.024307 0.390502 1.191569 0.987587 0.304275 -0.556888 -0.792904 -0.648783 
-0.681780 -0.527057 -0.277242 -0.113128 0.904775 -0.508302 -0.913546 -1.305816 0.960519 0.838379 0.889260 -0.131794 -0.621054 0.015807 0.496698 0.991247 -0.002358 0.208385 -0.033041 0.509724 -0.383235 -0.689330 -0.075069 -0.203917 0.498524 1.085532 -0.884065 -0.273368 -0.053554 0.504634 0.692747 -0.504964 0.464393 0.866767 -0.198727 0.278781 -0.167342 0.144810 -0.047335 -0.819210 0.019706 0.464660 -0.508223 -0.331360 -0.533004 0.495853 0.155185 0.330845 -0.151709 -1.037980 -0.693546 -0.065633 -0.262369 -0.661514 1.249234 0.019997 -0.954624 -0.552555 0.031363 1.226265 
-0.813877 -0.077889 -0.383873 -0.398871 -0.695642 -0.353999 -0.209343 0.051914 0.311979 -0.943587 -0.460848 -1.000294 -0.088151 0.007319 -0.530712 -0.384768 -0.195358 0.206321 -0.321708 -0.996601 0.885950 -1.047602 -0.450439 0.945027 -0.526730 -0.580016 1.100244 -0.615133 -0.897716 0.557167 0.579622 -0.327915 -0.670092 -0.306333 -0.172640 -0.461259 -0.122280 0.153718 0.886990 0.704131 0.447274 0.020795 0.465994 0.854835 0.776946 0.503392 -0.610484 1.045647 -0.315140 -0.616360 -0.463687 0.797437 0.914682 0.585964 0.216961 0.390049 -0.053555 -0.876966 -0.884936 0.926965 
-0.054478 1.033888 0.798152 -0.527278 0.236073 0.900088 0.102224 0.465588 -0.521637 -0.657508 0.897756 0.398757 0.730062 -0.928930 -0.056824 -0.175691 0.786933 -0.679568 -0.514991 0.176121 0.732040 -0.226625 -0.882761 0.587955 0.456118 0.750197 -0.770013 0.943618 -0.839297 0.610575 -0.451727 0.264631 0.366908 0.659913 0.987721 0.530788 1.090552 -0.625834 0.697364 -0.437882 0.059902 0.693295 0.147108 -0.150541 -0.458945 0.788781 -0.190684 0.134417 -0.130978 -0.690314 0.550675 -0.170159 0.466724 -0.382472 0.399706 -0.079212 0.231125 0.393634 -1.141371 0.756954 
-0.419572 0.337046 0.921612 0.509230 0.599378 0.494818 -0.079784 -0.255375 -0.172874 0.389423 -0.483299 0.117718 -0.199306 -0.462963 -0.513965 -0.350783 0.100422 0.883793 0.582474 0.794011 -1.015665 0.529841 -0.922337 -0.141785 -0.774111 0.795436 -0.802930 0.493434 0.865294 -0.962547 0.213785 -0.445166 0.241014 -0.242592 0.047349 -0.241171 0.321689 0.060051 0.926365 0.382990 0.159145 -1.160570 -0.662614 -0.104623 0.520375 0.105950 0.609059 -0.493872 -0.603658 -0.758506 -0.358796 0.594709 -0.402125 -0.724517 0.108493 0.231291 0.113188 -0.733434 -0.593818 -0.139940 
-0.954074 0.248513 -0.733671 -0.651183 -0.092429 -0.286051 1.003903 0.628155 -0.072706 -0.197742 0.657636 0.858445 -0.041921 0.136743 -0.026117 -0.698977 -0.033434 0.109228 0.509134 -0.836490 -0.622022 -1.007658 -0.318784 -0.182471 -0.432283 -0.604802 0.836620 -0.162355 0.808243 0.275678 1.086153 -0.156235 -0.330570 0.125787 0.755717 0.250144 0.468113 -0.337902 0.800084 -0.193859 -1.089062 0.764785 0.872574 0.204298 1.201548 -0.198914 0.867967 0.602685 -0.043600 -1.091743 0.117108 -0.858865 0.302759 0.827952 0.523968 -0.535680 0.173880 0.783992 -0.890797 -0.280543 
0.699471 1.299286 0.172714 -0.397211 0.058425 -0.824819 0.628571 0.494441 0.435901 -0.609120 -0.532789 -0.721579 -0.009395 -0.641008 0.545497 0.676467 0.990795 -0.710872 -0.591199 -0.466996 0.443640 -0.354993 -0.268781 0.815726 -0.079222 0.195588 0.639239 1.425958 0.965814 0.212664 0.512896 0.698308 0.571050 0.392585 0.988676 0.030553 0.636228 -0.162894 0.704387 -0.072208 0.069641 0.553757 0.141903 -0.341545 0.339908 -0.039397 1.997708 -0.194916 -0.083114 -0.227823 -0.961567 0.427173 -0.274701 -0.020263 0.503481 0.106295 0.548487 0.319529 0.272275 -0.306513 
0.443804 -0.878537 -0.821371 -0.780378 0.843450 -0.551491 0.606313 -0.435691 -0.273196 0.574314 -0.565636 -0.037994 0.559970 0.804304 0.790116 -0.493693 0.638120 0.455019 -0.008052 0.008263 -0.628667 -0.078632 0.666840 0.752780 1.071042 0.796063 0.807848 -0.655823 -0.411710 -0.414707 0.609123 0.458704 0.037874 -0.200663 -0.449896 0.113818 0.314003 0.398289 0.742466 -0.450141 0.352509 -0.755146 -0.627838 0.605408 1.112364 -0.793610 -0.300061 0.641600 0.528477 0.753453 -0.069765 0.622843 0.360964 -0.219097 -0.463161 0.551064 -0.915955 -0.600320 -0.924328 1.189061 
-1.034754 0.861839 0.653275 0.900766 0.022195 0.519400 1.038405 -0.002728 -0.408080 -0.046654 -0.956180 -0.264642 -0.923757 -0.634017 -0.215432 0.689845 0.898635 0.997250 0.689775 -0.111089 0.588725 0.304061 -0.141506 -0.087152 0.223921 -0.039004 0.309998 1.025334 0.540450 -1.268427 0.317144 -0.804014 0.341220 0.106002 -0.615855 -0.677551 0.022710 0.283229 -0.405252 -0.702427 0.373446 0.066577 0.538570 -0.822582 0.865509 -0.539004 -0.603824 0.419931 0.716981 0.905751 0.500449 0.227132 -0.558902 -0.571201 -0.894619 0.633271 0.522735 -0.683594 -0.336815 -0.068018 
0.226446 0.674904 -0.899920 0.473797 0.270483 -0.074143 -0.744034 0.764607 -1.215732 0.072233 -0.048956 -0.732129 -0.000044 -0.187844 -0.910747 -0.725731 -0.325074 0.129211 -0.190767 0.137256 0.497521 -0.812327 0.479853 -0.820886 -0.588324 -0.093076 0.606033 -0.311016 -0.220070 0.480976 0.588729 -0.443478 0.012332 0.110560 0.895617 0.609877 -0.029887 -0.799167 0.121342 0.081874 -0.337191 0.238741 0.917688 -0.501433 -0.759966 -0.502097 0.462601 0.587460 -0.085685 0.747282 0.287341 -1.239322 0.643920 -0.017212 1.029039 -0.317720 0.460696 -0.491917 0.689998 -0.147366 
0.266071 -0.697866 -0.425273 1.077537 -0.962301 0.187163 0.909569 1.029333 0.016934 -0.214287 -1.239069 0.127752 -0.009009 -0.743998 -0.883316 -0.653564 0.193053 -0.483447 -0.543517 -0.913476 0.466340 -0.789363 -0.498177 0.624338 -0.027972 -0.310030 -0.281483 0.867267 0.269642 0.162592 -0.349049 -0.692301 -0.678667 -0.057565 0.269076 0.176870 0.553865 -0.162140 0.387461 -0.641076 -0.312653 -0.989807 0.072510 0.611790 0.692269 0.145531 -0.127810 0.084786 0.998584 0.432719 -0.694953 -0.327399 -0.201385 0.040670 0.164078 0.070429 -0.712680 0.526287 0.107649 -0.228708 
0.122752 -0.718520 0.811085 0.457431 -0.042664 -0.203729 -0.071318 -0.237293 0.336739 -0.790345 0.364546 -0.808575 -0.608744 0.865588 0.477936 0.302969 -0.249263 -0.380943 0.329876 0.681417 -0.196926 -0.096684 -0.126828 -0.842261 0.180546 0.351596 0.109250 -0.476290 0.501284 0.302444 0.077713 -0.022031 -0.382769 -0.913601 -0.336051 0.519390 -0.877642 0.067763 -0.821977 0.480437 0.230209 0.103864 0.179269 0.415996 0.044825 0.457751 0.714255 0.347010 1.079808 -0.214288 0.253876 -1.025543 -0.059645 -0.332657 0.542330 0.188248 0.661561 0.127425 0.582827 -0.642621 
-0.163025 -0.318114 -0.959525 -0.055983 0.687629 -0.341890 -0.075267 0.775080 -0.873069 0.253943 -0.300279 0.534235 -0.127461 -0.882224 0.654216 -0.837771 0.783298 0.626738 0.661580 -0.948569 0.895247 -0.348953 0.490563 -0.762191 0.958374 0.369125 -0.913653 0.686661 0.236297 -0.824937 0.059115 0.474867 -1.416050 -0.295495 0.067258 -0.271785 0.363991 0.651131 0.504943 0.495212 0.359157 -0.777939 0.844922 -0.364821 -0.878859 -0.775941 -0.124025 0.759350 -0.404130 0.077178 -0.524927 0.617206 -0.738701 -0.143305 0.337800 0.509072 -0.217671 0.494367 0.490432 -0.845912 
0.794171 0.386092 0.934832 -0.517788 0.670606 -0.506133 -0.034565 -0.392138 0.611378 0.415796 -0.980568 -1.060162 0.601028 -0.581439 -0.877824 -0.494956 0.384144 -0.646168 0.326360 -0.238876 -0.553571 -0.346970 -0.978472 0.964050 0.031441 0.247758 -0.462943 0.955151 -0.848142 0.584366 -0.566418 0.341733 -0.424115 -0.536996 0.403900 -0.455739 0.157852 -0.770801 -0.423167 -0.072195 0.888772 0.983664 0.262481 0.774421 -0.261730 0.755501 -0.857346 -0.615137 -0.105409 -0.565776 0.004005 0.520520 -0.368810 0.127177 -0.491144 -0.676953 0.263068 0.863572 -0.191870 -0.462162 
-0.887802 -0.021098 -0.623016 0.348947 -0.907082 -0.963812 -0.259799 0.002547 -0.532941 0.064532 -0.346233 -0.386980 0.955747 -0.452685 0.890096 -0.445021 0.632843 0.274598 0.622910 0.912690 -0.048335 0.599879 0.650784 -0.385564 0.589365 -0.527009 -0.733344 -0.654759 0.403956 -0.600575 -0.313229 0.049723 -0.587296 0.005070 1.042690 0.466037 -0.777568 1.094732 -0.004603 0.237610 0.436302 -0.655887 -0.182805 -0.649010 -0.167964 0.875080 -0.566071 -0.177170 1.005520 -0.522082 0.512213 0.538335 0.862174 0.706681 -0.268063 0.127890 0.190618 -0.491127 0.361182 -0.941891 
-0.289961 0.347088 -0.362153 0.412642 -0.049423 -0.028935 0.788749 -0.259399 0.048353 -0.392618 -0.133144 -0.208759 1.031270 0.896907 -0.030299 -0.821160 0.091369 0.094454 0.818220 0.219507 -0.269296 0.332411 0.941985 -0.315964 0.082284 0.931207 0.759764 -0.640946 -0.713293 -0.856695 0.438313 0.642473 0.489020 -0.240917 -0.142317 -0.590477 -0.439747 -0.682871 -1.111049 -0.800202 0.468946 0.314001 -0.459464 0.166897 0.900121 0.183404 0.368582 1.024501 0.230244 -0.826353 -0.459041 -0.506760 -0.196288 -0.319380 0.561893 0.905421 -0.477174 -0.623276 -1.089609 0.268401 
0.075404 0.322922 0.059973 -0.191089 0.777355 0.719762 -0.857770 -0.583092 0.693162 -0.195438 0.882581 -0.910895 0.329210 -0.748996 -0.159365 -0.772700 -0.169608 -0.766875 0.337689 -0.070819 0.259645 -0.610776 -0.067934 0.119435 1.075723 -0.541625 -0.370271 -0.571043 0.301592 0.166895 -0.184135 -0.809152 -0.881699 -0.139911 0.818917 0.895089 -0.424765 0.972681 -0.588914 -0.554581 -0.155863 0.569819 -0.555667 0.209846 0.273862 0.640540 0.565500 0.093134 0.772138 0.329765 0.110312 -0.474964 1.002682 -0.465890 -0.874293 0.041448 0.144206 0.539293 -0.265707 -0.400182 
0.471918 -0.831552 -0.250104 -0.696286 -0.815508 -0.913980 -0.678062 0.493186 -0.205649 -0.575573 0.485286 -0.617260 -0.453690 0.049477 -0.478546 -0.453407 -0.780297 -0.683714 0.056671 -0.613039 0.844996 0.646374 0.786753 0.394880 -0.024391 -0.484622 0.418462 -0.752805 -0.553603 0.584380 -0.938963 -0.944661 -0.925480 -0.564233 -0.447448 -0.329045 0.400600 0.828377 -0.534620 -0.354109 -0.439612 -0.662718 0.480158 0.413655 -0.777765 0.562299 -0.237963 -0.931409 0.778214 -0.553412 0.464792 -0.540575 -0.531390 0.918296 0.181419 -0.909901 0.138356 1.072525 0.534867 0.769245 
-0.295873 -0.448492 0.068774 -0.571544 0.869878 -0.684593 0.436143 0.804376 -0.609592 0.396942 0.286520 0.927136 -0.700999 0.580883 -0.626558 0.026209 -0.388784 -0.698976 0.037626 -0.222127 -0.331664 -0.294470 0.155578 0.484290 1.243566 0.535044 -1.049542 0.454920 0.062838 -0.027741 -0.359765 0.084427 0.030517 0.373415 -0.409820 0.087570 0.805315 0.638929 0.328916 -0.499039 0.273327 -0.913313 0.361178 0.205889 0.875325 -0.408802 -0.804387 -0.664399 -0.200865 0.414098 -0.980484 0.643393 0.337446 -0.780749 0.143024 0.413868 -0.063764 1.258045 0.377323 0.262156 
0.527556 -0.907957 -0.401177 -0.038290 0.858965 -0.178479 -0.722681 -0.760974 -0.234626 0.821441 0.072923 -0.560444 0.328932 0.598732 -0.882707 -0.032406 0.351257 -0.352911 -0.094582 -0.215879 -0.481341 0.866177 -0.479035 0.027115 0.350612 -0.795062 -0.585790 0.615080 1.018537 0.119436 0.656512 -0.001998 -1.190625 -0.367845 0.914611 0.806261 -0.959176 -0.812066 -1.040827 0.779228 -0.763364 0.005274 0.798290 -0.314084 -0.432601 -0.252209 -0.810795 1.020958 -0.246077 0.230823 -0.118318 0.300783 0.896459 0.098123 -0.036371 -0.097325 0.326393 0.251866 -0.196226 -0.764451 
0.620674 -0.621457 0.909984 0.210285 0.314670 0.263315 -0.783846 0.255062 -0.856191 0.450246 0.101439 -0.495863 -0.135052 0.444152 0.340644 0.408359 -0.830785 0.495317 0.279835 0.982984 -0.619157 -0.837853 -0.013701 -0.225700 0.980844 -0.660200 0.634954 -0.805404 0.837343 -0.014170 -1.040461 -0.110516 0.837948 0.516476 -0.667241 0.787207 -0.063670 -0.913396 -0.792271 -0.860342 -0.291691 -1.047975 -0.770269 0.988619 -0.058641 0.178776 0.881931 -0.272604 -0.957363 0.503300 0.254959 -0.385112 -0.276287 -0.454628 -0.228694 -0.568816 -0.290494 0.312700 0.995510 0.331970 
-0.505515 0.119677 0.363080 -0.554591 -0.479831 0.925130 -0.956282 -0.606821 0.083147 -0.544606 0.474019 -0.340133 -0.311761 -0.795812 0.085061 0.230185 0.174471 0.341526 0.652628 -0.379402 -0.248692 0.887133 -0.837379 -0.537978 -0.751313 -0.862107 0.630672 -1.181684 -0.417632 0.295708 0.063067 -0.304254 0.795680 -0.115008 0.019932 -0.624708 -0.519438 0.118458 -0.036726 0.729909 -0.330060 0.861620 -0.881551 0.806438 -0.499074 0.800908 -0.337840 0.945904 -0.749026 0.915674 -0.738466 -0.352731 0.269067 -0.989261 -0.373111 -0.291746 -0.490715 0.267597 0.691869 0.920367 
0.882426 0.680891 -0.800520 0.794532 0.034820 0.772651 -0.698927 -1.116973 0.496581 -0.679481 0.338594 0.405427 0.687732 0.607787 -0.496469 0.312194 -1.047956 0.034051 1.013960 -0.194799 0.825421 0.204625 0.823448 -0.383429 0.306295 0.122777 -0.127253 -0.868212 -0.636716 0.510978 0.041684 0.095416 -0.320028 -0.662511 -0.408429 0.310752 0.791574 -0.089141 0.547404 0.595989 -0.626079 -0.941252 0.010394 0.811780 -0.266479 0.451265 0.219306 -0.305538 -0.546028 -0.433176 -0.713664 0.769003 -0.138324 -0.935809 0.581793 -0.650117 0.003766 -0.421454 0.313433 -0.624554 
-0.621066 -0.847346 -0.016791 0.898232 0.008126 0.118519 -0.258607 -0.725467 -0.234774 -0.383043 0.201158 0.038344 0.982028 -0.144385 0.758086 0.779505 0.623791 -0.089760 -0.820740 -0.388437 0.405823 -0.601468 0.820361 0.757364 0.071859 0.866230 0.632244 0.643610 0.918747 -0.934635 -0.299214 -0.607329 -0.346473 -0.152415 -0.679079 -0.187180 -0.824521 -1.109994 -0.762695 -0.909431 -0.749135 0.228227 -0.442911 -0.602328 -0.634957 0.212780 0.117712 -0.206992 0.072361 -0.166955 0.393839 0.700379 -0.134946 -0.853814 0.579156 -0.852722 0.219597 1.060072 0.600715 -0.701884 
0.268905 -0.675439 0.846641 0.648380 -0.984099 0.253335 0.410127 -1.253104 0.315053 -0.488730 0.537755 -0.622641 -0.325277 -1.036266 -0.542590 -0.262560 0.694981 0.396776 0.090479 -0.638865 0.049177 0.928967 -0.239689 -0.524752 -0.124682 -0.533388 0.668995 -0.702354 -0.399195 0.323019 -0.639937 -0.532061 -0.292913 -0.397573 -0.557289 -1.206551 0.632285 0.616288 -0.618619 0.429278 0.076743 -0.418295 0.036755 0.937487 -0.713440 -0.441087 0.076561 -0.528084 -0.788620 0.648575 0.719848 0.605860 -0.924228 0.566855 -0.729037 -0.986456 0.630145 0.914038 0.640502 0.251750 
-0.965830 0.609362 -0.536695 -0.805490 -0.545915 0.720047 -0.045590 -0.425405 0.416138 0.043670 0.364345 -0.893618 -0.432855 -0.816879 0.872642 0.068578 0.580378 0.951485 0.055211 0.478174 0.212981 0.484098 -1.066007 -0.452823 -0.341817 -0.023439 0.920373 -0.622976 -0.687626 -0.107023 -0.676736 -0.708367 -0.316184 0.265541 0.198426 -0.102080 -0.684265 0.184003 -0.229212 0.579235 -0.102805 -0.058573 0.066909 0.183409 -0.833724 -0.108620 -0.134925 0.297996 0.261189 -0.228433 0.968435 -0.216801 -0.750734 -0.069934 -0.263430 0.932956 0.946480 -0.026340 1.019764 0.306848 
0.074237 -0.668247 -0.416810 0.477808 0.835111 -0.593550 -0.890911 -1.214918 -0.207212 0.575102 -0.415195 -0.129886 1.069322 0.422675 0.103037 -1.008856 0.270778 0.356324 -0.632292 -0.675269 -0.515186 0.857143 -0.010844 -0.157702 0.166306 -0.464075 0.245055 0.074555 -0.676169 0.701626 0.756733 0.294038 0.344676 -0.361506 -1.286502 -0.087891 -0.392089 0.312951 0.670045 -0.106023 -0.327163 0.932351 -0.876700 -0.570330 0.526846 0.873480 0.567016 0.310431 -0.133088 -0.272242 -0.940970 0.505192 0.328717 0.181314 0.751796 -0.590077 -0.958198 0.386918 0.212201 -0.030398 
-0.890795 -0.969477 -0.878693 -0.939855 -0.827437 0.968307 -0.157974 -0.998986 -0.805575 -0.135271 -0.111526 0.502889 0.907729 -0.438699 0.238064 -0.506786 0.708692 0.483580 0.076762 -0.188277 -0.587963 -0.517622 0.758537 -0.928202 -0.446338 0.452657 -0.589030 0.004133 -0.598667 -0.144455 -0.625284 0.134072 0.390449 0.663668 -1.142244 -0.684584 -0.125959 0.570878 -0.062607 0.402599 1.081080 0.539614 0.361869 -0.250567 0.217769 0.923822 1.072071 0.324729 0.055454 -1.082096 -0.017064 0.557023 0.369129 -0.510823 -0.314709 0.081730 -0.158724 -0.197659 1.190973 -0.959786 
-0.325411 0.810986 0.962742 -0.290759 -0.867235 -0.956517 0.817956 -0.276055 0.015513 0.198740 -0.473877 0.102568 -0.674156 0.083326 -0.309483 -0.406811 0.557514 -0.012679 0.073439 -0.331094 0.057217 0.780130 -0.309835 -0.305716 -0.774779 0.874443 1.036210 -0.909433 -0.423794 -1.101754 0.097349 0.502133 0.304090 -0.499383 0.571669 0.606223 0.601356 0.410023 -0.572278 0.746973 -0.438561 1.011641 0.247432 -0.265901 0.585506 -0.515024 0.060913 0.195367 -0.434874 -0.965405 0.070302 -0.128921 -0.190553 0.858760 -0.777799 0.033048 -0.806095 -0.311664 0.290739 0.572760 
-0.261147 0.700708 -0.765911 -0.410523 0.802697 0.137900 0.900379 0.278506 0.383205 0.477423 -0.830713 0.271402 -0.306326 0.748307 -0.747283 0.364952 -0.928754 -0.143486 0.537058 0.086374 -1.069672 0.144582 0.118052 -1.010009 -0.624238 -0.182511 -0.641540 0.737259 0.899768 0.304871 -0.139090 -0.326831 -0.651056 -0.665301 0.120758 0.780087 -1.099607 0.416171 -0.130605 0.031073 -0.046604 -0.809339 -0.487714 -0.225671 -0.425150 -0.233660 0.662810 -0.595043 -0.132554 -0.785649 -0.891305 0.981626 -0.206194 -0.195265 -0.599598 0.424048 0.950425 -0.688181 0.099545 -0.147327 
-0.660263 0.192979 -1.019320 0.327971 -0.358053 -0.804155 -0.033990 0.137489 1.128108 -0.126610 0.167509 -0.885294 0.721205 0.681398 0.565504 -0.316261 -1.219486 0.089737 -0.065422 -0.459802 -0.028288 -0.102262 0.739261 -0.860609 -0.167178 0.666528 0.052566 0.191927 -0.907414 0.659647 -0.982897 -0.503037 0.006582 0.827790 -0.180521 0.858546 -0.155167 0.743631 -1.018486 0.722274 0.750442 -1.031492 -0.742309 -0.252023 -0.857753 0.236813 0.020534 0.534393 0.363878 -0.661066 0.143440 0.272015 -0.722688 -0.608182 0.697247 0.152741 0.787023 -0.403390 0.834483 0.996566 
-0.782837 0.318263 -0.713789 0.165821 -0.141137 0.544514 0.780200 0.091059 0.547537 0.032914 0.543435 0.328680 0.852510 0.045188 -0.339513 0.528659 -0.523589 0.416503 0.490970 -0.457810 0.883188 0.454138 0.286267 -0.114878 -0.393829 0.684000 -0.833800 -0.672933 0.801315 0.353507 -0.198542 -0.529467 0.969638 -0.365366 0.224069 0.400203 -0.107351 -0.918587 0.148540 -0.033245 -0.047252 -0.731032 -0.101324 -0.149208 -0.115850 -0.052311 0.486672 -0.291504 0.616121 -1.053377 -1.050473 -0.464604 0.284973 0.316883 0.967860 -0.048908 -0.296650 -0.008756 0.474370 -0.733704 
-0.136060 0.031115 -0.052910 -0.009749 -0.994959 -0.845170 -0.316940 -0.030330 -0.474427 0.403111 0.920665 -0.805809 -0.074335 -0.895229 0.037333 0.437149 0.465991 0.605005 0.621799 0.633067 -0.928161 0.266547 -0.929363 -0.680147 -0.301621 -0.354041 -0.685638 -0.255523 0.560008 0.186005 -0.530008 1.006407 0.171326 0.865766 0.299108 0.695420 0.445617 -0.600943 -0.486230 -0.161932 0.138766 -0.833891 0.389839 -0.081595 0.996806 0.538760 -0.826616 0.568843 0.573705 -1.090503 0.861165 0.603656 -0.410597 0.205790 -0.356767 -0.781199 0.133849 -0.116983 -0.528561 0.173765 
0.946322 0.216841 -0.833596 0.584127 -0.718107 0.504043 0.744800 0.107035 0.171992 0.867834 -0.620499 0.424712 0.581412 0.889784 -0.802325 0.503415 -0.532526 0.653477 0.562605 -0.199036 -0.838305 -0.561478 -0.196857 0.500818 0.090575 0.611522 0.457995 0.457763 -0.404452 -0.011060 0.978139 0.568192 -0.578833 0.577740 -0.696219 0.312464 -0.014027 0.635990 -0.605204 -0.590940 0.413611 0.736501 0.120603 -0.349246 0.611416 -0.371020 0.354964 -0.040391 -0.695670 -0.868848 -0.638196 0.617693 0.773556 -0.373790 1.016977 0.639029 0.420317 0.690101 0.583827 -0.367711 
0.338189 0.302340 0.534430 0.740158 1.000592 1.001149 0.836960 0.643542 0.767424 0.798760 0.129991 0.675365 -0.871277 0.187023 -0.119946 0.943659 -0.362493 0.025254 0.038610 0.537450 -0.997034 -0.365330 -0.444228 0.285285 0.495740 -0.889257 0.825552 0.238670 0.091122 0.247569 0.127530 -0.029118 0.840555 0.053913 -0.327812 0.147423 1.224386 0.741920 0.002800 -0.142166 -0.056281 -1.130457 -0.806770 0.536064 -0.427259 -0.729300 0.546209 0.540448 0.836173 -0.235802 0.326848 -0.360139 -0.334993 -0.134863 0.478152 0.475655 0.895547 -0.437625 -0.263326 1.024552 
-1.051637 0.093189 0.306903 -0.442160 -0.092574 -0.542460 -0.167340 0.242989 0.389308 -0.195388 -0.884064 -0.583785 -0.196737 -0.334694 -0.476645 0.240542 -0.550751 -0.413898 -0.425631 0.674826 0.555729 -0.052638 -0.210309 -0.148812 0.899899 -0.479657 -0.564797 -0.387006 -0.590248 -0.514701 0.900438 0.332825 0.493771 0.762193 -0.565657 0.840718 -0.119210 -0.640383 0.600567 0.623546 0.622869 0.543878 -0.514101 -0.069504 1.053205 0.489699 1.283340 -0.621027 -0.206313 -0.011252 0.205362 0.831586 -0.576306 0.252149 0.437356 -0.279602 1.036450 -0.490637 -0.227046 0.255897 
0.362920 0.372473 -0.448598 -0.197697 -0.113770 -0.107082 0.600404 -0.380248 -0.551512 0.817740 0.337625 -0.790645 0.930620 -0.752074 -0.436540 0.814501 0.379437 -0.298353 -0.647987 0.878311 -0.304863 0.112884 -0.750958 0.186791 0.920391 0.721581 0.958729 -0.097537 -0.598837 0.731132 -0.173248 -0.240263 0.534235 0.610955 -0.507980 0.322400 -0.095626 -0.491910 0.945926 0.596432 -0.713355 -0.546416 -0.703550 -0.492919 -0.008281 0.873849 1.183192 -0.982056 -0.350019 0.135993 -0.277889 0.130656 0.699893 -0.251733 0.051568 -0.447194 -0.531183 0.496275 -0.329610 -0.113917 
0.705147 -0.102727 -0.462263 -0.401423 0.520083 -0.863851 0.633325 -0.075891 -1.017522 0.844809 0.153905 0.079267 0.217704 -0.525387 0.672929 0.619322 -0.415781 0.686529 -0.046308 0.244302 0.716623 0.912851 0.607746 0.096071 1.355070 -0.570362 0.512654 0.729156 0.582634 -0.242650 0.985249 -0.505188 -0.528470 0.254769 0.580368 1.006964 0.448486 0.120900 0.174869 -0.721791 -0.201824 -0.350237 -0.034699 -0.538651 -0.097033 1.011625 0.866981 -0.770328 0.107596 0.382093 0.211354 0.661159 0.920396 0.894939 -0.412929 -0.727964 0.982393 -0.740870 -0.686559 -0.332731 
0.740386 -1.238209 0.738048 0.370897 0.436146 0.409787 -0.899237 0.961651 -0.336117 -0.266574 -1.110316 0.705749 -1.099894 -0.884014 0.703554 -0.217862 -0.168662 1.009758 -0.763600 0.033179 -0.402649 0.383711 0.362344 -0.113931 -0.259586 0.757454 0.218219 -0.689724 0.993413 -0.380413 0.111794 0.305100 -0.720473 -0.175704 0.895987 -0.550375 0.464623 -0.942028 -0.724083 0.011959 -0.101890 -1.049881 0.195121 -0.075617 0.099306 -0.611859 -0.928865 0.177461 0.344159 -0.099845 -0.164940 0.347016 -0.222698 0.096453 -0.806921 0.083710 0.026880 0.963679 0.993147 0.988260 
-0.105670 -0.466989 -0.781386 0.920145 -0.940155 0.049614 -0.408131 1.143425 -1.152719 0.684803 0.885076 -0.364556 -0.014157 0.611547 -0.500040 -0.717096 0.840933 0.536883 -0.775338 0.904231 0.782605 -0.656014 -0.115327 0.339246 0.029645 -0.202170 0.599194 0.449961 0.049757 -0.327976 -0.522100 -0.059754 0.005951 0.333985 1.315819 0.761930 -0.013830 0.056245 -0.053595 0.191894 0.057953 -1.008840 0.230248 0.371932 -0.391624 0.511999 0.384308 0.671932 -0.200729 0.415131 -0.419977 -0.332743 0.424238 -0.172470 0.428797 -1.350891 -0.787239 -0.058948 0.658949 -0.035124 
-0.471596 -0.565164 -0.715924 0.250749 0.508897 0.574693 0.280187 0.255019 -0.108507 -0.275008 -0.185354 0.253629 -0.210982 -0.922180 0.733836 -0.198693 -0.002362 0.375445 0.113281 -0.281437 -0.604270 -0.106876 0.976507 0.208373 0.600457 0.926424 -0.993293 -0.803152 0.445061 -0.821345 -0.274166 0.666474 0.126295 -0.819173 0.102971 0.201630 0.806995 -0.918561 0.060615 -0.873228 -0.088722 0.768082 0.452179 0.421089 -0.166437 -0.817301 0.659314 0.514832 0.097232 0.798122 0.028925 -0.489703 -0.822497 -0.049231 0.926211 -0.355052 0.910510 -0.829475 -0.187211 0.035222 
-0.775161 -1.035585 -0.024699 0.539343 -0.708596 0.516478 0.616558 0.348633 -0.928154 0.281094 -0.673758 -0.043933 -0.296860 -1.026306 0.539968 0.091870 0.203663 0.552954 0.463410 0.717840 0.192522 0.063068 -0.731021 0.475356 -0.423130 -0.715723 -0.779543 -0.676233 0.081103 -0.471231 -0.306071 -0.657368 0.495949 -1.282174 0.160005 -0.698584 -0.160972 -0.313776 0.096384 -0.301867 -0.155916 -0.583119 -0.274588 0.963425 -1.046658 -0.048063 0.682322 -0.546957 0.230422 -0.472636 0.717467 0.269589 -0.307031 0.621894 0.445574 -0.263756 0.126456 -0.099826 -0.285584 0.965436 
-0.142749 -0.440831 0.041996 -0.028694 0.338150 -0.545738 -0.438592 0.872614 -0.942732 0.096751 0.974877 -0.742446 0.832711 0.631760 0.801842 0.377922 0.385401 0.004111 -0.384204 -0.710274 0.063639 -0.193747 -0.526152 0.929687 1.123679 -0.340739 0.249513 -0.250934 0.555997 1.309479 0.587696 0.224408 0.690713 0.467716 -0.201502 0.408723 0.494279 0.557681 -0.028467 -0.485502 0.493743 0.886252 0.445868 -0.714807 -0.882026 0.043905 -0.056859 0.908443 -0.744112 -0.063865 0.864782 -1.019960 -0.341255 0.718847 -0.461566 0.118397 -0.202901 -0.013246 0.821544 -0.256065 
-0.097153 -0.435185 -0.162111 0.513807 -0.815155 -0.686199 0.678956 0.907176 -0.207083 0.902686 0.644372 0.234003 -0.283304 1.012223 -0.587281 -0.385328 0.736520 -0.472544 0.810333 0.847130 -0.726684 -0.710134 -0.654695 -0.262979 0.434414 0.604099 -0.907822 0.525264 0.180447 1.292001 0.641775 0.250789 -0.431865 0.045542 -0.313828 0.839017 0.605712 -0.221611 0.567951 -0.829095 -0.367675 0.155513 -0.173969 -0.399946 -0.851933 -0.734220 -0.793482 -0.166194 -0.187946 -0.881175 -0.779409 0.215746 0.725111 -0.459528 0.491851 -0.859393 0.753863 0.182788 -0.869463 -0.801006 
-0.499677 -0.790070 -0.610262 -0.946058 -0.116996 0.386211 -0.719557 -0.195917 0.208343 0.078820 -0.211842 0.389562 -0.074077 -0.260185 0.326809 -0.317079 -0.822118 -0.767966 -0.381793 -0.733284 -0.016732 -0.233444 -0.222456 -0.577613 1.613254 -0.112954 -0.021501 -0.346483 0.498502 0.313234 -1.157958 -0.943644 0.144191 -0.117137 0.333230 1.017700 -0.288489 0.912940 -0.088295 0.665072 -0.597011 -0.499241 0.858806 0.667357 -0.540393 0.227409 0.080428 -0.217168 -0.774214 -0.721566 -0.356448 0.797129 0.151172 0.730204 -0.575150 0.352978 0.654841 -0.616715 -0.031156 -0.947954 
0.754009 0.343965 0.175099 0.390582 -0.196756 -0.975256 0.561901 0.077777 -0.591949 -0.387139 0.332375 0.715123 0.303751 0.591287 -0.020090 -0.692281 -0.423814 -0.373438 -0.120912 0.809105 0.795948 0.166117 -0.977433 -0.316659 -0.617618 0.315155 0.975565 -0.478909 0.566335 0.623167 -0.478654 -0.387666 0.547735 -0.726016 0.730635 0.316410 -0.620755 -0.343083 0.225617 0.941101 -0.065785 0.787327 -0.041879 0.037913 0.057004 0.644789 0.621786 0.760710 0.101849 -0.467790 0.384214 -1.121832 -0.067097 -0.021700 -0.074766 0.046529 0.200521 0.288009 -0.393575 -0.470702 
0.947279 -0.108234 0.180164 -0.331312 -0.911825 -0.179530 0.503963 0.234523 0.462448 0.518789 0.318806 0.087687 0.624070 0.164830 -0.537534 0.036649 -0.502891 0.872035 0.172425 -0.089260 -0.565397 0.606339 0.606047 -0.610405 0.302183 -0.410498 -0.660459 -0.046361 -0.899358 0.845168 0.483262 -0.197428 -0.426028 0.422742 -0.077395 0.219158 -0.293468 -0.413366 0.718806 0.576457 -0.515498 -0.289273 -0.452090 -0.591910 0.933536 0.884368 0.649985 1.034371 0.284573 -0.168666 0.050469 -0.118969 0.457873 0.401113 -0.960340 -0.723177 -0.780830 0.725198 0.451715 0.878015 
0.286840 0.030812 -0.290040 0.687687 0.343556 -0.819285 0.554711 -0.541253 0.544723 -0.372904 0.780557 -0.771692 -0.750695 0.934343 0.056239 0.754654 -0.630437 0.576964 0.673074 -0.851004 -0.882421 0.800883 -0.789843 -0.110030 -0.598987 -0.851509 0.042186 0.723633 0.296963 0.543649 -0.981872 0.611425 1.250658 -0.312206 0.054321 0.833087 0.668943 1.025768 -0.961193 0.017001 0.395487 -0.648762 -0.674283 -0.171847 -0.380322 1.030938 -0.135849 -0.853161 0.110983 -0.629283 -0.361449 0.762871 -0.451519 0.754068 -0.662525 -0.687039 -0.147262 0.018788 -1.045916 0.835476 
-0.640308 -0.439650 -0.202370 -0.295254 -0.483090 -0.223417 0.467804 -0.019726 0.508233 0.405370 -0.585785 -0.672449 0.482953 0.598704 0.024498 0.435072 -0.677784 -0.222138 -0.769960 -0.154574 -0.773455 -0.568365 -0.840032 0.907351 0.939243 0.258272 -0.111086 0.708707 0.614838 -0.130855 -0.034655 0.271076 0.355309 -0.117259 0.574237 -0.805236 0.893184 0.145747 -0.744482 -0.359286 -0.092306 -0.629226 -0.547735 -0.482179 -0.785607 0.613543 0.454668 0.361955 0.141198 0.409136 0.606837 -0.564889 0.790695 -0.825544 -0.778890 -0.497844 0.292771 0.194508 -1.038288 0.627760 
-0.963687 -0.092437 0.569000 0.771596 -0.065386 0.807178 -0.471518 0.905735 -0.746119 0.152028 -0.741575 0.660037 -0.558891 -0.947957 0.206610 -0.578582 -0.203305 0.409497 -0.678803 0.621594 0.262214 0.403266 0.003703 -0.013870 -0.329951 -0.022106 0.005059 -0.286709 0.173977 0.155336 -0.970306 -0.894709 -0.013446 -0.073704 -0.344380 0.618393 -0.782366 -0.580846 -0.386476 0.319944 0.437812 -0.304148 0.466662 -0.734074 -0.410379 -0.812187 -0.105215 0.501138 0.653310 -0.486818 -0.689144 -0.694060 0.274944 0.891760 -0.469065 -0.817633 -0.325146 -0.271983 -0.207443 -0.748586 
-0.954402 0.677534 0.843103 0.378147 0.874479 0.369803 0.445226 -0.489336 0.258139 0.027372 0.712002 0.308160 0.737848 0.191171 -0.423544 -0.452772 -0.255950 -0.163514 -0.476709 -0.468000 -0.393742 0.471084 -1.006325 -0.789308 -0.636168 0.582791 0.037070 -0.226376 -0.793402 1.040812 -0.182154 -0.898294 0.272616 0.583857 0.649388 -0.149809 -0.358606 0.041020 -0.509041 0.124703 0.021089 0.047967 0.788385 0.492307 -0.750582 0.113969 0.821028 0.007154 0.574903 -0.569509 -0.250114 0.363508 -0.897635 -0.496550 0.179015 0.520784 0.706403 0.624276 -0.148482 0.451305 
0.604334 -1.181349 0.975892 0.942069 -0.238478 0.302162 -0.305980 -0.911570 0.195575 1.093779 -0.054403 -0.432667 0.410236 -0.204793 -0.901393 0.086346 0.157877 -0.246305 -0.264856 -0.135922 0.233887 0.486864 0.208055 0.210587 0.345601 -0.513780 -0.204562 -0.001255 0.810543 -0.719769 0.795374 -0.322180 0.942595 0.561153 -0.082128 -0.491361 0.604116 -0.890922 0.549168 -0.912091 0.638533 -0.208002 -0.300008 0.591335 0.647563 -0.092009 -0.208501 -0.164306 -0.988633 -0.298605 -0.297640 -0.330678 -0.092527 0.656662 -0.015999 -0.907932 0.319550 -0.609579 0.403792 -0.312559 
-0.224069 0.585576 -0.025999 -0.742942 0.795443 0.244403 -0.080626 0.359401 -0.879271 0.639405 -0.680520 0.355513 -0.468569 0.226088 0.782029 0.920129 -1.025029 0.679929 0.773752 -0.742999 0.563236 0.004692 0.929615 -0.573346 0.244570 0.480942 0.154958 -0.894004 -0.091805 1.104106 -0.389628 0.475035 -0.226344 0.641455 -0.853612 -1.372103 -0.616200 0.445177 0.328786 0.631234 -0.742776 0.105077 0.636567 -0.665478 -0.112918 0.182769 1.400026 -0.479739 0.339430 0.555680 0.472370 -0.431335 0.241411 0.929818 0.037350 0.267861 -0.833238 0.717226 -0.467637 -0.749778 
-0.401126 0.287505 0.341830 -0.566237 -0.702932 -0.068297 0.824752 0.319966 -0.022762 -0.625136 -0.310855 0.648034 -0.938615 -0.436245 0.405798 -0.994834 -0.846740 0.504016 0.774941 0.555088 0.159954 -0.573531 0.202768 0.063303 -0.805702 -0.127921 -0.314463 -0.756454 0.615998 0.893547 -0.919818 -0.320854 0.162268 -0.616009 -0.858307 -0.270237 -1.160018 -0.565786 -0.329784 0.647356 -0.638595 0.519895 0.487803 -0.186679 -0.286075 0.309407 -0.107377 -0.757644 0.012734 -0.192550 -0.006292 1.036475 0.486100 0.932313 0.739885 -0.194576 0.075661 -0.714762 1.009124 -0.922113 
-0.597107 0.166348 0.025400 0.350733 -0.902267 -0.732035 -0.299245 -0.413886 -0.562762 -0.306721 -0.496032 0.945348 0.434004 -1.050405 -0.069192 0.610910 0.897914 -1.216251 0.989592 -0.611108 -0.251882 -0.639503 -0.108974 0.322625 -0.595570 0.246659 0.445947 -0.215882 -0.249177 1.090158 0.237457 -0.656016 1.041779 0.308287 -0.957325 -0.245156 -0.522462 -0.676084 -0.708066 0.955473 0.021881 0.767767 -0.356173 -0.000424 0.767216 0.805883 -0.219763 -0.102035 1.011547 -1.160313 0.620206 0.274890 0.251783 0.579488 0.431001 -0.635775 0.166945 -0.563646 0.852014 0.983704 
-0.845864 -0.641755 0.107189 -0.306785 -0.385491 0.031113 0.452267 -0.111832 -0.440346 0.557205 -0.836395 -0.569200 -0.690228 0.169124 0.971094 0.601424 -0.457278 0.554391 0.884449 0.500714 -0.633293 0.519009 0.267992 -0.026127 -0.669591 0.905120 0.261620 -0.732351 -0.339313 -0.035707 0.430901 0.912767 0.118880 0.565314 0.064645 -0.060313 -0.816586 -0.380250 -0.908081 0.929794 0.223398 0.757050 0.618014 0.772809 0.864821 0.205626 1.133653 0.552526 0.222991 -0.225735 0.618884 0.599892 0.709609 0.015346 -0.693753 -0.949934 0.046022 -0.420708 0.159909 -0.710063 
0.434451 -0.434172 -0.309924 -0.478741 0.810350 0.003063 0.343091 0.686954 -0.442990 0.145361 -0.330305 0.545022 0.917014 -0.003834 1.109351 -0.932650 0.412390 -0.531499 -0.526036 -0.793648 0.279730 0.596126 -0.139459 0.829038 0.754556 -0.020744 -0.559237 0.496814 0.692420 0.340645 0.736799 0.448045 0.051827 -0.528193 -0.672350 -0.315289 -0.339483 0.605248 0.204329 0.611443 0.011660 0.420577 -0.208311 0.090363 -0.768268 0.508439 0.632205 -0.035445 -0.729659 -0.269171 0.666633 0.977619 0.512015 0.234657 -0.372761 -0.745286 0.647343 0.344716 0.493349 0.236947 
-0.155202 -0.859983 -0.831582 0.469309 0.579051 0.560678 0.078031 -0.662041 0.203876 -0.389315 0.483629 0.102511 0.785753 -0.875764 -0.119938 0.124055 -0.345712 0.407111 -0.663846 0.822660 0.814252 0.851093 -0.430685 0.809620 0.308437 -0.830150 -0.109095 -0.935610 -0.521571 -0.060285 0.632222 0.935533 0.238496 -0.154433 0.761068 -0.666900 -1.070302 -0.662229 0.340026 0.873324 0.361578 0.352886 -0.522396 -0.175843 0.856414 -0.836469 -0.715665 0.612192 -0.600831 -0.234381 0.910783 -0.679436 -1.094884 -0.218752 -0.971497 0.169193 0.219513 0.937372 -0.449587 0.683125 
0.610825 0.528465 -0.219188 0.450220 -0.941105 -0.870113 0.006322 -1.146941 -0.148968 -0.144713 0.558643 0.820807 -0.284740 0.262288 0.606608 -0.045272 0.045325 0.989379 0.301157 -0.496436 0.139567 -0.768131 0.695286 -0.562304 0.000680 -0.884721 0.117006 0.555241 -0.133369 -0.753084 0.173822 -0.686463 -0.845342 0.546876 0.119362 -0.637513 0.119552 -0.247529 0.978097 0.099215 -0.999529 0.430935 0.113102 0.608225 -0.340276 0.770211 -0.279881 0.284291 -0.393114 -0.594281 -0.745516 -0.263941 -0.628926 0.025165 0.762430 -0.606516 -0.663041 0.795781 1.011592 -0.140237 
0.367943 -1.183637 0.911182 0.306020 0.695502 -0.394566 0.122030 -0.950773 0.840442 0.292394 -0.614090 0.733967 0.341181 -0.397106 -0.601728 0.068719 0.601042 0.379013 0.237894 -0.103505 0.039038 -0.662235 -0.934363 0.731886 0.827837 0.357287 0.153768 -0.348487 -0.694665 -0.577522 -0.092555 0.003303 -0.649088 0.488593 0.760689 0.592480 -1.105952 0.257970 0.484961 0.290117 1.051244 -0.310895 -0.650471 -0.094267 0.484135 -0.184583 -0.456463 -0.103652 -0.471695 0.610801 0.300591 1.231037 0.249971 0.681298 -0.319861 -0.905177 -0.980878 0.399478 -0.859957 -0.604117 
0.584606 0.741436 -1.006255 -0.152991 -0.686508 0.939224 0.773967 -0.515387 0.296635 -0.177323 -0.444252 0.456020 0.831252 -0.118668 -0.278404 -0.123943 -0.096061 0.049332 -0.096643 -0.000823 -0.699400 0.527259 0.285623 -0.528719 0.850595 -0.466546 -0.121460 -0.728071 -0.392394 -0.617949 0.675596 0.038229 0.901957 0.465019 -0.682269 0.029483 -0.378014 -0.507328 0.805565 0.961803 -0.276722 -0.735952 0.000354 0.467012 0.500049 0.300676 -0.978729 0.712722 -0.092708 0.322051 -0.957006 -0.065319 -0.545071 -0.618838 0.595613 -0.097346 0.156417 -0.084723 0.401346 0.718528 
0.607442 -0.085015 -0.500562 -1.004140 -0.678531 -0.571182 -0.181920 0.544036 -0.749704 0.757908 0.631284 0.283163 -1.127873 -0.801800 -0.097958 -0.739786 0.306188 -0.191259 0.806127 -0.708671 0.841712 -0.732977 -0.791505 0.666923 -0.143536 -0.954209 0.761138 -0.300236 0.977272 0.700827 0.522972 -0.367492 0.283572 0.485954 0.285761 0.663601 -0.864451 0.260082 -0.475811 -0.408502 -0.000927 -0.753968 0.933074 0.568361 -0.151846 0.233984 -0.552733 0.004687 0.017530 0.417801 -0.616420 0.151816 -0.469950 0.287489 -0.148526 -0.993381 0.070127 0.207407 0.227511 0.317628 
-0.635156 -0.710397 -0.056138 -0.885982 0.794274 -0.373229 0.524176 -1.015903 0.043701 0.167698 -0.230493 -0.052606 0.264092 0.717903 0.722702 0.571927 0.243045 -0.586908 0.574015 -0.578466 -0.238126 0.829813 -0.374498 -0.890036 -0.558293 0.697898 0.545358 0.212364 0.473395 0.725898 0.022129 0.177774 0.603884 0.612940 0.706652 -0.289629 -0.654303 0.109686 -0.270886 0.955240 -0.868256 -0.898631 -0.903941 -0.385596 0.184960 -0.523638 -0.358045 -0.487350 0.111252 0.778048 0.351459 -0.680706 -0.350061 -0.123405 0.550805 0.332133 0.883072 -0.219110 0.297471 0.060525 
0.092790 -0.278634 -0.161953 -1.041711 0.075664 -0.959777 0.848618 -0.549415 0.176589 1.183963 -0.402687 0.423421 1.076466 -0.811321 -0.219880 -0.561557 -0.329475 -0.917136 -0.384416 0.849184 -0.341933 0.170964 -1.009983 -0.747546 -1.312322 -0.321112 0.165898 0.995060 0.055720 0.443961 -0.207392 0.246699 -0.112651 -0.923761 0.232101 -0.716941 0.085619 -0.260424 0.977689 0.861534 0.594676 -0.768893 0.182467 -0.167957 -0.397621 -0.594900 -0.380564 0.582859 0.331828 0.834238 -0.750376 -0.772071 -0.522196 0.348795 -0.593599 -1.132409 0.073508 0.803274 0.196830 0.532280 
-0.072929 0.082155 0.757977 0.184833 0.415001 0.897575 -0.580068 0.214689 0.310108 -0.760953 0.041063 0.256276 0.438449 0.926212 -0.518879 -0.412250 -0.640774 0.842731 -0.011258 -0.259744 0.024701 0.742379 0.820852 -0.810208 -0.873352 0.324668 0.494310 -0.519430 0.985260 -0.758337 -0.189272 0.518044 0.819640 0.174244 0.782504 0.551119 -0.374048 -0.257437 -0.804598 0.787209 -0.803251 0.566939 0.767633 0.270958 0.511057 -0.044862 -0.684931 0.869647 0.668866 -0.185988 -0.838179 -0.630223 0.945048 0.908838 0.428802 -1.140718 -0.882298 0.598504 -0.589919 0.795546 
-0.917643 0.307192 0.494767 0.209713 0.960137 -0.689433 0.113827 0.201503 -0.053773 -0.788399 -0.515914 0.648202 1.213649 0.605055 -0.236623 0.530761 0.902643 0.181502 -0.498467 -0.845924 -0.400322 -0.023979 -0.009718 0.125362 0.114441 -0.401769 -1.063105 -0.626013 -0.505358 0.880217 -0.857035 -0.573874 -0.001476 0.513186 0.002261 -0.404917 -0.073378 0.508988 -0.488746 -0.764016 -0.669145 -0.709715 0.440322 0.603204 0.493961 -0.232945 0.363969 0.201281 -0.682732 -0.902670 -0.337230 0.101374 -0.146537 -0.170815 0.362983 -0.328501 -0.131870 0.554949 0.563310 -0.834081 
-0.767702 0.294371 -0.287257 -1.039703 0.285053 -0.032835 -0.082715 0.740077 -1.038733 -0.968030 -0.380095 0.631343 0.970988 -0.296533 -0.078083 0.376151 -0.040388 -0.641715 -0.721476 0.049605 -0.105350 0.298332 0.571130 -0.091434 -0.163678 0.771882 0.043187 1.147473 1.067593 0.008904 0.260212 0.412968 -0.222831 -0.523487 0.564131 -0.421835 0.357768 -0.617644 0.775606 0.259708 -0.425664 -0.629469 -0.337497 -0.758827 0.454867 0.283067 1.405816 0.884026 -0.622418 -0.349124 -0.889491 -0.043121 0.576232 -0.899874 1.017722 -1.217105 0.647129 0.348899 0.112602 -0.305585 
-0.681796 0.398995 -0.077981 -0.012295 -0.486561 -0.002005 0.864758 0.039226 -1.343884 0.338987 -0.713321 -0.912666 0.152487 -0.669060 0.644258 0.830719 -0.342099 -0.343191 0.660511 0.105571 -0.493831 -0.853997 -0.546019 0.924485 0.389021 0.722215 0.765410 1.007772 0.296380 0.326076 0.948642 -1.066297 0.132445 -0.517962 -0.861021 -0.705849 -0.189517 -1.007256 0.937846 -0.292457 -1.015809 -0.185141 -0.836296 0.819085 1.088879 0.447906 0.094481 0.678037 0.808942 -0.354611 -0.922403 -0.059934 -0.855069 0.554649 0.600585 -0.834121 0.307143 -0.443652 0.728643 0.974774 
-1.027615 0.513320 0.640050 0.544472 -0.002777 0.939428 0.823327 -0.607140 -0.548798 0.676093 -0.212680 -0.759714 0.749604 -1.076804 -0.736477 -0.587824 0.144053 -0.066529 -0.173341 -0.335377 -1.022350 -0.625203 -0.270090 -0.787920 0.308998 -0.795756 -0.006484 1.017116 0.365917 0.888523 0.857979 0.109516 0.450959 -0.746502 0.531375 -0.788410 0.861861 -0.922046 -0.158803 -0.647899 0.703535 -0.202855 0.910284 0.233299 -0.544103 0.189996 -0.142965 -0.418505 0.986454 0.081354 0.959821 -0.848083 -0.998915 0.681871 -0.421703 -0.324956 0.377832 0.711121 0.715329 0.561679 
-0.257159 0.242146 -0.216399 -0.588808 -0.871863 0.077229 -0.930385 0.106444 -0.531236 0.896221 -0.786767 0.489133 0.099048 0.400320 0.021056 -0.510157 0.931020 -1.060354 -0.284646 0.387488 -0.943059 0.787433 -0.833140 0.036222 1.047668 0.588510 0.165215 -0.620285 0.086621 0.477341 0.135299 0.444319 -0.579375 0.315184 -0.069273 -0.467585 0.195463 0.825359 0.703087 0.759723 0.591473 0.761928 0.169120 -0.415050 0.913425 -0.012558 0.405673 -0.099107 0.362530 0.390525 -0.732433 -0.946043 -0.167096 -0.733557 0.047438 0.271317 -0.500805 -0.099804 0.191522 1.127334 
0.208725 -0.393898 -0.592808 0.484793 0.194962 0.226108 -0.158911 -0.545370 -0.599166 0.513330 -0.455618 -1.021738 -0.061036 0.193959 0.476934 -0.466998 -0.076265 -0.105103 0.052561 0.120169 0.748660 -0.057572 -0.291363 -0.272943 -0.417491 0.881057 -0.268560 0.885038 0.065351 0.152141 -0.491016 0.012538 -0.418622 -0.676297 0.302905 -0.806583 -0.476254 0.240067 0.035603 0.377554 -0.978194 -0.422060 0.767026 -0.658695 -0.042967 0.008435 -0.323382 -0.863066 0.185932 -0.592349 -0.413786 0.287519 0.711795 0.471128 0.699259 -0.359875 0.445141 -0.202116 -0.033042 0.863707 
0.609371 0.314260 -0.466132 -0.053497 0.786794 -0.930982 0.982118 -0.168652 -0.665471 0.352502 -0.398300 0.241281 -0.058551 0.589769 -0.789437 0.612290 0.457597 -0.764884 -0.014633 -0.181321 0.391618 0.521325 0.649906 -0.354830 0.989892 -0.185852 -0.576584 -0.779444 -0.769288 0.385654 0.786896 0.412836 -0.072882 0.848918 -0.304209 0.929296 0.495235 -0.338768 -0.206838 -0.415217 0.231932 0.551154 -0.202727 0.244639 -0.812195 0.477383 0.547924 0.913822 -0.047773 -0.535008 0.352834 0.456335 0.211529 0.617438 0.700449 0.050331 0.160008 -0.043390 -0.250356 0.175482 
0.294633 -0.534803 0.737398 0.170923 0.834514 0.941974 0.758612 1.434913 -0.306726 -0.634400 0.587438 -1.029043 -0.199674 0.899773 -0.773070 0.685023 0.521781 0.595971 0.193146 0.296273 0.632904 0.993112 0.985437 0.789909 0.571714 0.122647 0.312189 -0.329436 -0.136951 -0.558209 0.439749 -0.663113 0.537293 -0.459163 -0.392517 0.215168 -0.455526 -0.500131 0.850241 -0.514812 0.730586 0.907410 -0.502627 0.131445 -0.836385 -0.692816 -0.587153 -0.005421 -0.560581 0.463864 -0.417176 0.395175 0.869894 0.569817 0.539768 -1.123876 -0.184675 -0.096571 0.002017 -0.112585 
-1.016626 0.290070 0.398572 0.573818 0.021191 -0.221497 -0.051532 -0.585395 -0.931886 -0.223417 0.700141 -0.748048 0.901676 0.251647 0.266793 -0.261997 -0.318609 -0.228922 0.948405 0.062152 0.281738 -0.156358 -0.937098 -0.124264 -0.021484 0.724809 0.854974 0.637132 1.004341 -0.207329 0.641879 0.038022 -0.376757 0.577425 0.554175 -0.085509 -0.718591 0.295016 0.263802 -0.012804 0.570455 -0.094100 0.702193 -0.962567 -0.491995 0.618583 0.376031 0.185583 -0.540989 0.882680 -0.218306 -0.958388 0.026642 -0.710616 0.328543 -0.171847 -0.153558 -0.700775 -1.143555 0.294299 
-0.628580 -0.520548 0.793160 0.520131 -0.666561 -0.925599 -0.593135 0.205306 -0.406821 -0.236725 0.640477 -0.683129 -0.485305 -0.783410 -0.787338 -0.642725 -0.621656 0.655225 -0.507296 0.924217 0.318998 0.722580 -0.128126 0.903565 0.497906 0.634462 -0.089916 -0.802778 0.280407 -0.603800 -1.066074 -0.426987 -0.114722 0.701986 0.648924 0.867973 -0.414811 -0.836694 -0.534151 0.094153 -0.679782 -0.387327 0.293957 -0.466384 0.616090 -0.115242 0.293709 -0.229698 0.695258 -0.830233 0.337941 -0.644733 0.092548 0.070626 -0.690267 -0.747804 0.702702 -0.688299 -0.232874 -0.256579 
-0.704059 -0.248725 0.528845 0.077011 -0.095592 0.097703 -0.655944 -0.699053 -0.361620 0.218791 0.175928 -0.240095 0.170145 0.793488 0.157912 0.628878 -0.932243 -0.264581 0.591714 0.802919 0.458640 -0.202315 -0.449443 0.016904 -0.480901 0.788286 -0.885591 0.663154 0.396540 0.045203 0.734764 -0.919427 0.503338 -0.756935 0.133390 0.865614 0.780764 0.586456 -0.507580 -0.078676 -0.395902 0.081518 0.315314 -0.334635 0.555451 -0.329553 0.644874 0.076342 -0.421466 -0.254038 0.630611 -0.155897 1.333339 -0.629582 0.863764 0.309192 0.666295 -0.421642 0.106531 0.567710 
0.184205 -0.725231 0.143054 0.109143 0.571265 -0.190710 0.569488 0.385398 0.378117 0.596005 -0.448757 -0.547791 -0.514872 -0.307893 0.638127 0.390413 -0.718083 -0.308850 0.175225 0.011409 0.246064 0.708481 -0.046853 -0.872603 0.402515 0.256490 -0.071109 -1.033590 -0.464463 0.214888 0.542942 -0.677234 -0.217052 0.285389 0.348937 -0.311727 -0.231570 0.340993 0.145085 -0.836215 0.392450 0.530085 -0.483902 0.849247 0.397801 -0.497837 0.051781 0.730213 -0.198916 -0.339089 0.744213 -0.951939 -0.480036 -0.267990 -1.004666 -0.538595 0.256062 0.596747 -0.825755 0.647330 
0.123087 0.989746 0.458264 -0.842768 -0.630068 0.877857 0.922452 1.095226 0.614021 -0.170454 -0.909896 0.252481 0.164054 0.813409 -0.948340 -1.158196 0.200220 -0.072361 0.827565 0.985610 0.692766 -0.831939 -0.953523 0.719073 0.962385 0.669927 0.142738 -0.928440 -0.949773 1.133314 -1.009594 -0.055549 0.037974 0.205420 -0.345705 0.075057 -0.628873 -0.531938 0.439728 0.490743 -0.824013 0.672532 0.279388 -0.318606 0.538051 0.933267 -0.727994 -0.712930 0.619765 0.446554 0.053911 -0.320744 -0.003498 -0.312649 -0.231841 0.492592 0.273830 0.879607 -0.171690 -0.223039 
-0.856975 0.546751 -0.545972 0.749315 -0.845550 0.211263 0.321057 0.349263 -0.166108 -0.124115 -0.237460 0.430614 0.027214 -0.034060 -0.199533 0.861645 -0.743460 -0.507603 -0.246713 0.854578 0.759424 -0.854932 -0.433041 0.181769 -0.112264 -0.944751 -0.711829 0.103281 0.901237 0.961530 0.824392 -0.097261 0.651063 0.597874 -0.615061 -0.092237 0.342258 -0.749598 -0.505387 0.867199 -0.559342 0.937649 0.014364 0.950536 0.183002 0.000958 0.571193 0.858674 -0.821497 -0.747115 0.611575 0.592821 0.754623 0.491067 -0.941538 0.622649 0.919596 -0.128845 -0.074826 -0.344666 
-0.897656 0.813419 0.003035 -0.798631 0.244011 1.009780 -0.005683 -0.571537 0.185667 0.083407 -0.740868 -0.799823 0.138750 0.185519 0.305358 0.431043 -0.853964 -0.725712 0.384641 -0.299132 -0.229891 -0.621726 -0.912586 -0.761968 -0.372357 -0.237874 0.638001 0.027681 0.108992 -0.275575 0.441703 0.259766 -0.252661 0.872339 1.289180 0.012881 -0.441190 -0.063813 -0.088525 -0.599931 -0.721746 0.115956 -1.033068 -0.586892 -1.081744 0.594510 1.409689 -0.740897 0.324191 -0.283975 0.489773 0.757099 0.313749 -0.527536 -1.024792 0.805966 0.915175 0.044307 0.113422 -0.151969 
-0.307806 -0.285804 0.839192 0.658056 0.308976 -0.692422 -0.738367 -0.252621 1.231256 0.495601 0.208067 0.836391 0.714013 -0.673077 0.420710 0.200901 0.497595 -0.076882 -0.698729 0.394704 -0.594522 0.657838 0.688816 0.709150 -0.822147 0.077499 0.494563 -0.689438 -0.444529 1.153934 0.089951 -0.336468 -0.003097 0.699258 -0.295939 0.948907 0.709073 0.167641 0.176513 0.821024 0.117155 -0.228453 0.087053 0.861788 0.888240 -0.048725 0.511364 -0.768080 0.111227 -0.046513 -0.571944 -0.468149 -0.103271 0.554592 -0.298721 0.416737 -0.962667 -0.855147 0.716559 0.021210 
-0.623918 -0.732278 0.904442 0.558775 -0.993256 0.620623 -0.069758 -0.025322 0.640074 -0.212666 -0.292925 -0.402729 -0.221384 -0.129238 0.680685 0.197062 -0.039071 0.599185 0.121103 -0.692453 -0.408405 -0.599890 0.856614 -0.341964 -0.650318 -1.052526 0.051168 -0.736130 0.164164 -0.007270 0.603676 0.321792 1.210616 -0.463156 -0.717760 0.729285 -0.810359 1.018547 0.478733 -0.772922 0.100348 0.965412 0.577852 0.026062 -0.472854 0.108807 0.992892 -0.309633 0.292874 -0.065031 -0.101331 0.470724 0.763582 0.282589 0.222916 -0.638272 0.256750 0.253792 -0.182539 0.625562 
0.468736 0.151285 -0.668878 -0.376581 -0.027928 0.902397 0.604180 -0.393067 0.241219 0.390845 -0.884802 -0.275024 -0.583545 0.597702 0.691066 -0.434732 -0.066920 0.757608 -0.470680 -0.166251 -0.352567 0.759080 0.096003 -0.025316 -0.722919 -0.492149 -0.721866 -0.232490 0.564409 -0.505774 0.535872 0.504675 -0.343087 0.241351 0.290704 -0.803559 0.541678 -0.628709 -0.067619 -0.426976 0.869733 0.652084 -0.066653 -0.016829 0.728624 0.953481 0.266776 0.901934 -0.124929 1.066567 -0.637386 1.130067 0.980909 0.630500 0.708373 -0.399749 -0.855906 0.811148 0.257047 0.002763 
0.695664 -0.609378 -0.894181 0.816912 0.873339 0.974395 0.512317 0.145787 0.230674 0.786622 -0.708720 -0.020798 0.931471 0.620695 -0.062512 -0.094882 -0.351576 0.450901 -0.094196 0.052382 -0.627764 0.178332 -0.432556 0.569206 -0.773752 -0.441044 0.482010 -0.169945 1.008327 0.366551 -0.516229 0.912920 0.624955 -0.550400 0.056284 -0.069851 0.236618 -0.712979 0.313484 0.530802 -0.123789 -0.927523 -0.098449 -0.229393 -0.165539 -0.587084 -0.525692 1.022018 -0.692355 0.569760 -0.786601 -0.620524 1.048552 0.390509 0.680087 -0.293866 -0.767966 -0.427802 -0.343186 -0.552133 
-0.391224 -0.320718 -0.016180 -1.090533 -1.075095 -0.368910 -0.588618 0.474366 -0.443413 -0.757722 0.011430 -0.539766 -0.750910 0.047315 0.793844 0.175964 0.102926 0.446727 0.756888 -0.809524 -0.685973 0.579181 0.911637 0.240448 -0.949424 0.818261 -0.517892 -0.446077 -0.053181 0.813667 -0.822753 -0.324638 1.115796 0.336892 0.531760 0.161233 0.153156 -0.572960 -0.733495 0.398883 -0.256929 0.613745 -0.063013 0.162786 0.201774 0.910328 0.334064 -0.902284 -0.748907 0.364728 0.257086 -0.259874 0.166791 0.696749 0.376601 0.157175 -0.026450 -0.549000 0.180818 0.601668 
0.470703 0.312724 0.064039 -0.705260 -0.447944 -0.221857 -0.599048 0.361551 0.728816 -0.326480 -0.702076 0.786629 1.053657 -0.980076 0.298244 -0.009653 0.200085 -0.871657 -0.359858 -0.145769 -0.275608 -0.260077 0.431864 0.122120 0.284713 0.840685 -0.835325 0.786489 0.068312 0.939634 -0.214855 -0.455939 0.897087 0.741715 -0.710218 -0.196328 0.674665 -0.117356 0.533091 -0.332279 -0.468065 -0.383063 -0.775613 -0.942137 -0.837876 0.375760 -0.355431 0.907331 -0.321937 -0.065963 -0.271029 1.145650 0.048968 0.194592 0.456827 -0.427695 0.960113 0.716610 -0.293558 -0.217810 
-0.529208 -0.071177 -0.682016 -0.377818 0.480403 -0.558674 -0.179902 0.490514 -0.191985 -0.571773 0.469023 0.627131 -0.181187 -0.880882 -0.508737 -0.111741 -0.704233 0.769701 0.167680 0.252602 -0.179502 0.866486 0.734190 0.201617 0.726747 0.608638 -0.979148 -0.030798 0.413792 -0.457606 0.906221 0.183525 -0.616297 0.189891 -0.190529 0.389972 -0.598525 -0.021764 0.480845 0.728588 0.061492 -0.748888 0.883143 0.434829 0.388066 -0.152488 -0.366156 0.127047 -0.609854 -1.246967 -0.836572 0.489184 -0.957240 -0.325843 -0.412599 -0.520155 0.561980 0.085787 0.855743 -0.217422 
-0.553537 0.483882 0.521889 0.330903 0.098999 0.884413 -0.910045 -0.385591 -0.005580 -0.197075 0.119266 -0.784073 0.184336 0.815916 0.747283 0.479285 -0.078786 0.476893 -0.401219 0.774951 -0.097969 -0.243532 0.337963 -0.540816 -0.550787 0.003440 0.314756 1.024952 0.319456 -0.806734 0.124320 -0.720945 -0.414299 0.773847 0.360911 0.702930 -0.920273 -0.994483 -0.702000 0.716493 -0.400114 0.130869 0.092925 -0.243306 0.652145 0.782753 -0.398048 -0.813064 -0.233324 -0.398547 -0.216640 -0.294437 -0.125146 1.006924 0.093613 -0.499202 -0.480616 0.532226 -0.283473 -0.552862 
-0.311465 0.497527 -0.258815 -0.063932 0.695310 -0.606965 -0.587065 0.719692 -0.780743 0.407616 0.407077 0.106321 0.299948 -0.530296 0.894271 0.379288 0.050869 0.069850 -0.483345 -0.646690 -0.580342 -0.189117 -0.716641 -0.693822 0.193421 0.595832 0.329593 0.827176 0.784728 0.211637 -0.420504 0.050614 0.550853 0.546735 0.472957 -0.268898 -0.024770 0.352283 0.450377 0.319016 -0.221734 0.377876 -0.591078 0.694040 -0.805768 0.286627 -0.165697 -0.434930 0.528289 -0.358564 -0.978724 0.324090 0.745241 0.213040 0.067257 -0.217826 -0.770513 0.240567 -0.277395 0.822368 
-0.376221 -0.657193 0.800309 -0.147801 0.388829 0.198961 -0.443242 0.697765 -0.446984 -0.335649 -0.660298 0.048603 -0.694864 0.630659 0.165977 -0.686452 0.719554 0.144625 -0.917549 -0.499695 -0.189485 0.732472 0.512329 -0.988945 0.212086 0.545508 -0.863267 0.089109 0.300801 0.545508 -0.644303 0.097149 0.791546 -0.663495 0.252799 -0.801293 0.512517 0.756015 -0.567396 0.658825 0.372791 -0.823548 0.488691 -0.210760 0.459274 -0.540489 -0.528024 -0.624931 -0.625680 -0.743500 0.170413 0.449737 -0.313840 0.684568 0.872726 -0.350379 -0.972411 -0.507445 0.247525 0.391241 
-0.231863 -0.891303 0.434111 0.557072 0.711152 -0.884317 0.246644 -0.618544 0.597881 0.459627 0.397321 -0.685197 0.199074 0.046018 0.821392 -0.415056 -0.828523 0.844553 -0.091320 -0.855401 -0.123468 -0.725849 -0.047650 -0.366166 -0.827562 0.490753 -0.808248 -0.041759 0.847340 0.716097 0.694241 0.136205 -0.492519 0.478043 -0.761697 -0.382318 0.328086 0.758480 -0.551806 -0.972463 -0.407508 0.654068 0.259665 0.119499 0.429433 0.813379 -0.157702 -0.841069 -0.647822 0.545207 -0.988184 -0.027175 0.479718 -0.096854 0.269624 -0.096217 -0.102958 -0.873071 0.433966 -0.773448 
-0.675551 -0.274849 -0.012082 -0.586350 0.165948 0.895659 -0.945560 -0.749395 0.200974 0.828228 0.798877 -0.651530 -0.599365 0.651264 0.689170 0.428928 0.514566 -0.703060 -0.119712 -0.615298 -0.388144 -0.919992 0.039610 0.274418 -0.049015 0.771462 -0.220760 1.030304 -0.573857 0.868046 -0.994292 -0.355795 0.378158 0.431260 -0.403785 -0.579495 -0.379561 -0.754824 0.713298 0.493782 -0.146748 -0.495997 -0.580084 0.418611 0.089002 -0.326069 -0.028653 -0.734705 -0.602901 -0.535811 -0.967611 -0.080141 -0.221656 -0.890161 -0.955611 0.076400 0.505531 -0.842300 0.292104 -0.287209 
0.404420 -0.316296 -0.130245 0.115013 -1.004130 0.731221 -0.677778 0.247628 0.963518 0.429595 -0.303895 0.885444 -0.667832 -0.222817 0.635445 0.025142 0.175011 -0.873470 -0.450730 -0.218797 -0.177880 -0.067869 -0.845684 -0.448045 0.447633 0.874597 0.673518 -0.452525 0.215183 0.395413 0.937344 0.512844 0.146793 -0.951704 -0.163401 -0.462117 -0.544303 -0.612061 -0.886016 -0.182953 -0.685819 0.196731 -0.325727 0.880963 -0.612967 -0.120299 -0.332449 -0.807726 0.670828 -1.018588 -0.890279 0.645691 0.086665 0.067323 -0.511520 -0.537400 0.643181 -0.947384 0.704219 0.583670 
-0.006613 -0.541865 -0.967182 0.283834 -0.941776 0.378249 0.691705 0.042948 -0.064778 1.196979 0.340938 -0.407353 -0.444993 -0.552304 0.116356 0.372212 0.231627 0.260580 -0.758709 0.587387 -0.670428 -0.380237 0.033727 -0.537640 0.329293 -0.645863 -0.256567 -0.552274 1.010890 0.163512 0.897429 1.053247 -0.526549 0.456814 1.016205 -0.176565 0.712792 -0.647884 -0.080331 0.377739 0.384804 0.198656 -0.399805 0.848213 -0.094854 0.141097 -0.639676 0.203196 -0.219942 -0.627836 0.931400 -0.876846 -0.839690 0.058396 -0.642187 0.888269 0.147577 -0.370287 -0.703609 0.525243 
0.574838 -0.321742 -0.405570 0.659579 -0.907572 1.026162 0.023190 -1.132888 -0.558056 1.147838 0.657503 -0.549680 -0.258258 -0.054008 -0.298908 0.589702 0.676897 -0.717599 -0.400780 -0.163833 0.391520 -0.269968 0.647707 -0.725244 -1.074828 -0.250056 -0.609258 0.886918 0.884981 0.080479 -0.793114 0.137130 -0.495093 0.788473 -0.303434 0.407447 0.449784 0.384493 -0.231069 -0.395142 0.263356 -0.679570 -0.232719 0.990620 0.692694 0.603553 1.023671 0.315120 0.441522 -0.693802 0.297323 -0.783534 -0.780656 -0.178178 -0.299704 -0.387043 0.005384 -0.660854 0.395409 -0.266285 
0.162920 0.617537 -0.217808 0.036243 -0.008757 -0.812754 0.927730 -0.942625 0.735500 0.875735 -0.480583 0.058227 0.578030 0.799389 -0.342044 -0.672715 -0.292750 -0.782779 -0.782687 -0.621349 -0.763221 -0.235624 0.802054 -0.796488 0.592006 -0.375921 -0.440962 -0.530896 0.703891 0.387449 0.392643 0.571991 0.566309 -0.630950 0.717599 -1.011428 0.609518 -0.159859 1.127771 -0.497189 0.618728 0.134245 0.948046 -0.816978 -0.688199 -0.468815 -0.239194 -0.376284 0.017169 -0.625993 -0.901199 0.156065 0.672066 -0.825946 0.347882 -0.630649 0.003146 -0.072716 -0.621970 0.880283 
-1.214304 1.325091 0.601177 0.381156 -0.332288 -0.584909 -0.184659 -0.896545 0.388694 -0.509757 0.673827 -0.421484 -0.073715 0.706022 0.008576 0.359689 0.780026 -0.791686 0.557462 0.235414 0.945394 -0.209377 -0.594380 1.056028 0.604398 -0.591134 0.768493 -0.227256 0.577886 0.477019 0.367685 0.946128 0.390888 -0.918013 -0.391935 0.554588 -0.355923 -0.067947 -0.298798 -0.446239 0.691878 0.409793 0.903168 -0.519039 -0.276127 0.160783 0.684927 -0.602676 -0.445796 -0.196625 0.807428 0.066596 0.636266 0.215524 0.824477 -1.038264 0.077142 -0.004518 0.266134 0.867977 
0.224661 0.358219 0.782640 -0.684770 -0.278678 -0.016207 0.361770 -0.074984 -0.224513 -0.316080 0.690875 0.042198 0.568309 0.111914 -0.045110 -0.786172 0.371051 0.758526 0.370564 0.955824 -1.022395 0.844841 0.590223 -0.866145 0.888845 0.192779 0.206324 0.238990 0.368336 0.016453 0.354552 -0.026709 -0.929846 -0.175143 0.313601 -0.024082 0.985689 0.766328 -0.848186 -0.008139 -0.194000 0.837273 -0.667234 0.952157 -0.523552 0.906898 0.575984 0.658150 -0.741842 0.701898 -0.213322 -0.431226 -1.095826 0.408668 -0.470737 -0.927799 -0.546238 -0.549822 -0.277299 -0.751817 
-0.325002 -0.443146 -0.373050 0.233841 0.803494 -0.057542 0.914791 0.968818 -0.695823 -0.486140 -0.145612 0.333452 0.188120 0.206532 -0.333627 0.839977 -0.475115 -0.888603 -0.441216 -0.520917 0.294823 0.350322 -0.336383 0.656804 -0.541772 -0.604226 0.596604 -0.616351 -0.678177 0.090541 -0.369904 -0.911722 0.457770 0.493635 -0.692322 0.995386 -0.554293 -0.276431 0.365096 0.921919 -0.939324 -0.961033 0.932883 0.206124 0.557028 0.561433 0.874902 -0.702891 -0.665321 0.224208 -0.799044 0.083881 0.640940 0.561450 0.578912 -0.732259 -0.494698 -0.713855 -0.679892 0.809462 
-0.469000 0.364310 0.568777 -0.539501 0.511084 0.397668 0.972618 0.768190 0.458569 0.283506 -0.190022 -0.675511 0.234842 0.809441 -0.557510 0.923905 -0.584598 -0.039734 -0.640703 0.978391 0.198153 0.441865 -0.915230 0.739573 0.757115 -0.556357 0.149007 -0.329518 0.867307 -1.167330 -0.313408 0.862676 -0.478821 0.368796 0.687958 0.095232 1.243477 0.018539 0.485838 -0.830251 0.575816 -0.321628 0.177758 0.933739 0.009652 1.008052 -0.426193 -0.880438 -0.656883 -0.282503 -0.043920 0.525725 0.765053 0.029088 0.207313 -1.099002 0.567383 -0.184933 -0.309933 -0.344498 
-0.984150 -0.492096 0.014773 0.247189 0.482867 -1.000767 0.863635 0.517723 -0.767718 -0.345556 -0.706660 0.521474 0.096265 -0.728170 -0.924020 -0.270975 -0.027383 -0.176953 0.709355 0.825166 0.490623 0.534039 0.674474 0.303099 0.850628 1.142989 -0.638039 -0.464102 -0.434854 -0.149559 0.698074 -0.685066 -0.353955 -1.039286 0.677343 -0.385324 0.022901 0.886396 -0.642524 0.153281 -0.820327 -0.389149 -0.006852 -0.272763 -0.807990 -0.000071 -0.556631 0.352166 0.802986 -0.188144 -0.713324 -0.893328 -0.257574 0.346049 0.772354 -0.460197 0.854009 -0.882220 0.665918 -0.629661 
-0.110802 0.020469 0.536765 -1.104187 -0.617396 0.572400 0.705808 0.569110 -0.392997 0.551925 0.115879 -0.090015 -0.515188 0.561105 0.351256 0.366966 0.684731 0.213351 0.747914 0.946823 -0.743459 0.897188 0.040659 -0.807157 -0.755666 -0.339596 0.195685 -0.362711 0.947961 -0.025088 0.946115 -0.589894 -0.075821 -0.911277 0.444094 0.689405 -0.745916 -0.343700 0.334858 -0.610426 -0.920424 0.370527 -0.743453 -0.300010 -0.433372 0.388546 -0.434271 -0.581059 1.014579 0.987641 -0.243695 0.122847 0.225939 0.942810 -0.178528 0.775724 -0.712924 -0.922194 0.642707 -0.587999 
-0.556022 0.701945 -0.301902 -0.069594 -0.842190 0.685958 0.099401 -0.053196 -0.038382 -0.534915 -0.135736 -0.429921 0.355861 0.622441 -0.214386 -0.295920 0.718416 0.760311 0.980325 0.838110 -0.648926 -0.523717 -0.897950 0.970587 1.086894 -0.174672 0.162736 -0.179923 -0.104100 0.048630 -0.879319 -0.519915 0.652287 0.127890 0.652208 -0.273108 -0.463510 0.954750 -0.227376 -0.719247 -0.628885 -0.137140 0.681984 -0.062088 0.466778 0.035732 0.535583 -0.672110 0.442888 0.231333 -0.573759 0.282318 0.915068 0.943955 -0.038961 0.743303 0.130435 0.211612 -0.313190 0.631965 
0.379504 -0.659136 -0.380914 0.556585 0.660262 -0.161927 -0.009895 -0.884065 -0.453190 0.536264 0.437310 0.755046 -0.551957 -0.379581 -0.199167 0.505887 0.300443 0.153809 0.511072 0.016105 -0.171125 -0.594979 0.267016 0.627689 -0.219353 0.746473 0.783707 -0.869238 -0.333225 0.752799 -0.608641 -0.095990 -0.267681 -0.351979 -0.813130 0.366538 0.562041 -0.663101 -0.755284 0.631078 -0.636676 0.606847 0.553506 0.226683 -0.923731 0.869187 1.183193 1.005082 0.694663 -0.981388 -0.741081 -0.582771 1.049036 -0.237090 0.182420 0.136243 -0.494260 0.718986 -1.190457 0.059773 
0.648499 0.443470 -0.198762 -0.884825 0.527839 -0.655315 0.487997 0.743706 0.359021 0.198765 0.172292 -0.136830 -0.026968 0.371770 0.180677 0.744160 0.495898 0.534499 -0.291248 0.296691 -0.461075 -0.181649 0.954765 -0.437133 -0.503200 0.615571 0.826764 -0.482469 0.818479 0.404717 0.215156 0.452843 -0.679591 0.100960 0.228525 -0.911838 0.095478 -0.801129 0.156318 -0.783816 0.255826 0.884757 -0.515191 -0.779908 -0.079822 0.520647 0.046715 0.588173 0.322770 -0.705147 -0.825712 -0.545887 0.748743 -0.497357 -0.106988 0.621774 0.155736 0.187649 0.409449 -0.340884 
-0.450900 -0.492163 -0.746814 -0.583066 -0.046691 0.866726 -0.408708 0.301979 -0.787024 0.438258 -0.085711 0.818529 -0.596258 0.965295 -0.958722 0.898655 0.149244 0.158237 -0.723951 0.806126 -0.797219 -0.516804 0.202785 0.202544 -0.118193 -0.242219 -0.523619 -0.049568 -0.543410 0.553375 0.420938 -0.931137 0.793940 -0.577482 1.099922 0.134426 0.854429 -0.675710 0.829333 -0.147151 0.523185 -0.852151 0.107989 -0.637207 0.045876 0.030846 -0.578848 -0.867654 0.045140 -0.727993 0.147841 -0.330259 0.926917 0.118304 -1.000061 0.745106 0.590422 0.979765 -1.316863 0.187818 
-0.019157 0.948909 -0.818164 0.020147 0.046882 -0.351032 -0.648268 -1.145021 -0.574754 -0.362038 -0.310980 0.125147 -0.626281 -0.429080 -0.955204 -0.457689 0.055205 -1.264093 -0.171130 0.901765 -0.669982 0.669765 -0.264727 0.103217 0.570981 -0.997850 0.813376 0.328125 0.756206 -0.155164 0.353153 0.270444 -0.608399 -0.142805 -0.588264 0.196909 -0.659222 -0.327217 0.368911 0.344074 -0.370538 -1.104784 0.382827 0.132122 -1.076114 0.269004 0.211353 -0.560327 -0.123392 1.139112 -0.542696 -0.945357 0.550052 0.144124 -0.180283 -0.930441 -0.404839 -0.138394 -0.469595 -0.368918 
-0.173502 -1.025595 0.959480 0.960240 0.637313 -0.968183 0.701768 0.872311 0.769887 -0.643131 0.894140 -0.113795 -0.500906 0.973746 -0.057284 0.869789 0.413024 -0.525445 0.593975 -0.631986 0.058717 -0.811021 0.580287 -0.204643 1.159887 0.273163 -0.887765 0.065969 0.380301 0.225519 -1.122060 -0.129099 1.188904 0.674659 1.349201 -0.172257 1.231973 -0.496548 0.534954 -0.665029 0.564644 -0.132243 0.732274 -0.685591 -0.087049 0.703898 0.705060 -0.859916 -0.833638 -0.164497 0.366462 -0.122552 -0.691241 0.820075 0.315269 0.883891 1.005125 0.242697 -0.027160 0.196172 
0.292516 0.268174 0.774208 -0.062031 0.205855 0.112467 -0.459700 -0.282072 -0.566793 -0.103969 0.658127 0.055193 -0.434649 -0.008999 -0.177133 0.055242 0.395739 0.554019 0.355436 -0.667524 -0.639128 0.470578 -1.066457 -0.622556 -0.047024 -1.221168 -0.320407 -0.059394 0.812436 0.477331 0.350865 0.829926 1.168652 0.224514 0.104815 -0.937306 0.654212 -0.499498 -0.262410 0.119995 -0.661164 0.104883 0.222442 0.016996 -0.329095 -0.201036 -0.185057 0.876174 -0.343856 0.447897 0.746784 0.301867 0.805024 -0.568205 0.028953 -0.454946 -0.620795 0.548221 0.333834 -0.625782 
-0.395609 0.545377 -0.903158 -0.969405 -0.064727 0.589773 -0.889864 0.923202 -0.385996 0.534362 0.880519 -0.793115 0.210352 -0.355356 0.240437 0.092474 -0.604009 0.384197 -0.691917 -0.116398 0.670522 -0.551409 0.095630 -1.005621 1.289343 -0.445136 -0.389087 -0.728689 0.906325 -0.645755 -0.913832 0.139737 0.162290 -0.938013 1.172260 0.045219 0.660625 -0.809351 0.197431 0.433785 0.005377 -0.310821 -1.293053 0.538586 0.312911 -0.095073 0.870061 1.087575 0.584659 0.888898 -0.960755 0.641293 0.425677 -0.420017 0.109712 0.485802 0.396432 0.780092 -0.665226 0.442351 
0.534064 -0.095657 0.383763 -0.892886 0.459031 0.477909 -0.687919 -0.648064 0.265028 0.529923 -0.861918 0.046253 0.456958 0.263902 -0.380236 0.543531 0.172726 -0.806210 0.381471 -0.536498 -0.162157 1.197044 0.436301 -0.356212 -0.548610 0.138282 0.469854 0.619793 0.224012 0.826462 -0.923619 0.938753 1.018417 0.869609 -0.009119 0.784377 0.361115 0.228441 0.409191 -0.779708 -0.339040 -0.381700 0.586335 0.769817 0.604217 -0.354807 -0.152844 -0.225329 -0.525884 0.415455 -0.934034 0.331940 -0.727014 0.777948 -0.641038 0.397765 0.170273 -0.752997 -0.514737 0.293672 
0.504935 -0.571307 -0.344439 0.445412 -0.859962 0.233719 0.888335 -0.868995 1.089961 0.272884 -0.413151 -0.617896 -0.609389 0.292120 -0.941854 0.050712 0.293226 -0.887175 0.334956 -0.558801 0.896217 -0.411415 -0.366950 -0.254929 0.199788 -0.259479 0.958363 -0.096643 0.813882 0.205605 -0.722377 0.346161 -0.159333 1.023731 0.511516 0.219622 0.172512 -0.986340 -0.950302 -0.886589 -0.691560 0.928970 0.355751 0.154368 0.251561 -0.258418 -0.678610 0.799979 -0.886072 0.985405 0.505397 0.123715 -0.079101 0.210807 0.694806 0.521588 -0.601193 -0.624152 -0.932819 -0.233706 
0.310532 -0.821702 -0.769285 -0.670461 -0.243907 -0.357919 0.300995 -0.249897 -1.263630 -0.004539 -0.428446 1.028735 0.065885 -0.573248 0.399257 0.239355 0.554989 -0.801135 0.982256 0.730739 -0.284167 -0.368038 0.768357 0.922432 0.107764 0.375031 0.546014 -0.256112 1.039977 0.383381 0.850422 0.868820 1.107383 -0.668240 0.499414 0.818331 0.325324 -0.223939 -0.986216 0.015391 -0.184809 -0.380562 -0.028476 -0.164551 -0.733371 0.762832 1.090714 -0.740422 -0.565335 -0.458293 -0.140830 0.597001 -0.226631 -0.525814 -0.309521 0.185571 -0.356706 -0.867178 0.443430 -0.706826 
0.608516 0.564293 -0.000879 -1.134376 0.006925 -0.830484 0.201431 0.216138 -1.092660 -0.669339 -1.020598 0.384803 0.342408 -0.024505 0.742828 -0.293635 -0.224751 0.492694 0.671761 -0.528873 0.757759 -1.011390 -0.876253 0.921800 0.834583 -0.148316 -0.206218 -0.136549 1.030325 -0.601753 0.448358 0.119829 -0.551124 0.850230 -0.517304 -1.166073 0.465911 0.568135 -0.375995 -0.074396 -0.533187 0.434010 0.129421 0.608768 0.555794 0.924238 -0.032525 0.652802 -0.480108 -0.144577 -0.906864 0.753163 0.268977 -0.094214 -0.994826 -0.045285 -0.784567 1.040787 0.624977 0.547450 
-0.345087 -0.532012 0.138195 -0.378669 0.193255 0.350853 -0.397221 -0.318037 -0.895096 0.017981 -0.969762 -0.179806 -0.866459 -0.514014 0.743896 -0.908609 -0.014662 -0.927649 0.059428 0.412670 -0.618910 0.439441 0.231114 0.107787 -1.052482 -0.524259 0.214260 0.775365 -0.421659 0.193642 -0.392613 0.410877 -0.514754 0.896900 -0.085293 0.093621 0.737293 0.921757 0.236601 -0.920028 0.862695 0.210535 -0.826188 0.476342 0.093905 0.218406 -0.571744 0.008070 -0.143897 0.732866 -0.482130 -0.326101 0.767111 -0.095944 0.711076 -0.493092 0.706245 -0.250556 -0.503708 0.021528 
0.646455 0.724971 -0.341791 0.373381 -0.790427 0.205507 -0.170634 -0.364943 0.727895 -0.665552 -0.101677 0.520734 -0.243911 0.016236 0.728963 -0.426632 -0.838988 -0.187424 -0.124418 -0.614300 -0.593270 -0.430075 0.677298 -0.955064 0.452913 0.236001 -0.305435 -0.318459 0.478935 -0.768998 -0.486330 -0.312422 0.842770 1.256594 -0.452912 -0.049572 1.023814 0.496126 -0.107833 0.362069 0.052669 0.277932 -0.943370 0.355798 1.021788 -0.075614 0.646414 -0.345237 -0.658020 -0.031210 -0.830183 -0.063627 -0.072934 -0.864557 -0.848313 0.618125 -0.387146 -0.978703 0.800304 -0.628165 
-0.285087 -0.213995 -0.747517 0.659799 0.855460 -0.830372 -0.914611 -0.327491 0.632234 -0.083395 -0.666162 0.215059 0.750085 0.486933 -0.812549 -0.976658 0.784287 0.678569 0.457879 -0.366576 0.215719 -0.581738 0.314639 -0.516395 -0.022172 -0.114729 0.850150 -0.191847 0.490457 -0.027198 -0.654851 -0.767369 1.017838 0.044340 0.045899 -0.900742 -0.113859 0.602352 0.818814 -0.877025 0.550014 -0.106225 -1.022365 -0.264559 0.216283 0.739938 0.091459 1.094969 0.810000 -0.836784 0.459322 0.151122 0.330112 -0.275091 0.748694 -0.840772 -0.757849 -0.092283 1.000940 -0.870933 
-1.033856 0.375446 -0.109038 -0.345090 0.120469 -0.234161 0.687122 0.579828 0.244589 0.704083 0.369826 0.261125 0.687706 -0.555420 -0.450552 -0.741700 0.829499 -0.655335 -0.268917 -0.207550 0.152710 0.231911 0.526775 0.571074 -0.426158 0.172227 -0.186201 0.967490 -0.785415 -0.426463 0.745120 -0.178924 0.831379 0.731673 0.241309 -0.181803 0.318817 -0.941860 0.006042 0.424476 -0.927378 0.604341 0.064297 -0.411406 -0.844920 0.818385 -0.384369 -0.758471 -0.624942 -0.859204 -0.778059 0.449622 0.517973 0.734280 -0.076539 -0.429905 -0.809867 -0.736026 -0.922071 0.446409 
0.102937 0.570160 -0.900514 0.468088 -0.524730 0.558446 0.859451 0.254645 -0.033226 0.419699 0.554377 -0.526777 0.520184 -0.194404 -1.032225 -0.904770 0.127495 -0.814268 -0.989613 -0.246655 0.239159 -0.055525 0.802048 0.468916 -0.649913 -0.972676 -0.527139 0.490357 0.537964 -1.231654 -0.104203 -0.477064 0.274418 0.244936 0.286471 -0.495631 -0.511916 -0.130863 0.262786 -0.785086 0.344935 0.235937 0.211420 -0.039357 -0.598422 0.147896 -0.828373 0.948090 0.718177 -0.526130 0.068694 -0.124723 -0.223661 0.481952 0.200766 0.678679 0.859683 0.755578 -0.549913 1.031636 
-0.215327 -0.935979 0.407035 -0.687294 -0.035994 0.626845 -0.441662 0.860443 1.223656 0.809359 -0.678049 -0.055300 0.077388 0.767703 -0.103375 -0.068557 0.242420 -0.205069 -0.886381 0.588231 0.295946 -0.477571 0.946814 -0.393615 -0.376969 -0.100506 0.929655 -0.186617 -0.614646 0.635906 0.373379 0.284545 0.152325 0.305429 0.747646 -0.280213 -0.785188 -0.912914 0.115108 0.177164 0.492245 0.910378 0.721890 0.441967 0.012753 -0.420485 0.578114 0.535482 -0.232576 0.668492 -0.857624 -0.219899 0.400910 0.263218 -0.386607 0.140685 0.673730 0.886443 -0.855098 0.601044 
-0.426756 -0.084261 -0.064408 -0.701542 -1.007247 -0.667276 0.423529 0.767912 1.196487 -0.898924 -0.083436 -0.930451 -0.533863 0.307072 -0.730753 0.458044 0.218496 -0.259218 0.762946 -0.322559 -0.666707 -0.331135 1.056156 0.591909 -0.132671 0.941651 0.734740 -0.568289 0.780859 0.574291 0.578002 0.030851 -0.390392 0.773773 0.505459 -0.189631 -0.605812 0.257705 0.525781 -0.834171 0.329319 0.675944 0.349510 0.106159 0.918851 0.443291 0.107091 0.313907 -0.532710 -0.521401 -0.166333 -0.282192 0.927381 -0.167488 -0.759888 0.721595 0.752875 0.774038 0.368793 0.327362 
1.007341 -0.117549 -0.616696 0.102981 0.252584 -0.583609 -0.034587 -0.287307 0.989534 1.067615 0.336995 -0.146020 0.388501 -0.104427 -0.896533 0.294444 0.110272 0.266705 -0.324679 0.484450 0.105964 -0.723161 0.594708 0.494757 0.137705 0.609874 0.480236 -0.045610 1.039042 0.281669 -0.554507 0.816877 -0.122860 0.822360 1.184160 -0.804411 -0.642088 -0.784172 0.482871 -0.537481 -0.398704 -0.685639 -0.528938 0.417453 -0.604003 0.706158 0.652371 -0.671293 0.799180 -0.233423 0.770291 0.683095 0.138383 0.660648 -0.429283 -0.187283 0.764881 -0.498942 -0.383731 0.850727 
0.140773 0.868320 0.638715 -0.872282 -0.939938 -0.000210 0.077925 -0.008577 -0.465371 -0.814121 -0.136969 0.991622 0.425595 -0.922345 -0.193172 -0.457126 -0.611536 0.448195 0.907715 0.961159 0.171924 0.168773 -0.125918 -0.870566 0.443664 1.046399 -0.024754 -1.080172 0.767054 -0.597244 0.962448 -0.613553 -0.417358 0.194628 0.857056 0.961558 0.262951 0.814479 0.453812 0.171223 -0.473244 -0.113711 0.903490 0.687309 0.593213 0.779520 0.198239 -0.307205 -0.394605 0.481360 -0.541088 0.368949 -0.445637 0.976463 -0.316714 -0.440069 -0.228990 -0.944234 0.832040 0.235150 
-0.805031 -0.108200 0.383155 -0.867676 -0.407081 0.188051 0.142224 0.947996 0.025373 0.854010 0.137398 -0.702144 1.154324 0.435196 0.716803 -0.057898 -0.764096 0.773273 -0.698600 -0.140360 -0.284016 -0.812768 -1.013767 -0.718046 -0.766035 0.335924 0.492401 -0.737825 -0.168051 -1.190744 -0.461753 -0.307092 0.519477 -0.302365 -0.202765 0.133934 -1.260518 0.446274 -0.829912 -0.791256 -0.493251 -0.647221 0.164817 0.950119 0.610737 0.828691 0.159198 -0.513401 -0.050840 0.222844 -0.672735 0.091197 0.884831 0.506296 0.754628 -0.742925 -0.159057 -0.093328 0.488381 -0.696757 
0.347578 0.925484 0.427480 -0.236735 0.289529 0.485048 -0.846141 -0.140545 -0.218824 -0.552763 -0.916460 0.192690 0.524481 -0.514217 0.488370 -0.739401 0.216684 -0.437000 0.798827 -0.521341 -0.868545 -1.124212 -0.918978 -0.193976 -0.410949 0.068319 -0.108903 0.290240 -0.477076 -0.579155 0.885734 0.912593 -0.525891 0.688921 0.173884 0.553354 -0.413987 -1.017350 0.829090 -0.005040 -0.257681 -0.644709 -0.164374 -0.683268 0.807925 -0.298013 -0.625749 -0.469844 -0.438713 -0.089574 0.974755 -0.234272 0.592210 0.178736 0.978756 0.677799 -0.365626 0.490950 -0.312756 0.427493 
0.816584 -0.670170 0.338138 -0.814137 0.592654 -0.069883 0.142550 0.102508 0.222055 -0.378506 0.467660 -0.564927 0.811545 0.857723 0.138906 -0.083635 -0.895592 0.588468 -0.212030 -0.182920 -0.009638 -1.124669 -0.726042 0.411684 -0.208321 0.242874 0.684308 0.615439 -0.394921 0.657206 -0.341921 -0.246458 -0.213756 -0.290218 0.609998 -0.070313 -0.700444 -0.876170 -0.540506 -0.365688 0.308440 0.660783 -0.296557 0.995653 0.636699 0.650490 -0.582234 -0.954558 1.008529 -0.957392 0.004636 0.858037 0.356159 -0.579575 -0.210664 0.709282 -0.801188 0.512517 0.758268 0.052176 
-0.696497 0.104547 -0.779416 -0.211475 0.630190 -0.771323 0.491245 -0.851999 -0.559324 0.514367 0.827960 0.483886 0.787418 0.477019 -0.519704 -0.319068 -0.308808 0.770420 -0.290437 0.265010 -0.935158 -0.891962 0.460222 -0.492501 0.533310 0.385772 0.445776 -0.080480 1.081934 0.147205 0.671482 -0.390523 -1.069387 -0.773083 -0.075129 -0.591171 0.357953 -0.337723 0.880789 -0.647518 0.640016 -0.747101 0.615404 -0.847153 -0.210662 0.428449 -0.165677 0.784146 -0.203595 -1.046379 -0.573804 0.765054 0.239224 0.370623 1.121797 -0.625045 0.876053 0.503914 0.043108 -0.442979 
0.631410 0.029081 0.907505 -0.714556 -0.361473 0.600617 -0.003344 0.246983 0.118081 0.187265 0.664926 1.036651 0.479982 0.089779 0.477896 0.537169 0.424618 -0.244560 0.892852 0.589777 0.209016 -0.628482 -0.129997 0.982418 0.351606 -0.954257 0.326862 0.803457 0.145180 0.675253 0.721674 -0.424976 0.394399 0.551499 -0.737174 0.795659 -0.322710 0.922724 0.719675 0.146921 0.734470 0.797678 0.202101 -0.009423 0.428593 0.339664 -0.095729 -0.136962 1.186362 -0.919150 -0.133392 -0.264543 0.545711 0.315958 -0.061923 0.786842 0.094393 0.783509 -0.699011 -0.280643 
-0.324459 0.147752 -0.481352 -0.130757 0.713843 -0.059946 -0.823309 0.779389 0.668280 -0.120468 -0.478686 0.335257 0.056417 -0.794264 0.490885 0.834196 0.206451 -0.404310 0.923914 1.004383 -0.031475 0.187174 -0.477679 0.180825 0.349392 -1.037806 -0.301254 -0.228374 0.497234 0.033517 -0.781308 -0.044163 -0.508495 0.386883 0.164365 -1.050340 0.760596 0.218890 0.766426 0.431022 -0.577257 -0.819023 0.920824 1.030212 -0.768750 0.889099 0.250049 -0.093709 -0.282959 -0.223099 -0.635824 -0.301006 -0.066332 0.466307 -0.204577 0.407097 0.430200 0.309538 0.955116 0.655634 
-1.068542 -0.846219 -0.632879 -1.004873 -0.767174 0.018048 0.642326 -0.667726 -0.720000 0.580227 -0.152431 0.120864 0.415368 0.834618 0.577880 -0.860950 -0.839176 0.154281 0.997585 0.158241 0.927745 -0.782643 -0.051133 0.540080 -0.149931 -0.891640 0.511534 -0.440634 0.222926 0.414585 -0.270761 -0.870736 -0.709974 0.414453 -0.811352 -0.964620 -0.081811 0.478367 -0.070074 -0.913595 -0.001165 0.315213 0.132575 -0.814855 -0.517472 0.124455 0.620753 0.518914 1.033136 1.156411 0.465641 -0.067572 -0.479725 0.294883 -0.867625 0.038583 0.773675 0.863700 -0.199572 0.037348 
0.243526 0.088051 -0.912604 -0.250787 -0.428985 -0.751901 -0.145093 0.331294 -0.787795 0.343083 0.633742 -0.229680 -0.885536 -0.864744 0.395547 0.395027 -0.739600 -0.432068 0.971542 0.252999 0.414049 0.374642 0.186708 -0.061362 -0.628054 0.971458 0.260941 0.949917 -0.243765 -0.053221 -0.637737 -0.677089 -1.259955 -1.084482 -0.386233 -0.520433 -0.212073 -0.349340 0.307858 -0.132045 -1.232461 -0.079770 0.215066 0.802434 0.326394 -0.630321 0.174194 0.945513 0.750112 0.456691 -0.332424 -0.923601 0.040996 0.872640 0.761300 -0.968289 0.182840 -0.306653 0.358346 0.085179 
-0.503013 -0.825888 -0.946033 0.824873 -0.765222 -0.632669 0.846392 -0.283265 0.725743 0.455196 0.478021 0.377431 0.016712 0.912227 0.761148 0.795848 -0.565352 -0.415602 -0.896085 0.637262 0.581146 0.811807 0.697685 -0.004149 -0.570368 -0.658353 0.739436 0.217435 0.947664 0.597710 0.786400 0.733064 -1.184162 -0.817436 0.658250 -1.031629 -0.233250 -0.291283 -0.130202 0.555851 -0.454471 1.026576 -0.819138 0.815407 0.588225 0.806109 0.547386 -0.720314 0.825211 -0.176985 -0.123698 0.315899 0.803375 -0.702681 -0.797166 -0.530509 -0.292534 0.529186 0.361329 -0.418198 
-0.268007 0.866440 -0.318542 -0.412540 0.107816 -0.248070 0.565665 0.260205 0.915195 0.273851 -0.310231 0.190840 -0.665258 -0.039471 -0.596974 0.266577 0.134060 0.514143 -0.252264 0.960149 -0.484371 0.016254 0.326783 -0.187520 -0.696740 1.095085 0.184970 -0.064743 0.203171 0.109146 0.805147 -0.178834 -1.158806 -0.011035 -0.023512 -0.791558 -0.810199 0.046718 -0.716592 0.251111 -1.239702 -0.117499 -0.623837 -0.781018 -0.598702 -0.310980 0.073469 -0.556736 -0.686028 0.739846 -0.032173 0.055072 -0.417754 -0.680676 0.027282 -0.509776 -0.197315 0.218491 0.770282 0.943780 
-0.589697 0.516126 -0.027738 0.703998 0.162417 0.197040 -0.573496 0.104334 1.157340 -0.391217 -0.047314 -0.830236 0.876011 0.488457 -0.271978 -0.880976 -0.804808 0.460684 -0.072322 -0.398779 0.941247 0.028245 0.523583 0.154936 0.293418 1.057279 -0.124912 -0.664729 -0.048638 -1.065680 0.793908 0.831223 -0.679881 -0.347611 0.870830 0.746616 0.197930 0.436425 0.892161 0.012702 0.360875 0.129788 -0.923586 -0.319724 -0.302924 0.746898 -0.189108 0.412777 0.600589 -0.610227 0.095913 0.298393 -0.786626 0.730237 -0.009845 -1.142730 0.492335 0.030849 0.340136 -0.091359 
0.169335 -0.588270 0.948992 0.379948 0.235386 0.720864 0.210212 -0.785386 1.229466 -0.325586 -0.383537 -0.544022 0.891255 -0.085395 0.298102 -0.774069 -0.486360 -1.119567 0.601326 -0.574711 0.850192 0.229970 -0.186721 -0.599688 1.216898 0.280341 0.403429 -0.082563 0.612651 -0.395126 0.320037 -0.319558 -0.647034 -0.599702 -0.313738 0.417917 -0.577348 0.476502 0.327720 -0.202717 0.509199 -0.689512 -0.815436 -0.906029 0.213286 -0.754016 0.121849 0.918469 -0.304440 0.178559 0.886978 0.503188 0.182014 -0.822748 -0.384550 0.777995 0.268136 -0.871288 -0.521679 0.351958 
-0.352022 0.144924 -0.758018 0.899559 0.520290 0.607340 -0.161976 -0.605173 0.580184 -0.595140 0.878561 -0.321205 0.847732 -0.306123 -0.838514 0.293790 -0.702542 0.346854 0.873054 0.411764 -0.951874 0.060077 0.800557 -0.512061 0.424516 0.056777 0.606859 0.545214 0.555714 1.198231 0.059362 -0.277630 0.983416 0.030143 0.285901 -0.202467 -0.358077 -0.250517 0.609407 0.531557 -0.858041 -0.105023 -0.579278 0.376193 0.528884 -0.360424 -0.954006 0.768335 -0.607818 -0.382462 -0.531125 0.023659 -0.181344 -0.559732 0.481254 -0.802011 0.804855 -0.217494 -0.125542 -0.890202 
0.842919 -0.058443 0.599569 0.271788 -0.190829 -0.379165 0.589305 0.151169 0.468453 0.368878 -0.617687 -0.188194 0.825700 0.112150 -0.915463 -0.048340 0.842193 -0.122302 -0.327306 0.518527 -0.357538 0.420315 0.652574 -0.593242 0.290116 -0.505983 -0.887661 -0.245059 -0.360098 -0.733979 -1.078774 0.458967 -0.159130 0.582515 -0.572032 0.040454 -0.348328 0.461089 -0.458156 0.005699 -1.102335 -0.609365 -0.214934 0.031623 0.654944 -0.864075 -0.300565 -0.405132 -0.005808 0.018355 -0.162327 -0.363302 0.036683 -0.813321 -0.695136 0.367254 0.771198 -0.411738 0.600624 -0.102738 
0.321271 -0.506156 -0.839391 0.603561 0.007781 0.958148 -0.013888 0.517876 0.462251 -0.383531 -0.336748 -0.299487 -0.066703 -0.059661 -0.951531 -0.039658 1.007299 0.842240 0.947354 -0.236827 0.547026 -0.537564 0.314625 -0.737051 0.069433 0.436832 0.151088 0.604993 0.621592 -0.896789 -0.370614 -0.087207 0.283384 0.880919 0.523013 -0.727117 -0.372354 -1.136070 -0.935058 -0.262793 -0.858274 -0.349194 -0.019380 0.405788 -0.706104 -0.753722 -0.603593 -0.124182 -0.349849 -0.670763 -0.189189 0.029139 -0.629336 0.439119 0.639940 -0.798043 -0.703324 -0.070946 -0.456144 -0.216420 
0.396761 -0.225490 -0.268960 -0.765827 -0.872355 0.648551 0.058628 -0.451459 -0.007375 0.700646 0.479616 0.495160 0.068505 0.459515 0.699514 0.970674 -0.595766 0.235375 0.267264 -0.598246 -0.937629 0.621451 -0.248217 0.414044 0.758068 -0.160831 -0.554060 -0.800056 0.296741 0.794519 -0.620720 0.485764 -0.428316 0.199739 1.027660 -0.881427 -0.414949 0.074836 0.612513 0.895159 0.817814 0.437484 -0.382171 0.556523 0.286881 1.012690 -0.727744 0.172249 -0.121305 0.310858 -0.408558 -0.297582 -0.161398 0.636177 0.563191 0.696663 -0.267524 -0.309321 0.433604 0.092696 
-0.970043 -0.703885 -0.526304 -0.574787 0.350018 0.610446 0.124028 0.243664 0.716100 -0.827768 -0.758163 -0.858825 0.929117 -1.021482 -0.263646 -0.894768 0.750922 0.676567 -0.416972 -0.824561 -0.899589 0.864208 0.002088 0.143466 -0.389830 -0.295059 0.155243 0.541586 -0.635752 1.128661 -0.322543 0.259267 0.167497 -0.144989 0.017516 -0.704347 0.458636 0.816376 -0.395603 -0.319581 -0.773751 -0.340716 -0.076325 0.428153 0.031471 0.775433 -0.760216 0.111047 0.120192 -0.803821 -0.067246 0.974698 0.353037 1.013032 0.068019 0.327984 -0.045786 0.812355 -0.991814 0.625480 
0.520647 -0.658268 -0.077144 -0.493140 0.321301 0.306893 -0.769326 0.998068 0.110332 0.394048 0.653857 -0.865425 0.426173 0.250361 -0.557475 0.329356 -0.018603 0.684902 -0.076138 -0.602951 0.672193 0.034226 -0.782340 -0.551996 1.042008 -0.680245 -0.680718 -0.106548 -0.889446 0.256731 -0.196684 -0.678564 0.128186 1.086623 0.210714 0.264113 0.833668 0.730881 0.767020 -0.264587 -0.572279 -0.796379 -1.058688 0.443760 0.637999 0.031387 -0.894107 0.828766 0.447237 0.081184 0.945160 -0.354948 -0.358957 -0.075602 -0.498326 -0.542791 -0.734418 -0.778078 0.580563 -0.177059 
0.205894 0.293070 -0.935031 -0.705419 -0.403700 -0.496839 -0.400176 -0.235307 -0.616947 -1.049539 0.131767 -0.869021 -0.043235 -0.826794 0.468333 0.733508 -0.785183 -0.789216 -0.250722 -0.437769 -0.914638 -0.980261 0.175178 0.304537 0.706622 0.191242 0.893051 -0.082299 -0.129563 -0.941511 0.781283 -0.750249 -0.847980 0.248819 0.613528 0.561325 0.475633 0.031234 -0.902563 -0.644679 -0.764271 -0.887901 -0.352211 0.288668 -0.378309 -0.103026 0.404544 -0.287907 0.844568 0.040333 -0.160873 -0.431898 1.056321 0.030927 -1.025781 -0.104039 0.233200 0.215424 -0.511191 0.711271 
-0.918357 0.396147 0.848318 0.126540 -0.421735 -0.188652 0.277330 -0.653910 -1.097181 -0.838633 -0.828896 0.944261 0.620076 -0.635645 -0.712993 -0.793368 0.052445 0.264510 -0.716468 0.954068 0.584973 -0.750930 -0.517182 0.028312 -0.247669 0.520241 -1.042586 0.127340 -0.133449 0.357155 0.706888 0.143940 -0.116998 -0.342252 -0.511731 -0.836764 -0.813550 -0.588366 -0.403312 -0.079621 -0.197880 0.366276 -0.319339 0.176586 -0.184638 0.491556 0.190654 -0.682882 0.090161 -0.091829 -0.560147 0.350334 -0.716255 1.190696 -0.482640 -0.336964 0.316638 -0.324098 0.533485 -0.688732 
-0.464875 -0.647300 -0.898425 -0.062554 -0.622278 0.765070 0.799367 0.906158 -0.308512 0.120474 -0.009677 -0.283304 0.643695 0.089618 0.800403 -0.668986 0.726344 -0.953157 0.402352 0.304352 -0.008759 0.423514 -0.149148 0.712612 -0.600681 -1.035417 -0.622152 -0.976616 1.012065 -0.739126 0.555167 -0.348344 -0.169129 0.151709 -0.670753 -0.417815 0.697704 -0.159499 0.417029 -0.074223 0.510292 0.834495 -0.525832 -0.573781 -0.023501 -0.244189 -0.533375 -0.497299 0.465936 0.191528 -0.996904 -0.611181 0.320250 -0.609359 -0.870579 0.618766 0.093043 -0.594445 0.122731 0.289740 
0.589337 -0.465262 -0.332151 -0.703630 0.795064 -0.450840 -0.309110 -0.826064 0.596729 -0.385742 0.010448 -0.142670 0.059311 0.852861 -0.840673 0.848531 -0.630679 0.057499 0.297311 0.302409 0.497621 -0.327308 -0.787999 0.414297 -0.395600 -0.125595 -0.458169 0.246129 0.738247 0.348212 0.708571 -0.601360 -0.104271 0.617897 0.069124 -0.228594 0.990718 0.607930 0.454016 -0.410181 0.507453 -0.669923 -0.846479 0.501066 0.749701 -0.677112 0.071187 -0.509321 0.395450 -0.422513 -0.235624 -0.428605 -0.419480 0.287314 0.696307 -0.596754 0.256855 -0.879281 0.555251 0.513271 
-0.948952 0.616526 0.369624 -0.572861 0.076840 0.220470 -0.904660 -0.658546 0.364949 -0.600904 0.428808 0.452062 1.075764 0.900855 -0.611246 0.445463 -0.085418 -0.770464 0.061506 0.915984 -0.396708 0.196148 -0.215302 -0.481034 -0.816494 0.093898 -0.713631 -0.521479 -0.812236 -0.544674 0.281141 -0.129228 0.292383 0.718843 -0.263462 -0.662533 0.602010 -0.626671 0.151284 0.316571 -0.890846 -0.088823 0.396437 0.615508 0.330560 -0.926174 0.454507 0.856988 -0.189055 0.353550 -0.020234 -0.456151 0.995804 -0.462312 -0.084239 -0.739902 -0.355576 -0.342030 0.149813 0.166784 
0.394220 0.735267 -0.965887 0.237367 0.352203 0.690354 -0.039225 -0.823289 -0.008147 0.394218 -0.476272 -0.718263 1.075331 0.719794 0.798386 -0.300706 -0.813626 0.038312 -0.555314 -0.899421 -0.534555 -0.347440 -0.083676 -1.151208 0.677278 -0.396408 0.781182 0.690226 -0.805256 -0.799537 -0.418509 -0.177997 -0.155416 1.281138 -0.245824 -0.180431 -0.785619 -0.148021 0.222338 0.673919 0.251622 -0.092382 0.350396 0.735567 -0.663435 -0.614891 0.185308 -0.558610 0.057839 -0.711837 -0.212473 -0.052810 0.040582 0.791536 -0.187940 0.756831 0.356906 0.187473 -0.783932 -0.739477 
-0.324929 1.203686 -0.305998 0.949919 -0.908694 -0.838936 -0.395403 0.777945 0.778963 -0.018090 0.140713 0.032818 -0.551336 -0.806619 -0.866356 0.083220 -0.520932 -0.182431 0.803844 0.121992 -0.805685 -0.688528 -0.330060 -0.105235 0.634086 0.562373 -0.775348 0.221595 1.072915 -0.354689 0.057991 -0.466171 0.069569 0.206174 -0.734055 0.216816 -0.769555 -0.199067 0.102563 -0.374287 0.654979 0.770788 -1.078951 0.408121 -0.273264 -0.934764 -0.813491 0.647175 -0.863736 0.773928 -0.860223 -0.370401 0.242646 0.937112 0.764811 -0.576990 -0.863207 0.363782 -0.372842 0.219928 
-0.594084 -0.264272 -0.673791 0.890260 0.525173 0.118708 0.392615 0.717896 0.377651 -0.619456 0.040005 0.796548 0.493923 -0.734733 0.597223 0.200979 0.289810 0.952440 -0.054474 -0.482781 0.372319 0.397029 -0.918060 0.454376 0.462475 0.011469 -0.066318 -0.652141 0.418493 1.105425 -0.970319 -0.021207 0.748422 -0.802985 0.471004 0.827620 -0.634126 -0.912961 0.078565 -0.786284 -0.589344 0.768047 0.702129 -0.061238 -0.712768 0.058233 -1.155281 0.318626 -0.380150 -0.868133 -0.581290 1.119465 0.639010 0.991599 -0.372601 0.494679 0.271252 -1.001194 0.158002 1.143546 
0.003849 0.840894 -0.761520 0.512681 -1.032069 0.266589 0.973441 -0.629644 0.441333 -0.787583 0.538922 0.122178 -0.971702 -0.437094 -0.874558 -1.037201 0.299806 -0.841317 0.114862 -0.943466 -0.141879 -0.573631 -0.416504 0.132113 0.456788 -0.588392 0.434754 -0.421055 -0.886961 0.543500 0.732430 0.473840 -0.714148 0.657702 0.476366 0.845553 -0.935255 -0.195442 -0.640849 -0.594133 0.907733 0.397929 0.389647 0.652706 -0.154437 -0.021438 -0.930103 0.686562 0.646302 -0.577371 -0.656618 -0.224297 0.384997 -0.087058 0.174493 0.868299 -0.083409 0.552847 0.732771 0.735875 
0.736428 0.412486 -0.503476 0.596138 -0.477978 -0.337220 0.517194 -0.019974 0.431954 -0.382640 -0.373953 0.305646 0.691519 -0.055700 0.158652 -0.635563 0.423555 0.673490 -0.786800 0.875822 -0.473422 -0.197800 -0.709485 0.463063 -0.146144 0.559598 1.149424 -0.248907 -0.799292 -0.276334 -0.001846 -0.601564 -0.676986 -0.295004 0.724707 0.313717 -0.417967 0.254592 -0.565342 0.398289 0.134386 -0.774132 0.069212 0.835774 0.671540 0.350892 -0.077776 -0.511369 0.910608 0.532244 0.231568 -0.488038 -0.643552 -0.680050 0.525185 -0.025202 0.670958 -0.947142 0.592710 0.876226 
0.679111 -0.690067 0.784676 0.891808 0.257268 0.842857 0.456244 0.619941 0.147142 0.336597 0.784147 -0.565341 -0.127551 0.042736 0.278370 -0.828371 0.767317 -0.567609 0.814512 0.151670 0.163013 0.503553 0.488806 -0.353577 0.016074 -0.412138 0.727511 -0.706651 1.031900 -0.583367 -0.840595 0.416934 0.070637 0.911881 -0.226463 -0.313921 -0.175560 -0.107378 -0.261450 -0.854552 -0.683304 -0.839903 -0.610922 0.364858 0.423636 0.438512 0.128272 1.068742 -0.110195 0.471665 -0.326642 -0.310600 -0.797316 0.294174 0.898540 -0.591687 -0.552055 0.504612 0.866577 -0.335034 
