-2.102512 -1.938753 -0.808463 -1.408977 -2.612335 -1.070392 -1.504401 -2.472713 -1.627989 -1.292616 -1.065451 -2.343095 7.180789 0.451038 -3.211153 0.371394 -1.883411 -4.733070 -3.311114 -0.293593 -3.706334 -0.700647 3.472078 -1.863354 -3.574360 1.898006 8.389414 -2.013080 -2.409404 1.197254 -0.502955 0.479362 5.061183 -1.422606 -3.275233 -2.020959 -0.168787 0.940419 1.139848 6.688529 -3.025004 -2.091983 -4.595608 -2.658372 1.004298 -2.121006 -1.759230 -1.352467 -0.535835 1.824564 -2.545280 -2.229729 
2.033181 2.912365 -2.993272 -3.898186 0.693111 -1.914296 0.188457 -0.166531 -0.821696 -1.480782 -4.405404 0.272556 -1.818924 -0.174741 -1.362417 5.039543 -4.836736 -4.131453 -2.561199 -1.462594 -5.108735 -5.268422 -0.821156 -2.221033 -2.831947 -1.412207 -3.978304 6.367706 -3.692901 -1.790600 -1.092144 -4.208491 -0.017740 7.179197 -2.851194 -2.439998 0.405608 6.282103 -0.565136 1.751024 -1.466697 -5.326152 -4.183618 6.386832 2.348001 -2.132013 -5.169933 4.955442 -2.284684 -2.122856 -3.342560 -0.172687 
-0.466518 -0.009245 -0.415119 4.531547 -1.767813 -0.829540 5.211284 -2.335835 0.269817 -1.645989 -1.405633 -2.188733 3.761591 4.201369 -1.370023 0.094589 -3.952623 0.956965 -0.840398 -0.808513 -1.767351 -1.716256 0.052254 0.239590 -1.257226 -1.103602 -0.825438 -1.823479 -1.693273 -2.321581 1.066645 -1.979271 4.897068 -3.937245 -1.315061 -1.199216 -0.782064 -0.888442 -1.508569 -3.625924 -1.413601 -0.367470 -3.227315 -2.226574 -1.025911 -1.301152 -1.594581 2.559709 -1.316417 -0.239273 -0.592565 -0.540893 
-1.689214 0.155638 -1.565875 -0.243242 1.094608 -5.368102 -2.692851 -1.191893 -0.292853 -0.717018 0.546033 -2.060610 -2.702253 -0.263823 -1.812201 -0.057575 -3.113937 -1.721039 -1.273515 -1.073111 -1.718679 -2.595387 -1.654405 -3.224810 -2.222673 -0.601408 -2.213959 -3.326297 -3.696753 -1.116596 0.196634 -2.095350 -3.252605 -2.423441 -1.691903 -1.485176 0.992637 -2.338136 -1.207753 -1.487057 -1.925649 -1.592747 -3.525356 -5.659905 -0.662759 -2.423470 -3.287073 -2.148667 0.658614 0.177999 -1.503730 -1.568091 
6.249438 1.367110 -1.646661 -3.952110 1.504842 3.849349 -1.367410 -5.111438 6.001434 -2.358534 -2.720820 -4.290181 0.422157 -1.740426 -1.223521 -0.849434 -1.210582 -3.209863 -1.288877 -6.826984 -5.524618 -1.014401 -5.646961 6.756632 -2.445280 3.750761 -1.370320 -3.138920 -3.040727 -1.504087 -0.564862 -3.236274 -2.233209 -3.192266 -5.514592 -0.694552 1.467952 4.311398 -3.539314 3.899620 -1.416300 -0.575400 -2.409885 -4.284754 -2.227244 1.248471 -1.835637 -2.810275 5.035934 9.286103 -2.423425 2.641336 
-2.168187 -4.783333 -4.198364 -0.635296 -0.409752 -2.423192 -5.087972 -1.350453 -1.703453 -2.246516 0.304306 -1.429488 -2.486625 -1.296907 0.009956 -0.881504 -1.815929 -0.646350 -1.379915 -1.373114 -1.418274 -2.163788 -1.774433 -2.849507 -2.298310 -1.420214 -2.088742 -2.785188 -2.302119 -1.128547 -1.086144 -2.342733 -1.992172 0.153723 -2.187065 -2.651498 0.187063 -2.785454 0.185111 -1.928917 -0.908100 -1.060490 -3.051720 -1.509486 -1.585223 -1.112446 -4.340074 -1.701099 1.240249 -1.841813 -1.815026 -2.677013 
-2.497698 -1.103575 -1.335418 -2.212158 -0.649180 -1.717377 -1.698998 -4.376559 -0.417937 -1.916793 0.375042 -1.925329 -2.857641 -0.259228 -2.143476 -0.326071 -4.063207 -0.319775 -0.406552 -0.088708 -2.876778 -2.247826 -1.024805 -4.168030 -3.471734 -1.273166 -3.089771 -3.737482 -3.513917 -2.112210 -0.139591 -3.794350 -3.130894 -3.167378 -2.340155 -1.365946 0.637368 -0.566109 -0.467203 -1.149086 -1.071739 -1.527521 -3.372457 -0.969031 -1.617969 -1.544659 -3.121555 -1.065747 1.394038 -0.323024 -1.983829 -1.528796 
-0.846438 0.265501 -2.040522 0.761819 -0.181557 -1.579975 0.456640 -0.396138 -1.888721 6.935363 -2.026283 0.000830 -2.203234 -1.767500 2.923328 -0.953655 -2.301812 -4.081706 -1.240419 -2.160938 -3.142434 -2.749114 -2.685182 -5.506991 3.823440 -0.891086 0.649617 -1.250865 -0.400008 4.371068 0.114863 -3.542740 -2.819848 -2.120906 0.514265 5.638758 -2.662248 2.264866 0.843666 -4.191221 0.528971 3.109458 -5.432792 -2.181754 0.500881 -1.528384 -4.868627 3.603454 -0.943440 4.576361 -1.268895 -0.444411 
-0.869033 0.262156 -3.455836 -2.660343 -5.189490 -1.310119 -5.264025 -2.744800 -1.796926 -0.682695 0.768734 1.205604 -0.585285 0.081409 -1.707982 -1.642970 1.033296 0.720001 1.008446 0.596851 -4.838895 1.295653 -1.854348 -1.328158 -0.439613 -0.553153 -0.935054 -1.651270 3.487560 -1.162233 -4.199823 -3.558693 0.064629 -1.380755 -0.293023 -0.557498 0.902413 -3.691296 -0.160628 -0.828585 0.818993 2.951381 1.687609 2.288490 -0.112128 1.550056 0.618232 -2.811087 1.448366 -1.406610 0.431303 -0.912233 
-0.125725 2.911935 -2.783685 4.006425 -5.706720 -1.979034 0.447809 -4.353415 -2.720231 1.240491 -5.933478 2.192509 -3.764842 -1.060701 2.388287 0.451411 1.889371 3.084713 -6.749815 -5.918946 5.008032 2.357750 2.904911 1.204786 -5.797054 2.856901 2.715040 1.677757 2.217386 1.599466 0.860419 3.803557 3.081292 3.814408 4.686952 0.306351 0.995583 1.578619 -5.780629 2.136926 1.911943 0.803781 2.378241 -4.961413 -6.522499 -1.268293 1.709753 1.540677 0.201042 0.822569 -4.109210 1.242509 
-5.588397 3.649993 1.656676 -3.917861 -1.363419 1.065405 -5.075199 3.785528 1.538053 -4.351114 3.059358 4.336394 2.897834 -6.602538 -8.137703 -3.659172 -5.612690 -3.495093 -5.903822 2.677556 5.702690 4.520019 -3.368577 5.694840 3.469027 -4.066901 -2.981315 4.862535 5.655392 1.830265 3.378104 -2.260643 4.324221 -4.918374 3.934732 -2.170722 1.883828 1.341307 -4.387453 1.698742 -0.305431 -2.531800 -6.858032 4.919206 -5.791981 0.902572 1.761143 3.270101 -3.788517 -4.581203 4.749701 1.806542 
4.496211 -4.524206 4.332111 -9.089092 -5.019455 2.413873 3.111311 1.092219 -3.523228 -5.432544 -3.210561 -6.102727 4.228175 -5.129891 4.268005 2.281150 5.791709 -3.989962 -4.305167 -1.117605 -5.091501 3.867128 -5.752274 -3.454300 5.550098 -4.326387 4.609237 -0.890331 2.612895 1.848494 1.205987 2.015304 -0.716801 -3.628403 -7.440973 4.296130 -3.173639 -0.010540 -2.578513 -0.125235 1.019656 5.987451 5.829631 3.684441 3.506711 5.416920 4.431353 -1.298603 -2.091095 -4.900992 -1.428033 -3.755472 
-0.793591 -1.300663 3.038019 -0.338030 1.062929 0.116118 1.994431 1.865352 -0.364215 -0.450103 1.903220 -3.569474 1.492603 -0.035069 -2.570670 0.513716 4.519988 0.645568 -1.375859 0.083210 0.529342 -0.753636 -0.126429 -0.737881 -0.476014 1.217990 -1.865483 -1.460073 1.892467 -1.890466 -4.733690 -0.817575 -6.567105 0.840204 -1.162433 -0.254542 0.202303 -0.661763 -2.054974 0.739752 -8.519125 0.599286 -1.903083 -2.926069 0.552349 -1.438769 0.836300 -1.011208 -2.263743 -3.790590 -2.210723 -0.586086 
-2.117921 -5.006056 -0.792857 -0.492727 0.936822 0.852220 -1.571115 0.275603 -0.710596 -0.952550 1.580434 -0.812099 -0.677723 0.737801 -0.771062 -0.686824 -2.470362 -2.583153 0.188255 0.665484 -4.250476 0.725110 -0.903667 -1.392164 0.521760 -0.940479 -1.293072 -3.784829 -3.356516 0.376897 -0.316601 -0.057951 0.353156 -0.869660 -0.999745 -0.191621 -4.055003 -1.569901 -0.562241 0.330171 -3.889890 -0.918100 1.565931 1.445297 -0.357225 -0.765529 -3.872974 -0.180117 0.997303 -0.608941 -4.867901 -1.126965 
0.609490 -1.154615 3.065637 1.066734 1.363480 2.267257 3.245528 -4.289517 -0.879625 0.070615 -6.744277 -0.599876 -1.861085 -2.541704 -2.427035 -0.426133 1.215113 -7.018550 0.543932 -0.237603 0.044802 -1.092710 -2.384537 -1.659642 2.296954 0.172377 2.689702 -2.156401 -0.934781 -5.785074 -0.763132 -3.085175 1.997261 0.808779 1.090310 1.266856 1.391413 -3.397357 0.449593 -1.071286 -0.078167 0.996883 -1.016138 1.077959 -0.248486 -0.326048 2.742199 -0.561763 1.805685 -0.209780 0.653563 -1.299874 
-2.022406 6.163225 -3.433908 5.927188 0.239042 2.977471 0.445625 6.401465 1.056424 -1.534031 -3.716217 -3.586449 2.005692 0.474519 4.057540 0.877254 4.553096 -3.628550 -4.865802 -2.858181 -3.767503 -2.154472 -2.694417 -4.250086 -4.057372 -6.922050 -0.536895 -3.652129 5.532573 -3.520761 3.299863 -4.081385 -5.590692 -1.203290 -0.809751 -1.415170 -1.970705 -1.842625 6.049170 6.038005 4.662196 -5.332539 -6.520066 2.273798 -2.896991 -4.025849 -2.783221 -3.591665 -1.987761 -3.928526 -3.244964 5.527079 
0.885484 2.393245 0.218802 -0.491883 2.620084 -0.557068 1.789762 -0.172257 -2.205722 2.262210 -1.953908 4.978945 -0.559966 -6.947111 0.650004 -0.367828 -0.591350 3.373928 1.949647 0.976787 3.813499 -2.478978 5.318810 2.514744 1.734583 0.259806 -1.654861 4.104518 -2.446765 0.857685 0.359520 0.943781 0.766935 -3.328191 -3.265201 -6.149555 -7.230436 0.694982 0.646685 -7.318186 -1.119011 0.302961 -0.228675 -4.377500 1.267083 -0.846916 -3.782615 2.618460 -5.285731 -2.728239 2.272973 -1.381473 
-2.434794 -3.470237 -4.255287 -2.907504 -2.418149 -3.424744 -2.472257 -3.174349 4.033301 -2.563118 -2.763110 -1.172534 2.120375 -1.656541 -1.283513 1.861412 -1.493067 -2.886183 1.995691 1.355850 -4.864972 -3.027733 -4.184969 -1.222711 -5.444447 4.528523 -2.287815 -2.836261 0.227294 -1.711848 -2.743751 8.088762 -3.267638 -1.997846 5.683655 0.918459 -2.484704 4.840012 0.594265 -4.976576 -1.719604 -2.544321 -0.994559 1.161546 -3.190638 4.085815 -2.494181 -4.840476 -4.155563 -3.912479 2.606967 3.650198 
-0.117481 -1.580002 3.217924 1.263711 1.579318 0.078447 1.448075 0.836049 -5.107726 0.730660 2.600191 1.761570 0.191643 5.081522 2.589540 -5.868589 -4.707971 3.962451 1.808892 -6.804472 0.105266 -8.373304 -5.407051 2.419742 0.026964 -0.744057 -0.817932 4.030902 1.244047 -0.064404 -2.711980 2.454156 1.087566 1.843669 -2.829215 1.759079 0.903765 0.360479 -2.772882 -0.754001 0.164200 -2.834676 4.021613 2.095686 0.075911 0.995385 5.402774 -7.406139 -7.998982 3.630972 3.772782 2.766654 
0.454268 1.207767 -6.299870 -2.780213 -4.821771 2.887589 3.530577 3.383097 2.896997 0.719908 -1.475064 -6.945500 0.260344 3.428784 -3.785744 -3.754542 3.223081 3.707477 2.055280 0.874807 5.150882 2.765104 4.652036 2.626174 0.708989 -4.814978 1.406841 3.508554 -7.018002 1.173654 -4.192181 3.923867 2.198427 1.937231 3.666752 -0.206870 -5.264475 -0.542528 1.745673 1.529271 5.535019 -7.701197 3.244454 -0.768210 2.664508 -5.692258 1.622470 2.523028 -4.207866 1.720147 1.529652 -4.157145 
