0.250601 -0.228490 -1.121454 -0.558926 -0.833935 -0.931667 0.256176 -0.684643 0.201146 -0.636144 -0.074439 -0.782602 0.047773 -0.224491 -0.152807 -0.932405 -1.027325 -0.305091 -0.843890 0.445433 0.216254 -0.209923 -0.953648 1.054620 -0.072524 0.605373 -1.077722 -1.129948 -0.742982 0.205481 -0.166584 -0.329990 -1.202721 0.378793 0.873701 0.740980 -0.289889 0.253825 -0.839761 0.538131 0.795444 0.558543 -1.027800 -0.303532 0.440454 -0.265711 0.653842 -0.191697 0.181641 0.704218 0.199893 0.884456 
0.108548 0.452090 0.631126 0.354085 -0.586580 0.259420 0.012562 -1.157565 -0.710311 -0.935981 -0.327402 -0.835975 -0.842010 -0.690944 -0.862103 -0.504679 -0.996780 -0.040245 -0.602182 0.093053 -0.379725 -0.901139 -0.531950 0.121312 0.394257 0.179287 0.261619 0.726094 -0.879720 -0.027350 -0.680740 0.329849 0.491653 -0.508679 0.668249 -0.431576 0.451162 -1.082621 -1.212498 -0.712117 0.568893 0.703570 -0.544137 0.595443 -0.085556 -1.225584 0.210727 -0.477583 0.820906 -0.282581 -0.513472 0.748378 
-0.340877 -0.872123 -0.118237 -0.265769 -0.480040 -1.036155 0.002285 0.729672 -1.069337 0.519152 0.258869 -0.861852 0.029586 0.711813 -0.902609 -0.349035 -0.592821 -0.014090 -0.368144 0.611011 -0.245908 0.087074 -0.325297 0.365266 0.285981 0.603071 0.158333 0.065007 -0.128813 -0.273212 -0.367959 -0.524369 0.322248 -0.600784 -1.401806 0.618593 0.716473 -0.340895 -0.864928 -0.814199 0.180850 -1.011436 -0.215131 -0.683838 0.637323 0.477940 0.004922 -0.870114 -0.473549 0.979006 -0.004405 0.826333 
0.329677 -0.873416 0.196722 0.179010 0.616050 -0.083351 -0.540989 -0.765645 -0.228296 0.047450 -1.025508 -0.971510 -1.216895 0.650982 0.021658 0.364535 -1.110942 -0.889992 -0.207070 -0.439012 0.600602 -0.934819 -0.665075 -0.521585 -1.043268 -0.446808 0.418986 -1.050552 -0.176921 -0.307998 -0.096657 -0.930112 -0.244008 0.116256 0.091383 0.405559 -0.919456 -0.741360 0.144857 -1.017553 -0.956704 0.144843 -0.035767 -1.040536 -0.375068 0.032004 0.056559 0.190897 -0.488856 -0.156872 -0.155021 0.422175 
0.835873 -0.185386 -0.368663 0.810854 -0.849269 -0.276170 -0.576297 -0.895108 -0.866639 -0.868089 -0.788198 -0.000322 0.301327 -0.827240 0.718022 0.517263 -0.580460 -0.053848 -0.857995 0.831672 0.080799 -0.322578 -1.076143 0.447934 -0.332489 -1.147223 0.360255 0.242894 -0.533727 -0.784048 0.398898 -0.597364 -0.954983 0.724735 0.615215 0.125722 -0.636015 -0.328050 -1.233095 -0.394153 -0.538168 -0.049094 -0.671781 0.146215 0.501022 -1.088141 -0.784609 -0.785096 -0.663375 0.494824 -0.347990 0.619864 
0.084568 -0.952207 -0.096324 -1.100486 -0.705977 -0.119182 -1.010400 0.733049 -0.030567 0.117467 0.000151 -1.349874 -0.317833 -0.712508 0.178668 -0.039377 -0.148734 -0.397801 -1.153837 -0.428667 0.071432 -1.257051 0.650006 -0.780307 -0.065715 -0.933228 -0.510545 0.223950 0.513583 -1.214556 0.349483 0.332490 0.488621 0.759217 -0.040545 -1.090690 -0.092039 -0.794175 -0.245543 0.442643 -0.714119 -0.041140 -0.523898 -0.141913 -0.812060 -0.359952 0.145185 0.674517 0.217880 0.475955 -0.194265 -1.123702 
-0.845294 -0.011634 0.690328 -0.240147 -0.988999 -1.000284 -0.085992 -0.314853 0.629770 -0.730534 0.301682 0.115998 0.363258 0.140185 -0.029586 -1.499692 -0.188006 -0.145633 -0.198091 -0.105119 0.543430 0.018741 -1.140959 0.474723 -0.462992 -0.137443 0.729991 -0.245335 -0.203567 -0.847648 -0.934346 -0.332455 -0.557434 0.102713 -0.514105 -0.038039 0.387457 -0.006206 -0.639454 -0.922067 -1.037388 -0.172063 -0.747602 0.143796 -0.318587 0.500422 -0.368911 -0.573698 0.722578 0.272029 -1.101051 -0.888973 
-1.022722 -0.860123 -0.114551 -0.605222 -0.142827 -0.222018 -0.851638 0.286454 -0.220056 0.539307 -0.190510 -0.807942 -0.187897 -0.524801 0.264179 -0.536106 0.787993 -0.841441 -0.868399 -0.229379 -0.221703 -0.516552 -0.495461 -0.602401 0.512496 -0.022104 -0.605252 0.505881 -0.222407 -0.836190 -0.440160 0.260958 0.067118 -0.118280 0.623163 0.458616 -1.184070 -0.976777 -0.318906 -0.862491 -0.863605 0.062937 -0.593729 -0.038440 0.032025 -0.063691 -0.274198 -0.273667 -0.503583 -0.288440 0.484244 0.227450 
-0.772795 -0.625043 -0.288540 -0.865443 -0.871691 -0.105064 -0.147391 0.261017 0.425132 -0.509986 -0.494540 0.164570 0.576551 -0.001212 -0.811713 -0.631575 -0.958164 -0.449896 -0.222257 0.283400 -0.165593 -1.147454 -1.226909 0.554025 -1.189642 -0.056170 -0.539767 0.170082 -0.622075 -0.047382 0.662739 0.062986 -0.668946 -0.398356 0.184795 -0.610925 0.599861 -0.915399 -0.001368 0.177433 0.599858 -0.039776 -0.050160 -1.024470 -0.501891 -0.274734 0.409642 -0.683162 -1.092804 0.535023 -1.102654 -1.210827 
-0.453831 0.076291 0.081251 -0.339153 -0.545108 0.303765 -0.392778 0.441503 -0.415818 -0.147500 -0.947972 0.196102 -0.987672 0.053757 -0.903889 -0.575702 0.289315 0.311432 0.054371 -1.209400 0.469195 -0.907527 -1.004744 -0.527243 -0.524841 -0.068963 -0.577905 0.427038 0.045432 -0.414044 -0.774012 0.524125 0.333950 -0.795968 0.043289 -0.249903 -0.970762 -0.281582 -0.218742 0.426017 -0.471876 0.225825 -0.607037 0.718058 -0.088325 -0.931377 -1.038570 -0.459057 -0.416473 0.909997 -0.468756 -0.797871 
-1.015088 0.511189 -0.960686 -0.446242 -0.052405 -0.391027 0.449568 0.717221 0.302341 -0.361390 -0.953350 0.278134 0.022271 -0.316698 0.403604 -0.637366 0.199019 0.060672 -0.456238 -0.099354 0.690370 -0.167159 -0.904456 0.245335 -0.678680 -0.596092 -0.458081 -0.773276 -0.451013 -0.157669 -0.391823 -0.093433 0.202765 -0.436483 0.096134 -0.092891 -0.135562 0.307846 0.016814 -0.171464 -0.432415 -0.205778 -0.784092 -0.727093 0.267680 -0.868330 0.097339 -0.588350 0.364156 0.239242 -0.124368 0.386536 
0.344253 0.872630 0.044572 0.697625 -0.601271 0.023037 -0.742549 0.881323 -0.730863 -0.582072 0.447644 -0.814479 0.406050 0.799312 0.164673 0.530563 0.435776 -0.427928 0.040574 0.005070 -0.792985 0.554577 0.258383 0.099641 -0.049403 0.235110 0.392139 -0.939840 -0.322590 0.205463 0.074634 -0.011233 0.350094 0.280493 -0.193739 -0.744240 -0.731285 1.087824 -0.702761 0.144253 -0.276174 0.289585 0.083778 -0.383043 0.009200 0.252612 0.523584 0.718097 0.891238 -0.573590 -0.667550 0.250780 
-0.216080 0.676518 -0.750813 -0.177926 -0.670740 0.023794 0.120341 0.416907 -0.908896 0.785981 -0.883037 0.090260 -0.342170 -1.038126 0.753565 0.394152 -0.208312 -0.849033 -0.671099 -0.718309 0.884749 -0.565568 0.912737 -0.684884 0.541296 -0.882929 -0.773983 -0.704968 0.656844 -0.954886 0.146321 0.403272 -0.430882 0.028147 -0.889328 -0.193870 -0.322924 -0.300707 -0.911643 0.673641 0.479798 -0.045295 0.417687 -1.023096 -0.407489 -0.593403 0.120684 -0.408071 -0.962724 -0.444033 -0.800355 0.506191 
0.573205 -0.498303 -0.709087 -0.333177 -0.122811 0.536599 0.128264 -0.665647 0.626988 0.067781 -0.552872 0.595239 0.113822 0.137949 -0.249850 -0.170929 0.816501 0.438489 -0.942823 0.666615 -0.554666 0.036510 0.717227 0.189256 0.706814 -0.626208 -1.104373 0.889567 -0.396471 -0.075000 0.774663 -0.712374 0.200957 -0.907830 -0.825626 -0.327208 0.652476 0.811946 -0.927368 0.229834 -0.852094 0.568081 -1.224039 0.547875 -0.085199 0.670583 -0.072891 0.424090 0.885882 0.816877 -0.431892 -0.592002 
0.444845 0.501600 -0.227979 0.069737 -0.819475 0.321921 0.048104 0.113669 0.812015 0.522836 -0.745810 0.862526 -0.061586 0.304805 -0.697350 0.739725 -1.065428 0.340967 0.179125 -0.264869 0.741076 -1.038189 -0.763503 -0.109077 -0.203945 0.810246 -0.943143 -0.906563 -0.937871 0.349843 -0.431332 -0.736037 -0.676412 0.257049 0.237327 -0.613222 -1.000495 -0.102415 0.135893 -0.125497 0.237893 -0.224417 0.700015 -0.584098 -0.263478 0.353549 -0.979309 0.944565 -0.603297 0.795798 -0.567486 0.769382 
0.640743 -0.633597 -0.152986 0.710013 -1.034348 -0.772272 -1.105129 -1.122772 -1.240756 -0.827092 -0.585349 0.530756 -0.601365 -0.332730 -0.883389 -0.637254 -0.094151 -0.710883 0.010986 -0.013863 -0.347910 -1.062469 -1.086006 -0.076863 -0.377062 0.061388 -0.670062 -0.393641 0.490150 -0.056028 0.330014 0.160621 0.144998 0.416216 0.292608 -0.659387 -0.743714 -0.516312 0.343713 -0.060604 0.358829 0.250427 -0.480729 -0.109485 -0.268804 -0.732667 -0.913642 -0.904159 0.181595 -1.147637 -1.227548 -1.006734 
-0.339651 -1.009286 0.249531 -0.075832 0.012904 -1.124416 -0.094828 -0.489256 0.212887 -0.336651 -1.124932 -0.984457 0.664397 0.766894 0.593564 -0.311001 0.448198 -0.990345 1.261661 0.363812 -0.144426 0.298533 0.187789 0.009981 -0.061595 -0.179490 -0.760188 0.065199 -0.421678 0.477664 -0.688939 -0.191828 -0.840591 -0.802641 0.291055 -0.581663 -0.089705 -0.098578 0.524270 -0.555487 0.288477 -0.636631 0.784972 -0.518342 -0.206423 -0.637582 0.532601 0.026356 0.100488 -0.723705 -0.228815 -1.329828 
0.768573 -0.584959 0.214650 -0.207087 -0.145294 -0.532604 -0.771779 -0.002270 0.682629 -0.118742 0.155690 -0.795043 -0.821928 -0.129497 -0.773776 0.023123 0.165733 0.302799 0.375412 -0.494444 -0.241883 0.372203 -0.565805 -0.968306 0.602673 -0.291172 -0.506956 -0.916621 -0.067687 0.046605 -0.798601 0.521170 -0.529992 -0.770805 -0.225607 -0.944484 -0.250254 0.692013 -1.016384 -0.181075 0.753501 -0.578157 -0.599585 -0.627600 -0.725888 0.023004 0.989813 0.212958 -0.211892 0.512111 -0.011404 0.752341 
0.567779 -0.852300 -0.780849 0.192379 -0.790450 -1.020508 -0.350467 -0.618421 -0.621057 0.000320 0.011242 -1.154228 0.161670 -1.025086 0.339963 -0.388167 -0.133445 -0.123683 -0.437060 0.423850 -0.750985 -1.107584 -1.070796 -0.754615 -1.152026 0.192862 0.777014 -0.585076 0.381995 -1.104432 -0.636585 -0.328018 -1.018590 -0.590909 0.377504 0.192338 0.661930 -0.475187 -0.383765 -0.255563 -0.691622 -0.510093 -0.214571 -0.752212 -0.669056 -0.314680 -0.406147 -0.664350 0.418572 -0.382884 0.475918 0.564708 
-0.192765 0.128941 0.472687 0.058193 0.265835 0.671265 0.183051 -0.423231 -0.735852 -0.227374 -0.324043 -0.890798 0.400405 0.674517 -0.436102 -0.403681 0.629214 0.697111 -0.614084 -0.605573 0.572492 0.450794 0.352236 -0.666168 -0.927577 -0.712932 0.349132 -0.428837 -0.149831 0.505978 0.230985 -0.176717 -0.321103 -0.213304 0.754922 0.370340 0.273144 0.563399 0.759531 -0.183451 0.204548 0.840712 0.469747 0.738560 0.167432 0.299851 -0.950927 0.319655 -0.758549 0.153199 -0.325619 -0.775762 
0.181832 0.158471 -0.440310 -0.261744 0.668856 0.245025 -1.141891 -0.384672 0.402819 -0.624365 0.568424 -0.460521 -1.048558 0.561207 -0.731272 0.447892 -0.341516 0.258233 -0.221153 0.656841 -0.091252 -0.096291 -1.013403 -0.464306 -0.661002 -0.778392 -0.863845 -0.680520 0.616212 -0.455767 0.039020 0.244389 -1.053809 -0.485445 -0.777887 -0.161870 -0.068228 -0.588928 0.553910 -0.925027 0.646867 -0.250587 0.991397 -0.707079 -0.182483 0.052212 -0.235322 -0.560347 -0.949899 0.357302 -0.748855 0.547762 
-0.528468 0.327362 0.976779 -1.619651 -0.512385 -0.702243 0.075261 -0.473902 -0.091231 0.279600 0.011542 0.437590 0.141710 -0.048791 -0.865952 -0.247979 -0.865241 0.422412 -0.492849 0.125716 -1.059412 0.284624 -0.183743 -0.631944 0.230069 -1.077289 -0.228818 -0.474845 -0.066202 0.236023 -0.390300 -0.545433 0.559846 -0.264139 -0.030994 0.151727 0.221168 0.969822 0.223883 0.129503 -0.799196 1.134377 0.850294 -0.911344 0.671513 -0.135723 -1.136664 0.913138 0.596226 -1.260336 0.295059 0.039290 
0.232610 -0.364557 0.749026 0.662958 0.294806 -0.178030 0.150802 -0.345611 0.258399 -0.298868 -0.606534 0.764747 -0.075636 -0.440628 0.556481 -0.207503 0.166205 -0.623449 0.345843 1.191835 0.125559 0.553037 0.703342 -0.325304 0.537893 -0.865995 -0.593127 -0.544987 -1.069287 -0.339464 -0.080632 0.377081 -0.888431 -0.931429 0.212691 -0.082028 0.390791 0.173618 -0.075979 0.741779 -0.310271 -0.446096 -0.366536 -0.998143 -0.149801 -0.709432 -0.106589 -0.611407 0.400291 0.740023 0.548707 0.802215 
-0.612347 0.389922 0.904635 0.691631 -0.243513 0.018873 0.451274 -0.085129 -0.358451 -0.923830 -1.040689 -0.814600 -0.550245 -0.283993 -0.781495 -1.139519 -0.785849 -0.929906 0.592641 0.405359 0.397225 0.059706 -1.226215 -1.335326 -0.179397 0.672999 -0.154381 -0.361546 0.051684 0.340874 0.301389 -0.159332 0.410079 0.435659 0.029566 0.578966 0.635109 -1.015026 -0.775166 0.571768 -0.993723 -1.577328 0.898269 -0.757714 0.311110 -0.385721 -0.377106 -0.301056 -0.499099 -0.013611 0.296017 0.076177 
0.132453 0.802730 0.695594 -0.290575 0.770365 0.285536 0.554485 -0.760429 -0.088910 0.810902 0.452378 0.379256 -0.069704 0.014625 -0.652402 -0.427434 -1.055910 0.404560 -0.778254 -0.075228 -0.961988 0.715263 0.411964 0.230382 -0.017212 -0.523689 0.611636 0.595852 -0.222317 -0.792750 0.046297 0.766941 -0.537290 0.461897 -1.118018 0.080346 -0.164215 -0.119142 -0.154061 0.019127 -0.460649 -0.360593 -0.174994 0.209118 0.047622 0.418527 0.273508 -0.804614 -0.774594 -1.009047 0.402792 0.110065 
0.403279 -0.414870 -0.816639 -0.338231 0.456218 0.063068 -0.889654 0.522798 -0.881814 -1.213317 0.399895 -0.954150 0.133710 0.312370 -0.483295 -0.345203 0.381329 0.663763 -0.606278 -0.143327 -0.312621 -0.276049 -0.701780 -0.939259 0.187454 0.735097 0.617670 0.852214 -0.137471 0.189247 0.314174 -0.910907 -0.396418 0.016871 0.052002 -0.429901 -0.536792 -0.778311 0.232167 -0.499506 -0.920101 -0.239935 0.820735 0.021063 -1.137089 0.401660 -0.209807 -0.888023 -0.347811 0.271949 -0.112616 -0.147948 
0.410440 -0.145131 -0.864943 0.205929 -0.624320 -0.196314 0.821846 0.310196 -0.946853 -0.384138 0.591614 0.099487 0.571023 -0.902813 0.256682 -1.316261 0.042177 -0.885961 -0.798885 0.113742 -0.856951 -0.452663 -0.562348 -0.384349 0.486140 -0.730829 -0.706149 -0.668037 -0.682340 -0.402018 0.558480 -0.548008 0.561033 -0.550445 -0.446125 0.737755 0.035153 -0.742889 -0.519027 -0.698871 -0.172578 0.769566 0.122810 -0.016929 -0.400635 -0.503456 -0.985439 0.092473 0.096421 0.434614 0.198892 -0.765025 
-0.595729 -0.294429 -0.341710 0.168479 -0.714999 -1.285704 0.300965 -0.982319 0.375388 0.083355 0.568839 -0.157265 -0.382467 -0.866975 -0.925108 -0.661774 0.546173 -0.429978 0.079266 -0.876078 -0.837343 -0.595553 0.061824 -0.279815 -0.004472 -0.177315 -0.675491 0.212361 -0.635948 -0.138719 -0.319497 -0.536213 -1.050349 0.366069 0.268155 0.259008 -0.857217 -0.239396 -0.191329 0.082912 -0.780443 0.698686 0.145538 0.665613 -0.223613 0.546953 -0.569993 -0.812147 -0.796803 0.362927 -0.983644 0.386846 
0.558805 -0.094216 -0.896990 0.341545 -0.090475 -0.845432 0.314280 0.536196 0.663242 0.834871 -0.450532 -1.034742 0.210015 0.308860 -0.867706 -0.101584 0.810698 -0.875989 0.339744 0.503267 0.369466 0.635689 0.290113 -0.409627 -0.387025 0.485406 -0.177774 0.471905 0.707681 -0.056080 0.871819 0.645182 0.664647 -0.706837 0.158126 -0.249867 -0.626078 -0.331880 -0.821701 0.624316 0.254423 -0.350623 -0.281882 -0.330945 -0.441877 0.511029 -0.507563 -0.084696 0.494933 0.223472 0.637594 0.588515 
-0.892666 0.817265 -0.102165 -0.713858 -1.225338 -0.181024 0.279021 -0.151090 -0.333615 -0.432506 0.190771 -1.161830 0.353037 -0.086266 -0.005489 0.023106 -0.904198 -1.005451 -0.829784 -0.696290 0.253486 -0.943322 0.214306 0.343060 -0.617921 -0.591303 0.676902 -1.006667 0.336035 -1.010254 -0.899965 0.379446 -0.553576 -0.689190 -0.184295 -0.500327 0.475093 0.614420 0.122619 -0.046219 -0.015184 0.211853 -0.546369 0.178981 -0.223763 -1.189724 0.759847 0.600616 -0.627394 -0.716960 0.535959 0.302525 
0.134408 -0.654173 -0.235225 -0.422413 0.637586 0.253797 0.014731 0.281807 0.280490 -0.388406 0.626638 -0.155549 0.706467 -0.410392 -0.672845 -0.060766 0.179188 -0.362404 0.120788 -0.868004 0.475466 -0.330838 0.159086 0.296494 0.089386 -0.163285 -0.925456 -0.513328 -0.496183 -0.345416 0.437337 0.709616 -0.120451 0.831599 0.452946 0.861738 0.368279 -0.118380 -0.567871 -0.143004 -0.555084 -1.071240 0.746863 0.117175 -0.317251 0.129809 0.047726 -0.794664 -0.468314 -0.170006 -0.535721 0.816412 
-1.101553 -0.804428 -0.804634 -0.527470 -0.954118 -0.391248 0.299849 -1.154877 -0.904110 0.417111 0.609296 -0.975108 -1.192218 0.358352 -0.417592 -0.079418 -1.107041 -0.025318 0.293139 -0.284925 -0.188059 0.068192 0.743888 -0.168339 0.480942 0.736269 1.777354 -0.212060 -0.681374 -0.110127 -0.977248 0.154156 -0.442339 -1.008159 0.210966 0.441780 0.723699 1.215082 0.006147 -0.519348 -0.017051 -0.212771 -1.163735 0.681297 -0.979358 0.423212 -0.642888 -0.382910 -0.509555 0.293728 0.546667 -1.129592 
-0.436707 0.707071 -0.499057 0.036879 -0.357326 0.053163 -0.678557 -0.722950 -0.506374 -0.107005 0.364212 0.261342 -0.683603 -0.797664 -0.123083 -0.291421 0.018192 0.686387 -0.499432 0.583451 0.455390 0.655895 0.197067 -0.510848 -0.052919 0.157473 0.709440 0.008607 0.150478 -0.301906 0.629205 -0.747421 0.531302 0.733406 0.742104 -0.876333 0.194277 1.304752 0.772829 0.740021 0.091653 0.467345 -0.613242 -0.312995 0.767816 0.630363 -0.392691 -0.309015 -0.334442 0.850703 0.554848 0.713458 
-0.384106 0.128192 -0.801711 0.588402 0.431629 -1.012499 0.573164 0.647761 -0.657477 0.282888 0.232159 -0.315070 0.162920 -0.715848 -0.907787 -0.357130 0.866790 -0.739618 0.101484 0.355229 -0.292473 -0.496458 0.032776 0.323862 0.434642 0.750895 -0.063247 0.860482 -0.322940 -0.784555 0.077286 -0.706472 -0.233156 0.188382 -0.571728 0.187176 0.878615 0.276255 -0.149381 0.742812 0.655915 0.241875 -0.758186 0.373758 0.121280 -1.011920 -0.449728 0.985524 0.469591 -0.278939 0.261785 -1.030898 
0.497472 -0.348598 -0.834240 -0.019526 0.629293 -1.392194 -0.941221 0.616459 0.517869 -1.065969 -0.222154 -1.339679 0.534029 0.200212 0.653798 0.472718 -0.723863 -1.003436 -0.148437 0.765945 -0.782343 -0.202525 0.634627 0.579018 0.705581 0.386369 -0.442495 -0.561911 0.420940 -0.203768 0.039591 -0.581730 -0.666086 0.855728 0.737555 -0.169113 -0.489292 -0.336565 0.606156 0.234292 0.780468 -1.421514 0.055883 -0.376972 -0.352741 0.459581 0.147847 -0.066753 -0.438963 0.774874 -1.094780 0.395616 
0.531719 0.138953 0.013457 -0.037492 0.282760 0.018827 -0.980180 -0.613317 0.082732 -0.489966 0.025571 0.081151 0.822155 -0.814974 0.143937 -0.488411 -0.546383 0.269919 -0.415870 -0.339433 -0.152940 -0.058436 0.856249 1.344747 -0.719779 -0.042331 0.368511 -0.680269 0.549571 0.086228 0.041106 0.478009 -0.876613 -0.468045 -0.225984 0.149028 0.648174 0.633581 -0.224781 -0.654244 -0.049436 -0.497327 0.082793 -0.745269 -0.941935 0.103665 -0.232478 -0.466886 0.347365 -0.231831 0.433232 0.209763 
-0.091441 0.058982 -0.318758 0.134669 0.414770 -0.607128 0.185783 -0.195817 0.017649 0.002046 -0.572990 -0.985591 -0.175885 0.721336 -0.517681 -0.033043 -0.159207 -0.968850 -0.772603 0.927190 0.450565 0.683935 -1.147124 0.220088 -0.962053 0.234006 -0.659934 -0.000182 -1.190234 0.325038 -0.912006 0.538656 -0.937891 -0.978130 -0.166989 -0.570887 0.688062 0.992583 0.016944 -0.369713 -0.644118 -0.262690 -0.503718 -0.755874 -0.750588 -1.093381 -0.270961 -0.161621 -0.582663 -0.487323 0.277601 -0.987684 
0.933961 -0.084635 0.069566 -0.928163 -0.804556 -0.669696 -0.580676 0.486990 -0.740246 0.215144 0.633671 0.021788 0.495527 -1.017563 -0.140562 -0.702326 -0.322073 -0.238233 0.563798 -0.871631 -0.714724 -0.805604 -1.163118 0.787255 0.663734 -0.214459 -0.930108 -1.314482 0.541376 -0.932400 0.576145 -0.351787 0.103488 -0.504618 0.436993 -0.985593 -1.010646 -0.336121 -1.088251 -0.363556 -0.686874 -1.654807 -0.166863 0.719820 -1.119616 -0.970838 0.075369 0.531963 -0.366584 0.240158 -0.528980 0.214546 
-0.658197 -0.295287 -0.552527 -0.881191 -0.498249 -0.795242 0.095576 -0.971955 0.347097 -0.846875 -0.728023 0.461607 -0.541058 0.176094 0.570774 0.310173 -0.148461 0.074589 -0.825575 0.662474 -1.253190 -0.012286 -0.312127 0.408912 -1.140152 -0.220401 0.632636 -0.040815 -1.171168 0.216129 -0.128832 0.571516 -0.025842 -0.530243 -0.311063 0.337015 0.285454 0.262524 -0.176921 0.469274 0.186933 0.054152 0.317256 -0.264559 -0.967939 -0.954452 -0.019109 -0.786276 1.035653 0.708605 -0.187407 -0.341342 
-0.717121 -0.798986 -0.661265 -0.478457 -0.101422 -0.114253 0.871837 -0.141486 -0.613882 0.567132 0.640292 0.518739 0.641026 -0.788871 0.769389 0.826734 0.722399 0.105333 -0.331879 -0.753259 0.311235 -0.809506 0.429203 -0.660243 0.133946 -0.402716 -0.070970 0.210980 -0.280816 0.180282 0.570562 -0.045639 0.265493 0.898203 -0.371814 -1.094228 -0.114772 0.496375 -0.617235 -1.153362 0.627884 -0.341264 -0.907856 -0.749058 -0.931813 -0.575672 0.198847 -0.538868 -0.030004 0.915499 -0.045251 -0.032574 
0.303890 -0.384326 -0.397680 -0.126553 -0.076324 -0.950064 0.924006 -0.992935 -0.084347 -0.827724 -0.245111 0.345327 -0.197999 0.770041 0.834614 -0.299958 0.293149 -0.372753 0.365464 0.217269 -0.067314 0.326315 0.017995 0.912978 -1.008055 0.114505 -0.851675 0.838913 0.811644 -0.432300 0.609841 -0.194275 -0.791741 -0.034770 0.724591 0.028781 -0.456676 0.359741 -0.124445 0.029072 0.532622 -0.245640 0.457057 0.607790 -0.073175 -0.622438 -0.103171 0.021468 -0.226801 0.423400 -0.679335 -0.153633 
0.508461 0.044746 -0.726745 -0.206000 -0.927546 0.829032 0.093457 0.467800 -0.716180 0.648994 0.820703 0.116811 -0.912005 -0.635752 -0.395760 -0.447846 0.900224 -0.761699 -0.970628 0.372023 0.980158 -0.294133 0.610969 -0.743299 0.191015 0.960895 -0.999859 0.273666 -0.355557 0.304953 -0.330797 -0.454117 0.755563 -0.360997 0.626689 -0.745317 0.077772 -0.492422 0.377308 -0.468099 -0.580140 0.025648 -0.686355 -0.838824 -0.696964 -0.479897 0.925590 0.920991 0.733163 0.213714 0.701537 -0.080005 
-0.098986 -0.006157 -0.929472 -0.158569 0.268532 -0.668625 -0.789926 0.351535 0.168549 -0.385813 0.870967 0.052613 0.584627 -0.782858 -0.583062 0.495626 -0.793477 0.558662 0.981239 0.838014 -0.682378 -0.799853 -0.591730 -1.008688 -0.216970 -0.141517 -0.502600 -0.835846 -0.469629 0.181923 0.600494 -0.424164 0.354854 -0.611843 -0.819307 0.100992 0.015619 0.691871 0.464605 -0.780662 0.605716 -0.909978 -0.210719 -1.085269 -0.475422 0.387065 -0.805545 -0.449307 -0.444990 -0.864085 0.358189 -1.104488 
-0.811324 -0.446325 -0.846423 0.449195 -0.317987 -1.305182 -0.836191 0.160084 -0.975279 -0.019477 0.267802 0.410246 -0.644838 -0.601902 0.136790 -0.953403 0.513990 -0.442965 0.314292 -1.068687 -1.049526 0.559039 -0.968962 -0.918049 0.238083 0.657033 0.598054 0.177735 -0.699954 -0.098118 -1.055129 -1.298322 -0.320489 -0.690623 0.601458 -0.203550 -1.218591 0.719119 -1.310026 -0.406207 -0.005253 -0.796788 -0.799922 -0.384959 -0.136489 -0.316773 -0.098195 0.777541 0.528978 0.576348 -0.351345 0.506051 
-0.480006 0.225548 -1.123800 0.909310 -0.182212 0.553596 0.341446 0.144137 0.592534 0.195772 -0.295081 0.509056 0.002231 0.055717 0.151740 0.189560 0.611562 0.877490 -0.346651 0.473817 -0.227413 -0.809520 -0.748061 -0.604931 -0.935351 -1.002862 -0.445880 -0.054806 -0.088563 0.262589 -0.570887 0.149807 0.184422 0.089058 -0.165439 -0.967138 -0.013459 -0.425342 -0.349101 0.655716 0.141214 0.907176 1.316818 0.729788 0.755549 0.476063 -0.719405 -0.533945 -0.362894 -0.338413 0.197812 -0.008939 
0.716779 0.907653 -0.603500 -0.728099 0.584989 0.125488 -0.097973 -0.936516 -0.443860 -0.140840 0.170535 0.646261 0.096170 0.582010 0.620873 -0.876404 0.206502 -0.446266 -0.276837 -1.122206 0.133648 -0.594071 -0.234678 -0.035776 -0.178962 -1.163840 0.230845 0.601450 0.098736 -0.691229 0.024079 0.433755 -0.275683 -0.204659 -0.557151 0.638973 -0.769009 -0.537117 0.501496 -0.738219 -0.468042 -1.018287 0.275589 0.030672 -0.683904 -0.584766 -0.946886 -0.048490 -0.716124 -0.708803 0.505687 0.105877 
-0.137343 0.928638 0.285477 -0.937443 0.134361 -1.085221 -0.761049 -0.882478 -1.020969 -1.044831 -0.138172 0.469863 -0.228427 -0.801584 -0.720562 -0.678761 0.620519 0.642688 0.576467 -1.011811 0.587613 -0.226518 0.676034 0.648055 0.433190 -0.845321 0.859544 -0.672392 -0.088200 -0.160906 0.119038 -1.155160 0.657731 -0.439992 0.605467 -0.712504 -0.042787 -0.670277 -0.743832 -0.226554 -0.874421 -0.147413 -0.309284 -1.042376 -1.012664 -0.071137 -0.395490 0.487659 0.621314 0.319339 0.038532 0.095375 
-0.244828 0.211852 0.174602 -0.601378 0.819814 -0.749412 -0.921394 0.421662 -0.369770 -0.007156 0.064758 -0.194367 -0.463997 -0.645504 -0.906357 -0.389949 0.039666 0.155518 -0.871927 -0.227081 0.757690 0.644391 -0.768013 -0.885230 0.368286 -1.022270 0.925142 -1.045784 0.220175 -0.598475 0.527391 -0.056930 -0.157046 -0.433302 0.240170 0.400986 -0.043899 -0.718986 0.808223 -0.578664 -0.918994 -0.570224 0.616396 0.198898 -0.893604 0.901899 0.148458 0.645755 1.106715 -0.734628 -0.390406 0.991869 
1.005674 0.781589 -0.247517 1.169503 -0.059511 0.698595 -0.673334 0.955311 -0.220803 0.160318 -0.085206 -0.011823 0.508490 -0.588910 -0.395707 -0.671644 -0.482488 0.404635 0.238960 0.144877 -0.097074 0.050965 0.247665 -0.072612 -0.149285 0.412500 -0.865860 0.032617 0.352508 -0.001748 -0.967495 -0.128464 0.246809 0.594955 -0.817411 -0.679314 -0.581653 -0.951398 0.696832 -0.395956 0.154734 -0.572012 -0.891913 -0.650741 -0.525694 0.250373 -0.771127 -0.846986 0.311780 0.332075 -0.294284 -0.678915 
0.590984 -0.215169 -0.852346 0.230279 -0.647858 0.659897 -0.970083 0.014517 0.317066 -0.675218 -0.329546 -0.280066 0.370892 -0.495027 -0.534458 0.836734 -0.434749 0.300189 0.426917 0.033159 0.845556 0.694041 -0.170371 -1.007103 0.889126 -1.032574 -0.569367 -0.328607 -0.982440 -0.076832 -0.988489 -0.067798 0.739653 0.368237 -0.380993 -0.624043 -0.019462 0.416993 -0.117575 0.273734 0.637936 -0.198661 -0.644410 0.362983 -0.357924 -0.594926 -0.876768 -0.760056 -0.125106 -0.445620 -1.027173 0.584811 
0.598900 0.591589 0.812050 -0.566465 -0.296738 0.218824 -0.335489 0.062510 -0.467045 -0.909840 -0.475285 0.085096 0.727654 0.731427 -0.945885 0.590883 0.573323 0.367429 0.492676 -0.774244 -0.522769 0.280062 0.610224 0.249174 0.835924 -0.772544 -0.120765 0.541276 -0.232756 0.113108 0.441581 -1.126170 0.648643 -0.901559 -0.816002 0.409034 0.030832 -0.441809 -0.327318 -0.313140 -0.791256 0.410552 -0.065962 0.259291 -0.203444 -1.134267 -0.711031 0.494801 -0.594367 0.657382 0.155014 0.173095 
0.446878 -0.271824 0.970892 -0.437408 -0.830089 -0.455507 -0.963234 -0.232912 0.019979 -0.399308 0.699584 0.592381 0.590059 -0.936107 -0.599462 -1.315083 0.313599 -0.903458 -0.599935 -0.442419 0.442344 -0.356300 -0.342681 -0.092985 -0.269797 0.119883 -1.037614 0.593820 -0.523708 -0.305458 -0.997776 -0.817978 -0.270728 -1.004699 0.055462 -0.957808 -0.166371 0.311874 -0.187939 -0.866795 -0.716154 0.478831 0.737635 -0.320355 -0.072153 -0.775432 -0.045892 0.511123 -0.217977 0.500198 -0.183080 -0.956652 
0.778642 -1.067636 -0.401122 -1.882891 0.681886 -0.054366 -0.504183 0.171993 -0.161306 -0.661523 -0.550714 -0.164160 -0.851910 0.140571 0.127109 0.099979 0.533848 -0.888435 0.330588 0.400325 -1.146165 0.079729 0.484117 -0.311447 -0.652777 -0.880302 0.079675 0.658151 -0.029475 0.667234 0.063024 -1.021751 -1.091036 -0.506912 -0.111034 -0.280914 -0.900955 0.696640 -0.181740 -0.340652 0.476211 0.644836 0.397873 0.060303 -0.387987 0.619797 -0.151280 0.386182 -0.763051 -0.806587 0.251587 -1.227704 
-0.047314 -0.141144 -0.159267 0.689043 -0.859111 0.098339 -0.726264 -0.194001 -0.828365 0.209394 -0.375931 -0.681627 -1.250684 0.556032 -0.307303 -0.281586 -0.597530 0.533693 -1.797727 0.701290 -0.329258 0.300489 -0.149123 -0.052718 -1.077528 -0.079369 -0.284937 -1.097079 -1.194511 -0.316417 0.717354 -0.021351 -1.212509 -0.906951 -0.887995 0.402052 0.635108 -0.587025 0.429112 -0.239969 -0.505364 -0.747643 -0.594576 0.531310 0.234123 -0.988549 0.343638 -0.488211 -0.332972 -0.034544 0.507891 -0.371153 
-0.582400 -0.985795 -0.030032 -0.284656 -0.213236 -0.791991 0.759673 0.701195 -0.525513 -0.213403 -0.029479 -0.395894 -0.060420 0.541195 -0.158843 0.417165 -0.971496 0.379718 -0.187848 -0.623888 -0.225919 0.521458 0.103732 -0.168888 -0.276959 -0.060664 -0.385929 0.933730 -0.748276 -0.704710 0.290012 0.233431 0.241496 0.592979 0.013045 0.253313 -0.981069 0.834331 -0.068885 -0.056839 0.561809 -0.734484 0.516244 0.128306 0.749374 -0.082282 0.763646 0.280239 -0.598094 -0.400958 -0.439087 -0.639468 
0.375084 0.166788 -0.610276 0.210397 -0.916913 0.223913 -1.029907 -0.575717 -0.699047 0.168632 0.652899 0.531047 0.614765 0.051819 -0.485575 0.923818 0.515994 -0.731815 0.111200 -0.706070 0.525418 -0.323292 -0.114338 0.114672 0.655607 -0.672026 -0.923550 -0.269598 -0.625728 0.248627 -0.167240 0.538067 0.291500 -0.622318 -0.865535 -0.344883 0.013846 0.000685 0.506399 0.880537 -0.884632 0.376777 0.546103 0.247224 0.489391 0.037921 -0.884194 -0.518769 -0.291880 -0.001842 -1.003059 0.108576 
-0.324239 -0.192907 -0.873922 -1.035083 0.481422 -0.988470 -0.978878 -0.589118 -0.543731 0.400211 -0.262068 0.677154 -1.024235 -0.677369 -1.054412 0.296694 0.414450 -0.429779 0.377873 -1.400498 -0.047220 -0.943869 -0.725512 -0.645615 -0.050108 -0.421037 0.185475 0.909788 -0.731572 0.290348 0.790198 0.231352 -0.105220 0.169227 -0.321936 0.204705 0.698709 0.340256 -0.798453 -0.418219 -0.385108 -0.493546 0.985994 -0.352011 -0.196456 -0.202953 0.644191 -0.741582 0.938780 -0.397645 -1.019468 -0.193198 
-1.290855 0.430414 0.960334 0.783180 -0.507835 -1.229746 -0.198821 -0.915205 -0.259213 0.293385 -1.054334 -1.157479 -0.344712 0.736589 -0.522767 -0.034302 0.215107 -0.964212 -0.675675 -1.343735 0.644757 0.261798 -0.272932 -0.924956 -0.056646 0.606070 -1.073889 0.524032 -0.910744 -0.005693 -0.963479 -0.785195 -0.389785 0.307564 0.480636 0.406565 0.232034 0.826946 0.361945 -1.070243 -0.148161 0.441146 -1.221799 -0.693148 0.155258 0.119598 0.827755 -0.946542 -0.017491 -0.707379 0.586678 -1.048332 
0.057072 -0.193833 -0.693121 -0.398750 0.421300 0.093492 -0.042093 0.540367 -1.031445 -0.083257 -1.142157 0.005359 -0.241385 -0.312914 -0.289426 -0.087904 -0.330358 -0.102570 1.080752 -0.398719 -0.056180 0.811576 0.676780 -0.028237 -0.745667 -0.056712 -0.250460 -1.064441 -1.120741 0.429882 0.151891 -1.132594 -0.450730 0.189199 0.606286 0.318646 -0.301914 0.526289 0.197741 0.171683 -0.146183 -0.293707 -0.888098 -0.090597 -0.852103 -0.544981 -0.802143 0.805475 0.513499 -0.449272 -0.038040 0.797641 
-0.046583 0.563016 -0.612551 -1.238273 0.055917 0.343137 -0.123021 -0.232882 0.024522 -1.027214 0.059589 -0.518897 -0.275989 -0.661890 0.331168 0.636387 -0.599025 -0.027751 -0.248582 -1.132178 0.282008 0.906247 0.134601 -0.191783 -0.932480 -0.355570 -0.393527 0.412829 -0.128185 0.875359 -0.242144 -0.801972 -1.012452 0.834281 0.811612 -0.952548 0.119105 -0.286051 0.071338 -0.541661 0.695876 -0.014158 -0.552814 -0.997273 -0.833944 0.301067 -0.749230 -0.314320 -0.955144 -1.096428 -0.222028 0.769971 
0.265963 0.610115 1.275041 -1.141102 -0.173357 -0.339814 0.039758 -0.015796 -0.989571 -0.608197 -0.270061 -1.112784 -0.694668 0.042233 0.380769 -1.278310 -0.462133 0.737196 0.241105 0.750960 -0.622406 -0.132761 -1.082982 -0.204713 -0.427376 0.296538 0.718015 0.543401 -0.389253 0.103564 0.083882 -1.105755 -1.128991 0.854219 -0.960970 0.464480 0.802344 0.599783 -0.191003 -0.312638 0.731073 0.353863 -0.916054 -0.451636 -0.545379 0.326761 -0.013715 -0.507320 -0.871451 0.135083 0.559474 0.575574 
0.047051 0.681297 0.117628 -0.579819 0.240115 0.541711 -0.522113 0.064049 0.766984 -0.560374 0.752647 0.315796 -0.844449 -0.207008 0.097762 0.874639 -0.158005 0.721855 -0.287223 0.402272 -0.821309 -0.764054 0.349352 -0.289181 0.265216 -0.385298 0.011527 0.366828 -0.694282 -0.972410 0.198754 -0.817902 -0.147279 -0.180126 0.067148 -0.607235 0.406674 0.111773 0.924572 0.070763 0.046074 0.755646 -0.489667 0.790660 -0.176369 -0.771639 -0.665771 -0.532224 -0.525458 -0.723789 0.324057 0.618674 
-0.001857 0.683893 -0.598835 -1.245375 -0.140954 0.474872 0.763704 0.624964 0.086563 0.084961 -0.223428 0.251319 0.008838 0.013694 0.016393 0.578692 0.070602 0.298476 -0.818926 -0.638784 -1.045071 -0.437312 -0.044712 -0.942104 -0.617536 -1.222135 0.607412 -1.106647 0.017618 -0.596183 0.566264 -0.623083 0.285555 0.145854 -0.556087 0.261750 -0.746635 -0.289432 -0.288589 -0.063128 -0.489459 -0.055028 1.125367 0.404946 -0.396416 0.248460 -0.275394 -0.593389 -1.077753 -0.695222 -0.764121 -0.495168 
-0.508984 -0.046514 0.581606 -0.679197 -0.103107 -0.874687 -0.799314 -0.028441 -0.036511 0.345890 -1.237615 0.552461 -0.679251 -0.056403 0.186951 -0.337090 -0.486769 0.284689 0.348832 -0.791433 -0.261498 0.500265 -0.920868 0.564801 -0.219622 -0.199525 0.737930 -0.504886 -0.742334 0.200568 -1.081555 -1.076152 -0.970453 -0.984391 -0.621283 0.199836 -0.836176 0.147187 -0.497316 -0.292749 -0.314943 0.697052 -0.899234 0.099059 0.236575 -0.457061 0.165283 0.061923 -0.942232 -1.018256 -0.141071 -0.066747 
-1.257073 -0.689425 -0.600416 0.727842 -0.721887 0.164185 0.195961 0.800685 -0.311463 -1.296989 0.138133 0.647430 -1.003172 -0.354066 0.590448 -0.041264 -0.501035 0.923064 0.506187 1.376839 -0.632291 0.263609 0.744056 0.205691 0.326388 -0.910022 -0.936872 0.643929 -0.009227 -0.600350 0.214195 0.667138 -1.078683 0.789826 -0.365249 0.703141 -0.884930 0.761821 -0.932070 -1.134585 -0.780522 -0.722006 -0.829025 0.110270 -0.145442 0.149954 0.062898 -0.551369 -0.076381 -0.237285 -0.498899 0.351984 
-1.203279 0.915423 -0.234212 0.591789 -0.223798 0.637478 0.591050 0.227097 -0.375314 0.590792 -1.035672 0.239484 -1.056509 -0.782763 -1.073945 -0.612474 -0.386086 -0.813577 -0.306395 0.044888 -0.432629 -0.326251 0.217507 -0.831340 0.005366 0.034906 -1.351025 0.022510 -0.162543 0.071160 0.130391 0.202809 -0.807395 0.473487 -0.833507 0.032163 0.211715 -0.995484 -0.586407 0.644671 -0.583728 0.876818 -0.132460 -0.494639 0.296151 -0.906815 -0.615152 0.960144 -0.097594 -0.856979 -0.529957 -0.020826 
0.065245 0.649570 -0.074013 -0.167323 0.458699 0.199557 0.032068 -0.467970 -1.266753 -0.070710 -0.154594 0.485604 -0.333653 -0.407233 -0.069021 -1.122503 0.353370 0.314258 0.734263 -0.444716 0.163613 0.173380 0.545488 0.687986 -0.955928 0.274884 -0.958836 0.010996 -0.321012 -1.120008 -1.089101 -1.067364 -1.399301 -0.815294 -1.011258 0.132292 -0.492089 -0.408062 0.385495 -0.178244 -0.759641 0.571801 -0.988979 -1.010069 0.363533 -0.042996 -0.564281 -0.588139 -0.784480 -0.901413 0.411230 -0.591687 
0.308975 -0.795875 0.004340 -0.386578 0.601506 0.022747 0.614175 0.433510 -0.682007 -0.423389 -0.020941 -0.216022 -0.478806 -0.993496 0.506892 0.626369 0.402873 -0.317129 -0.233606 0.833209 0.687201 0.090917 0.090561 -0.090980 0.662738 -0.820291 -0.121145 -0.572463 0.676640 -0.530683 -0.194223 -0.343002 -0.282807 0.638654 0.534230 -0.599358 -0.016814 0.801490 0.190174 0.524061 0.380330 -0.428950 -0.419998 -0.950746 -0.279853 0.611436 0.067699 0.388051 -0.054119 0.572704 0.358641 0.539540 
0.723321 -0.282334 0.089265 0.458031 0.619197 0.017816 -0.187111 0.828520 0.457894 0.011503 -0.084194 0.349176 -1.035399 -1.026026 0.849072 0.151376 0.200815 0.469460 -0.058948 0.458343 -0.893070 -0.457181 -0.073138 -0.916397 -0.707266 0.543959 0.452218 -0.042939 0.154249 -0.158849 -0.416317 -0.700779 -0.572662 0.604257 0.261569 0.364605 -1.103348 0.108827 0.646601 -0.377543 0.012019 0.377826 0.064164 -0.048225 0.027271 -0.643234 0.563057 -0.545996 -0.448853 -0.130576 0.183123 0.689084 
-0.162972 -0.729001 0.764833 0.285885 0.276498 -0.577643 0.181628 0.606243 0.266441 -0.026800 1.108896 -0.173341 -0.127068 -0.951987 -0.831202 -0.221182 0.119317 0.565836 0.634498 0.717820 0.352373 0.908502 -0.032105 0.806046 0.582186 0.500991 0.097168 0.124428 -0.006517 0.584314 -0.291515 0.702570 0.752236 -0.671289 0.846584 -0.231944 -0.254303 -0.210012 0.227378 -0.444355 0.897176 -0.489947 -0.083648 -0.212535 0.463388 -0.878143 -0.088527 0.273526 -0.903045 0.754545 -0.045172 -0.768247 
-1.078680 0.102409 0.326281 0.430393 -0.257020 0.529343 0.647755 -0.383591 0.577121 -1.165011 -0.144655 -1.123271 -0.997301 -0.619426 -0.979566 -0.037022 -0.732590 -0.984342 0.383384 -0.821092 -0.106881 -0.316114 0.699152 -0.900951 0.264700 -0.016051 -0.236254 -1.105656 0.633649 -0.267790 -0.594970 0.300180 0.172084 -1.038690 -0.750797 -0.734176 -1.088015 -0.130305 -0.400462 -1.136188 0.397156 -1.209855 0.282441 -0.045017 -1.026290 -0.979623 -0.942336 -0.812411 0.434940 -0.900273 -0.661999 0.147977 
-1.099263 0.697152 -0.976611 -1.099805 -0.652851 0.164759 0.184857 -0.407046 -1.078665 -0.876216 0.336123 -0.982717 0.646941 -0.401738 0.353368 0.614874 0.671120 0.292995 1.442636 1.292816 -0.269426 -0.093733 -0.573841 0.069288 0.088113 0.179398 -1.154671 -0.886119 -0.448934 -0.573407 -0.598264 -0.703996 0.229538 -0.693053 0.616158 0.684377 0.436646 0.261068 -0.069081 0.257540 -0.915945 -1.253253 -1.018801 -0.608808 -0.581556 -0.567098 0.818367 0.797752 0.595991 -0.273739 0.509200 0.009432 
0.520800 0.698428 0.606674 0.399428 -0.015880 0.135118 0.307177 0.457741 -0.222354 -0.549128 0.431844 -0.482644 -0.634462 0.059241 -0.954584 -0.653573 -0.156669 0.892043 0.532372 0.799052 -0.091111 -0.970609 0.738287 -1.277534 0.645829 -0.426979 0.812037 -0.086615 0.461603 -0.681968 -0.659947 -0.673189 0.390128 -0.612430 0.424541 0.268148 -0.504622 0.369939 0.369222 -0.515116 0.585817 -0.859608 -0.670089 0.504135 0.043238 -0.118168 -0.088172 0.269274 0.729915 0.003429 -0.210833 -0.674965 
-0.035420 -0.426502 0.667180 -0.363625 -0.989544 -0.411698 0.010253 0.616217 0.087401 -0.088670 -1.057950 -0.139566 -0.199794 0.496059 -0.847457 0.933404 0.443382 -0.904627 -1.047313 0.333120 0.127364 0.438326 -0.681451 -1.008911 0.620635 0.777265 0.147791 -0.604884 0.668180 0.892937 -0.709198 -0.177589 -0.395120 -0.035398 0.296868 -0.098075 -0.083011 0.867518 -0.348693 -0.341162 -0.186261 0.340939 -0.222195 -0.470213 0.788123 -0.433923 -0.682296 -0.506825 -0.512078 -0.586493 0.117269 0.453483 
-0.693431 -0.797708 -0.712118 0.915128 -0.454152 -0.026578 0.237691 -0.761329 -0.066431 -1.270034 0.915007 0.263128 -0.143251 0.703181 -0.126299 0.814104 -0.990730 0.113142 -0.211905 -0.640834 -0.620815 -0.338161 0.506583 0.605220 -0.494524 -0.999174 -0.839336 0.010412 0.367264 0.368902 -1.099404 0.202266 0.245625 -0.556127 0.577764 -0.576595 -0.302817 -0.596782 -0.698931 -0.804960 -0.081802 0.411057 -0.640320 -0.745269 0.305598 0.341627 0.429346 -0.954707 0.793762 1.035777 -0.960244 -0.577304 
-1.260067 0.329023 0.084256 -0.918362 -0.558781 0.551910 0.857750 -0.941039 0.119344 -0.928152 -1.072135 0.642463 -0.246258 0.902433 -0.068135 0.551370 0.523729 -0.675412 -0.138057 0.227970 0.599924 0.196854 0.470663 0.622849 -0.610081 -0.720643 -0.162086 -0.045671 -0.838966 -0.493066 -0.412032 -1.046565 -0.622771 0.022241 -0.158097 -0.256761 0.018629 0.958255 -0.308740 -1.145021 -0.004115 -1.118143 0.901835 0.350951 -0.262330 0.690868 0.165503 -0.914939 0.074935 0.418363 -1.010913 -0.783176 
-0.947013 -1.058131 -0.879701 -0.838141 0.479418 -1.204432 -0.907000 0.164813 -0.060269 0.206463 -0.446257 -0.770522 -0.290090 -0.339528 -0.952344 -0.240850 0.206441 0.861072 0.739202 -0.303690 0.337931 0.077104 0.740216 0.245419 -0.645695 -0.746114 0.464934 0.595510 0.249807 0.105546 -0.410509 0.602413 -0.315594 0.828936 -0.269769 -0.889362 0.094935 0.196667 0.473908 -1.405686 0.182768 -0.751930 -0.336244 -0.695458 0.075522 0.337090 0.645451 -0.895097 0.218980 -0.716051 0.156106 0.044933 
-0.284178 0.339185 -0.923781 -0.827704 -0.962845 -0.120115 -0.627120 0.452258 0.811814 -0.402426 0.789294 -0.111186 -0.644640 0.385594 0.627362 -0.751910 -0.391053 -0.152714 0.662153 0.801304 -0.727542 0.621902 0.161892 0.684548 -0.171458 0.433436 0.075429 0.194006 -0.679966 -0.977522 -0.417810 -0.931544 0.627000 0.684633 -0.435788 -1.024908 0.247559 0.631778 -0.802767 -0.211876 -1.012595 0.849509 0.630672 0.147597 -0.192709 0.173131 -0.220346 0.636987 -0.002763 0.798352 -0.529543 -0.153453 
0.518433 0.820480 0.095511 0.653006 0.332495 -1.200757 -0.349477 -0.608967 0.132786 -0.911727 0.095851 -1.034736 -0.872323 -0.455115 -0.319503 -0.729636 0.617602 0.789831 -0.810922 -0.475708 -0.478473 0.308411 0.742167 -0.717379 0.241336 -0.053012 -0.602288 0.121205 -0.414621 -1.165485 -0.895702 -1.242210 -0.318253 0.812960 -0.973910 -0.441384 0.340891 -0.505080 0.257633 -0.668905 -0.090608 0.340679 0.466462 -1.247946 -0.499988 -1.189192 -0.413741 -0.772138 -0.157944 -0.406197 -0.725037 -0.312090 
0.302668 -0.269445 0.740788 0.349141 -0.245399 -0.640017 -0.267834 -0.921776 -0.215549 0.213150 0.233945 0.494463 -0.490679 0.789874 0.102931 -0.821204 -0.993466 0.887378 -0.034812 -0.964211 -1.009866 -0.692264 -0.200548 0.739057 -1.012278 -0.141857 0.191790 0.141165 -1.073419 0.330785 0.676502 -0.237554 -0.461703 0.865264 -0.592013 -0.743608 0.131175 -0.713194 -0.904872 0.062946 0.252549 -0.958462 -0.342699 -0.096310 -1.005011 -0.291805 -0.056730 0.406373 -0.414018 -0.464484 -0.111495 0.044619 
