-0.768471 -0.662218 0.773397 0.084172 0.192135 -0.624576 -0.763821 0.509916 0.476209 0.883509 -0.205123 -0.012341 0.640861 -0.772399 -1.004647 0.075410 0.475737 -1.209506 -0.178845 -0.728999 -0.887566 0.560582 -0.118460 0.854471 0.549641 -0.188532 -0.531676 0.472748 -0.160378 0.547653 0.723027 0.433400 -0.507335 -0.862411 0.599059 -0.409441 0.195860 1.168183 0.816541 -0.423560 -0.606376 1.023926 0.560236 0.622356 0.553478 -0.952736 0.279957 0.976542 -0.863141 -0.164462 0.276687 0.259994 -0.154403 -0.114329 -0.335942 -0.439796 -0.016016 0.683727 1.222651 -0.976292 0.835979 -0.208287 -0.165271 -0.050694 0.469677 -0.096364 -0.427546 -0.779171 0.869600 -1.003688 0.079401 0.043767 -0.576094 0.776029 -0.250923 0.200292 0.836030 -0.780982 0.602743 0.303509 
0.867065 -0.707689 -0.775276 0.522244 0.851837 0.144211 0.614507 0.603038 1.045428 0.842402 -0.511022 -0.466025 -0.295144 0.125065 0.055631 0.670890 -0.084694 0.580785 -0.426871 -0.083281 -0.432890 0.108999 -0.592363 -0.609048 -0.692259 -0.051639 0.903522 -0.768404 0.076413 0.148943 0.808137 0.418460 0.213273 0.828852 0.373738 0.370883 -0.882683 0.140356 0.396786 -0.878053 -0.917579 -0.423201 -0.822429 -0.059571 -0.709132 0.017903 0.892477 -0.341982 -1.172015 -0.371622 0.567969 0.611671 -0.279816 0.689832 -0.291656 -0.013162 0.082089 -0.734493 0.496385 0.487789 0.325045 0.699070 -0.102291 -0.363011 0.426805 -0.286994 -0.676195 0.221166 -0.521692 -0.174177 0.005279 1.106025 -0.906475 -0.656372 -0.608117 0.570254 -0.803569 0.260427 0.333970 0.386092 
-0.384363 -0.057930 -0.512633 -0.553784 -0.841305 0.893603 0.011286 -0.519513 0.889480 -0.099837 -0.365867 0.696696 -1.044257 -0.457097 -0.953016 -0.417216 -0.544988 -0.726865 0.529892 0.203655 -0.820053 -0.070986 0.609842 0.403891 0.297782 -0.745890 0.471590 0.963384 -0.553252 0.798041 -0.159767 0.124793 0.192826 0.603038 0.770262 -0.002261 1.114991 0.760396 0.273006 0.437796 0.264633 0.382986 1.207985 1.006112 0.737683 -0.554497 0.058464 0.492065 -1.193737 -0.032421 -0.025679 0.942003 0.106610 0.715403 0.770128 0.447095 1.125842 0.468595 0.817792 -1.095232 0.987261 -0.261860 -0.085351 -0.894363 0.182513 0.077748 0.326592 0.409007 -0.522887 0.682533 0.808590 0.880865 -0.077333 -0.635443 -0.460392 0.967377 -0.557050 -0.115007 -0.272033 -0.390361 
0.570567 -0.208800 -0.548404 0.671118 -0.159274 -0.634471 1.211545 -0.472919 0.280532 0.384549 -1.135039 -1.223835 0.391967 0.793414 -0.434730 -0.299374 0.415585 0.721922 -0.574140 0.952006 -0.114128 0.781826 -0.715975 -1.297380 0.417159 0.019040 -0.483339 -0.418684 -0.903151 -0.109004 0.751334 1.159643 -0.134913 -0.482375 0.607503 -0.403708 0.810509 0.737346 0.262689 -0.531192 -0.708212 -1.000119 -0.419100 1.063801 -0.385421 0.236089 -0.746822 0.098861 -0.323065 -0.294194 0.582321 -0.454708 1.018528 -0.308835 -0.518100 -0.570973 -0.097342 0.498837 0.607936 0.374921 0.560613 0.219749 0.600948 0.363345 -1.104858 0.435429 -0.530774 -0.348802 0.401914 -0.913342 0.601966 0.087160 0.088654 0.240718 -0.507900 0.474185 -0.741873 -0.644107 0.026384 0.548948 
0.125674 0.016910 0.349652 -0.185227 -0.624551 0.054396 -0.166337 0.339747 0.058888 -0.050859 -0.867466 -0.500339 -0.286641 0.044359 -0.168349 -0.433435 -0.093770 -0.822688 -0.252727 -0.217378 -0.268160 0.502241 0.024309 0.657001 0.507001 0.557796 0.081406 1.022155 -0.426218 0.038832 -0.125152 0.574307 -0.022053 0.263148 1.024578 -0.855913 0.432181 -0.458994 0.246039 -0.283333 0.554934 -0.971472 -0.479108 0.383292 0.201834 0.858129 -0.504095 1.048258 -0.675804 0.844778 0.173538 0.167053 0.742502 -0.757550 -0.515740 0.598123 0.514076 0.122470 0.202059 0.182768 0.950748 0.173894 -0.141043 0.601662 -0.777239 -0.857901 0.001582 -0.785205 -0.688341 0.658387 0.642805 -0.155752 0.043135 -0.853767 -0.601657 0.112009 -0.891525 0.096947 -0.093735 -0.644962 
-0.683679 0.189327 0.667835 0.508237 0.165602 -0.505119 0.790223 -0.072494 0.308043 -0.299779 -0.859743 -1.053687 -0.108406 0.518912 -0.666848 -1.058458 -0.925512 -0.641194 0.471805 -0.300651 -1.134694 -0.065144 0.093417 0.312180 -0.010202 -0.879128 -0.364876 0.860115 0.315592 0.159908 0.197340 -0.268564 -0.782635 1.012214 -0.012179 -0.999233 0.665352 -1.202850 0.172016 -0.079656 -0.236909 0.399852 0.398934 0.169860 -0.493512 -0.947785 0.898277 -0.433786 0.041590 0.324497 -0.135774 -0.493749 0.066292 1.122552 -0.377038 0.764112 0.732108 -0.577800 -0.296695 -0.033291 0.587097 0.615512 -0.173010 0.512503 0.226545 0.066967 -0.460360 0.400695 -0.545743 -0.730102 -0.695799 -0.038531 -0.863751 -0.541648 -0.181481 -0.084000 -0.753967 0.377053 -0.137676 0.407162 
-0.863096 0.785048 -0.696804 -0.928075 0.078660 0.565378 1.025740 -0.400671 -0.370501 0.469197 -0.245159 0.506526 0.358127 0.329469 0.466198 -1.142374 -0.608662 -0.510581 0.158957 0.281831 0.387507 0.138373 -0.558800 -0.217459 0.132934 -0.816040 0.680706 -0.479943 -1.000253 0.291215 -0.936921 0.833837 0.254345 0.292666 0.854924 -0.658251 0.244296 0.351196 0.339077 -0.414974 -0.317518 -0.047286 0.533480 -0.772031 -0.095559 1.136207 -0.124072 -0.275602 0.341576 0.599334 -1.053900 -0.069842 -0.202433 0.971033 0.896366 -0.403313 -0.955285 -0.796087 0.184761 -0.297066 -0.334831 -0.785390 0.571519 -0.414301 -0.317546 -0.162925 0.453956 -0.031674 0.948565 0.397807 0.752052 0.540796 -0.106689 0.949262 -0.256122 -0.050673 0.118735 0.026685 -0.186365 -0.929966 
-0.887277 -0.329285 0.188798 -0.411049 -0.670536 -0.500174 0.752869 0.115757 0.413871 0.540686 -0.556518 0.730702 -0.346316 -0.501560 -0.863700 -0.227452 -0.566018 0.862471 0.054769 -1.037436 -0.150021 0.363446 -0.173198 -0.797778 0.874221 -0.894626 0.462332 1.098989 -0.768805 0.201563 -1.053054 -0.246473 -0.190087 0.041799 0.756885 1.095442 0.621102 -0.254798 0.780655 0.426135 -1.201456 -1.070070 -0.738460 0.630808 -1.157346 -0.157057 0.775996 -0.428297 -0.236184 -1.122266 -0.174808 0.639594 0.418640 -0.615732 0.269172 -0.524790 -0.307886 -0.270669 0.027186 0.319237 0.326719 0.976871 -0.093467 -0.788819 -0.106561 -0.617552 0.558048 -0.075093 0.903386 -0.458394 -0.458635 -0.001293 -0.522377 -0.023623 0.468130 0.967352 0.542783 0.616810 -0.320747 -0.506513 
0.887308 0.278311 0.080991 0.860923 0.428106 0.790489 0.139308 0.132604 -0.556863 0.869563 0.815952 -0.469129 -1.372539 -0.513770 -0.707664 -0.912146 0.532282 -1.073319 0.173683 0.343174 0.474623 -0.101310 0.265723 0.302044 -1.152206 -0.970136 -0.019119 -0.076696 -0.867813 -0.743178 0.670332 -0.760227 -0.253674 0.226892 -0.593295 -0.708154 0.234455 0.442072 0.401541 -0.285662 -0.050179 0.756457 0.602047 -0.055300 -0.528939 0.786756 0.817150 0.092669 0.862673 -0.027985 -0.192169 -0.522445 1.347024 -0.228574 -0.677353 -0.265895 0.547587 0.075682 -0.298140 0.028423 -0.107680 0.285524 0.064098 0.090243 0.135698 0.173939 -0.606854 0.096088 0.565751 -0.951846 -0.827251 0.590505 -0.569477 -1.037409 -0.693672 -0.858649 -0.509754 0.226561 0.119982 0.262101 
0.655304 0.555178 -0.639726 -0.043843 0.345481 0.775644 -0.142037 -0.113351 -0.132576 0.413008 0.564999 -0.197202 -0.133724 -0.886931 0.477020 -0.075878 0.974613 -0.305296 -0.084540 -0.116138 1.166592 0.623413 0.304885 0.830565 -0.013077 -0.998770 -0.804636 0.995537 -0.483482 0.288752 -1.148272 0.713829 -0.347371 0.738302 -0.561876 0.934707 -0.199826 -0.269573 -0.151376 0.567468 -0.304504 -0.818025 0.472592 -0.716458 -0.230439 -0.547188 -0.347100 0.090710 -0.281076 -0.476046 -0.980913 0.395325 0.173304 -0.971449 -1.034493 0.859960 0.420099 -0.229985 0.195496 0.065797 -0.502457 -0.613231 -0.939953 -0.589420 0.123015 -0.500222 0.909943 -0.079618 -0.169243 0.254584 -0.316947 -0.164602 0.021645 0.569752 0.109657 0.823678 0.288963 -0.437747 0.195414 -0.795034 
0.666157 0.159013 0.179995 -0.422573 0.789254 0.170975 -0.187416 0.442553 -0.113476 0.892771 0.658104 0.465108 -0.165681 0.305950 -0.216070 -0.734233 1.070444 0.501754 0.779810 -1.098829 0.442355 0.799085 0.001860 -0.910886 -0.381940 -0.407776 -0.630501 0.521441 0.174881 0.584518 0.643591 0.329175 0.292765 0.792714 0.400529 0.101076 -0.674994 0.047508 -0.363793 0.278754 -0.747750 -0.750325 -0.624078 0.055796 0.252078 -0.974236 -0.058097 0.830615 -0.182426 0.273050 0.689450 -0.168579 0.927471 0.195045 -0.530795 -0.675479 0.211321 0.118848 -0.119063 -0.637420 0.384171 0.833384 -0.284172 -0.671849 -0.607089 -0.971482 1.079696 -0.143532 -0.475176 0.903511 0.737366 0.000020 -1.170331 -0.836542 -0.663849 0.282437 -0.275977 -0.028277 -0.125911 -0.369494 
0.133904 0.529757 -0.850456 -0.658886 0.413347 0.863779 0.427878 -0.295209 0.554513 0.581917 1.387455 -0.005913 -1.465149 -0.377139 0.484756 0.097791 0.529812 0.489557 -0.191387 -0.549663 -0.342786 -0.246664 0.370121 -0.856580 0.057005 0.110463 0.706982 -0.355047 -0.644942 0.183165 -1.135998 0.995191 -0.199484 0.037753 -0.758293 -0.194120 -0.203846 0.922492 -0.887380 -0.072892 -0.993247 0.061152 -0.093039 -0.596458 0.221248 0.315324 -0.787798 0.380043 -0.445477 -0.165542 0.087384 -0.027572 0.161982 0.128932 0.140233 -0.383229 0.123484 -0.072155 -0.589364 -1.831706 -0.250787 0.167553 0.772266 -0.122147 0.959288 -0.540843 -0.506195 -0.340904 0.887056 0.137884 -0.178473 -0.005238 0.058426 0.691871 -0.445564 -0.911924 -0.317674 0.132852 0.475899 0.771941 
-0.497062 -0.533362 0.076715 0.705596 0.225272 0.211844 0.987585 -0.774135 0.775741 -0.570716 1.143947 0.181050 -0.886657 -0.107221 0.258048 0.487677 0.526570 0.237318 0.506968 0.056762 -0.397409 0.373714 0.061231 -0.473660 0.905773 -0.305710 0.692557 -0.479526 0.999626 -0.793931 -0.311060 0.625578 0.793735 -0.341954 -0.361353 0.274643 1.087306 0.490189 0.344249 -1.316939 0.790497 0.280429 -0.768048 -0.414292 0.561413 -1.208183 -0.491350 0.739521 -0.329611 0.276745 0.663873 0.820283 -0.087771 0.619598 -0.180615 -0.627156 -0.575717 0.694408 0.131453 0.044744 0.973000 -1.117491 -0.239671 0.672184 0.156268 0.350520 0.284059 -1.045679 0.460831 -0.483569 -0.041396 -0.866268 -1.458074 0.541949 1.034124 -0.167560 -1.116950 0.352623 0.006436 0.056606 
0.894310 0.115690 0.203820 -0.568330 0.004141 -0.449654 0.871876 -0.313173 0.757833 -0.004801 -0.461227 1.085431 0.821615 -0.889947 -0.911877 0.510000 -1.181653 1.056686 0.262749 0.278618 -0.906710 -0.431792 0.320331 -0.252068 0.417928 0.099452 -0.143908 -0.756911 0.915549 0.330589 -0.577393 0.010970 -0.185295 0.678006 -0.835932 -0.573984 0.668785 0.215260 -0.799365 0.095566 -0.790130 -0.699543 -0.687471 -0.186310 0.427282 0.395062 0.530819 0.384567 -0.865547 -0.628402 -0.591617 -0.195259 -0.387268 0.411944 -0.210031 0.973547 0.290994 -0.078633 -0.427130 0.623709 1.531515 0.369506 0.856883 -0.345301 -0.383684 -0.613005 0.220710 -1.146027 0.981622 0.459969 -0.689642 -1.173325 -0.443772 0.510757 -0.753855 -0.567086 -1.067360 0.764409 -0.715897 -0.655266 
-0.231966 0.703988 -0.474989 -0.594026 -0.394478 -0.006901 -0.588431 1.034623 0.603527 0.374361 0.455776 -0.225945 0.975985 -0.622359 -0.756677 0.613954 -0.090336 -0.890131 0.440254 -0.686561 0.494257 0.349341 -0.286354 -0.030079 -0.700622 -0.229969 -1.079814 0.821270 0.660474 -0.202621 0.336230 0.846498 1.003432 -0.735506 -0.283309 1.041617 -0.187035 -0.248486 -1.200832 -0.467211 0.689211 0.812932 -0.184962 0.745401 -0.108799 0.049116 -0.070927 0.040585 -0.620501 0.835204 0.129183 0.889497 -0.512227 0.516066 -0.304852 0.367513 0.820498 -0.032950 0.021410 -1.123947 0.470960 -1.046248 -0.049744 -0.476066 -0.130151 0.207729 -0.727822 -0.244192 0.932717 -0.569999 -0.539179 0.294451 -0.689088 0.754177 -0.675899 -0.881786 0.446105 1.022383 -0.861257 -0.939134 
0.497984 -0.714355 0.449769 -0.644998 -0.140608 0.586824 0.317972 -0.713039 1.217249 0.695170 0.334449 -1.122161 -0.083069 0.832412 0.788857 0.169426 0.737219 -0.627118 0.391293 0.203303 -0.711670 -0.862862 -1.189382 0.070185 -0.520680 0.739745 -0.975838 -0.056280 -0.251244 0.707957 0.519834 -0.030122 -0.161518 0.196209 0.158267 0.443158 -0.414930 -0.702019 0.487042 -0.080744 0.285623 0.150080 -0.108463 -0.656832 -0.718543 -0.499378 0.295279 0.087046 -0.321735 0.917915 -0.761325 0.196135 -0.708660 -0.419076 0.741774 0.805266 0.411381 1.463218 0.562132 0.589603 0.493730 -0.482275 0.461915 0.358813 1.036344 -0.448942 -0.533609 0.059542 0.813840 -0.113644 -0.170735 -0.068542 -0.408179 0.902659 0.884492 -0.636338 -0.176978 0.626934 -0.414920 -0.184141 
0.199871 -0.962787 -0.409459 -0.760346 0.687338 -0.167367 0.443699 -0.072784 0.710400 0.486761 0.699438 0.089519 1.069985 -0.978783 0.330800 -0.497000 0.029707 -0.002119 0.036509 -0.286017 0.469452 -1.374062 -0.191686 0.097308 0.358994 -1.053354 -0.232375 0.433493 -0.420085 0.868818 0.921429 0.695789 0.657463 -0.345003 0.483766 -0.474212 0.297203 0.318264 -0.634253 0.161883 0.310112 0.054029 0.613534 0.316533 0.419428 0.766651 0.292992 -0.741680 -0.797579 0.126011 -0.437479 0.395510 -0.262270 0.323434 -0.644924 0.737093 0.489194 0.300820 -0.774713 0.636801 0.406207 -0.504793 0.361678 0.301111 0.152105 0.134141 0.916727 0.431967 -0.554604 -0.980374 0.313828 -0.380358 -1.028906 -0.595162 0.216995 0.159202 0.100465 0.843609 -0.225044 -0.177755 
-0.363432 -0.814426 0.581740 -0.282145 -0.722140 -0.228594 0.353501 0.160258 0.510519 0.198437 1.475537 -1.074146 0.058240 -0.764122 1.123192 -0.128462 0.643362 -0.814526 -0.015531 -0.705179 -0.309677 0.744333 -0.112244 0.699305 0.955446 0.199713 -0.768908 0.738881 -0.641955 0.255315 0.213542 0.706735 -0.014341 -0.746286 -0.719590 -0.372680 1.133863 0.148498 0.591686 -0.234235 1.037889 0.923064 -0.094145 -0.332040 -0.278455 -0.107160 0.894094 -0.789384 -0.458033 0.544503 0.752676 0.400768 0.417839 0.289824 -0.075414 -0.689631 -0.083523 1.152292 -1.030609 -0.481091 -0.659053 -0.690549 -0.520623 0.577180 0.530703 0.173634 -0.259080 0.207977 -0.344220 -0.871458 0.804292 -0.184183 -0.678276 0.370697 0.835632 1.200769 0.192864 -0.438224 -0.612340 -0.750574 
-0.595785 -0.723854 -0.277794 0.052138 0.983924 -0.374495 -0.961504 -0.949061 0.545117 0.807327 1.511751 0.119194 -0.573920 0.381290 0.675949 0.921132 0.874620 -0.332054 0.062802 0.793860 -0.709984 -0.589874 -0.029581 -0.342821 0.815226 0.975677 -0.961021 -0.313488 -0.119979 0.635425 0.589444 -0.940733 0.456765 0.634618 -0.449531 0.678122 0.240871 0.333042 -0.000153 -0.255700 0.003148 0.630179 -0.318497 -0.275946 -0.616853 0.737286 0.396689 0.091937 -0.373535 -0.763156 -0.486203 0.020652 0.023293 -0.674721 1.075225 -0.269502 -1.372866 0.102900 -0.127716 1.027107 -0.666585 -0.140329 -0.427662 -0.004182 -0.474548 -0.589688 -0.140286 0.423014 0.249856 -0.961363 -0.262023 -0.796297 0.134398 0.024457 -0.211474 -0.225948 -0.099995 0.681764 -0.317374 -0.875729 
1.082680 -0.687420 -0.850757 0.956131 -0.217373 -0.810473 0.997694 -0.708127 -1.166244 0.961746 1.092656 -0.418282 -0.835400 -0.262401 -0.099851 -0.378320 -0.067294 -0.258838 0.921392 0.744963 0.255950 -0.215636 0.628425 0.673783 0.703982 0.767937 -0.550738 1.042530 -0.464434 -0.351228 -0.415007 0.112548 0.939728 0.461952 -0.240905 0.419307 0.127070 -0.842813 -0.666454 1.287373 0.197509 0.885589 0.908321 -0.388772 0.195448 1.207902 0.214190 0.454437 -0.738379 -0.514388 1.224566 0.773230 0.516190 -1.284034 0.602119 -0.326421 0.554651 0.030170 -0.543427 0.006354 0.518696 0.284919 -1.253798 0.764649 0.657673 0.161270 -0.880148 0.718493 -0.871957 0.943443 -0.419444 0.214665 0.709061 0.381080 0.853903 0.408881 0.692188 -0.415779 0.625990 -0.395330 
0.149489 0.915656 0.153709 -0.103900 -0.581936 0.736058 -0.533596 0.115397 -0.583030 -0.421846 1.059771 -0.622169 0.051598 -0.248523 0.107089 -0.158203 0.410972 -0.543694 -0.787822 0.626108 -0.458207 -0.170448 0.608746 0.746009 0.447167 1.058855 0.017637 -0.166803 -0.519860 0.296492 -0.591092 0.129940 -0.127896 -0.496118 -0.325702 -0.232549 0.532232 1.383876 0.494910 0.995123 -0.812029 0.939364 -0.670175 -0.150928 -0.699484 0.711817 -0.936972 -0.182707 0.889284 -0.579539 -0.058083 -0.467487 -0.400064 -0.636588 0.152684 -0.299061 -0.992346 0.466954 0.957776 0.123852 -0.310856 -0.820834 -0.769311 0.102600 0.738279 -0.145285 0.060189 -0.590440 -0.694290 -0.722653 -0.249272 1.306060 -0.389012 -0.672884 -0.113871 -0.054589 -0.027855 -0.733974 -0.110177 -0.164887 
-1.057895 0.020829 -1.171527 -0.573939 -0.060545 -1.022397 1.046715 0.952580 -0.693450 -0.206064 0.595998 1.021597 -0.773171 0.282711 0.085702 -0.898414 -0.120724 -0.325102 0.600207 -0.695146 -0.915019 -0.580682 -0.390062 -0.047608 -0.339913 -0.211672 0.698997 -0.455621 0.756063 0.554851 0.880806 -0.518345 -0.409029 0.083846 0.472264 0.011041 0.424882 0.210934 0.661643 0.097211 -0.780901 0.743320 1.073435 0.152771 1.096665 -0.232863 0.253383 0.495896 -0.313690 -0.913440 0.100550 -0.611031 -0.356105 0.737045 0.753015 -1.046215 -0.080714 0.548044 -0.309056 -1.081310 1.018568 0.937447 -0.126726 -0.024536 0.420342 -1.535567 0.559511 0.393481 0.134718 -0.650836 -0.582436 -0.263810 -0.403507 -0.715839 1.068297 0.841834 0.600829 -0.741546 -0.691392 -0.511890 
0.284556 0.045232 -0.216259 0.766321 -0.288831 -0.452240 0.617635 0.921333 0.617978 0.295729 0.275173 0.703890 0.047190 0.322385 0.381483 -0.470039 -0.084659 -0.501616 0.814276 0.063304 -0.162070 0.871148 0.088198 -0.329628 0.251010 0.221840 0.409973 -0.065336 -0.535371 -0.154766 -1.058085 0.176094 -0.867006 0.095688 0.021338 0.336355 0.787696 0.850183 1.110466 -0.716365 0.624255 -0.972422 -0.765737 -0.884512 0.614181 -0.498879 0.664543 -0.758891 -0.707942 0.625340 -0.314512 0.258164 0.526641 0.827377 1.134815 -0.980367 0.599789 0.475308 0.200414 -0.793468 -0.416057 0.099058 0.639854 0.678581 1.354397 0.292015 0.786457 -0.531404 -0.534132 -0.276762 0.577841 0.548001 0.831846 -0.218469 -0.038591 0.544828 0.316064 0.836652 0.686678 -0.538708 
0.152983 -0.642961 -0.803943 0.557059 1.067303 -1.458026 -0.076346 0.589196 0.090504 0.678612 -0.497330 0.925925 -0.005505 -0.139838 -0.451195 0.459473 -0.797450 -1.171782 -0.717378 0.973074 -1.915036 1.051929 0.690970 0.661957 0.109240 0.797524 0.648928 -0.047526 -0.563931 -0.222831 -0.865656 -0.386135 -0.902526 -0.483358 -0.466841 0.472832 1.179483 0.719809 0.748311 -0.537949 0.928488 0.417226 0.115921 -0.171331 0.012840 0.621252 0.471674 0.676132 0.004637 -0.621178 0.305977 -0.410354 0.729957 0.292316 -0.210602 -0.623089 0.082300 0.530737 -0.440235 -1.246244 0.869341 0.556688 0.473959 -0.792364 0.759127 -1.087036 -0.531994 0.445649 0.534637 0.867182 0.469774 0.467714 -0.886924 -0.683164 -1.310898 0.734803 0.618565 0.051540 -0.163823 -0.356452 
0.080002 0.511454 -0.957751 0.176780 0.330671 -0.659126 -0.732172 0.317672 -0.925392 -0.380952 -0.331632 -0.303234 -0.080967 -0.176024 -0.848922 -0.662529 -0.254914 -0.302571 -0.223117 0.625421 0.044255 -0.627626 0.453273 -1.373187 -0.615019 0.146121 0.198743 -0.216781 -0.237222 0.682172 0.501502 -0.444772 0.566915 0.547269 0.843890 0.591223 0.250667 -0.730741 0.501497 -0.015739 -0.202608 0.484189 1.146052 -0.530893 -0.845307 -0.435009 0.653899 0.619718 -0.746516 0.778313 0.200773 -0.899295 0.354443 -0.061510 1.037946 -0.398887 0.795550 -0.525469 0.836702 -1.188818 0.364572 -0.606579 -0.438183 0.813837 -0.885441 -0.003838 0.899777 0.906903 0.289021 -0.626743 -0.906441 0.003540 0.194568 -0.671316 -0.770896 0.067671 0.344221 0.116173 -0.549515 -0.743434 
0.104416 -0.985081 -0.047725 0.432911 -0.161679 -0.831716 -0.203050 0.711824 0.378259 0.317922 -0.426127 -0.307937 0.197123 0.243304 0.440356 0.149836 0.971527 -0.403747 0.506300 -0.202310 -0.396387 -0.555919 -0.276793 0.525495 0.754120 0.251409 0.190819 0.260725 0.945621 0.452191 -0.849299 -0.052972 -0.262170 0.119696 0.007355 0.240881 -0.123138 0.017892 0.311800 -0.027866 0.265145 -0.932098 1.095190 0.508629 -0.102192 0.002720 -0.068443 -0.456679 0.197374 -1.250406 0.198244 -0.842093 -0.730064 0.866898 0.459360 0.453560 -0.107592 0.041530 0.334044 0.560407 -0.337861 0.120812 -0.018668 -0.785779 -0.067632 0.267706 0.015384 -0.715170 0.683750 0.328275 0.059436 0.441019 0.053306 -0.743201 -0.408105 1.348215 -0.729062 0.536100 -0.706860 0.282156 
-0.451221 0.084532 0.147610 0.461997 0.125469 0.189455 1.039601 0.226353 0.995684 -0.325699 0.284087 -0.589421 -0.048485 -0.363930 0.412694 0.367650 0.969050 -0.254779 0.646780 -0.023401 -0.666754 -0.365916 -0.826024 0.364809 0.958031 -0.250129 -0.222439 0.476016 -0.721005 0.188017 -0.363810 0.670915 -0.315783 -0.774818 0.594068 -0.842896 1.256585 0.373837 0.568222 -0.676052 0.964222 -0.402205 0.656136 -0.784930 0.593754 0.678487 -0.966215 0.670105 0.455037 -1.142024 -0.367400 0.199015 -1.075457 -0.301643 -0.156755 -0.353144 0.209426 1.116049 0.561684 0.107714 0.569503 -0.645423 0.229304 -0.174673 -0.878998 -0.745459 0.121403 0.743605 -0.348275 0.180407 -0.484077 0.895245 -1.184755 -0.122102 -0.234259 0.592044 -0.053822 0.645203 0.662498 -1.110559 
0.623301 0.199615 0.565885 -0.358057 0.819861 -0.945466 0.052980 -0.702643 0.707161 0.129594 -1.269932 -0.739366 0.590796 -0.595646 -0.942104 -0.547994 0.484168 -0.344902 0.411194 0.057824 -0.918763 -0.518635 -1.008107 0.778178 -0.392042 0.455029 -0.519479 1.028550 -0.942616 0.638059 -0.474335 0.604707 -0.192319 -0.480912 0.572146 -0.335488 0.246547 -0.777787 -0.022140 -0.012216 0.906827 0.995550 0.336593 0.777987 -0.318624 0.331248 -0.939923 -0.516009 -0.209538 -0.983435 -0.209238 0.681671 -0.739965 0.323852 -0.622464 -0.356398 0.457982 1.563123 -0.456319 -0.826260 -0.304717 -0.392696 -0.852910 0.660381 -0.037033 -0.905086 -0.316887 -0.483269 -0.267930 0.076493 -0.197701 -0.508689 0.498030 -0.371997 0.545997 -0.299711 0.634123 0.295871 0.615629 0.572347 
0.085621 0.615535 0.404310 -0.435810 0.247239 -0.551494 -0.691984 -0.815892 0.077152 -0.891301 -1.209201 0.081031 -0.417940 0.357251 0.863973 0.176604 -1.157953 1.164718 0.206052 0.550235 -0.121104 -0.353879 -0.496634 -1.582342 0.077100 0.967169 -0.475923 -0.010397 0.663169 -0.579998 0.463229 0.613174 0.844093 0.810480 -0.415676 0.159530 0.167893 -0.442812 1.078535 -0.491143 -0.081818 0.509318 -0.298967 0.326413 0.073393 -0.500779 0.837286 -0.583991 -0.452043 -0.943246 -0.373467 -0.057563 0.644089 1.203398 0.290359 -0.303449 0.463069 0.555440 0.066088 -0.172323 0.262905 0.432979 0.481896 -0.193497 0.057184 0.784040 0.676632 -0.956975 -0.567233 -0.856061 0.605019 0.120245 0.206053 -0.342194 -0.757095 -0.705447 -0.539921 -1.089961 -0.988649 -0.676994 
0.732188 0.583038 -1.407137 0.135989 0.976402 0.018790 0.236165 1.193205 -0.196141 -0.922912 -1.218725 0.027762 -0.506039 -0.412708 0.619733 1.208542 -0.751467 -0.459378 -0.727399 0.401551 -0.092968 0.769086 -0.118358 -1.135066 1.240069 0.913747 -0.511688 -0.454812 0.638919 0.001708 0.895863 -0.927001 0.234457 -0.646769 -0.431619 -0.698692 -0.286672 -0.136586 0.692186 0.434792 0.409169 -0.408735 0.010052 0.151657 0.599977 -1.431814 -0.469788 -0.377108 0.104345 0.301233 -0.364339 -0.888198 -0.945434 -0.194923 0.670319 1.045956 0.527245 1.559915 -0.355991 -0.389811 0.550949 0.601379 -1.213784 0.162572 0.292184 0.268043 0.353687 0.006899 0.910803 0.227396 0.107574 -0.467025 0.266120 -0.765667 -0.681648 -0.172991 0.037542 0.324135 0.227805 -0.499549 
0.360218 -0.683999 -0.030988 -0.713644 -0.625957 -0.821282 -0.512747 0.550625 -0.441432 -0.298968 1.150043 -0.604383 -0.331950 -0.182633 -0.551334 -0.343418 -0.057374 -0.789441 -0.017448 -0.510429 0.832885 0.527205 0.589429 0.555924 -0.401807 -0.545836 0.618826 -0.518501 -0.584288 0.542403 -0.876783 -0.914844 -0.929418 -0.705591 -0.413785 -0.462755 0.820344 1.087287 -0.964860 -0.227529 -0.128659 -0.541895 0.588893 0.494935 -0.860150 0.774662 -0.534015 -0.815705 0.777632 -0.325534 0.160185 -0.372792 -0.586319 0.782758 0.157580 -0.675223 0.086260 0.716349 0.731767 1.180526 0.089843 -0.524191 0.106055 -0.688943 0.437046 -0.902506 0.479051 0.969840 -0.659467 0.137275 0.399227 0.944895 -0.756039 0.506181 -1.052999 0.242142 -0.067986 -0.750436 0.143451 -0.840658 
-0.283936 -0.220471 0.234009 0.613118 0.987242 0.558641 -0.839567 0.698389 -0.100980 -0.006663 0.172697 0.299480 0.409052 0.060619 -0.323000 -0.030332 1.149976 0.627289 0.472784 -0.343327 0.472475 -0.915128 0.212142 0.343639 0.935184 -0.407775 -0.586594 -0.560681 -0.040064 0.590405 -1.076327 0.417821 0.378557 -0.823877 0.443700 0.233774 -0.010078 1.396861 0.089362 0.265575 0.480551 -0.920319 -0.087527 0.044525 0.897458 -0.369045 -0.684289 -0.265629 -0.279044 0.908408 0.046584 -0.374777 0.430445 0.655510 -1.078005 0.116029 0.582036 -0.337095 -0.332442 -0.026542 -0.040433 0.603659 -0.517529 0.004051 -0.317820 -0.826419 -0.459251 0.926276 0.986474 -0.144385 0.879381 0.202429 -0.893592 -0.509819 0.881470 1.141140 -1.019141 -0.914107 -0.725644 0.322729 
-0.581908 0.069312 0.488122 -0.336679 -0.315036 -0.184381 -0.663939 1.031006 -0.202045 0.454669 0.003865 0.216149 0.590691 0.013889 -0.059128 -0.310782 0.276114 0.229443 -0.199331 -0.614924 0.241075 -0.714456 0.686907 -0.299802 0.166874 0.251693 -0.624628 0.764770 -0.933890 0.376767 -0.055917 -0.463521 -0.338503 0.453987 0.522033 0.274372 -0.465468 0.928258 0.449088 0.866742 -0.660848 -0.911797 0.406854 -0.176920 0.945421 -1.111289 0.607043 -0.076798 0.406744 0.326359 -1.146780 0.166496 1.184726 0.527517 -0.977494 0.774549 0.459417 -1.261960 -0.464575 -0.922064 0.048713 -1.126746 -0.797633 0.640848 -0.416706 0.157796 0.841071 -0.327978 -0.846614 0.456506 0.301697 -0.347804 -0.294472 -0.415138 -0.505539 -0.524663 -0.294077 0.404504 1.038996 -0.115176 
-0.712741 -0.236344 -0.151636 -0.502119 -0.350173 0.908694 -0.748901 -0.199087 -0.052931 -0.528322 0.459473 -0.685569 -0.341784 -0.538406 0.060034 0.294624 0.318944 0.816462 0.557257 -0.162664 -0.379213 1.179480 -0.620952 -1.224837 -0.768652 -0.903494 0.831387 -0.732459 -0.513995 0.339979 0.016574 0.016028 1.072575 -0.307194 0.146992 -0.687883 -0.208824 0.221672 0.400988 0.560345 -0.474244 0.871779 -0.791825 0.817452 -0.474854 0.176460 -0.511707 1.284907 -0.819932 1.202463 -0.968428 -0.018251 0.357826 -0.855706 -0.397368 -0.125190 0.049055 -0.046561 0.752357 0.792423 1.151660 0.692634 -0.364896 0.785874 -0.181678 0.809505 -0.719573 -0.325447 0.287258 -0.860513 0.487262 0.324271 0.487814 0.782994 -0.527607 0.267055 -1.029724 0.093154 0.974876 -0.250000 
0.472566 -0.003380 0.639815 -0.181114 0.564131 0.205672 0.118639 -0.477944 -0.647551 0.684329 -0.245486 0.017772 -0.236097 -0.748236 -0.154647 0.415771 1.139764 0.280182 0.698539 0.916821 -1.195110 -0.879337 -0.292182 0.560811 -0.236143 0.100560 0.501523 -0.203434 -0.374360 -0.415525 -0.889812 0.856344 -0.143929 -0.746666 0.791856 -0.520960 0.145912 -0.614464 0.242484 -0.899193 -0.752464 -0.883571 -0.001338 1.059651 -0.002663 -0.381664 -0.335038 -0.096519 -0.667677 -0.317793 -0.017718 0.142186 1.342850 0.260478 0.890255 0.914143 0.989189 0.160659 -0.822177 -0.810587 0.100995 -0.887350 1.144187 0.821399 0.250541 0.730044 0.641420 0.950964 0.862150 -1.078200 -0.158954 -1.218042 -0.376952 -0.333130 -0.658084 -0.002261 -0.633508 -0.587433 -0.671394 -0.985368 
-1.223257 0.158903 -0.512337 -0.589610 -0.595219 0.195017 0.251424 -0.044806 0.160088 0.059893 0.401414 0.401967 -0.297575 -0.868912 0.704519 -0.874877 0.306425 1.127363 0.261414 -0.506537 0.067505 -0.884994 1.064494 1.014802 -0.861980 -0.012586 0.378115 -0.739736 0.129770 -0.530827 0.445759 -0.492145 -0.194631 -0.826527 -0.765754 -0.023338 0.536469 0.158924 0.517467 -0.830037 -0.268665 0.733440 -0.062727 -0.441601 0.273128 -1.130251 0.570879 -0.382861 -0.011784 0.442198 -1.036844 -0.416822 -0.190146 -0.566599 -0.218544 -0.870399 0.760810 0.522835 -0.476541 0.407329 -0.108657 -0.751476 0.260766 0.879059 -0.904812 -0.757949 0.145013 -0.507235 -0.550938 0.654528 0.777164 0.223774 -1.046568 0.731140 -0.459929 -1.162627 0.696703 0.984145 0.441187 0.103690 
-1.010724 0.561518 -0.568801 -0.918526 -0.411443 0.803612 0.050680 0.209605 0.070909 -0.086250 0.417660 -0.940606 -0.316920 -0.820987 0.674265 -0.036229 0.580443 0.998382 0.068443 0.605034 0.341794 0.606896 -0.970540 -0.402341 -0.853847 -0.348910 1.075831 -0.343848 -0.818086 -0.189933 -0.803561 -0.848082 -0.070572 -0.087737 0.278441 0.260588 -0.430380 0.289894 0.022901 1.088984 -0.210450 -0.241318 0.311297 0.229683 -0.742893 -0.434744 -0.134677 0.235631 0.728040 0.064214 0.690824 -0.064178 -0.550042 0.166571 -0.024531 0.971302 1.170743 -0.281125 0.695300 0.710966 -0.303127 -0.823918 -0.314085 0.433499 0.638682 -0.420740 -0.877816 -0.752365 -0.190203 0.343127 -0.261970 0.020704 0.786032 0.662542 -0.329215 -0.848344 0.240344 0.759727 -0.624627 -1.039768 
-0.328524 0.417370 0.243282 -0.066940 0.157219 -0.272444 0.451427 0.219815 -0.549655 0.531371 0.892690 0.480696 0.955814 -0.935891 -0.910392 0.059469 -0.420399 0.852594 0.777104 -0.047855 -0.289822 0.972430 -0.652476 -0.973375 0.694464 0.877252 0.573174 0.318481 -0.013187 -0.015367 -1.100656 0.139670 0.887303 0.225143 0.734572 -0.569547 -0.689960 0.270284 0.208744 0.357500 -1.215777 -1.097796 -0.846127 -0.785997 -0.804562 0.478750 -0.265235 -0.415828 -0.596222 -0.442622 -0.561080 0.912105 1.297119 -0.448744 -0.059245 -0.458164 1.037604 0.296823 0.059403 0.527356 -0.890695 -0.922223 1.117180 -0.870605 -1.040700 0.419467 -0.497834 0.106436 -0.382253 -0.282517 -0.561829 0.033152 -0.075079 0.567285 -0.912593 -0.528450 -0.041042 0.463864 -0.037155 -0.087801 
0.897671 0.490932 0.998228 -0.265424 0.183211 1.494753 0.987963 0.073437 0.369649 -0.983623 0.026470 0.444017 0.386806 -0.645035 -0.173665 0.118492 0.068887 -0.396445 0.921194 -1.103025 -0.400191 0.643087 0.752329 -0.413868 -0.701553 -1.270524 0.567494 0.080582 -0.058641 -0.145605 -0.465731 0.201551 -0.924029 0.163739 -0.389286 0.074895 0.362163 -0.551457 0.025188 0.127465 -0.154068 0.672733 -0.362756 -0.248258 -1.073576 0.507155 0.992803 -0.894584 -0.403809 -0.828335 0.230175 0.857731 0.610295 -1.169701 0.757600 0.736062 1.056299 0.343672 -0.451063 0.881818 -0.990305 0.672688 0.655208 -0.361791 0.303570 -0.097027 0.189326 0.156220 -0.223699 -0.834915 0.174770 -0.775056 -0.502269 0.676603 -0.718756 -0.041807 -0.988435 -0.430091 0.077763 0.562270 
-0.341471 0.496572 -0.691665 -0.050917 0.890787 0.782949 0.897013 0.291248 0.267628 0.345816 -0.926301 0.828459 -0.390868 0.202212 -0.670340 0.826075 -0.860420 0.202455 0.556898 -0.056015 -0.882127 0.132080 -0.065772 -0.590282 -0.187121 -0.405568 -0.747740 1.005131 0.874385 0.545629 -0.277183 -0.310183 -0.724130 -0.819181 0.170065 0.822788 -1.031132 0.482951 -0.431255 0.297667 -0.350158 -0.869322 -0.372272 -0.181843 -0.521711 -0.367946 0.781824 -1.030075 0.123526 -0.631869 -0.881723 1.205879 -0.278109 -0.425614 -0.526034 0.316126 1.125519 -1.070620 0.140317 0.134322 -0.666330 -0.469367 -0.654351 0.456869 -0.554416 -0.502805 0.064118 0.268988 0.973734 -0.605598 0.353483 -1.001520 0.513681 0.308284 0.371968 -0.579859 -1.142627 0.037510 -0.047073 -0.249990 
0.316283 0.087534 1.207635 -0.824846 -0.240731 1.187413 0.080103 0.057903 -1.020708 0.932955 -0.549063 0.042352 0.084388 0.070685 -0.035024 1.112754 0.025673 1.028015 -0.942503 0.469416 0.857056 -0.618966 -0.858859 -0.308192 -0.561999 0.178319 0.534923 0.602023 0.385485 -0.517380 0.099823 -0.253022 -0.817856 -0.712504 0.283010 0.020704 0.926728 -0.213645 0.196252 0.973528 -0.737587 0.195129 -0.524853 0.538282 -0.337752 0.383375 0.817168 0.530634 0.449058 -0.092678 0.612966 0.754153 0.907536 -0.203559 -0.301579 0.388260 0.495152 0.023400 0.370777 0.058295 0.311406 0.119684 0.503499 -0.096735 -0.456462 0.731903 -0.803030 -0.868157 0.877954 0.346813 -0.111791 -0.453088 0.768822 -0.747905 0.445767 -0.144788 -0.249514 -1.032805 0.156925 0.019282 
0.273569 -0.411729 0.174343 -0.121295 -0.095629 0.241933 0.599586 -0.464855 0.676387 -0.988969 -0.783446 -0.042436 0.070328 -0.249956 0.766829 -0.024093 -0.199269 -0.060270 0.621331 -0.879989 0.187449 0.094048 -0.229388 -0.084416 -0.585984 -0.889934 -0.375471 -0.229961 -0.439235 0.244949 0.762069 -0.480967 -0.015000 -0.874563 0.016436 0.453838 0.762211 0.748257 -0.045840 0.645967 -0.893493 0.728432 -0.641575 -0.622340 -0.482283 -0.189313 -0.734446 -0.448576 0.623720 0.563120 -0.439538 1.304864 0.268501 0.706887 0.070275 0.674230 0.857940 -0.627383 -0.449636 0.281393 -0.326990 -0.937227 0.563878 -0.043570 0.700260 0.572113 -0.639573 0.479315 0.677450 -0.924582 0.988939 0.141418 -0.382716 -0.101687 -0.775287 -1.108620 -0.111930 -0.294537 -0.730661 0.350438 
1.090495 0.404304 -1.043303 0.844800 -0.648425 0.704634 0.737976 0.133644 -0.322975 0.909687 -0.859718 0.488128 0.782374 0.465528 -0.696077 0.220446 -0.623919 0.952891 0.492992 -0.182551 -0.437226 0.303946 -0.258574 -0.011164 0.101270 0.666090 0.089822 0.175432 -0.296353 0.055698 0.840838 0.346905 -0.601660 0.487341 -1.177382 0.228795 -0.097797 0.088073 -0.758816 -0.489648 0.383018 0.871850 0.300536 -0.296544 0.369541 -0.317808 0.650370 -0.057459 -0.828310 -0.548622 -0.813175 0.975657 0.865041 -0.519675 0.628455 0.791339 1.069290 0.599405 0.222208 0.225477 0.616423 -0.063187 0.513363 0.736442 0.748917 0.854823 0.915547 0.222214 0.346056 0.710451 -0.099624 0.352139 -1.409203 -0.027162 -0.250823 0.685802 -0.599601 0.248721 0.050239 0.580188 
-0.870456 0.157842 -0.526536 0.250209 0.660803 -0.859643 0.590587 -0.026124 -0.003231 0.382254 0.072460 -0.356977 1.241195 -0.148849 -0.348254 0.374684 0.463407 1.065986 -0.122959 -0.063182 0.159437 -0.328245 -0.952271 -0.026439 -0.821900 -0.670025 0.365385 0.562300 0.820922 -0.107252 0.235916 -0.486344 -0.289318 -0.077750 -0.069421 0.686345 0.779351 -0.584293 -0.294336 0.567955 -0.643340 -0.132510 0.442628 -0.224796 -0.170956 -0.453360 -0.062354 0.919871 0.170635 0.066032 -1.149490 0.047193 -0.365482 -0.277874 -0.038240 0.167352 -0.273783 0.057360 -0.898519 1.436342 0.811000 -0.094168 -0.108611 -0.246865 0.798832 -0.889796 -0.553022 -1.145262 -0.727160 -0.482790 0.839719 -0.409950 0.312131 0.722270 -0.618484 0.549245 -0.799234 -0.291640 0.551523 0.362012 
0.634561 0.678847 -0.705458 -0.183969 0.899104 0.641976 0.523168 -0.412989 -0.078013 0.375765 0.352550 0.850810 -0.368346 0.257141 0.121405 0.105277 0.281302 -0.322886 0.268285 0.040822 0.641669 0.148374 -0.429069 0.041122 -0.594758 -0.049772 0.507557 -0.357411 -0.608143 0.837745 0.205345 -0.687470 0.796513 -0.717651 -0.525649 1.002521 -0.052865 -0.079581 -1.271084 0.367490 -0.088070 0.573326 -0.692943 0.217887 0.667344 1.016306 1.079092 -0.184421 -0.323341 0.812894 -0.384091 -0.112909 0.727305 0.833197 -0.715436 0.169163 -0.300338 -0.131535 0.625817 0.616299 -0.356640 -0.658261 -0.692403 -0.398900 -0.074113 0.416443 0.631348 -1.207473 -0.532546 0.050212 -0.258521 0.219910 0.584927 -0.110558 -0.121175 -0.011304 -0.735392 0.918833 0.252643 -0.336792 
0.772699 0.142114 -0.432099 -0.537244 0.591233 -0.546526 0.595085 0.257074 -0.441096 0.779344 1.037306 -0.068707 0.934899 -0.674269 0.764327 0.718327 -0.556802 0.669129 -0.168768 0.177943 0.670990 0.571490 0.679098 0.137374 0.568768 -0.601398 0.600202 0.494187 0.517877 -0.712374 0.850035 -0.663995 -0.324276 0.325884 0.266611 0.970309 0.751076 0.289242 -0.551697 -0.455979 0.034717 -0.197978 -0.014740 -0.464701 -0.686199 0.881817 1.074069 -0.458942 -0.185793 0.686213 0.228246 1.190607 1.033996 0.782803 -0.328264 -0.390702 0.617624 -0.296947 -0.896889 -0.616817 0.689034 -1.204700 1.087093 0.302309 0.776010 0.071041 -0.912042 1.159078 -0.134384 -0.430228 -0.748017 0.469034 -0.547064 -0.782164 0.771456 -0.249965 -0.511772 1.410697 -0.792675 -0.110302 
-0.467747 0.325816 0.604786 -0.287606 -0.585314 1.127075 0.259343 -0.650330 1.094639 -0.663607 0.422424 0.409168 -0.511671 -0.016419 0.868522 -0.596254 0.433248 -0.860527 -0.867631 0.027807 0.107828 -1.256164 0.067079 -0.020100 -0.406660 -0.644334 -0.818654 0.245679 0.180484 -0.052025 -0.321599 -0.078148 -0.075257 0.017916 -0.886210 0.335058 -0.022824 1.044606 0.577950 1.110821 0.088414 -0.289967 -0.616946 0.933612 -1.117851 -0.042737 -0.319849 1.170983 -0.419858 0.606563 1.059790 -0.059998 0.339798 0.753141 -0.191776 -0.412475 0.154968 1.602295 -0.833096 1.058476 0.883772 -0.810092 0.218378 0.329890 -0.192300 0.066729 0.736149 0.503832 -0.047220 -0.501034 -0.459973 -0.186597 0.470701 0.632717 1.340048 1.035193 -0.238477 0.703874 -0.025975 0.187838 
0.211216 -0.763199 0.384003 0.292869 -0.338815 0.672676 0.406487 0.859094 -0.461095 0.611846 -0.121587 -0.606374 0.143881 -0.380111 0.310454 -1.005965 -0.709472 0.083082 0.301154 -0.174217 -0.569242 -0.244861 -0.694769 -0.066627 0.549981 0.778100 0.320891 -0.163417 0.464176 -0.612425 -0.171672 0.120014 0.093191 -0.910113 0.788956 -0.129658 -0.297370 0.586866 0.050252 0.023168 -0.367693 -0.170188 1.023448 0.296357 0.220466 0.593517 -0.696421 -0.917155 0.119975 -0.709565 -0.026543 0.689162 0.739327 -0.697900 0.014602 0.307595 0.272146 -0.424522 -0.133395 -0.496664 0.011775 0.816198 0.753089 0.591105 0.155398 -0.370334 0.739831 0.719443 -0.074116 0.858679 0.077024 -0.283464 -0.821823 -0.152642 0.991886 0.020390 0.787854 -0.456511 -0.429447 0.090229 
-0.760026 -0.696836 -0.045185 0.484756 -0.595970 0.674051 0.628701 0.137047 -0.604096 0.353702 -0.046067 0.322905 -0.385542 -0.696638 0.477644 0.383305 0.450794 0.385274 0.516453 0.888333 -0.056349 0.209482 -0.714585 0.249301 -0.779642 -0.914438 -0.491728 -0.760096 0.016356 -0.688082 -0.423838 -1.012331 0.885495 -0.945227 -0.256288 -0.560612 0.305848 -0.102374 0.127482 -0.013175 0.139262 -0.602553 -0.265120 1.069052 -0.953895 0.274595 0.786398 -0.649733 0.031208 -0.346822 0.872615 0.820497 -0.221778 0.542483 0.820489 0.130922 -0.243375 0.101273 -0.531687 1.205380 -0.038752 -0.319197 0.140960 0.312218 0.623954 -0.402638 -0.372836 0.303195 -0.557332 -0.080662 0.950537 -0.693018 0.849436 0.595193 1.048201 0.436943 0.198586 0.735790 -0.374955 -0.592430 
-0.079659 -0.074112 -0.551168 0.990590 0.802024 -0.495115 0.345689 -0.200932 0.346793 1.046326 0.838359 0.293377 1.058386 0.633479 -0.596571 0.546090 1.115197 0.355531 0.055421 -0.538533 0.433287 0.674550 0.303003 -1.015059 -0.933113 0.284056 0.120014 0.901481 -0.845305 0.038472 0.841470 -0.978635 -0.687853 0.573216 -0.564788 0.476310 -0.083956 -0.334684 0.742464 0.331783 0.132705 -0.462418 0.026392 0.742841 -0.879905 -0.185792 0.715777 0.206428 0.189732 1.030917 0.951891 0.796224 -0.234858 0.892853 0.096732 -0.496453 0.701172 -0.307903 0.626922 0.927066 -0.982143 -0.575478 -0.873614 -0.211187 -0.231267 0.771727 -0.969336 0.251692 0.167052 0.881635 0.820300 0.198352 -0.244713 -0.026773 -0.672551 0.814530 0.398094 -0.135328 0.527985 -0.687795 
-0.195900 0.282047 -0.415936 -0.254949 -0.807451 -0.769506 -0.928491 -0.200872 -0.397067 -0.507699 -0.824763 -0.091105 0.557403 -0.429821 0.476243 -0.366404 0.969375 0.022501 -0.499384 -0.764883 -0.336732 -0.598124 -0.845392 -0.741502 -0.122748 1.021708 -0.508786 -0.643655 0.526575 0.364957 -0.197217 0.381897 -0.452828 -0.289178 0.497802 -0.402966 -0.942781 -1.141407 -0.646856 -0.274227 0.183132 -0.251724 0.025131 -0.548422 1.005827 -0.150473 -0.097223 -0.754801 0.752315 0.549805 -1.125445 -0.416530 0.099967 -0.032296 0.118478 0.911987 -0.461179 0.542848 -0.301768 1.252904 -1.145836 -0.218730 0.367487 0.635914 -0.624297 0.154948 -0.212753 -0.320521 -0.791826 -0.601661 -0.313560 0.467665 -0.541903 0.541749 -0.531499 0.109401 0.604891 -0.772910 0.358654 -0.697395 
0.689055 0.865100 -0.148104 0.224248 -0.086304 -1.158975 0.612072 -0.172575 -0.399730 0.071867 -0.047144 0.809210 0.101239 0.628602 -0.005058 -0.575758 -0.582488 0.263587 -0.001007 0.892894 1.151988 0.575331 -0.923721 -0.291029 -1.011529 0.748814 1.163626 -0.588865 0.521004 0.502875 -0.363997 -0.265757 0.440284 -0.694485 0.082393 0.014561 -0.485336 -0.545317 0.036246 1.717560 0.080776 0.858153 -0.052748 0.048429 -0.110635 0.837126 0.201413 0.852085 0.497478 -0.090674 0.374576 -0.782888 -0.739062 -0.097324 0.112261 0.034167 0.420596 0.092719 -0.101547 0.471059 0.937829 -0.173322 0.203960 -0.386826 -1.056931 -0.734659 0.501923 0.427871 0.454792 0.631433 0.214887 0.127025 0.269204 -0.042464 -0.194309 -0.100265 -0.666124 1.066789 0.159393 -0.197976 
-0.545329 0.624449 0.819674 -0.596389 -0.170068 -0.591109 -0.782135 -0.095497 -0.906670 0.852535 0.098302 0.045900 -0.985007 0.410213 -0.875052 0.196883 -0.720259 -0.228949 0.944157 0.728045 -0.330323 0.094261 -0.462687 -0.612463 0.908405 1.440425 0.568222 1.012372 0.414310 -0.033959 0.007927 0.202332 0.114207 0.272817 -1.090761 -1.118505 -1.068349 0.860369 0.703137 0.791110 0.435162 0.020417 -0.138404 0.561962 0.053810 -0.588252 0.672822 -0.612529 0.640792 -0.178217 0.816051 -0.175239 -0.927499 0.904862 0.309820 0.630737 -0.486606 0.695275 0.715763 -0.319920 -0.726481 0.684250 -0.520956 -0.141140 -1.148785 -1.425181 -0.062274 0.998286 0.173238 0.545770 -0.800885 0.487494 0.848470 -0.385863 -0.328080 0.905758 0.657448 1.030641 -0.909945 -0.052559 
0.608426 -0.567650 -0.591893 -0.164556 -0.351639 0.891268 -0.017004 -1.032358 0.425616 -0.674616 -0.598085 0.413804 -0.586295 0.797734 -0.478808 -0.719401 -0.443471 -0.620802 -0.739375 1.058505 -1.073200 0.311523 0.016356 -0.340685 -0.788127 0.244490 0.167665 0.059608 0.642738 0.263556 -0.523969 -0.315508 0.366139 0.683620 -0.124540 0.219283 -0.538231 -0.397176 -0.665596 -0.629559 -0.446485 -0.743173 -0.487649 0.882745 0.663813 0.719026 0.010667 0.560318 0.259338 -0.370414 0.073942 0.968838 0.084633 0.173852 0.699462 -0.368345 0.682127 0.332902 -0.782834 0.190512 0.259307 -0.107664 -0.317896 -0.535803 -1.080877 -0.035234 0.285042 0.201843 0.155534 0.468916 0.615920 -0.653668 0.017746 -0.930491 -0.518303 -0.434184 0.413776 0.266424 -0.854004 0.535349 
-0.898955 -0.233141 0.694576 0.791092 0.075139 0.417821 -0.389041 0.814701 -0.755777 -0.166009 -0.866563 0.881830 -0.400216 -0.934680 0.291764 -0.391164 -0.169962 0.339975 -0.764842 1.032384 0.097087 0.786851 0.229013 -0.206297 -0.575427 0.309040 -0.564311 -0.055066 0.150396 -0.289634 -0.904776 -0.702889 -0.289633 0.347367 -0.693072 0.511074 -0.589268 -0.805762 -0.098779 0.535671 0.884608 -0.238084 0.750351 -0.781163 -0.271878 -1.013377 -0.311790 0.102668 0.648074 -0.243065 -0.748333 -0.627383 0.056635 0.745675 -0.194457 -0.650988 -0.179770 -0.320185 -0.201614 -0.576144 -1.106636 0.995935 1.121940 0.468881 0.458303 0.135760 0.479407 -0.281521 0.176763 -0.196942 0.599932 -0.139833 0.676511 0.233219 -0.337040 -0.008801 0.222395 0.256696 -0.529584 -0.485545 
-0.448733 0.326783 -0.581940 -0.832972 -0.593863 0.071132 0.057138 -0.377503 -0.694966 0.636915 0.330983 -0.740573 0.601260 1.002157 0.644559 -0.347368 -0.229609 -0.000162 -0.485250 0.422037 0.602632 0.380037 0.887929 0.196746 -0.913855 0.145226 -0.025343 0.015700 0.854182 -0.401430 -0.329623 0.421984 -1.027241 -0.342246 0.245168 0.390243 1.106575 0.128417 -0.242986 0.598075 0.718457 -0.809460 1.205797 0.962908 -0.162703 0.269673 -0.296690 -0.966482 -0.330805 0.738643 -0.342071 -0.509667 0.016136 -0.202780 -0.993328 -0.144458 0.402307 0.128852 -0.578854 0.475772 -0.018569 0.704135 0.589727 0.266562 0.275554 -0.324179 -0.265213 -0.049156 0.935159 -0.954575 0.922356 0.116649 0.597297 0.803913 0.029428 -0.278470 0.829570 -0.126520 0.669013 -1.201294 
0.598008 -0.280564 -0.681886 0.597480 0.827277 -0.358716 -0.661645 -0.248806 -0.689262 -0.479613 -0.480356 -0.610761 -0.047851 0.801470 0.200198 -0.910408 0.664682 -0.834968 0.461664 0.089816 -0.236921 1.413363 0.148317 -0.737216 0.792529 0.159371 -0.163580 0.768887 -0.802336 0.802753 -0.484084 0.201343 -0.625026 0.464664 0.633423 0.737375 -0.716333 0.162021 0.865128 -0.634875 0.583699 -0.003208 1.204053 -0.623086 0.217242 0.457477 0.032881 -0.807043 -0.130712 0.687285 -0.520655 0.574101 -0.690783 0.785888 -1.118301 -0.734055 -0.136410 0.617296 0.015861 0.966761 -1.100511 -0.087202 0.454420 -0.694294 -0.266807 0.359765 0.884655 -0.525456 0.664386 0.449759 0.459092 -0.991413 0.059526 1.070962 0.582950 0.179765 -0.678449 0.954409 -0.744151 -1.092421 
-0.435414 0.307356 -0.194404 -0.550776 -0.567518 -0.389828 0.899656 0.590912 0.265460 -0.830315 -0.248307 0.332274 -0.606984 -0.188599 0.344968 -0.889299 -0.911359 0.807392 0.753856 0.650569 0.227067 -0.574713 0.160449 -0.328403 -0.861100 0.216755 -0.537563 -0.602066 0.526502 0.816696 -0.913380 -0.100075 0.124772 -0.441760 -0.766502 0.491309 -0.695037 -0.467952 0.055472 0.626710 -0.595133 0.592154 0.327957 -0.204723 -0.465759 -0.288162 -0.349536 -0.682035 0.134066 -0.286760 -0.233586 0.705263 0.278896 1.156200 1.207765 0.158403 0.415137 -0.151021 0.089690 -0.752257 -0.813477 -0.093429 0.309040 0.562864 -0.110386 -0.556624 -0.372725 -0.044495 -0.376807 -0.347639 -0.105988 0.759140 0.450464 -0.926201 -0.257597 0.646102 1.066387 -0.764435 0.960029 -1.098079 
0.084028 -0.751438 -0.562292 0.366648 -0.453696 0.385562 0.620085 -0.434548 -0.403731 0.784486 -0.163552 -0.782804 1.494203 0.600858 -0.970497 0.170757 -0.490427 -0.362331 -0.668914 1.120836 0.080313 1.147201 -0.575191 -0.924711 0.569829 0.893656 -0.490048 -0.013642 0.832156 -0.884920 0.625151 -0.037472 0.736869 0.744504 0.385208 -0.349385 0.218747 -0.377885 1.077112 1.385778 -0.804630 -0.498317 0.156342 -0.321838 -0.223735 -0.715560 0.461438 0.139983 -0.284569 0.156935 -0.811699 -0.667078 -0.935770 0.440071 1.158310 0.904378 -0.188668 1.006989 0.280064 0.566796 -0.680491 0.303586 -0.059596 0.060813 -0.490331 0.907295 0.437504 -0.866094 -0.251339 -0.103782 0.537253 0.316852 -0.178306 0.465496 0.160218 -0.176484 -0.817795 -0.369801 -0.992696 0.996431 
0.717019 0.775208 0.047585 0.700744 0.827550 0.225217 0.935848 0.421160 -0.247628 0.060804 0.185135 0.469298 1.193184 -0.096912 -0.492703 -0.794284 -0.520213 -0.576422 0.047515 -0.542870 0.350271 -0.083620 -0.466945 -0.943081 0.902270 0.106441 0.436123 1.004735 -0.324862 0.162593 0.016150 0.612930 0.892301 0.191998 0.337081 -0.329303 0.417144 -0.033549 -0.515594 -0.590016 0.225436 0.687359 -0.064824 0.917468 0.857532 -0.813037 -0.298470 0.773555 0.561020 -0.219905 0.537001 0.141650 -0.574898 -0.510532 -0.377105 0.000423 0.427897 1.154069 0.042643 1.084072 0.722983 0.233781 -0.142119 0.158000 -1.111427 0.247938 0.606720 -0.532576 -0.702524 0.006498 0.694473 0.520115 0.609157 0.064376 -0.008749 -1.102467 0.540154 0.312932 0.271779 0.342228 
-0.243312 -0.405851 -0.162735 0.622412 0.738456 0.429184 0.057588 -0.393836 0.146545 -0.406543 1.225293 -0.438038 1.262232 -1.536045 -0.379332 0.462786 -0.279906 -0.097061 -0.724444 0.874395 0.681968 0.458645 -0.589951 0.881009 0.170842 -0.627680 -0.002843 -0.769095 -0.512217 -0.123284 0.669352 0.875956 0.120885 -0.426543 1.022116 -0.445627 -0.857476 -0.338204 0.146780 1.049431 0.461473 0.299620 -0.303035 -0.195176 0.875405 -0.676058 -0.776225 0.662995 -0.824846 0.436817 0.925249 -0.938662 -0.720281 -0.682330 -0.790751 0.134352 0.690891 0.520958 -0.730542 0.844642 0.141452 0.702544 0.082851 0.460889 -1.146573 -1.188728 -0.121304 -0.949823 -0.167137 -0.294650 0.912057 0.750506 0.023315 -0.082292 0.728209 0.538483 -0.028300 0.384257 0.190038 -0.104950 
0.296052 -0.437418 1.267399 -0.435984 0.092856 -0.900013 0.160822 0.556257 -0.257912 -0.494273 0.745229 -0.675441 -0.737885 -0.376698 -0.097488 -0.294075 0.779675 -0.491702 0.792125 0.093438 -0.904826 -0.265814 -0.145725 0.440256 -0.326569 0.775422 -0.459021 0.290575 -0.458349 -0.225315 -0.748595 -0.515170 -0.564311 -0.051690 0.937941 -0.562287 -0.800791 1.157012 0.994824 0.299464 0.288349 -0.722361 0.984475 0.426046 0.788366 -0.786351 0.069027 -0.605504 0.859826 0.158468 -0.216335 0.698177 0.312808 -0.845459 -0.696681 0.184419 0.815716 0.044481 0.606131 -0.234551 -0.409332 -0.624158 -0.709580 0.731960 0.619961 0.293139 0.041193 -0.166456 -0.851022 -0.604946 -0.066475 0.722384 -0.411178 0.122486 0.972987 0.628619 -0.595221 -0.051952 0.438366 0.737881 
0.919780 -0.389516 -0.614590 0.045025 0.361826 -0.310342 -0.360398 -0.211862 -0.508718 0.828095 0.559882 0.802823 -0.059871 0.748289 -0.453160 -0.922538 -0.533681 0.064001 -0.976131 -0.229404 0.294330 0.547668 -1.516698 -0.394773 -0.669434 0.833457 1.024010 -0.294169 0.065424 -0.346353 -0.511396 0.709723 0.362524 -0.175273 -0.212229 0.275044 -0.125242 0.199748 -0.175586 -0.090627 -0.788326 0.790533 0.432378 -0.532631 0.982158 -0.206695 -0.199186 -0.217471 -0.518141 -0.409659 0.691932 0.141278 0.804692 0.484702 -1.204452 0.184540 -0.256032 -0.672636 1.275215 0.865026 -0.877987 -0.461584 -0.040032 0.210436 -0.107303 0.226007 -0.824350 0.394248 0.053577 0.441162 -0.922138 -0.662446 -0.795940 -0.762259 0.214739 0.309759 0.184157 -0.234100 0.355690 0.997269 
0.382358 -0.071650 -0.529874 -0.691873 -0.577848 -0.921140 -0.137558 0.683747 -1.019859 0.800720 0.586591 0.166631 -0.808528 -0.636555 -0.062347 -0.848399 0.846139 -0.316572 0.799774 -0.658099 1.081716 -0.668711 -0.748979 0.426420 0.216219 -1.094972 1.028765 -0.216869 0.909829 0.692044 0.483302 -0.456499 -0.074431 0.446943 0.076083 0.819499 -0.820850 0.252150 -0.401887 -0.245906 -0.249670 -0.827714 1.144044 0.559696 -0.107128 0.342199 -0.293327 0.308057 -0.458626 1.282515 -0.559421 0.073353 -0.409278 -0.031122 -0.267065 -0.705527 0.183764 -0.151781 -0.091263 0.158167 -1.006772 -0.145593 0.239107 -1.115069 0.740201 -0.386169 0.406389 -0.662894 -0.143765 -0.205132 -0.172029 0.008068 0.062740 0.565664 0.838782 0.515528 0.528142 -1.066161 0.593819 -0.471726 
-0.585276 0.830081 -0.301692 -0.695656 -0.267171 0.381210 0.449529 0.193011 0.357573 0.765668 -0.352168 -0.095134 0.297909 1.065403 0.424978 -0.334930 -0.332171 0.338394 -0.348365 0.929249 -0.788180 -1.043879 -0.899914 -0.149133 -0.001890 -0.545818 0.023790 -0.370215 0.113186 0.830603 0.314183 -0.725446 -0.828583 -0.202831 0.433235 0.578558 0.727019 -0.491112 -0.075721 0.213975 0.116093 -0.173590 -0.175817 -0.772493 0.221279 -1.119677 0.796677 -0.363318 0.383483 1.369815 -0.553964 0.228948 0.887997 -0.884561 -0.296301 -0.820733 -0.177129 -1.235118 -0.232566 0.186420 -0.848731 0.418463 -0.370356 -1.041692 -0.897405 0.037173 -0.014692 1.071983 -0.090670 0.866725 -0.241666 -0.029412 -0.488793 -1.138368 -0.351611 -0.630509 0.126547 -0.196303 0.994809 0.994969 
0.367166 -0.834231 0.108757 -0.058143 -0.489333 -0.627416 -0.491770 0.588041 -0.062130 1.084900 -0.812736 -0.613606 -0.486658 0.118469 -0.792581 -0.931951 0.038532 0.966671 0.221772 0.580526 0.331790 -0.052374 0.993463 0.785242 0.473514 0.918384 -0.547667 0.542336 0.325469 -0.923431 -0.151711 0.483232 0.340699 0.979813 -0.636284 -0.253927 -1.148620 0.948428 0.162571 -0.974300 -0.182788 0.682459 0.849145 -0.831782 -0.675997 0.289487 0.424319 -0.560097 0.939358 -0.616628 -0.345645 0.093790 1.033637 0.287658 0.156234 0.570816 -0.491578 -0.302766 -0.616433 0.518960 -0.948962 0.619175 1.131434 0.005934 0.521802 -0.051808 -0.721183 1.158857 0.462485 -0.092840 -0.778128 -0.528709 0.784809 0.665017 0.297619 -0.867922 -0.727963 -0.267615 -0.520543 0.496715 
-0.478580 0.593914 0.633676 0.343042 0.961796 -0.679171 0.134321 0.559879 -0.168636 -0.758536 -0.282384 0.309777 0.667747 0.337585 -0.222610 0.250140 0.651646 0.103828 -0.504441 -1.116938 -0.068853 -0.314764 0.173662 0.883207 0.064481 -0.618046 -0.753529 -0.779304 -0.623630 0.644309 -1.023177 -0.952222 0.107334 0.679496 -0.437581 -0.116904 -0.498697 1.231538 -0.991437 -0.840779 -0.730835 -0.620806 0.242536 0.520409 0.698974 0.039587 -0.064867 0.331255 -0.606416 -0.400213 -0.585344 0.419859 -0.154200 0.008817 0.037591 -0.261154 -0.102096 -0.072139 1.176100 -1.298057 -1.058639 -0.153094 0.433572 -1.140422 0.557455 -0.106948 -0.104972 1.107448 -0.718147 -0.838276 -0.567377 1.264501 0.441268 -0.516053 0.301224 0.443187 -0.149087 -0.790525 -0.640040 -0.606979 
0.149920 0.277628 0.637288 -0.239180 0.020480 0.753275 0.135638 0.903177 0.972880 -0.394810 0.301195 0.165260 -0.614221 -0.881008 -0.035485 -0.696413 -0.052531 -0.082625 0.726442 0.094509 -0.033190 -0.510975 -0.657941 -0.333063 0.291463 0.149494 0.622879 1.064372 -0.704767 -0.147797 -1.005389 0.211294 0.143581 -0.839252 0.580786 -0.653462 0.474991 0.670034 -0.361688 -0.227096 -0.776856 0.522255 -0.201936 0.058782 -0.029791 0.027647 0.838262 0.309097 -1.035912 0.554718 -0.745545 -0.294435 0.572739 -0.743346 0.522387 0.819998 -0.580180 -1.157548 0.455532 0.493255 -0.859619 -1.298566 0.156773 0.652358 0.103748 1.052888 0.894604 1.066743 0.314176 0.307587 0.913397 -0.541240 -0.015687 -0.708913 -0.838431 -0.650268 -0.188027 -1.334624 0.893938 -0.304379 
-0.542772 0.068331 -0.610721 0.766229 0.961718 0.412909 0.237958 0.587462 0.444726 0.164206 -0.896053 0.111589 -1.464075 0.240872 0.640956 -0.446993 0.097760 -0.335259 0.672793 0.252510 -1.141964 0.592717 0.541186 0.694417 0.315688 0.624173 0.517565 -0.439595 -0.191965 0.767029 0.022163 -0.743444 0.943786 -1.044847 -0.876805 0.223930 -0.052852 -0.299841 -0.383825 -0.481909 -1.162885 -0.674686 -0.331662 -0.810314 -0.860869 -0.617482 0.113870 0.759292 0.434463 0.890066 0.661800 0.338441 0.546795 -0.945438 0.249267 -0.674996 1.192119 -1.246839 -0.432501 -0.494052 1.175516 -0.248530 0.920617 0.157218 0.112340 0.552802 -0.005251 -0.530667 0.771978 0.344912 0.959558 -1.226041 -0.914059 0.397308 -0.360225 -0.398238 0.373178 0.350094 0.524003 0.822199 
-0.022675 0.764344 -0.023494 -0.540014 -0.767729 0.347127 -0.931905 -0.127852 0.106624 0.899945 -0.769362 0.311366 -0.051204 0.180051 0.051664 -0.495250 0.308225 -0.517483 -0.232778 0.211699 -1.309160 0.687732 -0.967929 -0.361685 1.138724 0.191472 0.021520 -0.837438 0.081335 0.491111 0.136783 0.454383 -0.471965 0.388570 -0.229645 0.043725 0.226693 1.012246 0.394300 0.498841 0.636886 0.954185 -0.131263 -0.437834 0.697729 0.188215 0.457041 -0.062949 0.129781 0.422010 -1.074588 -0.720682 0.007347 -0.956543 -0.215192 0.436195 -0.652438 -0.126407 -0.613566 0.863851 0.758549 -0.255556 -0.749331 0.423186 0.910473 0.604100 -0.111827 -1.002982 -0.216134 0.387858 -0.277675 -1.826840 0.236085 -0.070783 -0.130191 -0.796705 -0.041734 -0.267298 0.044014 0.598651 
1.372184 -0.056102 0.264395 -0.226074 -0.569356 0.752080 0.033628 0.382770 0.211141 0.347342 -0.465993 0.123982 -0.402392 -0.995274 0.316060 -0.919894 -0.484690 0.662068 0.130690 0.260470 -1.080680 -0.041491 0.327469 -0.970250 0.280571 -0.167906 -0.593908 -0.825379 0.311643 -0.798652 -0.454061 0.326344 0.610528 0.389874 0.556872 -0.290123 0.462093 -0.112377 -0.778709 0.552223 0.687140 0.232867 -0.588562 0.036023 0.737001 -1.263568 1.050410 -0.193938 -0.390652 0.405616 -0.570086 0.268895 -0.212273 0.546851 -0.823962 0.946961 0.422777 -0.285465 0.004602 0.407854 0.570934 0.112814 0.806582 -0.265435 1.104764 -0.081690 -0.324956 -1.083097 -0.882529 0.746182 0.774015 0.068043 -0.333232 0.733825 -0.831677 0.750881 0.704206 -0.539853 -0.132241 -0.235003 
0.785178 0.600024 -0.124016 0.275498 -0.619414 0.556294 0.581394 0.674592 -0.007142 -0.484539 0.376341 0.606029 -0.067860 0.459025 0.838914 0.226958 0.262087 0.131931 -0.343602 0.237825 0.216833 -0.437839 0.396371 0.082668 0.781969 0.833276 0.446526 0.972010 -0.141315 -0.722360 0.261688 -1.096795 -0.264035 0.909423 -0.749212 0.729379 0.305510 0.433080 -0.006868 0.184973 0.723700 0.981952 0.872942 0.775972 0.301368 0.161427 0.311953 -0.432764 0.196673 0.235696 0.319083 -0.797631 0.668596 -0.180359 -0.817724 0.145815 0.087627 -0.092939 1.017815 -0.223500 0.682353 0.643250 -0.550268 0.043510 -0.788953 -0.265811 -0.431718 0.075941 -0.755474 0.663798 -0.395126 -0.334061 0.444997 0.486096 0.349558 -1.075143 -0.176808 0.118950 0.285266 -0.223516 
-0.817376 0.229528 0.418545 0.667125 0.147097 -0.188432 -0.069380 -0.962780 -0.616097 -0.166099 0.641764 -0.403659 0.931725 -0.033095 0.326679 -0.305035 -0.570990 0.035219 0.961647 0.042257 0.372931 0.036386 -1.225716 -0.908816 -0.625990 0.320739 0.427136 0.447595 0.991778 -0.305610 0.719599 -0.373823 -0.512161 0.823096 0.225993 0.108079 -0.652175 -0.235091 -0.151482 0.254101 0.881223 -0.090689 0.858347 -0.960900 -0.911677 0.446337 -0.002653 0.107827 -0.551730 1.090205 -0.368194 -0.911470 -0.564258 -0.696771 0.254207 -0.001198 -0.034566 -0.232084 -0.713337 0.801474 -0.894734 -0.526330 0.315178 0.470431 -0.571791 -0.847396 -0.564733 0.053802 -0.340968 0.175076 0.889993 -0.918216 -0.668953 -0.860243 -0.889468 -0.923788 -0.958472 0.272395 -0.460457 0.848388 
0.227492 0.814805 0.100424 0.986028 0.187076 0.567727 -0.258559 -0.906379 0.391837 -0.450470 -0.597314 -0.311862 0.359444 0.639161 0.233581 0.753159 -0.767206 -0.414779 -0.506321 -0.058772 -0.223546 -0.199792 -0.316984 -1.194632 0.270747 -0.613583 -0.202825 -0.362935 0.712555 -0.699620 0.300345 -1.041353 -0.882573 0.011420 -0.625267 -0.404127 0.682427 -0.639206 -0.100322 0.245774 -0.644562 -0.210777 0.630196 -0.088800 -0.598196 -0.172182 -0.552706 -0.896839 -0.139281 0.630163 0.108362 -0.172796 -0.206833 0.663928 0.495804 0.527243 -0.903638 0.161676 0.390712 0.798423 0.328859 -0.398992 -0.774440 0.061242 -0.602070 1.159812 -0.922197 0.890823 0.257547 0.070423 0.888317 -0.780396 0.538928 -0.605098 -0.676222 0.699347 0.828136 0.321604 -0.322173 0.114809 
-0.294177 0.255739 0.579074 -0.254682 0.642637 -0.208757 0.575400 0.073855 -0.000961 -0.232126 0.780826 -0.314450 1.441308 -0.680145 0.925656 0.377317 0.137451 -0.358635 0.517832 0.667208 0.225508 -0.926771 -0.355562 -0.011802 0.561650 -0.497437 0.596139 0.327663 0.262996 0.688943 -0.329911 -0.584510 -0.755835 -0.406531 0.585181 0.473063 -0.932898 0.282574 -0.060296 -0.204331 0.456647 0.903421 -0.088472 -0.834382 -0.465958 0.327183 0.001331 -0.683313 -0.096242 0.190254 0.762983 -0.488028 -0.794436 0.123169 0.090068 -0.242895 0.059756 0.554057 0.122563 -0.728367 0.285225 0.306706 -0.392615 0.829505 0.904270 -0.441248 0.526758 0.686396 -0.243737 -0.574322 0.763467 -0.521480 -0.770119 -0.278350 -0.785553 -0.618265 0.136343 0.591922 -0.420778 0.872545 
-0.398864 0.819940 0.459156 -0.922192 -0.503905 1.057921 0.941127 1.025493 0.938023 0.083276 -0.550319 0.488918 0.522016 0.805488 -0.888586 -1.077158 0.007558 0.273335 0.862215 1.066466 0.778000 -1.271242 -1.307144 0.376685 0.718728 0.814303 0.143633 -1.020828 -0.981365 0.788476 -0.868520 -0.370012 -0.066739 0.161419 -1.006731 -0.157825 -1.105407 -0.210984 0.434923 0.846356 -0.205052 0.767923 0.626852 -0.312152 0.202334 0.685899 -0.492131 -0.776059 0.857061 0.171760 0.163094 -0.047219 -0.604379 -0.505975 0.223638 0.636004 0.378142 1.157102 -0.323525 -0.237983 -1.578879 0.566544 -0.280562 0.697587 -0.598454 -0.145811 0.395164 0.535735 -0.418643 0.002123 -0.227895 0.652872 0.064868 0.095351 0.220104 0.032632 -0.835541 -0.250219 -0.267721 0.897098 
0.097943 -0.921412 -0.548283 0.179593 -0.337993 -0.782864 -0.724606 0.269759 1.106316 0.435552 1.083790 -0.135038 0.438835 0.853050 -0.789153 -0.305035 0.133216 -0.762210 -0.382673 1.107264 -0.269403 0.373533 -0.006104 0.506639 0.274743 -0.102053 0.391930 0.681049 -0.791264 -0.742327 0.601648 0.469063 0.604034 0.397131 -1.119385 0.377857 0.544584 0.366522 0.087082 -0.118276 -0.731979 0.926163 0.198678 -0.715797 -0.193493 1.069643 0.118272 -0.618300 0.117453 -0.009942 -0.626085 -0.795017 0.099585 0.104919 1.096657 0.745063 -0.877843 -0.355556 0.265327 -0.330788 -0.749494 -0.476242 -0.515509 -0.889966 -0.282633 -0.121351 0.750393 0.042945 -0.042416 -0.741597 0.572710 0.325423 -0.253487 1.027467 0.990688 -0.306684 -0.486440 0.241446 -0.068552 -0.270498 
-0.709021 -0.011006 -0.814761 -0.636694 -0.898622 0.736888 0.897364 -0.745964 0.675758 -0.213280 0.502373 0.824854 0.153992 -0.433096 -0.923341 0.729416 0.980073 -0.168400 0.234339 -0.087183 -0.587532 -0.262083 0.783046 0.852906 0.537096 -0.600734 -0.850773 -0.321732 0.986893 0.378195 0.294961 0.842861 0.623450 -0.662102 0.465534 -0.040718 0.191434 0.073332 -0.490561 0.251956 -0.371272 0.757367 0.810172 0.752446 -1.030509 0.082905 0.588564 -0.768597 -1.046687 0.780617 0.497104 -0.858981 0.151299 0.905252 0.315474 1.057400 0.380510 0.499857 0.083862 1.115067 -0.086227 -0.197154 0.331465 0.630519 1.039333 -0.015366 0.245968 -0.745570 0.253263 -0.434418 -0.539869 -0.554310 -0.219029 0.597550 -0.041973 0.340751 -0.945419 -0.690658 1.052219 0.032096 
-0.746175 -0.377534 0.743904 0.752083 -0.852570 0.457763 -0.064771 0.055919 0.794445 -0.099563 -0.144529 -0.505675 -0.302736 0.049370 0.806259 -0.131189 0.395999 0.346255 0.263029 -0.516729 -0.507651 -0.936227 0.552336 -0.391822 -0.563737 -0.693292 -0.225404 -0.884709 0.122595 -0.313436 0.689589 0.110197 0.913810 -0.414386 -0.736712 0.855282 -0.829886 0.656668 0.717454 -0.492790 0.237358 0.868143 0.799206 -0.035160 -0.297684 0.368417 0.835029 -0.615306 0.079163 -0.535321 -0.020694 0.063079 0.954075 0.305279 0.484743 -0.546552 0.170335 -0.152593 -0.213746 0.385186 -0.013066 0.309860 -0.756444 -0.327740 0.115366 0.793291 0.559297 -0.241093 0.450156 0.460074 -0.561735 -0.297850 -1.172032 0.644555 0.781786 -0.392725 -0.215618 0.765289 -0.510633 0.281589 
-0.363661 0.595560 0.174383 0.021838 -0.622886 -0.436994 -0.646567 -0.362394 0.706100 -1.085992 0.325253 0.398088 -0.168861 0.500597 0.099466 -0.478618 1.254562 -0.431818 0.040638 -0.242133 0.653128 0.061465 -0.548624 -0.319599 0.831772 0.962390 -0.016487 0.809057 -0.228189 0.649566 -0.705806 0.609236 0.805330 0.542514 1.052350 0.100865 -0.972761 0.278052 0.180769 0.284441 0.839586 -0.650245 -0.727947 0.941443 0.853052 0.946861 0.568770 0.062720 0.503052 0.783580 -0.488934 -0.374423 0.744975 0.883220 0.168681 -0.053013 -0.718212 0.718227 -0.479122 0.012818 -0.673807 0.204304 -0.838909 0.634448 -0.365341 -0.290037 0.406533 -0.101228 0.903301 0.153512 -0.435112 0.679835 0.628034 -0.675625 0.214117 0.356762 0.361219 -0.793986 0.391525 0.992566 
-0.061359 -1.075510 0.113347 -0.217767 -0.101600 -0.609267 -0.546023 0.844843 -0.582300 0.129502 -0.743371 -0.924171 0.733110 0.586486 1.012922 -0.118292 -0.245184 -1.070858 -0.839421 -0.665299 -0.481246 -0.818708 -0.235467 -1.240431 -1.154909 -0.267353 -0.682668 0.495500 -0.230140 -0.720585 0.265488 -0.902672 -0.897637 0.083959 1.093872 0.321834 -0.100045 0.466875 0.391503 -0.568797 -0.523907 0.570681 1.035438 0.315689 -0.925775 0.888412 -0.525028 -0.730807 0.313657 0.999496 -0.917045 -0.544254 0.937832 0.379620 0.659816 0.345915 -0.117616 -0.212945 -0.579359 0.159576 -0.115266 0.372023 -0.291613 0.012585 0.560389 0.914397 0.159207 -0.847463 -1.050239 0.198154 0.315357 -0.355645 0.201317 0.763386 0.568958 0.863018 0.150557 -0.631200 -0.067934 0.940893 
0.515720 0.278167 0.367063 -0.516655 -0.326152 -0.319228 -0.590077 0.147940 1.151856 -0.222469 -0.214925 0.820819 0.572235 -0.631440 0.289336 0.032127 -0.300384 -1.056612 -0.412397 -0.515123 0.142329 -0.543081 0.377984 -0.316985 0.027949 0.756936 -0.513979 0.544910 0.021191 0.930476 -0.176154 -0.540909 0.727555 0.596192 -0.055256 0.235567 0.213175 0.248617 0.329827 0.234742 -0.302688 -0.504972 -0.719637 -0.994376 -1.067831 0.742604 -0.471014 0.932145 -0.308530 0.105636 -0.316462 0.699407 -0.081073 0.152365 0.811654 -0.573253 0.755772 1.187680 -0.537307 0.066913 -0.156498 -0.246181 -0.539780 -0.499626 0.970623 -0.515641 -0.272855 0.651971 -0.306380 -0.546029 0.883647 0.551212 0.007028 -0.920232 -0.443401 0.522361 -0.631007 1.079663 0.123170 0.530325 
-0.155337 0.808160 1.197491 0.236918 0.881426 0.200247 -0.825390 -0.410519 0.504823 -0.481832 0.753307 0.035883 -0.910305 0.354755 0.065220 0.630196 -1.033472 -0.349366 0.421640 0.709290 0.231826 -0.663575 0.798120 -0.035568 -0.040205 -0.078368 -0.685243 -0.100600 -0.981690 -0.953408 -0.837199 0.305955 -0.886958 -0.527539 0.094132 -0.560567 0.284671 0.047607 0.680830 0.029027 -0.523370 0.669216 0.588548 0.251561 -0.174512 1.412054 -0.915051 -0.263373 0.496806 -0.043983 0.439606 -0.570979 -0.302321 0.820669 0.742083 0.554020 0.227043 0.669407 -0.072654 0.872964 0.279936 -0.399215 0.649693 -0.715353 -0.198626 0.092184 0.348981 0.790933 0.160328 -0.668596 0.137854 -0.903168 -0.249864 0.478963 0.632381 1.433644 -0.799919 -0.554553 -0.743031 0.898516 
-0.484322 -0.177121 0.071472 -0.265447 0.575396 0.732892 -0.670449 -1.091048 -0.182822 -0.243723 -0.417675 -0.636796 -0.050677 1.378046 0.299369 -0.611932 -0.796700 0.006132 -0.462365 -0.311768 -0.476732 0.704556 -0.131831 -0.425115 0.512877 -0.629327 -0.803145 0.986267 -0.951804 0.412765 0.719830 0.228289 -0.083519 -0.583303 1.299678 0.511156 0.193398 -0.040847 -0.508280 -0.708964 -0.290332 -0.123666 -0.598776 -0.677715 0.026397 0.820821 0.291820 0.675713 0.340137 0.499802 -0.172893 0.459430 0.278355 0.227117 0.242800 -0.124245 0.181548 0.547303 0.729920 0.554947 0.089916 0.569441 -0.954053 0.731138 -0.579323 0.201905 -0.249640 -0.579493 0.399463 -0.179898 -0.943194 -0.094905 0.734285 0.177861 0.457300 0.292009 -0.710653 0.209878 -0.569032 1.473869 
-0.549331 -0.682392 0.582994 -0.224830 0.471609 -0.047029 -0.485093 0.621711 -0.411618 -0.353188 -0.784006 0.139069 -0.684859 0.806844 0.237260 -0.591967 0.271929 -0.076761 -0.981979 -0.631937 -0.364041 0.856047 0.983613 -1.270067 -0.235909 0.833341 -1.101932 0.099143 0.188260 0.663190 -0.710113 0.616012 0.641504 -0.709896 0.532295 -1.063730 0.907540 0.612664 -0.337780 0.543281 0.812780 -0.988463 0.631226 -0.219070 0.332251 -1.059656 -0.273540 -0.616668 -1.081670 -0.504733 0.128887 0.440788 -0.458378 0.755337 0.690490 -0.304610 -0.956633 -0.177974 0.621140 0.227802 -0.125738 -0.486750 0.314146 0.532877 1.147610 -1.052975 0.192070 -0.568384 0.438594 0.362737 0.453529 -0.623247 0.452352 0.059890 1.202276 -0.096791 -0.473965 0.512056 -0.121438 -0.819551 
-0.717358 -0.765307 0.206347 -0.372088 -0.891452 0.487677 -0.811198 0.009066 0.985095 0.528329 1.136186 0.440533 -0.239858 0.935312 -0.774455 -0.725634 0.709257 0.693444 -0.528927 -1.175404 -0.385162 0.429984 0.595821 -0.002612 -0.359544 0.602145 0.123232 -0.809078 -0.815550 0.721032 -1.018076 -0.150189 0.388613 -0.003372 0.632747 -0.323625 -0.068077 -0.663955 0.014512 -0.569248 -0.623112 -0.147016 0.118501 -0.475396 -0.002569 0.991562 -0.870730 -0.607974 0.315471 0.683282 0.920352 -0.568981 -1.014051 0.743572 0.551057 0.005876 0.879294 -0.219559 0.212388 -0.770854 -0.576311 -0.773224 0.043256 0.365244 0.507430 1.115547 -0.336562 0.839645 -0.545584 0.686030 -0.928686 0.085258 0.311781 0.673057 -0.560656 -0.056642 0.320736 -0.940134 0.878125 -0.031224 
-0.444650 -0.645698 -0.611157 0.371748 0.086580 -0.835995 0.480761 -0.735416 -0.175323 -0.457771 -0.794949 -0.430296 -0.282836 -0.382869 -0.970755 -0.092508 0.725668 -0.441301 0.042810 -0.304331 0.026373 -0.053027 0.096218 -0.236618 -1.084406 0.553970 -0.781912 0.375612 0.936674 0.297795 -0.304511 0.854924 -0.913409 -0.148870 0.493519 -0.278991 0.060194 -1.014621 -0.339567 -0.606640 -0.088163 0.085213 -0.586233 -0.482481 0.480502 0.684087 0.822376 -0.470475 0.329561 0.505380 1.110866 0.381212 -0.131085 -0.587135 -0.420712 -0.523322 -0.165502 0.063426 -0.729511 -0.091058 -0.641102 -0.128441 -0.641355 0.830800 -0.553776 0.521986 -0.197680 -1.054929 1.006572 -0.928483 -0.864992 0.662734 -0.027489 0.056054 -0.159671 -0.687628 0.657800 -0.688782 0.827927 0.738245 
-0.103924 -0.988131 -1.320933 0.533644 -0.825676 -0.342497 0.770285 -0.045353 -0.171262 0.611434 0.832402 -0.100279 -0.836456 -0.232534 0.326817 0.243058 0.453546 0.515496 -0.886231 0.565531 -0.708005 -0.216522 0.437982 -1.253587 0.252999 -0.712083 -0.343709 -0.431372 0.932462 0.672308 0.780739 1.015745 -0.559812 0.659486 0.881892 -0.331830 0.764655 -0.731391 0.137962 0.484778 0.283101 0.184947 -0.319806 0.819774 -0.287043 0.227901 0.053958 0.522368 -0.445109 -0.423346 0.995473 -1.091032 -1.281910 -0.158803 -0.547942 1.119913 0.539801 0.199230 -1.038356 1.577292 0.717388 -0.555654 -0.337907 0.664240 -0.818694 1.376513 0.064929 -1.014682 -0.567146 0.865945 0.687201 -1.072015 -0.224588 -0.029531 -0.459616 0.595718 0.802191 -0.180299 -0.371144 0.224484 
0.709866 -0.225730 0.045953 -0.695840 -0.517218 -0.776757 -0.492640 0.707480 0.980607 0.014719 -0.542004 0.111267 -0.237948 1.016881 -0.101635 0.373484 0.647072 0.471281 -0.356349 -0.425473 0.070255 -0.286984 -0.512788 -0.196712 0.563991 0.483509 0.693280 0.353970 -0.127499 -0.817443 0.228363 -1.035940 -1.119418 -0.093965 -0.636377 -0.398431 -0.385134 -0.500815 0.842981 0.069239 0.302078 0.717265 -0.220221 0.204538 -0.023560 -1.001129 1.061826 -0.698557 1.114685 1.165721 -0.378556 -0.194188 0.105309 0.749319 0.112861 -0.728919 -0.002179 -0.502271 -1.217120 -0.011732 -0.674045 -0.198520 0.577162 -1.207079 0.556509 -0.756722 -0.211491 -0.785933 0.726601 0.220690 0.352976 -0.566824 0.816250 -0.731511 0.857988 -1.158438 0.458479 0.385420 1.147957 0.349913 
0.409559 0.165062 -0.189491 -0.719615 -0.740525 -0.616227 -0.409083 -0.568773 0.071531 -0.583358 -0.726108 0.650961 1.221497 -0.964593 0.155151 -0.319959 0.177620 0.011622 -0.861536 0.608494 -1.190454 0.526701 0.019060 -0.323550 -0.371916 -0.709293 -0.043983 -0.798070 0.498650 -0.570284 0.635388 -0.663309 -0.695084 0.859916 0.129461 0.513345 0.378520 0.391613 0.404923 0.614849 0.897672 -0.219564 -0.593489 0.907872 0.661699 -0.763106 0.848780 -0.366429 0.771964 -0.035307 -0.009187 0.253463 -0.129993 -1.209916 -0.087556 0.804388 -0.055767 0.287761 -0.677655 0.088112 1.000754 0.553699 0.674896 -0.986376 -0.581575 -0.023394 0.550646 -0.754868 -0.644250 -0.295640 0.872534 -0.667941 0.582570 0.154862 0.458520 -1.114866 -0.040598 0.323210 0.248382 0.950973 
0.123510 0.580677 0.978495 -0.354262 -0.159178 -0.282433 0.360540 -0.065292 0.021344 0.017879 1.235161 -0.636427 1.164756 -0.236577 -0.056407 -0.651135 0.931331 0.342464 0.360115 0.911895 -1.438867 0.355674 0.193860 -0.603340 0.376431 0.362456 0.306941 0.191257 0.324255 0.084749 0.320673 0.360504 -1.062543 -0.245926 0.215328 -0.023816 0.769820 0.977429 -1.030602 -0.031270 -0.182759 1.035556 -0.694132 0.873705 -0.459599 1.430187 0.457025 0.745419 -1.270570 0.830246 -0.378908 -0.502545 -0.992427 0.299784 -0.296767 -0.667368 0.002078 -0.925999 -0.262153 -0.477418 -0.381664 -0.483546 0.065826 0.336765 0.504688 -0.284536 0.787986 0.414291 -0.543697 -0.326953 0.049881 -0.019960 0.403383 0.028068 -0.529668 1.278161 -0.526944 -0.989369 -0.653831 -0.634586 
0.224317 0.486447 -0.342931 0.807291 -0.702166 -0.901983 0.734403 -0.628919 -0.770282 0.389306 -0.062345 -0.838252 0.350347 -0.059547 -0.804155 1.146341 -0.416514 -0.412190 0.286104 0.835325 -1.328598 -1.267145 0.369253 0.134176 0.427918 0.588865 0.892643 -0.641929 -0.853587 0.312740 -0.808092 0.145061 0.640057 0.562414 0.233960 -0.549298 -0.612335 -0.776523 -0.545701 0.892322 -0.483919 0.588549 0.766094 -0.484300 0.611939 0.248842 0.936068 0.532939 0.792937 0.184026 -0.065530 -0.865297 0.308983 0.686495 -0.761998 0.917635 -0.346646 0.058902 -0.398796 1.228836 0.088835 0.191679 -0.854871 0.606891 0.405289 -0.899361 0.258030 -0.848026 0.696508 -1.021809 -0.238516 1.056004 -0.209561 0.264297 1.102382 0.329741 0.837446 0.230527 0.326111 -0.665095 
0.421220 -0.201847 -0.109145 1.128089 0.151465 0.930680 -0.294845 -0.811431 -0.864030 -0.159538 -0.100694 0.548872 0.616119 -0.198652 0.031739 -1.031675 1.053200 -0.330084 -0.502481 -0.418938 -1.692617 -0.722796 -0.377216 0.136643 0.294604 -0.748839 1.012114 0.076713 -0.433154 -0.302706 -0.534806 0.669600 -0.221261 -0.700661 -1.031170 0.442734 -0.447319 0.621362 0.515881 0.936317 0.445975 0.448726 0.855825 0.285601 1.012820 1.078968 -0.501347 -0.313339 -0.794347 0.017465 0.357797 -0.803638 0.094805 -0.708109 0.748068 -0.267246 0.408373 0.852106 -0.481995 0.081728 -0.600813 -0.353828 0.084442 -0.548089 -0.965933 -0.105278 -0.437763 -0.054487 0.658316 -0.514287 -0.674035 -1.005094 -0.183596 0.171739 0.318796 0.158775 0.916149 -0.631474 0.198592 -0.662314 
-0.235678 -0.095818 0.471608 -0.822727 -0.469235 0.368145 0.787156 0.288320 -0.390684 1.002501 0.380084 -0.231118 -0.685935 0.510052 0.236888 0.315769 0.952346 0.248285 0.704636 1.259343 -1.044644 0.529391 0.120913 -1.035595 -0.464012 -0.299797 0.613671 -0.477769 0.817430 0.169231 0.874335 -0.611443 0.110917 -0.880518 0.157672 1.022024 -0.734246 -0.350908 0.253510 -0.617362 -0.685737 0.290158 -0.616841 -0.300431 -0.213240 0.358858 -0.418997 -0.272127 0.483302 1.264063 -0.459477 0.266514 0.530937 0.934053 -0.213497 0.971348 -0.857584 -1.054990 0.260084 -0.240677 -0.382562 0.897934 0.165950 -0.294627 -0.960615 0.656428 -0.029323 -0.341782 -0.373223 -0.244752 -0.323971 -0.560833 -0.045610 0.473396 -0.223185 0.238358 0.999525 0.173179 0.983117 0.753014 
-0.562337 -0.479530 -0.322515 1.197636 1.050289 -0.738764 0.150386 -0.359476 -0.401821 0.175603 -0.913129 -0.555101 0.866547 0.559378 0.286640 -0.263367 0.114960 1.140760 -0.283360 -0.331201 -0.081095 0.066167 0.546699 -0.253938 0.857847 0.023343 0.692240 -0.643656 0.430412 0.461186 -0.622189 0.243978 0.546410 1.000420 -0.333967 1.406732 0.254596 0.228228 0.225068 0.672846 0.228263 -0.882457 -0.329666 0.552339 1.099953 0.275278 -0.080304 -0.703686 -0.381732 0.999882 0.291029 0.833688 -0.624926 -0.396916 -0.494898 0.445431 -0.094922 -0.354382 0.839037 -0.222998 -0.387179 -0.608502 0.767458 0.225221 -0.441599 0.615382 0.599075 -0.770601 -0.555089 0.797707 -0.431042 0.026033 -0.306145 -0.295165 -0.564512 0.978575 0.965337 -0.850701 -0.834380 0.351628 
-0.153763 0.541972 0.457056 0.366034 -0.783957 0.951104 0.694443 0.804115 0.614989 -0.808471 -0.987061 -0.464368 1.110965 -0.194141 0.263461 0.189019 -0.460342 1.302221 -0.732719 0.615354 0.717553 0.514123 -0.158656 -0.480901 0.948983 -0.492623 0.531926 0.774298 0.292077 0.488739 0.153270 0.028368 -0.328348 0.342369 0.018716 1.073894 0.309027 0.591599 -0.402843 -0.416584 -0.578260 -0.072733 0.925506 -0.435814 -0.827622 0.611096 0.612855 -0.366271 1.082540 0.615697 0.190175 0.576629 -0.628112 0.513190 -0.313899 -0.535216 -0.268804 -1.529081 0.040425 -0.627238 0.565797 0.722245 -0.380006 -0.986085 0.031273 0.457611 0.125353 0.413755 0.560600 -0.580863 -0.788624 -0.531995 0.106579 -0.491061 0.229011 1.088476 0.386130 -0.233532 0.862413 -1.014527 
-0.242471 -0.428901 -0.864040 -0.723134 0.032083 0.848069 -0.397232 0.102135 -1.176462 0.512266 -0.122243 0.862004 -0.926282 0.594129 -0.957407 0.401142 0.259328 0.541543 -0.704676 0.591800 -0.452156 -0.294012 -0.205821 0.668953 -0.317931 -0.062729 -0.606471 0.101631 -0.582564 0.187335 0.511466 -0.742226 0.750487 -0.428213 0.385930 0.440654 0.290939 -0.208626 0.243760 -0.115101 0.872414 -0.752583 0.239093 -0.641157 -0.020381 -0.029705 -0.594479 -0.604458 0.306974 -0.941064 0.004688 -0.286198 0.319211 0.219048 -1.191672 0.791066 0.441726 -0.080981 -0.622912 0.051478 -0.457720 0.715167 -0.457696 -0.076028 0.152566 -0.335911 -0.647528 -1.229872 -0.805470 -0.235785 -0.385911 0.964237 -1.043196 -0.539499 -0.649124 -0.619685 0.101045 -1.064092 -0.005927 0.778062 
-0.473056 0.774464 -0.277115 0.126941 0.240174 -0.584852 0.659003 0.482387 0.687172 -0.244906 0.262948 0.003910 -1.311060 -0.677920 -0.986801 0.462787 -0.957871 0.580512 0.407289 0.137344 0.184005 -0.506925 0.132500 0.097153 -1.327950 0.322024 0.175208 -0.574017 0.037775 0.937057 -0.576913 -0.785809 0.442536 0.187139 -0.010198 -0.830211 -0.680812 0.133132 -0.847625 0.496765 -0.175680 -1.037409 1.079963 0.959998 0.877345 -0.760103 0.755430 1.086776 1.652769 -0.914163 0.690470 0.368286 -0.479562 0.797967 -0.225688 0.590594 0.366895 -0.562737 0.611207 -0.117881 -0.118786 -1.044384 0.859147 -0.400850 0.811236 1.015551 -1.009219 -0.295857 0.318620 0.160160 -0.956494 0.171481 0.911528 0.526034 1.104020 -0.294098 0.956186 -0.618139 0.679222 -0.531677 
0.836324 -0.016586 1.062801 -0.672626 -0.039938 0.872270 0.975644 -0.959388 -0.777399 -0.063778 -0.047034 -0.186044 -1.369549 0.666188 0.559402 0.960604 0.788734 0.738102 0.000162 -0.105069 0.477007 0.421888 0.331850 0.391965 -0.023946 0.127353 -0.631052 -0.264719 -0.599789 -0.326006 0.669390 -0.124736 -0.360620 -0.052721 -0.017159 0.322100 -0.138409 0.444014 0.406396 -0.102968 -0.765530 0.385513 -0.901488 -0.635211 -0.479767 -0.701745 -0.460867 -0.373038 1.205134 0.063920 0.316647 0.801828 0.708572 -0.066639 -0.097726 -1.268095 0.766089 -0.746071 -0.243826 0.605954 -0.943381 0.156050 0.655774 -0.110211 0.195466 0.154651 -0.175617 0.425262 -0.430521 0.608662 0.754565 0.464718 1.165997 -0.833543 0.199367 0.031889 -0.576361 0.299080 0.609248 -0.584152 
-0.394311 0.319361 -0.711808 -0.688278 0.047129 0.620167 -0.833991 0.765801 -0.596716 0.273160 0.481705 -0.956916 -0.108045 -0.575338 0.421812 0.148654 -0.998212 0.563317 -0.677689 -0.365579 0.667962 -0.556031 0.002257 -0.538180 0.773255 -0.088669 -0.778605 -0.719203 0.903723 -0.867379 -0.821847 -0.007216 0.072117 -1.028898 0.840200 0.466652 0.737987 -0.674239 0.293701 1.005592 0.048437 -0.224168 -1.021748 0.505706 0.259837 -0.060228 0.780566 0.791911 1.161667 0.872579 -1.333420 0.719921 0.379822 -0.589039 -0.018708 0.465231 0.229113 0.495255 -0.804566 0.493904 0.315443 -0.179787 0.158758 -0.801191 1.101407 0.482446 -0.612837 -0.905060 -0.056922 0.359920 -0.890666 0.020877 0.345040 0.005023 -0.605113 0.691392 -0.200344 -0.824309 0.396775 -0.669960 
0.140268 1.039574 0.638532 -0.335698 -0.727211 0.175330 0.457158 0.365978 -0.053015 0.562951 -1.007795 0.938351 0.490623 0.749861 -0.070768 0.838505 0.494448 0.130934 0.455084 -0.983529 -0.441314 0.088515 0.610221 0.467497 0.503244 -0.360545 -0.639082 -0.351419 -0.217396 0.202811 -0.960103 0.107486 -0.572278 0.787759 -0.571293 0.174047 0.033279 -0.737796 -0.434014 -0.024546 0.809647 -0.711479 -0.420447 0.909993 -0.682806 -0.487352 0.968272 -0.825130 1.026901 0.296863 -0.497640 -0.560646 -0.891150 0.236941 -0.762440 0.058018 0.085703 -1.100403 0.172238 -0.409375 1.206199 -0.639834 -0.392861 -0.364368 0.314463 -0.168775 0.840582 -0.075772 0.696331 0.094296 -0.590266 0.436512 -0.481953 0.750371 0.273741 0.058935 0.140923 -0.423271 -0.948158 -0.551487 
-1.087791 1.136566 0.438026 0.089372 0.352842 -0.289190 -0.523011 0.500624 -0.916522 0.399467 0.273516 0.060921 -0.335225 0.256765 0.858947 0.447607 -0.339228 -0.732458 -0.920049 -0.466231 0.416539 -0.063379 -0.893994 -0.576885 -0.183907 -0.568567 0.140009 -0.155600 -0.779436 0.027749 -0.292945 0.626185 0.141305 -0.496630 0.482423 0.129489 0.583824 -0.558143 0.572217 0.430518 -0.110601 -0.194785 0.920815 0.891505 0.455082 0.075117 0.629837 -0.154079 1.178401 0.403011 0.658122 1.137513 0.786791 -1.061360 0.292832 0.936276 0.548642 -0.473133 -0.883821 0.041854 -0.213261 -0.289791 -0.216403 -0.306986 -0.859429 0.736125 0.978403 -0.624329 -0.912375 -0.646053 -0.153523 0.658613 -0.465762 -0.590927 -0.276732 0.136946 -0.397628 -0.534730 0.195260 -0.666823 
0.393288 0.541385 -0.375975 -1.068331 0.168955 -0.676304 0.211723 0.243865 -0.968253 -0.822881 -0.759603 0.371866 0.133074 0.144754 0.671038 -0.526333 -0.284285 0.892242 0.570046 -0.692434 0.809272 -0.572736 -1.072356 0.644541 0.960386 -0.270041 -0.292156 -0.181338 1.003357 -0.659829 0.483961 -0.214845 -0.695867 0.677008 -0.841193 -1.047520 0.378212 0.753620 -0.901884 -0.457078 -0.625563 0.448174 0.357312 0.562322 0.434262 0.845326 -0.163695 0.617659 -0.679537 -0.067719 -1.102621 0.978716 0.017546 -0.201176 -0.723083 0.017104 -0.667463 1.026263 0.461235 0.824782 0.003398 -0.742992 -0.395200 -0.333605 0.437297 0.303724 -0.416350 0.064066 -0.787423 0.112287 -0.843999 -0.204829 -0.667885 -0.504379 0.518242 -1.341149 -0.202034 -0.752546 -0.015016 0.312924 
-0.785461 0.393680 0.225459 0.097586 -0.859297 -0.417258 0.197692 0.703520 -0.638698 0.279388 0.174867 0.366503 -0.745045 0.872176 -0.321518 0.192378 0.308761 0.861412 0.246872 -0.922840 0.378468 0.417429 -1.132888 0.474529 0.032110 0.222796 -0.699073 -0.158098 -0.245983 0.394780 -0.475297 -0.507237 0.651265 -0.217135 0.721864 -0.611642 0.493790 -0.180218 -0.630765 -0.151110 0.827806 0.444650 -0.264494 0.624423 -0.799409 -0.238898 -0.134506 -0.236340 0.916871 -0.371100 -0.197440 0.558500 -0.397439 0.031243 0.862694 -0.133114 -0.587627 0.184372 -0.034016 -0.832127 -0.256975 -0.475960 0.520306 -0.862662 0.366334 0.340801 -0.292962 -0.523252 0.247411 -0.552207 -0.390747 -0.217846 0.294887 1.041998 -0.478818 -0.299419 0.801797 0.387982 -0.208123 0.541171 
0.118014 0.195802 -0.906155 0.340508 0.975334 -0.084570 0.469186 -0.448941 -0.785321 -0.014508 -0.475359 0.138844 0.186083 -0.724741 -0.747889 0.454911 -0.520269 -0.930483 0.697154 -0.501385 -0.333701 -0.782992 -1.015447 0.520829 1.057955 -0.671819 -0.899025 -0.261281 0.724381 -0.021923 -0.539495 0.109353 0.516977 0.415197 -1.625763 -1.056696 0.259109 0.474824 0.209668 0.166370 0.235150 -0.550359 0.227339 -0.361954 0.247304 -0.597222 0.924218 -0.152970 0.677712 0.527429 -0.657126 -0.562947 0.970553 -0.370104 0.170390 -0.872472 -0.081531 0.727308 0.956502 -0.851509 0.266456 -0.443759 -0.877320 -0.327689 0.430593 0.759975 0.093540 0.557916 0.644267 -0.758730 0.506167 0.044042 0.118252 -0.386647 1.067948 -0.816264 -0.883530 0.175499 0.880246 -1.063217 
-0.816311 0.135626 -0.424046 -0.324630 0.281849 -0.210114 0.607409 0.606043 0.300647 1.189342 0.622611 0.533953 0.795237 -0.543710 -0.594922 -0.510389 1.063100 -0.297001 -0.215254 -0.080858 0.147566 -0.021777 0.232404 0.033094 0.143369 0.135311 -0.190561 0.868098 -0.817879 -0.196087 0.821670 -0.278338 0.838617 0.368839 0.110089 -0.248984 0.107230 -0.608347 -0.233129 0.376266 -0.961272 0.503924 -0.005499 -0.407205 -0.876733 0.394669 -0.360836 -0.840132 -0.522124 -0.682993 -0.889934 0.676233 0.656219 0.653589 0.140226 -0.399255 -0.639503 -0.249963 -0.722702 0.053673 -0.114194 0.519406 -1.212358 0.374315 -0.388092 0.114806 0.847669 0.137323 -0.244884 0.527610 0.979713 -0.809912 0.568345 -0.194749 -0.499963 -1.204446 0.398871 -0.708669 -1.018725 -0.303613 
0.178055 -0.050070 0.489087 0.565465 -0.593275 -0.695572 -0.621488 0.477886 0.479263 -0.812967 -0.160589 -0.094709 0.305116 -0.058531 0.275999 -0.974941 -0.187029 -0.012088 0.245402 -0.533982 0.371202 -0.188445 0.150814 -0.650775 -0.538746 0.015074 -0.834555 0.837862 0.737821 -0.381544 0.057270 -0.288453 0.034522 0.307183 0.067164 0.606521 0.712609 0.576914 -0.405263 0.792657 -0.090147 -0.858255 0.409931 -0.652633 0.018179 0.488749 -0.458539 0.897326 0.916706 0.861626 -0.728490 0.242182 0.237073 0.738714 0.113206 0.269054 0.622223 0.176063 -0.759736 0.126412 0.434263 0.110046 0.780920 -0.476487 -0.142231 -0.143057 0.797701 -0.157542 -0.841592 0.437176 0.345155 0.112826 -0.070636 0.323769 1.063561 -0.578170 -0.688258 -0.740507 0.160471 0.024801 
0.482981 0.713432 0.943390 0.442466 0.015805 -0.265521 0.469219 0.481960 -0.570921 0.629433 -0.574713 0.375779 0.536734 0.239741 -0.275289 -0.102114 0.884557 0.650640 -0.616126 0.817695 -0.472355 -0.043323 -0.075364 -0.950118 -0.818397 -0.781329 0.298081 0.924230 0.938506 -0.972926 -0.056068 -0.680275 -0.493429 0.222252 -0.883717 0.193866 0.539848 -0.669832 0.952899 -0.313842 -0.514596 -0.099849 0.993086 0.582776 -0.446263 1.054540 0.835354 -0.533918 0.603808 0.313611 0.601273 0.070502 -0.243033 1.014287 0.578417 -0.037501 -0.853503 0.619988 0.351514 -1.173753 0.522675 0.763009 0.375929 -0.003589 0.917958 0.437789 0.603584 0.159483 -0.546299 -0.463994 -0.113078 -0.927011 0.642300 -0.103781 -0.578516 0.816741 0.774500 1.092152 0.507938 0.019201 
0.663119 -0.312668 -0.564714 0.100580 0.386506 -0.554365 -0.088268 -0.080035 0.682631 0.801586 0.338922 0.320697 -0.061211 -0.206010 -0.882928 0.038501 0.364446 -0.586994 -0.264362 0.439721 -0.031700 -0.865413 0.565093 0.298235 0.261241 0.314458 0.358840 0.010094 0.996436 0.190896 -0.511595 0.886673 -0.048180 0.932846 0.904096 -0.880193 -0.137482 -0.670000 0.498572 -0.429684 -0.158367 -0.800552 -0.688147 0.394229 -0.545137 0.790019 0.977727 -0.774003 0.740514 0.112655 0.651246 0.438725 0.121504 0.852611 -0.550714 -0.136310 0.842407 -0.318864 -0.526273 0.651719 0.254779 0.760074 0.313180 -0.935478 -0.776382 -0.016665 0.009408 0.098334 -0.826429 -0.954274 -0.135166 0.850472 0.039684 -1.108301 -0.391593 -0.062226 -0.399343 0.418382 0.894243 0.940553 
-0.132211 0.223777 -0.455300 -0.836894 0.726514 0.992549 -0.152529 -0.788251 0.668491 -0.863798 0.694891 -0.086228 -0.750474 0.135629 0.931714 0.540305 1.018115 1.032431 0.343774 0.100900 -0.881778 -0.376714 1.186772 0.181622 0.661522 0.714166 0.178847 -0.336915 -0.315682 0.501230 -0.592425 0.219804 -0.508683 0.909131 -0.363296 -0.505466 0.092724 -0.961535 0.547231 1.024463 -0.758272 -0.375024 0.357663 -0.775695 -0.375851 0.253717 0.219950 1.007263 -0.379023 0.771132 -0.255452 -0.617913 1.191586 0.693355 0.822206 0.195638 -0.242295 0.698875 -0.804950 -0.421583 -0.198699 -1.021755 -1.306238 -0.720476 -0.657140 0.214728 0.393470 -0.353299 -0.366566 -0.969912 -0.510803 -0.829379 0.344745 -0.508659 -0.234285 0.288881 -0.624259 0.197773 -0.879504 -1.131400 
-0.795400 -0.708340 -0.281541 0.914627 0.705465 0.948204 0.429347 -0.545992 -0.047145 0.198550 -0.676932 0.290663 0.167557 0.461777 0.813761 -0.735863 0.404256 -0.078381 0.338246 -0.590849 0.023634 0.608178 0.428968 -0.224322 0.366874 0.299014 -0.767992 0.191366 -0.592932 -0.714989 -0.931704 0.061915 0.700191 -0.502788 0.758167 -0.534169 0.560883 -0.332551 0.644097 -0.108779 -0.666732 -0.912562 -0.872880 -0.253123 -0.041539 0.104220 0.001027 0.157633 -0.257496 -0.485872 0.381064 0.723058 -0.348549 0.849959 0.190133 0.859933 0.135442 -1.068756 0.630644 -0.744921 -0.043225 -0.790977 -0.560278 -0.964462 0.794878 -0.380375 -0.584264 -0.496184 -0.964800 0.002187 0.993368 -0.387282 0.029878 -0.054966 0.700693 0.666609 -0.209904 0.131411 -0.704749 0.419311 
0.607516 -0.849390 -0.387831 -0.609884 0.697067 0.153429 0.197956 0.199584 0.453118 -0.366286 0.484379 -0.303186 0.032973 0.916606 0.209858 -0.013957 -0.854517 0.522438 -0.413964 -0.409162 -0.279093 -0.733478 -0.746634 -0.164519 -0.030204 0.269966 0.993989 0.565418 -0.433120 0.474946 -0.413315 -0.142662 -0.058917 -0.510906 1.051148 0.300649 -0.931377 -0.852007 -0.458609 0.024715 0.376694 0.870728 -0.701238 0.950697 0.675480 1.175611 -0.614648 -0.968524 1.363092 -0.759095 -0.260339 0.928895 0.037942 -0.613188 -0.086193 1.035206 -0.713613 0.239003 0.331500 -0.507468 -0.534355 -0.284129 -0.963509 -0.154368 0.586158 -0.599160 0.536573 -0.930711 -0.515346 0.370340 0.926221 0.614347 0.441885 0.200180 -0.535877 -0.560133 -0.243624 0.940576 -0.381615 0.152610 
-1.055154 -0.975455 0.128835 -0.684541 0.603789 0.403403 0.475638 -0.380738 1.047970 0.024117 0.699491 -0.293037 -1.303743 -1.018607 -0.076579 -0.634623 0.166813 -0.942990 0.653930 -0.901141 0.234899 -0.245491 0.602397 -1.149197 -0.298945 0.447059 0.341789 0.829076 -0.385148 -0.903712 -0.563008 1.014111 0.067930 0.196519 0.933106 -0.206187 0.557536 0.258670 -0.516649 -0.724082 0.789947 0.096269 0.793431 -0.591484 -0.220541 0.880446 -0.002081 0.163548 0.673971 0.203895 0.498803 1.184402 0.382308 0.216917 0.488208 0.630700 0.358228 -0.308170 0.702934 0.121156 0.430188 -0.846205 -0.029818 1.001457 0.025249 -1.064850 0.417389 0.568121 -0.033907 0.619347 0.701963 -0.451642 0.488575 0.306245 -0.604113 0.404912 -0.287796 1.172973 0.701909 -0.538969 
0.628722 0.821263 0.239964 -0.160739 0.374139 0.202406 -0.042748 -0.402800 1.000619 -0.687816 -0.109820 -0.448418 0.670484 0.563901 -0.118511 0.733957 0.242465 0.149540 -0.804712 -0.546245 -0.464096 0.248093 -0.211560 -0.287171 0.801483 0.074526 -0.853276 0.709293 0.887860 0.119053 -0.360248 0.609248 0.081767 -0.727071 0.568572 0.701311 -0.227126 -0.770051 0.772414 0.879101 0.171445 0.116866 -0.580688 0.162525 0.268700 -1.109222 -0.140802 -0.296476 0.301177 0.003309 -0.963662 -0.063450 -0.793546 0.271988 -0.369418 -0.903349 0.647758 0.495994 0.958236 -0.068829 -0.668663 -0.466606 0.452093 1.303894 -0.915371 1.130327 0.259963 -0.315222 -0.491640 -0.232204 -0.630701 -0.530366 0.147310 0.456650 -0.093610 0.771610 0.607376 0.436972 0.924656 0.777470 
-0.974509 -0.856685 -0.472468 -1.020847 -0.701635 -0.364639 0.643463 -1.142522 -0.245536 0.770788 -0.518400 0.011464 0.359819 0.931417 0.528988 -0.564683 -0.573572 0.702562 0.902429 0.038145 0.591848 -0.929124 0.387799 0.344690 -0.167294 -0.960279 0.706977 -0.354721 0.132661 0.560623 -0.254777 -0.730291 -0.641359 0.690093 -1.133700 -0.763515 -0.601375 -0.309729 0.251533 -0.350585 0.198703 0.499739 0.299005 -0.817081 -0.288295 -0.320734 0.975071 0.468699 1.053642 1.210557 0.066689 -0.403102 -0.589608 0.207660 -1.326245 0.234360 0.792594 1.196645 -0.313515 -0.301402 -0.016437 0.454878 -1.075235 0.027683 -0.824913 -0.566733 -0.197320 0.109910 -0.574648 0.397939 0.875912 -0.110525 -0.186611 -0.861161 0.692944 1.025910 -0.340814 -0.337128 0.950194 0.340403 
-0.059500 0.178387 0.180440 -0.079905 -0.494297 0.515704 0.414332 0.898927 -0.069096 0.074371 -0.771962 -1.258618 -1.150864 -0.785484 -0.409060 -0.646851 0.299889 -0.065162 0.342554 -0.503394 -1.189476 -0.371617 0.363802 0.607557 0.343852 -0.614903 0.139500 1.024103 0.678376 0.100387 -0.350623 -0.652159 -0.119897 0.853346 0.621888 -0.846257 -0.022323 -0.425014 -0.403226 0.206462 -0.302839 -0.680637 -0.877982 0.879500 -0.883181 -0.762725 0.948714 -0.241407 1.365575 0.788144 0.145068 0.186838 -0.327028 1.060381 0.342909 0.901218 -0.156105 -0.117793 -0.637056 0.616477 -0.022401 1.013317 0.315091 0.179605 -0.601725 -0.681997 0.815421 0.023114 0.672366 0.674879 0.813460 1.240353 -0.803984 -0.709960 0.169561 -0.622045 0.250205 -0.786015 0.027714 0.259739 
-0.512115 0.984262 -0.986326 0.779219 0.605041 0.669286 0.471135 -0.710289 1.041884 -0.215029 0.223597 0.296665 1.364695 -0.361659 -0.787275 -0.628804 -0.354304 0.918920 0.157848 -0.706537 -0.524562 0.573586 0.010547 -0.808888 0.072179 -0.200150 0.699382 0.144919 0.868668 0.439523 -0.607630 0.594788 -0.721634 0.023302 -0.390807 0.006485 -0.251599 0.407276 -0.317871 0.710780 -0.323964 0.073950 0.342071 -0.188985 -0.899460 0.650990 0.261486 -0.166633 0.627278 0.761010 0.828584 -0.250774 -0.858640 -0.027881 -0.690474 -0.561163 -0.013637 0.527086 -0.913886 0.178956 -1.461822 -0.071755 -0.878719 -0.708803 -0.980880 0.211787 -0.146541 -0.508975 -0.599176 0.730914 -0.008045 0.378195 -0.390774 -0.764991 0.462392 -0.305974 0.064538 0.081556 1.008795 1.106657 
-0.619187 0.389890 -0.314792 0.713204 0.274420 -0.367483 -0.513105 0.143142 1.051808 -0.814480 0.614656 -0.447099 0.583366 0.584748 -0.322609 -1.082610 -0.907271 0.823365 -0.156992 -0.391678 0.698689 -0.164381 0.680676 -0.233504 -0.093453 0.971002 -0.326462 -0.640592 -0.130756 -1.024165 0.890683 1.053313 -0.691433 -0.039408 0.983653 0.896417 0.375782 0.533455 0.714958 0.284214 1.046725 0.141804 -0.483467 -0.339774 -0.201880 0.630147 -0.452674 0.419530 0.985463 -0.557247 0.414652 0.421124 -1.003110 0.528334 0.273558 -0.820709 0.998041 0.248598 0.788036 0.517341 -0.006325 -0.152023 0.649678 -0.022996 0.473731 0.894217 0.248610 -0.610746 0.930473 -0.337230 -0.487536 -0.451215 0.758477 -0.114975 0.436354 -0.953219 -0.446046 -0.939981 0.611453 -0.112387 
0.961585 0.431176 -0.880199 -0.487993 1.052527 -0.010893 0.268074 -0.176989 0.896386 -0.591582 0.730496 -0.053715 -0.245461 -0.353768 -0.639034 0.771168 -0.525891 0.548669 0.235288 -0.102881 0.301293 -0.708640 -1.002725 -1.175575 0.046316 -0.466589 0.291908 0.847057 -0.325794 -0.026144 0.808852 0.045923 -0.823931 -0.518824 0.057945 0.912692 0.094380 -0.679056 -0.287775 0.518712 -0.345967 0.218409 -0.724820 0.729000 0.567908 0.982483 -0.060224 -0.705669 0.455217 -0.375555 0.680825 0.040954 0.759154 -0.425571 -0.434211 0.071780 -0.811212 0.690088 0.785280 1.078741 -0.726264 0.173380 0.389542 -0.841854 0.442433 0.173845 0.578385 0.715342 0.546218 0.855750 0.217566 -0.608406 0.844439 0.180614 -0.001189 0.026464 -0.394102 -0.027250 0.741596 1.110930 
-0.922417 0.001901 -1.017464 0.558012 0.695507 -0.480636 -0.653849 0.627430 -0.379821 -0.785034 -0.484292 0.203011 -0.031869 -0.528478 0.797850 -0.529036 1.149486 -0.061394 -0.002383 -0.601579 0.841252 -0.027482 0.093796 0.008560 0.200379 -0.034105 0.801255 0.324021 0.498074 0.268146 -0.807039 -0.116380 0.719655 0.201571 -0.224763 -0.006785 0.817276 0.785728 -0.464116 0.736727 -0.372217 0.438666 0.783273 -0.521219 0.148400 0.715657 -0.805775 -0.266258 -0.554094 -0.633677 -1.335909 0.472518 -0.561122 0.019303 -0.711660 0.137197 -0.019213 0.531931 -0.974898 0.548485 -0.749036 -0.540263 -0.198077 -0.461304 0.332738 -0.740059 0.161499 -0.439428 0.224978 -0.442153 -0.089282 -0.641950 0.315742 -0.722597 -0.611670 0.220954 0.787186 -0.506124 0.673886 0.280308 
0.335478 -0.790251 -0.693606 0.528107 0.186688 0.776651 0.113510 0.457420 0.591806 -0.591642 -0.205531 -0.724069 -0.096255 -0.305416 -1.007327 0.030784 1.002783 0.621430 0.977830 -0.294449 0.142355 -0.805822 0.144437 -0.348421 -0.303162 0.825179 0.235901 0.602147 0.544034 -0.868974 -0.294871 0.088934 0.097663 0.851128 0.643731 -0.784811 -0.689843 -0.560555 -1.275425 -0.146254 -0.792660 -0.260199 0.230282 0.424490 -0.677206 -0.426821 -0.076573 -0.342537 -0.349352 -0.829521 -0.002736 0.002786 -0.591556 0.143530 1.147723 -0.951897 -0.404080 -0.134313 -0.749650 0.159727 0.276264 -0.160458 -0.019934 -0.709697 -1.021800 0.396492 0.009125 -0.779116 -0.179557 0.368510 0.319942 0.338507 -0.084360 0.350585 0.351074 0.873887 -1.035025 0.337941 0.131878 -0.480463 
-0.721036 0.413853 -0.074942 0.594361 0.690398 -0.087535 -0.518234 -0.874774 0.244393 0.653325 -0.291271 0.404028 -0.798455 -0.325111 0.820526 -0.612929 -0.079057 -0.003695 0.674836 0.908782 0.285138 0.560986 -0.418156 0.590585 0.332808 0.850482 -0.174122 0.126434 -0.043488 0.514834 -0.416036 -0.221961 -0.377886 0.573275 0.669858 0.581386 -0.529151 -0.041268 0.389837 -0.022420 -0.935989 -0.824524 -0.419052 -0.342251 0.309360 0.231654 0.167970 0.112603 0.761570 -1.165307 -0.760909 -0.969621 0.500343 -1.140902 -0.353667 -0.970524 0.951868 0.612493 -0.479596 -0.778109 -1.014961 0.860735 0.200899 0.169746 -0.944059 -0.425127 -0.005219 0.280642 -0.789047 0.929319 -0.170948 0.510652 0.074213 -0.071016 0.200750 -0.920229 0.355615 1.106640 -0.554142 0.043025 
-0.879940 -0.095748 -0.100390 0.515765 0.090225 0.228347 -0.848495 0.030907 0.200817 -0.791758 0.184388 0.791285 0.308110 0.760322 0.028514 0.579766 0.166442 1.100718 -0.836946 0.318904 -0.196398 -0.874114 -0.332731 -0.343317 0.369199 0.312516 -0.440964 1.034793 -0.130202 0.439028 0.566439 -0.519029 -0.067265 0.283630 -0.542921 0.187645 -0.219274 0.497866 -0.286983 -0.343815 0.713292 -0.195598 -0.632323 -0.445631 0.950531 -0.378092 -0.640958 -0.067066 -1.133959 0.221331 -0.139619 -1.184023 -0.059935 0.741242 0.474170 0.172104 1.326904 0.867558 0.721343 -0.005128 0.063957 -0.506846 -0.582039 0.274808 0.324390 -0.126010 -0.974993 0.714616 0.531121 -0.036668 1.010067 -0.428432 -0.250763 -0.113129 -0.608631 -0.138665 -0.678976 -0.535033 0.525372 -0.504221 
0.088366 0.575111 -1.099347 -0.271319 -0.298063 -0.727588 -0.296645 -0.368922 -0.536828 -0.547545 -0.085944 -0.920766 0.107328 -0.845790 0.493149 0.803241 -0.971511 -0.668919 -0.291558 -0.364266 -0.731273 -0.781146 0.191358 0.280600 0.685665 0.540239 1.211333 -0.045691 -0.207992 -0.906584 0.845794 -0.606731 -1.077669 -0.063118 0.449592 0.796455 0.153930 -0.105748 -0.818727 -0.358458 -0.829168 -0.882427 -0.439811 0.239565 -0.293043 -0.441338 0.624348 -0.134015 0.957319 -0.038565 -0.360515 -0.514124 1.102778 -0.161460 -0.929252 -0.230238 0.139390 -0.015960 -0.724837 0.911595 -0.773624 0.665133 1.031082 -0.161422 -0.247854 -0.249491 0.203855 -0.261964 -0.914566 -0.806827 -0.603852 0.526951 0.042068 -0.504262 -0.561311 -0.671015 0.101758 -0.145904 -0.700295 1.016552 
0.717416 -0.753667 -0.274622 0.181259 -0.308126 0.497306 -0.817071 -0.016398 -0.383374 0.332735 0.730318 0.152803 -0.238387 -0.233578 -0.696224 -1.065237 -0.511917 -0.477977 -0.438005 0.068590 -0.053145 0.862789 -0.335167 -0.189200 -0.151307 0.215589 0.452789 -0.689667 -0.307916 -0.190492 -0.626105 0.285852 -0.819769 0.968405 -0.514582 0.033385 0.174680 -0.420580 0.144853 -0.735505 -0.375297 -0.725892 -0.998350 0.017737 -0.554427 0.858313 0.831283 1.084129 0.134423 0.249741 0.547832 -0.157180 0.170814 0.014380 0.798750 -0.777403 0.304239 -0.775901 0.706818 -0.187097 0.227160 0.655996 -0.377923 0.520442 -0.250243 -0.607943 -0.580669 -0.702149 0.835097 -0.763372 0.665113 -0.493069 -0.546609 0.223468 -0.962763 -0.036932 0.512541 0.127381 0.381903 -0.413120 
0.559183 0.853147 -0.329614 -0.606648 -0.180732 -0.734625 -0.292759 -0.808275 0.083912 -0.110076 -0.738260 -0.698998 0.496410 -0.753230 -0.657072 0.378591 0.018332 -0.499053 0.062277 0.173267 0.862559 -0.527922 0.058950 -0.413254 1.201334 -0.685063 -0.459995 -0.764626 0.656535 -0.324051 0.280817 -0.086794 -0.183582 0.839820 -0.896698 1.028172 -0.927269 0.281584 -0.162627 0.212574 0.441334 -0.053634 -0.819171 0.524664 -0.244249 0.051460 -0.401426 0.223025 0.471539 0.521063 1.034566 -0.962856 -0.420555 0.263546 -0.037525 -0.217733 0.476614 0.236254 0.062311 -0.474136 0.830502 -0.711672 -1.059037 0.546459 1.018018 -0.669092 0.214202 -0.374588 0.288019 -0.668162 -0.184134 -0.184687 0.119952 0.139324 1.045488 -0.429126 0.319916 -0.911606 0.536871 0.280858 
-0.699265 0.498182 0.329419 -0.623624 0.176209 -0.217047 -0.919554 -0.599988 0.171879 -0.486267 0.522333 0.247042 0.813326 0.514975 -0.559883 0.401353 -0.471335 -0.160826 0.078298 0.542327 -0.390448 0.536288 -0.252754 -0.488423 -0.856394 0.075655 -0.777499 -0.544725 -0.902392 -0.603581 0.342809 -0.250800 0.079890 0.400298 -0.283862 -0.531335 0.687773 -0.222652 -0.590754 -0.042255 -0.744317 -0.133787 0.401816 0.576199 -0.111662 -0.883914 0.534550 0.972505 -0.233545 0.384559 -0.136197 -0.901505 0.662561 -0.712599 0.136539 -1.022169 -0.482518 -0.490188 -0.053431 0.060875 0.996818 0.271214 -0.843884 0.282077 0.952331 0.626621 -0.091210 -0.937706 0.186534 0.389769 -0.157425 -0.864871 0.719133 0.751498 0.947771 -0.118186 -0.789411 0.495053 -0.382347 -1.078049 
-0.360424 -0.099354 -0.090146 -1.148062 0.805111 -0.693639 0.847770 0.420448 -0.893719 -0.830537 -0.352689 -0.793346 -0.374167 0.663730 -0.280812 -0.273302 -1.082173 0.902456 0.123307 0.538101 0.245765 0.107104 0.317768 0.326183 -1.048994 -0.514585 0.047861 -0.665130 0.039325 -0.672487 -0.177198 -0.419519 0.177970 0.586450 0.130093 0.778351 0.258478 0.497390 -1.501553 -0.709018 -0.307802 0.932128 -0.357131 0.923453 -0.841137 -0.700100 -0.463183 0.786388 1.060587 -0.240285 0.062745 -0.090547 -0.647543 -1.172444 -0.831791 -0.088646 -0.283359 -0.072138 0.700882 0.672879 -0.610773 -0.791845 -0.352241 -0.143933 0.864970 0.980907 -0.855166 -0.175566 1.088232 -0.200423 0.183549 -0.438491 0.378878 0.021923 -0.266106 0.262582 -0.691091 -0.433217 0.393725 -0.402162 
0.885602 0.816490 -0.847712 0.267296 -0.391312 -1.232541 -0.575848 0.541076 -0.781502 0.821898 -1.135468 -0.960323 0.211238 0.730521 0.881725 -0.695138 -1.345134 0.505449 -0.733319 -0.100030 -0.748723 -0.076867 -0.596282 1.073002 0.500566 0.028380 0.361180 0.589551 0.250466 -0.707641 0.173176 0.503602 0.576586 -0.804398 0.691379 0.484590 0.303417 0.492085 0.008978 -0.035396 0.135942 0.394767 -1.081306 0.555228 0.580566 0.437990 -0.169932 -0.846830 0.661910 0.798189 -1.437444 -0.023479 0.493430 -1.186598 0.405011 -0.048128 -0.487419 -0.805491 -0.092718 0.069632 -0.652328 0.789981 0.667097 -0.159452 -0.179333 0.232977 -0.547011 0.105461 -0.305392 -0.748111 -0.529383 0.857944 0.952162 0.828170 -0.203594 0.693785 0.290629 -1.307314 0.300310 0.743939 
0.167402 0.711278 -0.178048 0.384207 -0.903872 0.218406 0.912242 -0.879499 0.231582 -0.593382 0.592887 -0.062098 -0.242276 -0.543680 -0.741419 -0.935737 -0.095951 -1.288484 0.054061 -0.857870 -0.127829 -0.269663 -0.363905 0.230073 0.211857 -0.827914 0.216206 -0.583201 -0.904684 0.337248 0.638688 0.124889 -0.772674 0.627921 0.390717 0.941682 -0.623084 -0.210352 -0.696995 -0.519994 0.634754 0.311714 0.421704 0.636959 -0.062143 0.008264 -0.527860 0.490311 0.792806 -0.342986 -0.858194 0.073545 0.273309 -0.245887 0.204169 0.759137 -0.713275 0.278638 0.935347 0.230394 0.575651 0.619002 -0.521592 0.410528 -0.078995 -0.285239 0.481502 0.131909 0.343989 -0.409735 -0.311915 0.381020 0.614972 -0.252107 -0.124013 -0.372532 0.605253 0.621273 -0.777337 1.076617 
-0.501553 0.001533 -0.279041 0.464427 -0.123104 0.196028 0.987020 -0.381644 -0.849910 -0.349748 0.165711 -0.645687 -0.145777 -0.252007 0.870770 0.091877 -0.699604 -0.059211 -0.675124 0.528422 0.070365 -0.536272 -0.106264 0.275290 0.503847 0.443747 0.287437 -0.588649 1.057754 0.832294 0.234904 -1.090028 -0.271617 -0.664275 0.663456 0.068101 0.308370 -0.769288 0.679520 0.413552 0.745342 -0.558580 0.790828 0.714783 0.588668 0.574508 0.472440 0.748259 0.090116 0.371176 0.554852 -0.293781 -0.502391 -0.174613 0.516358 -0.760275 0.390768 -0.583093 0.782574 0.112813 0.026674 0.904621 0.488103 -0.166058 0.409436 -0.741462 0.617576 -0.756602 0.920700 -0.586216 -0.818497 0.229964 0.166822 0.864824 -0.443495 -0.715015 -0.115421 0.061618 -0.417150 -0.481047 
