1.767364 -0.126268 -2.408390 -0.744621 -1.110025 -1.637610 -0.824193 -1.802570 1.796637 -0.552398 -1.701444 1.217901 1.257734 -1.348125 -1.259221 -1.677922 -2.329433 -0.837408 -2.355753 2.423442 -2.264092 0.879108 -3.263089 2.197214 -0.189455 1.804179 -3.731650 -0.152511 -2.983764 -2.594174 -0.173154 1.297012 0.970694 -1.079444 2.650864 3.134551 0.123584 -0.673382 -0.954955 -0.939814 0.166395 2.120578 -1.269469 -0.732124 1.455320 1.526151 0.253811 0.821659 -0.077024 2.401351 3.033762 2.715397 
0.009123 0.206579 -0.201077 0.684308 -0.634551 0.505520 -0.023847 -1.543124 -0.026129 -1.233106 -0.227851 -0.847075 -1.043245 -0.646329 -1.595109 0.188620 -1.237418 0.188938 -0.572389 -0.852372 -1.759355 -1.079200 -0.697262 -0.717498 0.238833 0.059589 0.604141 0.572223 -1.189326 -0.016686 -1.168581 0.624130 0.164666 -1.036597 0.146503 -1.842698 1.124631 -3.393421 -1.468157 -0.830952 0.361049 -0.023071 -0.821540 1.289064 -0.506557 -3.004730 -0.255392 -0.905524 0.493724 -0.251678 -0.842767 0.701632 
-1.370101 -1.939329 -0.201881 -0.963376 2.097478 -1.567812 -0.383490 2.353962 -0.050755 3.245983 1.908449 -3.987711 0.493226 1.823594 -2.615593 1.259366 -1.927980 2.044921 -1.728143 1.327412 -0.323283 -3.157755 2.093965 1.515375 0.229300 0.490268 -0.033861 -2.262983 1.639987 -2.885424 1.799375 0.716936 0.810291 -3.391635 -4.442917 1.426101 -4.586993 -0.970632 -0.892019 -1.923204 2.228570 -1.242030 -2.142109 1.111108 3.431641 1.101901 -1.819157 -3.866708 -0.566428 1.270447 0.785110 2.447121 
0.209741 -0.731645 -0.243368 0.339603 0.854786 -0.002338 -0.857939 -2.256697 -0.056908 -0.174677 -0.772046 -1.081619 -3.654536 0.855948 -0.243834 0.212569 -0.948718 -1.439394 -0.146185 -0.892104 0.184480 -0.912714 -0.453000 -1.404647 -1.115182 -0.471641 0.420389 -1.236086 -0.247655 0.122623 -0.582050 -0.975708 -0.287101 0.403731 -0.244939 0.274448 -2.275386 -3.023040 -0.073562 -0.265298 -0.950787 0.531486 -0.715726 -1.229246 -0.549417 -0.218404 0.267156 -0.011922 -0.655911 -0.667495 -0.252725 -0.030804 
0.638067 -0.459726 -0.965020 0.843727 -1.172462 -0.345719 -0.906457 -1.118274 -0.962642 -1.176496 -1.046671 -0.327499 0.012923 -1.045491 0.440986 0.124707 -0.531171 -0.235812 -0.861457 0.276871 -0.436965 -0.678891 -1.206808 0.070043 -0.479433 -1.342462 0.421150 -0.286231 -1.091115 -1.062316 -0.075267 -0.852694 -1.139652 0.465083 -0.049043 -0.032902 -0.971835 -1.329961 -1.465819 -0.145754 -0.943979 -0.652798 -1.089878 -0.432286 0.051398 -1.540133 -1.131432 -1.103159 -0.984946 0.208744 -1.003112 0.070062 
-0.029392 -2.726287 -0.370952 -3.409584 -0.695149 0.144681 -0.793880 0.921675 1.356587 1.148637 -0.324074 -2.036567 -2.134013 -0.814054 0.454667 -0.679572 1.215722 0.462203 -2.745384 -1.016780 2.265443 -1.599714 1.332806 -0.877708 -0.142148 2.668739 -0.450154 -0.241939 0.939071 -1.571890 0.917289 0.541129 1.403984 1.861404 1.117411 -0.235251 0.219702 -0.126200 -0.484164 1.260261 -2.143628 0.048686 -0.457865 0.329683 -0.557265 0.684982 0.317771 0.617624 0.071132 -0.011452 -0.442573 -5.013144 
-1.070029 -0.418065 -0.092004 -0.285778 -1.333982 -1.097553 -0.471219 -0.871367 0.533828 -1.068873 -0.110980 -0.221307 0.067495 -0.174748 -0.320969 -2.008899 -0.223644 -0.378420 -0.249332 -0.717738 -0.000258 -0.464374 -1.285810 0.103598 -0.619213 -0.319952 0.816880 -0.791998 -0.760743 -0.996670 -1.326686 -0.667683 -0.878172 -0.167322 -1.306445 -0.166643 -0.035701 -0.313985 -0.882205 -0.657339 -1.470736 -0.811683 -1.177169 -0.541859 -0.789926 -0.033636 -0.682945 -0.901842 0.397629 0.007246 -1.763440 -1.691191 
-0.605842 -2.979623 -0.338416 -1.131972 -1.470696 -0.286183 -1.062114 0.178184 -1.045162 0.580952 0.036033 -1.065346 0.421523 -0.512034 0.225768 -0.513737 0.744494 -1.019634 -0.449886 -0.484301 -1.064769 -2.176089 -0.647154 -1.005262 0.362858 -1.043721 -1.375835 0.192789 -0.346881 -0.931372 -0.494653 0.522128 -0.572545 -0.044968 0.476028 0.632275 -3.499746 -0.593716 -0.545602 -0.159770 -0.986098 -0.247089 -0.485908 -0.506668 0.169070 -0.417356 -1.016741 -0.580832 -0.784996 -0.338362 0.397914 0.988741 
-3.423458 -0.963381 -0.592339 -0.735087 -0.247209 0.454509 0.169245 0.869358 1.145221 -0.201150 -0.046487 -0.000824 0.658128 -0.211347 -0.646783 0.370594 0.287418 -3.086583 0.007820 0.167788 0.213867 -1.567834 -1.860228 0.703670 -1.263804 0.703620 -0.618846 0.756649 -0.982269 -1.594787 1.633911 0.535326 -1.845595 -0.379946 -0.497596 -3.673827 0.994763 -0.486998 -0.235784 1.630223 1.196095 -0.104595 0.246480 -1.003699 -0.494504 0.541290 1.117603 -0.033194 0.050649 0.590301 -0.288403 -1.572715 
-1.020728 -0.459916 0.080598 -0.789470 -0.390172 2.149158 -0.745848 1.459080 -1.514158 0.554020 -1.956058 -0.213371 -0.973388 -0.343576 -1.656444 -1.658391 -0.231803 1.690553 0.721129 -0.473031 -0.720331 -2.488452 -1.847418 -0.718738 -0.535411 0.083838 -0.971167 4.513775 -0.584501 -1.521710 -1.138459 0.652020 1.553331 -3.819045 -1.237516 0.037667 -0.460535 -3.423260 -0.183095 -0.385507 -0.897587 -0.643551 -0.945735 2.126182 -0.406567 2.415915 -2.216065 -1.273154 -1.106028 0.853087 -1.122341 -1.422868 
-1.858941 1.175272 0.102702 -2.288823 -1.464662 -2.300684 -0.547040 2.980576 -0.428487 1.508566 -2.711853 -1.876743 2.175021 1.488363 3.419529 -2.458403 -1.683828 0.901774 -0.571791 -1.129549 1.677020 1.380405 -1.779790 0.218669 -0.671614 -3.272036 0.535711 -1.831487 -2.744153 0.670540 -1.164507 -1.399960 1.471275 -2.789841 -1.782764 -3.189247 -2.012144 -0.505060 -0.068428 -1.231233 -2.503277 -0.107328 -1.385254 -1.908115 1.522220 -2.213316 1.793920 -1.507588 1.770379 -0.975992 1.441423 0.375937 
-0.189219 1.777172 -0.617245 3.469904 -1.800786 -2.008480 -0.981753 3.528654 -1.800514 -0.802153 -0.284149 -1.652341 4.395244 0.259554 -0.733032 2.821032 -1.645638 -1.389579 -0.636150 -0.465507 -2.888786 -1.619728 -0.709266 -0.635313 -0.071948 -0.172692 -0.148978 -1.714839 -1.249366 1.568031 -1.343261 -0.445455 -1.773271 0.301548 -1.220813 -0.898235 -2.499876 1.875178 -0.709475 -0.993767 -0.847780 3.255112 0.116871 -2.140354 -0.334104 -0.986440 0.172953 2.287715 2.207951 -1.122546 -1.850515 -0.206881 
-1.368399 0.691460 -2.834841 -0.265468 -1.402217 0.182356 -1.163683 -0.234241 -0.584979 -1.080496 -1.583095 -0.993824 -2.539363 -1.520077 -0.407795 2.330417 -0.874600 -1.928012 -2.519625 -2.342185 2.185598 2.089039 1.956335 -1.613688 0.477559 -3.133544 -1.461613 -1.801961 2.681476 -1.846321 -0.662381 0.089127 -2.075089 -0.205245 -2.729421 -0.724893 -2.162785 -1.390872 -0.910924 0.669757 -1.254864 -1.351502 1.669060 -0.413417 1.829642 -0.836296 1.221157 -1.344508 -2.329658 0.753412 -0.851543 2.851076 
0.394050 -0.880119 -0.844049 -0.776277 -1.132142 1.794182 -0.378464 -0.564107 2.601211 -0.291932 -1.180401 2.044619 -1.208201 -0.952545 -0.600386 1.656967 0.179601 -1.599423 -1.058130 0.575534 -1.952511 -0.802672 2.318538 -0.167903 0.644620 -0.714464 -1.474093 -0.632320 -2.134810 -0.658356 -0.265089 -2.294685 0.596582 -2.794872 -1.852579 -0.671397 2.392850 0.233339 -0.885964 -0.210220 -1.201012 0.651026 -1.264238 3.385572 -0.900113 2.765876 -1.299116 -0.705668 0.891310 1.332395 -1.158245 -1.309640 
0.343941 1.049066 -0.102760 -0.344388 -1.121578 0.878530 -0.063325 -0.168069 0.428943 1.599952 -0.827977 0.178822 -0.201496 0.165779 -1.119945 0.558424 -1.168699 0.035124 0.106116 -0.255802 0.547338 -0.805127 -0.780021 -0.161950 -0.191164 1.063732 -0.954027 -1.335691 -1.074872 -0.187023 -0.640363 -1.117751 -1.766940 1.086326 -0.176477 -1.086125 -1.264849 -0.624832 0.147824 -0.760444 0.170611 -0.618759 1.020013 -1.267120 -0.460704 0.207758 -1.441549 0.703727 -0.543449 0.577859 -0.644216 0.150986 
0.623529 -0.693271 -0.782793 1.122518 -3.012682 -1.887905 -1.047434 -1.690162 -0.707759 -0.842310 -1.825816 0.664234 -0.615591 -0.005599 -1.762839 -1.041065 -1.319156 -0.870593 0.038656 -0.133068 0.081699 -0.865327 -0.470674 -0.227632 -0.520679 0.047484 -0.775587 -0.670067 0.576792 -0.011712 0.079479 0.545130 0.361901 -0.419517 0.076976 -1.115940 -0.878693 -1.759612 0.105213 0.751122 1.356255 0.212780 -0.177095 0.463390 -0.514655 -1.561173 -0.951965 -0.731455 0.815709 -0.969438 -1.635574 -0.997160 
-0.312960 -2.208263 1.697785 -0.638890 1.614828 -3.637437 1.517758 -0.876997 2.658623 -2.452384 -2.115126 0.293054 1.132410 1.790151 1.266229 -0.255723 1.043862 -1.334009 1.261840 -0.375263 2.671311 1.264073 0.972513 1.060440 -0.100366 0.888855 -4.072408 -3.077533 -1.210122 -2.519616 -2.145760 0.530411 -1.377930 -0.504620 0.571081 -2.855673 2.738315 -4.718087 0.304913 -3.452602 0.786265 -0.799895 2.247839 0.608828 0.018311 -0.235783 -1.978754 0.081741 -0.212871 0.339209 -0.405299 -3.366241 
2.434003 -1.055004 0.782793 -1.268196 -2.574659 -1.294267 1.110677 -2.542478 1.087940 -2.788896 -1.375154 -2.148799 -1.743914 1.125063 -1.637719 0.928613 -1.290482 0.819809 1.508750 0.292170 -3.784858 -0.056663 -1.130968 -1.726220 0.445303 -1.288485 -1.664677 -1.818994 3.248356 2.241806 0.391496 2.415337 -2.026730 -1.788836 -1.513504 -2.706106 -0.847303 0.796629 -1.005635 1.543846 2.970654 -1.930319 -1.748229 -1.046515 1.433666 1.668187 3.336395 1.763147 0.501880 1.251763 -1.579699 -0.917290 
0.506276 -1.193645 -1.295437 0.326534 -0.701612 -0.504351 -0.752277 -1.038953 -0.764944 -0.311528 -0.180954 -1.315525 -0.092933 -1.284330 0.165294 -0.631251 -0.106570 -0.309155 -0.536384 0.269600 -1.221310 -1.424355 -1.902873 -1.133877 -1.302057 0.001272 0.797514 -1.061564 -0.702144 -1.253628 -1.087440 -0.730295 -1.191878 -0.844800 0.975468 -0.258817 0.515471 -2.621031 -0.626732 0.082959 -0.985510 -0.675312 -0.634990 -0.989511 -0.987665 0.375690 -0.738938 -0.772288 0.320814 -0.554784 0.326107 0.140062 
0.386732 0.779160 -0.254407 -0.117795 -0.282403 -0.045004 1.641106 -0.216506 -2.314041 -1.752202 -0.156892 -1.490404 0.367938 0.392888 -2.184965 -1.460475 0.962127 -0.030501 -1.677949 -1.206758 0.815419 -0.100248 -0.217933 -1.223443 -0.928281 -1.059838 0.402057 -1.824661 -0.535734 0.174500 -0.283694 -0.995532 -2.650633 -0.157110 1.426458 1.288206 1.520366 -0.018430 0.778806 -1.838819 -0.488508 0.501998 0.791331 0.361328 2.323550 -0.930918 -1.816967 -0.870749 -2.264691 0.215555 -1.403798 -1.852703 
-0.952958 -0.658747 -2.835379 1.238053 2.017388 2.181949 -1.579527 1.119657 1.725184 -1.506195 1.597774 -2.080118 0.228880 1.164618 -1.958360 0.626866 -2.162639 2.110366 -0.959994 3.223978 -3.211048 2.277452 -1.975718 -1.533172 -0.705178 -1.187375 -1.739296 -3.041497 1.427982 -2.144547 -2.085379 0.702382 -3.401823 -0.362695 -2.612572 -1.643741 -2.655847 -2.455064 0.375124 -0.798457 -0.835326 -0.908081 2.103782 0.906979 -2.014689 -2.170154 0.628301 1.068180 -2.714927 -0.152463 -3.169666 1.661455 
0.142614 1.248258 2.073569 -3.704291 -1.295979 -1.263305 1.874662 -3.011506 2.108043 -2.245136 1.637383 1.505028 -2.166574 -1.496966 0.354248 2.045221 -5.054262 2.554149 -0.749779 1.145390 -3.948232 -2.249906 1.597938 -0.177963 0.055142 -1.834144 -2.465076 1.475470 1.642666 -2.580790 2.436262 1.129910 1.294587 0.419536 2.407570 -2.694188 0.967410 3.452204 -0.004306 0.828502 -2.796391 3.405811 2.550947 1.618973 2.140102 -0.832965 -3.767004 -4.529107 1.449129 -2.744158 -2.888408 -1.317931 
-0.752380 -0.372630 0.006697 0.292743 -1.985233 2.597172 0.066331 -1.308874 1.616829 -0.521929 -0.811550 1.136406 0.747943 -1.184251 0.394198 -1.169369 -0.462954 -1.181167 1.174029 2.664893 -0.621557 0.428354 2.714026 -0.508137 0.519258 -2.828125 -0.907758 -0.553153 -2.045645 -0.752074 -1.460914 1.097829 -1.786094 -1.443954 0.504009 -1.513552 -1.950376 0.885252 -0.089612 -0.141340 -0.436589 -1.191324 -1.251037 -1.509816 -1.656097 -1.883023 -0.573592 -0.983453 -0.304352 3.502924 3.185292 1.940152 
-1.811811 1.455720 2.912583 0.079075 -3.114824 1.594755 1.928061 1.178037 0.106993 -0.012600 -1.450311 -2.995963 0.104691 1.763586 0.245518 -1.144492 -1.336831 -0.605419 1.161841 0.248239 1.628681 3.318295 -2.554339 -2.343016 -0.217581 0.828289 -1.196932 0.538740 -0.464349 1.049599 0.576957 -0.641312 1.475286 -0.148990 1.541818 0.487877 -0.504226 -4.713315 -1.022236 2.800169 -2.673984 -2.504033 2.061126 -1.249169 1.790043 -1.903751 -1.256375 -2.763941 -2.175431 -0.490567 1.627153 -2.547082 
0.040138 1.927265 1.923096 -0.626848 3.486320 0.166612 2.262181 -1.024079 -1.345952 1.444588 -0.418628 0.727488 -0.430878 -0.792915 -1.175755 -1.790346 -0.673383 1.700587 -1.157992 -0.236697 -1.932770 -0.457294 -0.866508 0.714346 -0.039057 -1.545832 -0.364078 2.019567 -1.628686 -2.401880 -1.577839 -0.075151 -2.208425 0.467348 -2.105694 -0.801267 -0.562092 -1.170987 -0.144752 -1.608486 -1.621476 -1.365252 -0.073682 0.249284 2.121997 -1.211334 0.689953 -1.205920 -0.893402 -1.773505 0.778037 0.880003 
0.233637 -1.707319 -2.420377 -1.248233 1.093568 -1.134863 -1.562695 0.322880 -0.818023 -1.642314 -1.038122 -0.535972 1.833165 0.413482 -0.732726 0.104511 0.784148 0.851497 -3.246210 -0.336406 0.024356 1.492712 -0.270645 -1.486505 0.020105 0.458187 0.662636 1.185900 -0.373038 1.234792 1.029314 -1.774739 0.640086 1.504920 0.057886 -0.405345 -1.683090 -0.808047 -0.031132 -1.545977 -1.467137 0.691014 0.477134 -0.693792 0.375035 1.463396 -1.054885 -2.913680 -0.188040 0.602758 0.032670 0.712197 
0.344382 0.464846 -0.996402 0.352821 -0.336659 2.615203 0.814123 0.712966 -0.771033 0.161912 2.102660 1.905366 0.766749 -1.090827 1.256676 -3.625274 0.706290 -3.019507 -0.457219 -0.173529 -1.633992 -0.607279 -1.395304 -1.192103 0.329578 -1.053649 -0.152164 1.263198 0.057109 -1.162347 1.220186 -0.346778 0.445642 -0.742774 -0.691263 0.816621 -2.691487 -0.310829 -0.715506 -2.739610 0.695667 0.450930 0.166854 -0.001940 -0.275744 -0.321305 -5.032859 0.202968 -0.500717 0.248489 0.124330 -0.392079 
-0.615949 -0.625787 -0.932309 0.230084 -0.549270 -1.122807 -0.013948 -2.808031 0.383702 -0.043769 0.044166 -0.252765 -0.892928 -1.509800 -1.118035 -1.083563 0.432399 -0.367925 -0.248935 -1.421038 -0.905788 -1.028624 0.111414 -0.699844 -0.084240 -0.445118 -0.822958 -0.207716 -1.041301 0.042976 -0.727661 -0.838963 -1.853652 0.378173 -0.069695 -0.074405 -1.543440 -1.474066 -0.425811 0.509856 -1.158218 0.026701 -0.268989 0.100012 -0.286669 0.046408 -0.668677 -1.045492 -0.961633 0.325043 -1.477484 0.432373 
0.500937 0.559982 -0.907034 0.446571 -0.100280 -0.904115 0.328097 0.601389 0.614362 0.831916 -0.510562 -1.079998 0.263637 0.210446 -0.862122 -0.272076 0.791867 -1.129461 0.342839 0.500483 0.266210 0.572271 0.236733 -0.449335 -0.377395 0.360733 -0.164083 0.473388 0.711968 -0.045237 0.756041 0.457416 0.634947 -0.912454 0.149808 -0.245659 -0.636212 -0.438976 -0.809465 2.141243 0.270350 -0.381720 -0.348820 -0.524668 -0.423921 0.449828 -0.681572 0.163677 0.459888 0.366362 0.601577 0.717317 
-0.969165 0.628261 -0.564645 -0.273783 -3.067843 -0.060462 -0.125953 -0.758532 -0.351886 -0.664924 0.257765 -1.148520 0.211880 -0.383830 -0.215256 -0.000504 -0.757837 -2.220020 -0.858246 -1.174685 -0.200068 -1.382390 0.185539 -0.022909 -0.788399 -0.742251 0.913348 -1.375348 0.094789 -1.137010 -1.364950 0.048979 -0.880959 -0.708814 -0.917490 -0.659562 0.275605 0.634860 -0.111896 0.306481 -0.367178 -0.182662 -0.875341 -0.282872 -0.251655 -1.640258 0.772654 0.266201 -0.803795 -1.183576 -0.085593 -0.110136 
0.070308 -0.717926 -0.237290 -0.438908 0.635158 -0.005310 0.016557 0.553552 0.138718 -0.377814 0.495404 -0.340848 1.138804 -0.469215 -0.707236 -0.329983 0.184101 -0.414823 0.077701 -0.831537 0.378859 -0.379677 0.166752 0.614861 0.110132 -0.154051 -0.913926 -0.664077 -0.601074 -0.370272 0.338127 0.574275 -0.146014 0.642388 0.549375 0.871912 0.994241 -0.368966 -0.562116 0.142371 -0.593711 -1.065933 0.757152 0.026610 -0.319208 0.092690 -0.090091 -0.912314 -0.470005 -0.178454 -0.733072 0.771591 
-1.052680 -1.225073 -0.916003 -1.025678 -1.643081 -1.136543 3.334173 -1.995723 -1.286337 -1.054697 2.936432 -2.062570 -1.829439 1.011433 2.975643 -1.313983 -0.403450 -1.726290 0.543913 -0.531293 -0.593530 -0.572594 1.878877 -0.491995 0.442283 0.247775 3.107318 1.819468 -2.836624 0.559979 -3.008804 -0.640616 -0.964062 -1.874181 -0.202296 -0.488718 1.204151 -0.447279 -0.060683 -0.872479 0.622422 -1.102203 -1.744930 -0.710892 -2.966386 -0.668650 -1.434741 -0.721747 -1.138022 -0.050008 -0.249411 -1.283727 
-0.458926 1.320569 -0.501462 0.814586 -0.493779 0.758557 -0.715192 -0.957213 -0.563996 -0.125563 -0.059063 0.189174 -0.875096 -0.642907 -0.247300 -1.148091 -0.129397 0.796312 -0.827758 0.541082 0.121144 0.431504 0.116049 -2.344771 -0.051129 -0.596830 0.701812 -0.555703 0.078302 -0.476731 0.408011 -1.079127 0.210343 0.960788 2.272680 -0.916438 -0.382660 0.693559 0.781842 0.968411 0.060731 0.373972 -0.724473 -0.412336 0.314709 0.383708 -0.700397 -0.615836 -0.748350 3.226205 0.042352 1.101891 
-0.365688 0.177300 -0.827110 0.586034 0.484680 -1.417814 0.511635 0.890792 -0.775726 0.565879 0.194219 -0.366284 0.794242 -0.729130 -0.973296 -0.616686 0.860367 -0.810865 0.203606 0.374457 -0.345051 -0.524365 0.084366 0.301840 0.434357 0.724228 0.489344 0.781599 -0.531676 -0.619524 0.405183 -0.851730 -0.394292 0.103813 -0.802013 -0.005053 1.547753 -0.080837 -0.139809 0.669730 0.608209 0.267375 -0.774253 0.227734 0.154707 -1.168311 -0.544820 0.993134 0.425696 -0.602015 0.247363 -0.980931 
1.785340 -0.698417 -1.712716 -0.438429 2.358176 -1.533570 -1.055585 0.402830 1.997527 -2.004017 1.568315 -2.073019 0.763460 1.141674 0.261366 0.789894 0.101074 -1.734737 0.261493 -1.429952 -1.127528 -1.451462 -0.384743 -1.032425 0.586005 0.032150 -0.708210 -2.987463 2.513331 -0.981041 -1.729130 -1.550455 -1.328269 2.078482 1.642370 -1.390126 -1.288610 1.706538 0.501146 -1.150177 1.858775 -3.426684 -0.460325 -0.960261 1.878449 1.469414 0.670980 -1.019304 -1.431376 1.390511 -2.764815 1.275111 
0.585509 0.287234 -0.722994 0.221092 1.446154 0.432982 -1.282265 -2.092884 1.078693 -2.693474 0.720676 -1.181293 1.976497 -1.508527 -0.440220 1.305626 -1.223555 -0.606270 -0.627697 -0.480832 -1.771232 -0.437236 -1.031310 3.546081 -0.716257 -0.640076 1.235999 -2.292199 0.097195 -0.352602 -0.444291 2.438535 -1.656830 0.775687 -1.125818 2.334574 1.368550 -1.629877 -0.343384 -0.637795 -1.351364 -3.448925 -0.627663 -2.070450 -1.792865 -0.686120 -2.351804 -1.364988 -0.078253 -2.586460 3.673619 -0.319721 
0.139814 0.645368 -0.481496 0.558982 -1.047052 -1.084792 1.123227 -1.316043 -1.250126 2.270960 1.009935 0.090959 -0.795008 1.398717 0.742752 -1.784210 0.455692 -0.803164 -1.535333 1.324683 1.740415 0.818941 -0.215849 1.789309 -1.017890 -3.785284 -3.130249 0.104315 -2.308883 1.018329 -2.582261 1.484345 -0.977014 -0.170018 0.616019 1.047031 2.088017 1.274069 -0.192808 0.705315 0.520069 -1.675944 -0.474195 0.115801 0.313235 -0.208150 -0.024741 0.415223 -0.151215 -2.550899 0.425785 -2.110836 
1.378781 0.190557 1.745214 -1.644190 -0.235452 -2.872730 -2.182013 2.052464 0.224374 0.990033 1.032670 0.712164 1.156860 -2.864990 1.865967 0.105008 -1.439673 0.252412 1.231924 -2.928049 -2.918467 0.565594 -1.839323 2.004779 0.507390 0.815552 -1.874331 0.226855 2.605799 -0.403361 -0.306024 1.675325 0.584432 -2.328157 1.388657 -0.058014 -0.565987 0.970304 -1.330740 0.987933 -3.642291 -4.811070 0.624569 1.439607 -2.387339 -0.159057 0.346142 0.071886 -1.038207 0.832468 -3.493969 -0.547357 
-0.342474 -0.747549 -1.115087 -0.659922 -1.793130 -1.668325 -2.631186 -0.429802 -1.758902 -4.017210 -1.579036 -0.140114 -1.662144 0.362642 2.994708 1.632857 1.857397 1.488447 -2.331659 2.363708 -3.241276 -1.883799 -0.044074 2.345007 -1.143990 -1.041475 1.771756 -0.148453 -3.444918 -1.855193 3.010220 1.924164 -0.853262 2.251971 -0.813483 2.479178 0.194050 0.294251 -0.421258 -1.742666 1.065330 -0.569946 0.746800 -1.184868 -1.505516 -1.557567 1.209746 2.547005 2.316209 -1.238296 0.949257 2.313297 
-1.189519 -1.102176 -3.211753 -0.424811 -1.229375 -1.770734 2.655595 -0.061174 -1.299274 -0.672810 -0.996303 4.151763 2.657497 -1.447471 -1.588166 0.187143 0.274054 0.158302 -0.708248 -0.807791 -1.309305 -1.424492 -1.377510 -1.812696 0.092559 -0.619737 0.691933 0.064915 3.829228 -0.807286 -2.149537 -1.107884 -0.692721 4.580754 -1.222873 -1.409923 -1.936132 0.678419 -0.626493 -1.275636 2.075129 -2.197242 -1.469717 -2.690482 -2.499021 -3.061466 1.584374 -1.428066 -0.722693 2.442602 -0.941006 -0.985982 
0.191526 -0.973852 -0.720334 -0.167387 -0.414035 -2.859628 0.252407 -0.987895 -0.796575 -1.151873 -0.427157 -0.955844 0.422008 1.698932 -0.452559 -1.133542 -0.058645 -1.011006 0.274355 0.336473 -0.597103 -0.436035 -0.312813 0.736420 -0.997985 -0.066463 -0.767271 2.275023 0.406064 -0.782154 0.427288 -0.437494 -0.990318 2.351618 1.860300 -0.070219 -1.074394 -0.166692 -0.119273 2.826431 0.095144 -1.839455 0.400048 2.184783 -0.168398 -1.168967 -0.328866 -0.220108 -0.449703 0.134956 -1.118598 -0.634685 
0.559783 -0.000344 -0.692512 -0.092634 -1.072127 0.502815 -0.031476 0.387190 -0.786229 0.625288 0.726830 0.059653 -0.835169 -0.677912 -0.435097 -1.263145 0.900496 -0.853036 -0.910010 0.363026 0.815379 -0.495460 0.577107 -0.722403 0.204179 0.940721 -0.990193 0.419407 -0.373757 0.227976 -0.361947 -0.747488 0.603686 -0.463140 0.629953 -0.677322 0.500541 -0.742757 0.386917 -0.741679 -0.640211 0.568073 -0.771224 -0.932248 -0.687472 -0.535277 0.994622 0.888517 1.055042 0.595508 0.491424 -0.302255 
-1.286305 0.024549 -1.554484 0.078443 0.440090 -2.409673 -0.735568 -0.362958 -2.355845 -0.485337 0.433254 0.199788 -0.017480 -1.586388 -2.178204 0.421770 -1.316066 0.603489 1.385817 1.202141 -0.424911 -0.368287 -0.178140 -1.180531 -0.344330 0.767255 -0.859908 -0.896459 -0.408994 0.116267 1.357660 -0.622288 0.306026 -0.306336 -1.569784 0.459376 -0.155131 1.293648 0.224036 -1.858851 1.391314 -1.015080 -0.026514 -1.076776 -0.734659 0.660966 -2.020286 0.346518 -1.653708 -0.842671 0.010512 -1.128989 
-1.007822 -0.877534 -1.441057 0.499631 -0.644441 -1.379313 -1.244767 -0.290919 -1.066431 -0.335170 -0.224650 0.084355 -1.004610 -0.988128 -0.143440 -1.511836 0.537414 -0.728792 0.205502 -1.624418 -1.579843 0.041839 -1.097173 -1.291160 0.081975 0.469886 0.675125 -0.353107 -1.244454 -0.255547 -1.524465 -1.627344 -0.669371 -0.948154 -0.101594 -0.384603 -1.596852 0.438986 -1.535158 -0.162823 -0.379632 -1.484216 -1.239560 -1.079618 -0.591012 -0.872041 -0.544019 0.429945 0.186799 0.244065 -0.998167 -0.119957 
-0.650008 2.502704 -2.315729 1.735976 -0.900525 1.340972 -0.651165 2.781777 -0.549983 -1.041695 -1.933367 -0.510206 1.953901 -0.537194 -1.478477 0.946331 1.679789 3.251318 -2.123066 -0.823016 -2.198579 -1.063638 -1.210575 -1.637092 -0.930991 -1.721821 -1.027930 -0.710288 0.422561 -1.438739 -2.586809 0.088533 2.570237 -2.252252 -1.274759 -2.053073 -2.125634 -1.837338 -0.327872 0.930219 0.743428 1.562373 1.481416 0.873402 1.359731 -1.137301 -0.793884 -1.618191 -1.396559 -0.674468 0.232908 -1.482222 
1.585755 1.638410 -2.790373 -2.201075 3.973724 0.698690 -0.862034 3.804090 0.653358 -1.681838 1.895446 4.045110 -0.851064 2.206704 -1.378717 -2.474981 -1.054233 -3.122299 0.595710 -1.796224 1.566737 2.433244 2.412965 -0.193478 -0.249456 -2.357863 -0.509487 2.450617 -2.651029 0.915187 -1.811173 -0.363412 0.584658 2.545607 -1.946197 -0.875236 2.144687 0.069748 0.437764 -1.140058 -1.012201 -2.483065 -1.229124 0.832451 -1.724476 -1.762323 -3.652235 -2.948551 -2.872767 -1.780096 1.520709 1.193119 
-0.313357 0.187216 -0.231574 -0.919606 -0.400615 -0.987156 -1.054624 -1.253895 -1.008931 -1.350249 -0.482692 0.197717 -0.673393 -1.122060 -1.200154 -1.111332 0.645463 0.476961 1.231689 -1.620815 0.074668 -0.565653 0.549744 0.261403 0.283426 -1.041986 0.846890 -1.116900 -0.580717 -0.286381 -0.186136 -1.413237 0.568200 -0.619690 -0.148816 -0.791142 -0.248522 -0.890925 -0.975832 0.093168 -1.223981 -0.732700 -0.726673 -1.558834 -2.357926 -0.400542 -0.718033 0.277763 0.297689 -0.073339 -0.641779 -0.297718 
-0.358150 -0.186639 -0.144366 -0.741873 1.917864 1.543631 -1.114875 -0.350735 -1.330664 -0.305432 -0.458147 -2.609120 -0.769760 -0.866188 -1.028228 -1.633125 -0.214394 0.367333 -0.874775 -1.381599 0.894499 0.621289 -1.892077 -1.324669 0.365159 -0.994973 1.276515 -1.604701 0.984649 -0.730118 0.989710 0.915366 -0.159748 -0.545333 -0.265094 0.064898 -0.686837 -1.125060 0.858874 -2.693752 -1.024850 -0.644328 0.640040 1.382297 -1.249792 2.261657 -0.340442 1.877608 2.624391 -0.887026 -0.526854 -0.018376 
2.320802 0.461169 -2.304640 2.504448 1.182264 3.307758 -1.524994 1.961657 -0.799084 0.262230 -3.042960 -3.569792 -0.732050 -0.801951 0.907265 1.497251 -3.228890 2.433538 -0.313941 -1.286134 2.516728 1.662265 -0.414395 -2.121011 -0.169783 0.871884 -3.350332 -0.931755 0.469680 0.850180 1.371127 -0.641680 0.292790 2.755224 0.035981 -1.543647 2.259253 -1.469503 0.649292 -0.105504 2.184781 -1.493173 -2.141546 -2.367537 -2.476712 -2.079106 -1.887805 -2.133543 1.902286 1.501040 -1.601759 -2.879247 
0.610023 0.634239 -0.971270 1.281914 -2.803480 1.742420 -1.247187 -0.913535 -0.483064 -0.317676 1.598912 1.677074 -0.264626 -1.060650 -0.795999 1.155440 -0.340408 -0.434266 -0.323694 -0.238064 0.566124 1.503952 -0.208437 -2.282043 0.809974 -2.664120 -0.159362 -1.140124 -1.627223 -0.163938 -1.400974 -0.823973 2.237482 0.317134 -2.008503 -1.082983 1.808583 0.573348 -0.098283 -0.455172 0.254203 1.957055 -0.102649 0.314366 1.711902 -1.397587 -2.119971 -1.622764 -0.936215 1.869505 -1.681481 1.681136 
1.367730 1.597033 0.509087 -1.397785 -1.441352 1.041436 -0.808611 -0.041270 -0.667586 -0.909849 -0.908318 -0.538463 0.039699 1.551855 -1.665018 2.846102 -0.192911 -0.596312 0.168368 -0.898411 -1.120049 -3.173776 1.450637 0.922032 0.845948 -0.812012 -0.742261 1.631554 -0.503572 0.881979 -0.311443 -2.028968 2.485290 -0.454517 -1.233494 0.126505 -0.239145 -0.349532 -0.292492 -2.200881 -0.948099 0.701237 -0.267768 3.694107 -0.431001 -1.589376 -0.867917 4.456048 -1.390020 0.543585 0.406259 -0.292067 
0.956444 -1.271707 0.577705 -1.161097 -0.549715 -0.053418 0.205633 0.930184 0.342423 -2.607572 0.669429 0.828472 0.288837 -1.503169 -2.391161 -4.505456 2.068969 -0.738060 -1.231942 -0.642113 2.080959 -0.195124 -0.064453 0.108728 -0.398574 0.913124 -2.118491 1.105393 -0.661885 1.203626 -0.300882 -0.703666 -1.550560 -1.298777 1.334542 -1.098777 0.199047 -0.176355 -0.451629 1.686857 -2.370217 1.172643 0.833514 -0.448757 0.077314 -1.133393 1.178127 1.160981 -1.665365 0.513833 -0.744783 0.377287 
1.010784 -3.457535 0.019074 -2.640365 1.758652 0.945816 -0.004557 -1.247499 -1.091803 1.647933 0.765267 -1.544020 0.282277 0.392744 1.114271 0.504546 0.920980 -1.121782 0.431939 0.311045 -0.275387 0.145107 1.290165 0.256919 -0.705952 -4.779678 0.824281 0.523612 0.801149 1.049289 0.974701 -1.215056 -0.768369 -1.613604 1.691314 0.245602 -1.608145 1.865335 -0.408456 -0.893584 1.021460 0.788966 0.796186 0.616353 1.104522 0.700873 -0.866959 0.699586 -0.874970 -0.276181 1.249854 -1.668085 
0.485846 -0.742969 0.431581 0.796387 -1.692437 -1.079596 -0.156315 0.120106 -3.106130 0.697393 0.470844 -0.590258 -1.446144 0.311628 0.313694 -0.099807 0.151974 1.226924 -3.066985 0.524976 0.186145 1.112065 0.083001 -0.154481 -1.171654 2.618189 0.740612 -3.056100 -0.141770 0.269601 0.984108 0.958275 -0.958339 -0.461794 -3.146881 1.137601 1.640578 0.925267 0.212579 0.977429 -1.392018 -0.326655 -0.006300 0.624979 -2.506265 -0.819645 0.611993 -1.162987 -0.092997 0.836898 0.109731 -3.061781 
-1.292667 -1.717916 -1.002593 0.064409 -1.496430 -1.168181 0.117705 0.486367 0.157441 -1.136811 1.794408 0.151443 -1.608875 1.079809 -1.332831 2.318229 -1.069047 0.177215 -0.822574 -2.389624 -1.177679 1.904904 2.679225 -0.784641 -0.335223 -0.967200 -0.608501 2.028516 -2.229769 0.193688 0.152624 -1.713299 -1.235234 -0.784429 1.129937 0.345073 -1.556011 1.132271 -0.090765 -0.140974 -0.660875 -2.963066 -0.403261 3.378541 0.239713 2.281737 2.196255 2.167861 -2.782052 -0.966052 -0.930193 -2.135578 
0.126004 0.149067 -0.960333 0.801928 -0.964810 -0.458251 -1.378693 -1.408105 -1.182258 -0.945124 2.022899 -0.106462 1.239794 -0.465496 -0.697287 1.460498 0.146754 -1.075098 -0.703447 -0.968225 0.521184 -1.125972 -0.659432 -0.159804 0.665480 -0.812102 -0.828736 -0.375569 -1.890750 0.166590 -0.281542 -0.067716 -0.056035 -1.818803 -1.183925 -0.626290 0.062752 -0.832329 0.523135 1.169862 -1.557155 0.785338 0.340301 -0.909784 2.475674 -0.293027 -1.796193 -1.654466 0.124932 -0.655701 -1.509568 -0.347840 
0.285658 -0.909333 -2.989254 -2.493505 -1.573816 -2.580478 1.788414 -3.902518 -1.219428 2.700884 -2.564512 -1.765033 0.272303 -1.156605 -2.807318 -1.669157 -1.232260 -3.642551 2.506135 -2.646633 -1.997574 -2.754375 1.119756 -2.045189 -0.151561 -1.158815 -0.993221 3.341018 -3.166536 2.963982 -2.493375 2.138915 2.147764 0.838332 -0.421407 1.725800 0.801585 0.272939 -0.951862 -0.522846 0.678563 -1.561510 2.595477 -1.337453 -0.028041 1.289265 1.923300 -1.589801 2.512321 0.544219 -0.420435 1.280906 
-2.080794 1.863980 4.923194 1.698298 1.962610 -2.020165 -2.957969 -2.813288 -2.572556 -1.409618 -3.062507 0.903218 -0.763166 2.430518 -1.349128 -0.297718 2.688585 -2.178039 -1.777980 -3.288841 2.074445 0.393492 -3.267596 -2.774802 -0.094948 -1.088181 -2.611829 1.085496 -2.059405 0.809287 -2.063071 -2.055411 0.052110 -1.707935 0.083549 -0.554493 0.866953 1.552616 0.255688 -1.755102 1.231030 1.742738 -3.910639 -0.658814 -2.007734 2.997770 1.666036 -1.617566 0.784153 -0.869093 3.578168 -1.708859 
1.042399 1.123379 -1.176059 -1.191892 2.754007 -1.076621 -1.338552 0.228621 0.290281 0.029927 -2.728070 -0.754017 -1.671803 -0.824334 -1.019594 0.129663 -0.962465 0.849798 2.310641 -2.302540 -2.109215 0.058461 -1.930829 0.132168 -0.773115 3.037034 -0.997019 -2.272765 -3.625868 3.762572 1.363937 -0.572098 0.787009 -1.913319 -0.930703 0.148520 -1.413397 2.392048 0.229479 -0.765009 -1.406775 1.438198 -1.341775 -1.609833 -3.028979 -0.580575 -3.029668 1.467328 1.357376 -3.029864 -0.816744 -1.573018 
-1.490359 2.047439 -2.658314 -1.558897 -1.672969 -0.618835 -1.589080 -1.536625 1.284777 -2.704651 -1.051737 -1.181787 2.188733 -1.938741 -3.160002 -1.728591 -2.637799 -0.034912 -1.356934 -3.427973 2.713154 2.635641 -1.322447 -1.299434 -0.923639 -1.409838 0.102197 2.814031 0.766174 1.232237 2.502534 0.491080 -1.465251 0.730380 3.345877 -2.506124 1.239339 3.058094 0.131939 -2.772244 3.976938 2.473940 -2.255057 -0.606882 -0.827618 1.423082 -0.697399 -1.991458 -2.032183 -1.968092 0.661128 1.736523 
1.053379 1.756963 4.452458 -2.598014 2.858906 -1.116640 -1.505027 -0.462547 -2.102712 0.167704 -0.376754 -2.885973 1.349296 0.878279 -1.860373 -0.220189 -1.660820 1.739415 0.816956 1.478077 -0.585258 0.495266 -2.458935 0.320409 -0.506763 1.250606 1.456139 -1.722453 -2.501006 2.186627 0.551561 -1.083307 -1.634669 0.637566 -1.212131 0.103808 3.469705 2.234310 -0.415552 0.855262 0.617485 3.012592 -2.713528 1.084554 -1.531173 0.783223 -0.806831 -0.828028 -3.056085 1.334347 1.372827 0.126266 
-0.307386 -0.254423 -0.771074 0.186397 1.994320 2.967754 -1.068106 -0.418414 0.668526 -1.530716 2.249810 0.021634 -1.558728 -0.558870 -1.306825 0.766084 -0.618074 1.772960 -0.577930 0.311677 -1.759387 -0.178151 -0.497755 0.696071 0.202762 -2.814117 0.820028 0.146023 -2.412895 -1.646236 2.836991 -1.613241 -0.441951 -1.349468 0.168874 -0.689517 0.694022 -0.775153 0.941414 -0.425779 -0.943183 -0.019000 -0.784438 -1.439409 -1.330711 -1.510355 -0.897777 -2.844301 -0.855495 -1.855244 -0.749031 1.372092 
-0.766546 1.587986 0.763195 -4.151209 0.038702 1.808894 0.715256 2.439993 -1.008470 -2.397320 -1.596276 -1.178252 0.867778 -1.805844 1.379658 3.182669 -0.040422 -0.559310 -1.510448 -0.625783 -0.942058 -0.040529 -0.171314 -3.395394 -0.628978 -2.975615 1.897504 0.983486 1.218478 0.008625 3.163705 -0.002663 2.739922 -0.146079 -3.397095 3.425649 -4.392040 -0.937343 -0.479881 1.903246 1.141068 1.169593 1.917811 0.934745 -0.992189 2.262588 1.450863 -1.501999 -3.740085 -2.545395 0.380290 1.061541 
-0.080650 -0.730731 0.872586 -0.532229 -0.052260 0.014388 -1.383557 0.041923 -0.225904 0.156893 -5.015888 1.045859 -0.167329 -0.012064 1.134105 1.235882 -1.496655 -1.565255 0.437749 -0.668506 0.194337 0.467309 -1.410189 1.679716 -0.364983 -0.179716 1.219078 0.161516 -0.286338 -0.093717 -4.824701 -1.767251 -0.151497 -1.653388 -0.369438 0.037818 -1.671887 0.284623 -0.729535 0.905009 0.304930 -0.697381 -1.047328 0.476194 0.882707 -0.511191 0.615702 0.263295 -1.350065 -2.347605 -0.297715 -0.058868 
-3.384225 -1.984138 0.090610 1.205532 0.867557 1.481155 0.616110 2.612248 -2.862653 -1.292369 1.954791 1.139795 -2.810527 0.839053 3.850638 0.361233 -2.996308 -1.087870 1.557079 1.979608 -0.196951 -0.192715 1.863484 0.116692 0.173410 -1.014593 -3.666566 2.047328 -0.234834 0.147866 0.652826 2.036995 -3.858118 1.910219 0.300143 3.348879 1.672016 0.680691 -1.027247 -3.707814 -2.978110 -1.609899 -2.186141 0.075578 0.765348 0.279904 1.701028 -0.303852 0.574513 -1.305019 -0.740807 1.194909 
-1.996206 1.018596 0.487221 1.044229 1.832278 1.421822 1.839894 0.205768 0.413949 2.157956 -1.661817 2.221793 -1.459499 -3.751025 0.069762 0.956175 -0.905781 -4.384746 -2.602424 0.969509 -0.096968 -2.235859 0.897198 -2.821152 -0.110601 2.010292 -0.418740 -1.661315 1.242528 1.009482 2.047519 2.536467 -1.133787 -3.140091 -0.242600 -2.236449 0.923746 0.343154 -0.804525 1.196463 0.408463 1.654516 -2.024478 0.883035 -1.484232 -0.416221 0.535042 3.558464 -0.374110 -3.100468 -1.971243 2.155855 
-0.023754 0.074122 -0.541414 -0.118486 0.288406 0.254862 -0.341302 -1.183053 -1.827018 -0.344495 -0.522599 0.346054 -0.282957 -0.709635 -0.317538 -2.617539 0.388762 0.349835 0.749008 -0.958141 -0.271037 -0.285852 0.466832 0.393149 -1.095252 0.151294 -1.769502 -0.374703 -0.724177 -1.244614 -1.424899 -1.210847 -2.275523 -1.037454 -1.607935 -0.155708 -0.638829 -1.338529 0.153408 0.444159 -1.051600 0.006692 -1.385696 -1.230269 -0.027277 -0.046178 -0.562930 -0.884614 -1.054177 -1.436798 -0.027641 -1.159665 
-0.781308 -1.210378 -0.471898 -0.607390 0.405552 0.248890 0.406757 0.602435 -1.120014 -1.762054 0.813475 -1.606987 -0.733109 -1.670258 0.008726 1.497893 -0.051731 -2.111837 -1.002324 1.283497 0.325835 0.476113 -1.131040 -1.261032 0.588526 -1.173131 -0.860545 -1.078789 -0.393708 -1.048097 -1.199987 -0.902233 3.707002 1.991079 3.300431 -1.004481 -1.220802 -0.025393 0.197116 -0.732720 0.026566 -1.540049 -1.712556 -1.715120 -1.445059 0.639432 -0.554553 -0.694345 1.321915 2.560902 0.616911 1.827026 
0.702241 -0.478689 -0.124181 0.710130 1.852614 -0.929914 -0.517228 3.103582 0.324152 -0.101246 -0.244036 -0.760113 -1.350070 -1.096344 0.426629 -1.145289 -0.055862 0.262973 -0.085713 0.352140 -1.824249 -0.855541 -0.237765 -0.920139 -0.696249 0.544032 0.552049 0.923706 -0.590894 -0.662283 -0.361847 -1.046913 -0.848030 2.075436 -0.112234 0.198433 -1.554654 0.509162 0.652182 -1.243115 -0.289960 0.343437 -0.053729 -1.383544 -0.062472 -1.189802 1.025595 -1.143673 -0.704479 -0.340434 0.163240 0.554926 
-0.188669 -0.501270 0.807188 0.340967 0.298620 -0.541161 0.194618 0.578765 0.253966 0.006246 1.120100 -0.145463 -0.113187 -0.991474 -0.809589 -0.223399 0.136504 0.553117 0.690364 0.762552 0.358642 0.911912 -0.038303 0.799221 0.588818 0.530452 0.104463 -0.153813 0.022229 0.599793 -0.277022 0.713842 0.768971 -0.406244 0.922055 -0.231232 -0.121444 -0.578794 0.236223 -0.423975 0.904179 -0.470210 -0.064328 -0.216188 0.440232 -0.872426 -0.096857 0.267751 -0.904640 0.797692 -0.031558 -0.762494 
-1.286246 -0.292012 -0.267690 0.499343 -0.577062 0.439377 0.232853 -0.827551 0.490899 -1.485326 -0.636753 -1.452272 -1.364911 -1.006756 -1.253389 -0.622534 -0.713972 -1.281068 0.268119 -1.401904 -0.637130 -0.826631 0.530202 -1.280078 0.096021 -0.214665 -0.160699 -1.644938 0.081546 -0.419319 -1.084204 -0.040762 -0.159511 -1.765719 -1.483840 -0.931697 -1.485588 -0.237646 -0.637799 -0.692123 -0.048029 -1.845494 -0.181404 -0.756258 -1.488347 -1.532180 -1.236395 -1.130337 0.100525 -1.257690 -1.344443 -0.478968 
-1.761179 1.215594 -3.044411 -0.670910 3.427489 0.658275 -0.353867 -2.364152 -1.519626 -1.935988 -0.006803 -1.728741 1.392916 -2.138740 1.154734 1.186012 1.475835 -0.653449 3.462829 3.274709 -1.484634 1.620079 -4.406323 0.398771 0.084473 0.529726 -2.104188 -2.368131 1.656806 -1.168867 -1.921828 -0.850673 1.966690 -2.119647 1.345182 -0.128427 2.907303 0.075839 -0.134758 -1.548851 -1.945663 -2.840880 -2.585007 -1.168201 -3.400330 -1.166676 -0.994206 2.708636 3.770068 -1.739758 0.530156 -2.114210 
0.522292 1.506449 0.105185 -0.349704 1.980733 -0.811794 -0.349525 -0.806405 2.540368 2.276949 1.274216 2.266088 -2.663760 -2.254160 -1.701136 -0.926339 -2.498806 0.970902 -0.415887 2.421339 2.011339 -2.293048 0.739818 -2.464007 0.546944 -0.593085 3.951768 -1.140656 2.580927 -2.713032 -3.402446 -2.997063 1.634250 -2.711817 -0.601776 -1.846441 -2.093546 1.806069 0.433286 -1.748882 -3.228635 -2.721476 -1.954179 0.525436 1.729224 0.170019 3.064084 -0.435828 -0.211480 0.172985 3.994099 -0.365649 
-1.262594 0.267740 0.479089 -0.157028 -1.446472 -1.321964 -0.303552 0.020943 2.604572 0.260007 -1.909663 -0.114689 -0.784275 0.521569 -0.863245 0.553749 0.100967 -1.023310 -1.517198 1.534200 -0.051816 -0.335580 0.647954 -1.240154 0.546123 0.238370 -0.328626 -0.991381 0.654910 -0.078710 -1.328036 -0.399802 -1.423496 -0.718782 -0.378730 -0.674494 1.565914 2.671594 -0.337382 -1.241296 -0.817637 0.347502 -0.321581 -1.094095 1.218506 -2.365804 -1.189450 -1.194689 -0.898436 -0.194562 -0.274065 -0.337841 
-1.956728 -1.473673 -2.002973 2.125043 -0.495700 0.012642 0.225466 -2.783168 1.206340 -1.910191 1.526432 0.225153 1.064101 1.931686 -1.582123 1.612419 -2.434752 3.207772 -0.991222 -2.238572 -1.195427 -1.301091 -2.450950 2.034982 -0.478298 -1.549573 -1.659509 2.590283 -1.470260 -0.557147 -2.352711 -0.605040 -0.300652 -3.975895 0.786487 -1.642087 0.422158 -1.443179 -0.711187 1.581707 -0.017733 1.429947 -1.632455 -0.078927 -0.121307 -1.008597 2.657656 -0.823712 4.262263 2.192443 -0.371792 -2.382609 
-0.763820 -1.520248 -0.907538 -1.964610 -1.701760 1.973204 1.232634 -1.005449 -3.011194 1.040984 -0.835911 2.067948 0.028944 1.760522 -2.915937 2.258871 0.766136 0.119949 -2.325985 0.310934 1.015435 2.086750 3.230156 0.392994 -0.669282 0.291500 -0.160374 -3.796578 2.842752 0.545549 0.757653 -1.808226 0.380844 -0.771624 1.502980 0.504730 0.293395 2.267621 -0.460361 -2.647006 0.563449 -0.446336 1.833977 -2.442258 -1.424369 1.236882 0.237822 -0.839744 -1.153795 0.945575 0.156696 0.773708 
-0.932566 -1.612687 -1.291593 -0.782136 0.468905 -0.711055 -1.041191 0.038975 0.434537 0.030126 -0.758445 -1.798162 -0.321427 -0.725058 -1.142181 0.242584 0.307877 1.019480 0.520865 -0.478146 -0.143795 0.001737 0.258693 0.055041 -0.779648 -0.835865 0.324388 0.573428 0.016284 -0.560818 -1.430208 -0.314358 -0.787764 0.169789 -0.392970 -1.324628 0.111818 -0.238651 0.260075 -1.765932 0.292811 -0.967711 -0.518084 -2.887192 0.906801 1.534141 0.424577 -0.917103 0.838461 -1.113766 -0.334670 -0.128186 
-1.206971 0.716630 -3.075894 -2.519702 -4.934307 1.544097 -1.934490 3.102529 -1.989412 -0.857191 0.923245 -1.889835 -1.837634 2.632575 -1.126557 -1.022474 -2.326608 0.340139 4.007218 -0.517206 -2.359131 1.562766 -2.542181 1.672545 -0.168202 0.273144 -0.164142 0.281700 -2.396944 -2.917536 -2.965882 0.221578 1.803046 4.252158 -3.501711 -1.697277 2.230593 4.619729 -0.827662 1.099902 -1.770533 2.968380 1.029243 3.238626 0.078389 -2.727265 -1.695453 2.152711 0.613490 2.521171 0.930330 -1.984292 
0.335488 1.081596 -0.474227 -0.504002 0.025210 -1.010732 -0.699227 -0.294510 0.144540 -1.206429 0.019074 -1.216547 -0.435381 -0.962883 -0.460070 -0.343616 0.731244 1.356171 -0.683749 -0.958602 -0.586788 -1.351393 0.623110 -1.773770 0.087198 -0.087589 -0.544212 -0.732250 -0.944470 -1.258552 -1.295839 -1.263901 -0.453955 1.183852 -1.430719 -0.406291 0.572048 -1.613967 0.026472 -1.017122 -0.271410 0.455223 0.183031 -1.573013 -0.821724 -1.363588 -0.555224 -1.526241 -0.580681 -0.867778 -1.854183 -0.398172 
-2.315551 -0.578454 1.489836 1.130261 -0.290873 -0.760240 -0.014947 -1.679711 -0.598993 2.389179 0.664333 0.795394 0.763724 0.260012 1.877280 0.050664 -0.980438 1.279216 0.567426 -1.372096 -0.348474 -3.474296 -2.405316 3.211112 -1.042302 -1.121571 -0.193423 -0.048309 -1.534784 0.616059 1.327178 -1.072622 0.082821 1.093461 1.237979 -0.095970 1.019102 -0.851424 -1.076881 0.914249 0.470231 -3.003580 -2.724838 -0.529920 0.345614 -2.777296 0.541379 2.828931 -3.198184 -2.065165 -3.207238 2.177164 
