-1.335481 -1.253832 0.578677 0.140809 -0.081736 -0.461239 -0.856919 -0.085037 0.668633 1.273549 -0.075896 0.452831 0.563082 -0.983111 -0.903821 0.206500 0.496890 -0.860191 0.007110 -0.770319 -0.019470 0.177917 0.042072 0.996019 0.101721 0.158260 -0.781879 0.019933 -0.001662 0.431647 0.864023 0.167738 -0.725870 -0.556764 0.682686 -0.522337 -0.051961 0.457785 1.057839 -0.365891 -0.539417 0.618692 0.665076 0.653731 0.511285 -0.697101 0.644143 0.736191 -0.331185 -0.140774 0.583869 -0.002244 -0.826871 -0.173280 0.078656 -0.847860 0.081514 0.813551 0.868081 -0.390206 
0.219364 -0.567965 0.108855 -0.127013 0.826015 0.097325 -0.419804 -1.208523 1.162699 -0.318427 0.157927 0.178402 -0.537101 0.809567 0.015154 0.078454 1.085393 -0.836203 0.750412 0.685478 0.802964 -1.050078 -1.082691 0.511351 0.337086 0.316988 0.461722 0.209417 1.165275 0.780277 -0.490680 -0.629536 -0.584272 0.293043 0.556145 0.376283 -0.478513 0.627138 -0.392913 -0.265404 0.155636 -0.507463 -0.124003 -0.516505 -0.539866 0.341153 0.951615 -0.967102 0.096215 -0.016058 0.961560 0.631878 -0.127294 0.885190 0.564386 0.413374 -0.568584 -0.569793 0.398154 -0.337141 
-1.193383 -0.553111 -0.897627 0.095257 -1.058495 0.507001 0.918205 -0.576700 -0.405526 -0.221630 0.927637 0.567150 -0.405966 0.434277 -0.266939 -0.221893 0.506024 -0.674119 0.261087 0.704042 0.353226 1.155766 0.021097 -0.584260 1.145517 0.477149 -0.502530 0.212794 -0.335347 -0.167479 -0.054476 0.638894 -0.857965 -0.320252 0.144710 0.250436 -0.906715 0.187288 0.256936 0.501161 -0.488631 -0.222706 0.019779 -0.485512 -0.870968 1.035440 -0.207554 -0.837549 1.011940 -0.193469 -0.647178 0.496381 -0.832983 -0.284107 -0.731835 -0.553273 -0.384432 -0.795344 0.370959 -0.101273 
-0.669240 -0.173411 0.695129 0.996496 0.191823 -0.485508 0.401003 0.638592 -0.540179 1.028434 0.071317 0.048263 0.475140 0.765459 0.413683 0.046924 1.373763 0.318657 0.043767 0.696048 0.450071 0.854405 0.888104 1.028239 1.133324 -0.072618 0.063500 -0.160311 -0.643984 -0.346825 0.252574 0.363444 -0.181755 0.695449 0.523345 0.453702 0.308721 0.355047 0.557588 -0.990338 0.963146 -0.097492 0.386258 -0.776965 0.415478 0.205495 0.126376 0.315999 -0.827429 0.815103 0.841692 0.389310 0.337756 0.099374 0.096388 1.087343 -0.459123 -0.031283 -0.472334 0.222639 
0.354370 -0.408207 -0.011717 0.594889 -0.388868 -0.516191 1.036931 -0.578876 0.282952 0.926046 -0.922228 -1.026738 0.485478 0.629316 -0.337030 -0.144968 0.502791 0.640781 -0.491837 0.792969 0.414164 0.649074 -0.857506 -0.764213 0.754626 0.278285 -0.613256 -0.710646 -0.694386 0.081388 1.164703 0.653577 -0.227360 -0.301416 -0.088363 -0.762495 0.275163 0.520578 -0.121031 -0.531776 -0.231844 -0.990292 -0.286502 1.067797 -0.461097 0.319806 -1.194823 -0.168757 0.138886 -0.660393 0.704157 -0.937712 1.064320 0.744393 -0.664854 -0.412601 -0.468520 0.416447 0.276357 0.362159 
0.368583 -0.279930 0.355661 0.260616 -1.006302 0.250307 -0.503577 -0.020159 0.346574 -0.474945 0.591236 0.082056 0.114446 0.417231 -0.294761 0.612852 -0.009064 -0.542220 0.083650 0.921650 0.529679 -0.137865 0.431340 -0.280508 -0.724854 0.092642 -0.497285 0.133227 0.180241 -0.316969 -0.404813 -0.415394 -0.718967 0.069088 -0.111798 -0.428056 -0.706210 -0.871189 -0.207140 -0.457121 0.671474 0.352782 0.047097 0.560140 0.520230 0.881352 -0.723173 0.927442 -0.331181 -0.093492 0.118109 0.093387 -0.014395 0.820336 0.793142 -0.617854 0.428545 -0.123662 -0.174604 -0.424230 
0.451143 -1.146955 -0.552010 0.349534 -0.023401 0.890832 -0.426935 1.325812 -0.688988 0.632069 0.445966 -0.057638 0.753347 -0.650954 -0.590514 0.527267 0.698712 -0.117551 0.194411 0.655876 0.787723 0.351244 -0.489269 0.576394 -0.299670 -0.706025 -0.289531 -1.006150 -0.533928 0.580909 0.323037 0.405718 -0.072128 -0.722873 -0.432568 -0.209095 -1.155398 0.061873 -0.105697 -0.632965 0.011280 0.180140 0.667477 0.521583 0.205981 -0.365003 0.462977 -0.256098 0.154798 -0.356410 -0.934703 -0.869690 0.010411 0.924614 -0.651487 -0.464724 -0.771160 -0.585772 0.149751 -1.029053 
-0.854318 0.070690 -0.244275 0.157157 -0.233766 -0.679991 -0.389087 0.994109 0.312847 0.207384 0.386362 -0.211931 -0.835855 1.158167 0.123434 -1.180029 1.592438 -0.931337 -0.144854 0.239756 0.094655 0.316458 0.281532 0.183038 -0.937022 -0.491453 0.599402 -0.756850 -0.171085 0.154721 -0.022226 -0.444797 0.035373 0.958287 -0.433757 0.374588 0.584041 -0.520355 -0.448865 -0.219598 0.556513 0.711869 -0.201943 0.627834 0.487677 -0.266878 0.104031 0.368869 -0.794556 -0.496629 -0.661015 -0.298672 -1.071413 -0.623886 0.487445 0.001541 -0.759607 0.433786 -0.696524 0.497946 
-1.128487 0.510820 -1.149080 -0.706899 -0.111793 0.555970 0.859257 0.108626 -0.387365 0.087634 0.042838 0.500861 0.380194 0.377949 0.531897 -1.146367 -0.206753 -0.581359 -0.012004 0.489691 0.213151 -0.347509 -0.640665 -0.538482 0.097319 -0.311766 0.443182 -0.678396 -0.818209 0.352747 -0.968334 0.967166 -0.289593 0.322767 0.334074 -1.204947 -0.224209 0.412149 -0.010543 -0.964898 -0.151058 -0.049354 0.511489 -0.755129 0.015676 1.001181 0.115401 -0.335884 0.067044 0.568462 -0.504090 -0.656289 -0.263345 0.841379 1.095593 -0.447795 -0.812452 -0.702533 -0.225928 -0.774026 
-0.383738 -0.458695 0.437995 0.004448 -0.257519 -0.331450 0.435528 1.035619 0.397931 -0.063770 0.728232 0.373330 -0.680442 0.861835 0.174932 -0.553138 0.100954 0.000414 -0.327776 -0.402012 -0.977422 -0.436595 -0.148157 -0.422855 -0.882587 0.013810 0.213806 -0.059485 0.420400 0.765112 -0.684898 0.497670 -1.031929 0.088047 -1.060815 -0.486149 -0.615714 0.548813 0.086745 -1.017259 -0.672688 0.754174 0.090747 -0.483207 1.000260 -0.172467 1.267889 0.943252 -0.236979 0.270368 -0.759697 -0.455112 -0.333731 0.341084 0.817782 0.485371 0.499015 -0.286674 0.257897 0.218933 
-1.267809 -0.815868 -0.908503 0.680079 -0.974658 0.090936 0.871547 0.279459 -1.153868 -1.228899 0.424453 0.320108 -0.806293 -0.491897 0.383871 -0.587261 -0.366453 -0.495424 -0.165672 0.005739 0.434608 0.650641 -0.200767 -0.931744 0.511748 -0.478159 0.351224 -0.146290 0.720186 -0.532726 -0.702561 -0.177995 -0.674197 0.626829 0.635140 0.698709 0.466504 0.708902 -0.405078 -0.706560 0.685975 0.452061 0.573741 0.999598 0.484893 0.974029 0.981339 0.302511 -0.548551 0.990022 0.829726 -0.768536 -0.691054 0.071087 -0.677847 -0.775676 0.084795 -0.988166 0.177630 0.702938 
-0.427239 0.392876 0.382445 0.340781 -1.054563 -0.551387 0.355097 0.531939 -1.124188 -1.282451 0.871911 -0.606189 -1.269684 0.299188 -0.728410 -1.420323 0.763930 0.494828 0.361526 -0.756596 -0.444109 0.126157 0.774699 -0.146810 0.523477 1.019798 0.635947 0.049794 0.517534 0.150011 -0.187523 -0.363072 0.187849 0.828586 -0.823602 -0.547954 0.101965 0.304418 -0.786889 0.124419 -0.020961 0.315277 0.825980 0.264696 0.311778 0.295101 0.296081 0.158905 0.440974 -0.799595 -0.734483 -0.367538 0.002295 -0.288886 -0.316700 -0.839779 -0.195269 0.041250 0.322358 0.416932 
0.376250 0.374334 -0.046713 0.094138 0.191926 0.455229 -0.151521 0.580951 -0.201442 0.296017 0.092975 -0.371363 0.064978 -0.182566 0.319297 -0.250149 1.273792 -0.637290 0.087602 0.288844 0.417179 0.134305 0.274967 0.596403 0.047636 0.350096 -1.013422 0.408102 -0.420389 0.345472 -1.072493 0.835414 -0.691437 1.125792 0.222112 0.814958 -0.399173 -0.779404 -0.187556 0.474170 -0.165287 -0.906071 0.882553 -0.683055 -0.041590 -0.138013 0.245316 0.668875 -0.425600 -0.197648 -0.708974 0.244658 0.345899 -0.329678 -0.667854 0.817699 0.770343 -0.207806 -0.152909 1.076655 
-1.042116 -1.032583 -0.940074 -0.600160 -0.176545 -0.192729 0.807332 -0.262646 -0.131444 0.321165 -0.291816 -0.580197 0.214802 0.962798 0.873056 0.625229 0.820160 -0.827378 0.525833 -0.848025 0.369193 -0.212605 0.527298 -0.445473 0.760237 0.958914 -0.551695 0.147278 0.107049 0.750967 -0.275217 0.183284 0.146899 1.313259 0.329738 -0.669380 0.172178 0.431137 0.698385 -0.804638 -0.024910 0.878498 0.181832 -0.698241 -0.659467 -0.083896 -0.277585 0.503206 0.390428 0.769900 0.976955 0.551240 0.461979 0.748311 0.949211 0.121275 -0.738199 -0.382509 -0.017784 0.806186 
-0.939760 -1.276924 -0.724537 -0.003547 0.316958 -0.444804 -0.177644 0.708478 0.322251 0.414378 0.925247 -0.016419 0.391154 0.710483 -0.249957 -1.014967 0.342989 -0.222781 0.249156 -0.000438 0.283752 0.407016 -0.525771 -0.701171 -1.099569 0.193663 0.862709 -0.742552 -0.469932 0.650426 0.594247 -0.919730 -1.112028 -0.141734 -0.005790 0.143291 -0.300335 0.175053 -0.175551 -0.207010 -0.341438 0.405007 0.134266 -0.568467 0.366282 0.890301 0.713656 -0.074667 1.081199 0.781749 0.807776 -0.282215 -0.652138 -0.198629 0.340882 0.463449 0.360776 0.519431 0.120662 0.058776 
-0.243068 -0.898022 0.405664 -0.969254 -0.516453 0.445171 0.781833 -1.072074 -0.490108 -0.012956 -0.920032 1.147800 -0.259704 0.194460 -0.325582 -0.611741 -0.435375 0.381663 -0.350154 0.171058 -1.013557 -0.234399 -0.358939 -0.686357 0.246174 0.638734 -0.929834 0.409555 0.189938 -0.064968 -0.265123 -0.610988 -0.061819 0.428947 0.956410 -0.021096 -0.092853 -0.275821 -0.967784 -0.795752 -0.473605 0.026120 0.721500 -0.034840 0.645896 -0.697752 -0.808431 -0.305334 0.751401 0.282074 -0.088922 0.097478 0.510350 0.656255 -0.199786 -1.017648 -0.001215 0.474361 0.927056 0.945769 
-0.816026 -1.062570 0.354604 0.468011 0.056556 0.416035 1.068592 -1.647276 1.158462 -0.948493 0.983745 0.264470 -0.095173 0.469489 0.165592 0.621031 0.758972 0.055556 0.824316 0.185617 -0.434206 0.148599 0.232950 -0.348595 0.396846 0.518276 0.868531 -0.746518 0.956869 -0.312436 -0.286376 0.567185 1.260058 -0.445778 -0.065861 0.220645 0.579045 0.810410 0.337243 -0.459378 1.239443 0.112478 -0.927663 -0.381925 0.749271 -0.678400 -0.434575 0.613732 0.381961 0.324805 0.833609 0.577955 0.216306 0.571164 0.467729 -0.947639 -0.891084 0.692317 0.448769 0.328390 
-0.011693 -1.031914 -0.295460 0.500817 -0.370980 0.376481 0.257147 -1.591205 0.733777 -0.446762 -0.073361 -0.537731 -0.180503 0.816227 0.978170 0.064463 -1.365925 0.315208 0.235991 0.169628 0.787661 0.117153 0.207659 -0.589820 -0.035648 -0.146969 0.833763 -0.695907 0.948523 0.328921 -0.872033 0.881858 1.331281 -0.544478 -1.171213 0.624899 -1.054155 0.882397 0.364494 0.262591 -0.385473 -0.816564 0.439406 0.115497 0.282634 -0.025209 0.112367 -0.804381 0.981176 0.376665 -0.244377 -0.058137 0.017381 0.618740 -0.547965 -0.760249 0.465896 0.501776 -0.398268 1.004400 
-1.012836 -0.869316 -0.636077 -0.502577 0.439708 0.418289 0.435947 -0.054289 0.248630 -0.687494 -0.366579 -0.643462 -0.404850 0.402539 -0.125395 0.621097 -0.047366 -0.389854 -0.039348 0.383378 0.701968 0.825887 0.526469 -0.431050 -0.338546 -0.507661 -0.193663 -1.025525 1.043383 0.555985 -0.883226 -0.490919 0.149383 0.431701 -0.745173 -0.065772 -1.230305 0.819256 -0.669439 -0.399484 0.008459 0.378316 -0.593377 -0.446200 -0.490742 -0.293162 -0.634073 0.836305 0.797840 0.262412 0.357628 -0.041414 0.961838 -0.824359 -0.866139 0.458362 0.395537 -1.013180 0.614102 -0.305914 
0.433642 0.970631 -0.246394 -0.311259 -0.694808 -0.396688 -0.878130 0.815265 0.713468 0.002760 0.470126 0.765841 0.523105 -0.635031 -0.239895 0.847464 -0.773636 -0.257422 -0.948087 0.096156 0.680416 0.782502 -0.060584 0.611728 0.456103 -0.492018 -0.350869 -0.097975 -0.398355 0.881683 0.220701 0.975532 -0.828106 0.365901 -1.017268 0.288816 0.540782 -0.420975 0.355103 -0.833306 -0.079275 -0.803665 0.056758 -0.650940 -0.787204 0.404955 -0.581459 0.065243 0.684823 -0.496755 -0.542736 0.542679 -0.790157 0.949807 -0.869247 -0.479087 0.621622 0.838873 -0.743778 -0.906972 
0.367488 -0.070991 0.528430 -1.084665 -0.297011 0.133692 0.381167 -0.830167 0.746093 0.208891 -0.181962 -0.854427 -1.248116 1.021457 0.698618 0.363360 0.204886 -0.424592 0.198072 0.102695 -0.782299 -0.672786 -1.029980 -0.118876 0.311526 0.861257 -1.277219 0.145195 -0.210194 0.542640 0.531497 0.720771 -0.619190 0.331546 -0.129606 -0.019990 -0.440311 -1.029039 1.110578 -0.646639 0.101408 0.352789 0.036117 -0.675235 -0.318613 -0.289801 0.334388 0.034456 -0.306319 0.789339 -0.765295 0.028809 -1.172839 -0.078716 0.407529 0.886131 0.658765 0.975288 0.742288 0.377002 
0.198821 0.486886 0.259411 -0.173923 0.551593 -0.054989 -0.556128 0.420725 0.836834 -0.103646 -0.248299 0.083746 -0.984798 1.030902 1.041119 -0.391069 -0.310286 0.570714 -0.534088 -0.116119 0.447375 -0.971113 -0.394403 -0.560549 1.144590 -0.275446 0.211407 -0.159822 0.623354 0.136819 0.122923 0.011999 0.614864 -0.701993 0.358557 -0.668184 -0.164244 -0.024860 0.047342 -0.370843 0.376409 -0.342570 -0.065045 -0.158368 0.560482 -0.434140 0.361586 0.644831 -0.333574 0.903762 1.070689 1.128394 0.355993 -0.428167 0.616393 -0.077450 0.210718 0.141494 -0.679376 -0.384917 
-0.442170 0.371836 0.504979 -0.190972 0.882936 0.614701 0.169297 0.274335 -0.734534 -0.196597 -0.429395 0.136952 -0.465076 0.517322 -0.846344 0.825358 0.728263 -0.109021 -0.820845 0.684301 0.469488 -0.499414 0.162318 0.183018 0.349544 0.130838 0.628083 0.314157 -0.422162 -1.153889 0.244487 -0.426167 -1.027587 -0.062898 0.393430 -0.306914 -0.166856 0.419985 -0.282163 -0.476533 -0.225558 -0.293224 0.332561 -0.097772 -0.880321 0.174316 1.033575 0.092512 0.651684 0.093076 0.997746 -1.275597 -0.273133 -1.258800 1.065035 0.344687 0.415921 -0.796871 -0.108191 -0.612121 
-0.232687 0.515622 -0.147549 0.611884 0.906847 0.066354 -0.710139 1.224624 -0.444195 0.434025 0.389554 1.121867 -0.272215 -0.555512 -0.808864 -0.324352 1.039934 0.411573 0.633475 -0.642715 1.281974 0.594571 -0.096396 -0.322860 -0.100187 -0.173191 0.553788 -0.461567 -0.161678 0.508407 0.641436 0.280675 0.589778 0.813640 -0.536010 -0.966691 0.056122 0.793463 -0.471082 -1.089064 -0.770778 -0.094371 -0.733777 0.428186 0.297574 0.344291 -0.245573 -0.097675 -0.415654 -0.846366 0.737212 -0.673935 -0.749051 -0.068726 1.037290 0.759404 0.357513 -0.731600 -0.725837 -0.810271 
-0.610354 -0.822794 -0.210291 -0.052462 0.851017 -0.524639 -0.924246 -0.704603 1.044517 0.959251 0.908301 0.240551 -0.492070 -0.054088 0.469410 0.888139 0.101793 0.291163 -0.073580 0.915482 -0.007908 -0.875960 -0.006193 -0.142488 0.337997 0.509615 -1.089655 -0.521221 -0.022204 1.007230 0.755785 -0.670119 0.405772 0.975844 -0.384590 0.112298 -0.675335 0.035812 0.059326 -0.925797 -0.078943 0.778199 -0.353955 -0.293042 -0.645317 0.482089 0.116097 0.346052 -0.712651 -0.697205 -0.673071 -0.766251 -0.019631 -1.434973 1.104909 0.169413 -0.904445 -0.826719 0.029600 1.430309 
-1.057041 -0.214228 -0.290329 -0.099471 -0.740683 -0.370319 -0.216595 0.120034 0.615048 -0.804236 -0.279892 -0.566003 0.116611 0.069833 -0.503942 -0.396110 -0.098938 0.515357 -0.354562 -0.861894 1.189834 -1.329917 -0.392062 1.010761 -0.513409 -1.234012 0.962822 -0.966993 -0.851067 0.766715 0.767870 -0.154618 -0.729408 -0.129294 -0.819289 -0.515014 -0.770883 0.077400 0.815833 0.642382 0.039532 0.022153 0.406409 0.883702 0.695138 0.225096 -0.641652 1.072819 -0.795090 -0.257539 -0.466429 0.547737 0.842952 0.365236 0.021994 0.515951 -0.034520 -1.091057 -0.341318 0.729671 
-0.201712 0.047247 0.875594 -0.498945 0.190465 0.865953 0.106983 0.714717 -0.152666 -0.662750 1.005028 0.752398 0.658750 -0.693819 -0.048500 -0.219625 0.811872 -0.391278 -0.379750 0.113184 0.989042 -0.804603 -0.887263 0.679349 0.682489 0.857043 -0.794072 0.647652 -0.773827 0.880375 -0.373907 0.297028 0.246184 0.357191 0.306548 0.542200 0.608018 -0.632428 0.712033 -0.437816 -0.545722 0.380600 0.322888 -0.115236 -0.606840 1.222055 -0.696463 0.277973 -0.950637 -0.476934 0.545570 -0.559152 0.445143 -0.539158 0.217639 -0.014914 0.253053 0.223921 -0.834303 -0.217826 
-0.234680 0.311035 0.963615 0.681512 0.507691 0.466826 -0.085473 -0.334508 0.285209 0.746651 -0.506284 0.557128 -0.347272 -0.332967 -0.530548 -0.439518 0.124261 0.932691 0.652213 0.742139 -0.645033 0.316088 -0.890836 -0.078109 -0.094970 0.842994 -0.795672 0.162290 0.933991 -0.454451 0.222896 -0.167696 0.033591 -0.236512 -0.589608 -0.193044 -0.447040 0.143351 1.108920 0.384713 -0.140181 -1.154988 -0.521250 -0.114034 0.562545 0.322762 0.582310 -0.351077 -1.426354 -0.680747 -0.413657 0.450760 -0.570580 -0.801955 -0.045263 -0.052115 0.134725 -0.917592 -0.201189 0.117870 
-0.654083 0.524817 -0.654469 -0.282997 -0.193483 -0.325839 0.993202 0.266487 0.543885 0.546730 0.726101 0.982733 0.267189 0.189471 -0.130350 -0.857740 -0.006142 0.066491 0.516213 -0.749262 -0.218418 -0.910731 -0.329798 -0.162611 0.442872 -0.642596 0.986114 -0.633476 0.878616 0.773979 1.148752 0.073459 -0.259147 -0.085375 0.081959 0.219559 -0.297115 -0.261041 0.764129 -0.206934 -0.891417 0.663710 0.570960 0.214548 1.096633 -0.398524 0.939959 0.741410 -0.668559 -0.908875 0.026852 -1.168117 0.248938 0.958781 0.487201 -0.292106 0.189142 0.684356 -0.462593 0.327671 
1.050785 1.384270 0.311360 0.157646 -0.039421 -0.855760 0.617605 0.338403 0.862639 -0.460703 -0.466435 -0.598775 0.063799 -0.172953 0.454608 0.471744 1.261789 -0.782798 -0.722409 -0.303814 0.334084 -0.653877 -0.321399 0.712006 0.985978 0.240416 0.580860 1.124536 1.014345 0.479946 0.519828 0.935798 0.001773 -0.394334 0.272072 -0.157540 0.026655 -0.097443 0.576730 0.010017 0.299442 0.312218 0.151566 -0.314829 0.252037 -0.262816 1.790066 -0.064377 -0.573804 -0.030510 -1.051010 0.037697 -0.616875 -0.533250 0.873769 0.093597 0.550064 0.573901 1.121811 0.270926 
0.557813 -1.281035 -0.727086 -0.619141 0.706231 -0.482916 0.615705 -1.004312 -0.382713 0.592522 -0.252950 0.190383 0.391586 0.755594 0.761952 -0.435872 0.781561 0.436685 0.200660 -0.057055 -0.572302 0.172660 0.659855 0.805322 0.647939 1.039032 0.841825 -0.795198 -0.308307 -0.447797 0.587160 0.090320 0.165467 0.354226 0.040059 -0.147803 0.074559 0.400060 0.752555 -0.573969 0.480939 -0.748623 -0.773424 0.708957 1.217224 -0.165336 -0.300336 0.627926 0.234727 0.875786 -0.047366 0.910373 0.461377 0.014654 -0.084481 -0.019337 -0.807588 -0.728378 -0.906729 0.292674 
-1.212014 0.420999 0.758018 1.063657 -0.115023 0.596500 1.039536 -0.524115 -0.517268 0.078219 -0.627442 -0.050045 -1.191042 -0.676270 -0.248959 0.750533 1.139885 1.022781 0.883937 -0.042283 0.666648 0.263726 -0.197175 -0.035315 -0.154654 0.220800 0.301841 1.076501 0.644112 -1.270766 0.294696 -1.101334 0.399698 0.631672 -0.255703 -1.077111 -0.302849 0.276698 -0.398020 -0.825762 0.565844 0.099659 0.628519 -0.739212 0.898813 -0.007007 -0.629154 0.401344 0.396435 0.902576 0.522714 0.588077 -0.568283 -0.241679 -0.579388 0.142254 0.632537 -0.754164 -0.069824 -0.863028 
0.033977 0.602739 -0.849533 0.595650 0.155136 0.002396 -0.740677 0.262175 -1.049981 -0.022393 0.209295 -0.503158 0.167973 -0.280517 -0.996394 -0.602178 -0.063716 0.377455 -0.060272 0.084444 0.643365 -0.460643 0.434092 -0.779224 -0.637093 0.256759 0.711307 -0.325742 -0.103448 0.539884 0.594905 -0.396070 0.124431 0.694158 1.368303 0.307614 -0.312173 -0.776257 0.144352 0.056806 -0.196459 0.215330 1.254999 -0.434801 -0.639623 -0.485112 0.824334 0.638294 -0.085888 0.727170 0.311723 -1.083889 0.578846 0.437148 1.030663 -0.414101 0.569377 -0.640479 0.604798 0.001824 
0.139949 -0.990013 -0.369040 0.964217 -1.067131 0.266392 0.927595 0.535431 0.082352 -0.238112 -0.810178 0.261137 0.065894 -0.758042 -0.957620 -0.410098 0.754561 -0.113230 -0.392652 -0.903838 0.528758 -0.363002 -0.535646 0.665407 -0.044082 0.047814 -0.351330 1.012291 0.394305 -0.006984 -0.203632 -0.944123 -0.379819 0.366687 0.167137 0.226133 0.558467 -0.137131 0.527620 -0.682196 -0.241311 -1.077017 0.432270 0.690191 0.866064 0.245346 -0.098750 0.102456 0.804908 0.444883 -0.645770 -0.226301 0.103049 0.671149 0.330072 0.203328 -0.593044 0.622851 0.018902 -0.359717 
-0.040557 -0.907153 0.839395 0.517026 -0.103249 -0.132949 -0.035037 -0.684986 0.470827 -0.418528 0.463156 -0.679862 -0.431373 0.712628 0.463616 0.597384 0.093601 -0.168486 0.442932 0.870091 -0.048673 0.221759 -0.183740 -0.809009 0.191955 0.447996 0.055627 -0.829250 0.620273 0.966088 0.291022 -0.150975 -0.291305 -0.581820 -0.227192 0.182971 -0.991840 0.040027 -0.732029 0.355957 0.476609 0.073621 0.360920 0.501500 0.046826 0.401560 0.782561 0.414660 0.724380 -0.250292 0.324657 -1.240588 0.018688 0.516483 0.350374 0.347404 0.791719 -0.064972 0.389591 -0.267255 
-0.042228 -0.785178 -0.915393 0.129421 0.627731 -0.271493 -0.044188 0.470756 -0.867747 0.650869 -0.224107 0.674353 -0.242929 -0.886805 0.703636 -0.544782 1.170487 0.821913 0.762875 -0.797415 1.094137 -0.171187 0.431231 -0.717204 0.608720 0.832863 -0.871330 0.316660 0.353813 -1.078874 0.170812 0.273601 -1.678302 -0.343366 0.127479 -0.613435 0.265087 0.605301 0.553942 0.490224 0.510422 -0.560253 0.594322 -0.278168 -0.941170 -0.868804 -0.055857 0.774405 -0.623287 0.218468 -0.454079 0.375544 -0.758132 0.023304 0.009236 0.757121 -0.131840 0.537710 0.566329 -0.931775 
0.776263 0.176350 0.820794 -0.161939 0.611894 -0.445903 -0.015713 -0.680612 0.572866 0.647820 -0.863511 -0.808939 0.661571 -0.524754 -0.863096 -0.345477 0.621814 -0.626973 0.449661 -0.051716 -0.357738 0.110978 -0.998482 1.014627 -0.347838 0.616751 -0.599984 0.533429 -0.736486 0.216959 -0.669244 0.275335 -0.107930 -0.455334 0.429061 -0.692203 -0.071827 -0.955242 -0.319122 -0.110270 0.852436 1.050658 0.339566 0.860479 -0.181236 0.782849 -0.699284 -0.654814 -0.395136 -0.525751 -0.011619 0.358274 -0.794008 0.334484 -0.694318 -0.234932 0.377080 0.985695 -0.286604 -0.571119 
-0.832907 0.044780 -0.677963 0.834280 -0.941992 -0.895866 -0.245810 -0.232256 -0.442086 0.239437 -0.165829 -0.151337 1.025609 -0.369381 0.907689 -0.631792 1.234741 0.339470 0.698238 1.204727 0.262499 0.813712 0.542069 -0.288851 -0.003884 -0.191229 -0.744029 -0.871901 0.502274 -0.893575 -0.364833 0.437016 -0.389806 -0.169817 1.126599 0.216937 -1.119812 0.935919 0.030755 0.266472 0.043930 -0.544559 -0.315158 -0.563737 -0.093062 0.365976 -0.220213 -0.154591 0.963623 -0.526092 0.535518 0.506611 0.381415 0.972783 -0.067009 0.126361 0.281901 -0.721647 0.336622 -0.813523 
-0.519422 0.320689 -0.405123 0.792772 -0.070809 0.030790 0.786682 -0.354462 -0.019839 -0.324312 -0.146688 -0.058274 1.400595 0.969394 -0.005765 -0.997470 0.646359 0.139814 0.788354 0.496814 0.262442 0.527628 0.871074 -0.328247 -0.533896 1.173023 1.030515 -0.636226 -0.663091 -0.460590 0.394769 1.125246 0.570782 -0.511508 0.388653 -0.797439 -0.718294 -0.757125 -1.072420 -0.819762 0.462543 0.324525 -0.930609 0.259612 0.926353 0.072018 0.692600 1.069049 0.250952 -0.797924 -0.438222 0.270105 -0.645299 -0.347593 0.589201 0.992058 -0.403639 -0.737761 -1.240252 0.335968 
-0.015301 0.443468 0.036999 0.192540 0.754250 0.772857 -0.846816 -0.593004 0.735876 0.134195 0.960584 -0.782263 0.609768 -0.501671 -0.122643 -1.054863 -0.162652 -0.593584 0.347255 0.154387 0.926852 -0.271384 -0.154968 0.141035 0.204240 -0.166204 -0.416477 -0.912379 0.342199 0.724245 -0.161945 -0.644477 -0.618627 -0.383990 1.605765 0.749240 -0.195311 0.857694 -0.519366 -0.534507 -0.147594 0.770857 -0.751028 0.302565 0.256744 0.955612 0.970595 0.105624 0.796374 0.373782 0.167735 0.243235 0.621943 -0.444366 -0.707043 0.202588 0.190952 0.425781 -0.211751 -0.491620 
0.514494 -0.815650 -0.320754 -0.318580 -0.840368 -0.852810 -0.660554 -0.042724 -0.323937 -0.263737 0.738080 -0.668867 -0.132278 0.167628 -0.488022 -0.767572 -0.502304 -0.654591 0.195150 -0.471125 1.262463 0.850527 0.718472 0.364750 -0.418938 -0.185830 0.536936 -1.242151 -0.531704 0.688094 -0.874687 -0.854563 -0.604135 -0.289994 -0.334786 0.071487 0.382628 0.706310 -0.599813 -0.273080 -0.392517 -0.548203 0.974018 0.500968 -0.767032 0.722147 0.236468 -0.757732 0.831162 -0.439306 0.561037 -0.006689 -0.773787 0.966045 0.339543 -0.550035 0.187846 0.941151 0.819424 1.251503 
-0.207503 -0.757255 0.063979 -0.340101 0.846455 -0.609566 0.452750 0.168206 -0.560330 0.035206 0.344522 0.916906 -0.525861 0.879683 -0.666279 -0.464758 -0.307890 -0.713788 0.090184 -0.198150 -0.193535 -0.283929 0.165482 0.433158 0.881178 0.535880 -0.638435 0.213027 0.078661 -0.016446 -0.343010 0.201976 0.179590 0.619993 -0.468389 0.388345 0.544043 0.532301 0.400341 -0.462018 0.490608 -0.703241 0.752818 0.239701 0.966505 -0.237080 -0.269166 -0.503497 -0.160777 0.571879 -0.860235 0.802583 0.402637 -0.566301 0.482939 0.692799 0.025927 0.885585 0.665006 0.779039 
0.363404 -0.849916 -0.423931 0.129593 0.818185 -0.121707 -0.657754 -1.215281 -0.237817 0.972201 0.210493 -0.540625 0.436948 0.728099 -0.875750 -0.379960 0.235359 -0.217798 0.110729 -0.208129 -0.415219 1.035507 -0.495560 -0.046731 0.047445 -0.956883 -0.484489 0.497500 1.013841 0.156869 0.755866 0.192765 -1.347536 -0.188828 0.842709 0.998688 -1.397988 -0.908659 -0.893080 0.841760 -0.397955 0.029594 0.657402 -0.284570 -0.314502 -0.568550 -0.430201 1.102490 0.063404 0.467433 0.029357 0.796531 0.744700 0.349756 0.074257 0.292043 0.416501 -0.035415 -0.226179 -0.358611 
0.407245 -0.781772 0.816908 0.329683 0.260271 0.314122 -0.740345 0.214821 -0.905089 0.401553 0.136659 -0.521626 -0.095240 0.564030 0.356752 0.155387 -0.601712 0.502001 0.590739 0.966590 -0.518579 -0.661490 -0.037833 -0.282062 0.962336 -0.664710 0.563081 -0.916135 0.844375 0.241911 -1.015123 -0.121881 0.519843 0.615968 -0.476236 0.695469 -0.336490 -0.983394 -0.625528 -0.843855 0.059863 -0.814337 -0.788340 1.053189 -0.067348 -0.114521 1.289531 -0.175719 -0.403842 0.743600 0.353040 -0.295343 -0.125047 -0.537192 0.049843 -0.398202 -0.204838 0.176384 0.945948 0.501881 
-0.724192 -0.565503 0.344692 -0.461719 -0.561078 0.982420 -0.913836 -0.358808 0.118896 -0.745376 0.482372 -0.465399 -0.638433 -0.684185 0.057863 0.224916 0.448161 0.306883 0.867855 -0.468855 -0.259876 0.548664 -0.821592 -0.603947 -0.924641 -0.443817 0.595681 -1.432290 -0.410212 0.371339 0.100589 -0.419002 0.241508 -0.146585 0.164205 -0.416320 -0.704246 0.054819 0.146532 0.750466 0.043825 0.982958 -0.752970 0.839982 -0.539359 0.394990 -0.234231 1.042758 -0.192257 0.940646 -0.633134 -0.059508 0.316682 -1.100440 -0.130573 -0.213704 -0.367141 0.147725 0.700495 0.999192 
0.886179 0.223709 -0.788924 0.702740 -0.053761 0.871814 -0.672636 -1.210501 0.480681 -1.111417 0.483548 0.414349 0.628174 0.746148 -0.502267 0.156798 -1.154512 -0.316058 1.281177 -0.215264 0.531153 0.305439 0.820017 -0.382407 0.123627 0.425277 -0.295412 -0.826917 -0.616123 0.459513 0.007235 -0.243564 -0.760309 -0.769752 0.368124 1.021555 0.883819 -0.058223 0.663471 0.601842 -0.446756 -0.862394 0.017665 0.822896 -0.288497 0.310576 0.188161 -0.342960 -0.545870 -0.409787 -0.607638 0.512269 0.139477 -1.033786 0.906351 -0.506814 0.154333 -0.408149 0.080550 -0.544539 
-0.763450 -1.089757 0.000336 0.970675 -0.086966 0.217632 -0.220691 -0.527833 -0.160998 -0.848828 0.291544 0.092901 1.192166 -0.039764 0.712476 0.813316 0.635969 -0.465036 -0.596035 -0.481872 0.136279 -0.307751 0.812568 0.740805 -0.232008 1.161908 0.401647 0.715309 0.940808 -0.827711 -0.347693 -0.740268 -0.604214 -0.375434 -0.146518 0.497182 -0.637514 -1.024383 -0.689311 -0.908773 -0.255700 0.247879 -0.408440 -0.587814 -0.690597 0.237306 0.444054 -0.268322 0.182292 -0.025613 0.504994 0.389060 0.164285 -0.942757 0.819870 -0.787536 0.370164 1.122110 0.363434 -0.404459 
0.013920 -0.778731 0.820727 0.552619 -1.039037 0.331518 0.471594 -1.108265 0.454817 -0.550548 0.670075 -0.554575 0.148991 -0.795074 -0.617507 -0.109851 0.347687 0.211923 0.312337 -0.693080 -0.048053 1.050358 -0.306434 -0.534027 -0.226423 -0.033698 0.335738 -0.625580 -0.390056 0.508502 -0.706137 -0.449411 -0.369328 -0.881042 -0.149480 -0.943617 0.533473 0.674604 -0.476883 0.463856 0.562987 -0.482542 0.002870 0.992033 -0.796676 -0.356295 0.236100 -0.667156 -0.454837 0.854366 0.822177 -0.009960 -0.661871 0.524519 -0.650505 -0.954001 0.716727 0.964412 0.514545 0.423458 
-1.133313 0.423366 -0.602305 -1.034801 -0.602460 0.757568 0.004227 0.123800 0.722918 -0.059957 0.555497 -0.827829 -0.344306 -0.506586 0.804716 0.007101 0.518822 0.782671 0.219152 0.376484 0.145306 0.874362 -1.123265 -0.448716 -0.761712 -0.081048 0.796553 -0.595964 -0.689653 0.050574 -0.742192 -0.514145 -0.074554 -0.263232 0.530737 -0.093308 -0.723527 0.215091 -0.063828 0.538073 0.253474 -0.211333 0.190206 0.244263 -0.903129 -0.246345 -0.144593 0.167320 0.538312 -0.021292 1.063357 -0.672489 -0.461530 0.051689 -0.354222 1.065276 0.980062 -0.236079 0.508757 0.637242 
-0.281253 -0.426734 -0.414353 0.228447 0.766208 -0.614631 -0.853234 -0.718534 -0.153617 0.884575 -0.326222 0.192336 1.126161 0.794388 -0.082580 -1.037555 -0.335858 0.257891 -0.558306 -0.820046 -0.303686 1.101035 -0.003061 -0.134657 -0.018166 -0.760001 0.164624 0.402932 -0.679751 1.017750 0.815946 0.627372 0.613434 -0.718930 -1.004008 0.158445 -0.537416 0.326409 0.834446 -0.196932 -0.258822 0.783007 -0.697298 -0.571339 0.403817 0.726394 0.586146 0.207316 0.109889 -0.007562 -0.862542 0.050466 0.400005 0.770887 0.596514 -0.025619 -0.921751 0.355573 -0.033188 0.129544 
-1.108411 -0.807369 -0.851337 -1.190671 -0.864438 0.944741 -0.162136 -0.945314 -0.765904 -0.091617 -0.170222 0.723645 1.428945 -0.118140 0.117185 -0.565832 0.304897 0.298186 0.054076 -0.340678 -0.357236 -0.426003 0.780883 -0.939198 -0.648353 0.427126 -0.631193 0.376059 -0.603355 0.025523 -0.708264 0.325580 1.195031 0.393204 -0.695146 0.041825 0.175191 0.594892 0.125917 0.292948 0.982378 0.898127 0.582421 -0.260942 -0.002817 0.848983 0.974462 0.166307 0.285818 -0.936675 0.035295 0.513531 0.413494 0.021484 -0.516430 0.064890 -0.112485 -0.210841 0.883680 -0.863111 
-0.531460 0.701348 0.971734 -0.126929 -0.877539 -0.978775 0.794888 -1.003770 0.395027 0.058996 -0.288937 0.356282 -0.008479 0.409067 -0.345323 -0.201623 0.065094 0.036503 0.182187 -0.483900 0.399903 0.718233 -0.256179 -0.312540 -0.840830 0.552271 0.947986 -0.810048 -0.421695 -1.090306 0.140208 0.334710 1.179094 -0.439703 0.832787 1.431912 0.974116 0.530545 -0.555869 0.672833 -0.529782 1.406064 0.327182 -0.253548 0.352114 -0.119768 0.341972 0.317911 -0.001834 -0.836699 0.118269 0.048721 -0.283734 0.962502 -0.671312 -0.104461 -0.791888 -0.140939 0.153085 1.000328 
-0.422012 0.409134 -0.731264 -0.112083 0.784438 0.120603 0.888822 -0.101578 0.741529 0.587792 -0.901811 0.438553 -0.163556 0.820813 -0.704870 0.594280 -1.232541 0.091366 0.548952 0.228999 -0.550927 -0.203584 0.206498 -0.893962 -0.174093 -0.812633 -0.497033 0.861789 0.897757 0.666028 -0.177106 0.005430 -0.342743 -0.856977 0.327726 1.341764 -0.995267 0.415253 -0.170994 0.004937 0.127851 -0.358547 -0.456137 -0.214912 -0.538596 0.102428 0.662739 -0.558456 -0.121979 -0.784953 -0.827694 0.957922 -0.721690 -0.457693 -0.579205 0.500718 0.994392 -0.554966 0.160776 0.283408 
-0.901256 -0.079502 -0.998012 0.444162 -0.376960 -0.839616 -0.029599 0.011784 1.008687 -0.289466 0.348418 -0.551847 0.506940 0.830945 0.593285 -0.479564 -1.177953 0.413158 -0.097912 -0.235276 0.324142 -0.219776 0.764573 -0.786824 -0.866183 0.526652 0.169039 0.255846 -0.882407 1.152864 -0.820937 -0.391744 -0.264196 0.698912 -0.494519 1.325963 -0.250237 0.680217 -0.916087 0.486674 0.694792 -0.542676 -1.058455 -0.214989 -1.067689 0.636168 0.130375 0.564432 0.279604 -0.501174 0.185075 0.024654 -1.027377 -0.741204 0.604414 0.222129 0.841184 -0.342975 1.069460 0.962257 
-0.570292 0.131662 -0.683368 0.466666 -0.166082 0.529669 0.769033 0.334028 0.500698 0.304558 0.707953 0.555419 0.836629 0.219765 -0.327222 0.249128 -0.300351 0.773109 0.453465 -0.108933 1.389533 0.684007 0.341349 -0.049220 -0.613915 0.577678 -0.830380 -0.518447 0.823747 0.560790 -0.119285 -0.639156 1.223601 -0.555876 0.334089 0.698154 -0.400806 -0.996397 0.270848 -0.108413 -0.102100 -0.216472 -0.033419 -0.112590 -0.179675 0.175487 0.513654 -0.152323 0.582780 -0.907071 -1.073779 -0.339457 -0.445015 0.012995 1.021628 0.339338 -0.244580 -0.242562 0.913200 -0.683241 
-0.291952 -0.326669 0.023650 0.436753 -1.039994 -0.857953 -0.324828 -0.824751 -0.153844 0.807742 0.976130 -0.467823 -0.248985 -0.736610 0.080557 0.297641 0.898882 1.041990 0.566644 0.839520 -0.383756 0.774703 -0.856747 -0.614542 -0.433655 -1.419475 -0.795686 -0.632473 0.597387 0.659051 -0.380743 1.380132 0.150312 0.703947 -0.051044 0.807164 0.199069 -0.511887 -0.514204 -0.152267 -0.234171 -0.977004 -0.258606 -0.056350 0.827337 0.263745 -1.225780 0.617353 0.527297 -0.913728 0.811092 0.890552 -0.963713 -0.051612 -0.649873 -0.220671 0.116786 -0.325521 -0.115592 0.729964 
0.932941 -0.029915 -0.707297 1.077137 -0.763143 0.485951 0.753222 -0.686829 0.247587 1.327930 -0.674360 0.863748 0.774905 1.018955 -0.868874 0.259032 -0.443809 1.028266 0.631466 -0.306651 -0.277289 -0.577549 -0.197058 0.566525 -0.071360 0.071411 0.516907 0.114579 -0.345218 0.402106 1.047510 0.685620 -1.043274 0.194025 -1.000504 0.558522 -0.230038 0.722614 -0.573186 -0.692851 0.038774 0.478737 -0.115786 -0.317563 0.473773 -0.123217 0.331489 0.149320 -1.256369 -0.727267 -0.687390 0.590937 0.307213 -1.023698 0.669142 0.964615 0.406869 0.654701 0.853505 -0.297713 
0.358751 0.383804 0.662689 1.015713 0.909470 0.972482 0.830760 0.157239 0.817742 1.111984 -0.095134 1.016341 -0.825368 0.247876 -0.232706 0.694592 -0.615004 0.206879 0.052595 0.575226 -0.652944 -0.304347 -0.421201 0.262809 0.983188 -0.937436 1.005303 -0.274628 0.151769 0.698339 0.159515 0.268430 0.504483 -0.465023 -0.645987 0.559819 0.780081 0.910333 0.037163 -0.150766 -0.371248 -1.173859 -0.857307 0.524906 -0.418818 -0.789650 0.600550 0.668146 0.310129 -0.107951 0.283159 -0.360189 -0.451694 -0.128541 0.397991 0.347762 0.912781 -0.668479 0.156618 1.352323 
-0.698731 0.251342 0.465207 -0.026466 -0.193582 -0.559438 -0.178461 -0.314768 0.528874 0.356505 -0.778034 -0.543633 0.016850 -0.309419 -0.537002 -0.049074 -0.598153 -0.346329 -0.350987 0.810644 0.834033 0.302499 -0.193576 -0.157975 1.607545 -0.658879 -0.368379 -0.977371 -0.544584 -0.334753 1.011636 0.805165 0.346271 0.399434 -0.752246 0.993505 -0.773929 -0.483722 0.570915 0.659045 0.145500 0.215124 -1.186108 -0.055442 1.014685 0.337412 1.264775 -0.460180 -0.514100 0.218180 0.098574 0.791582 -0.885592 0.145084 0.665800 -0.223829 1.048770 -0.676145 0.254530 1.023414 
0.559223 0.116999 -0.306585 0.494286 -0.208524 -0.115422 0.589620 -0.376672 -0.886666 1.107195 0.452385 -0.771574 1.255818 -0.659679 -0.447513 0.727850 0.794611 -0.241020 -0.571581 0.960629 -0.357746 -0.017190 -0.808993 0.181759 2.157521 0.369605 0.843030 -0.569112 -0.550905 0.560869 -0.126319 0.506945 0.007223 0.216038 -1.612479 0.022362 -0.641228 -0.400495 0.795018 0.596187 -0.411707 -0.848462 -0.964785 -0.465316 -0.066255 1.241704 1.212587 -0.848467 -0.374576 0.132788 -0.382813 0.499276 0.105978 -0.571350 0.612363 -0.619673 -0.519644 0.532182 -0.117704 0.786831 
1.144335 -0.079859 -0.479899 -0.526411 0.378530 -0.873267 0.611941 0.092502 -0.935862 0.551438 0.680119 0.219374 0.500870 -0.738670 0.706607 0.674239 -0.488239 0.682017 -0.124285 -0.072645 0.944561 1.109194 0.592919 0.094660 0.817270 -0.215169 0.471667 0.784255 0.611188 -0.844227 0.941562 -0.339078 -0.857699 0.523294 0.126615 1.071511 0.538835 0.162183 0.107170 -0.744070 0.150285 -0.134574 0.106785 -0.533264 -0.129472 0.867342 1.005897 -0.784095 -0.111176 0.619033 0.208374 0.946922 0.983650 0.790511 -0.234935 -0.557733 1.025805 -0.891228 -0.994667 0.179855 
0.936543 -1.081955 0.735398 0.241752 0.294594 0.414426 -0.919125 1.315459 -0.231978 -0.727294 -0.713550 0.829923 -0.795917 -1.056692 0.720259 -0.116694 0.066297 1.008619 -0.826608 -0.212831 -0.108398 0.285040 0.350241 -0.113996 -0.648473 1.154868 0.038868 -0.587355 1.021746 -1.069215 0.062659 0.603499 -1.137161 -0.071258 0.608725 -0.305842 0.533037 -0.910428 -0.800900 -0.010077 0.197778 -0.818706 0.344004 -0.095527 -0.008690 -0.690447 -0.866802 0.152463 0.236864 0.027628 -0.179505 0.540911 -0.153621 -0.452641 -0.657348 0.062206 0.068546 0.885076 0.693509 1.601479 
0.019593 -0.150548 -0.876052 0.919110 -1.010502 0.050466 -0.413678 1.230454 -0.885549 0.803568 0.989043 -0.323123 0.111723 0.491903 -0.526695 -0.693241 0.868221 0.965730 -0.812384 0.757046 0.929641 -0.517133 -0.150652 0.341046 -0.305299 0.031776 0.463588 0.291710 0.090267 -0.651646 -0.524328 0.033515 0.257901 0.684403 0.722099 0.651753 -0.339052 0.104963 -0.035939 0.140300 0.293352 -1.169229 0.358591 0.371311 -0.359784 0.558712 0.719324 0.720613 -0.084130 0.454546 -0.404956 -0.445388 0.549590 -0.232193 0.380009 -1.535969 -0.738119 -0.102496 0.419499 0.222756 
-0.158201 0.063552 -0.762869 0.195151 0.449759 0.560605 0.276793 -0.200233 0.373311 -0.518670 -0.070840 0.241457 -0.068736 -0.910521 0.681730 -0.148267 0.429733 0.806604 -0.040288 -0.452377 -0.592864 0.343658 0.939446 0.214375 0.495168 0.505230 -0.999355 -0.519286 0.485482 -0.871624 -0.116173 0.600662 0.464131 -0.349302 -0.177604 0.402230 0.728078 -0.871265 0.179793 -0.939705 0.133351 0.602120 0.291840 0.421620 -0.002440 -0.761358 0.727323 0.492577 0.082137 0.879091 0.082362 -0.589165 -0.620807 -0.011820 0.876483 -0.300866 0.916794 -0.891226 -0.609307 -0.034726 
-0.867424 -0.385790 -0.044671 0.322235 -0.767735 0.502333 0.610136 0.370388 -0.997673 0.089170 -0.590884 -0.050862 -0.310075 -1.041716 0.477390 0.117517 0.154496 0.819196 0.264167 0.606140 0.138449 0.196313 -0.779830 0.486828 -0.673105 -0.896541 -1.018812 -0.517030 0.120262 -0.607798 -0.096551 -0.816032 0.686395 -0.466695 0.192185 -0.876877 -0.080297 -0.351183 0.297328 -0.397464 -0.063164 -0.647826 -0.075024 0.963954 -0.974086 0.356637 0.669516 -0.566259 0.014728 -0.384207 0.755972 0.274974 0.214966 0.890669 0.486427 -0.287670 0.132168 -0.230285 -0.607990 0.807839 
-0.145890 -0.412624 0.074296 -0.022368 0.309013 -0.556691 -0.448688 0.804374 -1.265703 -0.338726 0.878831 -0.868755 0.922363 0.623984 0.752401 0.407189 1.130894 0.180301 -0.599962 -0.685847 0.007925 -0.126061 -0.564597 0.926032 0.925060 -0.389922 0.444064 -0.039245 0.594795 0.951495 0.673577 0.154696 0.916214 0.974292 -0.290455 0.369257 0.651287 0.472646 0.058776 -0.455681 0.405722 0.878813 0.645866 -0.715064 -0.901334 0.148445 -0.236510 0.901037 -0.767855 0.187479 0.891257 -1.090202 -0.158080 0.670174 -0.497563 0.264173 -0.196896 0.039526 0.812952 -0.141133 
0.005337 -0.189594 -0.194854 0.730458 -0.834118 -0.701979 0.663807 1.027736 -0.235270 1.023940 0.825987 0.244619 -0.249188 1.092567 -0.583448 -0.400289 1.238978 -0.551381 0.749366 0.991467 -0.953488 -0.707435 -0.654809 -0.240805 -0.172776 0.719228 -1.210793 0.068237 0.210016 0.830434 0.510318 0.495404 -0.201384 0.501817 -0.693496 0.646806 0.473363 -0.448393 0.702062 -0.816215 -0.371818 0.155519 -0.896129 -0.394999 -0.869151 -0.642341 -0.925671 -0.263263 -0.055446 -0.724465 -0.810426 -0.218972 0.525131 -0.389416 0.138015 -1.289308 0.756249 0.197143 -0.986175 -1.258801 
-0.011571 -0.221306 -0.679114 -0.832071 -0.127844 0.400055 -0.738663 -0.205520 0.172020 0.526619 -0.167745 0.420724 0.044932 0.018214 0.336382 -0.421480 -0.539434 -0.746240 -0.408094 -0.487246 -0.100893 -0.145407 -0.278513 -0.512969 0.807656 -0.273450 0.142103 -0.761855 0.522032 0.182602 -1.253111 -0.410499 0.132976 0.405788 -0.035617 0.802364 -0.420110 0.815703 -0.068935 0.673255 -0.676670 -0.557776 0.506264 0.671480 -0.680777 -0.049135 -0.045901 -0.311098 -0.381235 -0.484646 -0.362268 0.424579 -0.074804 0.622650 -0.516263 0.134361 0.646662 -0.887599 -0.146183 -0.878963 
1.188557 0.484658 0.150393 0.299058 -0.207454 -0.982614 0.547690 0.647589 -0.636365 -0.178162 0.292249 0.671511 -0.643216 0.781859 -0.028571 -1.037550 -0.176725 -0.295655 -0.107670 0.987569 1.013852 -0.056366 -1.013778 -0.353439 -0.730262 0.491008 0.914006 -0.711811 0.592044 0.579024 -0.533657 -0.038154 0.388581 -0.246851 -0.211957 -0.083829 -0.687712 -0.412662 0.261544 0.952488 -0.091171 0.658140 -0.034191 0.043344 0.065213 0.837076 0.290764 0.793037 0.648540 -0.229425 0.378553 -0.943523 -0.097232 0.059207 -0.127283 0.018176 0.201704 0.091456 -0.595086 -0.532809 
1.144190 -0.072077 0.186954 -0.337823 -0.927199 -0.189785 0.510292 0.287616 0.449203 0.578948 0.236692 0.143219 0.320180 0.235463 -0.490004 -0.501520 -0.538166 1.041954 0.085874 0.024710 -0.257032 0.322289 0.563065 -0.640107 -0.067671 -0.400413 -0.629845 -0.277626 -0.895127 0.861598 0.505045 0.110582 -0.552070 0.601741 0.047072 -0.101759 -0.438835 -0.489043 0.688465 0.660406 -0.480585 -0.100811 -0.465523 -0.579903 1.031157 1.344094 0.258041 1.004266 0.843213 0.062092 0.067713 0.251412 0.454192 0.456723 -0.799383 -0.966448 -0.805965 0.643077 0.297835 1.039689 
0.443212 0.319155 -0.303407 0.690461 0.332150 -0.824808 0.567268 -0.542300 0.571506 -0.491531 0.931069 -0.702889 -1.300400 1.142592 0.070234 0.568555 -0.763716 0.434216 0.630184 -0.693694 -0.648893 0.845447 -0.754615 -0.186901 -0.950731 -0.604925 0.067950 0.475748 0.294928 0.637743 -0.947330 1.102722 0.896548 0.001656 -0.103214 0.917824 0.427406 1.013000 -1.098351 0.085949 0.159747 -0.408290 -0.453023 -0.127989 -0.350124 0.828945 -0.046737 -0.720170 0.363320 -0.441018 -0.393533 0.709039 -0.319662 0.661659 -0.645104 -0.387334 -0.172204 0.142100 -0.889463 0.790109 
-0.541312 -0.156119 -0.156212 -0.499233 -0.494496 -0.234487 0.473404 0.108176 0.451371 0.372094 -0.404159 -0.615565 0.335595 0.736782 0.092004 -0.005085 -0.852561 -0.222998 -0.879951 -0.090709 -0.594256 -0.547100 -0.753544 0.805545 0.415425 0.546264 0.187994 0.786492 0.609466 -0.520854 -0.073010 0.553200 -0.011282 0.037457 0.124606 -0.653408 0.514189 0.128923 -0.868169 -0.368846 -0.201680 -0.812011 -0.326286 -0.461384 -0.684540 0.632538 0.504713 0.419489 -0.064476 0.659821 0.585664 -0.373008 0.782581 -1.075521 -0.538033 -0.282048 0.316355 0.360496 -0.871008 0.595053 
-0.917153 0.012756 0.580065 0.530912 -0.085877 0.783179 -0.418847 1.009880 -0.794978 0.336612 -0.729873 0.570033 -0.534938 -0.776805 0.268328 -0.934789 -0.166395 0.442274 -0.696010 0.636673 0.500999 0.681934 0.030186 -0.157538 -0.637861 0.183168 0.018257 -0.377436 0.158615 0.212599 -0.900431 -0.738388 -0.658167 -0.040489 -0.817967 1.075094 -1.053926 -0.581922 -0.462606 0.338266 0.661236 -0.626688 0.577564 -0.748530 -0.281047 -1.231859 -0.012416 0.579004 0.621267 -0.111057 -0.702671 -0.409503 0.375834 0.594138 -0.139381 -0.701980 -0.308490 -0.227111 -0.145149 -0.764666 
-0.861297 1.185357 0.847695 0.337142 0.852302 0.348027 0.495783 -0.560368 0.037454 0.011734 0.589218 0.300818 0.348734 0.326250 -0.320896 -0.711001 -0.231729 -0.233778 -0.395071 -0.412044 -0.307491 0.766425 -0.990775 -0.931753 -0.647488 0.302585 -0.225611 -0.244023 -0.799440 1.178944 -0.147666 -0.616219 -0.458926 0.762686 0.300773 0.004698 -0.791049 0.107400 -0.540457 0.118027 0.002326 -0.259702 0.630527 0.478817 -0.712810 -0.460562 0.861216 0.103297 0.659741 -0.311497 -0.254614 0.350873 -0.900713 -0.927313 0.407290 1.161392 0.750955 0.494795 0.078330 0.107269 
0.806810 -0.977710 0.976082 0.990814 -0.278634 0.272306 -0.274789 -1.072899 0.096679 0.874515 -0.000620 -0.578419 0.264565 -0.111425 -0.761692 -0.301569 0.300912 -0.374688 -0.147096 -0.040343 0.214048 0.682746 0.141681 0.072436 0.037100 -0.230751 -0.462346 -0.064661 0.805419 -0.198476 0.821794 -0.031640 0.114609 0.607594 -0.177029 -0.212491 0.520904 -0.865686 0.569968 -0.875962 0.705420 -0.521523 -0.445314 0.612788 0.650458 -0.447553 -0.035601 -0.065803 -0.640440 -0.222673 -0.299853 -0.412292 -0.220355 0.220055 0.641435 -0.502849 0.344842 -0.974240 0.667435 -0.914354 
0.093713 0.741499 -0.041748 -1.202503 0.720373 0.254963 -0.060334 -0.224390 -0.529802 0.660540 -0.349354 0.320498 -0.016050 0.435844 0.842670 0.758481 -1.340987 0.375181 0.865053 -0.735006 0.403090 0.388294 0.934506 -0.721884 -0.119107 0.979404 -0.258652 -0.719510 -0.086605 0.814657 -0.463616 0.577090 -0.705292 0.830986 -0.524233 -0.862871 -0.483525 0.479519 0.305472 0.631351 -0.640174 -0.204804 0.221623 -0.685993 -0.236821 0.086024 1.447988 -0.512277 0.425724 0.612866 0.432540 -0.372529 0.281915 0.463852 0.444291 0.354988 -0.768221 0.836967 -0.408816 -0.781474 
-0.115312 0.301439 0.311250 -0.886474 -0.749602 -0.060630 0.850355 -0.145462 0.303984 -0.741251 0.095105 0.676836 -0.395033 -0.363646 0.448786 -1.029397 -1.271090 0.371986 0.841668 0.566307 -0.098698 0.076168 0.146417 -0.042302 -1.383945 0.277447 -0.768332 -0.552822 0.622659 0.829134 -1.001043 -0.216392 -0.263793 -0.403397 -0.608657 0.104882 -0.953736 -0.434832 -0.379319 0.667824 -0.407300 0.228786 0.083145 -0.172893 -0.465101 0.014985 0.165957 -0.824362 -0.105140 0.014404 -0.050980 0.892711 0.462886 0.719209 0.745815 -0.225557 0.146112 -0.607884 0.987321 -0.917588 
-0.471947 0.363004 -0.042691 0.254523 -0.940054 -0.749206 -0.271888 -0.600477 -0.178213 -0.198251 -0.134247 0.918519 0.906647 -0.982622 -0.023649 0.588846 0.502469 -1.076362 1.127032 -0.642017 -0.334019 -0.083173 -0.220503 0.223627 -0.803364 0.523719 0.228701 0.015194 -0.261100 0.940167 0.151468 -0.321876 0.417796 0.336984 -0.885436 -0.166277 -0.477695 -0.576074 -0.717033 0.973754 0.372073 0.298381 -0.265862 0.005007 0.627374 0.590526 -0.143212 -0.185423 0.653297 -0.880461 0.602761 -0.039472 0.256798 0.409402 0.211713 -0.765242 0.162183 -0.530502 0.649298 0.807946 
-0.496787 -0.408607 -0.022594 -0.474980 -0.422488 0.003469 0.492441 0.016340 -0.181475 0.378506 -0.563077 -0.546440 -0.308446 0.352621 0.982915 0.570492 -1.303493 0.578414 1.042530 0.402132 -0.844107 0.697353 0.184084 -0.084663 -1.316791 0.586112 0.077634 -0.494964 -0.356146 -0.238664 0.343200 1.224678 -0.362305 0.631469 0.233085 -0.100444 -1.097433 -0.293772 -0.846200 0.877668 0.131214 0.572711 0.780818 0.766326 0.603152 -0.218756 1.085778 0.452086 -0.095978 0.126249 0.574354 0.233762 0.725063 -0.224269 -0.923435 -1.146586 -0.004438 -0.570478 -0.112161 -0.630533 
0.833776 -0.252305 -0.449038 -0.657002 0.760481 -0.038644 0.382604 0.713031 -0.232033 0.383612 -0.010325 0.802034 1.322048 0.178793 1.022975 -0.834931 -0.056535 -0.668542 -0.460816 -0.940078 0.306291 0.884951 -0.140551 0.765108 0.383213 -0.360016 -0.660689 0.970480 0.680679 0.100081 0.699940 0.509523 -0.285664 -0.222789 -0.605316 -0.212801 -0.433927 0.717184 0.268163 0.613022 -0.356549 0.293145 -0.055237 0.078980 -1.036709 0.519603 0.431731 -0.101604 -1.072292 0.092714 0.658808 0.674104 0.716704 0.361082 -0.465120 -0.611781 0.633111 0.174922 0.164477 0.537811 
0.100475 -0.527495 -0.974555 0.086469 0.546695 0.524000 0.079626 -0.347981 0.217244 -0.137508 0.707098 0.224442 1.094902 -0.769627 -0.223158 0.297995 -0.870874 0.263255 -0.714379 0.636784 0.865204 0.768744 -0.434598 0.717412 0.101748 -1.040055 -0.164170 -0.578244 -0.535547 -0.330440 0.481044 0.962000 0.254710 -0.043424 0.911424 -0.494127 -0.717289 -0.553182 0.357109 0.832098 0.150596 0.540332 -0.208366 -0.161121 0.563920 -0.889708 -0.963283 0.493528 -0.810629 0.137686 0.883675 -0.635249 -0.805456 -0.099527 -1.026085 0.055246 0.212682 1.057238 -0.940217 0.885230 
0.669397 0.939804 -0.313677 0.040165 -0.955957 -0.908878 -0.012552 -0.989436 -0.102331 -0.344581 0.859280 0.984017 -0.368036 0.526125 0.564541 0.426524 -0.155194 0.836373 0.276490 -0.715963 0.178475 -0.681956 0.743449 -0.636234 -0.204864 -0.995879 -0.167858 0.512692 -0.149789 -0.631660 0.171615 -0.827072 -0.683729 0.960770 -0.055078 -0.048976 0.672874 -0.124625 0.926773 -0.002190 -1.068823 0.494242 0.245583 0.622293 -0.551995 0.846342 -0.799487 0.298880 -0.300574 -0.234304 -0.706711 -0.118378 -0.491980 0.279567 0.542607 -0.665647 -0.700924 0.974462 0.401969 0.299947 
0.306409 -0.731225 0.910418 0.174561 0.677681 -0.420869 0.101600 -0.886341 0.764813 0.131707 -0.467285 0.867225 0.677165 -0.471798 -0.591602 0.365597 0.286723 0.306412 0.223490 -0.023705 0.188781 -0.236764 -0.829457 0.741001 0.892218 0.030790 0.167836 -0.475421 -0.712530 -0.667722 -0.268220 0.310861 -0.202516 0.713646 0.736461 1.359383 -0.904899 0.292605 0.447422 0.144351 1.110523 -0.276366 -0.151202 -0.091047 0.278238 -0.288049 -0.877950 -0.211660 -0.636876 0.752409 0.348873 1.052987 0.295545 1.041799 -0.428370 -0.765710 -0.994429 0.721809 -1.326236 -0.129488 
0.539809 0.678478 -1.025330 -0.045009 -0.699717 0.908647 0.766365 -0.789360 0.001631 -0.525328 -0.445664 0.613200 0.355442 -0.224324 -0.296654 -0.268977 -0.131679 0.161187 -0.119933 0.142153 -0.939800 0.590188 0.314962 -0.526478 0.825587 -0.229380 -0.181459 -0.521370 -0.401940 -0.756123 0.719832 0.607792 0.594274 0.488020 -1.674813 -0.360261 -0.440393 -0.509282 0.810321 0.800509 -0.563556 -0.773666 0.084552 0.478008 0.211956 0.256653 -1.052591 0.661723 -0.326625 0.500654 -0.896631 -0.589989 -0.077226 -0.285624 0.693320 -0.175176 0.133018 0.259996 0.214139 0.785770 
0.552527 0.071300 -0.498784 -0.980036 -0.697755 -0.593821 -0.183295 0.401828 -0.915073 0.587460 0.663103 0.322207 -1.766346 -0.999764 -0.099235 -0.936485 0.390247 -0.155162 0.786441 -0.521159 0.685735 -0.437071 -0.740886 0.662963 -0.120167 -1.365930 0.524583 0.022564 0.966245 0.634326 0.496094 -0.025375 0.145544 0.076565 -0.447086 -0.139761 -0.814169 0.202329 -0.452744 -0.572186 -0.017180 -0.676851 0.777498 0.582332 -0.323791 0.441365 -0.668621 0.050696 -0.048530 0.558487 -0.612658 -0.173015 -0.377471 0.577638 -0.254160 -0.787603 0.079071 0.488354 -0.139565 0.538036 
-0.838652 -0.771073 -0.055821 -0.838809 0.791161 -0.397696 0.526185 -1.188077 -0.298032 -0.230591 -0.183182 -0.047068 -0.346699 0.659557 0.761978 0.381753 0.476015 -0.122868 0.527532 -0.499356 -0.136025 0.909797 -0.308200 -0.908997 -0.326648 0.273495 0.340931 0.421742 0.473657 0.938122 0.116356 0.337524 0.571699 0.669456 -0.091853 -0.617981 -0.762670 0.139334 -0.359592 0.774948 -1.292737 -0.966865 -1.148033 -0.369692 0.106238 -0.348180 -0.613311 -0.412207 0.012779 0.812790 0.349643 -0.768073 -0.415618 -0.066899 0.471325 0.554731 0.855479 -0.119053 0.084764 -0.311396 
0.198339 -0.613233 -0.133703 -0.619135 0.033397 -0.990606 0.861230 -0.661076 -0.187400 0.747618 -0.518057 0.384580 0.730208 -0.980795 -0.228564 -0.655104 0.000174 -0.699234 -0.436390 0.751711 -0.583489 0.087525 -0.959965 -0.752624 -1.307921 -0.530042 0.060603 0.829875 0.064140 1.454401 -0.156084 0.272034 -0.449268 -0.584612 -0.621709 -0.845623 0.157872 -0.199426 1.089754 0.779711 0.424254 -0.849550 0.510577 -0.133913 -0.492197 -0.633445 -0.734473 0.647647 0.030008 0.867085 -0.798538 -1.011242 -0.286724 0.152170 -0.560381 -0.532274 0.048234 0.640750 -0.176470 0.268045 
0.268592 -0.124648 0.777277 0.573450 0.362256 0.852330 -0.572024 0.458038 0.430108 -0.653043 -0.079370 0.105941 -0.182328 0.889690 -0.536424 -0.554203 -0.998911 0.870969 0.064849 -0.187993 0.243772 0.430912 0.832330 -0.843303 -1.056179 0.300590 0.495237 -0.738519 0.975540 -0.490741 -0.112620 0.647390 1.027183 0.542610 -0.005955 0.554912 -0.409287 -0.188711 -0.775667 0.813171 -0.720407 0.598268 0.521293 0.282671 0.516595 -0.083355 -0.281340 0.918108 0.445352 -0.114406 -0.898415 -1.091186 0.938032 0.862689 0.559866 -0.771632 -0.913513 0.368547 -0.888336 0.236896 
-0.987639 0.435947 0.601777 0.647005 0.872487 -0.721102 0.112607 0.092182 -0.074066 -0.644501 -0.631838 0.448868 0.777820 0.544078 -0.330731 0.565093 0.545973 0.151280 -0.460295 -0.796543 -0.018678 -0.148503 0.049316 0.033835 0.285596 -0.574225 -0.770613 -1.150393 -0.528688 1.059526 -0.732768 -0.214688 -0.260760 0.429329 -0.474934 -0.183872 -0.128511 0.643923 -0.580109 -0.765478 -1.186164 -0.764939 0.244376 0.585614 0.477622 0.038556 0.386098 0.310192 -0.439713 -0.715391 -0.380080 -0.011194 -0.453188 -0.185576 0.435038 -0.485544 -0.158017 0.338177 0.403167 -0.950260 
-0.536159 0.384603 -0.199961 -0.686156 0.193040 -0.058644 -0.089373 0.442813 -1.249825 -0.206674 -0.505461 0.413756 1.209660 -0.355313 -0.128877 0.439739 -0.057680 -0.436801 -0.841730 -0.080553 -0.003924 0.326873 0.578497 -0.141137 0.361390 0.676276 0.460113 0.463480 1.055310 0.220256 0.344447 0.717999 -0.760033 -0.555713 0.155886 -0.502864 0.440582 -0.505082 0.653585 0.216715 -1.157071 -0.724844 -0.366043 -0.765267 0.352881 0.183562 1.314161 0.964938 -0.213046 -0.030538 -1.022466 -0.059943 0.352097 -0.851206 1.122906 -1.240997 0.624432 0.286999 -0.593252 -0.058573 
-0.166451 0.157758 -0.165826 -0.006691 -0.626600 -0.008673 0.844249 0.065419 -0.963802 0.246267 -0.386435 -0.768556 0.107193 -0.852833 0.682886 0.837491 -0.984245 -0.476940 0.555485 -0.279417 -0.148070 -0.382831 -0.592182 0.927918 0.078763 1.186641 0.815780 0.887402 0.322065 -0.019210 0.921014 -0.966760 0.235742 -0.304304 -0.863674 -1.065065 -0.177761 -1.017451 0.882873 -0.348895 -0.909962 0.151703 -1.079845 0.800936 1.107379 1.056927 0.164377 0.585828 0.720594 -0.053981 -0.912067 -0.025956 -1.178537 1.051207 1.045974 -0.902636 0.353788 -0.192087 0.434422 0.984876 
-0.786856 0.574862 0.563241 0.490430 -0.142816 0.949850 0.811901 -0.328699 -0.292048 0.517593 0.080188 -0.617193 0.671980 -1.219590 -0.712970 -0.606844 -0.099646 -0.159677 -0.273798 -0.602206 -0.660646 -0.533565 -0.292694 -0.783269 -0.066254 -0.231602 -0.132167 1.009162 0.391711 0.312217 0.824878 0.395395 0.288786 -0.585133 0.611610 -0.706869 0.861496 -0.864677 -0.210331 -0.711273 0.774847 0.208107 0.695655 0.201669 -0.641283 0.964951 -0.098388 -0.423751 0.958931 0.317688 0.954853 -0.847699 -1.145438 0.608773 -0.092632 -0.375417 0.422725 0.916321 0.463019 0.625424 
-0.345752 0.205268 -0.315257 -0.659574 -0.941522 0.088843 -0.937922 -0.214741 -0.223928 0.830833 -0.646642 0.425150 -0.077574 0.256581 -0.015865 -0.692812 0.580445 -0.806697 -0.281983 0.276158 -0.662594 1.174736 -0.906340 0.042378 1.004045 0.615144 0.381807 -0.868425 0.124880 0.116487 0.159459 0.360453 -0.213404 0.390330 -0.637633 -0.552231 -0.169827 0.889010 0.705519 0.619996 0.555408 0.980813 -0.226264 -0.415850 0.998007 0.360291 0.300670 -0.155938 0.260206 0.485100 -0.717181 -1.064217 -0.133443 -0.962065 0.083820 0.368683 -0.472150 -0.002024 0.072883 0.757968 
0.398268 0.007568 -0.621251 0.275676 0.165825 0.212186 -0.163040 -0.959401 -0.147971 0.388438 -0.281338 -1.098202 -0.065440 0.174107 0.424801 -0.465497 -0.193547 0.231266 -0.075767 -0.095301 0.764968 0.339754 -0.362229 -0.271751 -0.547303 0.529913 -0.018223 0.804887 0.101675 -0.273439 -0.332514 -0.211782 -0.342319 -0.651988 -0.064166 -0.476280 -0.741503 0.300231 0.061054 0.264062 -1.311910 -0.409141 0.445246 -0.659181 0.078606 0.551603 -0.927102 -0.925641 0.381132 -0.786512 -0.383937 0.286215 0.836916 0.015823 0.767953 0.137666 0.454254 -0.243362 -0.323238 1.203499 
0.404435 0.437709 -0.419467 -0.235155 0.757657 -0.946182 0.981771 -0.535759 -0.617916 0.488115 -0.118623 0.189237 0.430026 0.607253 -0.845312 0.647631 0.192831 -0.645043 -0.263739 -0.349343 0.541388 0.883925 0.588651 -0.343515 1.017160 -0.684104 -0.312152 -1.023196 -0.732895 0.571104 0.997157 0.403987 0.131773 0.821412 0.084603 1.087180 0.491058 -0.406109 -0.182669 -0.536101 0.368304 0.566316 -0.397379 0.243592 -0.707525 0.909896 0.280584 0.931947 -0.034246 -0.444870 0.372977 0.724483 0.149028 0.607680 0.735332 0.365210 0.169421 -0.049427 -0.298648 0.256295 
0.279823 -0.792487 0.776671 0.481380 0.812573 0.956274 0.747918 1.273102 -0.406994 -0.494095 0.321254 -1.251900 -0.005022 1.049176 -0.786097 0.556175 0.952647 0.678648 0.083664 0.335632 1.037459 1.515278 0.946707 0.792644 0.757897 -0.260983 0.407223 -0.793739 -0.107237 -0.316657 0.523649 -0.501940 0.893618 -0.355639 0.059402 0.220453 -0.341820 -0.574420 0.773952 -0.511462 1.155169 1.045563 -0.341816 0.131918 -0.821176 -0.189892 -0.547140 0.001456 -0.584316 0.699953 -0.394077 0.689181 0.361704 0.299338 0.318891 -1.162816 -0.175079 -0.098161 0.615175 0.052061 
-0.987039 0.519706 0.403081 0.817539 0.002204 -0.214757 -0.065776 -0.601920 -0.788367 0.365102 0.765778 -0.891738 1.313055 0.537011 0.236310 -0.406851 -0.503684 -0.417189 0.842693 0.168842 0.705044 0.463658 -0.927584 -0.103126 -0.826858 0.844591 0.881410 0.308725 1.031567 0.035368 0.508926 0.145111 -0.313572 1.064216 0.206115 -0.497882 -0.942730 0.090537 0.423414 -0.088588 0.953866 -0.088783 0.092556 -0.957218 -0.563057 0.507899 0.424105 0.074912 -0.614909 0.971479 -0.250255 -1.134440 -0.428401 -0.759264 0.248592 -0.167212 -0.152671 -0.678862 -0.810116 0.305306 
-0.501909 0.021798 0.798693 0.918759 -0.670701 -0.927536 -0.612105 -0.186042 -0.284906 0.563276 0.873321 -0.573899 0.234542 -0.368471 -0.753683 -0.755851 -0.817060 0.680724 -0.582927 1.106095 0.687839 1.249846 -0.201395 0.947027 -0.295002 0.036417 0.073505 -0.972613 0.285646 -0.460836 -1.126082 -0.414695 0.488638 0.834765 0.669860 1.438178 -0.605440 -0.918892 -0.444567 0.036838 -0.588849 -0.169236 -0.099005 -0.463351 0.545841 -0.337102 -0.088516 -0.304441 1.159096 -0.588816 0.331039 -0.580162 -0.260907 0.119603 -0.537695 -0.600101 0.695648 -0.951986 -0.534950 0.087119 
-0.384732 -0.073126 0.522041 -0.080070 -0.099733 0.072512 -0.671318 -0.672700 -0.270749 0.313324 0.230493 -0.178271 0.174132 1.023695 0.213691 0.307747 -0.601937 -0.038683 0.513771 0.937065 0.594554 -0.018575 -0.506366 -0.021326 -0.783843 0.515878 -0.757537 0.871957 0.402396 0.040930 0.686867 -0.893403 0.755704 -0.442706 -0.339320 1.012232 0.838465 0.515406 -0.481367 -0.103179 -0.288601 -0.031302 0.290462 -0.329657 0.576461 -0.515607 0.623522 0.044237 -0.021426 -0.234134 0.638570 -0.061431 1.050045 -0.635841 0.837965 0.557369 0.668795 -0.749330 0.059763 1.351311 
0.322055 -0.719355 0.190391 0.182264 0.567724 -0.213907 0.576432 0.517302 0.443936 0.185898 -0.290373 -0.513241 -0.768944 -0.037318 0.776254 0.065209 -0.414441 0.023716 0.029439 0.110652 0.326347 0.687844 -0.104959 -0.940201 -0.171145 0.400308 0.025172 -0.630151 -0.461092 0.215662 0.562375 -0.720564 -0.358504 0.265019 0.579388 -0.016056 -0.267564 0.232197 0.145886 -0.791020 0.540531 0.779317 -0.705555 0.860223 0.530228 -0.834779 0.106195 0.639582 0.006769 -0.457489 0.735010 -0.527809 -0.736485 -0.196842 -0.801163 -0.575436 0.222996 0.482011 -0.520482 0.658994 
0.289111 1.120762 0.382566 -0.824686 -0.636210 0.862739 0.929644 1.026857 0.925523 -0.271007 -0.741015 0.280876 -0.072896 0.809264 -0.864481 -1.188646 0.656116 0.080325 0.760427 1.180862 0.724447 -0.662655 -0.959753 0.638012 0.708419 0.876907 0.348713 -0.879594 -0.939580 1.313851 -0.977243 -0.066713 -0.153121 -0.037331 -0.248880 0.263823 -0.811437 -0.539279 0.399682 0.595594 -0.833169 0.893256 0.288330 -0.278744 0.540875 0.563035 -0.413756 -0.692764 0.923212 0.347553 0.015384 -0.444123 0.117295 -0.362376 -0.104964 0.899632 0.238623 0.752425 0.064057 -0.345543 
-0.722307 0.755926 -0.591275 0.756266 -0.851655 0.218415 0.333607 0.455847 -0.450857 -0.186073 -0.204010 0.461242 0.235564 -0.072661 0.041167 0.586239 -0.386086 -0.461589 -0.330222 0.964148 0.757633 -0.902616 -0.353317 0.112188 -0.271705 -0.831122 -0.580032 0.163806 0.905841 0.577427 0.798840 -0.221670 0.795369 0.283407 -1.150596 -0.162531 0.281628 -0.770276 -0.512446 0.853982 -0.496666 0.975107 -0.074297 0.979058 0.294212 0.121860 0.675395 0.804596 -1.133102 -0.524023 0.568619 0.489692 0.761920 0.203360 -0.554383 0.808505 0.934201 0.270405 -0.221643 -0.184879 
-0.806576 0.909349 -0.073717 -0.761855 0.228823 1.007550 0.048165 -0.420794 0.365046 -0.143673 -0.770837 -0.717884 -0.525541 0.111097 0.544238 0.228158 -0.564405 -0.901411 0.379225 -0.246455 -0.363721 -0.631537 -0.869151 -0.854924 -0.253967 -0.176223 0.478604 -0.184596 0.104274 -0.628502 0.501142 0.098576 -0.500576 0.760798 0.929437 0.048651 -0.360135 -0.091628 -0.111668 -0.613196 -0.587066 0.179481 -1.074136 -0.606898 -0.952198 0.587760 1.113912 -0.780633 0.091849 -0.041087 0.454627 0.553744 0.039156 -0.643640 -0.829580 0.884746 0.928532 0.383522 -0.029092 -0.462072 
-0.298612 0.104545 0.797496 0.585781 0.291631 -0.692624 -0.690077 -0.143527 1.168592 0.700600 0.342916 0.993336 0.280349 -0.860152 0.620787 0.140252 0.742200 -0.104615 -0.636808 0.415335 -0.521667 0.826583 0.676856 0.625190 -0.828439 -0.038539 0.285350 -0.812858 -0.456723 1.288108 0.148876 -0.605842 -0.112112 0.770197 -0.429024 0.989396 0.636407 0.179344 0.125670 0.789828 0.325627 -0.235113 -0.054545 0.842779 0.932455 -0.122032 0.157387 -0.786538 0.269354 -0.281183 -0.601018 -0.879895 -0.286324 0.266140 -0.529500 0.484605 -0.950757 -0.732625 0.860912 -0.334749 
-0.465513 -0.354725 0.848920 0.545740 -1.023839 0.619289 -0.037943 -0.223926 0.528786 -0.046925 -0.010733 -0.331391 -0.311604 -0.139466 0.876454 -0.000942 0.138462 0.555807 0.087764 -0.701756 -0.225367 -0.241468 0.809182 -0.440445 -0.991491 -1.033317 -0.067153 -0.867869 0.153088 0.533755 0.658214 0.140738 1.012517 -0.393578 -0.493726 0.563584 -0.731783 0.993114 0.475328 -0.780179 0.468024 0.910197 0.364036 0.018615 -0.404310 0.374487 0.882008 -0.326194 0.661442 -0.376091 -0.099208 0.173054 0.277087 0.061560 0.338979 -0.668473 0.230589 0.169372 -0.157268 0.086666 
0.675518 0.172632 -0.746658 -0.716461 -0.103443 0.913061 0.633324 -0.341440 0.498768 0.416394 -0.487901 -0.499079 -0.553542 0.589416 0.843023 -0.248026 -0.301032 0.642642 -0.352197 -0.207488 -0.279688 0.828813 0.055313 -0.119499 -0.798774 -0.258164 -0.795323 -0.045192 0.556801 -0.842404 0.533277 0.192620 -0.758100 0.824308 0.240630 -0.854441 0.699594 -0.665778 0.012397 -0.444800 1.345597 0.660728 -0.598307 -0.031803 0.663958 0.900757 -0.026819 0.858084 0.044599 0.896742 -0.661301 0.862144 1.014987 0.172589 0.796600 -0.198976 -0.845749 0.926284 0.140793 0.176881 
0.868810 -0.746626 -1.006198 0.688669 0.835591 0.981370 0.535937 0.635655 0.608236 0.844227 -0.379839 -0.109096 1.026510 0.609483 0.132488 -0.075222 -0.449299 0.479988 -0.000932 0.123532 -0.594703 0.023244 -0.536411 0.516799 -0.816424 -0.186730 0.297638 0.046217 1.002048 0.202894 -0.498810 0.865149 0.290944 -0.110632 0.139879 -0.164345 0.160698 -0.705635 0.440316 0.523141 0.171845 -1.016993 -0.445460 -0.233926 -0.280365 -0.815444 -0.838630 0.982435 -0.603997 0.386151 -0.792525 -0.974907 0.902730 0.213177 0.777871 -0.235138 -0.747815 -0.274738 -0.811882 -0.275170 
-0.277196 -0.217197 -0.140835 -0.972958 -1.112844 -0.386463 -0.574019 0.522722 0.066657 -0.315344 0.296879 -0.626485 -0.663874 0.161628 0.865674 0.095236 -0.404955 0.475430 0.896121 -0.729967 -0.585824 0.590491 0.814913 0.193505 -0.715138 1.166505 -0.702345 -0.647125 -0.067208 0.510473 -0.909089 -0.266309 0.912710 0.633582 0.458699 0.035095 -0.065059 -0.555290 -0.605343 0.381547 -0.112141 0.451438 -0.685725 0.162571 0.091667 1.181486 0.154251 -0.892374 -0.834512 0.300642 0.219628 -0.624366 -0.264315 0.429308 0.412952 -0.074649 -0.034806 -0.415186 -0.316757 0.719655 
0.622646 0.476705 -0.108904 -0.619284 -0.484944 -0.240715 -0.545308 1.019118 1.223906 0.060391 -0.502257 0.816600 1.045483 -0.862588 0.332944 0.003099 -0.127465 -0.880804 -0.178969 -0.286372 -0.137601 -0.167305 0.339529 0.097653 0.188175 0.747125 -0.991432 0.888999 0.051843 0.494547 -0.260417 -0.426365 0.548347 0.855897 -0.424630 -0.280584 0.336272 -0.066778 0.608574 -0.382697 -0.436516 -0.292744 -1.204891 -0.942632 -0.983242 0.482033 -0.432752 0.807720 -0.464966 0.081109 -0.294731 0.730443 0.012450 -0.046805 0.553564 -0.513739 0.957209 0.851620 -0.502698 -0.278456 
-0.259798 0.203927 -0.839226 -0.279024 0.438761 -0.597317 -0.132286 0.915561 -0.279923 -0.541187 0.846795 0.671192 -0.524819 -0.866328 -0.505977 -0.144761 -0.608622 0.660692 0.268737 0.142643 -0.014597 0.916256 0.702748 0.133269 0.598835 0.739908 -1.086524 0.122215 0.396190 -0.753952 0.892882 0.340845 -0.631974 0.365748 0.203919 0.093074 -0.659977 0.059691 0.522738 0.708368 -0.216103 -0.638267 0.726358 0.432082 0.310621 -0.230375 -0.483220 0.026435 -0.719875 -0.985432 -0.830426 -0.038346 -0.772179 -0.333755 -0.262024 -0.604438 0.546915 0.120249 0.455630 -0.282499 
-0.439616 0.820716 0.371075 0.153101 0.068736 0.849035 -0.892883 -0.382235 -0.201503 -0.580298 0.529803 -0.692896 -0.025165 0.924129 0.734080 0.868072 0.083290 0.411722 -0.378892 0.699615 -0.032940 -0.517048 0.344230 -0.637080 -0.574584 0.170010 0.061709 0.906311 0.301724 -0.953014 -0.018000 -0.577619 -0.350358 0.749440 0.387063 0.190687 -0.714386 -0.900719 -0.737947 0.682175 -0.416843 0.109265 -0.319389 -0.232224 0.424822 0.732966 -0.733871 -0.965305 -0.254406 -0.151756 -0.229342 -0.491824 -0.193670 0.942288 0.070841 -0.572854 -0.492713 0.657505 -0.564756 -0.423121 
-0.352130 0.364557 -0.367888 -0.356548 0.680306 -0.645370 -0.606779 0.776630 -0.769882 -0.055467 0.732050 -0.034225 -0.014957 -0.431812 0.858547 0.835338 0.313651 0.088427 -0.495530 -0.714212 -0.377161 -0.187686 -0.696791 -0.735130 0.343636 0.815521 0.186427 1.140437 0.764813 0.327848 -0.436861 0.189136 0.800994 0.900779 0.384353 -0.161858 0.621930 0.445225 0.494853 0.240728 -0.036931 0.469304 -0.462104 0.706098 -0.981491 0.247935 -0.558729 -0.513151 0.564187 -0.155294 -0.946663 0.515073 0.446646 0.226355 0.098333 -0.346903 -0.808944 0.349267 -0.457284 1.144343 
-0.354815 -1.077299 0.713699 -0.370183 0.370781 0.172630 -0.466076 0.668932 -0.604201 -0.734456 -0.526749 -0.030845 -0.928560 0.582334 0.200572 -0.475250 1.002424 -0.151510 -0.999040 -0.551732 -0.070815 0.657626 0.580665 -0.902193 0.427429 0.524265 -0.941863 0.066865 0.278102 0.668181 -0.823547 0.348507 0.922211 -0.614033 0.036941 -0.441612 0.725734 0.659773 -0.460645 0.625657 0.812620 -0.702475 1.049301 -0.205847 0.348608 -0.279671 -0.603701 -0.745488 -0.975298 -0.643626 0.206507 0.577031 -0.200279 0.893375 0.808284 -0.722022 -0.986818 -0.305296 0.322425 0.818006 
-0.319057 -0.996631 0.385402 0.255485 0.691820 -0.904000 0.240753 -0.288019 0.354554 0.434547 0.457653 -0.656416 -0.112323 0.044158 0.836731 -0.525069 -0.561366 0.767655 -0.088092 -0.708451 0.001268 -0.362684 -0.062861 -0.350192 -0.917677 0.470290 -1.003075 0.042919 0.833741 1.051166 0.720785 0.436015 -0.319099 0.518517 -0.756628 -0.315221 0.681798 0.670062 -0.516256 -1.014235 -0.054881 0.732951 0.303647 0.120880 0.209912 0.819810 -0.264295 -0.921227 -0.958915 0.702831 -0.919136 -0.215501 0.658170 0.431606 0.200629 -0.261517 -0.128884 -0.702838 0.352603 -0.260960 
-0.701245 -0.325414 -0.041328 -0.513413 0.146728 0.870408 -0.940964 -0.432886 -0.300457 0.937840 0.852329 -0.902428 -0.214980 0.448824 0.708419 0.175701 0.444779 -0.686861 -0.007781 -0.634225 -0.188892 -0.529629 0.074239 0.268747 -0.415000 0.126652 -0.260117 1.290037 -0.588350 0.932442 -1.005637 -0.767746 1.264472 0.361814 -0.770403 -0.199806 0.121858 -0.845725 0.667689 0.414978 0.324490 -0.454747 -0.432788 0.419286 0.048937 -0.104871 -0.011142 -0.753005 -0.428068 -0.368143 -0.957794 -0.070390 -0.512973 -0.387435 -0.623525 0.166830 0.513206 -0.367905 0.058401 0.602454 
0.026046 -0.417483 -0.125566 0.164121 -1.015053 0.705540 -0.676862 0.070244 0.670450 0.324332 -0.230720 0.586040 -0.609879 -0.395013 0.647738 -0.231431 -0.035226 -0.494091 -0.303380 -0.251379 -0.162951 0.558353 -0.784894 -0.403916 0.310026 0.276892 0.713788 -0.107095 0.212106 0.525298 1.066591 0.375856 0.507577 -0.821285 -0.717651 -0.450713 -0.551669 -0.572518 -1.020405 -0.280223 -0.546180 0.149190 -0.449374 0.882471 -0.577476 0.311813 -0.826872 -0.753585 0.885592 -0.872725 -0.870521 0.591477 -0.137107 0.155237 -0.368337 -0.349228 0.623605 -0.704323 0.846837 0.758167 
-0.000697 -0.801413 -0.930819 0.614598 -0.955205 0.355586 0.698721 -0.145784 -0.675949 1.228255 0.304075 -0.752353 -0.481307 -0.779788 0.175154 0.476584 0.407912 0.519786 -0.587464 0.515640 -0.674439 0.142216 0.081908 -0.522881 0.171634 -1.051946 -0.200591 -0.076420 0.991448 0.920955 0.981429 0.986240 -0.165802 0.644943 0.656619 -0.099095 1.026018 -0.606028 -0.086773 0.306853 0.559514 0.182036 -0.319703 0.870455 -0.022409 0.317497 -0.900275 0.405817 -0.532301 -0.583476 0.926184 -1.133929 -1.013012 0.370291 -0.769599 1.431993 0.127413 -0.085252 -0.868684 0.991854 
0.796686 -0.590260 -0.351111 0.849000 -0.960331 0.997167 0.025195 -0.162987 -0.828611 0.955214 0.663650 -0.743324 -0.591956 0.102224 -0.239271 0.471916 0.647276 -0.403112 -0.311745 -0.241036 0.137677 -0.315054 0.651370 -0.774035 -0.698145 -0.248823 -0.141395 0.734320 0.841191 0.585321 -0.722349 -0.056225 -0.626563 0.725776 -0.522932 0.542821 0.846871 0.433386 -0.386683 -0.379164 0.182027 -0.443654 -0.410142 1.001022 0.941926 0.931159 0.965388 0.395492 0.111291 -0.648040 0.256213 -0.952123 -0.743793 -0.001018 -0.288198 0.132969 -0.023142 -0.948797 0.344509 -0.190094 
0.406755 -0.286056 -0.195577 0.283385 -0.061535 -0.852712 0.932338 -1.432664 0.578439 1.296408 -0.331803 -0.045969 0.438607 0.823261 -0.353817 -0.682305 -0.426139 -0.451921 -0.633878 -0.697013 -0.802397 -0.182956 0.779691 -0.935499 0.701783 -0.815001 0.098182 -1.171869 0.660852 0.632658 0.530720 0.499501 0.990810 -0.533730 0.690280 -0.951203 0.667989 -0.036122 0.889606 -0.512738 0.043229 -0.050481 0.610897 -0.806230 -0.698920 -0.223799 -0.217766 -0.270459 0.386395 -0.313535 -0.954684 0.016689 0.658334 -0.850026 -0.017558 -0.748895 -0.025269 -0.248370 -0.848586 0.952756 
-0.923464 0.605024 0.690434 0.756474 -0.413665 -0.630194 -0.184901 -1.197221 0.173255 0.029475 0.758820 -0.529841 0.065642 1.054095 -0.114610 0.539357 0.697273 -0.722042 0.489852 0.108883 0.815349 -0.147688 -0.652869 0.773788 0.833074 -1.042704 0.943374 -0.915576 0.528799 0.618004 0.570048 1.087085 0.632702 -1.004603 -0.970017 0.915364 0.010763 0.047774 -0.547195 -0.519020 0.406092 0.266303 0.939448 -0.547382 -0.381765 0.646625 0.447094 -0.519902 -0.391571 -0.121522 0.680141 -0.341559 0.559232 -0.027288 0.662137 -0.754944 0.049913 -0.079395 -0.230660 0.807378 
0.763806 0.437676 0.767275 -0.623297 -0.419022 -0.015733 0.341648 -0.706720 -0.034047 -0.093231 0.933635 0.123098 0.275268 -0.007924 -0.022842 -0.611232 0.434416 0.750968 0.319374 0.592109 -1.045282 1.214758 0.532526 -0.864587 0.598920 0.312655 0.392819 0.255190 0.381610 0.205643 0.330480 -0.126544 -1.173533 -0.132361 0.227485 -0.283024 0.912997 0.815404 -0.888912 0.006379 -0.254275 1.172963 -0.809497 0.908691 -0.372165 1.156542 0.706963 0.598624 -0.790252 0.811069 -0.208657 -0.596893 -1.293874 0.784471 -0.432042 -0.658326 -0.498936 -0.604953 -0.572154 -1.066974 
-0.213279 -0.054086 -0.385885 0.324295 0.663150 -0.050784 0.902647 0.549119 -0.553372 -0.700175 0.029166 0.406368 -0.026865 0.073472 -0.318370 0.956557 0.198633 -0.829517 -0.507833 -0.761008 0.319113 0.303775 -0.394346 0.653601 -0.853637 -0.293031 0.514686 -0.541716 -0.664828 -0.222492 -0.393943 -0.678188 -0.076327 0.493182 -0.603204 1.285515 -0.746682 -0.158868 0.335954 0.929562 -1.114756 -0.802303 0.964217 0.174429 0.607257 1.065433 0.957822 -0.721033 -0.656419 0.254873 -0.798121 -0.124684 0.587854 0.269392 0.699384 -0.797104 -0.448139 -0.764473 -0.840428 0.673005 
-0.340944 0.779809 0.521534 -0.451245 0.444111 0.391186 0.964973 0.891176 0.647602 0.010853 -0.139783 -0.812085 -0.055961 0.629652 -0.598988 0.870368 -0.723062 0.320093 -0.829461 0.930192 0.134749 0.651571 -1.041507 0.748363 0.628585 -0.371011 0.375556 -0.274470 0.893896 -1.197760 -0.289151 0.657514 -0.439804 0.797204 0.398597 0.247134 0.813228 0.056048 0.545490 -0.827048 0.856097 0.125623 -0.126686 0.934133 0.124896 1.452392 -0.267077 -0.912413 -0.610742 -0.388021 -0.039423 0.327631 0.805488 -0.001847 0.282642 -1.370453 0.575564 -0.112532 -0.299149 -0.942952 
-0.724492 -0.349316 -0.027611 0.469060 0.460939 -1.010941 0.843792 -0.083899 -0.590183 -0.409300 -0.463722 0.340428 -0.027935 -0.750124 -0.978137 -0.109955 -0.251647 0.372927 0.403382 0.693182 0.341086 0.683559 0.576609 0.311651 0.812196 0.928083 -0.273522 -0.423555 -0.415788 -0.376418 0.857204 -0.782571 -0.084677 -0.855378 0.955956 -0.007935 -0.025423 0.908548 -0.502653 0.145633 -1.094126 -0.180888 -0.133997 -0.274015 -0.660737 0.467448 -0.604437 0.279687 0.941844 -0.505777 -0.673283 -1.047983 -0.341688 0.120021 0.571707 -0.634118 0.865373 -0.897594 0.540995 -0.602927 
0.145511 0.571551 0.528703 -1.077312 -0.636383 0.559620 0.709913 0.300369 -0.441185 0.903092 0.320551 -0.305579 -0.715940 0.522102 0.312320 0.223308 0.601208 0.341468 0.415229 0.744852 -0.848164 1.077668 -0.016108 -0.797418 -0.673078 -0.598860 0.227049 -0.623767 0.942318 0.458554 1.050198 -0.437975 0.082293 -0.412549 0.378672 0.721194 -0.862011 -0.378885 0.421744 -0.610839 -0.509002 0.360946 -0.910381 -0.295182 -0.328755 0.454614 -0.221237 -0.623653 1.194991 0.977136 -0.205098 0.362681 0.364179 1.111156 -0.357983 0.794812 -0.702294 -1.057182 0.699537 -0.611227 
-0.048931 0.384714 -0.286174 0.074053 -0.853759 0.692615 0.094731 -0.262132 -0.147194 -0.188493 -0.341397 -0.612305 -0.122471 0.787411 -0.266982 -0.338479 0.926896 0.904604 0.771360 0.868414 -0.822648 -0.411624 -0.957095 0.981801 1.246597 -0.287603 0.135429 -0.223811 -0.115659 0.140700 -0.904603 -0.591637 1.006095 0.402974 1.011071 -0.379455 -0.275701 0.921605 -0.156583 -0.646546 -0.563834 -0.421807 0.639237 -0.057263 0.557359 0.213306 0.614096 -0.655994 0.731387 0.442876 -0.536315 0.330799 0.707180 0.879532 0.208622 0.934186 0.142131 0.047544 -0.016738 0.085806 
0.536951 -0.556111 -0.343883 0.523777 0.654426 -0.152820 -0.023947 -0.288838 -0.176984 1.101744 0.444726 0.773865 -1.146605 -0.246986 -0.256076 0.447710 0.273707 0.148506 0.291445 0.076600 -0.127302 -0.307611 0.261144 0.632125 -0.018406 0.516192 0.687467 -0.907750 -0.340856 0.887075 -0.857365 -0.045887 0.081653 -0.130243 -0.991433 0.311576 0.700815 -0.836128 -0.687353 0.694846 -0.567399 0.141896 0.322875 0.227444 -0.776155 0.683472 0.825394 0.913949 0.422116 -0.796525 -0.783821 -0.610469 0.500286 0.023415 0.189233 0.141372 -0.488570 0.651033 -0.911252 0.352456 
0.603864 0.419885 -0.131515 -0.651079 0.537683 -0.662483 0.469648 0.147755 0.509223 0.773856 0.232757 0.053597 -0.311346 0.689777 0.184700 0.653544 -0.057943 0.678956 -0.379835 0.482738 -0.437201 -0.000468 0.873676 -0.397220 -1.021886 0.218376 1.019921 -0.600855 0.821181 0.265172 0.054781 0.329620 -0.241240 0.118559 0.129156 -0.754996 -0.176999 -0.983619 0.178775 -0.695535 0.001851 0.744451 -1.068654 -0.765282 -0.060697 0.325803 -0.353278 0.470045 0.676487 -0.510158 -0.848771 -0.712159 0.507706 -0.370318 -0.297327 0.579774 0.153504 0.086535 0.422472 -0.293072 
-0.240351 -0.436943 -0.734717 -0.559501 -0.045562 0.857620 -0.424054 0.274631 -0.664595 0.997564 -0.041254 0.823939 -0.790070 1.057589 -0.858335 0.648938 0.492930 0.496981 -0.699882 1.014808 -0.998254 -0.740796 0.150145 0.166492 -0.080376 -0.765106 -0.370893 -0.061226 -0.540812 0.176830 0.250454 -1.242417 0.930506 -0.512957 0.720781 0.036496 0.459204 -0.819675 0.885896 0.034467 0.708995 -1.030638 0.066058 -0.636676 0.174402 0.149592 -0.609914 -0.976982 0.576825 -0.838603 0.149136 -0.138550 0.533980 -0.255044 -1.091592 0.214249 0.553049 0.763635 -1.085512 0.463036 
0.102550 0.849527 -0.777318 0.017786 0.040589 -0.362771 -0.642860 -1.286610 -0.472555 0.124745 -0.361383 0.353505 -0.648358 -0.209512 -0.881175 -0.636028 0.382015 -0.800481 -0.112263 1.090539 -0.805521 0.657001 -0.303718 0.035179 0.239495 -0.659290 0.911767 0.231663 0.765324 -0.169182 0.293583 0.077602 -0.876542 -0.401607 -0.648733 0.180862 -0.820786 -0.382096 0.416819 0.483399 -0.450650 -1.480095 0.325152 0.153671 -0.971859 0.099401 -0.061582 -0.707641 0.314207 1.089814 -0.578778 -0.473497 0.846681 -0.058868 -0.038014 -1.195119 -0.434997 -0.025755 -0.397753 -0.422957 
-0.124301 -0.602464 0.903023 0.921540 0.622358 -0.917356 0.771842 0.344305 1.044534 -0.395960 1.050256 0.022188 -0.582865 0.794924 0.011697 0.768051 0.398225 -0.375876 0.725582 -0.352975 -0.036440 -0.384931 0.533707 -0.225353 0.962108 0.501630 -0.736041 -0.217641 0.391745 0.036603 -1.067523 -0.421925 0.777808 0.499167 1.079920 0.197229 0.609974 -0.528205 0.518682 -0.491911 0.484574 -0.127956 0.758028 -0.659241 0.017331 0.659156 0.652949 -0.924675 -0.657068 -0.049907 0.348473 -0.288547 -0.480393 0.649252 0.352684 1.225902 1.014762 0.217135 0.013912 -0.342819 
0.422369 0.308159 0.693077 0.047203 0.199593 0.109652 -0.453714 -0.827286 -0.712794 -0.457247 0.750430 -0.097653 -0.444147 -0.111972 0.024739 -0.231947 0.081011 0.559029 0.276624 -0.388202 -0.829049 0.391437 -0.998875 -0.673143 -0.337902 -1.171098 -0.438705 -0.290778 0.821113 0.067557 0.217324 0.721616 1.043888 -0.009035 -0.165365 -0.574159 0.518577 -0.469403 -0.191381 0.265447 -0.614683 0.078624 0.242923 0.034547 -0.230984 -0.049499 -0.183554 0.736680 -0.688380 0.724409 0.713095 0.322612 0.782357 -0.879727 0.051594 -0.200458 -0.603082 1.069229 0.263560 -0.762489 
-0.445986 0.485846 -1.010211 -0.643759 -0.091477 0.656106 -0.772858 0.597913 -0.434695 -0.170867 0.761587 -0.602930 0.195204 -0.572064 0.422040 -0.069918 -0.538004 0.217334 -0.677301 0.066988 0.388345 -0.504196 0.099285 -1.020244 1.221754 -0.497532 -0.514749 -0.864280 0.912809 -1.042998 -0.826128 -0.014340 -0.010697 -0.884841 0.899240 0.180976 0.585103 -0.799676 0.231734 0.564175 0.228351 -0.403368 -1.280193 0.535366 0.443871 -0.041874 0.819271 0.989427 0.472782 1.122586 -1.005989 0.598966 0.479471 -0.572609 0.262893 0.543909 0.439641 1.158086 -0.515413 0.179901 
0.648730 0.071443 0.342889 -0.634813 0.451341 0.471112 -0.638074 -0.888866 0.339637 0.100571 -0.854737 0.240769 0.510508 0.123418 -0.203070 0.341873 0.422278 -1.004097 0.399286 -0.448460 -0.271669 1.420001 0.482881 -0.449228 -0.704165 0.028619 0.398708 0.587222 0.213792 0.890389 -0.985616 0.474745 1.068194 0.981589 -0.318183 0.651731 0.312601 0.323249 0.443195 -0.653276 0.060302 -0.471707 0.664326 0.757960 0.664004 -0.447801 -0.429254 -0.273458 -0.308029 0.261299 -0.979864 0.152511 -0.727884 0.387693 -0.512093 0.311176 0.188334 -0.686492 -0.754130 -0.162105 
0.735278 -0.555323 -0.367319 0.697287 -0.893764 0.224385 0.919147 -1.195470 0.979630 0.320469 -0.244732 -0.478788 -0.225200 0.368782 -0.705315 0.046893 0.440476 -0.989349 0.295646 -0.549203 0.692185 -0.098363 -0.405423 -0.352740 0.082582 -0.117063 0.842640 -0.069956 0.810097 0.826538 -0.777153 -0.011871 0.045455 1.038354 0.919351 -0.294572 0.076565 -0.886441 -0.927143 -0.729132 -0.604472 0.654267 0.410356 0.150404 0.337856 -0.296564 -0.492420 0.770567 -0.689495 0.648033 0.467402 0.208517 -0.141819 0.253952 1.099476 0.517933 -0.631036 -0.516924 -0.986276 -0.555412 
0.454272 -0.718434 -0.880270 -0.869647 -0.323207 -0.351329 0.329552 -0.567504 -0.733187 -0.232863 -0.117471 0.946594 0.305543 -0.423634 0.564284 0.289284 0.186814 -0.775992 1.104797 0.717466 -0.565318 -0.052034 0.742743 0.857745 0.083569 0.493214 0.385906 -0.214473 1.048897 0.394431 0.718250 0.522648 0.829111 -0.413302 0.233527 0.881577 0.269584 -0.146447 -0.958369 0.158025 -0.165905 -0.526384 -0.009500 -0.173059 -0.920852 0.638082 0.721063 -0.772786 -0.554104 -0.567076 -0.181550 0.654335 -0.212232 -0.818680 -0.165159 0.277093 -0.381634 -0.581998 0.460327 -0.451792 
0.701312 0.498592 -0.164467 -1.049240 -0.034646 -0.824775 0.231652 0.247279 -0.536749 -0.762418 -0.797396 0.252367 0.491744 0.121820 0.939132 -0.422727 -0.465174 0.830790 0.813646 -0.420701 0.379818 -1.058474 -0.950265 0.861400 0.732789 0.017709 -0.537888 -0.047970 1.041842 -0.545685 0.326408 0.015155 -0.558451 1.115553 -0.456163 -0.871002 0.144195 0.585990 -0.363355 0.081193 -0.488343 0.259161 0.482029 0.611659 0.447145 0.779673 -0.478080 0.617254 -0.647877 -0.407414 -0.930039 0.801356 0.205646 -0.242313 -0.892832 0.384458 -0.760015 1.155510 0.630807 0.744196 
-0.308505 -0.455516 -0.003968 -0.071190 0.143714 0.423650 -0.311659 -0.854784 -0.265818 0.104905 -0.817220 -0.020002 -0.715719 -0.546934 0.906622 -1.009423 -0.567997 -0.724107 0.311661 0.581235 -0.754247 0.713466 0.121085 0.113923 -0.763266 -0.316493 -0.146249 0.721607 -0.449075 0.365555 -0.475902 0.084958 -0.483020 1.267209 -0.031496 0.211020 0.137069 0.912225 0.249136 -0.754929 1.045317 0.071723 -0.649919 0.480777 -0.099083 0.233004 -0.635315 -0.026029 -0.344700 0.552764 -0.507021 -0.344614 0.771497 -0.111978 0.760203 -0.159485 0.733255 0.004011 -0.538162 0.076722 
0.749670 0.750802 -0.446032 0.495222 -0.826109 0.251953 -0.076469 -0.194274 0.950352 -0.592932 0.009360 0.602945 -0.473503 0.028561 0.865015 -0.366257 -1.244209 0.046749 0.012323 -0.636531 -0.591566 -0.324122 0.519015 -0.936454 0.695838 0.663190 -0.583234 -0.254617 0.447087 -0.861623 -0.510974 -0.750891 0.755027 1.354303 -0.026622 0.006615 0.622341 0.595871 -0.189028 0.490038 0.111258 0.385375 -1.198143 0.350966 0.921777 -0.072305 0.463497 -0.462454 -0.570963 0.045134 -0.875219 -0.154545 -0.069268 -1.146167 -0.665222 0.719077 -0.367037 -0.599468 0.833738 -0.809831 
-0.316990 -0.543039 -0.860638 0.779568 0.802387 -0.806116 -0.823461 0.008519 0.592310 -0.016061 -0.508978 0.342550 0.492137 0.370669 -0.862921 -0.855221 0.364718 0.840950 0.641685 -0.419068 0.289381 -0.629902 0.189226 -0.401492 0.368921 0.225486 0.564404 -0.240996 0.460659 0.020387 -0.644579 -0.922031 1.000959 -0.046599 0.499120 -1.177156 -0.697824 0.690404 0.753860 -0.718684 0.556900 -0.029887 -1.099576 -0.261875 0.188916 0.812698 0.002408 0.941638 0.974804 -0.708180 0.449812 0.018164 0.488314 -0.360330 0.927381 -0.717955 -0.732213 0.150176 0.959304 -0.890532 
-1.057289 0.309064 -0.175895 -0.180412 0.099317 -0.206732 0.750648 0.384043 0.299242 0.735747 0.614110 0.206090 0.776016 -0.691777 -0.528338 -0.412599 0.446346 -0.412923 -0.175215 -0.255643 0.429123 0.052307 0.472342 0.680013 -0.146167 0.772988 -0.335718 0.550973 -0.816635 -0.604392 0.729735 -0.238770 0.831102 0.879612 0.609140 -0.760266 0.039155 -0.918933 -0.008810 0.553769 -0.811175 0.647203 -0.242705 -0.408705 -0.948308 1.009322 -0.432027 -0.912284 -0.552197 -0.610461 -0.782944 0.674673 0.655153 0.366102 -0.063835 -0.566792 -0.782471 -0.677651 -0.915427 0.272423 
-0.045362 0.408329 -1.011175 0.357830 -0.553888 0.584382 0.907748 0.251197 -0.258558 0.834741 0.945104 -0.439308 0.595087 -0.172655 -1.027035 -0.612939 -0.171262 -0.853072 -0.914587 -0.310667 0.500134 -0.068265 0.722516 0.598895 -0.708678 -0.060975 -0.773230 0.596424 0.508761 -1.187892 -0.027487 -0.321010 0.422166 0.360974 0.181451 -1.356525 -0.589284 -0.139202 0.085309 -0.834786 0.366012 0.522671 0.375703 -0.019781 -0.640804 0.092098 -0.697425 0.913721 0.786843 -0.299895 0.097036 -0.109742 -0.013544 0.342351 0.186918 0.189499 0.864311 0.853997 -0.538534 1.054414 
-0.048872 -0.865713 0.338689 -0.731638 -0.065421 0.664619 -0.401145 0.481761 0.933752 1.037909 -0.553810 -0.236445 0.275314 0.553526 -0.075857 -0.093663 0.081424 -0.355394 -0.795056 0.603509 0.429794 0.025005 0.917810 -0.266477 -0.245340 0.008712 0.666291 -0.391623 -0.655099 0.748312 0.333923 0.364665 0.464474 0.464125 0.257036 -0.632256 -0.876544 -1.023175 0.092272 0.218957 0.969490 0.541175 1.132251 0.448459 0.051445 -0.592738 0.286693 0.411070 -0.270492 0.748438 -0.815174 -0.315087 0.797957 0.166279 -0.457207 -0.294791 0.703963 1.034618 -0.786872 1.130623 
-0.612744 -0.029641 -0.100438 -0.850135 -1.037948 -0.612836 0.478155 1.205568 1.198278 -1.120629 -0.006530 -0.861839 -0.834960 0.086997 -0.653815 0.276249 -0.000225 -0.676134 0.829046 -0.265117 -0.687856 -0.164522 0.910489 0.661244 -0.131454 1.123892 0.535226 -0.625599 0.759220 0.544979 0.634929 0.067851 -0.276355 0.887882 0.134055 -0.297347 -0.740289 0.160178 0.397769 -0.874813 0.392904 0.704273 0.857506 0.113992 0.890109 -0.097342 -0.051482 0.208373 -0.926984 -0.361569 -0.151692 -1.150823 1.264634 0.227212 -1.236643 0.648897 0.730490 0.943305 0.397265 0.656157 
1.046077 -0.586167 -0.634665 0.160510 0.224642 -0.534509 0.019808 0.170970 0.815736 0.787220 0.300663 -0.216782 0.408232 -0.282787 -0.775363 0.151845 0.150346 -0.139573 -0.321172 0.543807 -0.058368 -0.424460 0.501228 0.535215 0.231090 0.318814 0.263457 0.036004 0.994666 0.474274 -0.446981 0.738301 0.460037 0.957368 1.367260 -0.850930 -0.265192 -0.889139 0.181656 -0.597148 -0.348540 -0.639981 -0.509773 0.421755 -0.516828 0.139078 0.361021 -0.627185 0.527357 0.277752 0.777217 0.096198 0.092399 1.029450 -0.339158 0.046564 0.808523 -0.336267 -0.320076 0.885544 
-0.117135 0.917171 0.643711 -0.695638 -0.959164 0.051267 0.129985 0.622901 -0.912442 -0.857530 -0.115468 0.984004 0.668409 -0.963723 -0.192809 -0.547469 -0.591228 0.465995 0.857916 1.105673 0.119832 0.235890 -0.152824 -0.796725 0.482308 0.439001 -0.053559 -0.946236 0.717964 -0.174451 1.248032 -0.750679 -0.185801 0.138270 0.880920 1.287012 0.611050 0.844628 0.122526 0.006494 -0.101480 -0.013845 1.316628 0.692620 0.673425 0.681044 -0.350850 -0.137174 -0.269151 0.658076 -0.462102 0.336972 -0.134735 1.160380 -0.405922 -0.412724 -0.208135 -0.831454 1.002282 0.603661 
-0.921642 0.238715 0.401819 -0.402997 -0.426199 0.248493 0.198918 0.791171 -0.623938 0.427757 -0.026898 -0.722863 1.241121 0.335635 0.689192 0.067747 -0.656324 0.849301 -0.732522 -0.210930 -0.749409 -0.611833 -1.036221 -0.704372 -0.438852 -0.067457 0.479678 -0.503523 -0.231878 -0.769000 -0.255983 -0.053051 0.471388 -0.513159 -0.321886 -0.043872 -0.595330 0.480901 -1.056398 -0.876231 -0.154855 -0.804070 0.298858 0.954460 0.717929 1.047661 -0.148656 -0.219439 -0.332370 0.194011 -0.640573 -0.100239 0.790137 0.541899 0.905939 -0.696316 -0.150249 0.146475 0.487246 -0.792161 
0.177518 1.190935 0.468289 0.047268 0.251973 0.558937 -0.779421 -0.167049 -0.425782 -0.434654 -0.880659 0.020385 0.230978 -0.299338 0.507667 -1.000657 0.544720 -0.196885 0.759241 -0.605631 -1.367916 -0.950373 -0.961880 -0.246759 -0.113413 0.182054 -0.088429 0.425690 -0.543152 -0.011528 1.048135 1.001042 -0.772212 0.562194 0.327552 0.465343 -0.089871 -0.971682 0.522020 -0.086104 0.067638 -0.333320 -0.394830 -0.706257 1.050479 -0.032359 -0.554315 -0.316789 -0.607226 0.129160 1.013508 -0.661043 0.794099 0.582300 0.867554 1.174584 -0.346070 0.387726 -0.740994 0.433322 
0.827665 -0.830404 0.486877 -0.544064 0.566236 -0.010179 0.236073 0.040564 -0.206725 -0.387739 0.653060 -0.693114 0.814369 0.863125 0.170579 0.031761 -0.628888 0.835877 -0.262725 -0.199497 -0.321388 -1.175461 -0.753289 0.286729 0.105254 0.718686 0.997707 0.201360 -0.453769 0.686151 -0.047681 -0.190809 0.034740 -0.884706 1.101753 0.347054 -0.512104 -0.821249 -0.857360 -0.461048 0.135226 0.892950 -0.505323 0.988873 0.693730 0.697931 -0.707524 -0.914869 1.018733 -0.638723 0.001099 0.617782 -0.060849 -0.461390 -0.334679 0.793366 -0.787091 0.424102 0.662793 0.298052 
-0.418640 -0.046056 -0.658985 0.165760 0.526957 -0.756968 0.570912 -1.380248 -0.559637 0.793310 0.968181 0.514600 1.450245 0.749396 -0.621349 -0.448345 -0.069189 1.022292 -0.472914 0.221890 -1.069542 -0.755251 0.371893 -0.708307 0.836079 0.306901 0.638635 -0.317464 1.024611 0.127702 1.034222 -0.296060 -0.922334 -0.915692 0.311496 -0.037001 0.519496 -0.315413 0.549156 -0.777066 0.694545 -0.350534 0.871339 -0.876256 -0.244148 0.991005 -0.007187 0.853365 0.047368 -0.806863 -0.637158 0.735413 -0.098292 0.212274 0.960470 0.294505 0.849166 0.156621 0.114444 -0.479598 
1.001517 0.260933 0.947088 -0.652088 -0.480974 0.675631 0.041227 -0.604360 0.134074 0.190122 0.836415 1.130660 0.182059 -0.136806 0.493298 0.770487 0.261991 -0.250461 0.874027 0.297066 0.256888 -0.238607 -0.208834 1.051249 0.324726 -0.908042 0.431303 0.960269 0.154984 0.759587 0.852806 -0.589510 0.030573 0.495064 -0.520681 0.758572 -0.518253 0.928067 0.664888 0.133157 0.769474 1.258970 0.025231 -0.048359 0.541761 0.619093 0.232055 -0.072963 1.023311 -0.791858 -0.131974 -0.448238 0.482731 0.372324 0.070720 1.001112 0.122442 0.549252 -0.841137 -0.339562 
-0.308219 0.212592 -0.442645 -0.052375 0.594343 0.021042 -0.771301 -0.037733 0.639889 -0.262164 -0.322625 0.492610 -0.237851 -1.008459 0.518534 1.012492 0.247918 -0.276394 0.948967 0.814714 0.037292 0.387788 -0.556932 0.249531 0.235603 -0.796569 -0.359525 -0.027988 0.507452 -0.114792 -0.650139 0.031748 -1.066810 0.261126 0.539138 -0.667637 0.520052 0.292665 0.724542 0.424548 -0.690043 -0.644297 0.860436 1.003092 -0.727530 1.243299 0.457068 0.000562 -0.377659 -0.165642 -0.638057 -0.570972 0.003441 0.210564 0.000312 0.383428 0.459008 0.116554 1.039288 0.534827 
-1.183978 -0.523445 -0.637810 -0.791134 -0.842910 0.090546 0.696936 -0.833355 -0.915421 0.486844 -0.098272 0.322756 0.274655 0.552370 0.540975 -0.774843 -0.828777 0.520686 0.932403 0.110094 0.883242 -0.547603 -0.173864 0.615253 -0.148773 -0.684993 0.852747 -0.375970 0.242460 0.795407 -0.115734 -0.825925 -0.621026 0.591419 -0.991415 -0.719683 -0.290849 0.479791 -0.042257 -0.916475 0.475311 0.743454 0.002764 -0.809850 -0.395079 0.424927 1.015696 0.541566 1.043402 0.959774 0.480436 0.034919 -0.567184 0.116066 -0.726924 -0.029703 0.809972 0.782569 -0.166950 -0.570985 
0.431242 0.220374 -0.895278 0.075982 -0.459589 -0.680008 -0.096932 -0.330302 -0.726496 -0.117360 0.872060 -0.235146 -0.800690 -1.016551 0.375044 0.596021 -0.873731 -0.120138 0.875064 0.181982 0.478011 0.689892 0.078341 0.012346 -0.556677 0.927061 0.572600 0.799050 -0.230383 -0.162154 -0.348187 -0.574420 -0.973739 -0.957899 -0.497633 -0.016611 -0.086867 -0.371635 0.438189 -0.148018 -0.981690 -0.021349 -0.036252 0.811969 0.465261 -0.274153 0.293549 0.864464 0.571762 0.151043 -0.279660 -1.006480 0.075736 0.581814 0.706948 -0.887575 0.218891 -0.269125 0.490047 -0.330395 
-0.422284 -0.671343 -0.960757 0.745472 -0.792869 -0.560550 0.911591 0.437669 0.652534 0.881179 0.487872 0.297330 -0.298159 0.819293 0.718362 0.735014 -0.549206 -0.570709 -1.138961 0.486361 0.653830 1.141318 0.602341 0.071978 -0.735993 -0.539805 0.808870 -0.088078 0.932066 0.597557 1.027290 0.226271 -1.062297 -0.673755 0.408146 -0.917665 -0.126385 -0.366014 -0.036313 0.499065 -0.267038 0.963859 -1.036268 0.820685 0.536464 0.977429 1.113390 -0.711364 0.963891 -0.224202 -0.079687 0.498789 1.072568 -0.679050 -0.756260 -0.412243 -0.254846 0.480211 0.315755 -0.672310 
-0.117312 0.597524 -0.297727 -0.372605 0.087591 -0.171065 0.626828 0.537758 0.807852 0.192640 -0.537112 0.025936 -0.476935 -0.071809 -0.511270 0.175080 0.334416 0.692658 -0.438289 0.937562 -0.390277 0.059695 0.225589 -0.109715 -0.796629 1.009507 0.233091 0.005080 0.180064 0.005872 0.916302 -0.356712 -0.637471 -0.144812 0.084083 -0.920196 -0.310100 -0.018046 -0.650881 0.315487 -1.191289 -0.384616 -0.494006 -0.775806 -0.554452 0.257394 0.272770 -0.542919 -0.537310 0.847237 0.020547 0.392901 -0.455371 -0.842739 0.503602 -0.475920 -0.159851 0.053048 0.883185 0.164604 
-0.643724 0.930934 -0.004197 0.738685 0.154633 0.264360 -0.523544 0.536230 1.204453 -0.303512 0.013903 -0.956506 0.828398 0.358558 -0.325552 -0.920997 -0.903129 0.689851 -0.344090 -0.375481 0.891334 0.403220 0.489568 0.226034 0.343688 0.870492 0.031318 -0.577915 -0.085996 -1.179505 0.680375 0.988130 -0.545704 -0.434322 0.656879 0.707514 0.624165 0.247112 0.990132 0.058480 0.528730 -0.123523 -1.205742 -0.314510 -0.241724 0.366508 0.006731 0.326857 0.430697 -0.782595 0.066416 0.582167 -1.072467 1.013871 0.005882 -0.672883 0.524091 -0.395748 0.558569 0.428610 
-0.307235 -0.314156 1.024658 0.557758 0.236568 0.785883 0.256488 -0.647338 0.887552 -0.193714 -0.473678 -0.392315 0.781521 -0.085893 0.230972 -0.725471 -0.626029 -0.866424 0.490220 -0.340995 0.843216 0.439983 -0.285584 -0.527159 1.095352 -0.224109 0.492128 -0.163592 0.603818 -0.508459 0.438023 -0.168335 -0.708487 -0.567603 -0.744329 0.637039 -0.762168 0.318875 0.412285 -0.116026 0.554880 -0.880779 -1.013582 -0.893533 0.193646 -0.644975 0.323929 0.823336 -0.328255 0.153482 0.851219 0.293254 -0.107618 -0.744281 -0.324044 0.825397 0.279670 -1.075813 -0.386619 0.832973 
-0.687320 -0.016047 -0.670696 0.498121 0.510009 0.674846 -0.119559 -0.253785 0.481310 -0.123158 0.904059 -0.150322 0.622541 -0.294942 -0.748430 0.103536 -0.896929 0.959984 0.813585 0.589126 -0.944670 -0.026442 0.749274 -0.525008 0.819242 0.170110 0.610300 0.517572 0.553454 0.715955 0.095381 -0.904275 0.788665 -0.224675 -0.140983 -0.342927 -0.506071 -0.407730 0.638281 0.681270 -0.727063 -0.306680 -0.643982 0.385167 0.621046 -0.180705 -1.087214 0.717700 -0.301494 -0.558220 -0.550379 0.182608 0.125318 -0.815318 0.310081 -1.071156 0.789455 -0.584623 -0.237282 -0.493844 
0.605099 0.316001 0.699004 -0.128812 -0.205799 -0.312515 0.652199 0.550242 0.538970 0.432180 -0.691593 -0.072859 0.800042 0.062358 -0.803822 -0.267254 0.562412 0.394751 -0.407948 0.760217 -0.235401 0.395718 0.632074 -0.508105 0.375524 -0.023568 -0.942605 -0.237649 -0.352339 -0.786301 -0.927935 -0.023341 -0.353787 0.349407 -0.574594 -0.000069 -0.401382 0.423732 -0.395106 0.131940 -1.001719 -0.540938 -0.193924 0.029447 0.724981 -1.018874 -0.004224 -0.522503 0.000716 -0.216662 -0.187830 -0.387367 0.188694 -0.939309 -0.801310 0.189552 0.801459 -0.540919 0.395629 0.389689 
0.019705 0.206900 -0.777620 0.439517 -0.007185 0.996813 0.082463 1.120351 0.347638 -0.477344 -0.362738 -0.109154 -0.477617 -0.239290 -0.852545 -0.126829 0.791587 0.859897 0.915806 -0.210540 0.505609 -0.252156 0.254684 -0.673900 -0.069957 0.641585 0.060430 0.534953 0.621583 -0.887626 -0.204021 -0.271731 -0.029095 0.880478 0.072005 -0.689855 -0.495986 -1.083797 -0.842604 -0.146117 -0.806048 -0.036150 0.006927 0.413182 -0.604193 -1.016855 -0.332370 -0.241026 -0.394596 -0.660545 -0.211015 -0.439816 -0.676726 0.298771 0.589339 -0.529561 -0.721285 -0.219629 -0.900419 -0.594134 
0.196649 0.029297 -0.246673 -0.681037 -0.887321 0.710258 0.130921 -0.504941 -0.469576 0.469137 0.314951 0.549202 0.099239 0.216408 0.847813 0.776081 -1.105357 0.232093 0.086016 -0.567815 -1.046389 0.841357 -0.229494 0.523983 0.353826 -0.677522 -0.613739 -0.634697 0.296183 0.620950 -0.513266 0.184257 -0.720081 0.089117 0.534428 -0.859626 -0.326953 0.164868 0.692909 0.987911 0.734948 0.447240 -1.058628 0.577508 0.430720 0.895594 -0.631678 0.041794 -0.060925 0.529120 -0.395934 -0.639234 -0.572395 0.271816 0.438463 0.538984 -0.238400 0.008288 0.155264 -0.206661 
-1.185311 -0.656403 -0.494994 -0.377074 0.323260 0.687449 0.235781 0.628091 0.787176 -1.142725 -0.914296 -0.663995 0.274454 -1.212802 -0.144013 -1.040884 1.064718 0.581326 -0.473399 -0.661716 -0.990194 0.811122 -0.008729 0.242829 -0.130829 -0.597788 0.010825 0.452414 -0.643447 1.100901 -0.137914 0.307878 -0.016112 -0.433446 -0.092094 -0.885855 0.471155 0.856619 -0.334690 -0.201562 -0.786868 -0.248410 -0.192401 0.435564 0.145576 0.807958 -0.812972 0.016602 0.227188 -0.768329 -0.103360 0.755389 0.266592 0.851504 0.196677 0.291018 -0.004257 1.190241 -0.821480 0.229055 
0.485489 -0.531414 -0.049294 -0.361698 0.302329 0.390679 -0.657735 1.157905 -0.069606 0.552756 0.667502 -0.550939 -0.205219 0.052939 -0.396722 0.139790 0.234770 0.498779 -0.022730 -0.620727 0.548576 0.101857 -0.780399 -0.429182 0.986050 -1.005951 -0.860703 -0.342629 -0.891275 0.390914 0.005705 -0.877169 -0.038221 0.789727 -0.261887 -0.099202 0.828697 0.785062 0.788809 -0.102970 -0.539481 -0.690030 -1.147903 0.435334 0.709821 0.052533 -0.947390 0.706121 0.546373 0.131978 0.923232 -0.510103 -0.288793 -0.197698 -0.496109 -0.896047 -0.693029 -0.558419 0.388526 -0.597561 
0.217123 0.410912 -0.982944 -0.829906 -0.477597 -0.397201 -0.307338 0.212012 -0.731939 -0.603408 0.187153 -0.570631 -0.635959 -0.792742 0.713001 0.731367 -0.716085 -0.744753 -0.268002 -0.517804 -1.183784 -0.528185 0.079735 0.424187 0.630465 0.317508 0.622354 0.072750 -0.120468 -0.510055 1.009336 -0.638855 -1.143718 -0.365510 0.893125 -0.546134 0.215418 0.089982 -0.892006 -0.491597 -0.815948 -0.715888 -0.577569 0.287732 -0.383138 -0.024007 0.767484 -0.304435 0.661333 -0.234016 -0.183269 -0.474946 0.973032 -0.036683 -0.708529 -0.338489 0.228772 0.402091 -0.676727 0.705950 
-0.815063 0.463263 0.747790 -0.067640 -0.497031 -0.161401 0.306860 -0.056720 -0.825306 -0.609768 -0.509074 0.933139 0.629103 -0.618873 -0.556725 -0.840166 -0.162548 0.169763 -0.626464 0.880382 0.080023 -0.544322 -0.584447 0.083910 -0.237021 0.893082 -1.203333 0.140800 -0.114266 0.542051 0.625266 0.078687 -0.488455 -0.422181 -0.568096 -1.234062 -0.800586 -0.505339 -0.386643 0.080622 -0.235648 0.570606 -0.436462 0.197976 -0.351513 0.288623 0.157612 -0.714634 -0.217843 -0.117555 -0.578296 0.383847 -0.694724 0.788388 -0.487145 -0.585789 0.305929 0.089587 0.715416 -0.794378 
-0.421314 -0.578279 -0.948039 -0.146438 -0.665903 0.781883 0.829956 1.205053 -0.117232 0.407117 0.340685 -0.222898 0.628129 0.182670 0.937726 -0.874785 0.593758 -0.675885 0.435279 0.244052 -0.534640 0.698001 -0.243984 0.767181 -0.488096 -0.591280 -0.855499 -0.963892 1.032694 -0.915404 0.479427 -0.315827 -0.391024 0.235709 -0.586094 -0.471706 0.393502 -0.071098 0.397142 0.089281 0.576352 0.987244 -0.580510 -0.573823 -0.194832 -0.273434 -0.511538 -0.491863 0.236553 -0.059637 -1.000673 -0.595326 0.235471 -1.111179 -0.859362 0.691643 0.063969 -0.193234 0.306075 0.269469 
0.716035 -0.368024 -0.347681 -0.486689 0.752124 -0.433077 -0.295138 -0.563210 0.766230 -0.135631 0.343082 -0.010635 0.054279 0.777151 -0.733514 0.773557 -0.869061 0.338468 0.448446 0.293619 0.204290 0.054027 -0.868531 0.525404 -0.065106 0.322724 -0.740715 0.353787 0.718287 0.483921 0.686032 -0.633805 -0.157434 0.504354 0.315338 -0.166294 0.465626 0.651566 0.495444 -0.203862 0.284266 -0.533060 -1.044938 0.496765 0.562685 -0.760217 0.127562 -0.578673 0.107134 -0.586944 -0.256723 -0.247789 -0.493898 0.100735 0.837598 -0.458709 0.236669 -0.327002 0.708567 0.396954 
-0.876880 0.756277 0.360930 -0.710832 0.038497 0.297919 -0.821941 -0.238748 0.305124 -0.419470 0.609297 0.540771 0.622126 0.761460 -0.569000 0.482854 -0.521279 -0.581116 0.193352 0.778324 -0.586646 0.144023 -0.347325 -0.322729 -0.579175 0.453519 -1.010238 -0.307399 -0.819915 -0.724951 0.327888 -0.435607 0.168533 0.503040 -0.070949 -0.814369 0.334347 -0.595351 0.119964 0.538230 -1.022433 0.154376 0.281263 0.600092 0.202465 -0.996400 0.303884 0.740756 -0.256271 0.458056 -0.058675 -0.521466 0.802967 -0.698879 0.037619 -0.761610 -0.331916 0.003257 0.008830 0.119438 
0.398669 0.726354 -0.952293 0.061371 0.304109 0.666363 -0.013197 -0.669662 -0.102075 0.659051 -0.179946 -0.496474 0.847775 0.685197 0.858429 -0.163152 -1.074153 0.107284 -0.445628 -1.084313 -0.407550 -0.291981 -0.122045 -1.016544 0.861032 -0.327896 0.498737 0.737250 -0.809874 -0.735268 -0.498454 -0.475445 -0.059262 0.949312 0.308351 -0.413088 -0.909933 -0.013881 0.218407 0.814554 0.080004 0.257597 -0.023709 0.736486 -0.759587 -0.532473 -0.011371 -0.705585 -0.088481 -0.615565 -0.238182 0.021220 -0.311738 0.682575 -0.013355 0.470876 0.353948 0.400365 -1.217871 -0.685333 
-0.263181 1.306112 -0.326539 0.800769 -0.935678 -0.806090 -0.327724 0.901185 0.397681 -0.097035 0.447530 0.097478 -0.258863 -0.939266 -0.797208 0.200914 -0.266655 0.041604 0.774355 -0.042041 -0.703681 -1.027898 -0.367836 0.037191 0.762851 1.023265 -0.806585 0.371033 1.053805 -0.493676 0.124501 -0.794421 0.276917 0.221572 -0.629961 -0.233932 -0.610975 -0.170748 0.200244 -0.219512 0.831216 0.682728 -1.219948 0.413960 -0.372182 -0.950210 -0.811225 0.395412 -0.820801 0.884642 -0.903271 -0.361211 0.329562 0.730620 0.781250 -0.578680 -0.841802 0.573326 -0.386520 0.015394 
-0.631568 -0.318532 -0.701437 0.883055 0.487965 0.150702 0.435135 0.634496 -0.170536 -0.462418 0.208004 0.774208 0.390082 -0.613433 0.628031 0.261376 0.217254 0.884681 -0.036447 -0.591171 0.292425 0.271073 -0.983139 0.562403 0.729837 0.491145 -0.246775 -0.421517 0.389224 0.942968 -0.760644 -0.009248 0.721480 -0.761234 0.679977 0.517196 -0.451736 -0.866851 0.007081 -0.630306 -0.375504 0.948416 0.664573 -0.041711 -0.737314 -0.197659 -0.853194 0.207854 -0.373614 -0.734073 -0.563818 0.674835 0.650031 0.599722 -0.253554 0.092938 0.272856 -0.664494 0.520265 0.738890 
0.241352 0.533044 -0.753586 0.381852 -1.060849 0.246258 0.952620 -0.467694 0.117797 -0.719386 0.570012 0.022238 -0.887105 -0.427439 -0.774384 -1.128516 0.573256 -1.053925 0.166223 -1.047693 -0.165689 -0.483636 -0.323497 0.192571 0.767308 -0.543320 0.070154 -0.422914 -0.920830 0.729878 0.674696 0.486216 -0.808395 0.638189 0.691519 0.117282 -0.654291 -0.243903 -0.752505 -0.502344 1.232514 0.399744 0.591002 0.645259 -0.029011 -0.101703 -0.734689 0.643881 0.776698 -0.318480 -0.626322 -0.853743 0.486421 -0.191502 0.210881 0.340723 -0.061060 0.691088 0.474686 0.781100 
0.475181 0.844556 -0.523906 0.322861 -0.506746 -0.347598 0.509659 0.085470 0.115550 -0.825917 -0.293804 0.359047 0.666449 -0.404236 0.225233 -1.004942 0.502489 0.399289 -0.662888 0.810881 -0.518589 -0.054601 -0.748369 0.484346 -0.131805 0.462917 0.816316 -0.063973 -0.820812 -0.425804 0.015398 -0.418882 -0.748809 0.179101 0.479220 0.257912 -0.665120 0.297741 -0.623607 0.323823 0.248724 -0.896432 0.420044 0.838965 0.785312 0.549284 -0.096069 -0.472307 1.213446 0.895289 0.211777 -1.242873 -0.300751 -0.554055 0.685512 0.090290 0.603737 -0.676712 0.713400 0.881213 
0.569578 -0.650838 0.785758 0.997472 0.231246 0.831179 0.444327 0.422956 -0.427250 -0.211771 0.794902 -0.642241 -0.350496 -0.176532 0.356595 -1.182701 0.726448 -0.824810 0.891045 -0.054939 -0.144948 0.423827 0.446742 -0.350132 0.236255 -0.977158 0.306468 -0.600072 1.000745 -0.440630 -0.750116 0.487463 0.048964 1.265692 -0.443053 -0.685543 -0.221545 -0.096774 -0.371925 -0.873277 -0.917066 -0.894989 -0.571143 0.370309 0.610288 0.244250 -0.103915 1.111511 -0.145007 0.814589 -0.353314 -0.764039 -0.583990 0.570035 1.026426 -0.339814 -0.552834 0.733971 0.681104 -0.323697 
