-0.600964 -1.811506 0.161247 2.143960 2.346158 -2.005346 0.756205 2.372960 1.420382 -1.406778 -1.347397 -1.615447 2.181417 -0.146990 -0.317461 -2.556327 -0.940162 -1.184113 -1.516044 -1.514156 -1.930494 -2.623775 -1.171250 -0.594898 0.731537 -3.909981 
-1.123849 0.513159 -0.000064 -1.241415 0.135133 -4.275175 3.388006 -4.063372 1.881124 -3.077173 2.188361 2.474825 0.806958 -0.992768 0.141148 1.806052 5.247538 0.381210 -1.783761 1.950792 -4.434485 -3.784461 0.672420 -1.047250 -3.411007 -1.931927 
1.715116 2.281734 -0.456785 -0.849472 0.618877 1.458626 -0.639278 1.245060 -0.218602 -0.614153 -0.089739 0.169628 0.163974 -1.221155 -0.869551 1.504360 -0.543806 -1.070986 -0.962098 -1.006567 0.120270 0.104032 -0.845874 0.837966 -0.185276 0.777627 
1.447853 -2.225286 -0.577839 1.520290 -0.352241 -2.915026 2.233570 -3.000966 -1.420955 -1.235644 1.422386 -2.859329 -1.788404 -1.629470 0.531244 -1.377251 -1.022141 -2.506638 0.598591 0.723189 -0.815996 -1.169036 -1.250427 0.471862 -0.097330 -0.726753 
-0.237868 -0.880275 0.084866 -0.232894 0.749454 -0.474240 0.433592 0.352617 -0.859159 0.430771 -0.540186 0.613821 0.817743 -0.746478 0.590772 -0.268732 -0.467454 -0.622839 -0.035977 0.562651 -1.045228 0.188462 -0.046693 0.578122 0.046387 -0.999731 
-0.638135 -0.240840 -0.703308 -0.302413 -1.963162 0.425608 -0.910821 -0.469846 -2.033579 -0.264866 0.294402 -1.074794 0.146381 -0.354629 -1.046628 -0.023108 -0.560403 -0.305298 -1.079038 -0.254583 -1.210889 -0.461102 0.288472 -0.309418 -0.294262 0.383806 
-0.924149 -0.510107 -0.836689 -0.614917 -0.878860 -0.399364 -0.624459 0.235523 0.217014 -0.699961 -1.514351 -0.751521 -0.047995 -0.035664 -0.059457 -0.360193 -1.022903 -1.159123 -0.133358 -0.887144 -0.554789 0.207860 -0.252294 -0.207528 -0.677825 -0.408532 
2.310943 3.898343 5.542304 -2.811792 5.548065 4.189106 2.472098 -4.183767 2.880491 1.036249 -2.454866 -2.663356 -2.363329 -2.761952 -3.039042 1.199687 -0.619710 -0.238372 1.653922 4.690404 -2.344762 -3.956004 -1.725260 -3.568613 -1.501976 4.101825 
1.749495 1.036614 -2.881270 2.038527 3.549762 -0.923716 -5.124802 1.939805 -3.835164 1.382848 -2.968510 2.995277 0.165124 -0.409698 -0.105110 -2.309032 -1.189902 1.465306 -1.355266 3.102208 0.798765 -0.222456 -2.123571 -1.139819 0.557515 0.342004 
2.087132 0.415076 -2.676704 0.113842 1.598104 2.188004 -1.666560 -3.694661 3.106474 0.404950 -1.527424 -1.780286 1.809388 -3.390805 -2.804252 -2.007221 2.450753 -3.209859 -3.773689 2.165700 -0.991082 -2.746174 2.199620 3.116655 2.204256 -1.316728 
-1.652858 -0.091380 -0.490304 -0.148839 -0.498331 -0.655273 -0.847052 0.106483 -0.268157 -0.630487 -0.368199 -1.359469 -1.102615 -1.174075 -1.148257 0.486061 -0.176210 0.660971 -1.048472 0.189348 -0.868225 -0.593791 -0.286215 -0.861963 -1.021718 0.231227 
-4.126296 0.987820 -0.916596 -0.393764 -0.971818 -0.146470 0.569748 -0.420982 0.264041 -2.603494 -2.028301 1.223754 0.662839 1.444737 0.125391 -1.993673 -1.469478 -3.186987 -0.481771 -0.102220 0.253158 -0.205762 -1.966550 -0.115869 -0.233315 -1.648239 
0.122604 1.517380 -4.433315 2.457572 1.190935 -0.516581 1.990111 2.860672 -1.558569 -3.759737 0.042315 3.097126 -2.741430 1.236249 -4.782187 -1.451521 -2.872169 -1.617830 -1.401626 -1.835888 -4.242938 -3.010900 -1.907098 -0.720072 -1.881832 0.544744 
-2.124798 4.431978 -1.126166 -2.190368 2.154757 0.177754 -2.555693 -3.169170 -1.196074 -1.360257 2.592999 -1.975004 -0.440964 -0.468267 -0.207355 -0.994372 -1.072127 3.593861 -1.622344 -1.426591 -1.285977 -0.240320 -0.837376 -0.976217 0.158953 -1.729489 
0.391882 0.527440 -0.876258 1.477925 -1.146784 -1.121732 -0.259010 -0.151793 -0.016536 0.634467 -3.161798 -0.444155 -1.364752 -0.057991 -1.785427 1.275260 -0.805376 0.293501 -0.364344 -0.388227 -1.054748 -0.343629 -0.565738 -1.850292 -1.105989 -0.153218 
-0.214379 1.627179 0.007329 3.859106 -1.005548 0.338779 -0.580796 2.003626 -0.410367 1.869075 0.305627 -0.227949 2.108758 0.472964 -0.855461 0.913941 -0.509393 -1.121485 -1.464307 -1.435610 -0.137679 0.426276 -0.317997 2.277276 -0.719538 0.774625 
1.557010 0.948924 0.408047 -1.401252 3.736698 2.513478 -1.139830 0.383143 2.813958 -3.469640 -2.403354 0.729962 -1.009190 -0.700586 2.893976 -1.902594 1.974861 -1.723300 3.498613 -0.684468 -5.445084 1.230776 -3.197849 -3.289147 -2.790272 -4.234389 
-0.276890 -2.090674 -0.388702 -3.879656 -3.180724 -0.962144 0.295153 -0.599273 -0.929927 -0.536125 -0.727899 -2.060273 -2.034353 0.667381 -0.161836 0.990880 -1.071227 0.919385 -0.288883 -0.905331 -0.742127 0.869080 0.325008 -1.257423 -0.837738 0.357894 
-1.851311 -1.884025 -1.008902 -0.168092 -2.729111 -0.381549 -0.777364 0.310264 -2.161103 -0.651685 -0.936585 -3.095813 -1.341754 -0.838477 0.176916 -0.269609 -0.626523 -2.586167 -1.840277 -0.197537 -1.553094 0.357515 -1.385857 1.615295 -0.785799 -0.660926 
-0.348691 0.219947 -1.301862 1.342710 -0.806331 -0.047704 -0.182037 0.419899 -0.035085 0.225879 -1.679133 -0.767813 -2.908200 -4.650069 0.056088 -0.739130 -1.107424 1.567359 -1.295519 -0.719477 -1.009616 -1.304589 0.427033 0.360788 -0.619659 -0.706391 
-1.575759 -2.347237 0.216416 -2.738346 -1.037231 -0.486985 -1.788066 2.252322 -2.046536 -0.595109 -1.277808 -1.004054 -0.311062 0.859387 -3.342810 2.611235 0.031017 0.853113 -1.948911 1.696836 -0.253607 0.400859 -0.195090 -1.412753 -0.194786 2.374739 
-1.371313 -0.733706 -4.198388 -1.271504 -0.929322 -1.574777 2.293764 1.797733 -1.613767 3.848427 -3.314602 -2.744196 2.093499 1.026632 0.478366 2.084973 3.468061 1.745173 -2.920426 -1.579779 -0.057113 -1.490867 4.635966 -3.243775 -1.796797 -2.302797 
0.434603 0.100005 0.758128 0.578602 0.449340 -1.287825 -0.552754 -0.705854 -0.061703 0.174246 -1.196727 -0.439406 0.970826 1.064626 -0.209749 0.446280 -0.128925 0.493188 -0.000291 -0.121313 0.562440 0.008165 -0.913823 0.226850 0.360319 -0.780966 
-0.710851 -1.796729 0.101204 -2.291195 -0.174873 0.492746 -1.518979 0.595676 -0.922817 0.176312 -0.094168 -1.871154 0.333451 -1.018078 -1.083090 -1.019717 -0.426715 0.991394 -1.105702 -1.294561 0.235672 -1.328901 -0.487506 0.433997 -0.010902 -0.573565 
1.259987 0.463229 2.367226 1.711806 -0.639953 -0.412611 0.964173 0.291872 -2.869526 -3.580094 -3.423692 -1.710419 -2.392688 -2.033962 3.044357 -0.979601 1.636327 4.519965 -1.021685 -3.221993 0.446593 3.541154 0.755069 -2.797144 -2.604196 -0.397189 
1.993545 2.465366 1.926169 -3.472139 -4.059539 -1.634178 2.251491 2.990225 -1.744403 -2.231829 -2.352603 -2.137153 4.217495 2.800330 2.841597 0.812692 -2.962012 2.760202 1.804732 -2.299704 0.857435 -4.524789 -2.667554 -2.594966 -2.691078 -1.602160 
-1.226060 2.953720 -0.687397 -0.271866 -2.522668 -0.465382 -1.338811 -0.807445 2.024987 -1.756035 -0.929852 -0.692697 0.086374 -1.165872 -1.598249 1.284215 -1.977297 -0.284089 -2.188745 2.115011 0.164277 -2.910262 3.264849 -2.778594 0.214118 -1.044268 
-0.778161 -0.826853 -1.069065 -0.209741 0.117932 5.125016 -0.545787 -1.537872 0.505101 -0.185142 -1.989585 -0.449085 -1.007043 3.816955 -0.230943 2.378334 0.961111 0.359021 -0.664156 -0.664268 0.431009 -2.325635 1.237021 -3.939581 -1.424017 -0.125332 
-0.601822 -0.518276 -0.772959 -0.837859 -1.252926 -0.931488 -1.406974 -0.547835 -1.316045 -0.653722 -0.678088 -1.656273 0.042660 -0.668393 0.112201 -0.919422 -0.736611 -0.209829 -1.681622 0.428692 -0.293289 -1.044540 -0.306799 -0.405174 0.482037 -0.207303 
0.767051 -0.604791 -0.688824 -2.977614 1.818328 -3.070717 0.360249 -0.722994 4.162484 -2.241422 -1.937033 1.107159 -3.380180 -0.834048 -1.497160 0.173424 -1.628165 2.940321 0.144003 -5.007267 -1.572074 -3.394364 3.198592 1.074981 2.725558 -2.886123 
-1.127969 -1.887060 -1.413154 -1.997411 -4.364137 2.453346 -1.180697 -1.420596 0.331131 -1.114505 -0.006257 1.244821 -0.034164 -0.764766 -0.631263 -1.884205 0.602498 -0.051467 -0.370576 0.016309 0.094495 -0.738355 -0.302450 -0.186636 0.066746 0.943583 
-2.087108 -1.461778 -2.476893 -0.639713 -0.715127 -1.414667 -2.984506 -4.147864 -1.794602 -3.137093 -1.718991 1.924649 -1.599969 -0.706935 4.108148 1.914481 -2.155417 -2.908404 1.916758 -1.363142 -0.576720 -1.505539 -1.062020 -0.803856 -0.518808 -1.293890 
-1.562037 -1.914115 -1.807044 2.911222 -2.937517 2.697702 -2.282246 1.679461 -0.011086 -0.620524 -0.937626 3.406699 -1.625931 -0.548020 -2.232659 3.906052 -2.425108 -1.850142 -1.726844 -0.730541 0.619634 3.269975 3.916428 -0.967408 -1.490242 -1.332584 
0.795065 -2.506384 -2.509406 0.983954 0.686629 -1.648674 -2.776556 1.557577 0.851659 -1.228501 2.435423 -2.651420 2.362364 1.438104 -1.994821 0.688906 -2.556553 -2.978234 4.063682 -0.359849 -2.381812 2.182860 1.099378 1.102643 0.113962 -2.961532 
-0.812949 0.177534 2.320594 -3.747698 3.929770 -2.336444 -1.849195 0.888499 1.538171 -1.273915 2.591964 2.562529 -1.140501 -1.294755 -4.082012 1.907851 -1.125984 -1.538675 -2.810112 -2.431295 -4.048202 -2.931257 -1.797005 -4.411716 -3.082692 4.115241 
1.846190 -1.761669 -3.220986 -0.784784 0.425128 1.075332 0.627053 2.719585 -1.418649 -1.064434 2.064838 -1.465608 1.556221 0.641190 -4.223041 -0.979300 0.633428 -2.114330 -3.140678 3.907942 -0.964331 2.284894 -3.618913 -5.487407 2.988561 -2.716936 
-0.168912 0.378107 0.450698 -0.453472 1.246588 -1.055856 0.608010 -0.311574 4.926634 -0.513519 -0.493883 -1.370029 -0.317712 -0.653597 -0.106367 -1.289325 0.773469 0.574457 0.613794 1.178149 0.525690 0.992732 -1.119307 -2.318839 -0.743852 0.231212 
-0.007963 1.557203 0.330375 -0.232354 0.137070 -0.199414 0.365051 0.013871 -0.005100 -0.751027 0.605675 -0.503812 -0.491913 -0.543863 -0.445629 -1.948262 -0.605961 0.828422 0.568216 -0.019505 -0.387554 0.327530 -0.514146 1.397254 -0.120990 -1.047661 
-0.697858 -1.286525 0.127103 0.875309 2.719874 -3.830958 0.184473 -2.019804 0.038886 0.572248 1.293837 0.047796 -2.476911 -1.617603 -0.093210 0.463758 0.032271 -1.707799 1.714127 0.441029 1.116303 0.268068 0.388706 0.489537 0.817604 0.802131 
1.586131 -1.277222 -0.236322 1.372377 -1.835729 -1.091166 -0.961084 -0.499089 -0.055077 0.007716 0.297131 -1.597300 -0.051238 0.925948 0.069132 -1.434814 -0.783404 2.812784 -0.614032 -0.945687 -0.510488 -0.105131 -0.594514 -0.010983 -0.719688 -1.974128 
-1.341979 -3.775370 -2.096717 -2.184511 0.900036 0.870829 3.284880 -0.768800 0.882516 0.409543 4.645576 -1.445870 -2.579991 3.423632 -2.573999 -2.495626 -3.597533 2.409575 3.627107 -2.782716 -2.361775 1.624193 2.096022 2.262884 1.945910 -2.702619 
0.367187 -2.914167 0.133707 1.230058 -1.406774 3.171934 3.062624 2.550286 -0.933056 -1.715292 1.761662 -1.771517 2.919361 1.277314 -1.621505 -1.463986 -1.020116 -2.717326 -0.302687 -0.778712 -1.374397 -1.473122 -0.241219 -3.366505 -0.660939 3.001794 
1.454316 -1.001677 3.365557 2.698616 -1.350538 -1.614447 1.809471 -4.249335 -0.310418 4.404494 0.688124 -1.446003 -3.598742 5.441088 1.832633 -1.803608 2.302326 -4.767158 2.338485 -1.840520 3.844323 -5.308502 -2.367249 -2.091133 -1.992507 -3.262798 
-1.332817 -0.877331 -1.524030 0.448902 -0.921271 -0.540411 -0.720685 -1.589559 -1.301012 0.467686 0.139584 -1.527259 -0.699460 -0.664745 -1.590995 -0.608242 -1.306247 -0.219957 -0.169830 -1.538167 -0.428910 -0.354198 -1.201110 -0.839894 -0.792727 -1.218081 
-1.082989 -3.630683 -1.231486 -0.106153 -0.346546 -3.001639 -1.777457 0.502443 -0.115397 -0.758672 0.577366 -0.600862 -1.093070 -3.271422 -0.653657 -0.262675 -0.357595 0.148281 -0.689229 -0.524679 0.315555 0.376877 -1.204835 0.120343 0.751230 -0.906321 
0.087124 1.018402 1.609958 -2.049440 -1.487791 0.604074 0.452314 1.145559 -4.254712 3.923830 2.805128 3.092364 0.658653 -0.703939 0.119216 -2.893811 1.142684 0.585668 -0.282315 -0.406961 0.413980 3.760845 -2.209082 2.098296 -5.671140 -2.130942 
-1.051611 1.930954 0.993485 -1.221968 -3.742859 -5.474183 0.027152 -3.497385 2.283623 3.206411 -1.388065 3.112111 2.511760 -1.945194 3.138735 1.440563 -4.053885 -2.497435 2.746235 -1.102917 -3.288312 0.135378 -2.762941 1.616657 0.154857 1.389954 
0.117119 0.615609 -1.655033 1.193474 -0.924450 1.377003 -0.962383 0.216292 -0.555563 -0.109338 0.857522 -0.646175 0.337453 -0.903713 -2.027644 0.711302 -0.555460 -2.434425 -0.992881 -0.824203 -1.862205 -0.662980 -0.144250 -0.384087 -1.588298 0.102020 
3.362969 -2.305901 -1.700393 -1.002656 -0.877315 -0.353310 2.138577 2.080943 -0.162894 -3.209847 -1.402410 -0.964036 0.333838 1.390399 -2.051988 -0.954748 -0.918896 -1.510988 1.344669 -2.255682 -1.987301 -2.584949 -0.422486 1.738610 -4.786974 -2.919294 
-1.550932 0.855318 -0.788933 -0.144401 -0.077909 -0.715616 -0.176126 -1.043219 0.079084 0.274761 -2.192775 -2.097641 -1.047562 -1.527809 -1.189968 -0.632976 -0.403479 1.026021 -1.596566 -0.663586 -0.359796 -1.479133 -1.005955 -0.369564 -0.895915 -0.702510 
-0.431315 -1.300297 -1.064222 -2.226860 -0.163066 0.309576 0.017234 2.005567 -0.435666 0.268021 0.230748 0.597245 -0.762562 -0.697669 0.897212 -0.158740 -0.450545 -1.272312 0.246058 -0.485645 0.108861 -0.793908 -0.294928 -0.191754 -0.664914 0.669077 
0.124858 4.277950 -2.915188 -0.459831 2.968692 -0.540001 0.421717 -2.281615 0.205797 -2.022716 -1.681365 -0.378075 2.475151 -0.755370 -2.867342 -3.220045 -1.357553 -1.940720 -2.869651 -0.048211 2.650490 2.330822 -0.899132 -0.942680 -1.416524 -3.748487 
-0.884832 2.494308 2.690594 -0.683541 2.443718 2.707513 -2.705562 2.065053 0.224936 -4.072389 3.876290 -0.690785 -2.205511 -0.782321 -1.322409 2.104985 -3.111740 0.211619 2.621482 -1.977888 3.671836 -1.796291 -2.010002 -2.540145 1.476033 -1.845135 
1.062606 -3.735453 -0.348755 -2.168369 -0.725245 1.112177 -0.347578 -2.255219 0.097811 1.866854 0.899660 1.529684 -1.739592 1.906342 1.662159 -2.110266 -0.223387 -4.046768 1.201710 -0.606759 2.963626 1.698359 2.905874 -1.473978 -1.089110 0.581062 
-0.764433 1.955723 0.599534 0.924554 -2.748731 -0.752681 -1.317887 -1.849374 -0.655804 -2.122807 -1.489335 0.602369 0.371522 -1.757541 -1.971303 -0.327750 2.496641 -2.492182 1.244916 -3.203446 -1.132992 -1.564212 -1.257192 -0.718944 -2.911806 -1.875300 
-0.784677 -1.188589 -0.280017 3.689160 -2.005500 -1.598890 -0.547835 -2.758758 -2.412238 -3.632844 0.035299 -2.004081 -0.832160 3.250950 -0.533981 -3.361352 -2.021710 3.114112 0.435061 4.083163 -0.389467 -5.752895 4.055633 -3.834460 0.623087 -0.579691 
-1.625492 -0.044527 0.149766 -0.653000 -1.560363 -1.216208 -1.444113 -1.312047 -0.418966 -0.187842 0.221366 -0.680620 0.609740 -0.451518 -1.240240 -1.334247 -0.252073 -0.131261 -0.863707 -0.029805 0.028996 -0.714752 -0.223599 -1.212429 -0.087512 -1.281669 
-1.976524 3.160343 -1.289988 -0.421275 -3.412007 0.014203 -0.330850 -2.551152 0.017964 -1.848983 -3.624020 0.360559 1.463299 0.410521 -0.234113 0.040346 -1.056035 0.076518 -0.467298 -2.587683 -0.805308 2.524810 -1.563254 -2.039067 5.078521 1.185563 
-2.617173 -3.885081 2.949287 -2.733459 2.794397 1.880977 0.634967 -2.989131 -3.301457 -3.028618 1.105458 0.987820 2.447826 1.035107 2.187528 -0.008948 1.449445 1.449616 -4.427624 1.746227 2.684649 0.785274 -3.305048 2.379329 1.329598 -2.309478 
4.338002 0.348797 0.012241 1.011774 3.439223 -1.673248 -2.265721 1.949823 -1.846364 -3.304553 -0.854075 1.959720 -1.704342 1.943376 -1.678791 -1.430682 1.732053 -1.556742 -3.529856 -2.299119 -0.666007 -3.711670 1.632584 3.050910 -1.776811 4.775720 
